1352 50
， 0.009167163 0.017606903 0.00860619 0.009621682 -0.0025377683 0.004947521 0.011492718 0.0015448518 -0.013295032 0.015774775 0.005826123 -0.0143782515 -0.018389754 -0.0032700785 -0.016255874 -0.010076335 -0.0064338064 0.010960452 0.0085283555 -0.0006229691 -0.011713586 0.0088323 0.0076935496 0.0115554 0.011162577 -0.007918911 0.011702735 -0.007000439 -0.011215319 0.013600618 0.01658031 0.0128466375 0.008815832 0.0043987967 -0.0072469404 0.0030514933 0.0143231 0.010967134 -0.017121444 0.010181077 0.008159911 0.013811555 -0.0067215106 0.00013131462 -0.0108236 0.014429279 0.0033172984 -0.01985497 0.010428574 0.017551664
子 0.008238846 -0.018396905 -0.0021504052 0.00042590126 -0.012001429 0.0070431493 -0.0064758845 -0.006510146 0.0044854973 0.006764794 -0.0047039054 -0.011323101 -0.017204797 -0.0119211525 0.0021127146 0.010110995 0.008154174 0.0014173072 -0.0033762306 0.006469384 -0.019401038 0.005302543 -0.014453081 0.0045566633 0.008971069 -0.0036806185 0.0067260787 -0.010831284 -0.009787681 -0.017692855 0.0015005283 0.012164086 0.000823373 -0.0018526837 0.015126374 -0.0093981335 0.0030752998 0.01687207 -0.0122724455 -0.018332316 0.00023647025 0.016096734 -0.015309507 -0.007131691 -0.0011897683 -0.0044241687 0.0063699204 -0.004121961 -0.016347663 -0.016018927
。 -0.0059246058 -0.012189677 0.013463628 -0.011147127 1.7339364e-05 0.013729673 0.0181906 0.004960932 0.008845637 0.003480738 -0.017888982 0.0040383823 0.010736579 -0.018124674 -0.01716333 0.010805657 -0.015879758 -0.013597505 0.006193487 -0.019615836 0.0071293917 0.011507139 -0.011470379 -0.008538308 0.017920796 0.008178474 -0.017963361 -0.0065438105 -0.015484335 0.018113766 -0.012501648 0.011055289 -0.019404296 0.0034123994 -0.0053260326 0.00070056506 0.0037119072 0.0043117516 -0.014105603 0.008505411 0.0100254435 -0.006556713 -0.001652794 -0.0021652635 0.003219815 0.013303418 -0.00902245 -0.015828412 -0.014461936 -0.004536641
： -0.006028888 -0.019596402 0.0007833559 0.0040312484 -0.0073325178 -0.0011392776 0.01770543 0.0041342303 0.013431929 -0.0006716065 0.01448134 -0.010866456 0.0039668754 0.007241469 -0.014919703 0.016364563 0.016211104 -0.019589968 -0.005887232 0.003740739 -0.002447011 -0.0032054838 -0.0037640836 0.018978339 -0.0006996766 -0.007914349 -0.010794952 -0.010616219 0.017800208 0.0036386251 0.00049444847 0.00064556114 0.0018501133 -0.0054340884 0.011624008 -0.018502286 -0.0063044876 0.016496133 -0.015422769 -0.015665209 -0.019807493 0.00023548678 0.003817184 -0.0039122365 -0.006157227 0.017380908 -0.008964817 -0.015707012 -0.016476411 0.019994706
曰 -0.018607933 0.018263344 0.017273374 -0.0061721774 0.019152265 0.008140948 0.0037634708 0.016396917 -0.0042429417 0.014958724 0.0037361123 -0.012483733 0.014517408 -0.018437712 -0.0014815386 -0.0038252398 0.015292283 -0.003484495 0.0055101626 -0.00083923154 -0.017150285 -0.014294896 0.013309408 -0.010359678 -0.00219029 0.0064435787 -0.009536974 -0.0031414274 0.013593532 -0.019916255 0.014397062 0.01584797 -0.0031342674 0.0053596273 0.010503616 -0.013447482 -0.011074376 0.019159406 -0.017882595 -0.0041136686 0.01964219 0.018977117 -0.014979858 0.013068125 0.011894427 0.0054327566 0.010311799 0.0017946716 0.009043414 0.0022273827
之 0.008679349 0.013765041 -0.018251082 -0.005497477 0.007559046 -0.0062958403 -0.006804905 -0.017060906 -0.0023095068 -0.007524836 0.011837311 0.01619405 -0.003851369 0.005722126 -0.0011348221 0.011665408 -0.015887925 -0.010384161 0.0141705945 -0.01627351 -0.00021887012 0.00026560947 -0.0009995438 0.0012360457 7.5308606e-05 0.01091568 0.0043937173 0.011847325 0.006770227 0.002897799 0.0012088306 -0.018862812 0.00815475 0.0022006724 0.019513711 0.00902484 0.007941727 -0.0007252246 0.011441812 0.017116852 -0.0030431207 -0.012921123 0.018791154 -0.01898284 0.0066751223 0.003497593 -0.008691525 0.0047541354 -0.015569441 -0.0056524463
不 -0.016049776 0.011115791 -0.0063016033 0.0076603815 -0.0020723324 0.0129623115 -0.01991864 -0.0005530063 0.015045412 -0.015675597 -0.0192048 0.015077665 -0.01130831 0.0013955608 -0.0017695352 -0.007789728 0.006847594 -0.004605131 -0.013816215 0.0074854493 0.013502803 -0.016568854 0.010444788 0.00876214 -0.0057908315 -0.013719635 0.019775108 0.004420329 -0.0065849423 0.013595741 0.0009918548 0.0034133606 -0.009222138 0.017337464 0.0127344765 0.00829752 -0.017579667 -0.006808929 -0.019771988 0.005971629 0.003328843 -0.004491985 -0.007811701 -0.014615712 0.013833933 0.0075279158 0.008227697 0.0065245554 0.01807174 0.00441261
也 -0.00039683096 0.0070229843 0.006961625 0.0045958944 -0.00012917817 0.010674212 0.009864755 0.0028639361 0.01520272 -0.0016167909 -0.017974738 -0.0043066815 0.011181505 0.0016897414 -0.011111681 -0.011481447 0.009993084 0.007861007 -0.006958156 0.017553441 0.0033930857 -0.009646375 -0.010387037 -0.0031465385 -0.003431758 0.0075552296 0.0029006582 -0.018397478 -0.013351349 -0.009943218 0.011168148 -0.0062458655 0.019735105 0.015891012 0.018645667 -0.0024052188 0.013519451 0.0027692933 0.0114084035 -0.011975405 0.0041591097 -0.017329575 0.012123518 -0.006582468 -0.002797978 -0.013386445 0.0047145337 0.018167842 -0.0005728863 -0.017374841
而 0.0124267 0.008577213 0.012812406 -0.0052937744 0.009034062 -0.018963141 -0.011484046 0.011373702 0.00849654 0.012197465 0.0100638885 0.014035158 0.009655645 -0.015856396 0.0018596742 0.0010685511 -0.005197337 -0.0028081462 0.005498262 -0.011553645 0.013550557 -0.008986082 0.009974623 -0.013367664 0.012975186 0.003971381 -0.004013486 0.012284584 -0.005806408 0.014906745 -0.014660131 0.011469949 0.00062501244 0.01384889 0.014412947 -0.007676756 -0.014808724 -0.00945286 -0.015707884 0.019857183 0.009620968 -0.006906881 -0.0149999 0.018036839 -0.01413044 0.005493017 0.015764829 0.01772752 -0.017645132 -0.01793275
？ 0.011376597 0.0015588123 -0.008680818 -0.004322311 0.014280017 -0.013162537 0.002754338 -0.008876278 0.006549852 -0.017229028 0.017077178 -0.009621033 -0.0036300253 -0.016439833 0.0039724894 0.013608284 -0.012860067 -0.01894796 -0.019324329 -0.015253553 0.016258527 0.0021582823 -0.00013673492 -0.0072353007 -0.00070066005 0.008850159 0.010410359 0.018728703 0.004270071 0.015539177 -0.011819989 -0.010488555 -0.00910506 0.008076906 -0.01518336 0.005423557 0.0076108575 -0.017357063 0.0033089947 0.0041334983 0.017933376 0.013285957 -0.004208695 -0.006047218 -0.011805727 -0.0116466135 0.015200954 -0.01486109 0.006251065 0.01943598
其 0.008563954 0.013855029 0.010086156 -0.016526839 -0.00435685 -0.014949655 0.01979772 0.0017849859 0.0026242714 0.011347715 0.005372962 -0.012592496 -0.0031383485 -0.019734066 -0.011413619 0.0064061917 0.0068016164 -0.005700078 0.008807277 0.016623694 -0.0047056368 0.0028639156 -0.014386229 0.010807551 0.0042531323 -0.004811866 0.010615395 0.00020135008 -0.012406375 -0.0033370592 0.009406118 0.008990049 -0.0077409167 -0.0003510639 0.010899385 -0.010786654 -0.0089393165 0.011808407 -0.016076833 0.016141735 -0.015691187 0.002749944 -0.011794579 -0.005098841 0.0046889614 0.017924257 -0.019643331 -0.017242396 -0.012187433 0.013364762
人 -0.001954712 -0.00948055 0.0007968005 0.0188425 -0.00637326 0.003670264 0.0062117893 0.015288819 -0.018904269 -0.008197355 0.010628218 0.013530891 -0.005556383 -0.016797936 -0.0011247452 -0.009864809 0.013101175 0.0029958375 -0.0040951613 0.016927127 0.015568856 -0.014933054 -0.0123282075 0.017817162 0.0033161156 -0.009031389 0.008422211 0.013710301 -0.016792025 0.0024633165 -0.018599767 -0.0025918577 0.0049475096 -0.01699963 0.00936598 0.0054364037 0.0114861205 -0.019612962 0.014744595 -0.00633007 -0.008719232 0.003609905 -0.015867043 -0.019739281 -0.010486498 -0.006271596 0.010010468 -0.012202902 0.0023268946 0.017825745
者 -0.0059862873 0.011492468 -0.008707195 0.019054357 -0.017506229 -0.018687397 0.0067095254 -0.013415279 0.009399073 -0.007233722 -0.0062776376 -0.003336804 -0.00057772174 0.01263408 -0.0015450381 -0.0037875548 -0.013893105 0.0029041711 -0.014277713 -0.006086774 -0.0074552586 0.017962266 -0.0113820145 -0.00055703893 0.017544396 -0.0017935783 -0.00045511685 0.011771724 -0.017284201 0.0032529756 -0.018690929 0.005174311 0.011931226 0.016335376 0.012854062 0.0073576383 0.013021812 -0.0003962107 -0.004055988 -2.2374094e-05 0.00030674413 0.019292165 0.014212351 0.0012488868 0.0056142528 0.013694838 0.010966951 0.0049805306 -0.015176393 -0.0060745142
以 0.01421196 0.017534133 0.016292173 0.008058682 -0.0047181174 -0.005839117 0.017918225 0.009178821 0.005379388 -0.018319547 -0.014812281 0.0074540097 -0.019776931 0.00069131143 -0.01700263 -0.0013209898 0.00026471913 0.01766963 -0.010965914 0.019674927 -0.011856498 -0.0030486174 -0.01613241 0.013515778 -0.005952592 -3.5211444e-05 0.011696521 0.019192975 0.015040141 -0.0059723426 -0.014497807 0.0031452272 -0.013376281 0.014659606 -0.01224488 -0.018360078 0.015157007 0.0162552 0.014097951 -0.015445659 0.018893026 -0.018721392 0.017155424 -0.0042841323 0.010923985 -0.005256598 0.010632727 0.0031773392 0.015184347 -0.011330742
有 -0.0023059603 -0.0058972836 0.005163934 -0.012287972 -0.0018171147 -0.004864745 0.010042679 -0.005713119 0.009585669 -0.0017717853 0.013190176 0.011471365 -0.007350535 0.0048040096 -0.004452183 0.008390818 0.0062552188 0.015859049 0.014455952 0.0038353894 -0.0058555724 0.009725055 0.006627707 0.007660866 -0.0037018117 0.0026156735 -0.015324342 -0.0064467927 -0.0071374774 0.010980763 -0.0021483973 -0.0016595703 -0.013359189 -0.014028413 -0.012791576 0.010400388 -0.01895489 0.0065457653 0.014286131 0.016536899 0.0131272115 0.015413094 0.014753591 -0.015646469 -0.0033718552 0.019791681 0.014640454 0.017696947 0.014446538 0.017844632
于 -0.016539361 0.008261755 0.008510863 -0.016368212 0.010508085 0.007300213 0.00896295 0.01791782 0.007604506 -0.004303394 -0.0073252274 -0.0013743825 -0.0031548198 -0.018232934 -0.014394436 -0.019204028 -0.015026281 -0.0020260569 -0.010065872 -0.0022857003 0.014896203 0.004303761 0.007448092 0.015422169 -0.016170165 0.009519629 -0.008946812 0.0041300487 0.008747935 -0.002146544 0.0015863236 -0.0003399998 -0.0045243334 0.018882263 0.017714415 0.003697209 0.015937187 0.0013336167 0.010294355 -0.008307671 -0.011819274 -0.01590909 -0.018352289 0.015459944 -0.011342781 0.013046518 -0.0011209194 0.0175125 -0.009196457 -0.0018516369
矣 0.013645235 0.011604112 0.012456231 -0.0133892605 0.009045498 -0.0011693295 -0.015692968 -0.0076420447 0.014665909 0.01085213 -0.0108409235 -0.016726563 -0.0102007985 -0.015913405 -0.011954491 0.007380547 -0.0021952726 -0.014223136 -0.0017294791 -0.009609294 0.016391087 -0.011253333 0.008273451 0.011556808 0.0072970763 -0.0055474974 0.008272264 -0.019992618 0.00640418 0.007303333 -0.006422946 -0.017708795 0.008323049 -0.0198441 0.015020408 0.014296327 0.01969489 0.0021012742 -0.018981647 0.0013923813 0.0053158477 -0.0040305145 2.2981316e-05 0.0047961045 0.012176357 0.0032527428 0.0046898145 -0.019491248 -0.00904927 -0.0013841204
为 0.011387143 -0.0101121375 0.014700845 -0.0066504925 -0.01320181 -0.00019741617 0.0070813876 0.019067127 0.018965453 0.011452902 0.0165184 -0.0127099175 0.014353953 0.001673488 0.018159416 -0.008117282 -0.019911356 0.003941683 0.014467541 0.016218618 -0.011726201 -0.003411265 0.014773559 -0.009426019 -0.015380661 -0.002112152 -0.008518838 -0.0064754244 -0.0075616594 0.01891753 -0.014438605 -0.019937713 -0.0024989583 -0.003577942 -0.0050157476 -0.0036863964 0.008646473 -0.009567158 0.011148149 0.017008644 0.0019687917 -0.0008254219 0.00801483 0.00078995526 0.0016724877 -0.0018701125 0.01941789 0.002755778 -0.013342256 0.014979247
君 0.012053937 0.0069680307 0.009992858 -0.016615836 0.0030369014 -0.0065072607 -0.0046947505 -0.019474186 0.0036141872 -0.014696471 -0.008311362 -0.013694305 -0.01885159 0.01714098 -0.015762517 -0.0150375245 -0.00026005693 0.01172654 0.011702076 0.013584945 -0.0068740053 -0.0018310715 0.0039736945 -0.019199321 -0.0047976607 -0.0020662788 0.014115255 -0.004229011 0.001447564 0.008360054 -0.0048998 0.009611063 -0.009938058 -0.011719748 -0.018885624 0.015847042 0.017140012 0.0032120403 -0.0005024597 -0.0072792936 0.0027051345 -0.013413248 0.00964603 -0.018262634 -0.017746119 0.01826968 0.003951365 -0.010612626 -0.007816562 0.0034034997
乎 -0.011700516 0.005650999 -0.0020866878 0.007476125 -0.004782741 0.0003450401 0.0137687735 -0.0015767701 0.008207941 0.018982712 0.000223374 0.012961648 0.0155586 -0.019453656 0.003944166 -0.0027209185 -0.012495205 0.01904929 -0.0182517 0.012063127 0.005032582 -0.018061606 -0.018945497 0.0017914493 -0.0071371216 0.015479188 0.0066192523 -0.011328558 0.010136323 0.017920762 0.0009633042 0.01531852 0.0034257602 -0.006042082 0.0049245786 -0.010561902 -0.00041757338 0.016766433 -0.0009998418 0.0008127503 0.014532294 0.01612454 -0.0142452065 -0.012493312 -0.005309255 -0.0053577684 -0.0046528457 -0.010985355 -0.003381908 -0.0009908024
可 0.01810227 0.0070289373 -0.0123713855 -0.013781166 -0.0150464345 -0.016222984 -0.0065601803 0.01762474 0.0066821575 -0.012752766 -0.009720092 -0.01390096 0.010070834 0.01309732 0.004872218 0.01410282 -0.0011317506 -0.017943393 0.0034528952 0.019796655 0.0056971256 -0.010285184 0.0017590169 -0.0032269545 0.0034291297 -0.01606793 -0.0058042314 -0.009912269 0.00017805398 0.009136574 0.004834676 -0.017841637 -0.0057518817 0.012021329 -0.00150734 -0.019799635 0.006032875 0.00220792 -0.01333399 -0.010073092 0.008977694 -0.019785617 -0.0054416247 -0.009390909 0.0010482259 -0.0007486399 0.01907247 0.018070813 0.01013227 0.0104679465
如 -0.008203306 -0.0017744042 0.009319309 0.016144384 0.013826791 -0.0015353784 0.013550602 0.0105462745 0.008964593 0.016631905 -0.0027571656 -0.015292892 -0.017253594 0.006781483 -0.010446264 0.01571789 0.00133764 0.0023255423 -0.0074498914 0.013372827 0.015380293 -0.008905168 0.0047272984 0.014703654 0.008354351 -0.013409989 0.0016687419 0.019671854 -0.0016835984 0.0051275846 -0.017671265 0.010298695 0.0028808117 -0.016262611 -0.0131860655 0.00765137 -0.016393187 -0.018630605 0.013187479 0.00648137 0.0030849688 -0.0066538025 -0.017359193 -0.011047835 -0.01869102 0.0028565172 -0.011968465 -0.018512098 0.0052158833 0.008254718
与 -0.019094616 0.018469661 -0.0016154498 0.014987502 -0.012349123 0.010375563 -0.018013282 -0.007398989 0.01313436 -0.018954756 -0.008443687 -0.011478481 0.009942671 0.01162431 -4.3153763e-05 -0.007499397 -0.012572567 -0.004209211 -0.006706571 -0.019596748 -0.00093425065 -0.0027984288 -0.008619807 0.018859137 -0.012495344 -0.0073214937 0.017323703 -0.0046973536 -0.01565057 0.018847905 0.006454546 -0.019038728 -0.0028357245 -0.0123401685 -0.00058618747 -0.0057156486 -0.018180417 -0.005651555 0.008514343 -0.017763704 -0.007844552 -0.010319724 -0.00679456 0.013832886 -0.015982006 -0.016662255 -0.015299328 -0.0016269311 -0.009965174 0.014068533
； -0.0007649213 0.010486143 -0.016294785 -0.0037468988 -0.009086227 0.010859696 -0.0024593081 -0.002089478 0.0148724355 0.0026584845 0.004751958 0.0034137517 -6.226078e-05 -0.0016360637 -0.013596234 0.0024473518 -0.0048809936 0.0018377453 -0.012821714 -0.0077855205 -0.003121974 0.006483238 0.012409478 0.012704194 2.8992072e-05 -0.0073034996 0.0013198759 0.0008475706 -0.0034984834 0.009939155 0.011841781 0.0062197 0.01272323 0.014605846 0.0025851391 0.01570636 0.0053745694 -0.009008655 0.0009932443 0.007732477 0.0197112 0.0054003205 -0.0007728357 0.008393189 0.0025862549 -0.007836289 1.0693446e-05 -0.00816011 -0.018342206 0.004219424
言 0.0020745583 -0.010820918 -0.013680489 0.01764042 -0.004529965 0.015308857 0.006065581 -0.014793214 0.0007178355 0.009096051 0.00166074 0.0010806769 -0.013032896 0.0026137307 0.0038189031 0.0065532364 0.0009329412 -0.015727334 -0.014263746 -0.019351928 -0.014588268 0.008038964 0.006022755 0.002116315 0.011417683 0.01211879 -0.0049468083 0.016798649 0.017981723 -0.0037431289 -0.0026133116 -0.016035816 -0.010165172 -0.009774268 -0.004969566 0.0072880387 -0.001287125 -0.0061341953 0.008218534 -0.0077447416 0.01212481 0.005626593 0.011704996 0.0030085053 0.013944436 -0.012746805 -0.013504255 0.0172055 0.013775874 0.004987087
无 0.0036170166 -0.019941086 0.018557262 0.009527981 0.011157004 -0.003483057 0.014122564 -0.0010286625 0.00244827 0.0052609295 0.0029852558 0.007023558 0.017110974 0.0028165225 0.00553317 -0.017263565 -0.0013541915 -0.0031728465 0.0061171968 0.004990272 0.0039761513 0.0024413783 0.0027612224 -0.0037372727 -0.0124646565 -0.001746878 0.008443393 -0.019853361 -0.014900076 0.014426153 -0.00024441257 -0.0047378326 0.008519001 -0.01545769 -0.015369747 0.010373909 -0.011059491 -0.0037765615 0.009467388 0.00028049387 -0.008726918 0.008037269 -0.014345519 0.0021323971 0.0134211 0.0076307654 -0.012211132 0.014896311 0.016432598 -0.0103903795
则 0.009142673 0.013360009 -0.0143241715 -0.005532274 -0.012853066 -0.01450314 0.008749293 0.001224339 0.008852961 0.018101323 -0.010196831 -0.016414763 -0.0038238056 0.010723224 -0.015642576 -0.017367756 -0.01583203 0.01378528 -0.0049807644 0.01820932 -0.004663625 -0.00018652156 0.019683972 -0.0072828196 0.01919968 -0.015532598 -0.009861424 0.017562523 -0.015626367 0.009904275 -0.01635441 0.00082655996 -0.013564428 0.019011632 0.0048210397 -0.019529132 -0.016799977 -0.01810248 -0.0065424247 0.00039768033 0.007094929 0.0126787685 -0.018490672 0.0044111814 0.014256507 -0.01670076 0.011710256 0.0013434235 0.0072504003 0.00023426488
！ -0.012411046 -0.019263254 0.018448617 0.010481345 0.006411886 0.0074985214 -0.0021586344 0.01060063 0.009001356 0.0012258478 0.00581157 -0.01752517 0.0048712753 -0.0076689553 0.0023834761 -0.014741008 0.0035925247 0.005030453 -0.016888566 -0.006878781 0.00562674 0.01994937 0.014971942 0.00024256855 -0.009656665 0.018189956 -0.01358895 0.010118442 0.005294146 0.019523598 0.013850272 -0.019210922 -0.010019235 -0.0027994458 0.0019771438 -0.017179247 0.015730288 -0.01618636 0.01627794 -0.011403372 -0.012286207 0.0041292086 -0.016404286 0.01724425 0.009193124 -0.01742062 0.017135922 -0.013709715 0.019827086 0.0003259629
问 0.018467944 -0.015881142 -0.012663786 0.009877177 0.0096002 0.011424616 0.0069148056 0.0054460876 0.008895889 0.0017062612 -0.01400236 0.002953902 -0.008601866 0.0040738583 0.0077009574 -0.0084729 0.007839397 0.011865843 0.0044081956 0.0051013343 -0.012715297 0.019211527 0.0069405213 -0.014172396 -0.013119878 -0.007268116 -0.007221372 -0.018502843 0.0151155405 0.016595714 0.017512117 -0.0004043635 0.007905571 0.003928082 0.017792914 0.0013574194 0.009088835 -2.6840717e-05 0.0135290325 -0.019092616 -0.012306148 0.004302647 -0.0027281307 -0.015338881 0.01554713 -0.008180184 -0.012833385 0.0012223367 -0.016881645 0.008561015
知 0.0059472267 0.019662634 -0.00046762265 -0.003655726 0.0067308135 0.0012612101 -0.0051894756 -0.0041236263 -0.0025666803 -0.018080162 -0.010645587 0.016157225 0.014442287 -0.01933391 0.013808776 -0.012117109 0.013987664 0.0037286058 -0.01295263 -0.016057672 -0.0011109263 -0.0035992172 0.016161244 0.018732123 0.01601002 -0.01863675 -0.019866433 0.003438415 0.006988248 -0.002313694 -0.011547711 0.0059760716 0.006201191 0.007125983 -5.263835e-06 -0.0118409535 -0.019898932 -0.011894977 0.018718213 0.010087762 -0.0030150693 0.01633767 0.0035391208 -0.014033975 0.007430339 -0.01166331 -0.01246565 -0.019916888 -0.0046528215 -0.0027504228
何 0.005591044 0.007842304 0.008527491 -0.004958446 0.0056304336 0.00610934 -0.005329632 0.019901477 -0.010776746 -0.011884673 -0.009117058 0.016319886 0.008333983 -0.005092783 -0.0109044025 0.008516531 -0.0129861375 -0.008804893 0.013178151 0.010619814 -0.0025469512 0.0030885693 -0.0023828074 0.015502203 0.011302631 0.012342807 0.0022726767 -0.002498515 0.012206458 0.012465738 -0.0121729085 0.01038566 -0.011368561 0.0035262592 -0.0022214968 -0.002869621 -0.001458494 -0.004367413 0.019485243 -0.010768616 0.019334 0.010291928 0.001377482 -0.016175848 -0.0052201366 0.014063835 -0.0007796902 -0.014222102 -0.0015986506 -0.005271392
吾 0.015737846 0.010896562 -0.007486918 0.0026922207 -0.009816818 0.0063574035 0.0007457845 0.013255753 0.006543765 0.0146634355 -0.006441352 -0.008244719 0.01867007 0.014448579 0.014391504 0.004590947 -0.0070771333 -0.015903568 0.002967691 -0.0077527883 0.0008693002 4.9760565e-05 -0.019803083 -0.0030306932 -0.008259468 -0.014224021 -0.0017205551 0.009256616 0.018123664 0.009194925 -0.015271692 0.011480559 0.014876831 0.011415713 -0.003307009 0.0067571662 -0.018051539 0.016638055 0.013823137 0.016623646 0.0051672496 -0.011162989 -0.006348543 0.0030115955 -0.0019771624 0.011059364 0.014796816 -0.0071459003 -0.004390518 -0.0041101035
仁 0.01195775 0.012127746 0.009933986 -0.013240628 0.013348352 -0.0019683596 0.017223306 -0.014191698 -0.009657924 -0.008763332 0.009549513 -0.0059042787 0.012446471 -0.017528415 -0.01844649 0.0017843824 -0.014279694 0.017913353 -0.0022757761 0.017274018 -0.019623714 0.014240153 -0.014465427 0.016974505 -0.0014450438 0.01720887 -0.013382606 -0.010942747 0.002624128 -0.016521882 0.017181605 0.009816671 0.012016434 0.0119632855 0.017684616 0.005014319 -0.01667075 -0.01064198 0.018076189 -0.013974614 0.00016111135 0.013856269 0.007983329 0.012009669 0.0046461914 -0.019674225 -0.008441537 0.014531497 0.019737128 0.018435597
夫 -0.016885223 -0.008621709 0.013704743 -0.018797783 0.009909125 -0.005829282 -0.011379714 0.018137675 0.00072601996 0.0059912205 0.0042325165 -0.006944094 -0.013976352 -0.009270989 0.0037446078 -0.016746402 -0.002721548 -0.012162556 -0.01877456 0.017784368 0.017348312 0.010401383 -0.0016093682 -0.0089103505 0.0017847475 0.0101125855 0.018993918 0.0076934956 -0.009631226 0.012535892 -0.01652706 -0.0021976903 -0.008999988 0.008747527 0.001843838 0.0069936365 -0.011883907 -0.010483091 0.008596078 -0.019876646 0.010231111 -0.0042761676 0.008727441 -0.00044191815 -0.005770619 0.000653252 -0.0056445953 0.007841019 0.012770481 0.01594814
、 -0.003948875 -0.007886598 0.010153385 0.008939598 0.004571691 0.016265068 -0.012683334 -0.010890319 -0.0020879563 -0.0043015834 -0.012657795 -0.006626513 -0.018780606 0.0012040511 -0.014715676 0.0016962793 -0.0026759673 0.011669323 0.0150756575 0.012971286 0.0018896405 -0.007840192 -0.009312527 0.0036282893 -0.009587791 0.0061092954 -0.018412024 -0.00050943904 -0.018923873 0.0048891213 0.00034025125 -0.013047743 0.016677745 -0.017441344 -0.009554136 -0.0006798953 0.0052442737 -0.013457703 0.012123615 -0.017687682 0.01974167 0.00012375787 0.00097603165 -0.010852814 -0.00408832 0.016137064 -0.016514575 -0.0064115645 0.012029644 -0.011121831
道 -0.018471882 -0.003316123 0.013377439 -0.017855601 0.003888866 -0.0063405894 -0.014781237 -0.015651362 0.011429526 0.014981616 -0.016790578 -0.007593427 -0.0064585973 -0.018212397 -0.0002891086 -0.016557457 -0.016063217 0.006077051 0.0140007995 0.01563508 0.0022406857 0.0027627759 -0.013423066 0.009425184 0.005955059 -0.0045552943 0.0060543306 -0.003436586 0.010019356 -0.012943775 0.008535568 -0.009707425 0.010215234 -0.017825255 -0.009126553 0.0072617307 -0.00024785846 -0.0040392056 -0.018483648 0.007912602 0.0077157356 -0.0027784128 0.011975709 0.0012866855 -0.0001754649 -0.013832606 -0.011362157 0.01867786 -0.0068281367 -0.017815618
焉 -0.019337088 -0.0098427655 -0.017207094 -0.004622047 -0.01855349 0.018001605 0.007360203 -0.013783516 -0.010690882 -0.0003170967 -0.007862174 -0.014828384 0.0156239495 0.0076948684 -0.003923865 -0.014192864 -0.0032999944 -0.011495075 0.0032296162 0.0019325446 0.008557085 -0.017238088 0.0059939865 -0.0045853658 0.017227937 0.018366475 0.006036386 -0.016374428 0.0069984123 -0.00014848448 0.006708326 -0.006981399 -0.0032365248 -0.008448028 -0.0069964863 -0.0088340705 0.0140269995 0.008223051 0.005120421 0.007912401 0.00901527 0.014560007 0.0074350312 -0.0123746935 -0.0065829894 0.01575657 -0.01918128 0.0049383584 -0.007628591 0.010638652
行 -0.007961252 -0.018821197 0.011516131 0.0034146085 0.008508496 -0.014235677 -0.00788759 -0.00015826896 0.0038276166 -0.0055061746 -0.015097473 0.019546777 0.013748113 0.015017193 0.012029059 -0.014645712 -0.015302993 -0.018582728 -4.8141927e-05 0.011302035 0.0098971985 0.0059104655 -0.014554693 -0.006944921 -0.017198445 0.0018002912 -0.0018302575 -0.018501114 -0.01511244 -0.009137227 0.017628402 0.017494444 -2.0459294e-05 -0.012447726 -0.010777778 -0.0080023715 -0.016423587 -0.004748759 0.019089632 -0.008407161 0.00501683 0.006880887 0.0043537207 -0.010369012 0.00042715296 -0.002978906 -0.0036955886 -0.004441144 -0.019957956 0.002856683
谓 0.01571678 -0.0043196753 0.01747287 -0.004160071 -0.01373985 -0.01745524 -0.007652023 0.018240549 0.0019363742 0.00313141 -0.003188258 0.01684666 0.019927531 0.016299874 -0.015579456 0.00057424046 0.00038182922 0.014246527 0.016350497 0.0046878867 -0.008602262 -0.008884396 0.00014846586 -0.015264265 0.0071614888 -0.018901858 0.0009451527 0.009938555 0.007412037 -0.010562565 -0.008780389 -0.013127801 -0.004426215 0.0098691825 -0.01391783 -0.0024627727 -0.0039158277 -0.0023680143 -0.017318457 0.017081253 -0.0012390465 0.0005457904 0.0057627317 0.003223149 0.01567458 -0.007499649 -0.00054831244 0.014307935 -0.016529124 -0.015315606
必 -0.0018602535 0.010691447 0.019340545 0.012743831 0.006979611 0.0063164774 -0.01644539 -0.008996889 -0.015685413 0.0006060768 0.017080054 -0.008756656 0.013155274 -0.010035608 0.01137634 0.015177418 0.0022528786 0.019041646 -0.006716962 -0.015045783 0.009153808 -0.01096018 -0.0097285295 -0.0012582857 0.016924832 -0.0036806632 0.0039037839 -0.014670767 -0.0016279314 -0.016501056 0.004008634 -0.00051572174 -0.0046422025 -0.0038379915 -0.018195415 -0.0052602002 -0.00037119165 0.014440443 0.01955514 0.015966386 -0.008694169 0.0050167367 -0.0027395803 0.007413296 -0.015094711 0.0074671283 0.0036996435 0.004684074 0.014078587 0.016486123
礼 0.0027065594 -0.017512713 0.0032691248 0.0038087144 -0.019516818 0.0056960247 -0.01970576 0.015212357 -0.0070646694 0.0033539888 -0.008059382 -0.015161958 -0.0030521508 -0.01646708 0.014492549 0.0061020292 -0.0040972345 0.00932703 0.0021963604 0.0017915014 0.011823062 -0.019873666 -0.015844896 -0.008221324 -0.005536468 -0.006589148 0.0012717824 0.007867932 -0.0025479048 -0.01851156 0.016006257 -0.009601838 -0.01688549 -0.013159491 0.011780702 0.0105041005 -0.004820301 0.001907032 0.011558987 -0.01839643 -0.017345296 -0.01056093 0.008152451 0.01409144 -0.0047642943 -0.0032510925 0.01986099 -0.005604148 0.016557518 0.009749243
孔 0.0021591876 0.009832777 -0.01983315 -0.0109354565 0.004359627 0.015638884 0.016488526 -0.016396465 0.005055921 0.00848401 0.018362299 0.00019830465 -0.0021684598 0.005626073 0.009584915 -0.018758418 -0.019317009 0.0052950867 0.013120573 0.0142667815 -0.0050768442 -0.0037795082 0.0127601735 0.01748221 0.01776462 0.0045598205 -0.010711846 0.012762357 0.018243387 -0.011622495 -0.0029362496 0.011241462 0.008805275 0.001296036 0.00922492 0.011888262 0.009880502 0.006672563 0.018751059 0.002230579 -0.0052181054 -0.01492263 0.015447486 0.013782125 0.0055337828 -0.00013956241 -0.0077796644 0.010618094 -0.0038911179 0.017163198
斯 0.004734786 0.0023277402 0.011785947 0.009923128 0.00854104 0.010767138 -0.01937811 -0.013369393 0.013258386 0.0013871305 -0.013055384 -0.013398843 0.017588101 -0.0043824622 -0.013501901 -0.0020858329 -0.0018565375 0.014557645 -0.011372437 0.015588436 -0.00751091 -0.013147527 -0.015439839 0.018571153 0.0057511423 -0.0015124865 -0.017330546 -0.003435867 0.012184061 0.017596807 0.019210104 0.01602197 -0.0044337558 -0.00051779114 0.018915955 0.00926563 -0.0039989445 -0.002795225 -0.017701255 0.018511605 -0.0027449075 -0.0010145623 0.016497262 0.0071702376 -0.01217855 -0.019938748 0.014942106 -0.012289893 -0.0067200465 -0.008944645
三 -0.0065713376 -0.0013108589 -0.0068511367 0.0034999754 -0.01747337 -0.016631827 0.0138363615 -0.0017372258 0.0064601544 -0.013276097 -0.007452977 0.011369657 -0.003870897 -0.0100331735 -0.012074451 -0.007119679 -0.0016997736 0.0033451263 0.008849785 0.007595474 0.015767876 -0.0017155595 0.010627784 -0.016750202 -0.012211451 0.01996956 -0.017627392 0.0111607835 0.019445937 -0.018625671 -0.0048962664 -0.0019720457 0.014104795 -0.0136804655 0.012240484 -0.014600771 -0.0018491577 0.0034489203 0.0019649286 -0.017198408 -0.007885832 -0.019413305 0.0060966425 -0.019468065 -0.006661444 0.011600379 0.002823092 -0.0054530688 0.0035709906 0.0007402729
能 0.009774407 -0.016776318 -0.017671112 0.014057718 0.009914696 0.013687316 -0.016792636 0.013067719 0.018634956 0.005512409 0.003441358 0.0062937587 -0.0127534345 -0.0065211244 0.013410382 0.019556198 -0.00044078752 -0.014444422 0.004606357 0.005387334 0.00854592 -0.005768094 0.012341674 0.004591996 -0.009460678 -0.0020322949 -0.004152689 -0.0070728324 -0.0076594586 -0.0041147843 0.01320865 -0.011965344 -0.0131508615 -0.013294775 0.017577946 -0.0099524595 0.008226311 0.0040487386 -0.018267158 0.008606935 -0.006297211 0.006848328 -0.018140607 -0.014781003 0.010106308 0.0047222152 -0.011996524 0.011837885 -0.010138767 -0.0069087455
见 -0.005937066 -0.002033092 -0.0054878592 -3.441982e-05 -0.0069192387 -0.014741163 -0.012624811 0.01749269 0.011626046 0.0042616315 0.009417744 -0.013763044 -0.012069843 -0.008013126 -0.019108722 -0.009461224 0.008266237 0.01302848 0.0051187687 -0.014839978 0.011006111 -0.01985432 0.015186723 0.0150306225 -0.017820878 0.014477018 0.011714209 -0.01975201 0.00407435 0.016615272 -0.000548888 0.0005957205 -0.016922908 -0.016530976 -0.011346958 -0.01751218 -0.0125577375 -0.0026091505 0.011851825 -0.012817452 -0.006437077 0.019490194 0.015005965 0.006875079 -0.0027183462 -0.016021136 0.014398802 -0.0074781915 0.013560504 0.00038917363
学 -0.0032967236 -0.01736395 -0.018956382 -0.019873517 -0.014208725 0.0014979411 -0.017014192 -0.013912444 -0.009709532 -0.011389217 0.016119197 0.012129895 -0.018409332 -0.018874448 0.009969585 0.013351392 0.00640543 0.017247453 -0.011200599 0.008587683 0.016841538 -0.0014617387 0.01174061 -0.01673719 -0.013613725 0.011630397 -0.011323189 -0.0056627793 -0.012912519 0.0055623576 -0.007643752 -0.018216476 -0.0070464797 -0.009881024 -0.0045652743 -0.019280562 -0.005843363 -0.008509691 -0.009357807 0.01004122 0.014381319 -0.0045374865 0.012356538 -0.007920301 -0.019116249 0.019562267 -0.0052530337 -0.008388028 -0.0055880686 -0.0016630664
事 -0.0011278614 -0.014655028 0.0037795138 -0.008502004 0.008022431 0.002960885 0.007528024 0.013793103 -0.0054017566 -0.019560229 -0.004457497 0.014457159 -0.0052499603 0.01939787 -0.014212688 -0.0061891964 -0.018364595 -0.01891361 0.016722709 -0.008627346 -0.0022266395 -0.0026121251 -0.010322864 -0.004220836 0.011648733 -0.010823354 -0.005346358 0.015979882 -0.0055544283 0.01618921 -0.010975144 0.015113194 -0.017391335 0.0199253 -0.0022355337 0.006173132 0.0037360955 -0.0022202022 0.0048507378 0.019752663 -0.007114901 -0.01017121 -0.010836365 0.01893583 0.015233178 0.005758848 -0.010699682 0.009779563 -0.01225547 -0.0042179283
是 -0.01416775 0.009183051 0.012318697 0.018181738 -0.017512277 0.0056422707 -0.017537938 0.00085350685 -0.011031093 -0.013815533 0.0123537 0.0097200535 0.0028997082 0.017037097 -0.0032633021 -0.013233838 -0.009420221 0.0039665475 -0.01587705 -0.0020731706 -0.014226024 -0.0053346986 -0.010879159 9.336509e-05 -0.002281597 -0.0056173205 0.009507829 0.009172492 0.01290131 0.004388077 0.004858602 0.0026294477 0.007857451 -0.007974371 -0.0074531836 0.0119082555 0.0072240233 0.007436091 -0.015436616 0.008875202 -0.0050294613 0.013769895 0.010530762 -0.0015160684 -0.005837269 0.019848567 0.018787261 0.004949007 0.01603473 -0.012009217
哉 0.017127782 -0.018919172 0.0043060537 -0.008574552 -0.0073859924 -0.0015168805 0.008614453 -0.006364219 -0.008550555 -0.0016998146 0.0075975507 -0.011470644 0.017708454 -0.0060103824 -0.008610618 0.01782994 -0.01333476 -0.013253469 0.0140142925 -0.017572507 0.010011323 0.001646325 -0.011099114 0.015259925 -0.014407923 -0.017112518 -0.0029223152 0.019398727 -0.004312627 -0.017448675 0.00029232726 0.009279288 0.009027133 0.013668176 -0.002142243 0.00771264 0.014764007 -0.015271194 -0.0009799749 -0.0151031185 0.01520738 -0.0058315946 0.018588193 0.019036643 0.004226627 0.01702357 0.0034668539 0.018137675 0.0032269266 0.0071069878
闻 -0.0074557997 -0.017551005 -0.0055985143 0.018333796 0.01820691 0.0057426244 0.018791135 -0.013031237 -0.016805975 -0.016198713 0.01914772 7.1264803e-06 -0.008448541 0.0094191525 0.014998496 0.0076535456 0.016266633 0.0043131653 -0.01600264 -0.0064431857 0.0031180233 -0.014454021 -0.009956708 0.0028359983 -0.0016640183 -0.014392685 -0.010384641 -0.012975687 -0.012320751 -0.0028095432 0.015605517 0.018398147 0.017639745 0.010918055 0.01945652 -0.007451634 -0.0012613889 -0.008646166 -0.0017233975 -0.011537127 -0.0033867955 0.016771756 0.0032443013 -0.010639262 -0.017381797 0.00045141205 -0.013497677 -0.019532943 0.0067785457 -0.008819241
未 0.0029481482 0.0110960975 -0.0061502457 -0.0036626551 0.00057980604 -0.0012321621 -0.008899753 -0.019538786 0.017730445 -0.016468452 0.0020547602 -0.0067012263 0.0070442837 0.015897382 0.009405537 -0.012811162 0.012128655 -0.0005494263 0.009436771 -0.012651708 0.0054077487 -0.007018297 0.004880121 -0.00729357 0.016418573 0.012505837 0.016601678 -0.0049637863 -0.0069228336 0.01664193 0.005684022 -0.00021605007 0.0064945724 0.015062068 0.01938117 0.018110938 -0.009393732 0.008099396 0.015761223 -0.018191554 -0.00046378188 -0.0005766768 -0.01845118 0.009653732 0.0030814763 -0.01801388 -0.0073487805 0.0036379192 0.013242751 0.012129176
公 -0.013685155 0.019714002 -0.0016947724 0.009213703 0.012628857 -0.015238782 -0.016713265 -0.012795777 0.006444389 0.0019391868 -0.0029554982 0.011479832 0.018680144 0.014440283 -0.017084602 -0.0021716468 -0.01218188 -0.009902353 0.005343087 0.009165246 0.008260665 0.007955553 0.0023108572 -0.004281316 0.019629877 0.0066935103 -0.014032127 -0.010027172 0.0033988636 0.012266595 -0.013991926 0.01422175 0.0155434795 -0.015060818 0.0050639957 -0.018613478 0.012346409 0.019120231 -0.0047044447 0.01947439 -0.005976498 0.016661037 -0.009862451 0.0022820123 -0.015287046 -0.008762946 -0.008769657 -0.009490566 0.009867763 -0.010882647
好 -0.01326476 0.011099312 -0.017942816 0.0038708653 0.0028048512 0.019314524 0.019276291 0.0005322322 -0.016402526 0.011769656 -0.018952664 -0.011583912 0.013906397 -0.002503913 -0.0022748988 -0.013435211 0.017948907 0.006192377 -0.012211089 0.016509283 0.012060095 -0.012621414 0.010516528 0.011844706 0.018647429 -0.010224538 0.018960875 -0.005460513 -0.00044685602 -0.013690803 -0.0031829216 0.011214342 -0.011460468 -0.015089752 0.017304037 -0.019829025 0.016384803 0.009698767 -0.01538321 0.0055013187 -0.013616309 0.017986424 0.0054963976 -0.0019051842 0.01125567 -0.016167134 -0.006291897 -0.00641567 -0.004433403 0.0048360676
我 -0.011201029 -0.008322013 -0.016031234 0.0062558 -0.008991246 -0.0042030755 -0.012934115 -0.017470822 -0.0073989704 0.0108702555 0.016166463 0.019048337 -0.013243196 -0.010259557 -0.009309315 -0.0072824787 -0.0055704713 0.0002813246 -0.0054046605 -0.01803347 -0.019090297 -0.005499305 -0.018340107 -0.014389373 -0.00965585 -0.016065957 0.014607128 -0.019480374 0.018125877 0.002689084 0.012416668 0.0115258135 -0.0109512545 -0.0013741143 -0.017678162 -0.003608048 0.018968336 -0.018269027 -0.0016307123 -0.005493312 0.012622699 -0.0153100295 0.014501687 0.0068462566 -0.01355632 -0.01984105 -0.0073153134 -0.001350021 0.005733313 -0.0119367195
路 0.016209446 0.0033057667 -0.0042998176 0.013284553 -0.006339657 -0.013131347 -0.007251811 0.009781206 0.008729206 0.010066031 -0.009979386 -0.00902926 0.0115431845 0.017206904 -0.0009757001 -0.00424462 0.0042188857 0.0061940625 0.007103054 -0.0070786113 -0.018315203 0.00031432323 0.005940618 -0.013657205 -0.0014847275 -0.01625574 0.008838685 0.0059750583 -0.013259058 -0.010181548 -0.011811852 0.003935583 0.00028028712 -0.01912303 0.0027534384 -0.0024360754 -0.011447899 0.0017538406 -0.018462569 -0.0021625515 0.004748147 0.004748633 -0.007232573 -0.0064777965 -0.0140716005 -0.0034395773 -0.016327571 -0.009489324 0.016500913 -0.009566028
在 0.0015043337 0.011937089 -0.008680384 0.015503395 -0.0017567482 -0.007038584 0.0012164563 -0.0142242145 -0.0044415826 -0.008049698 0.019531935 0.007061893 -0.009066924 0.019184902 -0.013870721 0.0046239775 -0.012713034 0.013097741 -0.007729511 -0.011220598 0.018684398 0.009784896 -0.009334083 0.015000232 0.01796401 -0.0023798589 0.00558017 0.00065381266 -0.01690862 2.040714e-05 -0.0117051285 -0.015456886 -0.008400853 -0.010749559 0.019346517 -0.018867224 -0.0033900551 -0.009837019 0.012095511 -0.013430793 0.003688585 -0.0094468715 0.00402523 0.0012990478 -0.0014811996 0.009915883 0.01345893 -0.01953006 -0.003519848 0.00955811
已 -0.01587445 0.013166077 0.015233353 0.016585112 0.011027429 0.01994428 0.011085423 0.018995732 -0.0030967016 0.00013147667 0.0045792814 -0.0117002195 0.00847006 -0.010130407 0.015476938 0.014548272 0.00421525 -0.011454892 0.014825277 -0.0052167363 -0.018280808 0.010296531 -0.010672576 0.012406349 0.0023223907 0.012163997 -0.011414647 -0.013274524 0.019161291 -0.018640995 -0.0012355782 -0.014975638 0.007373914 -0.009711947 0.005132746 -0.018150672 -0.0010645874 -0.015143852 0.010292457 0.014469869 0.0010075979 0.016512293 0.010251487 0.010060782 -0.008270144 0.01809023 -0.018260678 0.016353246 -0.016641645 -0.012293753
得 0.0009132456 -0.016733237 0.018622369 0.008292709 0.01999589 0.009118814 -0.0095037315 -0.0037422609 -0.002432106 -0.0125471065 -0.010172569 0.006005306 0.001262052 0.0007028058 -0.015073342 -0.010081806 0.0041621346 -0.012241669 0.0026190598 -0.004868428 0.008870566 0.0065371823 -0.016483173 0.013368923 -0.0135740135 -5.044788e-05 0.017619733 -0.014447765 -0.019079586 -0.00087721087 -0.00083101913 0.00569913 -0.0050418423 -0.0067361332 -0.0053742714 -0.0054966975 -0.011244111 -0.019752903 -0.012900264 0.0011359099 0.014472157 -0.0133552095 0.01913641 -0.0060882093 -0.0011536628 -0.0048946403 -0.002883587 0.008307928 0.0076521616 -0.00992079
所 0.004148068 -0.018035667 0.0003433153 -0.0033144876 0.010522658 0.011992328 0.015281539 0.01843419 -0.01716536 0.019806717 -0.01806914 0.0166616 -0.01607637 -0.011931638 -0.010236048 0.013568334 -0.01812773 -0.0031117275 -0.018120827 0.015318245 -0.018092103 0.009686558 0.016383909 0.0066648126 -0.0073296567 -0.0062045334 0.019169755 -0.014654803 0.019107848 -0.0048538847 -0.019462641 -0.0054735113 -0.012749901 -0.018555481 -0.018836696 0.00042873807 -0.00084950775 -0.019736698 0.016595595 -0.0013542846 0.019819487 0.010116916 -0.019011004 0.005484391 0.0043545254 -0.006496527 -0.00062499195 0.009420561 -0.0061517926 -0.017976308
民 -0.0040236115 -0.01860687 -0.01642426 -0.019471329 0.010128705 0.008682832 0.0057286527 0.008899299 -0.018111838 0.015799593 -0.015206289 0.016467076 0.006604586 -0.009280824 -0.007144506 -0.017193858 -0.016406639 -0.019600365 -0.008671171 -0.01945225 -0.017469246 0.013121765 0.019770406 0.01805335 0.0023820978 -0.00092257 -0.001160169 0.00062919594 -0.017899873 0.014554694 -0.0064988686 -0.0152138565 -0.0035299547 -0.018668676 0.013689451 -0.0030857846 -0.0022250563 0.0052201655 0.004339928 0.016581628 -0.017616637 -0.016971976 0.0012639016 0.0081138555 -0.011245523 0.011221213 0.013145205 0.0183268 -0.00045277923 -0.0014771074
小 -0.011452975 -0.00895642 -0.004497759 0.0084170345 -0.014062773 -0.017089352 0.0003688112 -0.013619272 -0.016244913 -0.010018842 0.018558308 -0.0007999055 -0.006249463 -0.007998803 0.010957377 -0.009277348 -0.0050163697 0.014045879 0.012875035 0.0068939514 0.0018193554 -0.0011668876 -0.015239324 -0.003909394 0.009202799 -0.011316099 -0.0036666002 0.01333233 0.004532123 -0.0006803367 -0.0047446964 0.0013824608 -0.018039977 0.006157737 -0.015727874 0.0019161757 -0.015567975 0.012561966 9.647198e-05 -0.00060988404 0.0106299 -0.0068534324 -0.012464492 -0.002175806 0.0155164525 0.018579353 -0.013290329 0.0118583925 0.0034132674 0.01679914
天 -0.0010070149 -0.012706382 -0.012212734 0.00256248 0.00970323 0.004690755 -0.007831034 -0.01835012 0.018342406 -0.015705131 -0.012999353 0.01952498 -0.006855311 -0.009481163 -0.005555474 -0.005223618 -0.0161447 -0.011130636 0.001010675 0.009104766 0.0022158641 -0.002940774 0.0037438367 -0.005607076 0.010989811 0.018322423 0.011675354 -0.00033090264 -0.01680305 0.00610297 0.008139066 0.006533565 -0.014706776 -0.0002004262 0.008037562 -0.016341439 -0.0028613321 0.009319963 -0.019495511 -0.014923382 -0.016091615 -0.016723258 -0.014745173 0.0031421036 0.004947668 -0.008729513 0.0063961428 -0.017770777 0.018002138 0.0013004281
乐 0.012244638 -0.004369667 -0.016103208 -0.018786969 0.0048996583 0.0012499336 -0.01495212 -0.002162911 0.017750312 -0.0131131485 -0.0019407421 -0.01616141 -0.013317556 0.008626558 -0.011842184 0.003024185 -0.019335756 0.0049743075 0.013718527 0.0064555835 0.005671669 0.011779372 0.009717194 -0.002932405 -0.003963953 -0.0046841362 0.012690835 -0.007192986 0.0059391297 -0.018558702 0.0032893699 -0.0090740705 -0.010944941 0.014399476 -0.017054476 0.010097757 -0.014517378 0.008044798 -0.016555429 -0.0057345172 0.0067797787 0.00220887 -0.014575984 -0.015583592 -0.006766035 -0.00879426 0.0016660336 0.00954698 -0.007324321 -0.000312794
邦 0.0056304485 0.010912266 -0.017996259 -0.018700866 0.0022989567 -0.0072334073 0.002581017 0.016806815 -0.0011654142 -0.0033477452 -0.005464175 -0.005417387 -0.0028612632 0.005337296 -0.0085051395 -0.007797043 -0.0072169974 -0.018676281 -0.0021800678 -0.0032637436 0.004482694 0.017873943 -0.00883691 -0.007630718 -0.01830106 0.013626743 -0.007975073 0.014430188 -0.012462219 -0.01286719 -0.015850477 0.017722912 -0.0055682296 0.004818348 0.010540994 -0.004421265 -0.019480918 0.013179373 -0.0054961443 -0.018313043 -0.0036725812 0.003149934 0.019149672 0.007337585 0.017033823 -0.00044541433 0.011398502 0.0015653204 -0.017869707 -0.018401861
亦 0.01858225 0.008851208 0.004018834 0.010244798 0.013278794 0.016038988 0.018684953 0.012830947 -0.00094600767 0.009781206 0.019620568 -0.0077843666 -0.011211316 -0.00776386 -0.008117735 0.006137872 0.016070787 0.01779154 -0.0067428565 -0.0065830303 0.00069568306 0.007099688 0.017265826 -0.019913385 -0.019964058 0.005514322 0.0054307096 0.015760727 -0.01472399 0.0032842811 -0.018143198 -0.0029815082 -0.010519788 -0.018052917 0.010482803 0.004801983 0.0014134459 0.002111476 0.0012882203 -0.0048120543 -0.009942629 0.00064560585 -0.011363163 -0.017936245 -0.0012184884 -0.018362377 0.014558673 0.0055406764 0.011937484 -0.017571414
使 -0.0024283417 0.0043234993 -0.002976168 0.0120529495 0.003679091 -0.008647535 0.018272642 0.013236698 -0.010906463 0.0055473056 -0.009715476 0.0074268673 0.012587573 0.004942339 -0.007211907 0.018676702 -0.005576751 0.0071915463 0.0016158298 0.017072648 0.013816532 0.017647188 0.006384112 0.012596987 -0.004140351 -0.007672105 0.018758886 -0.016916376 -0.0055061653 -0.017820233 -0.0062094666 0.019943211 -0.007830994 -0.0059356447 -0.019946856 0.006741345 -0.018380713 -0.007577355 0.0020092502 0.018377539 0.007945351 -0.016318854 0.018397253 -0.010846641 0.010929406 -0.0016573686 -0.0062346365 -0.007901048 -0.01865446 -0.00502644
大 -0.017763868 -0.012917612 -0.01589862 -0.0023483187 0.018080957 0.00016506761 -0.0076290388 -0.005783951 0.008382784 -0.012793171 -0.008786712 0.013501506 0.0059579983 -0.012604157 -0.003950257 -0.015987277 -0.014639511 0.0043561235 -0.012614047 0.012720715 0.0038447455 -0.016679063 0.012070883 0.006500937 -0.011256359 -0.013156852 -0.0062898872 0.0007612109 -0.007820819 0.010435268 -0.009554875 -0.01897164 0.00085632876 0.012377173 0.0033675618 0.00011618622 0.019562624 -0.0040850155 0.006830547 0.0071244873 -0.015829422 -0.015607681 -0.0034735184 -0.014058508 -0.006849448 -0.011856091 0.015094105 0.0042516347 -0.0025194045 0.0021253657
下 0.0040529054 -0.013136732 0.0038297009 -0.016126908 -0.015851183 0.0101074055 0.013412215 0.013506457 0.019077905 0.014726389 -0.016741471 0.011143532 -0.0044584153 -0.01965092 -0.014144451 0.017645009 0.0018224455 0.013956774 -0.0075804256 0.009672882 0.009611741 -0.009681503 0.011831105 0.010387713 -0.0067605944 0.017153922 0.0076800734 0.015615243 0.010502519 0.008654073 -0.015208935 -0.019479048 -0.016854228 0.016914792 -0.009646578 0.014036633 0.018136047 -0.011551087 -0.0027411487 -0.0012389161 -0.011552513 -0.019473571 -0.011613643 0.009736506 0.016213082 -0.014000423 -0.003891142 0.0039289687 0.005369477 0.007564919
贡 0.0046592 0.018382668 0.019699484 0.012310263 0.0021414254 0.007992577 0.017122835 0.011361841 -0.006453912 -0.012146504 0.012664169 -0.0027996786 0.006556688 -0.0077531077 0.0020069666 -0.0011695363 0.0021974128 -0.0045094723 -0.0035037883 0.0031885263 0.010482721 -0.013341749 0.0017138459 -0.018775882 0.011912044 -0.018875003 0.008815657 -0.0032305438 0.008835368 0.0073579494 -0.011501553 0.0022205487 0.0027313773 0.0027820375 0.013538398 0.00913571 -0.011120827 -0.006202643 -0.00047333539 -0.014587633 -0.015403662 0.017722197 0.0010066852 0.002916053 -0.009128725 0.008032363 -0.009964654 -0.01673076 0.018611737 -0.01693622
欲 0.01100746 0.005820453 0.010471342 -0.00094443373 0.008231211 0.0048646424 -0.0058987522 -0.013921473 -0.010786295 -0.0058432147 -0.0067954846 0.014666777 0.0015238672 -0.0043214113 -0.0058975834 -0.005546822 -0.0037406944 -0.0021581035 -0.0091528315 -0.0046122 -0.016391264 -0.00051771104 0.010579195 -0.00087021105 0.0057780836 0.0149060115 0.009568037 0.018483955 0.004771907 0.0043329187 0.010683795 5.580671e-05 0.013036143 -0.007642043 -0.011900856 -0.008957744 0.006209776 0.017557483 0.012047686 0.00694832 0.001537811 -0.019250002 -0.0065854527 -0.004500539 -0.011524751 0.0068564583 -0.017810103 -0.00194907 0.0018547717 0.010191651
诸 -0.0048436476 -0.005092933 -0.0033972692 0.0023942739 -0.00476567 -0.005047893 0.004031431 0.015615866 -0.008165485 -0.0002375748 0.012729675 -0.0052742315 -0.015711304 -0.0063168528 -0.005164463 0.009910056 -0.01572809 0.0026881006 -0.0010292027 -0.010126774 -0.017200958 0.00086386874 0.0024855342 -0.016259775 -0.012748806 -0.0064200945 -0.0035382789 0.009072483 0.01478941 -0.012509305 -0.0029844735 0.007968314 0.016675316 -0.017477414 -0.008258407 -0.010600798 -0.010596175 -0.0006025806 0.00014661625 -0.010793335 -0.017137136 0.018683031 -0.010755858 0.002086088 0.0076978784 -0.01933487 0.014002878 -0.0016364865 0.003961757 -0.019832538
从 -0.00053307787 -0.010780243 -0.017999785 0.013081878 -0.010274129 0.003237391 0.019955203 0.01805127 -0.011557958 0.0020370334 0.011082273 -0.014207654 0.0054400656 0.0075227823 -0.007361111 0.018387266 0.01939816 -0.014508619 0.01581718 0.018620215 -0.005346544 -0.0031652767 -0.012629731 -0.019202782 -0.0036541242 -0.012916677 -0.015854547 -0.017357947 -0.0077917045 -0.01198621 0.0008423496 -0.002891194 0.019200299 0.002938008 -0.0035752393 -0.00090106577 -0.0007378403 0.0029778965 0.016499221 -0.0006593559 0.011764821 -0.015627425 -0.019619223 -0.007942853 0.00883499 -0.0058623245 0.0029393677 -0.01115062 -0.008863206 -0.0072346237
文 -0.017513044 -0.01906187 0.015593547 -0.019204982 0.015090123 -0.0070359083 -0.010946729 -0.0055151107 0.01697012 0.0037026834 0.004210299 0.009816982 -0.017507715 0.019880448 0.009059362 0.0076934863 0.017428294 -0.01687288 -0.014027588 0.0044841953 0.0143471435 -0.005259361 -0.018789943 -0.012992466 0.007953996 -0.004191205 0.01663744 0.0055526868 0.004496282 0.011161489 0.016902808 0.008746883 -0.0025653597 -0.003630817 -0.00030914135 0.0061870143 -0.017868258 0.007110128 -0.014883997 0.0021178573 0.014260773 0.0065636206 -0.0066297604 0.0029883068 -0.012287362 -0.011071603 -0.010828726 0.0065860897 0.008357149 -0.008109093
政 -0.0031549651 -0.0114011355 -0.011381638 0.017302204 -0.012198808 0.011638977 -0.015596318 0.0030072816 -0.0016973447 -0.010781403 -0.019981453 -0.0028216336 -0.007870231 -0.016583435 0.002567988 0.010757836 0.005188016 0.01614806 -0.00081593357 -0.0032045264 -0.006743286 0.0075836163 -0.003418656 0.010933023 -0.0019602012 -0.0010908507 0.0041372012 -0.018243808 -0.014003977 -0.009733946 -0.014825024 0.0011128597 -0.013591826 -0.019272668 -0.009359598 0.015328616 0.01108304 0.0037015732 -0.013681328 0.007557571 -0.016392598 -0.0115664145 -0.0074134776 0.015510369 -0.009969079 0.011977393 -0.00064982474 0.017418481 0.009367265 -0.011921305
食 -0.019114982 -0.0028338972 -0.0007936433 0.01513071 0.015708618 -0.005263266 0.009479769 -0.0068734335 -0.019258069 -0.000717178 -0.004530659 0.017970018 -0.001783032 -0.011674573 0.016507294 0.008413672 -0.010602751 0.018306427 -0.0011271238 -0.0053547425 -0.011429209 -0.009129255 0.018331755 0.018373672 -0.0029000249 0.01352831 0.0030735843 0.0009815339 0.0066137947 -0.012764879 0.009827366 -0.013496592 -0.0055515645 -0.007652723 -0.012139041 0.007878253 -0.019528575 0.010728465 0.012604319 -0.014950597 0.013248801 -0.012810161 -0.019285388 -0.010616457 0.011421815 -0.01972362 -0.0039142855 -0.004754047 -0.0070444364 0.0011883005
善 0.0112369 0.014397364 0.0051776003 0.010615913 0.014515262 0.014084686 0.019912057 0.002651656 0.008264629 0.0020821933 0.018280417 0.0006134007 -0.00015137345 0.0044932384 0.0001620967 -0.018582225 -0.0040051993 -0.009413185 -0.0023948904 0.009698929 0.017231971 -0.016808042 0.013957489 -0.015121587 0.008012898 -0.017795863 0.014603291 -0.007997493 -0.012019112 -0.0020405855 0.012466539 -0.017143056 -0.014772544 0.019494947 0.013589811 -0.019186659 -0.0018944349 0.012605589 -0.019940702 -0.014750395 -0.005276084 -0.008828003 -0.002065504 -0.013346011 0.001705695 -0.012008042 -0.0134437345 -0.008595066 -0.0040031504 0.01903081
后 -0.016696472 0.008862428 0.015148748 -0.00069543906 -0.00858175 0.019859668 0.014847148 -0.009617335 0.005753303 0.0009552017 -0.019560568 -0.0066794604 0.009159464 -0.019868143 -0.016931051 0.008756543 -0.010346906 -0.018001454 0.019600254 -0.001455633 0.007652374 0.018841945 0.0006140303 -0.005173099 0.010292938 -0.0071620103 0.002464082 -0.014476995 -0.010314827 0.009691713 0.016399294 -0.012055621 -0.012437984 0.011642378 -0.019328877 -0.01024013 0.010787025 -0.016844045 0.006116299 0.01540881 -0.0129155945 0.008907925 0.002204895 0.014253594 0.004212033 0.005043881 -0.018529547 0.0015037376 -0.0012090653 0.014110453
德 0.018293127 0.0120486915 0.018497098 0.01674917 -0.0037606284 0.016811598 -0.0070478152 -0.0041921996 -0.005900924 0.0020066425 0.01756373 -0.01293607 -0.009115438 0.011722513 0.0012780316 0.009413838 0.003938606 -0.016604312 0.014111713 -0.01987786 -0.003014803 -0.010534591 -0.015680468 -0.01380796 0.014017347 -0.005190258 0.01367449 0.012582291 0.017959822 0.0042551924 0.016896278 0.009391539 0.0076616406 0.010436067 0.012123156 0.015659295 0.011374675 -0.007472179 0.0017429199 0.0024700705 -0.016401675 -0.017961496 0.014470506 -0.012551734 -0.017156724 -0.012038138 -9.1800466e-05 0.00066477805 -0.013883073 -0.016273923
求 -0.015883932 -0.00846566 -0.019162223 0.011432532 0.018528756 0.0073471665 -0.00024814904 -0.0016517974 -0.010673544 0.0022598505 0.009878194 0.012583911 0.015325312 0.016083755 -0.019249728 0.016799174 0.01422058 0.014286429 0.009353623 -0.012083266 -0.01665269 0.00061146915 0.012897227 0.019968651 0.0052534547 0.0043044426 -0.013726041 0.017633602 0.011045672 0.009032993 0.017696932 0.015215591 -0.003978584 -0.006115527 0.010407353 0.0013729278 -0.012362897 -0.016354842 -0.0048636384 0.01843207 -0.004092371 -0.016690128 0.0013653692 -0.007041607 -0.01159847 0.0060702562 -0.019783419 -0.010156925 -0.0152960345 0.000802733
对 -0.0037402175 0.014870971 0.0041828565 -0.0064142635 -0.010368166 0.009885535 0.013406221 0.0023980793 0.012028981 -0.011058928 -0.003960535 0.010002708 0.019835271 -0.015202241 -0.015976941 0.005462449 -0.008932418 0.013026185 -0.008234732 -0.010614629 -0.013356797 0.0025062747 0.018559374 -0.00049297884 -0.009573443 -0.0017046444 0.017246585 -0.010099544 0.00065236725 -0.014603175 -0.0028016847 0.011852063 -0.0052616904 0.00045714527 0.019239243 0.0040410645 0.013621192 0.00782267 -0.010636053 -0.002793992 -0.00057153404 -0.017727578 0.009106498 -0.0021961983 -0.012620079 -0.006517916 -0.012929166 0.017404132 0.0018911548 0.006106317
恶 -0.0072186897 -0.00023865514 0.015941422 -0.0058653327 -0.015626393 0.0065731127 0.0067700557 0.016877826 0.014824882 -0.0074733635 0.0038703158 -0.0060199164 -0.009443228 0.01576135 -0.0055247257 -0.011477532 -0.009983618 -0.010832641 -0.0006414745 0.014186893 0.0076661203 -0.017139487 0.011678334 0.016840633 0.018306341 0.0006223377 0.0029250477 0.014392041 0.009611623 0.013581719 -0.0026986077 -0.007942987 0.0036050342 0.018259581 0.01823287 -0.0059569357 0.0019031074 0.014720924 0.009776175 -0.0013413765 -0.00030628964 0.014125384 -0.0027640034 0.018247873 -0.0015528649 -0.014157364 -0.0070041222 0.019525576 -0.014187443 -0.00914848
信 -0.019621836 0.0018620901 -0.0051981565 0.010252224 -0.00459244 0.009263096 0.002105929 0.007915724 0.014211591 -0.017097978 0.014507536 -0.0008880645 -0.0033791065 0.008104997 -0.0004523564 -0.017825898 0.0020766426 -0.0022785235 -0.0025213622 0.0033969563 0.008987607 -0.008427331 0.012703653 0.00054612383 0.00830734 0.011347182 -0.016146014 9.084307e-05 -0.017572226 -0.011467111 0.0072917454 -0.011755841 0.017174702 -0.015175843 0.017432172 -0.007199468 -0.013440676 -0.0042469073 0.0014689676 -0.0070759133 0.0041953567 0.0073269177 0.013984568 0.0041765757 -0.002971625 0.008600352 -0.01882161 0.0067035705 0.015632506 0.017109044
死 -0.0089318035 0.00382746 -0.013912022 -0.012662113 -0.008990404 -0.006521363 -0.010691397 0.0069944616 0.012690876 -0.0047864914 0.014803451 0.016934019 0.010871785 0.011381365 -0.008216731 0.005865423 -0.011912028 -0.012665667 0.01663126 -0.01760799 0.008741107 -0.010117604 -0.0056186197 0.0065372176 0.01566904 -0.013160374 0.019273698 -0.015321504 -0.015722413 -0.016773056 0.001428714 0.01734953 0.0074141473 -0.010446677 0.018516026 0.018946398 0.00021024235 -0.019916594 0.008993791 0.009594534 0.012247354 -0.007079973 0.019572146 -0.015707392 -0.011767409 -0.01921394 0.008863792 -0.018181846 0.0010092147 0.017507106
然 0.0012188125 0.0025141165 -0.0034755953 0.011652 -0.012925088 0.0058240406 -0.01453206 -0.015613379 0.01383242 -0.006618092 -0.0083759 -0.0083849905 0.0074003357 -0.011817987 -0.00150829 0.014952026 -0.0026215333 0.0042285826 0.0061554164 -0.015420258 -0.0066464925 0.009752484 0.010708075 0.00024364889 0.0067909714 -0.0147838425 0.0028814878 -0.0035342053 0.004593225 0.0131222345 -0.017902572 0.0040115993 0.019105151 0.014816213 0.013024248 -0.010053024 0.014865208 -0.015117977 0.018506516 0.009034373 -0.0140941255 -0.018767709 0.016460836 0.0052085444 0.016385175 -0.009181211 0.0039609 -0.006619947 0.015081618 -0.012595963
《 0.016393181 -0.0036887452 0.009128964 -0.006349666 0.016556986 -0.012648468 -0.015793597 -0.013140988 0.01963108 0.01400245 0.014216494 0.006631531 0.0035056062 -0.009044733 0.003360603 -0.017545989 0.019094393 0.0034958143 0.0045262743 0.015108921 -0.0036256984 -0.0040217135 0.0047331806 -0.007605984 0.01066803 -0.008769736 0.010537796 0.0024691597 0.0070360843 -0.013194558 0.01823765 -0.010920927 0.0077209547 -0.003159279 -0.0010353047 -0.010305784 -0.009900477 0.0059136935 -0.0066961553 0.016479954 0.019694794 0.0006227866 -0.013116917 -0.0011727028 0.017991994 -0.015209148 0.005035052 -0.0040585976 -0.018576294 0.013061576
》 -0.007729098 0.012946598 0.018225748 0.0052007046 -0.01006243 0.0056072064 0.0024371035 -0.016425373 0.013683096 -0.0011081193 -0.0020655151 -0.012835445 0.0047075525 0.019198164 0.004347164 -0.012166505 0.014940776 0.00037363917 2.7529895e-05 0.016658556 -0.013616407 -0.00443743 -0.0048231436 0.009859068 0.019342676 -0.0006922465 -0.013837769 0.0041267388 0.0018551778 -0.008964736 0.0029709078 0.0044612456 0.017099291 0.015800897 0.013394713 -0.0053719664 -0.008318004 -0.017981222 -0.008508103 -0.011895046 0.0012425967 0.0006175693 -0.009242859 -0.011473341 -0.009593463 0.009251177 -0.013543507 -0.014205739 0.0046916064 -0.00025275908
由 0.014851812 -0.0009888839 -0.010804472 0.014525879 0.007504303 0.007454904 -0.019825913 -0.018708663 -0.008134813 0.0061810873 0.014386788 0.0105875 -0.0017725714 0.012212887 -0.019089274 0.012242109 0.0005228501 -0.012020371 -0.009828553 0.00690737 -0.019206911 -0.0032968167 -0.0088072345 -0.0029016323 -0.0006471798 0.015353229 0.0026604477 0.0061221663 0.00783439 -0.0013493672 -0.013740351 -0.008534341 0.017054945 0.0074562337 0.01585532 -0.012398941 -0.0013435129 -0.009538081 -0.0001164563 0.0053317826 -0.015465355 -0.0072233677 -0.014414103 0.016889181 0.002504589 0.017099306 0.01812036 0.012311764 0.014263969 0.017977003
仲 -0.008500867 -0.010777247 0.00533998 -0.0058402894 -0.018748226 -0.0019211061 -0.0118284505 0.00963592 -0.00229121 -0.008580193 0.014979251 0.019715529 -0.0026199706 -0.01823485 0.0151276775 -0.0033952482 0.009199064 -0.0023003034 0.0059782974 -0.010819252 -0.01973773 0.0056367163 -0.008571558 0.0066896826 0.0028108638 0.0033506658 -0.01633979 -0.008406141 0.009009449 0.0064255036 -0.016328063 -0.004903243 -0.008044939 0.0012014247 -0.019851832 -0.01833182 -0.006791448 -0.010346427 -0.00771486 0.012577027 -0.018694842 0.0046915393 -0.011179666 0.0167294 0.0016785637 -0.006339955 -0.010552168 0.004863901 0.0054777507 -0.0098824045
非 0.017802626 -0.0005618315 -0.017477954 -0.015081909 -0.00079717673 -0.009993656 -0.016860437 -0.005005846 -0.010298862 -0.00050775334 0.0068032164 -0.014651105 -0.011203081 0.01583746 -0.0051995376 -0.007863974 -0.0024661086 0.004682688 0.01568802 0.0071746036 0.018643718 -0.0038649756 -0.0052522393 -0.01664512 0.017564114 -0.015238015 0.010623317 -0.019086016 0.011225361 -0.007337561 0.019876204 -0.0007128287 0.010565648 0.011069816 -0.0035681278 0.009802302 -0.008500905 -0.012510039 0.009287616 -0.008145394 0.01499071 -0.0058292365 0.014774069 -0.0015761238 -0.014363075 0.0006415844 -0.011012892 -0.0058921697 -0.010354521 0.012368638
出 -0.0049827984 0.0040749386 0.0038860925 -0.014205987 0.018492814 0.01913922 0.008314928 0.018631704 -0.010004041 0.0075823218 -0.019614724 -0.005748639 -0.013917105 -0.008240044 0.010132005 -0.009987981 -0.010480711 -0.019851498 -0.0013832431 0.018268548 0.017094888 0.0052544754 -0.00581408 -0.011171691 0.010647943 0.015649524 -0.011353852 0.009317908 -0.010962705 -0.0066356733 0.004109185 -0.004783583 -0.0067785596 0.009566795 0.0046102908 -0.0021533202 -0.017713973 -0.008429804 -0.007058141 0.017192218 0.00597392 -0.014050044 0.0045844335 -0.013914561 0.017356947 -0.019689199 0.0057678074 0.012571655 0.00432962 0.0071741063
过 -0.0071021393 0.005066972 -0.0015710071 -0.01882362 -0.0139267035 -0.007949727 0.00606611 -0.010219686 -0.0042742435 0.014763061 -0.0066539096 0.008077493 -0.012654103 -0.017944783 -0.019097265 -0.017290931 0.013250969 -0.016972259 -0.0047989674 -0.018703803 -0.007455821 0.01009072 0.01633007 -0.007737253 -0.0058374573 0.0059647057 -0.013720696 -0.0030450914 -0.007426369 0.008152785 0.006114647 -0.017743856 -9.226799e-05 -0.0042940527 -0.010210588 0.010590317 -0.0125525445 -0.013247484 0.016971543 0.014740378 -0.013525309 0.013601217 0.00042695738 -0.0019621067 0.0100483615 -0.011411743 -0.009491375 5.9794635e-05 -0.015829291 0.0043849945
一 0.00049819984 -0.009892268 -0.0075476384 -0.019629361 0.0025527421 0.008717896 0.014066227 0.013309088 0.012939367 0.016923536 -0.004495604 -0.016041273 0.009784646 -0.019919671 0.016220473 0.011282455 -0.010592534 0.00011465326 0.01416171 -0.014179835 0.008947592 0.009107707 0.01403169 0.012930527 -0.01501506 -0.009513256 0.00211454 0.00890181 0.019892413 0.017563324 0.0020398702 0.008792631 -0.014915289 -0.008811584 -0.009614468 -0.005551493 0.014345959 -0.011634214 -0.01598984 -0.0037464704 -0.015244221 0.0155475885 0.018706158 -0.0014852993 0.0036863163 -0.013023924 0.002962567 -0.008071725 -0.015753431 -0.01572002
虽 0.012752693 0.0005064495 0.005661942 -0.0041286293 -0.014370654 -0.017328333 -0.0076262783 -0.00196963 -0.007090604 -0.0061383033 -0.011207621 -0.009580579 -0.013370514 -0.015289087 -0.013626177 0.0012366269 -0.005002534 0.0037135985 0.008954456 -0.018600253 -0.015968844 0.0011716802 0.013189562 0.012091123 -0.0065666623 -0.00115522 0.0071350224 0.0150176585 0.008044833 -0.005770211 -0.00043893605 0.0012112595 0.010265246 -0.017715339 0.0028309822 0.014515046 -0.013100104 -0.012958903 0.015140317 0.0132561065 -0.011242337 -0.0019529145 -0.018255735 0.0051150955 0.012136072 -0.0016735271 0.010922108 0.007869391 -0.0072730137 0.016648937
足 -0.0034977868 0.002984764 0.000880111 0.018579755 0.004638074 -0.0137952445 -0.006040938 0.009185078 0.0041896757 0.018562678 -0.012713602 0.018841412 0.017882843 0.0048454925 0.018211752 0.017051294 -0.017419457 -0.00721478 0.0015298873 0.0043270793 0.014701709 -0.004504502 0.0058200564 -0.017467987 0.015672907 0.007037377 0.01574099 0.0024514347 0.0017423611 0.010376785 -0.012827007 -0.012404019 0.0182104 -0.01960891 -0.005015862 0.013388824 0.005951572 -0.0042204186 0.00553062 0.012944024 -0.01566256 0.0010889098 0.010061804 0.003362095 0.0118700415 0.0111076925 0.0006718412 0.01593927 -0.009996886 0.018317547
居 0.007457245 -0.0010040756 -0.001009211 -0.011743385 0.017279338 0.0027254652 0.010393849 -0.007014417 -0.0034223776 -0.011031203 -0.0056060646 -0.008574283 0.0021163672 -0.01682852 0.01975239 -0.00488043 -0.01450886 -0.01474019 -0.0051063513 -0.019633953 0.008483224 0.0034086164 -0.0031766463 0.018455807 0.014876258 -0.0083268285 -0.0009449478 -0.013304057 -0.004894194 -0.008127265 -0.00783189 0.008863421 -0.009933383 0.010451907 0.015149083 0.007612366 -0.018798241 -0.0109978765 -0.006768965 -0.014580967 -0.013502788 0.0045201983 0.015853327 0.010403322 0.01935513 0.0088361 -0.010590794 -0.016799176 0.015397113 -0.011427951
尔 0.01300551 0.015128855 -0.0053083515 0.010321822 -0.007343211 0.0029026344 0.004689768 0.016040303 0.008816777 -0.0033078138 0.0087640695 0.011569377 0.0026034918 0.009217294 -0.01940213 -0.016351363 -0.0063597634 -0.008978145 0.0012201518 -0.018462423 0.008091178 0.011869259 -0.0016655233 0.010624442 -0.008930202 -0.01541806 -0.0045774886 -3.2277778e-05 0.0013677292 -0.0009126924 0.00039821118 0.0032759793 -0.003783634 -0.012572059 0.00026843324 0.008757876 0.016125768 -0.005185988 0.015807811 -0.005834639 0.004529912 0.0056503266 -0.0034642816 -0.0006989408 -0.01794054 0.0002900958 0.0059482623 -0.01527526 -0.009055671 -0.012764266
夏 -0.00727468 0.016273096 0.0055558123 -0.008825698 -0.0064110802 -0.010793426 -0.013733756 0.007937245 0.017284382 0.0041126516 0.00064160116 -0.0034095254 0.0028093662 -0.019668927 -0.01016223 0.016294118 0.01939157 0.0025752168 0.016368426 0.008721931 0.014449399 -0.008402045 0.003739154 -0.007147407 0.008553231 0.0055630244 -0.019156924 0.011678796 0.012300458 0.015767056 -0.005528407 -0.011506869 -0.0024338365 -0.012770769 -0.019983174 0.015907109 -0.0061366865 -0.015641354 -0.0043068957 -0.0111953085 0.00063853525 0.0022238158 -0.00049106777 0.007869076 0.011994053 -0.01950353 -0.011651565 -0.004652838 0.013319813 0.0027511232
父 -0.00023126416 -0.007846293 -0.011127276 0.011072867 0.010149216 -0.011700232 0.014625438 -0.0030185245 -0.008088009 -0.018567733 -0.010507665 0.006755922 0.009730585 0.001788497 0.014497522 -0.0018517617 -0.014225733 0.016855426 -0.014580829 -0.017501056 0.006037321 -0.016350921 0.010756008 0.008713948 -0.008559704 0.004636558 0.011360016 -0.0016194731 -0.005182366 0.011532925 0.009775825 -0.010185282 0.018091734 0.019664552 0.019413121 -0.0033591483 -0.014936695 0.004467575 0.005306715 -0.016197845 0.01290407 -0.00013285317 0.019041725 0.019244347 0.0027100593 0.018840201 -0.016731767 -0.016998576 0.010060091 -0.0061032316
及 0.008444617 -0.011380346 -0.010530793 -0.015951972 0.011486232 -0.0037199445 0.009563372 -0.0126681635 -0.015442028 0.0034243613 -0.008288822 0.01047265 -0.00041963533 -0.010130162 -0.009468641 -0.011134203 0.019980684 -0.0032874793 0.006244555 -0.015826892 -0.01946206 0.009383533 0.0013462752 0.018123478 -0.013090071 -0.017726447 -0.005484557 0.017575294 -0.0010785889 0.014602412 0.004839452 -0.015701097 0.014280327 0.01117659 -0.013853569 -0.010543299 -0.019038543 0.005158618 -0.0040416457 -0.015673693 -0.0036633518 0.00562118 0.010730894 -0.011650426 -0.015900819 0.0055278055 0.009136148 0.019258983 -0.01303039 -0.011190748
己 0.014768999 -0.010025382 0.0003902968 0.012663148 0.009164842 0.009310648 -0.018989693 -0.01933389 -0.005045619 0.009810755 -0.0147712175 0.0140176825 0.017536227 -0.0030953046 0.009794101 -0.013171465 -0.013389351 0.018084902 0.0022563078 0.01860151 -1.706183e-06 0.0097603295 0.013283361 -0.019139796 -0.015655918 -0.0007920377 -0.008747375 -0.01295818 -0.010733573 -0.0005709082 -0.014577508 0.016510561 -0.018905502 -0.015755529 -0.0011890959 0.019976757 0.006946277 -0.008684794 0.01703231 0.010659799 0.015273273 0.0105427075 0.01055048 0.01920836 -0.008345806 0.016295865 0.0017266981 0.006543126 0.011532284 -0.012545051
予 0.009144479 -0.0030944329 0.007379595 0.0018326622 0.0092066955 -0.0034863949 -0.0022470802 -0.009912798 0.016681176 0.019060731 0.0024707858 0.010712149 -0.0050322916 -0.00097491033 -0.014958007 -0.016334988 -0.017956642 0.002791999 -0.0036812592 0.0077387337 -0.005598519 0.0069239475 -3.2784417e-05 -0.010020554 -0.016576327 -0.010061926 -0.00094309077 0.0042273775 0.011334237 -0.014657669 0.00069745816 0.00052116625 -0.0012905188 -0.016738689 -0.0110148145 -0.008965089 -0.0070691463 -0.0070062084 -0.008316648 0.014071293 0.012654204 0.014152415 -0.01937719 0.012492355 7.0145354e-05 -0.0039178543 -0.00807324 4.3893233e-05 0.008094346 0.009857077
色 0.018591318 -0.018244183 -0.013339374 0.0051799137 0.014762986 -0.0027234405 -0.018184833 0.01756712 0.0069473833 -0.0046403212 0.014544547 0.0030526929 -0.005489235 -0.015479261 0.016920537 0.008017158 -0.006782472 -0.003186116 0.018903468 -0.0045457575 -0.00048339553 0.016174756 0.015568331 -0.006238511 0.01651482 0.015616849 -0.012994291 0.0051277913 -0.014391253 0.008756606 0.0056861658 -0.01973628 -0.0059822006 -0.005574937 0.014212519 0.008711593 0.0029167514 -0.019395117 0.006425608 -0.016230673 -0.0053305887 0.0068254024 0.006333567 -0.012367487 0.019079152 0.006255869 -0.009023058 0.008385073 0.008827604 0.0149697885
友 -0.005629842 0.0030716006 -0.012636411 -0.006498635 0.013447508 0.009340754 -0.00048727542 0.0076708365 0.00012561306 4.477799e-05 0.0030777622 -0.007748616 0.011975832 -0.005905294 0.0074778385 0.015548393 -0.0035724025 -0.0064482065 -0.017372234 -0.009069938 -0.0029380135 0.015220631 0.0020321794 -0.006057851 0.0016506538 0.01432294 0.018038742 0.008683534 0.00033113733 -0.01760707 0.010629032 0.015797537 0.01397045 -0.012491686 -0.010940428 0.014033657 -0.0021308828 -0.014664595 -0.01491441 0.0112193 -0.00051307864 0.00011972152 0.011161245 -0.01986588 -0.0002247449 0.001820894 0.012775362 -0.00700617 0.009843251 0.009464236
成 0.00044533983 -0.009818587 0.009475641 0.005888384 -0.0074961493 -0.014836928 -0.00048711337 -0.009467125 0.011683501 -0.018273601 0.01779759 -0.015962683 0.010709934 -0.01828394 0.014171816 -0.006847334 0.0061309747 0.0022468586 0.0009693727 -0.004312923 0.018261652 -0.01030314 0.0018776935 -0.0019231215 0.0029098913 0.0023389887 0.0032601692 0.012848381 0.0044216327 -0.007203834 -0.010291493 0.019375153 0.008317804 -0.00015113503 0.006189378 0.0031835046 0.0053031724 0.0052741356 -0.005844202 -0.019290656 0.0024582911 -0.006780062 0.015521031 0.009848341 0.014330126 0.004278891 -0.010525346 0.010833701 -0.008754978 -0.018273693
远 0.011739451 0.015412323 0.009648427 0.017313093 -0.0143930055 -0.008245621 0.0013068803 -0.015359637 -0.009304681 -0.008760595 -0.01167099 -0.0023801643 0.00086935796 -0.011145534 -0.0046500424 0.0066540614 -0.0013985634 -0.014260776 -0.0014569089 -0.0042584315 0.00045045838 -0.014286423 0.010412838 -0.009075439 -0.0035665892 0.012397464 -0.00870852 0.018815696 0.0015690755 -0.016328448 0.0012818668 -0.015543206 -0.019583765 -0.00086213835 0.008275291 0.0061873794 0.005133059 0.0030127876 0.014661171 0.005767459 -0.018489007 -0.0006425828 0.014567867 -0.0015065391 0.003925504 0.008314993 -0.012372074 -0.017626945 -0.013321266 0.017443053
上 -0.018836748 0.017917655 -0.016235726 -0.01029822 0.0030992553 -0.013045423 0.019526307 0.011944242 0.017808355 0.013168249 -0.017486725 0.01768494 -0.0038291812 -0.0057296706 0.014422566 0.01814226 -0.009061465 -0.0039005 0.019520842 -0.007357845 0.018893037 0.0089352075 -0.019544015 0.01956145 0.014970131 -0.00205669 0.008638084 0.010871241 -0.0075589726 0.0036907457 0.006298585 -0.0070461417 0.0042197704 0.0152039565 0.013687678 0.017519113 -0.01041768 0.01621056 0.01936435 -0.015132484 0.010343926 0.013025444 -0.018660538 -0.005535268 -0.014079358 -0.012079718 -0.011563975 0.012444567 -0.011444194 -0.0028477814
立 -0.018278407 -0.01459839 -0.0050782347 -0.01058305 -0.016525492 0.010316635 0.01570613 -0.014822261 -0.0022461824 -0.0059669875 0.017693259 -0.008155219 0.012717836 0.009772005 0.007975059 0.0054047517 -0.00020394474 0.013143819 -0.007850587 -0.013428619 0.0048203077 -0.014627318 0.018998355 -0.017168466 -0.0020977166 0.009737702 -0.016969802 0.013217207 0.005534319 -0.00036918558 0.012883861 0.011916462 -0.0125552695 0.015158538 -0.0008562878 0.00392266 0.012472052 -0.008402285 0.0042854324 0.0052610487 -0.008092971 -0.0011465307 -0.013001511 0.011765864 -0.01943666 0.0048186556 -0.003918702 -0.014611673 0.016517695 -0.007119405
今 -0.0018634461 0.015443623 -0.0066161677 -0.0025286917 0.0028482229 0.0061159376 -0.004685507 -0.009617521 0.016639076 -0.01631262 0.01790711 0.0126022175 0.0045417193 -0.010525167 -0.012772281 -0.013979177 -0.0027880669 -0.018737478 0.008479528 -0.0033947006 -0.0050554136 -0.0018450897 0.012508683 0.015167873 -0.0062052775 0.01251255 -0.01762708 -0.0023711137 -0.016598888 -0.0013172198 -0.018067973 -0.002088286 0.0059829615 0.019165635 -0.0035661291 -0.012135818 0.0003904421 0.012984153 0.003700111 0.003806457 0.0036252085 -0.012891707 -0.005846398 0.0016752891 0.0040592607 0.00015809014 0.019829255 -0.019734535 -0.003650345 0.01775295
张 -0.0009780042 -0.007028484 -0.0086796805 -0.016967867 0.00055117346 0.0054450743 -0.015028318 0.012144625 -0.0077137584 -0.009126744 0.019316562 0.014673166 0.006712392 -0.009685981 -0.019253219 -0.0076412316 -0.016608203 -0.006385724 -0.009351356 0.012183338 0.004807446 -0.0048930235 -0.012057008 -0.00947493 -0.0055345586 0.004909763 -0.0045671538 0.0074232332 -0.010895188 -0.0073237494 0.016465403 -0.0072921254 0.0020795222 0.0043242387 -0.0031242575 -0.009587531 0.009676011 0.019738577 0.014589261 0.018397853 -0.003032567 0.012449577 0.0033752937 0.014199112 -0.014606004 0.013369784 -0.0064265393 -0.00754493 -0.010031738 0.013546102
中 -0.013552392 0.0018960014 0.012230381 0.019503918 -0.0027131774 -0.004451732 -0.016652407 0.0005641673 -0.00079790875 -0.013671476 -0.016561007 0.00623535 -0.017029244 0.013993133 0.009450294 0.010023372 -0.014868302 0.019914068 -0.013795562 -0.011703791 -0.015504431 -0.012512635 -0.006383471 -0.0023205522 0.00091482326 0.0047626346 0.004539704 -0.016658634 -0.012252279 0.0090794 0.002512116 0.00869621 0.018367346 0.01854125 -0.011107998 0.0033201464 0.009202931 -0.0065476485 0.0034301523 -0.017191196 -0.010296649 -0.001547616 -0.01633531 -0.018501295 -0.019791152 0.006549787 0.018041309 -0.010371821 -0.013004532 -0.0120574115
季 -0.0054365536 0.012596518 -0.013810916 0.017788522 -0.0045372583 0.014716882 0.010453632 -0.016811866 -0.0082058925 -0.012404731 -0.0016737897 0.010645883 -0.0085338475 0.004065009 0.008368133 -0.011672378 -0.013458419 -0.018479211 -0.0016160607 0.001127731 -0.0019349661 -0.008239324 -0.010194769 0.013391681 0.016754437 -0.007856064 0.013763946 -0.009058804 0.006235609 0.013324123 0.0004496891 -0.0009780172 0.0050408 -0.010625234 -0.008806825 0.009399859 -0.0033784397 -0.0043686368 -0.015798982 -0.017124452 -0.012150673 0.014093235 0.018901091 -0.009068332 0.004169479 0.016725898 -0.014248693 -0.011027145 0.011276472 0.01071007
臣 -0.0074825687 -0.009436123 -0.0010993928 0.0041344594 0.011526469 0.005410554 0.0102404095 -0.008761363 0.007812159 0.005516719 -0.0131488275 -0.017568562 0.010590997 -0.00637089 0.0179779 -0.018820781 0.00444917 -0.010979078 -0.004283607 0.011147007 0.0072519183 -0.01661424 0.017715674 0.0013065021 -0.014234507 0.01506025 0.0060651787 -0.007006211 0.011296004 0.019516822 -0.010966324 0.004537141 -0.010146592 -0.012552815 -0.019641085 0.010481905 -0.012005403 -0.004267035 0.01742284 -0.01840258 0.0039120503 0.0072168205 -0.011130182 -0.013047323 0.018779464 -0.01797763 -0.017289417 -0.010800607 0.018367115 0.0023009758
贤 0.0044112187 -0.015299475 -0.017323991 -0.009766907 -1.0585412e-05 0.01622904 -0.018735237 0.018326629 0.015177153 -0.019945668 0.00035121478 0.011431664 0.010821022 -0.018312873 0.003749244 0.012112845 -0.008118842 -0.012483545 0.009343168 -0.01100708 0.014434151 0.013066206 0.01417568 -0.006784007 0.016458444 0.00020764396 0.00028395094 -0.009946397 -0.019876167 -0.012846183 0.015861075 -0.014226515 0.018835668 -0.003740294 0.0031861924 -0.012508046 -0.017979546 0.012934819 -0.007037554 -0.01854647 0.008169668 -0.0019708686 0.009997413 0.003040649 -0.011646144 0.009834537 -0.0025786366 0.0032789614 0.012760472 -0.014043776
思 -0.012155111 0.0007491298 -0.015656386 0.018391807 -0.009414043 0.00850836 0.016151503 0.0006385539 -2.9098243e-05 0.0001759585 -0.0027526077 0.008880848 0.01958764 -0.016015366 0.016577132 0.013911553 0.007473411 -0.016597267 0.016301475 -0.017992865 -0.008347201 0.002679212 0.0072323885 0.00529534 0.0159818 0.012786321 0.0061355717 0.00086077675 -0.015844047 -0.013824908 0.0025431253 0.018561792 -0.00785917 -0.011783435 -0.006032588 -0.017565396 -0.015163856 -0.006580593 0.019819409 0.0024687983 0.016363367 0.014453452 0.0020089727 0.01656226 -0.013536124 -0.002481291 -0.012185438 -0.009024391 0.016083129 -0.0041339844
齐 -0.014497561 -0.0020063426 -0.009886412 -0.011599908 -0.012941087 -0.011591882 -0.011272385 -0.0046183206 -0.019239947 0.013219647 0.006380249 -0.005494179 0.006623771 0.018094052 -0.007026772 -0.0019390509 -0.011636078 -0.018130781 0.009140937 0.01010338 0.009735212 0.012063585 -0.019221064 -0.011268876 0.009592885 -0.002725076 -0.008961627 -0.006244488 0.016402282 -0.013733815 0.012308627 -0.0056319786 -0.0132321 -0.00056088716 0.007089695 -0.000617845 -0.0068850564 0.011796191 -0.011467798 0.015315071 0.015593797 0.0021968596 -0.011272215 0.019392882 -0.0012994464 -0.014999561 0.014580958 0.0071797576 -0.0092843175 0.015704773
义 -0.0082191015 -0.014068015 0.01345798 0.018820353 0.017193846 0.016374573 -0.013568325 0.013825566 0.000119430944 0.015995957 0.0134685 0.0031128936 0.015483338 -0.0044154003 -0.0057813833 -0.012858493 0.0113416575 -0.017978983 -0.01847087 0.011014733 0.009393342 0.012463346 -0.0051815053 0.013027132 0.014334518 0.014735408 -0.007371612 -0.0109975785 0.011307247 -0.008063128 -0.011840429 0.012393203 0.010124175 -0.0012402479 0.0036448166 -0.0021609403 -0.011953912 -0.001255285 -0.013707783 -0.012081478 -0.0087166 0.004407065 -0.016795745 -0.009632421 -0.012361186 0.0070642903 0.01401718 -0.007851104 -0.0007276125 0.010139503
正 -0.01850272 -0.0066597126 0.014159501 -0.015123279 -7.5772405e-05 -0.016710067 0.0027732495 -0.004270263 -0.011233174 0.012230333 0.01445229 -0.0045643803 -0.0014017597 -0.0077266647 -0.0008121133 0.004637165 0.018406134 0.013812404 -0.015824623 0.009240422 0.018262297 0.019316867 -0.01678235 0.019606005 -0.0032545142 -0.0039002914 -0.014800057 -0.010377209 0.014077123 -0.017003274 7.430464e-05 0.0032694265 0.012266662 -0.018098911 -0.01637808 -0.0058951713 -0.008861222 -0.0033693146 -0.005811326 0.019132953 -0.014360037 0.0027402788 0.0142364055 -0.017597534 -0.014682831 -0.003813466 0.004742373 -0.012695476 -0.0012657419 0.017565608
命 0.00036782958 0.0071064923 0.0053743236 0.010100784 0.017401796 0.008571597 0.015566595 0.0018271469 -0.011008496 -0.014216649 0.01559861 -0.019888643 -0.009667351 0.014848657 -0.010548694 -0.015257351 0.0014535543 -0.012945811 -0.017066794 -0.0104459375 -0.018537592 0.01067212 0.012720697 0.009021575 0.008894844 -0.00577554 0.017015692 -0.01698827 -0.0026550908 0.010981459 0.0015369318 0.017325092 -0.005612051 -0.009714885 0.015293393 -0.00047030486 0.0015540365 -0.013107384 -0.004067652 0.0043558553 -0.010102544 0.00796135 0.018143628 -0.0070810765 0.01682255 -0.015551223 0.018979345 0.010603281 -0.006963482 -0.0142865535
曾 0.012985304 -0.015364794 0.014524043 0.017935716 -0.0028616693 0.0016669203 0.0045011397 -0.0075384732 0.008753911 -0.01148411 -0.008980875 -0.002094254 0.015833803 -0.009842257 0.0053685326 0.019786734 0.01617352 0.013744 -0.015550923 0.0021097679 -0.010708387 -0.016900633 -0.006770186 0.010896018 -0.018751634 -0.009949145 0.010160586 0.017276447 0.017938681 -0.014922177 0.007879583 0.016961593 0.0153587945 -0.0149845285 0.0014659017 0.006325623 0.016261123 0.0023736246 0.00074395724 -0.013162518 0.019297771 -0.011579871 0.0063158106 0.00784112 0.01233856 0.009517822 -0.01775105 -0.0052901674 0.012731269 -0.017606804
伯 0.0007576272 0.0024464112 -0.0111182425 0.013899416 0.009280847 0.011482593 0.014786009 0.014138296 0.008503819 0.0115916915 0.018269844 -0.014414172 0.008061457 0.01587158 -0.003238285 -0.010769999 0.011226116 0.006499648 0.015899904 0.00070935674 -0.008385784 0.003417572 -0.019976458 0.0060548373 0.019640852 0.0016697161 0.016178455 0.012177758 -0.014954416 0.019619223 -0.014055385 -0.01367481 -0.019489858 -0.01615024 0.0032207146 0.01525794 -0.01670375 0.0037771966 -0.015596222 0.003433518 0.004453933 0.009660361 0.0019423813 -0.00421549 -0.01098633 0.009873619 -0.019451901 -0.010590427 0.008979084 0.01050376
门 0.0022133905 0.0034217164 -0.013805923 0.016292445 0.008205704 0.00028028898 -0.011609091 -0.005475113 0.011556927 0.012865122 0.0053076353 0.0011775121 -0.0026408006 0.005628921 -0.002049163 0.001612952 -3.0245632e-05 -0.0043979073 -0.0053197974 -0.010499384 -0.008543594 0.0039883684 -0.017754417 0.010900456 -0.0014788602 0.010668173 -0.0034448318 -0.016565403 0.015711937 0.019100979 0.0016118232 0.016613305 0.012296587 0.0039692204 -0.0056066588 -0.012495775 -0.0093283225 0.0045943856 -0.005818951 -0.018113477 0.013824835 0.010978315 0.01280608 -0.0024179537 -0.006717179 0.005964713 -0.0012896117 0.016089883 0.013876352 -0.010855415
敢 0.0060862843 0.018921211 0.018168349 0.011865929 -0.015396453 -0.019729171 0.0029506274 0.0029504504 -0.0018486865 -0.004983537 -0.002389297 -0.017507486 -0.0071768714 -0.011736589 -0.005128879 -0.010617084 0.0040484928 0.010265853 0.00832838 -0.012048745 0.005213797 -0.0010781903 -0.009180355 0.006095972 0.0011331104 -0.018538449 -0.0026114043 0.005846629 -0.0126054995 -0.0065841367 -0.01719618 -0.016596623 -0.013169315 0.0021495428 -0.014150331 0.009835968 0.005846517 0.012259442 0.0042542275 0.0039611477 0.0063930936 -0.008103349 0.015865024 -0.015250544 0.014021479 -0.008774579 -0.0029232353 0.019936759 -0.010236311 -0.0138979405
犹 -0.004887731 -0.0031461995 -0.00327776 0.013090178 -0.019513475 0.015941974 0.0016995147 0.018925767 -0.005542133 0.01921717 0.018302627 -0.003297463 0.0014648866 0.013184525 0.01999481 -0.015740091 0.009223532 0.0010350943 -0.012354712 -0.012106871 0.01689053 0.0016061906 -0.0027599838 0.00043805875 -0.0073431106 0.0026729107 -0.013493638 -0.0019424297 -0.018589728 -0.005322828 0.010931602 -0.0007721558 0.01179146 -0.0032092743 0.019261971 -0.009368274 -0.010069542 0.004810622 -0.01265325 -0.0012524277 0.003819026 0.01915209 0.0010105465 -0.004283244 4.594773e-05 -0.0069867894 -0.019813817 -0.019453717 -0.0039799977 0.013115872
生 0.0031516142 0.015462723 -0.0033443514 0.0007349793 0.014935527 0.005730476 -0.01557995 0.017678555 -0.01745965 -0.018692896 0.0033278987 0.00053963624 -0.012998326 -0.011658699 -0.0054720473 -0.018916018 0.016435646 0.0035641175 -0.0030376744 0.008155765 0.019943923 0.0031696837 -0.008352382 0.01909301 0.0028167143 -0.016626745 -0.007172956 0.013242386 -0.019630741 0.0047019925 0.005816981 -0.0014575124 -0.019260867 0.014009751 0.012870289 0.009408945 0.007853083 0.012366559 -0.018816018 -0.0112162065 0.00035572238 -0.00870331 -0.016782844 0.007919433 0.013081163 0.0011056885 0.019523736 -0.013523292 -0.014239461 0.01960915
日 0.010219609 -0.0071314424 -0.011993112 -0.0042822137 -0.01822015 0.007944576 -0.012790112 -0.016008206 0.00952029 0.0053834394 -0.011197708 0.003409911 -0.00694158 0.0048665907 -0.009912567 0.009995209 -0.009880809 0.010213664 0.0041377656 -0.013578476 0.005227063 -0.010155814 0.010926215 -0.0019060392 -0.010153243 0.014661182 0.0030402225 0.017318591 -0.0140703395 -0.0037802663 -0.0056727882 0.010365054 0.0086028185 0.0024472885 0.0077848267 0.01792676 -0.010227213 0.0022999402 -0.01448657 -0.0062887836 -0.0062822606 0.01466148 -0.001250647 -0.013916907 0.0018276386 -0.016043246 -0.013573373 0.016649157 -0.009332528 -0.010856375
敬 -0.012879362 0.0072928946 0.005219957 -0.0066996505 -0.0032588597 0.0022478886 0.013015132 0.007027747 -0.019725394 -0.011989508 -0.002043875 0.013526827 -0.01969354 0.012211133 0.014588967 0.00524527 -0.0071107224 -0.00523323 0.013408929 0.00034794025 0.008478029 0.014155071 0.00938973 0.011862934 -0.01576539 -0.011780779 -0.018606054 -0.018250346 0.0066468883 -0.013060405 0.0039723665 -0.017248102 0.00023090094 -0.009690919 0.010874152 0.0013234075 0.0057308115 0.01743051 0.0050590225 -0.009318821 0.0041542854 -0.012428004 -0.0048881695 -0.01302227 0.014914878 -0.01352292 -0.019985354 0.014488701 -0.01812035 0.0040641017
难 0.014776945 0.012225803 0.001526406 0.0018946175 -0.009948475 -0.003786791 0.013389152 -0.0070428867 0.009745402 0.0050679967 -0.0028000288 -0.0053363843 -0.012027888 -0.0021570008 0.0033098385 0.002644563 -0.0046386216 -0.012234847 0.004117701 -0.0053672167 -0.019549264 -0.01916991 -0.0017438456 0.008850694 -0.01494004 0.014370196 -0.009023778 -0.0066307234 -0.0063816 0.005316954 0.013639439 0.0016117841 -0.00491276 0.016179506 0.013878923 -0.016562361 0.014396038 -0.014252579 0.0033308547 0.015531078 -0.0066482257 -0.018052682 -0.007599444 0.0043951366 -0.004139131 0.0012126844 -0.0006342754 0.0130110085 0.0184738 0.015345462
直 0.012192234 0.014267776 0.0155909695 -0.012180075 0.003894858 0.0049290173 -0.0035615675 -0.011459753 0.0022651106 -0.0107061835 -0.0024019573 0.01727802 -0.0015346184 -0.0011915285 0.016414545 0.016561318 0.01912862 -0.018474549 -0.0027157124 -0.0106262155 -0.0077939555 -0.0099761365 0.017705433 0.0017525479 0.018934514 0.019727472 0.013463654 -0.008117974 -0.015196726 -0.011559536 0.0139362775 -0.01050766 0.006133208 0.001575062 -0.004026795 0.004276866 0.015526101 -0.005837338 -0.0047972063 -0.013762193 0.017256875 0.01274924 -0.014752934 -0.00014252402 -0.009470124 -0.0052860593 0.005589608 0.019351438 -0.0017640609 -0.011490087
丧 -0.017234242 -0.005388532 -0.010391254 -0.008808489 -0.015975296 0.0037125852 -0.017674942 -0.017826142 -0.0056181047 0.017984997 0.0037895348 -0.0031308942 0.0030021127 -0.0018594507 0.010012234 0.01736239 -0.0012260601 0.014963452 -0.018004812 0.014609989 -0.0062520355 0.0026618224 -0.0025901683 -0.015203204 -0.0023878831 -0.013719811 0.0073712077 -0.0099361325 -0.01587678 -0.0080101555 -0.011957111 0.016216978 -0.003347557 0.01668128 -0.018855767 0.012797989 0.007672591 0.004244836 0.002438631 0.0010632463 -0.008930609 0.0029542893 0.0107128285 -0.007800434 -0.015656525 -0.010013377 0.010770414 0.0010062773 0.014876734 -0.019996574
说 -0.00998317 -0.006223783 -0.019069463 0.0010126121 -0.01994173 -0.0016861223 -0.009227907 0.0065875836 -0.0047032256 -0.0015561339 0.004404431 -0.0015873369 -0.013201194 -0.019086484 -0.0019295998 0.019190785 0.010689108 0.0041022673 0.012993284 -0.0136337895 0.007839274 0.0036833119 -0.013956623 0.0067343134 -0.012378876 0.01886101 -0.008969428 -0.0016108826 -0.009055822 -0.0025794618 0.017970175 0.011592325 0.0054116957 0.0033872612 0.014574163 -0.008940539 0.015292238 -0.018966958 0.01397796 0.009561472 0.006194258 -0.008195655 0.010588445 -0.0017459057 -0.010357375 0.019563392 0.013109386 -0.012944112 0.013179582 0.010978622
自 -0.010708503 -0.012221431 0.0041866656 -0.014257101 -0.008271656 0.00519209 0.017962404 0.006499544 0.01838202 0.014117852 -0.017058197 0.0074560884 0.018220346 -0.011676786 -0.015888013 0.015964035 0.019176275 0.0017184298 -0.0017106086 -0.014238741 0.00448988 0.0109883305 0.0042325966 -0.014352774 -0.009585693 0.0039819907 0.018144045 -0.01839116 -0.009026959 -0.0032243878 0.00257992 0.019190174 0.00447019 0.018390939 -0.017435543 -0.019274747 -0.0011530705 0.010308757 0.005109379 0.007081626 0.0024324302 -0.018661296 -0.010084338 -0.014801037 -0.01891637 -0.008527866 0.00073835626 -0.006679153 0.018648967 0.013994649
用 -0.0040853564 -0.0022967309 0.014389679 0.00024355575 -0.0028507374 -0.003501691 -0.016526086 -0.0070196623 -0.008660202 -0.00017675199 0.00973274 0.015637353 0.018089145 0.017585106 0.010115128 -0.008839459 -0.019990992 -0.01674655 -0.012314824 -0.0022804756 -0.011015875 0.014087569 -0.017495899 -0.014843945 -0.016385695 -0.004434211 0.015382078 0.0028345194 -0.008246505 0.012070209 -0.019320821 -0.0026022345 0.0047456697 -0.019934028 0.01702432 0.010913387 -0.010099969 -0.016601836 -0.008972938 0.016416986 0.0037851948 -0.0042523313 -0.0026641227 -0.005089931 0.003458986 0.008662954 0.004646225 -0.01687934 -0.016368771 0.0027171224
周 0.019369125 -0.01908666 -0.010932598 -0.002958892 0.004725212 -0.011424551 0.005814908 -0.0030895881 -0.0020667072 -0.011889545 -0.006839852 -0.0009345468 -0.011464166 -0.016584642 0.01633403 -0.010968554 -0.0022621993 0.012004305 -0.00800035 -0.011579878 -0.013529212 -0.001493074 -0.014837679 -0.0010786466 0.0022729896 -0.003861038 0.014341768 0.0042347983 -0.000494685 0.018028911 0.011094224 0.014298316 -0.013259916 0.018076338 -0.0023073796 -0.019762348 -0.011623676 -0.00013007596 0.017019033 0.003770342 -0.0012804177 0.016828954 0.01921932 -0.010298543 0.0011770409 0.0031521246 -0.0021769945 -0.003107665 0.011278652 -0.013863036
颜 0.017830249 0.0045472123 0.019093838 0.006868925 -0.007739553 -0.008342044 0.016615994 0.012996934 -0.009102254 0.007926021 0.01178024 -0.01105633 -0.014127907 -0.010834674 0.006719146 0.011368655 0.008893244 0.00333496 0.008915298 -0.016935747 -0.004484617 0.0060033556 -0.00075106695 -0.019800985 0.009495534 0.019493386 -0.01704471 0.01528725 -0.010545997 0.0014490709 -0.005090356 0.005873317 -0.0098456545 -0.0056587076 -0.0023451615 -0.01587489 -0.01694047 -0.007345018 0.009476867 0.005456591 -0.018653223 0.00025799684 -0.012467594 -0.015214121 0.00053052604 0.013686709 -0.0049471613 -0.002997268 0.0061010662 -0.018001836
年 0.002711324 0.005693512 -0.0009574797 -0.013117051 0.013759609 -0.010466573 0.011195669 0.014124136 -0.0031748004 0.0030153878 -0.0018129945 0.012734946 0.0036493968 0.0015449338 -0.007893049 0.013740234 -0.014239481 -0.0072121285 0.009683829 -0.0048729107 -0.015243478 0.018940464 0.015612811 0.016498912 -0.0037931744 0.009715833 0.014264405 -0.0062722685 0.016509343 -0.014559826 0.014228571 -0.012332728 0.01199127 0.013129767 -0.0039771367 -0.018332548 -0.0055885883 0.015788585 0.009642312 0.008902049 -0.014567151 0.013225969 0.008422963 0.0014375113 0.0033231713 -0.00969003 0.0036352184 -0.01869907 -0.013525205 0.004522836
告 -0.0040382426 -0.004455073 -0.009651704 0.0137502365 0.006918067 -0.0065847253 -0.010591247 -0.010263564 -0.0028852075 -0.0056984685 -0.005928359 0.007864328 0.015220311 -0.00905581 -0.005599415 -0.010416879 -0.010596058 0.01158876 0.009067152 0.015862428 -0.003136726 -0.018647876 -0.016465241 -0.018201968 -0.011634986 -0.01267951 -0.011280809 0.00744042 -0.012063569 -0.009638409 -0.011013052 0.010618508 -0.00980457 0.0048007537 0.0056754537 0.011424735 0.0011029057 -0.0045074103 0.004093012 0.018277213 -0.003562117 -0.008546869 -0.019024286 0.00486695 0.008654086 -0.0023601968 -0.0105664255 0.014839709 -0.004786129 0.0045244265
十 -0.01819254 -0.0023318976 -0.013608086 -0.009539094 0.013052221 -0.012235324 -0.013289113 0.0095120575 -0.016688066 0.0030159093 0.014803216 -0.011310536 -0.0021718163 -0.0050283074 -0.015142936 0.019583069 0.01956008 -0.011191163 0.014379431 -0.0030647572 0.0036754012 0.0058832485 -0.016453005 0.004945349 0.0043032244 0.003601592 0.0055820253 0.01373256 0.012680247 0.008467238 -0.019864857 -0.0064334795 0.0081223585 0.016036864 -0.018043267 -0.011817841 -0.011897566 -0.0037193652 0.006245509 -0.015834361 0.019608427 0.018655147 0.0069347285 -0.014687274 0.010422697 -0.0012832545 -0.013744364 0.016744435 -0.002125254 0.004124094
怨 -0.007455644 0.0006573554 0.0120553 -0.018462824 -0.0108688595 -0.013023893 -0.019776601 0.001017049 -0.013839994 -0.005003984 -0.009198725 0.012887593 -0.010022182 -0.017145567 -0.01310445 0.016912483 -0.0017283466 -0.01198549 -0.0077026673 0.01505933 -0.0076836133 -0.0029878672 0.0024577621 -0.013498614 -0.013762059 0.0024146587 0.018860143 0.011151452 -0.01690215 0.012199841 -0.007842938 -0.019244147 0.014838938 0.0100582335 0.011408377 0.0070050806 -0.014134755 0.012683418 -0.017445933 -0.0006522797 0.018331055 0.013338208 -0.01843084 0.008112922 -0.0033266637 0.012234516 -0.0031216387 -0.01010909 0.015345376 -0.0034125652
达 -0.01016438 -0.0034881663 0.0037899204 -0.00019395351 0.008603623 -0.013358662 -0.008247428 0.019841455 0.0066979416 0.009943858 0.009825954 -0.010377395 0.019363955 0.012165178 0.014222398 -0.016960248 -0.0041578654 -0.014090532 -0.008109045 -0.0038426537 0.0016146749 0.0050419252 -0.0069124317 0.010231873 0.0058742072 0.0020030402 0.008505514 -0.004889097 0.0075055603 0.0052879453 -0.0048008533 -0.010742802 0.011126669 0.01256533 -0.0026919078 -0.019802805 0.002341358 -0.0020509735 0.018964812 0.006100783 0.008589586 0.0150866285 -0.006608393 0.009844188 -0.00963295 0.01386328 0.0028010923 -0.010757281 -0.008151455 -0.0011417754
孝 0.01839365 0.0017652959 0.014439788 0.010659609 0.006180702 -0.012306261 -8.4215775e-05 0.0077663474 -0.0029320363 0.01808161 0.006232431 0.018107913 0.009663474 0.0132912025 0.0034777243 0.008402852 -0.007602525 0.016177602 0.0053611323 -0.015961139 0.014218006 0.014889829 -0.004511549 -0.0065136887 0.016989272 -0.013178909 -0.009262958 -0.015311527 0.018339869 -0.004791815 -0.016680464 0.00945776 -0.016939413 -0.009276798 -0.0056794574 -0.018291626 -0.01723001 0.0053903833 0.008267513 0.0193021 -0.010690274 0.0041310806 0.008453334 0.0029509384 -0.0053549595 0.010423481 -0.0075427936 0.00051858835 0.013794363 -0.0060927076
弟 -0.01149503 -0.013642544 -0.0050829453 -0.002882855 -0.0076547526 0.0066387486 0.010901939 0.005722571 -0.0035812575 0.016941119 0.0016981047 -0.009572987 -0.019423684 0.014310963 -0.0054337354 -0.0029247012 0.0045014974 -0.019625481 -0.0013301037 -0.0026846696 -0.01897215 0.013759267 0.019424323 0.015006069 -0.0059959674 0.005855052 0.0036911182 0.009644758 0.012482792 -0.0074872468 0.011345442 0.0043673627 -0.013415331 0.0155263245 -0.0055387923 0.014099032 -0.0012164768 -0.004591358 -0.008509752 0.0016551726 -0.019081526 -0.019820625 0.008007674 -0.019755026 0.016868554 -0.01893014 0.011511836 0.0035644937 -0.01483167 0.0068091005
至 0.0023690816 0.017087892 0.018841222 0.0013537165 -0.0007048566 -0.018615918 -0.012871005 0.016797569 -0.0033148136 -0.010229675 0.019541867 0.0064889565 0.008111108 0.019736093 -0.008279772 -0.019603867 -0.0066608954 -0.014131216 0.004497487 0.004216306 0.004962992 -0.010019979 0.014214631 0.013779987 -0.017914893 0.0008864831 0.0148938075 -0.00023827702 0.008267811 -0.012752058 0.008840006 -0.015250998 0.013507713 0.008681599 -0.0028893687 -0.0116544645 -0.009965735 0.0003051497 -0.013270421 -0.004331639 0.009412594 -0.015535116 0.019790001 -0.008985912 0.018042859 0.016807638 -0.0071805473 -0.01649007 0.013743017 0.0024765637
先 0.017167788 -0.010487575 0.009110877 0.011759289 0.008223822 -0.01595371 0.0059808344 0.0042124204 0.011247983 -0.007997715 0.012680229 0.008721177 0.0062875077 0.01382998 0.0021717139 -0.0011578538 -0.018245725 0.014457952 -0.016059335 0.0010732394 6.351434e-05 0.012728773 0.0010491833 -0.014292337 0.006999325 -0.014558479 -0.015919745 0.010723829 0.009599075 -0.01216335 0.0043267496 0.002266502 0.0044918936 0.01490761 0.00287343 -0.0034823753 -0.015690302 -0.0037732534 0.018516231 -0.008482707 0.0030428227 -0.013155818 0.013070349 -0.008444872 0.015796028 0.012732163 -0.013880111 0.0034852345 -0.013110189 0.0018793251
师 0.004547974 0.019804645 0.007950187 -0.009784488 -0.010995917 0.01622362 0.0048182067 -0.01972735 -0.010169091 0.019555073 0.011850268 0.007230919 0.008409597 0.01950574 0.0059701353 0.016546767 0.018984929 0.018676404 0.015639417 -0.011875548 0.009882914 0.0036002304 0.011907153 -0.019733485 0.0010479745 0.010688245 -0.0062605906 -0.007979169 -0.0054918267 0.019040335 -0.00087507814 0.013673674 -0.0030338839 -0.016930811 0.009549586 -0.009313137 -0.014866728 0.019416504 -0.019873401 -0.008754206 -0.017862065 -0.018970892 -0.002530003 -0.008687357 -0.011806993 -0.019878041 -0.0024148282 -0.008019371 -0.0041118544 -0.0004936736
女 0.004279675 -0.014021169 -0.019030558 0.010912284 -0.008398874 0.007134784 0.0081320405 0.0059548784 0.0020795893 0.008772586 0.014430482 0.014367335 -0.009854934 -0.005478937 0.012186337 0.008482644 0.008583855 0.0101605635 -0.011126971 -0.015259587 -0.0040666442 -0.0061530657 -0.01648633 -9.666383e-05 0.012782462 -0.015969113 -0.0088918945 -0.0074423123 -0.011503438 -0.019226661 -0.013970551 0.01320694 0.013862155 -0.014654054 -0.010674212 0.0128046945 0.010972388 0.009047493 0.014985636 -0.018263096 -0.01992791 -0.005738804 -0.011624622 -0.008881807 0.01855795 -0.017195344 0.014956217 -0.016283138 -0.016519051 0.004661532
多 -0.013228998 -0.009552772 -0.003810851 -0.012007854 -0.019958718 -0.0111278435 0.01627449 -0.015936397 0.019764736 0.003849931 -0.00069424324 -0.008181248 -0.007555659 0.0060484335 0.003824694 0.004105689 0.0034722518 0.0026708078 0.015236493 0.013399817 0.007580679 0.013690103 -0.017218044 -0.0121018505 -0.0062031504 -0.019551255 -0.017093133 0.017054103 0.009566348 -0.00079812855 0.011127969 -0.01040118 -0.01876975 -0.003927784 -0.009584731 0.008312516 0.013035949 -0.017788265 0.0015035421 -0.019860081 -0.017498631 0.006165238 -0.011854045 -0.010606751 -0.013707258 -0.0014816076 0.0093436185 -0.012176158 0.014381144 -0.012667525
忠 -0.013279056 0.016942505 0.0055300277 0.013667736 0.0063351206 -0.014158978 0.0062500928 0.009306109 -0.0036210027 -0.015794743 -0.015671786 -0.01274013 0.018591203 0.012604862 -0.0065521766 0.0027949978 -0.005163517 0.0073871557 -0.016411928 0.00019379146 0.012892593 0.00036930852 -0.009948795 0.003045084 0.01653742 -0.018618707 -0.019551927 0.006905539 -0.002612641 -0.008868286 0.0159446 0.010107584 0.018262189 0.012215652 -0.014735615 -0.016916404 0.011004647 0.018320244 -0.0010812804 -0.015050925 -0.013474793 -0.013622947 0.015116993 0.00158225 0.006538097 -0.017460044 0.0003381744 -0.0025225691 -0.0019107386 0.007951969
四 0.0007326659 -0.011554191 -0.004173184 0.013376895 0.0022042822 -0.013870241 -0.013090565 -0.017238956 -0.002031181 -0.003786916 0.00044137985 0.014191844 -0.018465895 0.01805766 -0.010276671 -0.0027691834 0.011456378 0.005992729 0.019775607 -0.01613783 0.009023154 -0.0048449226 -0.010158626 -0.003285002 -0.009182579 -0.0062901117 0.0072018225 0.0054228883 -0.017769195 0.013539232 0.0009652525 0.010175878 -0.0132978605 -0.012891948 0.003170684 -0.0057921596 0.005127039 0.015464969 -0.0014233105 -0.019153219 -0.010229725 0.01491569 0.0063997544 -0.006587825 0.01716096 -0.0024552438 0.015391968 -0.01685009 -0.0014624223 0.008403217
疾 0.0105602 -0.012505088 0.007861702 0.018301968 -0.01026145 -0.003491046 0.00073202886 -0.0046418738 -0.0067187166 0.008321339 0.019856565 0.013094455 -0.003935039 0.01708034 -0.0038118549 -0.013957644 0.0002075173 -0.011082389 0.01458092 -0.019274766 0.01657921 -0.01757953 0.014318079 0.017505355 -0.017709613 -0.0077352813 -0.010155696 -0.012571096 0.0027310345 -0.014039633 -0.014360005 -0.017599143 0.014364786 0.013549518 -0.011370025 0.012041062 0.00717598 0.002024211 0.0030243285 0.01224361 0.0126374625 -0.016054463 -0.0027266722 -0.0108580375 0.0007254649 -0.010597739 0.017866693 0.006310055 -0.014309501 -0.019593377
服 -0.004196314 -0.002126651 -0.0059218453 -0.012916923 -0.018066388 0.014981531 -0.0074156066 0.0133291 -0.016025892 0.0067863353 -0.0035033375 0.018941902 -0.00806227 0.009744855 -0.008278494 -0.0017443635 0.012100305 -0.0069297077 0.018527173 -0.0082053635 0.012767024 0.017432287 -0.006213315 0.014363002 0.0046306755 0.007663872 0.005205523 -0.010005846 -0.0016071182 0.01189027 -0.0021048207 -0.007362623 -0.005271811 -0.016199939 0.01185428 0.007603405 0.00087479874 -0.009686293 0.009437723 -0.019442631 0.00032063015 0.0001200065 0.014800254 0.009541487 -0.012834229 0.019199677 0.015597563 -0.00314687 0.011480708 -0.018739015
氏 -0.019879885 0.014299549 -0.012571508 0.018786848 0.0017097164 0.005077483 -0.018248443 -0.0058526965 0.0014079213 0.015385259 0.012290344 -0.00017858669 0.00072310865 0.009207958 0.0075012967 0.0177234 -0.01637446 0.014207847 -0.016010754 -0.014326712 0.01813345 -0.014961648 -0.0006825011 0.0064479318 -0.001273673 0.018037863 -0.016384996 0.015807956 -0.008205483 -0.010824442 0.0150121 0.006614603 0.0045666415 -0.017497744 -0.0033131093 -0.007877688 0.019813832 -0.00545727 0.009355238 -0.0071298573 0.009035304 0.0058495644 0.013814669 -0.006973274 -0.004225366 0.004488766 -0.011061673 -0.018944876 -0.014013102 0.014771141
冉 -0.012536237 -0.014951911 0.01929212 -0.01938683 -0.018795101 0.010623148 -0.009642684 -0.019684535 -0.0036674943 0.01301704 -0.0135189835 0.017221753 -0.011782386 0.010855801 0.012114063 -0.015882144 0.0058190655 -0.014224861 0.013382956 0.017558664 0.018749863 -0.005374117 0.019201435 -0.009660258 0.004135005 0.0040569305 -0.0019332506 -0.013690257 0.0032567717 0.0007225722 -0.00813462 0.003765747 -0.008154187 -0.012891432 0.015459273 0.007314177 0.017675314 0.0056160763 -0.019718101 -0.017277779 0.019340698 0.00970266 -0.010853548 -0.0047972323 0.016494699 0.005031746 0.009556238 0.016625185 0.009438591 0.01896172
将 0.007922752 0.017903034 -0.010680549 -0.0027642418 -0.018148314 -0.0031037256 0.013049822 0.007575121 0.002197178 0.016387861 0.007857768 0.008377725 0.008271432 -0.012089898 0.013080362 -0.017035764 0.013962906 -0.011522598 -0.014889998 -0.013563528 -0.010299386 0.009961616 -0.016066307 0.0041441564 0.0030316617 0.013792776 -0.01174489 0.0082863495 0.0006201975 -0.0015175566 0.0025264379 0.017394505 -0.006480567 -0.014547603 0.005030036 -0.005263607 -0.0067076534 -0.0027865842 0.014458939 0.018480096 -0.0030106138 0.0055453256 0.01187424 -0.012856157 -0.0067391135 0.012127522 0.013517477 -0.011433012 -0.01744767 -0.0011785794
士 -0.003106987 -0.006535277 -0.0021831058 -0.007457264 -0.014435342 -0.012524001 0.017678596 -0.012161712 -0.0069659017 -0.018513393 -0.0088404585 0.009864023 0.0016651675 5.127117e-05 -0.0043641217 0.004847832 0.011860505 -0.005087437 0.010260878 -0.011750321 0.015511293 -0.005666339 0.007241491 -0.008821585 0.014357001 -0.003760498 0.017870571 0.01408546 -0.0076540112 0.004965743 -0.00822619 -0.013668661 -0.009637036 -0.018672181 0.0009915512 0.011448659 0.018065613 0.007011883 -0.016035266 0.0056231376 0.018939782 0.005086638 0.0015690308 0.0005217027 -0.010679988 -0.007334998 -0.0021355823 0.0075666644 -0.0063439086 -0.01170192
丘 0.012172237 -0.015409155 0.0026209876 -0.009487727 0.017925713 0.008059867 0.019999407 -0.0014210027 0.00045228563 0.013531253 0.0108885 0.018226665 0.011469625 0.00070884265 -0.013157863 0.0083696935 0.019143969 -0.008407666 -0.003578091 -0.0021881536 -0.0038579386 0.00036594458 -0.0117314 -0.0005874317 0.008974316 0.007092554 0.00616139 0.016003948 -0.015067975 -0.009296739 -0.008153321 0.0001930613 -0.016314022 0.015511047 0.015725713 -0.017473554 -0.013522811 0.00496627 0.0031760577 -0.0031906348 0.008055111 -0.011584427 0.00048147887 0.018978473 0.013042498 0.006719405 0.013615996 0.0055788606 -0.0076689506 0.011102915
