1352 50
， 0.5722694 0.5558261 0.6049606 -0.53699344 0.57880026 -0.60534084 -0.59068084 -0.5818755 0.4653466 -0.59004444 -0.5890375 0.41647524 -0.588794 -0.60846347 -0.4974699 -0.5895264 -0.5745722 -0.5651704 -0.5513466 -0.2188806 0.5913738 0.5605152 -0.59758925 0.55186677 -0.5709596 0.58611023 0.20995454 0.585224 0.5559879 0.45007733 -0.1486202 0.50585717 0.5056986 0.51254165 -0.590542 0.5612455 0.40648243 -0.59200966 -0.56320447 0.6079232 -0.54569525 -0.578926 -0.5917807 -0.5969051 0.58043224 0.49764025 0.40814438 0.5609287 0.60807866 -0.5066484
子 -0.5500495 0.15826453 -0.5928531 -0.4868326 0.35492194 -0.39506522 -0.2717889 0.58551604 0.3750799 -0.46181953 0.4140354 0.31733426 0.28336585 0.5792396 0.27531588 0.60486925 -0.68901765 -0.58656543 -0.21539065 -0.38696274 0.62550455 0.4239307 -0.5186351 0.37546584 0.5671608 -0.4250472 0.054488495 -0.22859043 0.106378846 -0.38940996 -0.63769907 -0.56555736 0.37437537 -0.13392082 0.068664365 0.45343766 0.50085384 -0.6535791 -0.5715135 -0.07637948 0.49942163 -0.61907256 -0.59614116 0.6703439 0.57251567 -0.5518895 -0.21319537 0.56010425 0.55641395 -0.5872477
。 0.23152883 -0.07106133 0.12905943 0.16772026 -0.026914025 0.30288258 -0.010919697 -0.3281303 -0.1963163 0.15242028 -0.19267645 0.13444595 -0.0892961 -0.25810164 -0.14730255 -0.020069215 0.04415334 0.11266591 0.1845192 0.26024756 -0.20503655 -0.19733262 -0.1519342 0.27195475 0.028060054 0.20317201 0.15870503 0.1398808 0.14319386 -0.17371406 -0.08330962 0.22240674 -0.17232308 -0.104070365 -0.13508159 0.17166375 0.2397931 0.15335242 -0.017316395 -0.13610682 -0.116537794 0.34469366 0.24710047 0.14618354 -0.24153998 0.16886881 -0.010379173 0.042482328 -0.068295635 -0.14312911
： 0.011768956 -0.33504888 -0.32276914 -0.3030708 0.3073976 0.23512179 0.27516568 0.2965225 0.15485495 -0.32194853 0.35502842 0.29753256 0.23028967 0.30642503 0.27876264 -0.16997387 0.31956214 0.3647498 -0.36394516 0.2747013 -0.03369836 -0.31164607 0.26933536 -0.0026163855 -0.3193259 -0.103380814 0.337083 0.1640989 0.22287764 0.10872388 -0.34719446 -0.2332899 0.018626478 0.34863043 0.3483743 -0.30773878 0.32705745 -0.33142877 -0.15664256 -0.3404353 -0.32577968 -0.0817597 0.3341866 0.0072290045 0.31780022 -0.32075772 -0.20346376 -0.2615234 -0.31035817 -0.32752165
曰 0.3340773 0.36275262 -0.3359792 0.34096292 -0.28062212 0.17940922 0.30774525 -0.35866696 -0.32079998 -0.3410435 0.30528045 0.2822932 0.16109197 0.3450595 0.052156713 0.3007407 0.3017512 0.33356136 -0.21452987 0.23743802 0.2070321 -0.32629293 -0.31108037 0.33960673 -0.31536332 0.30490658 0.21513303 0.3155669 -0.33737156 -0.3232662 0.15903403 0.3308161 -0.1077273 -0.10710998 0.35998467 -0.20287177 0.33020005 0.30815914 -0.32836455 -0.200579 -0.2654021 0.34905586 -0.27317855 0.3223258 -0.23311526 0.36675248 0.33285233 0.32021016 -0.3087199 0.35099676
之 0.0192 0.30663627 0.3518141 0.2909728 -0.35437238 -0.33911613 0.3028401 -0.31258103 -0.3212453 -0.3171919 -0.32895297 -0.048891924 -0.35409063 0.34619844 -0.23291975 0.31466234 -0.34636924 0.08729391 -0.145995 -0.34941778 -0.26343876 -0.21554413 -0.23784262 0.32987088 -0.3040538 -0.31684834 0.077454716 0.29564518 0.31356 0.2906698 0.31621593 0.31555706 0.355678 -0.34977898 -0.31619573 0.302756 -0.2759281 0.33183992 -0.33034685 0.33216977 -0.32007763 0.30480888 -0.30180022 -0.33694893 -0.34201968 -0.31975168 0.16583423 0.32684305 -0.3108689 0.34823185
不 -0.2684872 -0.31249562 -0.3069506 0.31281993 0.19988824 0.2625102 0.1305105 -0.021049468 0.30192184 -0.29577562 0.32017586 0.26694873 0.29905975 0.22209844 -0.31631622 0.2703488 0.3146773 -0.31186563 -0.2877273 0.30458474 0.30741912 0.29792005 -0.29570672 0.30444878 0.30941954 0.2735439 0.3342689 0.27189812 -0.052069835 -0.26603243 0.25584754 0.28249505 0.31604528 0.29709417 -0.193304 0.084444165 -0.041437313 0.23277216 -0.30102727 0.3016737 0.31911314 0.30711716 -0.3101517 -0.24695054 -0.30598924 0.060146183 -0.3224581 0.31080863 0.057894997 -0.28773662
也 -0.14964093 -0.23918399 0.35451892 0.3712553 0.22267063 -0.35755455 -0.10617129 0.38339782 -0.38232782 -0.25711298 0.3702437 0.32281387 0.34882244 -0.35008362 -0.36592194 -0.3914411 0.38032004 -0.34326887 0.38062662 -0.35141626 -0.30062908 0.011332685 -0.25302896 0.3622413 0.32487923 -0.23964126 -0.36160356 0.35626063 -0.24516675 0.27067387 0.32854933 0.20854531 0.34046698 -0.36112168 -0.32998103 -0.3538511 -0.34048632 0.37569785 0.2764319 0.33366525 0.06010913 -0.35907233 -0.36412036 0.36466408 0.21849805 0.3545949 0.3532289 0.3580525 -0.24189302 -0.3351979
而 -0.120026395 -0.33914137 0.0831161 0.1567878 0.11323689 -0.25748658 0.032479193 0.012167309 -0.2250161 0.28452832 0.06394595 0.06300435 -0.2476633 0.22576785 -0.012391685 0.096696764 0.1133703 -0.053896077 0.33575118 0.007820571 -0.13370605 -0.021359865 -0.045805976 -0.0352272 0.018608019 -0.25845551 0.0025900407 0.014769961 0.19788669 0.077914335 -0.11019809 -0.26354226 0.094872594 0.059443593 0.06558031 -0.1198244 -0.23444577 -0.15097255 0.4194966 0.49578413 0.042777255 -0.008374031 0.32330957 -0.18491803 -0.055449408 0.054425053 0.04631876 -0.12761614 0.23362261 -0.05501413
？ -0.30400074 0.3222281 0.33871105 -0.29455492 -0.2512896 -0.3126361 -0.30748954 0.3106486 0.22627068 0.31072575 0.34756818 0.3167326 -0.26506203 0.18330665 0.27439308 -0.31300783 0.29761577 -0.24067828 0.26305678 -0.32275844 0.05146411 -0.27311403 0.31538627 0.26923722 0.29072413 -0.32911825 0.15090397 0.3278461 -0.36117518 0.26861507 -0.12689713 -0.329253 -0.27845263 -0.30851972 0.11772641 -0.3642443 -0.11716897 -0.26433587 -0.31484345 0.14062613 -0.2934279 -0.30521718 0.32196638 -0.28918996 -0.21405731 -0.27495715 -0.29156697 0.32155257 -0.30481952 0.27883127
其 -0.23854369 -0.19275548 0.29747567 0.03449186 -0.10709818 -0.21015581 0.021105953 -0.20835161 0.059778158 0.25450805 -0.25295547 0.16083218 -0.28571904 0.14199103 -0.26311564 -0.13252532 0.24460632 -0.07512535 0.043135352 -0.19510256 -0.29053017 -0.2147155 0.09429445 0.106330216 -0.25823072 -0.23083924 -0.20833723 -0.27216107 -0.25396362 0.33271578 -0.20909506 -0.16531725 -0.22119239 -0.20117582 0.212708 0.22077058 -0.30643675 0.10354032 0.0139750615 0.1889986 0.04704767 0.29100728 -0.11283036 -0.056560766 -0.28311053 0.23376243 -0.077311896 -0.24732454 -0.23657368 -0.057590198
人 -0.32227728 0.116978146 0.31078038 0.24188563 0.38481063 0.24570082 -0.3183593 0.113720484 0.32111725 0.14414802 0.18084651 -0.3414727 -0.33317658 -0.37187335 0.2412508 0.031908207 0.30034265 0.21468437 0.33798376 -0.36113152 -0.23680596 -0.33481142 -0.34571004 -0.34372154 0.35340366 0.34782135 -0.29978892 0.34450495 0.28434813 0.30684948 -0.26241484 -0.32976493 -0.14390622 -0.35200387 0.2975313 0.2814668 0.108528875 0.3429658 -0.31118655 -0.27894711 -0.0393608 -0.19417545 0.13028543 -0.2701527 -0.34043878 0.26343 0.33762187 0.07248532 -0.3390984 0.086157456
者 0.37082613 -0.36773738 -0.15224014 0.27193233 -0.17430335 0.3587635 0.08384408 -0.37177208 -0.038817212 0.19387995 -0.29665297 0.2586035 -0.008644239 -0.36837178 -0.3723631 0.2888527 -0.2706596 -0.36748278 -0.33747667 0.28068396 -0.3982048 0.02071987 -0.37295684 0.323019 0.43745697 0.35424095 -0.37509492 -0.33029354 -0.31298012 0.35602924 0.26325378 0.37826198 -0.17944098 -0.15489003 -0.3218455 0.115803234 -0.34912235 -0.22947735 0.24283265 0.33981988 0.17238677 -0.32871154 0.37341058 -0.38768235 -0.31712916 0.33534575 0.4163906 0.3499115 -0.33734828 -0.23616104
以 -0.1151181 0.33776373 -0.21100669 0.3236672 -0.34757847 0.32114658 0.33630466 0.32327506 -0.35628492 0.3383751 -0.00920807 0.31459194 -0.09823345 -0.2560556 0.3391 0.18372053 0.32724813 -0.35945818 -0.35580596 0.31645945 0.35409912 -0.053505294 0.35803443 -0.34608224 -0.29504582 -0.3419912 0.33921593 -0.29631114 0.32940796 -0.31671095 0.32787782 0.3410482 0.31051448 0.313851 -0.31269705 0.3486662 0.31437406 0.25472763 -0.20225245 -0.32293427 -0.32404304 -0.30459717 -0.3955359 -0.3519828 -0.28523916 0.31365722 0.019474186 -0.21614398 0.31008685 0.2728217
有 -0.30141142 -0.3436622 0.015085716 0.2491429 0.31638232 0.3311276 0.30340898 -0.31543657 -0.037555777 0.3219138 -0.311206 0.091752425 0.23032416 -0.3595162 -0.32464784 0.211575 -0.27858603 -0.26890272 0.3029152 0.33455813 0.16206834 0.34351057 0.3167691 0.3189285 -0.26889688 0.3143913 -0.1436161 0.32651702 -0.24885677 0.351561 0.30156478 0.32067028 0.33290455 0.3299657 -0.355212 -0.3298897 -0.30719972 0.32263047 -0.13159695 0.3294633 0.06422292 0.3347009 0.35073715 0.2855988 -0.34589887 0.3443247 0.34328908 -0.35424954 0.2772337 -0.28470182
于 0.1870038 -0.33324826 -0.19285257 -0.017806081 -0.25131714 0.31961071 -0.3270261 0.30381584 -0.07588574 -0.24792235 0.33021358 0.3362003 -0.36646035 0.11987047 0.28774554 0.2984208 0.31293857 0.3402338 -0.30625707 0.33949453 -0.3365229 0.29952323 -0.20936581 0.32559952 -0.32402343 0.3349009 -0.30118355 0.051196128 0.30700812 -0.34261042 0.22332019 -0.3414782 -0.30395332 0.2714722 0.1746431 -0.14294717 0.2689706 0.18215649 0.26467463 0.380976 0.35263312 -0.30946997 0.2446487 -0.30248228 0.3210491 0.30029023 0.30592722 -0.35800594 -0.010030991 -0.35901177
矣 -0.10212446 0.0063967295 -0.44095278 -0.037257757 -0.21711393 -0.036189362 0.0014437056 -0.14361739 -0.27121 0.026153004 0.18172395 -0.18127915 0.21067065 0.019292122 0.096544445 0.16100597 -0.15888964 0.18002753 -0.17359921 -0.048922397 0.031665947 0.09456812 0.17452034 -0.36651465 0.009302866 0.10673861 -0.083703205 -0.05403819 -0.06897743 -0.15355936 0.09380502 0.14218049 -0.053355984 -0.10250312 0.080151394 0.13458304 0.12217012 0.122820586 -0.019450009 -0.35090902 0.018064652 -0.30878145 -0.029883593 0.15281433 0.017999643 0.02640161 0.07471999 0.027850075 0.12673938 0.016721532
为 -0.34589604 0.04567652 0.08822494 -0.3245384 -0.2577189 0.022038827 -0.36672503 0.2711451 0.24633497 -0.38544425 0.3983839 -0.2747161 0.34977353 0.3212374 -0.30800745 -0.28574607 0.3342787 -0.30401143 -0.2903226 0.099303864 -0.31751475 -0.2991775 0.34560075 0.34345388 -0.2569337 -0.23880309 -0.1589965 -0.3165143 0.0857623 0.35629243 -0.20772736 -0.32593346 -0.32099068 -0.35727024 0.30745468 0.36025947 0.14266255 0.3238428 0.063102275 -0.37803733 0.29013452 0.05616246 -0.3596615 -0.33818516 0.27097362 0.2853561 0.1899712 0.28932035 0.34340674 0.25162736
君 -0.17123152 -0.16106795 -0.24415345 -0.24430872 -0.1878588 0.20964952 -0.18149164 -0.24891165 0.18713342 0.22742826 -0.21125619 -0.2622061 -0.07766222 -0.20830603 0.1999678 0.23480402 -0.08259874 0.23304306 0.15625054 0.20424066 0.10064042 0.22526096 0.14862514 -0.2847897 0.22744204 0.28499866 -0.126274 -0.31087688 -0.1441946 -0.18404356 -0.12713067 -0.22934039 -0.24328503 0.3033647 0.046791434 0.25557163 0.19955401 0.26279277 -0.13131776 -0.24398243 0.14833078 -0.06321908 0.237461 0.085378595 0.27642965 0.16308011 0.15201864 -0.005029087 0.29315153 0.22750539
乎 0.36109394 -0.3499481 -0.3392065 -0.31781867 -0.20732771 -0.35107508 -0.37092388 0.35561988 0.34136343 0.34678695 -0.2920212 -0.33178875 0.24926282 0.30613145 -0.33293554 -0.39671752 -0.27326882 -0.056900866 0.2873044 0.16539605 0.34034145 -0.3125949 0.33151045 -0.28287205 -0.34582466 -0.36514038 -0.34826863 0.36607444 0.16602199 0.26252052 -0.36874202 -0.38529179 -0.33296606 -0.36602575 -0.27838233 0.38824493 0.29529008 -0.24549614 -0.31041476 0.19086717 0.37027645 0.33382666 0.35999563 0.2756879 0.060238246 0.33728898 0.31045455 0.2019234 -0.06751671 0.27680007
可 -0.33727488 -0.27195397 -0.3339699 -0.30015647 -0.34480628 0.040705856 0.3575161 0.3328289 -0.3448807 0.33855352 0.31755555 0.20822583 -0.29299188 0.33831054 0.20648731 -0.07030862 0.1644401 0.33868006 0.34257576 -0.35374185 0.33656242 0.30013952 -0.25715622 0.25825638 -0.30662268 0.1393126 -0.29702753 0.12461338 0.30049556 -0.227037 -0.3451872 -0.2960534 -0.3309153 -0.35313624 -0.22794257 0.3477849 0.3019114 0.2654194 -0.347691 -0.33348653 0.3219406 -0.33940372 0.18456078 -0.048207626 0.3293918 0.05969231 0.24910247 0.3001705 0.1653404 0.26743194
如 0.3401208 -0.33286798 -0.35648298 -0.31374496 0.31448975 -0.19303648 0.28802183 0.34125626 -0.3616047 0.15343858 0.060727466 -0.32359526 0.32280752 0.31104028 0.3391829 -0.081025615 0.16933745 0.33836728 -0.4019168 0.36013296 -0.31958166 0.3513666 0.3681571 0.3524344 -0.31283516 -0.2857941 -0.28000677 -0.35164627 0.11258347 0.241045 -0.32350597 0.2556639 -0.14188617 0.33069962 -0.25177425 -0.11069881 0.36718604 0.16922505 0.35524654 0.26792085 0.31442603 0.11638192 0.40785438 0.33879894 0.37383527 -0.015208837 0.29175973 -0.047873594 0.3263793 -0.40809166
与 -0.3381808 0.2877457 0.39041793 -0.33497122 -0.23623042 0.19210671 0.32560727 0.26519397 -0.24154823 -0.415598 0.13806754 -0.34535906 -0.20130762 0.18821631 0.3299122 0.21306849 0.32025117 0.2631093 0.123864084 -0.24718824 0.011162056 0.34942713 0.3491235 0.34041288 -0.047961958 0.35349143 -0.3602916 -0.26594508 0.26606116 0.34721628 -0.3134108 -0.2520218 0.32310116 0.36625183 -0.32722583 0.23407844 0.035110734 0.3601341 -0.25175363 -0.27301538 0.37566957 -0.3130704 -0.20401932 -0.17966926 -0.20119217 0.3788504 -0.30316713 0.28522027 -0.042130716 0.1743639
； 0.24263705 0.09109446 -0.34601948 0.32767904 -0.32827076 -0.32125157 -0.25076312 -0.36073077 0.042074222 0.3154443 0.33664697 -0.30958286 0.2968242 -0.18415618 0.3438216 0.3271475 -0.3612519 -0.35189304 0.23358503 -0.16632436 -0.27921185 0.3357295 0.29436055 -0.3480177 -0.2617599 -0.33547828 -0.32002512 -0.34139994 -0.22923677 0.0004661819 -0.31187555 -0.26990595 0.3337864 0.24550702 -0.024869855 -0.097586766 0.3192861 -0.3465643 0.36654392 0.2771813 0.30590427 -0.3140357 -0.26328072 0.22096442 0.33641604 0.3567916 -0.13254532 0.24856119 0.26297194 -0.32772365
言 0.24644233 0.46658236 -0.5902264 0.011465737 -0.67289513 0.45135334 0.6077007 -0.05484576 0.38485476 0.0816758 -0.51316005 -0.64522034 -0.43445423 0.22536236 0.590585 0.5529353 -0.5907324 0.4810924 0.4090299 0.21531306 -0.33410016 -0.2988409 0.5967995 -0.5425728 0.59753966 0.5822972 0.15504405 -0.44419506 -0.11283852 -0.502919 -0.408133 0.24469906 0.5458129 0.3743327 0.7041067 0.55071384 0.5742153 -0.6534292 0.589679 -0.71881694 0.1561359 -0.5814117 0.19272959 -0.5637956 0.06870747 -0.40984544 0.35684845 -0.13961864 0.68672305 0.3853665
无 -0.08529555 0.35680217 -0.081751876 -0.35011664 -0.3743686 -0.33557212 -0.017652322 -0.273636 -0.3164309 0.2027097 -0.032964785 -0.31876212 0.20996389 0.3504082 0.25236747 -0.18952993 -0.3517581 0.28657246 -0.22816125 -0.31728345 0.42288655 0.39849442 0.32830435 -0.35554692 -0.32898062 -0.34371024 -0.32305846 -0.24053994 -0.27106148 0.3356239 -0.09107677 -0.13894464 0.36500037 0.1106905 -0.19999662 -0.3413869 -0.32927054 -0.33264714 0.3213979 0.18825144 0.35735735 -0.40175197 -0.2782006 -0.30537567 0.34190553 -0.43147787 -0.30486697 -0.23881997 0.3046265 -0.3449155
则 0.3554458 0.3551896 0.3083496 0.3098209 -0.3102419 -0.2644759 -0.09485395 0.059454363 -0.34002706 -0.23145787 -0.35929793 -0.31479067 0.35313743 -0.26117063 0.30253097 0.07833617 -0.23731329 0.3247063 0.18384019 0.24933192 0.34878224 -0.0038014592 0.31386915 -0.31758606 0.29187262 0.29529774 -0.34029552 0.054569762 0.31153306 -0.30499643 0.2434215 0.36427242 -0.21044415 0.40958053 0.2333433 0.357862 0.31807736 -0.36033762 -0.28987208 -0.35483956 0.12458046 -0.33445624 -0.09562304 -0.3577212 -0.19643764 -0.2969922 -0.20033145 -0.32164624 0.37484264 0.124373235
！ -0.36654145 -0.30101433 -0.1899223 0.18058142 0.17423457 0.36222485 0.39851993 0.37377447 -0.19572277 0.29136357 0.026183626 -0.37837085 0.35889366 0.059369598 0.3524362 0.27567154 -0.32319754 0.33626652 -0.36690518 -0.17604958 0.0048100497 -0.1339882 0.39607325 0.24471694 -0.29820067 -0.30921507 0.15344737 0.3169812 -0.20249178 -0.2706086 0.28296295 0.43427792 -0.19086172 0.14689632 0.2737591 -0.3204971 -0.11883917 0.19923884 0.32520756 -0.058700953 0.35568354 0.31744754 0.34902018 -0.35369337 -0.189674 -0.14252712 0.3811498 -0.281713 0.21542355 0.30203104
问 0.35292736 0.32446232 0.31263703 0.3524458 0.106847286 0.3590861 0.05756949 -0.380007 -0.321097 0.3452994 0.28928855 -0.37505755 -0.3711818 -0.3627722 0.14145839 -0.33489174 0.32624343 -0.44728744 0.3551439 -0.23788548 -0.1626591 -0.00069472054 0.29422235 -0.35241053 0.38796243 0.27362803 -0.33333054 0.31632805 -0.30555516 0.19232535 -0.111229524 -0.38074148 0.27555522 -0.26933727 0.23068248 0.29633984 0.35976404 0.25578162 0.2911552 -0.2863686 0.34598807 -0.35552335 0.39417154 -0.36981434 -0.09385506 0.3698289 -0.39864582 -0.26442367 -0.23012723 -0.33370146
知 0.31366712 0.23836881 -0.31936833 0.2365981 -0.2838077 0.32259187 0.3181529 0.3182329 -0.30466133 0.31802922 -0.30490863 -0.31862882 0.33143938 -0.33233538 0.32000616 0.27180764 -0.1006252 0.31973183 0.10979541 -0.3098128 0.29273432 -0.09563117 -0.2777734 -0.32833207 -0.3514869 0.2847099 0.2617469 -0.31623214 0.33019516 -0.2957342 -0.24495003 0.29064316 0.26668003 0.33766064 0.09559655 0.34046295 0.32205898 -0.32020706 0.29887938 -0.33601323 0.30166426 0.30564436 0.33236462 -0.32324532 0.3392927 0.28742352 0.025884364 0.3347616 0.28618664 -0.33931366
何 0.30182782 -0.039454427 -0.31308207 0.32421982 -0.17657399 -0.32825172 0.29848236 -0.2908625 -0.16428074 -0.31720063 -0.33361992 -0.34163928 -0.33864367 -0.20089373 0.31303617 -0.23479679 -0.3544626 0.31707308 -0.043680083 -0.31383628 -0.270094 -0.30084854 -0.3509556 -0.29516032 0.36561492 0.31368926 -0.33880463 0.34228918 -0.3300725 -0.10340271 0.2962489 0.14465342 -0.32814023 0.06763734 0.26887548 -0.33651155 -0.3168249 -0.03142338 0.26429102 -0.3149079 -0.3522098 -0.3509155 -0.30700678 -0.19943085 0.33446005 -0.3486609 -0.27792633 -0.32659763 -0.3630545 0.18789113
吾 0.36241475 0.33300352 0.33633736 0.09107538 -0.33775678 -0.3137635 0.37069345 -0.3123361 -0.34938714 -0.29287198 -0.177908 -0.3405339 0.35536838 -0.34143823 -0.36491317 0.38685834 0.33941174 -0.1687014 -0.24613239 -0.2577093 -0.3606936 -0.30768114 -0.005517848 0.3687209 -0.3325508 -0.039371308 -0.39442587 -0.32262802 0.3310856 0.35863233 0.3622645 0.35826007 -0.09746502 -0.38795722 0.28190082 -0.3028494 0.36275026 -0.2702721 0.33061185 -0.3585125 -0.30146396 -0.3698249 -0.38510847 0.35725027 -0.32364082 0.35377187 -0.30452695 -0.3639539 0.09765571 -0.3259293
仁 0.63003993 0.46009952 0.46085572 0.52207536 -0.4774931 -0.5663076 0.3691428 0.63545537 -0.5432323 -0.5426488 -0.6106142 0.48994532 -0.40559 -0.40231723 0.52172965 0.5628446 0.068382226 -0.5718426 0.24712999 -0.56328875 -0.39011884 -0.56572163 0.5189039 -0.31107786 -0.36531922 -0.60200614 -0.5164442 -0.18039986 0.21765822 -0.06699861 0.6443873 0.49181244 -0.54867387 -0.62522364 0.446928 0.60422754 -0.18362488 -0.4194867 0.5049017 -0.2524015 -0.6144268 -0.38428846 -0.4867011 0.11089961 0.66869116 -0.54243314 -0.019009972 0.5647789 0.16181949 0.69907826
夫 -0.29568017 0.34101462 0.31998342 0.29845262 -0.30875596 -0.36115453 0.35278192 0.087593265 -0.3124205 -0.33972546 -0.33366552 -0.31624427 0.3201241 -0.33862486 -0.32870266 0.3535229 0.33787593 -0.33296928 -0.33564207 -0.36051118 -0.33669296 0.23095253 0.28987834 -0.17127253 -0.32414478 0.29453844 -0.31216604 0.071443796 0.33226407 -0.320828 0.34116533 -0.3168585 -0.3393529 -0.32158265 0.011034621 0.31201005 -0.31588864 -0.331255 0.3383938 -0.33921182 -0.3230304 -0.34508455 0.34439924 0.33242208 -0.2953576 0.34010914 0.3198216 -0.2439541 -0.3160872 -0.0746191
、 0.35150948 0.29199934 0.34692404 0.27725306 0.3100318 -0.3490215 0.30980173 -0.2294935 -0.29368687 -0.29369134 -0.37901267 -0.2588664 0.17368644 0.3416159 0.3645446 -0.32354507 -0.35226467 -0.3590111 0.34474337 -0.32623792 -0.3052088 -0.27799612 0.3459442 -0.3088879 -0.15950292 -0.34287718 -0.10116227 0.2414613 0.3334224 0.29470593 -0.24896406 0.32698515 0.3390074 -0.31201127 0.32517868 0.3127036 0.32057342 -0.3562863 0.013918586 -0.36517966 -0.31360513 0.22045214 0.18122111 -0.27967384 -0.28738075 0.28547585 -0.3439153 0.23337208 0.33028257 -0.3589868
道 0.04098735 0.014467662 -0.30140582 -0.18697084 -0.33628672 0.018592678 -0.35561314 0.35888708 -0.0035998863 -0.18660495 0.34119785 -0.24876197 0.23484717 0.34052035 0.2851032 0.2736426 0.3709579 0.30313966 -0.26321808 -0.34987178 0.32053402 -0.34410167 0.4092745 -0.31011298 0.31862465 0.06638345 -0.11451031 0.3874341 0.32260132 0.09419917 0.25596407 -0.39059675 -0.35441345 -0.32528272 -0.0027974984 0.22969487 0.19103462 -0.30452514 -0.011742767 -0.35554394 0.060343377 -0.300905 -0.18315832 0.35972226 -0.36326748 0.25895855 0.28244987 0.102845326 -0.2854369 0.25445366
焉 0.33081684 0.28814495 -0.2679899 -0.12703998 0.32600227 -0.105476364 0.094906144 0.2758483 -0.3203502 0.33352634 0.17193566 0.30204073 0.13710648 -0.36484984 -0.35309744 -0.33699965 0.3130317 -0.35041025 0.31197515 -0.08970666 0.012392555 -0.33347005 0.32236958 -0.09097502 0.25849974 -0.29527465 0.32733047 0.30195728 0.36099803 0.32325923 -0.31780002 0.3879042 0.019524952 0.3409852 -0.3827665 -0.094221115 -0.16171592 0.35687342 -0.33688557 0.35258457 0.31544146 0.34529567 -0.34860858 0.23182118 0.30426443 0.32240647 -0.3604563 0.34160295 0.3097205 -0.3502019
行 0.36722872 -0.37083212 -0.336529 -0.33931062 0.3771627 0.37261972 -0.25963005 -0.019636722 -0.32370317 -0.34998977 -0.36384547 0.17155384 0.3324098 0.16268927 0.2761948 0.16331033 0.36228603 0.36533886 0.2793556 0.38247478 -0.31056052 0.39733124 -0.21615843 -0.26574814 -0.41091526 0.35364676 0.22445287 -0.21888387 0.3253064 0.29909307 -0.037297618 0.31808612 -0.2664874 -0.30336466 0.32532927 -0.3483252 0.30501655 -0.11122559 0.31987864 -0.31059188 -0.25115916 -0.23894265 -0.1736044 -0.39882135 0.11902134 0.4084067 0.35614163 -0.17151077 0.16882333 0.211499
谓 0.32066476 0.36464107 -0.34832674 -0.3419014 -0.36826816 0.29911995 0.3563585 0.33374697 -0.3557139 -0.35374212 0.119608745 0.35593528 -0.38284603 0.20331116 -0.33769345 0.37474844 0.30214092 0.33436814 -0.37821183 0.37639955 -0.26368123 -0.31653225 0.3928312 -0.3657615 -0.32618323 -0.08895517 0.37246826 -0.34606978 0.31796363 -0.2796348 -0.34981272 0.35266206 -0.37868506 0.30832714 0.35050434 0.35687467 -0.34897634 0.3488074 -0.28939205 -0.33024693 0.2605749 -0.32877234 -0.34988612 0.24908239 0.3411536 0.124032594 0.32335186 -0.16243598 0.37096375 0.35187212
必 0.33165938 -0.34447628 -0.33100763 -0.3670032 0.30061808 -0.096012145 0.33177912 -0.107995205 -0.3512246 -0.34446296 -0.38059822 0.33128574 0.18238531 0.27528128 -0.22348695 -0.398728 0.39274094 0.38606825 -0.44473472 0.056980956 -0.3941599 0.23199601 -0.08951361 -0.37766704 -0.3898017 0.27112138 0.3677609 0.36129054 0.30551815 -0.12484184 0.32270727 0.09583752 0.33949772 -0.3162652 0.29906702 -0.27065217 0.3302986 -0.32994828 0.38690573 -0.20985243 -0.3650147 0.33460152 -0.11861941 0.34730095 -0.3607914 -0.25556487 -0.34801245 -0.39492166 -0.38440242 -0.3451608
礼 0.054867275 0.4032908 -0.5587734 0.69373214 -0.53273666 0.58013535 0.62245834 0.21943854 0.56534296 0.55874133 0.3349256 -0.45859435 0.34111902 -0.6124925 -0.66431963 0.6054276 -0.48065746 -0.5462748 -0.027119875 -0.14105973 -0.08062721 0.6298817 0.4931467 0.57532996 -0.5608357 0.43302414 0.04690338 0.61154586 0.5699613 -0.12372853 0.52367276 0.1303707 0.34837225 0.61921996 0.32886833 0.5760774 -0.5627517 -0.6432975 -0.5180646 0.19860585 0.6321012 -0.10724169 -0.22925387 0.62952554 -0.50717044 -0.54709005 0.4197367 -0.19881782 -0.12047743 0.4682245
孔 0.2180567 -0.35761887 -0.0050353017 0.24422722 0.30632877 0.22067453 0.2771663 0.37000516 0.3326657 -0.33808884 -0.17223719 0.2626391 -0.3073358 -0.23171368 -0.26041532 -0.36188537 0.2647533 0.19114068 0.35141256 0.32084614 0.29169124 -0.33129483 -0.366124 -0.33530238 0.3548311 0.13721058 0.30303282 -0.36283466 0.27712068 0.387039 -0.33479685 0.2981805 -0.23363876 -0.3770815 0.21078813 -0.03916637 0.34840614 0.2526418 0.3363926 -0.38663107 -0.33527943 0.27290678 0.35782334 -0.26522145 -0.24088609 0.32702762 -0.2561413 0.24827912 -0.39773402 -0.36530337
斯 -0.3615599 0.37059873 0.38592535 -0.30401897 0.32706404 0.3864787 0.3401025 0.37325197 0.32693452 -0.35074145 0.30729672 0.100025825 -0.22447552 -0.33986506 -0.32539502 -0.3775327 0.0981518 -0.2589295 -0.07484674 0.3442507 0.3791478 0.2351793 -0.35814413 -0.34516487 0.39847213 0.17573303 0.23171854 -0.40553853 0.32609808 0.37072766 -0.1960315 -0.29640186 0.30181825 0.36281455 -0.36314175 0.22754988 0.2971607 -0.30741563 -0.36677626 0.019558657 0.2894229 -0.36896592 0.32669297 -0.34576946 -0.21296482 -0.4183962 -0.27726603 -0.35857978 -0.32788718 0.33753002
三 0.31087518 -0.37810335 -0.3557023 -0.32893884 -0.37704876 -0.35643643 0.2992692 0.3479185 0.2950732 -0.25331017 0.3541588 0.07667151 0.41551208 0.34178358 0.30951187 0.34192184 0.3694206 0.4042933 -0.39247853 0.33677438 0.28394717 -0.3515834 -0.26531446 -0.12831071 -0.12996146 -0.33811736 -0.16175553 -0.3689662 0.11280075 0.32573354 0.302208 0.34953246 0.32991055 -0.34302858 0.3569002 -0.24971232 0.35395697 0.352587 0.3139298 0.05602485 0.4184869 0.3350063 0.38432738 0.38039252 0.15712635 -0.39224434 -0.36389962 -0.19377415 0.33785337 -0.16787893
能 0.35628444 0.33715954 0.30834326 0.31107214 -0.3112297 0.078849025 0.2983588 -0.30597746 -0.32210153 -0.18962482 -0.2896548 0.32883862 0.32135445 -0.33346742 -0.3459019 -0.3164885 0.15850116 0.30058905 -0.34534976 0.33116254 0.32530653 0.34093943 -0.33229437 -0.24203637 -0.32430282 -0.20828253 -0.3809766 -0.3434221 0.1685079 0.32488018 0.3640574 -0.33362222 -0.19167906 -0.3266072 -0.32984367 -0.35507676 -0.31983852 -0.34854034 -0.31658024 0.09960027 0.35771194 0.34461665 0.3557 -0.34426343 0.28466645 0.021818312 0.36147845 0.3049492 -0.34477308 0.37651575
见 0.22883326 0.08521229 -0.12292066 -0.31145737 -0.24070305 -0.3239469 -0.2698798 -0.04597027 0.13232909 -0.22556753 0.35264674 -0.34261385 0.3123952 0.3465014 0.32878736 -0.2935285 0.2885328 -0.053610932 -0.18615727 0.2665916 -0.22858325 0.35375243 0.2544909 -0.12502109 0.32415804 -0.3265971 -0.33507925 -0.33046702 -0.31930274 -0.12266749 -0.10880524 -0.3404331 0.34388137 -0.35486344 0.26351023 -0.27999845 -0.32875723 -0.32090348 -0.16133672 -0.31995472 0.121641256 0.22570574 -0.018700184 0.29777986 -0.06880289 -0.34092674 -0.0706955 -0.2642844 -0.30619782 0.25553548
学 0.28254876 0.2959205 0.33120483 -0.34512278 -0.33483276 -0.0099653825 -0.34403738 -0.3346425 0.35529637 0.32979575 0.17895485 0.3019986 0.334411 -0.31163198 -0.26260513 0.11518955 0.3532333 0.3266662 -0.33860344 -0.32022643 0.3331131 -0.30908036 0.34973004 0.33342832 -0.3085754 0.33856076 0.22073665 -0.3502593 -0.34968796 -0.25951403 -0.34367597 0.31891194 -0.33098537 0.29685786 -0.315362 -0.32146946 -0.3300046 0.12650843 0.31358933 -0.3223709 -0.3085298 0.3355144 -0.33412254 -0.34017387 -0.3382471 0.3338866 0.316986 0.32714266 0.34122646 -0.14376904
事 0.35566184 -0.3649499 0.31395322 0.3599086 0.34538716 0.3666278 -0.33679926 -0.3710211 0.32094243 -0.36534157 0.3680462 -0.3605944 0.35971862 -0.37963694 -0.35770443 0.17282237 -0.34093055 -0.32668078 -0.37515262 0.31220517 0.33918 0.30048642 0.025810856 0.36571735 -0.11237424 0.31397313 0.35607636 -0.014103349 -0.33488074 -0.26795697 0.36709228 0.04938991 0.35823315 -0.34584713 0.33746532 -0.10115686 -0.3189263 0.2565748 0.3411186 -0.24467951 0.17262532 -0.35051844 -0.08514456 0.2752333 -0.35745206 -0.36475623 0.14644803 0.13245365 0.3393676 0.019722817
是 0.62267554 0.5376131 0.128523 -0.52428955 0.21661763 0.34210098 -0.47982207 -0.19138567 -0.6142717 0.20231403 -0.2624296 -0.002691263 0.58926797 -0.5663984 0.5449921 0.52151173 -0.5962134 0.60816395 -0.30682337 -0.6355497 0.4779518 -0.2984603 0.59529966 -0.4325552 0.18405886 0.57194406 -0.027111052 -0.64278185 0.61145806 -0.6103324 0.6297561 -0.51320213 -0.5952838 0.5411589 -0.628216 0.60626125 0.14937674 -0.3229918 0.40570265 -0.60216296 -0.5065878 -0.62154144 -0.23030776 -0.61358696 0.27357334 0.12565434 -0.0468665 0.6008501 0.594826 -0.6221854
哉 0.05478771 -0.33069706 -0.1581354 -0.33527422 0.30095443 0.3295217 -0.32277095 0.31860995 0.29020208 0.17541635 0.33874387 0.22524682 0.2875707 -0.29424146 0.25620046 -0.3059949 -0.01701366 0.008411739 -0.31386277 0.17239806 -0.11421947 0.32690164 0.20431049 0.3372142 -0.30611718 0.17493972 0.3105492 0.33519349 -0.117689945 -0.36600065 0.38060677 -0.26761043 -0.32185128 0.35197866 -0.12594658 -0.12296502 -0.24623804 0.36547798 -0.350546 0.043902364 0.3263796 -0.12689827 0.36204025 -0.12753303 0.37962258 -0.40000814 0.26011875 -0.14502537 0.25877205 -0.328518
闻 0.21163611 -0.2539859 0.25219238 0.276743 0.16629578 0.11011676 -0.22952548 -0.13889448 0.22547618 -0.2969434 0.11075714 0.16059883 0.22744481 0.13915057 -0.17177764 0.082322985 -0.17097233 -0.16233438 -0.2114723 0.2531247 0.1878996 0.25866047 -0.2706998 -0.17522389 -0.25728464 0.28843623 -0.19989341 -0.28708065 -0.2154643 0.11361869 -0.19176418 -0.17784554 0.27552378 0.3212004 -0.29876763 0.20450555 0.31135637 -0.1673377 -0.07059423 0.13093743 0.26492494 -0.21570429 -0.23470424 -0.277538 0.23641922 0.2700351 -0.2584174 0.31136262 -0.33635113 0.19893323
未 -0.37840787 -0.24098858 0.15328996 -0.34471425 -0.32346815 0.27485588 0.30473548 -0.33071312 -0.12763035 -0.3765396 0.33013424 -0.35956338 0.019144623 -0.36326155 0.31685826 -0.33638832 0.004052332 0.3760532 -0.35796356 0.3781432 -0.0072382097 0.33522123 -0.27433014 0.3686865 -0.38268277 0.34808496 0.3247567 0.38694617 -0.26995954 -0.31555882 -0.011851098 -0.24653001 -0.2883097 0.38457975 0.30209985 0.27869952 -0.31867522 0.26901445 -0.32250196 0.01853629 0.2587114 -0.27903417 -0.23983221 -0.35943308 0.19249761 0.36028367 0.1392961 -0.33903077 0.31332004 0.3772519
公 -0.3390638 0.36978155 0.34294525 -0.31431562 -0.25724617 0.31695625 -0.31925365 -0.33223727 0.34816217 0.31065542 0.30408487 -0.27265635 -0.3688815 0.2986948 -0.33293626 -0.30410737 -0.35628426 0.28093743 -0.3053663 -0.31252494 -0.34900576 0.32536265 -0.34767252 0.35674217 -0.32332262 0.29105225 -0.05879229 -0.025534786 -0.25517762 0.34282607 -0.34617364 -0.33973974 0.34892818 0.3502555 -0.364747 0.31858525 0.32687822 -0.24810396 -0.33975205 0.34546128 0.30355832 -0.35372669 0.351447 0.33791122 0.31180632 0.2918956 -0.33066037 -0.23226224 0.28221384 0.28249165
好 -0.28996515 -0.022507338 -0.31386742 -0.2982797 -0.31936175 -0.15639463 0.3099654 0.34115243 -0.31529468 0.3320739 -0.33717337 -0.29412448 -0.28619555 -0.30895773 0.28695273 -0.3218961 -0.3624714 0.3317791 0.27390036 -0.3509471 0.33867082 -0.24808091 0.31331986 0.32375267 -0.32606614 0.34093967 0.3357153 -0.039394256 -0.3542211 -0.30002803 -0.30603558 -0.37803352 0.064496055 0.13695481 0.09959916 0.39140296 -0.32784355 -0.33838177 0.32804286 0.33653352 0.16180101 0.29315513 0.13079922 -0.34515518 0.35378033 -0.34838724 -0.2968601 0.3736602 0.19378756 -0.034533292
我 0.12514612 -0.40379286 0.3544919 -0.34207994 -0.29770204 0.36545518 -0.23412153 0.18809463 -0.36228564 -0.38447082 -0.38197342 -0.37565133 -0.25422758 -0.41320065 -0.19711788 -0.36747003 0.19045998 0.39317188 0.3198514 -0.3132001 -0.39389417 0.38315964 0.38709393 -0.3140792 -0.18795212 -0.33934438 0.37966263 0.35551775 0.35144708 0.36603078 -0.34639958 -0.058791123 0.2879266 0.35054356 -0.35166043 0.20407848 0.21753208 -0.31163424 -0.18664083 0.15212336 0.27148867 0.41058367 -0.043642167 -0.36750075 -0.3244683 0.17603627 -0.29913214 -0.35661295 0.32919747 0.23625578
路 -0.20803176 0.4046352 0.1197926 -0.12145963 -0.3384617 -0.07429307 0.048233666 0.120562874 0.16102536 0.29418844 -0.41380814 -0.3122237 0.33557647 -0.35174957 -0.2707682 -0.3906087 -0.36205313 -0.34420583 -0.29547498 -0.39058658 0.14260815 0.059482463 0.31034827 0.02347318 -0.33978224 0.050824225 -0.115253694 -0.25678653 0.36728707 0.17853175 -0.3456483 -0.101078376 0.30314445 -0.3648282 -0.39575666 0.24657747 -0.20638552 -0.39081106 0.30779687 0.38695547 0.2652707 -0.38465527 -0.398317 -0.40085092 -0.1439791 -0.25127393 -0.25684547 0.30867952 0.16238834 -0.37190464
在 0.5408366 0.6490927 0.6219715 -0.4089661 0.56890297 -0.43946654 0.021106109 0.6318154 0.6526845 -0.0932308 -0.5291492 -0.47039238 -0.6086671 0.5828799 0.24472134 0.3515288 0.23929901 -0.55068135 0.6474888 -0.5039273 0.5949797 0.54228765 0.49069238 -0.6283547 0.35725304 -0.60251826 -0.36339834 0.11822209 0.04797772 0.3912427 0.28166264 -0.5610958 0.592576 0.41785106 -0.62739944 0.66244435 0.15102533 -0.57898027 -0.3953567 0.5637678 0.47436568 -0.45440271 -0.24417455 0.3895426 0.6463806 -0.6664621 -0.5792906 -0.1997286 0.4705536 -0.5151908
已 -0.38868922 0.39108783 0.37329742 -0.40218773 0.3365657 -0.073733054 -0.2820811 0.39627874 -0.11159228 -0.33205023 0.03169901 -0.28742802 -0.07909603 -0.33446297 -0.30120102 -0.026483575 0.13989188 -0.37089267 0.39197958 0.23889004 -0.31965742 -0.18827967 0.2618061 0.08563042 -0.15928233 -0.296033 -0.38240278 -0.35854137 0.3776132 0.2994819 0.16532867 -0.36200145 -0.22156432 -0.35909176 -0.29167187 0.37070048 -0.40543702 0.1472812 0.37131616 0.34611914 0.38407364 -0.36964214 0.29648846 0.09061456 0.3580871 -0.39466912 -0.38569275 -0.34231046 -0.036317736 -0.3709919
得 0.29526457 -0.3281619 0.28572714 0.36508837 0.32624257 -0.162566 -0.36590478 0.37380975 -0.3679774 -0.13852388 -0.34010577 0.37243992 0.36335883 -0.26776996 0.27884057 0.33911702 -0.31551787 -0.07493659 0.30131668 -0.3347135 -0.35760835 -0.3499156 -0.3645968 0.35450572 0.31125203 -0.15713504 0.31855562 -0.3059153 -0.25563884 -0.24820483 -0.35624817 -0.19323727 -0.16423842 -0.3435014 -0.3408482 0.3551316 0.35822394 -0.31747186 -0.29748526 0.32824403 0.3605614 -0.08645924 0.35487288 -0.3151244 -0.34756723 -0.33056808 -0.34968543 0.3153984 0.35189697 -0.35968655
所 -0.20096758 -0.12480187 0.24312972 -0.23528235 0.3652221 -0.337088 -0.27666885 0.2441143 -0.33791906 -0.3775519 -0.121974155 -0.22280107 0.3589446 -0.10742069 0.03831881 -0.2397023 -0.31752425 -0.19960037 -0.3917558 0.21663138 -0.24077506 -0.30375573 0.31571484 -0.114368394 -0.38543928 0.29706994 -0.15790169 0.3862822 -0.29939008 0.21794379 -0.3127036 -0.2708843 -0.3308276 0.30315056 0.26336625 -0.31224048 -0.19922508 -0.31869817 0.34711125 -0.20947614 -0.24385044 0.2013 0.14946017 0.2983858 -0.34793785 -0.20554501 -0.330032 -0.35873526 -0.36431536 -0.22641188
民 0.35522872 -0.33084628 0.32513338 -0.33728606 -0.27003112 0.32538038 -0.34081474 0.34485984 -0.36484104 0.36626732 0.35910106 0.35289127 -0.2877859 -0.3095084 0.36778522 -0.34830022 -0.19820099 -0.32218686 -0.32212648 -0.30986577 -0.32168788 0.3312637 -0.35546714 0.3378609 -0.33696306 0.09549428 -0.3419659 -0.32967442 0.17739528 0.31978065 -0.3568941 -0.36223835 0.1459187 0.3015324 -0.32939497 0.26039916 -0.179069 -0.34708622 0.35172686 -0.3850303 0.33493727 -0.35598752 -0.3332442 -0.29603812 0.117725655 -0.22076878 -0.35824126 -0.2945498 -0.36795685 -0.34088615
小 0.27679354 -0.31131288 -0.3010205 0.2925311 0.34611574 -0.31280464 -0.34442618 0.32145357 -0.30491683 -0.2849486 0.3273353 0.22283743 0.3532605 0.30823228 -0.3416393 -0.3654613 -0.31310993 0.3471216 -0.37557304 0.14318052 -0.3166177 -0.20897368 0.31803915 -0.33882013 -0.18434526 0.34619728 0.352834 -0.33720568 -0.35825545 0.35962504 -0.33513603 -0.32238865 -0.01684893 0.34549016 0.34720847 0.32663882 0.30389807 -0.32842728 -0.3373993 -0.34518382 -0.35745537 -0.21196245 0.33072674 0.35055658 0.32419652 -0.33028796 -0.34549922 -0.36244145 -0.31871545 -0.3510666
天 0.35987294 -0.2700733 0.2545918 0.34009135 -0.3934246 0.3732252 -0.32305166 0.0018497347 -0.33408543 -0.3032888 0.3465606 0.21813633 -0.2708388 -0.37726843 -0.18819617 0.3686785 0.38656288 -0.20369369 0.31942925 0.33055946 -0.24063481 0.33092555 0.30270264 0.33693376 0.38053185 0.34328845 -0.35677558 -0.2877048 0.19622761 0.3041566 -0.3553071 -0.28450856 0.3295184 -0.31173003 0.3379717 -0.33509293 -0.030114193 0.33829626 0.35167387 0.29435897 0.37398973 -0.3457106 0.120660014 0.34361336 0.34146905 -0.044478733 0.13533886 -0.33065748 0.35704488 -0.30780172
乐 0.36039677 -0.30544266 -0.33780506 0.32199296 -0.35228795 0.3857272 0.1884713 0.0048410553 -0.3364133 -0.33505988 -0.32167834 -0.3454029 -0.356425 0.102196194 0.29013678 0.33450857 -0.37137845 0.37454614 -0.3236477 -0.278572 0.13822761 0.34272236 0.22211595 -0.34563053 0.36932784 -0.22470689 0.3480743 -0.35465494 0.39785784 -0.25580373 0.29560274 0.38967073 0.21120384 0.37319005 -0.23574921 0.3622155 0.40184677 -0.34585243 -0.32950455 -0.3635965 -0.2171393 0.364616 0.32201013 0.27811012 -0.34469754 -0.33247614 -0.35478243 -0.28068107 0.39497104 0.24827981
邦 0.3765217 0.4360896 -0.48284376 0.5794246 0.5352905 -0.6380159 0.5156716 0.5678146 -0.61319685 -0.47542965 0.54233116 0.6154524 -0.61464405 0.47692785 -0.5933849 0.5194538 -0.6365628 0.59135085 0.60530996 -0.46285352 -0.6289294 0.5659094 0.24462259 -0.34215823 -0.4601405 0.50351715 -0.25644386 -0.3048708 0.40311065 0.5618643 0.5497104 -0.5711516 0.51986915 -0.47593334 0.44521597 -0.3501735 0.30875582 -0.1822059 0.54848784 0.13016479 0.16053383 -0.55497617 0.04747034 0.5613713 0.61927724 -0.2005752 0.024607552 -0.6034039 -0.5711654 0.46716276
亦 0.3057463 -0.29129168 0.110023335 0.3372937 0.2804317 0.27229726 -0.35976148 -0.3463184 0.32462502 0.34422004 0.34023446 -0.33771828 0.24443762 -0.31101087 0.3477155 -0.261717 -0.33327278 -0.30421522 0.34340352 -0.042152725 0.29073048 -0.2874529 0.1103078 -0.25297222 0.31040466 -0.28641844 0.30512753 0.30572948 -0.33342493 -0.3464014 -0.28393602 -0.278605 0.32222506 0.24255523 0.25406063 0.21288244 0.27358133 -0.12953344 -0.27594587 -0.09221341 0.25944066 0.32860017 0.015887799 0.3586287 -0.32666916 0.2119336 -0.34093916 0.35139513 0.33479 -0.3040235
使 -0.05658765 -0.4019102 -0.39801285 0.31882045 -0.35062617 -0.35183638 0.356618 0.21827732 -0.34438375 0.16545394 0.25952187 -0.2029944 -0.074744724 -0.12798987 0.22328109 -0.30268568 0.07263024 0.3521131 -0.25540346 0.03893072 -0.3701261 -0.37300467 0.18855473 0.37649328 -0.3332402 0.37805393 -0.054592893 -0.13738488 -0.03870619 0.095850125 0.08363525 -0.37148172 -0.19283818 -0.36601952 -0.26935327 -0.111988865 0.07952471 0.10786329 0.39528528 0.11569679 0.23214725 -0.3545553 0.2754242 0.37761062 0.29794315 -0.030902619 0.10478819 -0.36506703 -0.3419143 0.2628561
大 0.08483887 -0.34105995 -0.00089622475 -0.13817422 -0.017765429 -0.1396607 -0.12481028 0.32125056 0.12640814 -0.21653105 0.105990715 0.073076226 0.28860158 -0.0040072333 -0.21608186 -0.348763 -0.24153626 -0.17002048 -0.099199615 0.011259925 -0.09881181 0.22204967 0.36586386 0.32435942 -0.030779915 -0.010579785 0.33144325 0.057652917 -0.07448732 0.1845186 -0.023628524 0.20493455 0.07513524 -0.13007015 0.2058244 0.18465954 -0.24448843 0.27228296 -0.28835887 0.33195308 0.27412105 0.36316076 0.31175712 0.31819153 -0.07123264 0.27617714 0.27723575 0.059049018 -0.21601236 -0.106887184
下 -0.07597429 -0.33013886 -0.34959877 0.3829267 -0.3666085 0.3650924 0.32807383 0.38301125 -0.30257192 0.39418888 -0.33339706 0.23236972 -0.29800668 -0.32812694 0.2944587 -0.40928212 0.39443266 0.224012 0.43118244 0.3733043 0.28941444 -0.027946774 -0.38284564 0.23869833 -0.2854687 0.33670396 0.3144279 0.36116657 0.35654888 -0.3613768 -0.2866819 0.4010651 0.369493 0.39602727 -0.389132 -0.41533402 0.34085417 -0.38729265 0.40188694 -0.29324877 0.3957537 -0.3867146 0.3971448 -0.14541788 0.36740866 0.34918052 0.35155705 0.25813887 0.3849327 -0.41430035
贡 -0.35541055 -0.28786412 0.36442327 0.3420424 0.37974802 -0.13055259 0.36334142 -0.31437743 -0.4113484 0.38536277 -0.3460911 0.33992323 0.32878262 0.3269367 0.23793846 -0.39903563 -0.20082074 0.30814478 0.35537618 -0.066660635 -0.38488272 -0.37342006 0.39097777 -0.08579844 -0.32109618 0.37287742 0.3808247 -0.3844325 -0.18049072 0.37543952 -0.4002131 0.27955577 0.3915739 0.3516337 0.28132448 0.37773034 -0.26949495 0.3648305 -0.37848106 -0.41964313 -0.36618933 -0.39539534 0.34860823 0.3767507 0.35008925 0.33459952 0.22685105 -0.30612445 -0.33698055 0.37295347
欲 -0.3335371 -0.11546063 0.10619025 0.16018926 -0.21622694 -0.27728146 0.1854325 0.36776978 -0.08019159 0.2930737 0.1064481 -0.20434152 -0.1410118 -0.22543593 -0.32103813 -0.2824647 -0.1704248 0.21047997 0.11763278 -0.03043159 -0.13866806 -0.21132426 -0.04576277 -0.27485374 0.291559 0.33074316 -0.2243481 -0.061118543 -0.20524226 0.13852349 -0.15209776 -0.22000402 -0.2912969 0.2208748 -0.13164881 -0.14869215 -0.3283816 -0.25436783 0.3005025 0.28451985 0.17724654 -0.096869946 0.29216757 -0.17335138 0.32731718 0.31967112 0.2430011 -0.12087075 0.35769102 0.08052936
诸 0.3677257 0.33774453 0.25672415 -0.2911069 0.35676637 0.35100052 -0.29524407 0.2658214 0.0854934 0.32485837 0.34370324 -0.18591079 0.35814643 -0.3700247 0.3491757 -0.32030538 0.0031472477 0.355591 0.37442008 -0.36733714 -0.34808636 -0.34105062 0.29115134 -0.35680166 0.19127756 0.34449455 -0.34342593 0.3329489 -0.34362748 -0.35168877 -0.34360904 0.2794505 0.32141575 0.3531417 -0.36806622 0.36684933 0.36179164 0.31227997 -0.33879828 -0.34662464 -0.17339902 -0.32422605 0.13956162 -0.3023229 0.37115872 0.22552812 -0.22139437 0.3839758 -0.34433508 0.26274365
从 -0.5441102 0.4863216 -0.59474725 -0.4461576 -0.5037577 -0.30899575 0.5362841 -0.17121518 -0.046692535 0.4025343 -0.3982719 0.49707615 -0.0540756 0.53633 0.50743943 0.13818909 0.082069255 0.38497978 -0.44370556 -0.3866092 0.5802323 -0.4843282 0.6003799 -0.5320138 0.3537738 -0.3356666 0.6194767 0.6192441 -0.106535286 -0.6058507 0.50019336 0.5846319 -0.2093859 -0.02156701 0.3525393 -0.54864645 -0.43277338 -0.55875427 -0.5634919 -0.56138647 -0.4314682 0.6125676 -0.53103364 -0.027130054 -0.5192234 -0.20872112 -0.41213557 -0.09236935 0.1424064 0.6386898
文 -0.33725715 0.39461395 0.3725563 -0.3315849 -0.16256733 0.34990466 -0.35467818 -0.33244985 -0.0326181 0.3525427 -0.37088522 -0.33667618 0.38556042 -0.34600583 -0.3002697 -0.33390588 0.35532138 0.34708443 0.34424597 -0.36795062 -0.010662986 -0.21601637 0.25124 0.36758584 0.38786697 0.3467616 0.339391 0.37279347 0.17679374 -0.30850118 -0.35398155 0.30980176 -0.29486978 0.33262685 0.1828196 0.28963178 0.11449911 -0.28204003 0.065898895 0.3425375 0.3090151 0.33983707 -0.012954797 -0.2956827 -0.19935644 -0.31399304 0.33950597 -0.3434416 0.3388841 -0.33148116
政 -0.2867639 0.3788442 0.39317548 0.38911915 -0.1879572 -0.34822977 0.3757934 -0.34174222 0.2937048 -0.31692278 -0.27820492 -0.29729748 0.3298932 0.111516155 -0.38247055 -0.35219887 -0.3695901 -0.3676555 -0.33519298 0.13696526 -0.3582565 -0.03282958 0.33292434 -0.31554043 0.33543915 -0.35523254 0.31665993 0.3705576 -0.3263588 0.368409 -0.2849784 0.34712535 0.36455172 -0.071353935 0.26677522 -0.30678815 -0.35735187 0.3777615 -0.3597009 0.3346751 -0.3482464 0.3616223 0.35910094 0.32958892 0.17648351 0.038166337 0.028143413 0.36009246 -0.31927165 0.36215672
食 0.3182341 -0.35541075 0.046815746 0.36654305 -0.33600742 -0.37607765 -0.07392321 0.34792382 -0.3664111 0.24531576 -0.32807344 -0.3500551 0.37394786 0.33667704 -0.38289288 0.36117867 0.35163417 0.34333357 0.37095553 -0.3595856 -0.3559289 0.1103498 0.34145054 0.37801695 0.3475491 -0.33146822 -0.39495993 0.37782606 0.3387406 -0.35019135 0.3411399 -0.35609046 0.34955907 0.33391777 0.3581866 -0.37723103 -0.38462386 -0.30286083 0.31454062 0.33445156 0.34733284 0.33494142 -0.3427622 -0.3343839 -0.32163012 -0.2934987 0.38677368 0.38039863 0.33718392 -0.28203273
善 0.28436247 -0.3256512 -0.31924328 0.31899273 0.27050686 -0.3637176 0.39988643 0.42261022 -0.36076072 -0.35959375 0.2730943 -0.0154287685 0.3714375 0.35750273 -0.3932537 -0.3279605 -0.28558353 -0.4089928 -0.36845952 0.38312462 -0.37135425 0.29316643 -0.32680258 0.35202143 -0.36296394 -0.36286986 0.3737876 -0.30860305 0.39318222 -0.30778062 -0.23209035 0.39248565 0.38091964 0.3418114 -0.1551939 -0.33469024 -0.25977257 -0.33127898 -0.33278167 0.3112906 -0.05486767 0.3913806 -0.31550857 0.27251932 0.3142373 -0.35942063 -0.14377226 0.39482254 0.38844144 -0.16917318
后 0.3613782 -0.3064262 -0.3817195 -0.34446585 0.36804336 -0.18351123 0.3301487 -0.17274469 -0.070763566 -0.34150472 -0.40020466 -0.37649217 0.37441564 -0.11341816 -0.3783687 0.033203594 0.30663982 0.24944405 0.109501325 0.1232874 0.17191741 0.38929862 0.3475894 -0.37797195 -0.3848121 0.26354277 0.36135346 -0.25773442 0.035689894 -0.25988132 0.404086 0.3437015 -0.28505114 0.38234556 0.056482088 -0.3474486 -0.33129236 0.14545625 0.32376415 0.28431967 0.34231097 0.37566477 0.4086564 -0.3393962 0.38122666 0.34379467 -0.32971695 -0.27522138 -0.16977964 -0.26824784
德 0.2595584 -0.35588998 -0.18982409 0.08307128 0.3650952 -0.36119205 -0.14607888 0.33712858 -0.3231071 -0.016375948 0.20895487 -0.24201003 -0.26756918 -0.2857713 -0.05361266 -0.34914863 0.13061814 0.31566146 -0.3631151 -0.27942356 -0.35740262 -0.33697903 -0.0340047 0.18123116 -0.36840245 0.30599087 0.2863195 -0.2116254 0.3422322 0.3520505 -0.30387083 -0.21681939 -0.28187034 0.3098999 -0.23187467 -0.0026922529 -0.2794606 -0.30323565 0.33228442 -0.32831132 -0.3286194 -0.16613555 0.30078724 -0.2912445 -0.2909756 0.37801164 -0.31080258 -0.13468835 -0.25203672 0.26461452
求 0.3253336 0.32510883 -0.35083708 0.3412032 0.36089954 -0.3702876 -0.38106543 -0.34749728 0.3698009 0.19347127 -0.38899657 -0.3434781 0.37711334 -0.33826694 -0.37167472 0.20763443 0.24173617 0.37869483 0.3092637 0.34930757 0.30679676 -0.2767993 0.3762128 -0.14995448 0.3244339 -0.38689208 0.22877342 -0.2065445 -0.3803528 0.10546901 -0.3499481 0.13904235 0.3714937 0.007328178 0.33032173 -0.35126704 0.3110411 0.37033626 -0.32707942 0.36853915 -0.33999002 0.32362902 -0.41733688 0.37115806 -0.3667671 0.036191534 0.295962 -0.33778974 0.08203496 0.3699413
对 -0.5939672 0.21813878 0.35370475 0.1081822 0.16987817 -0.626114 -0.5870993 -0.43843606 0.6220629 0.6663408 -0.30179885 -0.603768 -0.18333204 0.4930974 0.43945286 -0.013180382 -0.6049693 0.34838015 0.21272522 -0.5263831 -0.15135807 -0.48279688 -0.1819751 0.56079286 0.6236013 0.50417143 0.6546948 0.5509233 -0.4318372 0.5547703 -0.30862883 -0.35007322 -0.40949458 -0.56601775 0.54025364 0.36366555 -0.39867494 -0.005927345 0.5963231 0.2699963 -0.5890824 0.59015965 -0.61714596 0.63046485 0.00913546 -0.24299444 -0.41385198 -0.6143985 0.47665018 0.42686033
恶 -0.35241166 0.37758806 -0.29656535 -0.31486872 0.29555437 -0.26096904 -0.35720062 -0.35959795 0.3961497 0.20238882 -0.35805377 -0.41010746 0.36530915 0.36945242 0.37297255 -0.36743265 -0.015808737 0.11180982 -0.082423344 -0.36349097 0.3557974 0.11950764 0.3395617 0.26252308 -0.29722565 -0.3314049 0.3841381 -0.3197973 -0.2197081 0.375706 -0.39648965 -0.33750352 -0.24749851 -0.27586776 0.30701265 0.28108832 0.3731588 -0.38809216 -0.20332812 0.26243886 -0.40232912 0.37717813 0.15132156 -0.40530348 0.33209735 -0.36263084 -0.20880304 0.3462177 0.17008674 0.3455775
信 -0.28111577 0.3670265 0.36169812 0.37249622 -0.38461325 -0.058366727 -0.35499436 -0.32451487 -0.3599657 0.29879448 0.28050417 -0.33991024 -0.36651486 -0.3545839 0.3810807 0.15544285 -0.38044074 -0.017669559 0.34592667 -0.11994027 -0.36467123 -0.2786379 0.34623653 0.38107473 0.34914327 -0.36860585 0.3285518 -0.21068308 -0.31672943 0.25667292 -0.2892269 -0.30653673 -0.33304694 0.0773615 -0.061734453 0.2393662 0.39193267 -0.28108668 0.12041198 0.18523236 0.13272491 0.20025223 -0.1804798 -0.3137039 -0.38871926 -0.32782695 0.02731477 -0.36299816 0.38283262 -0.33713865
死 -0.36884025 0.04528814 -0.3592182 -0.3481304 0.23206949 0.37534654 -0.35306275 -0.30944306 0.37386602 0.34514028 0.34419116 0.29838455 0.12858485 -0.30081645 0.36327645 -0.30557472 0.3186674 0.27375698 -0.36890855 0.36228436 0.39075366 -0.15600878 0.07034951 -0.03584583 -0.3158033 -0.17077282 0.21426873 -0.33385298 0.3125124 -0.10006698 -0.17581278 -0.349879 -0.33039948 0.35730678 0.119677365 0.3787162 0.35364357 -0.37820137 -0.09149859 -0.38743547 0.19672543 0.14040916 0.24174932 -0.29062414 0.30946377 0.28457296 -0.30854836 -0.2657896 -0.20459688 -0.28056008
然 0.394801 0.31717408 0.34509867 -0.026899522 -0.33564666 -0.343822 -0.19113329 0.14899531 0.011172976 0.35588318 0.18695158 -0.06925004 -0.38982922 -0.23002441 0.36442608 -0.10599261 0.37253216 -0.316144 0.34123254 0.34308395 -0.36186525 0.34139955 0.1801476 0.36587307 0.36667055 0.079848886 -0.3773127 -0.15661891 0.39584273 0.16753113 0.34686577 -0.35840717 -0.30363363 -0.35844576 -0.37249014 -0.13479993 0.33752462 -0.24887605 -0.3523384 0.35809165 0.16092622 -0.10630713 0.38663912 -0.3880969 -0.29324156 0.25319177 -0.3601205 -0.2975834 -0.2689851 -0.34030294
《 -0.33482394 -0.44420183 -0.054683387 0.10060573 -0.3253419 0.37604937 -0.37525666 -0.3862221 0.36136964 -0.34765905 0.3336393 -0.22389854 0.35188723 -0.33472 0.19706142 0.029645147 0.38144106 0.16132735 0.13291149 0.3670362 -0.3785096 0.17411587 0.36731213 -0.30382776 -0.4087289 0.38455924 -0.059748378 -0.31415203 -0.040677622 0.37073907 0.3595451 -0.29020432 -0.35490274 0.39274603 0.35412353 -0.3774099 0.009400966 0.077825375 0.29284248 -0.22384204 -0.27724218 0.4184527 0.17485683 0.3616311 -0.32605755 0.37414503 -0.35834792 -0.35612294 0.34826866 -0.3505538
》 -0.4280582 -0.43306148 -0.38280922 -0.39669105 0.021790873 -0.00037812814 0.3555103 -0.42406058 0.13190459 0.36854145 0.2955399 -0.14743209 0.33272913 -0.42341396 0.24664602 -0.28377226 0.3454393 -0.119964376 -0.16512553 0.38244984 -0.40148827 0.41421688 -0.08927407 0.35064414 0.2132119 0.08838419 -0.3441018 0.39110643 0.2281368 -0.22561747 0.30067563 0.13792598 -0.3109883 0.42233655 -0.39139977 0.23585646 -0.22249554 0.40575883 -0.3772892 -0.27564576 -0.32835183 0.3899338 -0.083171904 -0.32460392 -0.39545074 0.4199819 -0.35278615 -0.36444503 -0.38720533 -0.34506983
由 0.3111341 0.32517475 0.34081817 0.3736044 -0.25474247 0.38195503 -0.3468289 -0.26941454 0.33926708 -0.28065744 0.093921825 -0.3033185 0.35033157 -0.36358142 0.33549365 0.24694493 0.33477202 0.37156755 -0.3785235 0.34022772 0.3969517 -0.26606342 -0.32300115 -0.18888287 0.3218268 0.38504535 -0.3192363 -0.36109972 -0.27737033 0.31349292 -0.32015902 0.36079007 -0.33982253 -0.1670452 -0.32636806 -0.34602422 0.34129095 0.35211128 -0.376429 -0.2967145 -0.38975576 0.33820894 -0.34944555 0.2517588 -0.3458507 0.3089528 -0.22585271 0.3743889 0.3476316 -0.39295068
仲 -0.42120862 0.31589812 0.4872609 -0.5682627 0.5638645 -0.226774 -0.10209074 -0.6479441 0.67045516 0.54761684 0.444396 -0.61715794 0.5317436 -0.66115355 0.43945807 0.2575941 -0.63116807 -0.5582256 0.20533194 -0.43965024 -0.3287357 0.4285161 0.25861582 -0.4640579 0.31147343 0.3189986 -0.77245086 -0.26152822 -0.49826425 0.037795376 -0.41112065 -0.45465532 0.28853333 -0.16237336 -0.0663185 0.75947154 -0.5511132 -0.56041485 -0.07060734 -0.3518857 0.4803822 -0.3000224 -0.6806881 -0.5065039 -0.3670019 -0.2352503 -0.6731153 0.2757857 0.3110301 -0.49143156
非 -0.24444619 0.36664584 0.28827715 0.34103844 -0.07757867 -0.12724619 0.41823518 0.35001644 0.4220056 -0.36896726 -0.38181543 -0.31380814 0.25052476 -0.39015493 -0.03743875 0.3810381 0.33941296 0.35839707 -0.3320157 -0.25917676 0.2693353 -0.35805833 0.24016878 -0.37107724 -0.3622868 0.39650142 0.03192094 -0.15690736 -0.26150584 0.35839042 -0.019971212 0.35247657 -0.38453305 0.4034709 0.39307123 0.4000278 0.40015435 0.24169593 -0.3779412 0.33840436 0.29173514 -0.28026688 0.36022276 0.35033354 -0.2418604 0.034216516 0.36268723 -0.1376907 -0.32282683 -0.34666583
出 0.12910739 0.065200046 0.3685386 -0.3568294 0.31979924 -0.3545825 -0.3404717 -0.35781974 -0.3195451 0.36917344 0.052078944 -0.35348794 -0.3486707 -0.36789042 -0.20897493 0.34318802 -0.33142003 -0.37720352 0.2980455 0.15740098 0.32605547 0.37217122 -0.26988268 -0.07532049 -0.14412513 0.35605302 -0.34161428 -0.25744766 -0.07855854 -0.35407636 -0.3295749 -0.14074786 0.35583174 0.35724112 0.22677031 0.23486055 0.10366558 -0.2617891 0.3718175 0.35423672 0.3510324 -0.22515662 -0.12949933 -0.31287357 -0.31932932 0.3242971 -0.34576777 0.052091368 0.34594986 -0.3397706
过 0.13524438 0.365851 0.34571862 -0.29059318 0.20580766 -0.36383352 0.36549744 0.3580832 0.35237148 0.277815 0.35694715 0.23870577 0.34138456 -0.36588424 0.34114042 0.37115693 0.27794942 -0.36217946 0.24296254 -0.37362027 -0.3584482 -0.36373082 0.3420187 -0.36201832 -0.37044135 0.35111716 -0.38382527 0.35031667 -0.34544256 -0.35973516 0.1793096 0.21703498 0.34344867 -0.11262629 0.36467767 0.35080224 0.23677148 -0.362252 0.3520307 0.37266928 0.33846346 0.17450264 -0.37401447 0.34338936 -0.3353059 -0.3043028 -0.26961267 0.35791183 -0.3384012 -0.37166065
一 -0.3546309 0.36111274 0.3607738 -0.29907268 0.19783649 -0.3129317 0.3443026 -0.32312685 0.2999359 -0.3448569 -0.3955623 0.078078195 -0.32394493 -0.2549293 0.33768103 0.046784706 -0.38896406 -0.3700516 0.38120446 -0.20425561 0.39191496 0.31786135 -0.3746532 0.26093897 0.32053387 0.35509005 -0.36619037 0.367987 -0.052284285 -0.39185354 0.36806464 0.35165673 -0.2670651 0.33165258 -0.14436175 -0.13909984 -0.24043655 -0.19955578 0.14791507 0.3525028 -0.3878853 -0.01203508 -0.33254415 0.34552968 -0.3260958 0.10749217 -0.21554941 0.361714 -0.37504143 0.11952263
虽 0.3427453 0.25352368 0.35437047 0.3620634 0.32488558 0.34834436 -0.23155956 0.3312999 0.3052024 0.35284594 0.28325704 0.3837161 0.22171465 -0.33708566 0.29859257 -0.1392433 -0.37662137 -0.36169535 0.32620928 0.23337324 0.36027563 -0.36747926 0.18756443 -0.07262251 0.3579474 -0.3703035 0.31808212 0.41418377 -0.35360473 -0.3098845 -0.25077683 0.12953699 -0.27611566 0.34576246 0.29665738 -0.29860035 0.30974293 0.027717147 -0.33144295 -0.37667108 0.33872327 0.31796473 -0.39798707 0.14728625 -0.30070683 -0.38836262 -0.3387339 0.30951834 -0.34954086 0.34811312
足 0.36536378 0.3734019 0.37165254 -0.26993492 -0.35441542 -0.38892394 -0.3890824 -0.369169 -0.37482786 -0.36532238 -0.36590666 0.33040357 -0.38724598 0.07564376 -0.37194252 0.37680733 -0.32890874 -0.37373108 0.43210256 0.3467277 0.3501571 0.37735474 -0.3720702 0.32695466 -0.12947993 0.34035692 0.41526198 0.30807027 0.34766605 -0.33845526 -0.38568348 0.31105822 0.3799383 0.33720958 -0.35981667 0.33591744 0.3743869 0.35642576 -0.2471131 0.38617274 -0.29349077 0.36707386 -0.3670973 0.35971802 0.36125955 -0.3479314 0.3513704 0.35679698 0.40237957 -0.3212094
居 0.35630593 -0.31517133 -0.28906497 -0.15200669 -0.3364804 0.088593885 0.33117232 -0.14772305 0.3641764 0.33372447 -0.33441874 0.32100743 -0.3563521 -0.31163925 0.33886775 -0.31679153 -0.3123956 0.23279944 0.3419727 0.24105501 -0.33129698 0.36266947 0.3650964 0.32828045 0.28089014 -0.004722108 0.30770501 0.3150406 -0.32849097 -0.32192189 0.17140573 -0.37838656 -0.35296255 -0.35834548 0.30821565 -0.36477447 0.31426847 0.15492038 -0.24699305 -0.332109 0.073548555 -0.32716653 0.385422 -0.13245432 0.33849937 -0.3464348 -0.3276653 0.3165926 -0.34692526 0.34644845
尔 0.09383597 0.24644116 0.6615535 -0.6918186 -0.41481808 0.3720673 -0.015945958 -0.43361852 -0.37696022 0.5417345 -0.73762095 -0.40867415 -0.45128995 -0.58358425 0.5006121 -0.571822 -0.1313265 0.36667618 -0.18542293 -0.47425717 -0.25231794 0.70296526 0.428093 0.41832435 -0.5020935 0.12603085 0.2796857 0.3511058 0.1815766 0.4795829 -0.30859718 0.62658787 -0.69008046 0.032674894 -0.5133223 0.01774249 -0.22599854 0.14384432 -0.28820097 0.6386997 -0.5757496 0.21759486 0.46499193 -0.6925819 0.022098051 0.3765372 -0.017664298 0.4228429 -0.5607852 -0.21022145
夏 0.38216814 -0.33325207 0.34440613 0.34836367 -0.2949188 0.38881648 -0.35502917 -0.3768322 0.36423084 0.39609814 -0.2885365 -0.35346264 0.39046264 -0.12581477 0.38642293 0.39502838 -0.37765792 -0.40093857 0.36811393 0.39221168 -0.33735114 0.3733525 -0.2794746 0.14752364 0.40205088 -0.3089888 -0.36661297 0.33189878 -0.35465592 -0.3846862 0.32655376 -0.26554033 -0.3660829 0.37021646 0.22610167 -0.30017805 -0.22040036 -0.14045092 0.39126107 0.3225797 0.14460361 -0.3277624 0.26335314 0.37767074 0.34176308 0.24874711 0.31224877 0.3483471 0.21316944 0.40964088
父 0.34804913 0.37198815 0.25849098 -0.39058146 -0.3321909 -0.34577996 -0.07120875 -0.2972239 -0.22709137 0.26374993 -0.4095858 -0.24430652 -0.36632097 -0.35386524 0.30820295 -0.3342644 -0.31010482 0.30470443 0.3110223 -0.34170836 -0.3461937 0.34693372 0.24816754 -0.36175492 0.33482572 0.3184561 0.32670847 0.3285247 0.1312445 0.079654984 0.3490048 -0.2698356 -0.3387701 -0.29656008 -0.27172387 -0.33619905 -0.29921922 -0.35638106 -0.2672448 -0.31669605 -0.39304483 -0.37257576 0.34726834 -0.37065566 -0.19966435 0.32253245 -0.33325943 -0.31363857 -0.27942017 -0.098059595
及 0.248582 -0.33202764 -0.25759065 -0.27309996 -0.0073155 0.29727033 0.05974333 -0.071121074 -0.41165173 0.4488272 0.21852301 -0.23610403 0.33385438 0.23081371 0.35392755 0.48348522 0.13818356 0.11348286 -0.3095591 -0.17950773 -0.00916894 -0.108589344 -0.1135133 0.16356601 0.2466949 -0.37142855 -0.105137706 0.18131845 0.021701492 -0.057360843 -0.2803072 -0.4111905 0.31793553 -0.3373739 0.35689053 -0.056754563 0.38142082 0.16419105 0.0788263 0.116900295 0.20220178 -0.35384476 -0.27821574 -0.047461364 -0.22750485 0.1484299 0.070619 -0.28842276 -0.02372963 -0.34291527
己 0.36730364 0.24199419 0.382555 -0.37467492 -0.36016792 -0.35496575 -0.372663 0.35373428 -0.018320242 0.33351192 -0.14719379 -0.31755805 0.17839727 -0.32455692 0.3378669 -0.24886711 -0.32690322 0.34338188 0.21136287 -0.37068135 -0.3652932 0.3338326 0.31454477 -0.34710106 -0.33195204 0.08829109 -0.30577815 -0.24259605 0.29871675 -0.31862733 -0.33937523 -0.26738688 -0.35826954 -0.3722054 -0.2137864 0.36869672 -0.24207787 -0.34549156 0.35348973 0.2720289 -0.37253955 -0.35622692 0.34626472 -0.36544642 0.33585227 -0.30421972 -0.36340398 -0.22759564 -0.3473277 -0.28784657
予 0.31204376 0.24121204 -0.32261908 -0.38257572 0.34494063 -0.36923322 -0.3165159 0.045341082 -0.3455873 -0.250028 0.12862971 -0.36330062 0.32283932 0.36761177 0.37791336 -0.25446424 -0.3686353 -0.3396664 -0.20988919 -0.36700875 0.32856703 0.1628194 0.37521517 -0.34144327 0.33162066 -0.36660576 -0.28114215 -0.19268295 0.36507022 0.35669827 -0.36497995 -0.361972 0.36963764 -0.36662638 0.3660966 -0.33035246 0.3432414 -0.36923018 0.3205574 -0.04954446 0.3608925 0.1846484 0.3080832 -0.31948772 0.3760706 0.3280881 0.25065422 -0.3723163 0.38325906 0.286765
色 -0.30181846 -0.29085258 0.27028787 0.20242406 -0.33563346 -0.29331744 -0.3295693 0.21221915 0.14092754 0.32146382 0.19196188 -0.3383571 -0.17828816 -0.3455965 -0.36345288 0.3186359 -0.31069154 0.19807704 -0.32765722 0.28470328 0.3066394 0.31450284 0.2559856 0.30738238 -0.093319096 -0.021399345 -0.34334508 -0.31319717 0.16996157 0.34297234 0.33917794 -0.3070577 -0.33879492 -0.34628722 -0.33706155 -0.34907165 -0.3121521 -0.3187394 0.3320307 0.34534734 -0.1876459 0.19936594 0.2484584 -0.34513858 0.2561345 -0.3332359 0.258935 -0.34721595 -0.33585995 -0.3034762
友 0.41573223 0.054810785 0.32273516 -0.38428533 -0.373089 0.32977772 0.2175763 -0.33380204 0.13548666 0.33002412 0.37876585 -0.23673256 0.38252336 -0.26143175 -0.1561174 0.40978295 -0.30332255 -0.32183903 0.37254897 0.16469215 -0.33611387 0.077212214 0.2684192 -0.38152963 0.43946517 -0.24006099 -0.39509898 -0.3647823 -0.36182213 0.31845745 -0.28575468 -0.31918344 -0.06342386 -0.3459456 -0.33216682 -0.2836105 -0.2827856 0.37783542 0.38710907 0.35337138 0.32032892 0.23530148 -0.17496997 -0.36241698 -0.2572739 0.31357726 -0.3473939 -0.28230014 -0.006821151 0.37628233
成 -0.610886 -0.43250477 -0.59236205 -0.59502727 -0.59664917 -0.5454456 -0.61569816 0.5802555 0.487499 -0.23967873 0.45234606 -0.59925395 -0.2763966 -0.47631386 -0.31500146 0.39101583 -0.3956653 0.60766083 -0.36212558 0.44036564 -0.6588545 -0.61227685 0.5615335 -0.60154796 -0.51476824 0.46007618 -0.5280568 -0.043536052 -0.5143553 -0.33226508 0.38433853 -0.52913535 -0.26834068 -0.5826726 0.30676043 -0.30738485 0.5348269 0.37158412 0.2909803 -0.15321578 -0.6069359 -0.5572271 -0.638743 -0.2751701 0.37425327 0.62481564 0.6516348 -0.39472824 0.24780163 0.57508457
远 -0.32205302 -0.34024727 -0.35945952 0.3512968 -0.37076023 -0.22800267 0.35902917 -0.18758768 -0.34869495 0.040540885 0.28139123 0.13995649 0.35239482 0.38646585 0.3455291 0.35536575 0.35005185 -0.29025406 0.3120368 0.2901411 -0.3245599 -0.390255 -0.00739904 0.143112 0.34447283 0.24091807 0.26576018 -0.33366224 -0.32753238 -0.3049057 -0.29644716 0.15977848 0.357675 -0.37393087 0.30376872 -0.315209 -0.09932747 -0.23179814 0.38157403 0.2909563 0.3072019 0.31907275 0.326476 0.38133794 -0.32082137 -0.34285498 -0.14091325 -0.09314211 0.15790474 -0.3885324
上 -0.3626391 0.33256978 -0.27278885 -0.31461945 0.24154812 0.35382676 -0.35434064 -0.31653744 -0.34291297 -0.016692696 0.12710677 -0.00024312316 0.37083325 -0.32196257 -0.40453374 0.3956605 -0.33854464 0.24711598 -0.0631389 0.3730853 -0.20044349 0.36087155 -0.3877568 0.32555264 -0.30661616 0.318316 0.32376373 0.21644069 -0.25629935 -0.058833946 0.07344047 -0.3168625 0.39320272 -0.3403561 -0.3680259 -0.090982534 -0.22032227 -0.2806782 -0.3556495 0.2476597 -0.029423798 -0.29205656 0.321944 0.31599313 -0.3654597 0.2273764 0.083567694 -0.31064776 -0.13484856 0.32083488
立 -0.2665494 -0.34502712 -0.37045318 0.33599162 -0.31147188 0.39242885 0.34558696 -0.33919075 -0.23959583 0.32933643 -0.38089934 -0.19184688 -0.040172704 -0.13806361 -0.33880502 -0.2790394 0.3782843 0.18401857 0.31188744 0.1531418 0.3272572 0.31231037 0.2780124 -0.24089472 -0.30805874 0.34316722 -0.1527035 -0.34037697 -0.330517 0.3224969 -0.30202562 0.34447208 0.34902582 -0.13404171 -0.37049514 -0.37769744 -0.30815077 0.15169089 0.32434455 0.340801 0.31729048 0.35210237 -0.29069653 0.3295799 -0.26373005 -0.2638853 0.39838257 0.31794563 -0.33551398 -0.3457177
今 -0.11429604 -0.36716396 -0.22775657 -0.100941226 0.3703625 0.3832653 0.22118872 -0.34736103 -0.32478622 -0.3825749 -0.19844687 0.2759913 -0.34965166 -0.19420183 0.07409853 -0.34565586 0.35420808 0.33565575 0.04174865 0.37775618 -0.12708364 0.38465577 0.13187613 0.3641894 -0.35936862 -0.3314934 0.23134284 0.38031855 0.3604352 0.061731104 -0.25038812 -0.20475529 -0.09877564 0.38737398 -0.24063316 -0.376459 -0.21026704 0.22320578 -0.3382305 0.1238987 0.1663487 0.3164622 0.37829095 -0.23951574 -0.31944653 0.35226154 0.29191843 -0.24322692 -0.21629195 -0.13529354
张 0.061014716 -0.29696345 -0.3457174 0.36003274 0.39812616 0.3410903 0.38043705 -0.37745225 0.17242672 0.38405573 0.27536246 -0.38605312 0.40665293 0.23269361 0.37961623 0.3504914 -0.39625907 -0.35265073 0.39386556 0.37840813 0.3900361 0.33499143 -0.3818439 0.3429456 -0.35849118 -0.33814445 -0.008195579 -0.267731 0.33413887 0.02037239 -0.07738687 -0.17160532 0.38028154 0.10652706 0.07831208 0.29520285 0.20837894 -0.3863842 -0.37587428 0.2857734 0.36306486 0.38646674 -0.3896012 -0.0027100698 -0.381137 0.23026916 -0.36924043 -0.34536988 -0.39104807 -0.36686927
中 0.35571262 0.31609884 -0.35203525 -0.28667763 0.19802417 0.36893857 -0.38378626 -0.25219008 -0.36973357 -0.25567067 0.27904075 0.29440638 -0.34379405 -0.10921689 0.36862674 -0.35894 0.3065752 0.1489636 0.40009427 0.13010855 -0.32221854 0.3199534 -0.041775677 0.20727451 0.31311452 -0.25375408 -0.35598254 0.21931058 -0.33293268 -0.39004165 -0.038293727 -0.37401366 -0.28252596 0.33619812 -0.3466845 -0.12105753 -0.22021012 -0.20144072 0.36251885 0.19113724 0.30843386 -0.2955498 -0.23639347 -0.21189857 0.18276036 0.3330119 -0.36534032 0.36501777 0.3930947 0.368837
季 -0.36638513 0.10916223 -0.3365001 0.34372243 0.38456514 0.3605931 -0.37326977 0.007704734 -0.36858588 0.3054386 0.38229805 -0.33020586 -0.36852428 0.36275306 0.38654196 -0.25109774 0.3640041 0.3693051 -0.35354865 -0.1311587 -0.37961215 -0.33335453 0.3906659 0.33234736 -0.35975957 -0.36820006 -0.35975763 -0.39803562 0.37935495 0.09378447 -0.34386948 -0.37738144 0.11504197 -0.3952738 0.37311912 0.37866977 0.3225798 0.3594851 -0.35681745 0.05024857 0.35855815 0.3381298 -0.3613722 -0.35784104 -0.033271182 -0.38158128 -0.36380798 -0.3835661 0.34479347 0.041643787
臣 -0.5074093 0.6416069 -0.21947876 -0.38321683 -0.6434299 -0.6202999 0.20251092 -0.045394484 -0.2821324 -0.3257949 0.119358584 -0.38596973 -0.39148444 0.51918596 0.5967048 -0.53100365 0.45876518 0.20766872 0.27739978 -0.52799845 0.68817997 0.49003968 0.04512312 -0.6473313 0.31917593 -0.42356187 -0.07306986 0.22527622 -0.4873026 -0.028488964 0.49584335 -0.08833076 -0.29702514 -0.30790493 -0.5650238 0.020585807 -0.65104496 -0.48454183 0.07480006 0.3210552 0.57514894 0.10425445 -0.59923726 0.05699668 -0.23543422 -0.1665945 -0.5201122 -0.6023695 0.55879223 0.27116463
贤 -0.34269068 -0.06524726 -0.3433259 0.32001013 0.356362 0.1767351 0.3620658 0.30867812 -0.37554485 -0.36940965 -0.3400382 -0.3679165 -0.35939342 0.20694995 0.30522287 -0.37325466 0.22009397 -0.109726265 -0.38427112 0.37246984 -0.3746122 0.3619043 0.35615942 0.372479 0.15498278 -0.23431425 0.23276019 -0.14221416 0.3669916 0.07322627 0.27465913 -0.15387538 0.24496831 0.4067136 0.30188468 0.31309214 -0.32218242 -0.22060785 -0.36237353 0.36505997 -0.33024055 0.3901016 0.28355798 0.34993643 -0.32969725 0.04639844 -0.35773528 -0.36734495 -0.37196165 0.37680638
思 -0.27944863 0.34578064 0.31943128 -0.32723334 -0.3309671 -0.26141086 -0.15441042 -0.31128305 0.34595305 0.33464733 -0.31701672 -0.32211983 0.2854683 -0.3123519 0.13636744 -0.28939354 -0.24558595 -0.3307677 -0.08782401 -0.3425406 0.31042376 -0.29346555 0.22543335 -0.29743227 0.29849684 -0.31882232 -0.12563686 -0.30600086 -0.3275264 -0.3106982 0.36425492 0.35074708 -0.33120373 0.21636298 -0.34262055 0.3232253 -0.33722785 0.22818671 -0.29411533 0.35315174 0.33719426 0.33741468 -0.3327989 -0.36395413 -0.34020922 0.3308959 -0.28422105 0.26350123 -0.3186871 0.34048364
齐 -0.24943407 -0.17839828 -0.20026064 0.2341651 0.25984925 -0.29889125 -0.3508436 0.045928787 -0.1572542 0.38018426 -0.3473214 -0.31673592 -0.3479617 -0.32678825 0.3541817 -0.28633443 -0.2900795 -0.361401 0.390065 0.12524363 -0.35113207 0.11894916 0.35249445 0.3034562 0.29507712 0.17080025 0.2995477 -0.23272939 -0.08154056 -0.35173905 -0.32701614 0.3207015 -0.26323292 -0.33409977 -0.3787352 0.3475071 -0.36782664 -0.19759718 -0.3362288 -0.3386983 -0.32175872 0.30829975 -0.30187276 0.3410662 -0.21571746 0.32858545 -0.30857465 0.25575364 0.3462812 -0.31927064
义 -0.34856242 0.17538618 -0.35694954 -0.35323492 -0.33358404 0.33452404 -0.19042264 -0.2949718 0.39217836 0.32918435 0.29129234 0.3485469 0.32092458 0.3784691 0.32882622 -0.30598643 0.33669877 -0.23993325 -0.358767 0.36272687 -0.37007195 -0.32735515 0.21843147 0.3922088 -0.36035892 -0.35419887 -0.36271742 -0.35779107 0.3377374 -0.33831587 0.35719925 0.36154735 0.32952178 0.23699866 -0.34782326 -0.36250535 0.33132258 0.32281783 -0.36319438 -0.34780654 0.29486206 0.36942753 0.117476135 0.3452521 -0.29078844 -0.19054826 0.36479235 0.3373301 -0.32823598 0.35006428
正 -0.3798687 -0.030002777 0.27847454 -0.37549028 -0.26126903 -0.31338736 -0.374658 -0.34554365 -0.27356032 0.33680555 -0.39255944 -0.37973857 0.401132 0.1201314 0.3276999 0.18702662 -0.32584748 0.22376516 0.29842114 -0.34531558 -0.32262796 0.13732325 0.36547184 -0.31934202 0.163517 0.15289623 0.18193173 0.34966975 -0.35722968 0.19788507 -0.3126449 0.3604466 0.34040767 0.38832718 0.22987254 -0.112296924 -0.33192372 -0.21815014 -0.108853534 -0.33874184 -0.27371174 -0.22426218 -0.32137442 0.36674762 -0.3186716 0.4121036 0.34497154 -0.35869235 0.2798179 0.38239065
命 -0.37578124 -0.35759568 -0.044471707 -0.34490007 -0.40799326 -0.37073508 0.12618433 -0.31956813 -0.13970155 0.32721558 -0.36551583 0.39877838 -0.36534825 -0.20777583 0.251818 0.1533114 0.40010813 0.047621083 0.35768613 0.3245194 -0.3389192 -0.3733972 -0.37644738 0.14106418 0.19790353 -0.38172945 0.35414177 -0.36130065 -0.2855387 -0.37116298 -0.3428421 0.33431944 0.14387275 -0.34490976 0.311712 -0.39673933 0.26549482 0.38697535 -0.37862933 -0.37814316 -0.3492134 0.38609907 0.3866519 -0.10569025 0.39053753 0.38277036 -0.32677543 0.3396158 0.36523026 0.4305564
曾 -0.2640404 0.3455185 -0.14452013 0.1579596 -0.38263595 0.41010663 -0.048091237 -0.42473733 0.31604403 0.4187448 0.3006908 -0.088528655 0.08635386 -0.0946681 0.34700286 0.37197238 0.27265033 -0.41625738 0.4140796 0.06908665 0.36648414 0.3722618 -0.10095461 -0.3672962 0.41873336 0.3946772 -0.36632267 0.28167576 -0.41346464 -0.42818412 -0.31118876 -0.42057586 0.37055185 0.34404582 0.3888066 0.36653945 0.073417924 -0.14638968 0.41688266 -0.3442157 0.35464245 -0.3928644 -0.3801241 0.37168455 0.38391834 0.2814349 0.31479782 -0.16714883 0.39360654 0.39255583
伯 -0.5553219 0.06744448 -0.5142458 -0.66960377 -0.26679224 -0.6646333 -0.43135607 0.55204105 -0.63417274 0.4684946 0.052163716 0.031605475 -0.13093488 -0.3735223 0.3024264 0.6315836 0.6538301 0.6769795 -0.041852273 -0.5731728 -0.5356649 -0.7086554 -0.08895469 -0.4005285 0.3409111 -0.61842924 0.52844423 -0.5364412 -0.52690536 -0.40256637 -0.32653388 -0.608158 -0.6699261 -0.41098613 0.17095858 -0.40868276 0.46596333 0.019953553 0.24550988 -0.6827495 0.29994795 -0.6958707 0.6374783 -0.0025506578 -0.3735944 0.1047249 -0.5257031 -0.28279227 0.22106144 -0.44872338
门 -0.2657402 0.36037713 0.06196739 -0.38264012 -0.36727583 0.37146452 0.40510687 0.28656873 -0.309395 0.32498467 -0.4066643 -0.09300282 -0.39968407 0.34818858 0.28425282 0.3323558 -0.10870294 0.34301576 -0.3635563 0.01321939 0.053919885 -0.041820098 0.20498239 -0.3991487 -0.34608063 -0.31228492 0.32419947 0.38213754 0.38056043 -0.3832988 0.36887273 -0.39667755 -0.20912269 -0.08235608 0.3686776 0.27300778 -0.35708854 -0.39435232 -0.35318762 -0.40210524 0.32342616 -0.3392813 -0.2969568 0.14751376 -0.39227098 -0.38919273 0.3405327 -0.31053486 -0.3817395 0.37528238
敢 0.22765443 -0.28826773 -0.40686595 -0.27573082 0.36880654 -0.35890046 0.26985073 -0.07585488 -0.4279663 0.30254418 0.25530213 0.07672869 0.19831347 -0.40107223 -0.026657335 0.45265096 -0.068041176 0.08144876 0.23689029 -0.16192302 -0.006350641 0.10576196 0.37653276 0.3199417 0.15730642 -0.425925 0.33113074 -0.34879345 -0.002220816 -0.39388895 0.012968839 0.27939865 0.020922728 -0.029365247 0.3007476 -0.1940667 0.30961153 0.4278523 -0.38324794 -0.46450704 0.32757705 -0.07085017 0.36753586 0.4212886 -0.35190144 -0.08974915 -0.3202796 0.0722704 -0.4034072 -0.4446309
犹 0.38020653 -0.3225769 -0.3635015 -0.35970327 -0.39677578 0.38252434 0.38182956 -0.13173868 -0.3410085 0.36628675 -0.37604767 -0.34411064 -0.34618667 0.30158904 -0.13369639 0.3949524 -0.3775704 0.36189517 0.08008926 0.41002554 0.2228123 -0.36741275 0.2741551 0.20342913 0.32708472 0.29986215 0.3202612 -0.36715183 -0.2849008 -0.3899101 -0.35326618 -0.04902341 0.2020108 -0.18237701 0.35586512 -0.2264164 0.38878053 0.3556319 -0.10673702 -0.40264782 0.34163055 0.33162096 0.28552178 -0.37824038 0.15000568 -0.37660778 -0.3440118 0.22201446 0.32916698 -0.32437629
生 -0.2689852 -0.34270927 0.3705914 0.3586856 -0.27636576 0.08361387 0.24333748 0.36939886 0.27835417 -0.3913984 0.37759638 0.39187467 -0.34667826 0.37959525 -0.27672777 0.33533353 -0.33406273 -0.38162687 -0.32136047 0.37962157 0.3914041 0.32207245 -0.041584305 -0.38754064 -0.38050383 -0.1741121 -0.1891601 -0.36219886 -0.3646395 0.3575938 0.3891232 -0.35104433 0.38287723 0.39766604 -0.24880116 -0.32014382 0.38936257 0.3769253 0.34833592 0.13985585 0.38140473 -0.37114272 0.3887139 -0.36647046 -0.381463 0.3960588 -0.33896503 -0.3530675 -0.3891381 0.38424528
日 0.3886169 -0.28691489 -0.34332293 0.36786044 -0.35563797 0.298897 0.38588142 -0.36217645 -0.23163612 -0.36518416 -0.3956303 -0.2940574 -0.34982473 -0.2912338 -0.37999308 0.38532725 0.39247462 0.35683888 0.3378612 -0.36658517 0.37139618 -0.10806899 -0.33156675 -0.38065192 -0.27445418 -0.38094902 -0.40589768 0.43127996 -0.36071548 0.39413178 0.41355494 -0.37040415 -0.19322453 -0.33412686 0.18831284 -0.38591903 0.33020183 -0.33644342 0.3836692 -0.34352526 0.37022534 -0.38849866 -0.39294133 -0.3026079 0.4013996 -0.4031135 -0.36747485 0.32370973 -0.36810583 -0.16887088
敬 -0.3636632 -0.2507441 0.37730867 -0.3469774 -0.3361348 -0.11150141 -0.39977318 0.26054695 0.063282534 0.19011265 0.35689497 -0.33341262 0.19276644 0.39276552 0.30011362 0.33478603 0.26331377 0.34290284 0.35581717 -0.35383856 0.14995499 -0.07733137 0.34993362 -0.36182964 0.37113932 -0.28583196 -0.27338576 -0.33873564 -0.016335435 -0.3391425 -0.14117132 -0.3767678 -0.25106904 -0.33137733 0.37052137 0.36272743 0.3512158 0.21560916 0.37318873 -0.028765514 -0.20643277 -0.33633006 0.3623108 -0.40141228 -0.06937619 -0.13938814 -0.2868326 -0.36270276 0.28500468 0.37114903
难 -0.06322119 0.37292725 -0.3190364 -0.21206778 -0.3621787 -0.35239813 -0.28709376 -0.27508888 0.3147429 -0.36748648 0.043261424 0.3363287 0.38099408 0.23246117 0.24868211 -0.35573944 0.35432747 0.3501537 0.29788744 -0.30668348 -0.0196681 -0.34020296 0.3485603 -0.32547367 -0.36187366 -0.2830283 0.33202162 -0.35196263 -0.3514099 0.35592747 -0.3188764 -0.34454504 -0.1330682 -0.35422522 0.36863986 -0.221746 0.35185295 -0.27350247 -0.28226373 -0.3556686 -0.37280896 0.3322851 -0.37081507 -0.36043626 0.29257786 0.37101966 -0.34213656 0.23183878 -0.3477619 0.35068485
直 -0.24735612 -0.47874027 -0.20724258 -0.6863766 -0.6261944 -0.68424785 0.2487955 0.64120746 -0.62642646 0.583046 0.6123535 -0.54404 0.6979124 0.7287802 0.5816434 0.66804564 0.62628496 0.6491045 -0.41724783 0.14061889 -0.7292507 -0.66351956 0.6460753 -0.2708555 0.5091438 -0.13968952 0.48142454 -0.644147 -0.7240013 -0.41888312 -0.27479184 0.057523735 -0.6249494 -0.5271366 0.7003608 0.3263715 0.60568446 0.6296426 0.54209256 -0.73069507 0.42434543 -0.7175617 0.28420073 0.047251806 -0.18043791 -0.597407 -0.46893597 -0.27133706 -0.45408717 -0.4149197
丧 -0.32190454 -0.06251599 -0.36368006 -0.28802088 -0.31845728 -0.38040787 0.39602983 -0.12907754 0.11910601 -0.15013593 0.31406525 -0.13399714 0.3930248 0.37880182 0.26820415 0.001267314 0.37004533 0.36062968 -0.3251629 -0.31780925 -0.050500367 0.06461661 0.36715585 0.31986928 -0.13163832 -0.28917372 0.3183961 -0.35903853 -0.37485552 0.1694099 0.32811472 0.26525757 -0.21801572 -0.35809502 0.3687561 -0.30342433 -0.11918287 0.34402624 -0.0040369686 0.26237398 0.07802408 0.34823495 0.025015801 0.3643624 0.15460101 -0.2818829 -0.24089326 -0.34871158 -0.109574266 0.18763062
说 -0.3956297 -0.3990582 0.2644306 0.22158295 0.34432366 0.41579795 -0.012615709 -0.345564 -0.31015977 0.11379504 0.21328937 -0.29664525 -0.37997755 -0.14553216 0.326306 0.33246997 -0.04475272 0.4079702 0.23515525 0.33934242 -0.3486481 -0.26026297 0.36210093 0.38949975 -0.19282031 0.38893044 0.37846622 0.42043418 -0.32709008 0.14108929 -0.28756726 0.39464375 -0.39524773 0.42002153 -0.41220117 0.32084823 0.34437102 0.40010938 -0.39438066 -0.36888322 -0.41169536 0.01577053 0.3513091 -0.35259035 -0.20613329 0.41613844 0.33089846 -0.33050555 0.36334196 -0.3211912
自 -0.373217 0.3024652 -0.34590337 0.2367862 0.37028974 -0.36893418 -0.07312245 0.38188496 0.3896225 -0.3745087 0.35234508 -0.20591731 0.36132604 0.3803172 0.3746671 -0.22273919 0.35970178 -0.13042895 0.37083906 -0.3690099 0.31644753 -0.3129615 0.3782313 0.30321187 0.19748512 -0.2519621 0.36511323 -0.3888044 -0.37238148 0.351813 0.22537476 -0.38025728 -0.38208184 -0.36813608 0.39073655 0.3877977 -0.23965007 -0.34255153 -0.24089216 0.12403386 -0.37785703 -0.11967609 -0.31957775 0.3342455 0.3294433 0.31540665 -0.25510195 -0.26416358 0.12082383 0.09548328
用 -0.257507 -0.3356245 -0.33485153 0.32776007 0.3346426 0.37581444 -0.07103258 -0.38687867 -0.22606619 0.32028112 0.3374509 -0.3952844 0.34710824 -0.13969256 0.32845497 -0.40937188 -0.3324594 0.38286346 -0.40457794 0.35474694 0.12261041 0.40962672 0.39453924 0.3616618 -0.3749891 0.34717068 0.2955144 0.03782715 -0.35160214 0.3936 -0.1613395 0.40531376 -0.37423432 0.41586035 -0.4035431 -0.3649736 0.27182454 0.36796358 0.117853366 -0.36674318 0.18389815 0.37883234 0.3505676 -0.3248099 -0.26369593 0.32102224 0.11676606 -0.3578562 0.20815046 0.41883352
周 0.30246547 -0.2916672 0.35840482 -0.3315015 0.33780834 0.048454482 -0.10674421 0.30620185 -0.037621118 -0.37441188 -0.37671885 0.22270158 -0.09635531 -0.3201964 -0.14055343 -0.3748572 0.38928962 0.35539916 0.3158838 0.33948576 0.0065110503 0.37499312 -0.23142928 0.36745968 0.20715298 0.3539535 0.32696372 0.3945947 0.31786922 0.37644038 -0.35006693 0.29241633 -0.3673239 -0.25331753 0.25953555 -0.13605899 -0.3331613 0.25189802 -0.19737615 0.36353594 -0.36984503 0.34270662 0.3628655 0.36036426 -0.18977055 0.35999656 -0.3147806 -0.29593998 -0.37081176 -0.32261425
颜 0.4021207 -0.33749795 -0.35628048 0.25978205 -0.37106377 0.36694884 -0.33846617 -0.38432676 -0.32722637 0.2833289 -0.15231134 -0.21475837 -0.30354032 -0.37337673 0.29272124 0.3735654 0.2598633 0.31753564 0.39690408 -0.16827334 0.36100295 0.05977803 -0.23897192 -0.26248714 0.34561005 0.3430532 0.29096535 -0.3904892 0.27892968 0.3046187 -0.21963704 -0.17034815 -0.3273763 0.37390295 -0.36087793 -0.32983127 0.36518547 0.37821105 0.35631874 0.23193498 0.35681966 -0.24904643 -0.29427552 -0.32798192 0.33491343 -0.0017015502 -0.34256575 0.35075152 0.376686 -0.336002
年 -0.13231765 0.38173825 0.38409874 0.20334321 0.3586886 0.36836693 -0.39004612 -0.37801304 -0.017723223 0.3685492 0.26252547 0.36123726 0.19288047 0.371758 -0.34642026 -0.35203838 -0.2027397 0.008575626 0.18077222 0.3522219 0.3977197 -0.23689952 -0.38200435 0.36549476 0.18730912 -0.37420997 0.37677267 0.3792903 0.3715209 0.40034276 0.27221185 0.33523932 -0.35440207 -0.12866859 -0.35443154 -0.36337832 -0.35618412 0.08815123 0.27428114 0.19989273 -0.39451322 0.36492544 -0.37422898 0.32164508 -0.40168023 -0.30771345 0.3471581 0.12059303 0.29251832 0.096241504
告 0.37646446 0.6336614 -0.33561993 0.106413804 -0.65670204 -0.22774692 0.58011085 -0.14046638 -0.049286038 -0.5724408 0.46874976 0.6450716 -0.03482997 0.058849793 0.3408048 0.18192689 0.62006885 0.5503007 0.52918047 0.6517262 -0.08049222 -0.5011121 0.40691134 -0.52786446 -0.46027973 -0.5589934 0.57235503 -0.6514922 -0.29477134 -0.045287225 0.5382112 0.64893776 -0.655015 -0.0095329685 -0.517501 0.50264233 -0.4514054 0.64883506 0.6003406 0.23267901 0.42718524 -0.33919033 0.63688034 -0.5825123 -0.09809988 -0.6300939 -0.3029078 0.58731425 -0.2950062 -0.61424553
十 -0.36021936 0.18221745 0.3348387 -0.39767435 0.3180319 0.28772423 0.37591892 -0.36840203 -0.28933093 -0.43592972 -0.4031177 -0.4055479 0.36679694 -0.1678129 0.33961326 -0.3680607 -0.2854796 -0.21955693 0.30627725 -0.35911578 -0.13755494 0.16041245 0.2444573 -0.17694303 0.17283499 0.36610124 -0.34841478 0.37687328 -0.08471795 0.39723828 0.11062834 0.39733532 -0.21562044 -0.23417309 -0.32522792 0.07924899 -0.3491032 -0.30062374 0.35684422 -0.046814807 0.038220957 0.2676364 -0.28962636 0.19028574 -0.34836492 -0.151469 -0.39511806 0.2880085 0.19948326 -0.09795588
怨 -0.35904956 0.35172892 0.3130969 0.37118796 0.25167808 -0.3441435 0.37880394 -0.23603207 -0.35536382 -0.36115208 0.35440695 -0.16922137 0.32832322 -0.37440357 0.36923704 -0.3757299 0.3030108 0.35098338 -0.39215896 0.37944952 0.38338676 0.3726115 0.17178056 0.22884603 0.37122273 -0.37774587 -0.400014 0.049907863 -0.40311277 -0.343888 0.38061714 0.2907632 0.37870687 -0.35179928 -0.34962338 0.37563735 0.3849509 -0.40243053 0.37405407 -0.36274502 0.36354125 -0.3905639 0.29493383 0.3177075 -0.3586438 0.3537099 -0.38159004 0.3245393 -0.33391708 0.02696887
达 -0.36875358 0.3782664 -0.28891978 0.382553 -0.15082169 -0.1555655 -0.34458488 0.2218785 0.15810108 0.39884323 0.3850812 -0.35399702 0.38164085 0.39333743 -0.35885945 -0.43653718 -0.40588945 -0.3560074 0.31309927 -0.29972148 -0.32829398 -0.35824132 -0.23479411 -0.38886583 -0.3321974 0.23928192 0.112650216 -0.35008878 -0.16077937 -0.13067506 -0.30262035 -0.3546145 -0.34747797 0.42308885 -0.29029956 -0.056696177 0.38077033 -0.34087908 0.36034355 -0.39369166 0.25971833 -0.36095846 -0.37006298 -0.17867593 0.33604816 -0.38948795 -0.3827874 0.14289197 0.30727315 0.33546278
孝 -0.3702953 0.29975006 0.18344776 -0.29753557 -0.32053173 -0.36441308 0.14984983 0.41508338 0.33510774 -0.38181463 -0.3313531 -0.34247395 -0.10396305 0.239559 0.37338558 -0.35141245 0.34214756 0.02649434 0.37834135 0.33816478 0.3574807 0.1276169 -0.3736665 -0.450817 0.20403872 -0.34952024 0.34357283 -0.33140898 -0.12115116 -0.15094993 0.14266707 0.25217578 -0.34038854 0.28377038 0.34959537 0.24111208 0.14782098 -0.29431754 -0.13455985 -0.37965846 0.24159956 0.26955065 -0.3917377 0.08276054 -0.012779304 0.420075 0.45495465 0.4031428 -0.359935 0.33647838
弟 -0.41083688 0.33659208 0.30914387 -0.33705294 -0.24822664 0.35620764 0.35789272 0.3717795 -0.3431836 0.22834158 0.33043393 0.43297562 0.24892426 -0.15034442 0.34859154 0.37365362 0.38934055 0.33968356 -0.2993266 -0.018321268 -0.39282796 0.3830595 -0.35895592 -0.3842469 -0.06820333 0.39411318 0.34092668 -0.3208478 -0.18457346 -0.34548694 -0.2539624 -0.38373193 0.35504752 0.37987304 0.0904448 0.16822746 0.37540376 -0.34633568 0.064319305 -0.39371824 -0.35936713 -0.39236286 -0.28046024 -0.26894686 0.38430154 -0.3561777 0.37446222 -0.40624738 0.32307714 0.34708413
至 -0.39892653 0.3376815 0.39191967 -0.38137683 0.3766515 0.35981062 0.38051212 -0.30429825 0.22808746 0.39684442 -0.37793863 0.39132833 -0.38203463 0.3911021 0.33886144 0.09302433 0.38381198 0.23911232 0.28467208 -0.3428714 0.35814446 0.115978196 -0.2919599 -0.3513975 0.2752965 -0.37160727 0.3306454 -0.29578426 -0.38370988 0.3469968 0.21295756 -0.3730771 -0.38048634 0.39112067 -0.20325226 0.34091806 -0.37999094 0.36355746 0.27573317 0.41214043 0.352164 -0.30590212 -0.36565477 -0.364407 0.37322253 -0.039914776 -0.33935392 0.35255018 0.41227603 0.37965518
先 -0.38343653 -0.26786435 -0.31693494 0.1697409 -0.38973364 -0.2306285 0.3751397 0.38416886 -0.37492916 -0.40429717 -0.24909626 -0.20542629 0.39130944 0.3473623 0.3164871 0.3541119 0.14736092 0.05777247 -0.3487718 0.22843003 -0.30682385 0.36363462 0.2983755 0.3724417 -0.18730389 -0.18201604 0.34067044 -0.31823435 -0.32759416 -0.39488494 -0.22591703 0.39254317 0.37928843 -0.2783486 0.22510648 -0.3761129 -0.02111389 0.13387321 -0.38632706 0.18970686 0.36471012 0.31098983 0.33642617 0.35775545 0.32160825 -0.37140042 0.022389583 0.21248123 0.39583796 0.32011586
师 -0.43295118 -0.35900587 0.31328052 -0.6420609 0.6182625 -0.6899852 -0.23838158 -0.42036116 -0.47906154 0.2566801 0.51294374 0.10183652 -0.19439006 0.32246926 -0.58782786 -0.6663046 0.5711745 -0.37918684 -0.1078207 -0.6043628 -0.23778751 0.4726119 0.6913842 0.45674777 -0.5162817 -0.48913395 0.41674626 -0.34819883 -0.48325858 0.58464164 -0.34129968 -0.64097124 -0.48003694 -0.2846363 0.41699052 0.0100212945 -0.734391 0.44771868 -0.008501839 0.68814754 0.56475383 0.3134003 0.38723767 0.2474728 0.62821054 0.45706746 -0.5646753 -0.0051162173 0.09815481 -0.18648103
女 -0.04713417 -0.33572987 0.14668714 -0.30912557 -0.4231088 -0.3145015 -0.32525167 -0.15243974 -0.32459864 0.39031163 -0.07347699 -0.32943782 -0.12155354 0.41966158 0.392269 0.23132005 0.33366126 0.38178593 -0.12720884 -0.19449808 0.21627876 -0.38755104 0.3368433 -0.22829932 0.30872628 -0.1395561 0.31356218 -0.3444333 -0.38702002 -0.023906745 -0.24326955 -0.06597886 -0.31490672 -0.3518273 0.2168272 -0.24524601 0.31052813 0.1686595 0.3445145 0.2763276 0.421074 0.24469936 0.26720378 -0.17865194 0.25537273 -0.2971012 0.22676031 -0.36082354 0.3781487 -0.3866024
多 -0.33593032 -0.3107148 -0.21816866 -0.40002215 -0.34777185 0.016696109 0.23266184 -0.11772663 0.010085536 0.31552738 0.39968696 -0.32138285 0.37285006 0.3451977 0.18516535 -0.31920785 0.3817058 0.2523753 -0.44269845 -0.28576148 -0.15978885 0.39755735 0.34050518 0.03926672 -0.36363244 -0.094795294 0.18837658 -0.31510267 -0.18923822 0.2991278 -0.30563086 -0.028689515 -0.25518298 -0.22984794 0.36311552 -0.1261115 0.25435284 0.42593056 0.12279772 -0.04212237 0.3843503 0.13689998 0.33749393 0.40170082 -0.25211427 0.26806265 -0.32979956 -0.35586888 -0.36569554 0.24043493
忠 0.25375625 -0.38318688 0.35883895 -0.24348918 0.3389564 -0.1899506 -0.40003553 -0.3608086 0.23228164 0.40217412 0.38449878 0.3335294 0.41079962 0.2154291 0.2999167 -0.06464902 -0.35979128 -0.01314865 0.24971743 0.32311657 -0.37062708 -0.0029610698 0.34763858 -0.38100076 0.38941643 -0.07656027 -0.0545416 -0.415873 -0.3509813 0.19936042 -0.2322791 -0.35732612 0.09144249 -0.33216467 0.43811485 0.310866 -0.33546048 0.40163913 -0.1687042 0.36308676 0.41058224 -0.3913436 0.26316673 0.404285 -0.24853319 0.4288651 -0.38247296 -0.13963214 0.23288779 0.33886814
四 -0.35745257 0.39227283 0.10829664 -0.3813547 -0.36719698 -0.37847763 -0.29704788 -0.24637736 -0.2931717 -0.011898279 0.2002797 -0.38915822 0.33801377 0.37200928 0.030975934 0.28744853 -0.35417798 -0.39476287 -0.19830969 -0.3779616 0.36960396 0.3733842 0.3941092 -0.39224136 0.3426139 -0.38034028 -0.39374188 0.12514567 0.35947394 0.3817516 -0.33142915 -0.38944283 0.38605982 -0.37237436 -0.32577056 -0.21025339 0.3161236 0.0436589 -0.3466512 0.3915737 0.39004833 -0.36370713 0.28582844 0.3399809 -0.2369674 0.29632023 0.21482791 -0.3502199 0.35300472 0.0102809835
疾 -0.033867825 0.34163624 0.12659554 -0.36802396 -0.00581034 -0.3472742 -0.36146113 0.007262599 -0.2905354 0.3830118 -0.007675464 -0.009592104 -0.37628555 0.38920623 0.36353934 -0.35896236 0.24423207 0.3856511 -0.3417313 -0.34076804 -0.27724338 -0.2955741 0.37575746 0.30420688 0.03848809 -0.35711256 0.38529593 0.36264387 0.16884965 -0.3812661 -0.28148398 0.109367855 -0.03450497 -0.35350636 0.28149822 0.36836186 0.3463738 0.32610866 -0.39921427 -0.34324262 0.10931276 -0.36408016 0.3780318 -0.13441148 0.15898083 -0.279422 0.2436149 -0.36653545 0.35817662 0.3797506
服 -0.41451252 0.32279763 0.18399018 -0.3694081 0.22445682 -0.39025328 -0.40512413 0.41043055 0.27182287 0.3164544 0.20449258 -0.384691 -0.21597919 0.40414295 -0.34522852 0.30815783 0.39529327 0.37030274 -0.29524335 -0.3426787 -0.4334913 -0.40532604 0.4265548 -0.18923348 -0.40530682 -0.35054767 -0.18724015 -0.1976993 0.39939818 0.15387455 -0.30871964 -0.30081517 -0.41609725 0.28218955 -0.04065253 0.38345507 0.3572912 0.39551356 -0.36947006 -0.09722148 0.313647 0.3637508 -0.35960642 -0.32263184 -0.069088474 -0.043109674 0.4090872 -0.37056014 -0.40859658 -0.21539402
氏 -0.21342611 -0.32079655 -0.3743288 0.2846229 -0.34725288 0.19888543 -0.21552618 -0.18102458 -0.32368153 0.3663308 0.3345453 -0.33987427 0.1579514 -0.18511505 0.36032072 -0.3099809 0.35141316 0.35311005 -0.08157564 -0.35495454 -0.36384764 -0.3570401 0.34928092 -0.22617353 0.28516534 -0.34714618 -0.32393888 -0.058669068 -0.35617945 0.15556632 -0.30359134 -0.36488235 -0.3223345 -0.34342998 -0.2780586 0.3376603 -0.18312067 0.35848027 -0.21986061 -0.38919023 0.28264016 -0.3410434 0.3570935 0.10203712 0.33527476 -0.36507744 0.33142996 0.1401621 0.22347806 0.2873347
冉 -0.6381529 -0.12825969 0.04895485 -0.25068536 -0.49944073 0.29592916 -0.26514342 -0.5704419 -0.51147836 0.46394667 -0.50335 -0.5992172 -0.037770208 -0.41907066 -0.0934522 -0.5650825 0.59096694 0.5464598 -0.57029545 0.5598507 -0.5611735 0.4515875 0.5340471 0.68652964 -0.46427932 0.63920027 0.6244499 0.67136765 0.68132293 -0.041244045 0.17491467 0.48709184 -0.31803724 0.55883014 0.6257252 -0.6056809 -0.4402916 0.24776158 -0.49047512 0.52127147 -0.27705327 0.6397389 0.19537379 -0.25328332 -0.48869926 0.29711795 0.57008976 -0.2041597 -0.6324879 0.6529662
将 0.1995945 -0.29994527 -0.38789454 -0.03347805 0.42286545 -0.41262913 -0.36055648 0.4220027 0.036958437 0.39005414 0.27335796 0.2635094 0.021120876 0.40138233 0.100130394 -0.32340708 0.37468758 0.38911343 0.30032042 -0.37442082 -0.39809307 -0.36919492 0.3420996 0.29009786 -0.16697414 -0.035820913 0.0591462 0.11771776 0.3165202 -0.33090356 -0.115200415 -0.39115587 -0.31658828 -0.36646843 0.31859133 0.4104944 0.36193776 0.11956138 -0.1653009 -0.33127284 -0.4017248 -0.330337 0.39193952 0.21966583 0.40262294 0.13663968 -0.31458506 -0.05952043 0.09078504 -0.3686417
士 0.0043868036 -0.32919288 0.3620137 0.14090014 -0.4319353 -0.4022741 -0.07631009 -0.29606053 -0.36003426 0.3913258 -0.34273058 -0.3509925 0.07449898 -0.25112733 -0.35946554 -0.38657102 0.23594512 0.24366388 -0.30948403 -0.36509502 -0.36407223 -0.33456838 0.40345666 0.26332283 0.30493113 -0.3598231 -0.39206186 -0.26451856 -0.3934358 0.39783815 -0.35785273 0.07860373 -0.29936242 -0.3541777 -0.15211536 -0.34298718 -0.36936438 -0.39105234 -0.23080248 -0.091652945 -0.3351584 0.32251152 0.30618036 -0.33720985 -0.37735325 0.38094053 -0.31185472 -0.31007358 0.41034624 -0.40315163
丘 -0.2738536 -0.36230826 -0.21021321 0.3746244 0.33527616 -0.3392372 -0.37069756 -0.014022753 0.3188235 0.20280583 0.3301773 0.24888758 0.37455398 0.08002229 -0.38233936 -0.36651984 -0.17967092 -0.35176274 -0.37991974 -0.23544577 0.032058395 0.33975396 -0.38498455 0.34178385 -0.33368477 -0.35529596 0.27640155 0.3750751 0.3546254 -0.37512925 0.06420152 -0.34181097 0.34643134 -0.29568967 0.32519388 0.3178597 -0.3503004 -0.3800345 -0.04431796 0.17558226 -0.33354717 0.37545583 -0.2702707 0.051293552 -0.3330338 -0.34962165 -0.32662016 -0.34010354 0.34038237 -0.39676526
身 0.20159002 -0.39064074 -0.30645907 0.23430301 -0.33592448 -0.40727577 -0.27414638 -0.33646536 -0.39030805 0.073994406 0.37568122 -0.28330347 0.24728946 0.08917889 -0.23385976 -0.4255235 0.2443918 -0.40752727 0.34318057 0.03420856 -0.17730929 0.34943423 0.394055 -0.33876246 0.3449142 -0.39308026 -0.19737303 0.25707155 -0.3704595 0.3978681 0.24393466 -0.4102053 0.363312 -0.3998114 -0.3636758 0.34866422 -0.39902744 -0.28844973 -0.013019059 -0.38450277 0.37937877 -0.40272543 -0.12451853 -0.310374 0.38583896 0.053059097 -0.3638506 -0.38837394 0.39163414 -0.3832811
入 0.34213996 0.4028503 0.38523638 -0.296826 0.29296362 -0.39019775 -0.35070482 0.41569293 -0.3844845 -0.3858213 0.34328178 -0.41731334 0.41321704 0.06302797 0.2875675 0.18475461 -0.35740805 -0.3578784 0.11246128 -0.39348942 -0.37952024 -0.40348768 0.2874267 -0.28854787 -0.39430913 -0.38650385 -0.14702275 -0.12745027 0.116891146 -0.37824392 -0.3889833 -0.40419126 -0.2590221 -0.39136958 0.008638419 0.40221292 0.26756597 -0.3676723 -0.068868816 -0.39952174 -0.41631526 -0.16354914 -0.35789096 -0.1906206 -0.38694012 -0.33442932 0.14088188 -0.3397184 -0.13886912 -0.17776704
志 -0.20594513 -0.30721286 -0.38268447 -0.38663065 -0.3560562 -0.313766 0.3892752 -0.29199192 -0.28051454 0.37717286 0.33096305 -0.3139832 -0.28152537 -0.28709805 0.31128243 0.3571558 0.36900517 0.31837475 -0.30533212 -0.22938964 -0.38207805 -0.25439176 0.27492005 -0.28871402 -0.32382303 0.33301964 0.2376922 0.12210315 -0.37279534 0.27020666 0.050928622 0.35792986 0.22868018 -0.33722842 0.3325608 0.18272014 -0.3625628 -0.2487092 0.33718488 -0.333753 0.3667793 0.3200628 0.27182576 -0.14322701 -0.13106953 -0.0981156 -0.28754762 -0.25641116 0.34792045 -0.029241879
耻 -0.1605426 -0.34845656 -0.34667224 -0.3709508 0.30701077 0.38782805 0.36780822 0.38100255 -0.34075704 0.14467242 -0.31271932 -0.38205156 0.014829861 -0.33676913 0.22688213 0.36991686 -0.3396946 0.28255585 0.008965943 -0.33971536 0.38092047 0.3857791 0.34736922 0.3688727 -0.27498415 0.22365451 -0.3671463 -0.3461164 0.17967562 0.3544303 -0.33909217 -0.3423245 -0.38063356 0.37804353 -0.38446027 0.35059682 -0.33706915 -0.3253516 0.3527178 0.36997938 0.37960646 -0.38487244 -0.35837087 -0.29904842 -0.2713994 -0.31011447 -0.34353882 -0.21877475 0.3448838 -0.2580242
失 0.1517003 0.6299888 -0.4898126 -0.60240126 -0.5706232 0.25575548 0.0049956585 0.41306484 0.48870167 0.5094732 0.64133537 0.5557794 -0.6018938 0.5070217 0.155352 -0.42161268 0.6477258 0.4863321 -0.6477332 -0.5181458 0.04043043 -0.55909556 0.063361526 0.10408744 -0.026468594 0.58092576 0.52282137 0.6302335 -0.58368367 -0.5388536 0.48278794 -0.5321274 -0.37124616 -0.539135 0.58711106 -0.1996726 -0.48759452 -0.607573 -0.39957017 -0.5418214 -0.30720955 0.47021067 0.587185 -0.3347381 -0.3992111 -0.4520946 -0.59371233 -0.22753826 -0.5173855 -0.18557832
安 -0.3461873 -0.37314588 -0.328064 0.16353977 -0.35912654 0.028152725 -0.16935444 -0.21434537 -0.37450603 0.35316914 0.3499275 -0.38592964 0.056301326 0.3572905 -0.35958916 0.31224802 -0.39006853 0.026028708 0.3728046 -0.36952344 -0.3518404 -0.36074597 0.33795175 -0.28780466 0.23279554 0.32251608 -0.006884981 -0.10308845 -0.35893503 0.05354214 -0.3449221 -0.37770638 -0.331033 -0.22876486 0.08824472 -0.17684354 0.35187352 0.2698979 0.16003993 -0.26185694 0.36236957 0.19864543 0.35879856 -0.36779073 -0.36552295 -0.40415925 -0.17577982 -0.29840234 -0.27008876 0.36178014
富 0.41811207 0.41768265 -0.2823097 -0.334287 -0.2511028 -0.3950564 -0.4046203 0.19141251 0.10369812 0.37161583 -0.07232593 0.41624373 -0.06928151 -0.39691126 -0.39229143 -0.25474715 0.40376154 0.37836805 -0.38825786 -0.40802503 -0.40723747 -0.37312898 0.34038836 0.28281933 -0.36282325 0.07342195 0.091492385 -0.15632223 -0.4203985 0.4422847 -0.059831977 -0.42355096 -0.3491031 -0.13005537 -0.4102004 0.32485938 -0.32919708 -0.36144054 -0.210395 0.37494436 0.3457564 5.3111464e-05 0.30577844 0.29406083 0.16950542 0.21698706 -0.3083419 0.43481266 -0.37701923 -0.33680156
赐 -0.26545843 0.022412423 0.20524892 -0.31447044 0.27472895 0.3945005 -0.08150048 -0.041355025 0.2809824 -0.20693547 0.36303627 -0.37014604 0.036823865 -0.29364446 0.195035 0.42555183 -0.3439899 -0.380563 0.38808805 0.40649694 -0.41058114 -0.2387023 -0.32309347 -0.41871214 0.3384961 0.37896198 0.24918675 -0.3467462 -0.37574488 -0.41603443 -0.23101501 -0.28274104 -0.24542972 0.2812963 0.38113514 -0.06708301 0.34344634 -0.20133767 0.41529405 0.37779853 0.29542166 0.06309886 -0.17958137 -0.37247822 -0.30424523 -0.33736974 0.3250763 -0.25536263 -0.20455727 0.39719403
患 0.38528693 -0.29593784 -0.43942896 0.30275735 0.376384 0.16171186 -0.13281749 0.4216916 -0.28591317 -0.29914835 0.43369266 0.29349464 0.33565408 -0.3214709 -0.10293313 0.24998571 -0.23099896 0.3671937 0.100194864 0.38351962 -0.360944 0.070310056 0.33949038 -0.38939786 -0.3783186 0.3446486 0.25580525 -0.31943676 -0.36004764 -0.394029 -0.28780615 0.0728489 -0.37759122 -0.06738492 0.22583678 0.3627119 -0.3656798 -0.2843324 0.29187027 -0.19075984 -0.3409577 -0.40247923 0.3753526 0.3575291 0.36945474 -0.17237425 -0.17717846 -0.2838657 0.23305151 -0.37942383
百 -0.2655207 0.4019211 0.3722237 -0.3547418 -0.35234153 0.26276255 0.0117847705 -0.26741037 0.39480773 0.046419863 0.18483882 -0.35781524 0.13019867 0.20713414 0.20323235 0.39177585 -0.26295733 -0.060869895 0.37394768 -0.28333285 -0.11164772 0.13601811 0.22677039 -0.3784002 -0.21208438 0.3407149 0.14630769 -0.34945235 0.1717324 0.36951196 -0.12781496 -0.10333729 0.4155325 -0.38599756 0.21085648 0.3805897 -0.3498728 -0.3743225 0.35606846 0.38215238 0.37424204 0.2900392 -0.42676568 0.37301898 -0.24377625 -0.41685885 -0.18085614 -0.33466035 0.36212188 -0.31360826
回 0.038992174 -0.38779014 0.2788831 -0.21832204 0.36203438 0.2236825 0.35996592 -0.31883773 -0.37399745 -0.4012535 0.20895898 0.107793875 -0.37511325 -0.26708 0.25563174 -0.3652259 0.3444474 0.18037169 0.0030699188 0.3917888 -0.381297 0.34284577 0.29140192 -0.21769063 -0.3816544 -0.039683387 -0.12943225 0.35028276 -0.32353416 -0.08330152 0.21707898 0.385923 -0.34319225 0.4242872 0.07095117 -0.19554663 -0.39992273 0.38929287 -0.3846892 -0.35090044 0.20226297 0.28091827 0.38663852 0.00716199 -0.27394703 0.39516118 0.32932797 -0.107090525 0.17250222 0.39842454
宰 -0.35731116 0.37283048 0.39047557 -0.26531887 0.34195197 0.3734259 -0.36235672 -0.3610488 0.3752479 0.3674335 0.37105256 -0.30389997 0.36886635 -0.27702755 -0.3756273 0.22426923 0.121111155 0.33224663 0.34112915 0.3348383 0.36850518 0.35213864 -0.2959151 0.33345386 -0.34255537 -0.04329862 0.3329685 -0.18835519 -0.28982988 0.36519662 -0.2107449 -0.15717229 0.3592838 -0.26532245 -0.35751146 0.11775414 0.21348327 -0.24853028 0.23588255 0.33320707 0.38427114 -0.33897334 0.35507956 -0.33187008 -0.36611375 0.3542162 -0.27994737 -0.22848882 0.22633088 0.22512643
朝 0.66464436 0.6513181 0.54001343 -0.08507299 0.37445086 -0.6394805 0.19759107 0.56645924 0.0062019504 -0.6360608 -0.109880485 0.674781 0.48171946 0.17380454 0.5131771 -0.51444113 -0.5357662 -0.5839298 -0.66132724 0.16876078 -0.63424885 -0.64261025 0.47170764 -0.53164995 0.09965814 -0.3593106 0.6156464 -0.420607 -0.67619425 -0.46453917 0.6660576 0.6836424 -0.46407598 -0.116165504 0.68051773 0.4107466 -0.51301956 -0.082960725 0.15000443 0.06296583 -0.050420422 -0.3594327 -0.012843916 0.15632266 -0.5352641 0.6056448 -0.20761847 0.39597967 -0.30990422 0.42742145
莫 -0.22723691 0.0681815 0.34821945 0.32652837 0.14004415 0.1786504 -0.10281729 -0.34748217 -0.15224563 0.37984857 -0.3645342 -0.3239047 -0.21696116 -0.37317163 0.23487052 -0.33992395 -0.3124441 0.3701156 0.3501643 -0.33614954 -0.20978773 -0.3174463 0.23387872 -0.37088645 0.06843677 0.34648532 -0.38343048 -0.37673497 -0.09986837 0.41684657 0.14189897 0.38153052 -0.38067955 -0.38957313 0.03385448 -0.37691727 -0.34253982 -0.3514467 0.3408153 0.09079865 -0.17893729 -0.3311707 0.35335326 0.29409584 0.35190552 0.39262757 0.3203306 -0.32672933 -0.40315387 0.037904736
若 0.21015829 -0.21851349 -0.3855536 -0.36457083 0.3568035 -0.35865173 0.39984465 0.36403194 0.34001663 -0.36255655 -0.3855209 0.39506403 0.37569928 0.25331616 -0.42527324 -0.31536978 0.26602274 0.30136603 -0.37220436 0.40273184 -0.22706726 -0.069052294 0.38369146 -0.31452462 -0.39258358 0.372379 0.17378415 -0.36728027 0.21176186 0.38492924 -0.19921488 0.3968352 0.33262953 0.36989647 -0.20906088 0.32976735 -0.39426714 0.40088612 -0.38443848 -0.37640047 -0.22100352 0.38857698 0.32384104 0.38611072 -0.35615125 0.37321332 0.37721217 -0.32501805 -0.20700271 0.19377919
云 0.059163988 0.38176167 0.3304797 -0.41328743 -0.34912762 -0.33419666 0.32054096 0.36578125 0.34854463 -0.15888473 -0.39793283 -0.37412503 -0.38319534 -0.33674622 -0.28681093 0.39204872 -0.31980067 0.39335012 -0.3649687 -0.29954052 -0.368398 -0.38725334 0.39936355 -0.33057994 0.0537129 0.38898134 0.35287744 -0.39658442 0.38037643 -0.33284217 0.3563132 0.37786826 -0.3959035 0.26281962 0.38750574 0.36777398 0.089030534 -0.17084125 -0.34927076 -0.38517806 -0.27005202 -0.36442548 -0.3992526 -0.06400085 0.40100244 -0.4019016 -0.03137301 -0.38707632 0.42440945 0.2964498
孙 -0.32465914 -0.3412601 -0.17405693 -0.37170383 0.3913384 -0.42478162 -0.005207431 -0.28506503 0.119849704 -0.17152901 -0.099962234 0.029686306 -0.31954384 -0.26604342 0.2149636 -0.41491774 -0.45530188 -0.33925745 -0.25206482 -0.4160728 0.31736457 0.35796252 0.39361715 0.37172955 -0.3942468 0.34151003 0.30829784 -0.36937773 -0.37145784 -0.35077846 -0.40264687 -0.33199096 0.027344704 -0.030522358 -0.3190714 0.11743874 -0.34636626 0.22163452 0.087209895 -0.24901482 -0.36924753 0.3592214 0.22719228 0.24575032 -0.030707944 -0.42569682 -0.08021964 -0.41438937 0.41513023 -0.38547662
或 -0.31382075 0.059479535 -0.33353692 -0.40706053 -0.38158825 -0.33954245 0.32697618 0.36925116 -0.37988085 -0.24693906 -0.39067575 0.3302888 -0.38327205 0.19949383 -0.33091357 0.38037348 -0.3771597 0.34262013 -0.27052763 -0.30527875 -0.11422983 -0.26619062 0.36710644 -0.3946173 0.36507145 0.3408936 0.35099515 -0.39368072 0.3889035 -0.34577852 0.26500598 -0.23282923 -0.36115062 0.307589 0.3114397 0.37063748 -0.3315135 -0.2732066 -0.3613037 -0.2624874 0.36912432 -0.3259271 0.14172924 -0.39012626 0.37896302 0.18286654 0.19183852 0.21100578 0.3894943 0.36081728
勇 -0.357371 -0.3509577 0.39361647 -0.35889697 0.40386784 0.37136286 0.37092462 0.37067544 0.24473374 0.030711789 0.35947257 -0.31780347 -0.4121544 -0.38710874 0.3610062 -0.3474588 -0.19465199 -0.3441384 0.37735257 -0.3553184 0.34529376 -0.15567774 -0.40212324 0.3248796 0.40651613 0.38150576 0.3672893 0.2513315 0.39071888 -0.35897177 -0.31786346 -0.37003687 -0.376285 -0.38552162 0.35814717 0.33998558 0.3533628 0.088224545 -0.3530122 -0.30700293 0.2889545 -0.38372058 0.30952758 -0.33708364 0.33737454 -0.37624362 -0.32360664 -0.37345105 -0.3800506 -0.38275522
孰 0.39389655 0.35421783 0.37565538 -0.35393286 -0.3684074 0.008552832 0.07066051 -0.29596218 0.045916427 0.28282464 -0.381446 0.16451073 -0.34141007 0.32253698 -0.36366662 -0.08330609 0.38332736 0.32191586 0.3596991 -0.34125465 0.35016012 -0.2780413 0.31817108 -0.36104205 -0.11610766 0.33741167 0.35746667 -0.35497954 -0.35092312 0.2447705 0.377116 -0.18803 -0.36994314 0.30066937 -0.34155074 0.34521583 -0.3491422 0.13786575 -0.33453515 0.36409926 0.34251437 0.07976644 -0.36604404 0.2534134 0.32994655 -0.20118472 -0.3463181 -0.2604844 0.3160001 0.2824393
