1352 100
， 0.14227827 0.32192597 -0.4063233 0.34518194 -0.000920263 0.052710336 -0.33735517 0.44211 0.40142557 0.35645166 0.24171974 -0.6474978 0.23461626 0.30268282 -0.61710644 0.33862123 -0.38365164 -0.87094885 -0.12359352 0.04343983 0.6538802 0.104775414 -0.81309134 -0.6809127 -0.08725749 -0.6979777 0.45798588 -0.61320287 0.20765291 0.30640116 -0.52717113 -0.779613 -0.2200224 0.41324797 -0.6560666 -0.67150515 -0.32066274 0.020427411 -0.19676141 -0.19228055 0.44424433 0.0067322664 0.9001359 -0.7795462 -0.44032848 -0.10206808 -0.43339634 0.80891764 0.5916859 -0.10614093 -0.0801351 -0.06758398 -0.04723568 -0.51385754 -0.08766962 0.2122491 -0.43258736 0.029027272 0.12561698 0.12638411 0.16296689 -0.30743697 -0.3358178 -0.39806196 0.40339994 -0.29055917 -0.19548105 -0.065726906 -0.5990019 -0.00039482286 -0.19100495 0.7063345 0.13120206 -0.5287683 -0.13145183 0.7222999 -0.41341513 -0.35054424 -0.01879708 0.07210344 0.4502499 0.19427407 -0.7085562 0.652018 -0.31278616 0.48517492 0.11780154 0.28594387 -0.11548728 0.19339596 -0.6144185 -0.29566136 -0.60580045 0.78397256 0.81938666 -0.29289263 -0.30883637 0.115675546 0.14602393 0.12662221
子 -0.46594605 -0.12516268 -0.3382897 0.095857196 -0.33414268 -0.029822262 -0.32638928 0.23913737 0.07372178 -0.37541327 -0.31973588 -0.07526356 -0.3266595 -0.15890731 -0.027859822 -0.10858516 -0.5900651 0.34736517 -0.036774363 0.038254187 -0.48642176 -0.11750986 -0.32360923 -0.089931644 -0.09424035 -0.5565964 0.2579869 -0.15682292 -0.24976912 0.32356498 0.056418113 -0.642435 -0.42234477 0.25154597 -0.44158712 -0.042250972 -0.028254846 0.13850395 0.3122361 0.24498531 0.34635678 0.2609347 -0.13625269 -0.5997319 -0.16010967 0.09650205 0.5784216 -0.065899074 0.191428 -0.18890813 0.4167257 0.1484686 -0.29165834 -0.27148116 0.2292448 0.3081878 -0.22203967 -0.3410792 0.2614418 -0.10259149 0.020721542 0.06242744 -0.30485028 0.40740076 0.014087595 -0.2976892 -0.1284925 -0.16813773 0.20813869 0.54626137 -0.18041149 -0.2688374 -0.3944149 -0.36701506 0.20704424 -0.19476943 0.13603933 -0.04828824 0.5098649 -0.32016933 0.3325294 0.2979814 -0.7552771 0.30424207 0.4370264 -0.10877952 -0.39936024 0.29266563 -0.3414364 0.060458023 -0.18639883 0.2968694 0.49738148 0.4617322 -0.14187197 0.23628417 -0.022431185 0.2991376 -0.055323284 -0.47860086
。 0.07743055 -0.11737505 0.1951115 -0.047422886 0.045483336 0.15847607 -0.19530089 0.11501066 -0.21672985 0.19534634 -0.18947582 -0.15220642 0.08739934 -0.13371898 -0.14445838 0.14709435 -0.16289987 0.08806408 0.13776103 -0.11969534 -0.17396231 -0.20099072 -0.45635796 -0.061519757 -0.30380344 -0.24765979 0.21095623 -0.2409448 0.2609864 0.16741323 -0.22431144 -0.3926597 -0.16150926 0.4953349 -0.25354725 -0.31915417 -0.19637565 0.009048002 -0.30334067 -0.013905083 0.35450664 0.13896061 0.22623324 -0.28585738 -0.07410722 -0.15771241 -0.5665593 0.03522585 0.34330586 -0.39194077 0.10615307 0.08226019 -0.13112786 -0.08921649 -0.10417273 0.14373687 -0.15035821 0.072730325 0.5473187 0.1249024 0.044401605 -0.005483053 -0.15002039 -0.091755114 0.066959865 0.045617595 -0.11747493 -0.11192799 0.24345577 0.1651252 0.0789628 0.031470094 -0.06315536 0.12475649 0.0950106 -0.46065015 -0.06523725 -0.2999069 0.05099185 -0.060462818 0.015058537 -0.107117824 0.07715066 0.53337324 -0.077894405 -0.24422942 0.14915875 -0.20557931 -0.098289214 0.13468403 -0.13515225 -0.06743197 -0.5365293 0.07763121 0.22908185 -0.03926829 -0.22482291 0.102660336 0.016087418 -0.25320965
： -0.20638645 -0.089922674 0.035554036 0.12340985 0.020504463 0.24464954 -0.17890668 -0.00806468 0.06417355 0.20840359 -0.28043547 -0.21584749 -0.09746337 -0.18044674 -0.13610612 0.083682545 -0.024799708 -0.11100233 0.050799888 -0.08036147 -0.19506872 0.030667882 -0.32021576 -0.05049499 -0.14938875 -0.09854492 -0.011352976 0.19322136 0.03358029 -0.3132911 -0.09553318 -0.14440145 -0.10024073 0.27304262 -0.25004664 -0.47374582 -0.018943785 0.047265366 -0.2711934 -0.03649131 0.09904542 0.34890017 -0.012474177 -0.19304167 0.013555972 0.025073206 0.102133945 -0.06781187 0.25625008 -0.056935772 0.32206798 0.051993866 0.033564594 -0.035316568 -0.21936275 -0.069030255 -0.09299279 0.031245258 0.33050346 -0.09715712 0.15078747 -0.03877483 -0.22236615 0.13858004 -0.012595524 0.20801431 -0.079961345 0.077487364 0.10626278 0.081380635 -0.03426213 0.09130881 -0.28865674 0.045458887 -0.10553372 -0.4478224 0.27291375 -0.20528346 -0.14136308 0.07501039 -0.123679966 -0.03307829 -0.15021184 0.36568955 -0.019510332 -0.17099686 0.13425396 -0.20581464 -0.13460146 -0.02652259 0.04034326 0.13050556 -0.44866782 0.23711249 -0.28940603 -0.013015747 -0.011506006 -0.1690264 0.109075144 -0.04422741
曰 -0.045627836 -0.1663056 0.27996594 -0.006795049 0.17358236 -0.15498981 -0.005560026 0.11773025 0.011122285 0.07822295 0.25189942 -0.0758229 -0.07288592 -0.018438984 -0.2930606 -0.111661084 -0.23082663 0.25014135 0.14061716 0.005397913 -0.021380493 0.07275603 0.18861893 -0.21812388 -0.08401345 -0.13483272 -0.12589593 -0.111100085 -0.115704805 0.10243913 -0.22577718 -0.40534377 -0.07532542 -0.42854077 0.070983514 -0.10859701 -0.18868619 -0.10437829 0.108013496 0.063285545 -0.22774169 0.08847689 0.4455629 -0.4185103 -0.020496551 0.08717001 0.42157912 0.1442041 -0.24536695 0.41568935 -0.040581062 -0.09645031 -0.081551366 0.018077962 -0.10883331 0.07358224 -0.053276677 -0.043681376 -0.29053587 0.058669988 0.060259387 0.2149292 -0.06642455 -0.15530285 -0.08696231 -0.1770985 -0.007921907 0.16342065 -0.35984218 -0.0857543 0.031281345 0.29551965 -0.15571076 -0.06773194 0.070081204 -0.034729376 0.05858166 -0.016362991 -0.13590612 -0.048235483 0.16334055 -0.10667411 -0.2235429 0.15067753 -0.17690568 0.13811353 0.17519204 0.0034269067 0.07842907 -0.2261268 0.29853025 0.022948245 0.2338909 -0.3593864 0.33984783 0.13430454 0.15713352 0.09624434 -0.10904591 0.39739767
之 0.14536789 -0.027734375 -0.11258624 -0.13438275 -0.10848323 -0.029765636 -0.11719938 0.50396436 0.0015695269 0.54398674 0.09735492 -0.33970845 -0.3962113 -0.08162365 0.001976972 -0.2749973 -0.11889184 0.46376196 -0.058967546 0.023948722 -0.24612342 0.07972252 0.4531129 -0.15439132 -0.19443825 -0.117175534 0.40550795 -0.11086848 -0.013551495 0.3548435 0.14697838 -0.23087409 -0.11168109 0.053396128 -0.23350164 -0.047065835 -0.022771379 0.013900011 -0.056609068 0.36071917 -0.34965548 0.15823849 0.044925414 -0.39823 0.043961663 -0.16146773 0.21730816 -0.031599246 0.029894697 -0.06709456 -0.04218062 0.08852691 0.057209674 -0.17876042 0.5076092 0.043227665 -0.17174856 -0.06217239 0.1404904 0.1531658 0.20887424 0.00805161 -0.2387922 -0.0862219 0.043946553 -0.041261777 0.25388277 0.12860781 0.01288325 -0.095689744 0.0986859 -0.08326623 -0.24019025 0.02753612 -0.15444687 0.40002456 -0.048630673 0.02646228 0.14202715 -0.18932454 -0.20491488 0.11643581 -0.19544256 0.059308074 -0.0068955016 -0.14700274 0.16236404 0.39988968 -0.044353303 -0.11786076 0.09318616 -0.16806681 -0.38634703 0.35916337 0.3937007 0.11735876 -0.19838081 -0.15185356 0.4573023 -0.17240602
不 -0.3503972 0.013998783 -0.18276787 0.40586582 -0.41308093 -0.1283817 0.115604766 0.16680035 0.50986433 0.17993823 -0.050033823 -0.20080534 0.016941609 -0.3533173 -0.21631362 0.26975417 0.09879808 0.4384979 -0.42128715 -0.27858195 -0.09022077 -0.33830297 0.038328767 -0.16897506 -0.48704275 0.29621074 -0.119209915 0.20927957 0.17714363 -0.009489487 0.31793255 0.05241929 -0.38484693 0.58683634 -0.39240426 0.2361717 -0.044661142 -0.04876285 -0.075485766 -0.3375035 -0.41862476 0.2475272 -0.7997648 -0.6491287 -0.30767986 -0.39799207 -0.4515238 -0.3861611 0.0133117465 -0.43849227 0.25682783 0.18195131 -0.054155923 -0.17133667 -0.13491498 -0.10912746 -0.12399652 -0.16197543 0.33220583 0.016619071 0.27844027 -0.15791783 -0.05851419 0.14435719 0.30672634 0.48976582 0.09745913 -0.72942066 -0.05337509 0.45778346 0.44113305 0.3796213 -0.6025163 -0.0961915 -0.32062143 -0.43044227 0.2631139 0.32078138 -0.038153455 0.43112034 -0.20600201 -0.12554717 -0.6590714 0.5343559 -0.07702179 0.0695119 0.31385693 -0.231276 -0.17047809 0.07350372 -0.5929957 0.10921862 -0.43749222 -0.07912622 -0.5979496 -0.070059426 0.017783491 -0.028477833 -0.08479342 0.2968479
也 -0.044993766 0.0648185 -0.16038734 0.22297382 0.06955612 -0.08273952 -0.1961766 0.11514693 0.29185107 0.11389591 0.08247482 0.05899637 0.09706396 -0.27168694 -0.12912177 -0.036680765 0.13254598 0.39675882 0.12237156 -0.20904551 -0.09794635 0.13644549 0.18349111 0.114566885 -0.10444667 0.3582421 -0.15741584 0.19068804 -0.116384126 -0.14710546 0.27954233 0.23435983 -0.21335076 0.16044217 -0.0726288 0.18693015 0.1222145 -0.045004506 -0.029550968 -0.15937206 -0.02056568 0.18295744 -0.41058898 -0.20174265 -0.01507315 -0.16772094 0.4556588 -0.07939214 -0.053286552 -0.1314042 0.17120507 0.0130150905 0.15546636 -0.18141867 0.19159792 -0.20057608 0.12044942 -0.008324514 -0.10719901 -0.0068265162 0.09783922 -0.15323988 -0.16267754 0.19426018 -0.045826238 0.08656594 -0.07518935 -0.15804341 -0.0038312275 0.32092065 -0.032912917 0.120468244 -0.3828378 0.116094425 -0.0945181 -0.45411107 0.24949929 0.24442478 0.15951999 0.26806363 -0.3292382 -0.049727634 -0.3212387 0.25328276 0.084480844 0.045810796 0.39502564 -0.18614487 0.10916155 0.1450019 -0.18596706 0.22357224 0.04255172 -0.33189327 -0.22306003 0.07967077 0.08082763 0.05262062 -0.021184873 0.02753586
而 -0.042434543 -0.14208588 0.22706957 -0.4583678 -0.10818008 -0.058467794 0.12516935 0.043023895 0.10130762 -0.18263032 -0.08064393 0.08580196 -0.060234807 0.03930611 0.032878794 -0.15555881 0.17253724 0.33252135 0.035597704 -0.03995991 0.22755866 0.024237517 0.27243617 -0.0012892025 -0.048968237 0.073830396 -0.075543374 0.022698417 0.0071216077 0.12535577 -0.018890444 0.2203096 0.16171901 -0.25867274 0.032993574 0.28065056 0.09982353 -0.12725396 0.12227471 0.014610328 -0.26561308 0.016090417 0.11542867 -0.09254863 0.097562686 -0.008418718 0.080106415 -0.3218205 -0.13520546 0.3197443 -0.2130611 0.044515472 0.22954117 -0.25770587 -0.13751492 -0.10235306 -0.00052009313 0.014967073 0.06832257 0.22816482 0.07666666 -0.081710055 0.045629065 0.13510597 -0.05603965 0.10356852 0.06212755 -0.008210364 0.16751973 0.37960455 0.06436728 0.009271924 -0.21319707 0.0023883674 0.045922887 0.097782746 0.072342575 0.15960325 -0.18624073 0.10110608 -0.06214188 -0.11870781 0.23561986 -0.06366738 0.020153385 0.029544588 0.29147136 -0.2712471 0.27846694 -0.07696505 0.016463445 -0.056184288 -0.18208198 0.035551373 -0.108597465 0.11325876 0.12095379 -0.18539402 -0.22290432 0.07695935
？ 0.09179572 -0.00763232 0.2840718 0.059897028 0.35581762 -0.14806318 0.14623067 0.13380992 -0.15888026 0.2718221 0.02934337 -0.26413125 0.098626256 0.05283828 -0.05962925 -0.14459492 0.15600453 -0.45649797 -0.018560823 0.021517238 0.09822235 0.16821061 0.39664745 -0.08703078 0.13569655 0.1646703 -0.15273078 0.14064404 -0.119621836 -0.17546435 0.31840894 0.1773268 0.061045602 -0.18513538 0.15935342 0.19076745 0.14372408 -0.17084171 0.29439107 -0.14114738 0.012717936 -0.29003984 -0.33124062 -0.14913334 -0.09684706 -0.10651331 0.4754701 -0.3127315 -0.157446 0.4444489 -0.28159237 0.096590616 -0.1605947 0.2744783 -0.12826599 0.047549162 0.22237708 -0.17730789 -0.29343373 -0.04303656 -0.084389746 0.25863373 0.07065015 0.13367248 -0.1443145 -0.08616681 0.19924197 0.014952851 -0.075754195 -0.4471211 0.16654532 0.15263881 -0.3900683 -0.12737933 -0.08297955 -0.3999172 0.103368305 -0.07074776 0.27556297 0.16103232 -0.017804239 -0.08743133 -0.04402024 0.07107638 0.049388137 -0.053583093 0.46268365 -0.14192015 0.1066206 -0.22582352 -0.060010724 0.23211451 0.069727734 0.18830155 -0.1216072 0.23153366 0.43231878 -0.16566738 -0.17214613 0.16331077
其 -0.04568797 -0.066434115 -0.2581596 0.0814712 -0.28152087 -0.20977762 0.34088662 -0.21834214 0.18868873 -0.3268293 0.07339966 0.2737597 0.079574436 -0.116896495 -0.097071745 -0.026465202 0.14515713 -0.021140236 0.08147697 -0.14741914 0.111455195 -0.11399309 0.43743724 -0.1541349 -0.15870912 0.061991077 -0.2108248 0.07969715 0.09849287 0.03995334 0.30873385 0.22280078 0.046364706 -0.31683716 -0.056072228 0.07651726 0.2233887 -0.12180914 0.20591721 -0.07071211 0.2397448 -0.07919869 -0.368383 0.18033348 -0.107172765 -0.0895364 0.46117502 -0.36379668 -0.10551109 0.43609902 -0.29736492 -0.08477581 0.065250695 -0.0066199685 0.07798944 -0.11168973 -0.09411424 0.07729359 -0.14129172 0.038016178 0.0123073105 0.0781596 -0.020557733 0.28444958 0.09604027 0.013946157 -0.07152872 -0.41532072 -0.16398755 0.2300223 0.13751096 0.5185951 -0.381369 0.12832357 -0.016213428 0.20962352 0.009101756 0.34632516 0.2360005 0.02145162 -0.20584098 -0.10937573 -0.35249647 -0.37936306 -0.025255574 0.054521505 0.38457823 -0.067356214 -0.120722294 -0.030751862 -0.042891942 0.13979074 -0.29009223 0.0644283 0.14071864 -0.08573361 0.008604118 -0.35576347 -0.21565351 -0.05353141
人 -0.2741425 -0.067168474 -0.24536027 0.4558962 -0.2239647 -0.52098304 0.32924357 -0.118706375 0.31745258 -0.20963822 0.064958505 0.085846364 0.06799944 -0.094842575 -0.11507623 0.12760198 0.68470216 -0.06889221 -0.12314007 -0.081832655 0.1921164 -0.037828296 0.6345692 0.12249651 0.55588055 0.7132113 -0.23785447 0.14023416 -0.06948472 -0.046929065 0.4968265 0.47910815 -0.00026576984 -0.509116 0.074864775 0.48428646 0.35822555 -0.18788776 0.5563491 -0.30089828 0.34433004 -0.1545358 -0.7465114 0.2580373 -0.097572595 -0.01766249 0.1627321 -0.07953029 -0.83149606 0.21999468 -0.22628015 -0.088302456 0.082835324 -0.27637374 0.40562797 -0.19353078 0.28817776 -0.09945803 -0.7595655 -0.03024079 -0.061110202 0.02698824 0.090050176 0.10047669 -0.060618926 0.059940938 0.026294336 -0.28721142 -0.096531585 0.34670132 0.120200925 -0.08562676 -0.22713205 -0.056421977 0.09772127 0.44048858 0.021019027 0.42989415 0.22774178 0.016516168 0.0067845513 0.017776256 -0.47888762 -0.36023825 0.08624711 0.39985645 0.17027827 -0.20241009 -0.13039748 -0.05160817 -0.455354 0.047328837 0.26913136 0.33032072 -0.33156854 -0.16400874 0.07686329 -0.07891811 -0.23355341 0.5547119
者 -0.1404171 -0.16947359 0.23494068 -0.034748897 -0.26955515 -0.0854952 0.39102438 -0.26206517 0.4125041 -0.3945542 0.2094012 -0.15362112 0.18023899 -0.13886969 -0.3440067 -0.24965972 0.2405325 0.17516501 0.27678856 -0.18892309 0.36532792 0.17704524 -0.055063576 0.14778757 -0.08001684 0.13508806 -0.23389198 -0.10825049 0.0484713 0.19551195 -0.2542616 0.07649614 0.07837652 -0.2491667 0.06199985 0.16399981 -0.051119663 -6.919727e-05 0.04989257 -0.045074493 0.123143665 -0.16321504 -0.3510199 0.14300695 0.08721553 0.24319997 0.44640183 -0.13872592 -0.032981306 0.122920945 -0.2875839 0.010447221 0.27971852 -0.40102413 -0.2828715 -0.2086865 0.0077180667 0.10997704 0.13124564 0.17846875 -0.20171921 0.029948892 0.23423631 -0.115042076 -0.03433115 -0.015748193 -0.12551841 0.034258995 0.0974773 0.37769076 -0.10714184 0.08061083 -0.066536814 -0.03493351 0.040919363 0.42985216 0.0060550813 0.39115644 -0.3155825 0.24098326 0.37517604 -0.050620046 -0.28003561 -0.0898774 -0.20029542 0.1738909 0.1626586 -0.18422665 -0.07637501 0.2054655 0.008028533 -0.22621773 0.16731098 0.06467261 0.0095872395 -0.17577004 -0.11134386 -0.1328729 -0.26892895 -0.010714492
以 0.04650376 -0.011799623 -0.20980103 0.019030236 -0.054523632 -0.13602869 0.31488106 -0.03001663 0.16629171 -0.2408442 -0.17032363 -0.22845975 0.22077572 -0.048342876 -0.15883024 0.13926288 0.30087107 -0.3910938 0.056316342 0.06762548 0.2819913 0.0509449 0.14319845 0.040423825 0.18366702 -0.04100014 -0.15976104 -0.12591901 0.14742498 -0.16129029 0.1926032 0.24864253 -0.004377283 -0.088525146 0.003962181 0.019051474 0.110031806 0.13391164 0.01906245 -0.12637693 0.3175902 -0.23008355 -0.4425658 0.048648946 -0.082817115 -0.09751774 0.060761172 0.3697266 -0.17004691 0.21631797 -0.2801162 -0.23041894 -0.051009845 -0.015634615 -0.16234091 -0.15632617 0.11116497 0.08262299 -0.12886232 -0.13690992 -0.16688532 0.10738297 0.09828599 0.10712509 0.13771243 -0.05237547 -0.12272991 0.14692517 -0.21151209 0.02353247 0.07534398 0.08217348 0.24903393 -0.17611523 -0.04841863 0.3172208 -0.15664332 0.24377103 -0.19316511 0.04856993 0.17282827 0.13370459 -0.13834843 -0.23563823 -0.1922121 0.3022507 0.2762726 -0.036304235 -0.083530135 0.1103702 -0.057479896 -0.21445428 0.41399825 0.34601873 -0.42148188 -0.09728085 -0.16460992 -0.099413194 -0.07809225 -0.13603917
有 -0.050885543 0.06999451 -0.1644663 -0.14475468 -0.07082527 -0.21712601 0.48642424 -0.22784728 -0.09034947 -0.44782215 -0.5897529 0.5248108 0.32058853 0.31698585 0.080606535 -0.12330704 0.49209723 -0.68257654 0.01081458 0.39553756 -0.28941187 -0.019061327 0.64172167 0.26369432 0.12505904 -0.103155 -0.007220606 0.007281857 0.023844467 0.06632245 0.3455799 0.47706598 -0.1911027 0.12577443 0.31310025 -0.037775543 0.26452082 -0.10257442 0.088198245 0.09047878 0.6483214 -0.015454797 0.08101365 0.4848003 -0.0035576406 -0.08962164 -0.5431903 -0.3367908 -0.15194239 0.5845641 0.22552861 -0.094840504 -0.17671902 0.27940786 -0.07593188 0.12561677 0.12433597 -0.10930372 -0.60929126 -0.21823041 -0.07906792 0.2793227 0.14520724 0.30911073 -0.06488371 0.24789962 -0.04892089 0.2518165 0.025040329 -0.086722545 -0.10578026 -0.17010687 0.48123085 0.05117609 0.20570762 0.85363376 -0.045081574 0.5042867 -0.07675567 -0.6605451 -0.10178361 0.23300403 0.09580956 -0.09254289 -0.08758265 0.50202024 0.14603785 0.15953884 0.36756268 0.17307913 0.41598096 -0.17122543 -0.14615358 0.77237725 0.5890755 0.098933585 -0.03636111 -0.21443073 -0.4160401 -0.15121458
于 -0.07849708 0.020144228 -0.25552177 -0.011210829 -0.1380967 -0.17992325 0.13580662 -0.15668875 0.03745921 -0.37072992 0.11869949 -0.07006113 0.07638682 0.079224475 0.039246485 0.22708794 0.12421379 -0.4386724 0.0012333966 0.10395465 0.039203405 -0.11143781 -0.29666322 -0.01874317 -0.10967545 -0.24679281 -0.058525376 -0.024194451 0.26665184 0.1536695 0.36511016 0.07627995 -0.08754984 0.25824067 0.050626583 -0.07387143 0.088141635 0.039250735 0.12061344 -0.08473496 0.20094907 -0.124095015 -0.4807366 0.1363105 -0.034083344 -0.006114631 -0.418671 0.1023338 -0.037815522 -0.16530679 -0.15749653 -0.2933595 0.016157921 -0.027301904 0.09665752 0.058898896 -0.07093801 0.04609729 -0.18646954 -0.03130982 -0.09248194 -0.059298854 0.11161165 0.11716006 0.19949564 -0.05019423 -0.0067552626 -0.30242664 -0.26049596 0.070315234 -0.06236965 -0.115994506 -0.341833 -0.005331365 0.08770682 -0.15630151 -0.07689544 0.39010584 -0.026375474 -0.16537343 0.031065796 0.060536366 -0.012543982 -0.11204563 -0.024940655 0.15502569 -0.44130456 0.08962182 0.06515892 0.28685263 -0.08558947 -0.16872844 0.4467016 0.09533084 -0.13530396 -0.10896687 -0.1768072 -0.00745212 0.34885553 -0.27755448
矣 0.10406178 -0.08423643 -0.06701034 -0.36174542 -0.2736209 -0.17472294 0.3954203 -0.18716465 0.1027687 -0.26146972 -0.06411853 0.13968658 -0.17517687 -0.20936969 0.07015807 0.11746139 0.3582891 0.0726127 0.14716043 0.050375536 0.05987216 -0.0932397 -0.058829565 0.21231842 0.16875704 -0.022289872 0.05291117 -0.22812174 0.14009629 0.25268954 0.14282802 0.3708085 -0.30910933 0.19678131 0.051640306 0.023656953 0.3329392 -0.1650466 -0.13505019 -0.19872734 0.27733144 -0.033688743 -0.39441785 0.08131555 0.11504638 0.059368536 -0.027991049 0.04245863 -0.11957152 0.16361023 -0.1495717 -0.10407514 0.03693076 0.106057145 -0.16662934 -0.106496334 0.03941102 0.09495315 -0.21151197 -0.015266638 -0.13082843 -0.13250774 0.1859146 0.35761616 0.10654076 0.11312809 -0.18249245 -0.30045682 -0.37527728 0.3462249 -0.15436052 -0.1236805 -0.3107653 0.1837065 0.08296676 -0.15855855 0.2906051 0.40064484 0.12626386 -0.14187 -0.16434301 -0.07726728 -0.13245556 -0.17455365 -0.0013502815 0.28589934 0.037371702 -0.20353705 -0.008388339 0.2523742 -0.025546571 -0.23650555 -0.07952084 -0.014279722 -0.022513246 -0.24382459 -0.12869668 -0.12723751 -0.42528778 -0.19099383
为 -0.040051356 0.10246086 0.04884478 -0.38227868 -0.114802144 -0.21412967 0.16753465 -0.18816955 -0.10088264 -0.31781003 0.0702793 0.31708246 0.14330196 0.35490298 0.32105476 -0.1514501 0.014099842 -0.23087117 0.20990023 -0.12155772 0.099077374 -0.12807283 0.19418862 0.07435914 0.16284722 0.049902838 -0.10781765 -0.19527332 -0.09710395 0.2813098 -0.274125 0.26597083 0.017132405 -0.44657418 0.22739238 0.15692899 -0.05368578 -0.3263302 0.14615713 -0.013053084 0.26365584 -0.09872526 -0.33361387 0.19401976 0.16795334 -0.047053713 0.47234145 -0.08230272 -0.1423212 0.42736706 -0.17864293 -0.18248892 0.11040072 0.39637104 -0.2550541 -0.045150816 -0.15266028 0.098233305 -0.11813207 -0.040042445 -0.120634116 -0.036586143 0.15899955 0.059127554 -0.19252986 -0.15979405 0.0024532406 0.0985919 -0.36951494 -0.386677 0.09255284 -0.2523307 0.24408074 -0.080947526 0.072491825 0.45843562 -0.118161745 0.34311408 -0.33740997 -0.05731119 0.31462818 0.119311266 0.30239585 -0.2515284 0.05398938 -0.02338289 -0.40490246 0.14120695 0.086864024 -0.028797988 -0.10976233 -0.2325117 0.2326774 0.3611777 0.14399295 -0.08194747 -0.008076269 0.012969623 -0.020174133 -0.39893964
君 -0.058536537 0.11974766 0.062407535 -0.047780413 -0.08782153 -0.29389653 0.1875796 -0.10687145 -0.034883592 -0.2770945 -0.027795002 0.21226834 0.06123544 0.03644613 0.084019795 0.14782025 0.10907863 -0.000637043 0.01752496 -0.17994043 -0.18925898 -0.14416072 0.26849318 -0.0045250007 -0.26291913 0.2099439 -0.14790785 0.020283412 -0.0941881 0.21595483 0.16293238 0.2718857 -0.080287054 0.13925353 0.0134349475 0.15164486 -0.07940439 -0.0049381745 0.13870539 -0.0030456947 0.047444932 -0.05142488 -0.035471976 0.29342526 -0.03747323 -0.015597696 0.47504827 -0.15254895 -0.1624927 0.48055127 -0.20985246 -0.0205008 -0.059246715 0.10542822 -0.20789589 0.10443841 -0.16021575 -0.08236378 0.27226257 0.22874624 -0.22294699 0.15909693 0.22534971 0.02485581 0.17165242 -0.0074098017 -7.8326324e-05 -0.3157983 -0.30588534 -0.3053706 0.007936098 -0.20711417 -0.057925254 0.025695268 0.013560386 0.26309988 0.004533762 0.35772514 -0.3242113 0.010883338 0.04850831 0.061561726 0.43355963 0.07032734 -0.002870014 -0.03427632 0.045298893 0.0053043254 0.038759954 0.14165646 -0.07549584 0.039686777 0.34451383 -0.009552974 0.48358744 -0.08080742 0.49608415 -0.052275717 -0.357726 -0.25193167
乎 -0.023317058 0.079025835 0.13435172 0.028552802 0.24990833 -0.0655348 0.019506525 -0.0097083645 -0.17947905 -0.44405243 0.012644459 0.076971956 0.2095417 0.09935812 0.19238311 0.039450377 0.018191371 0.027835486 -0.42826027 0.027350992 -0.37187988 -0.18278328 0.22285162 0.037068915 -0.52297795 0.1348025 -0.07672777 0.17264698 0.007225819 0.49291122 0.2111099 0.07514603 -0.028131258 0.48972166 0.14380799 0.10243198 -0.06093406 0.39821574 0.3717037 0.018076032 -0.24519119 -0.074759096 -0.0047268113 0.2680716 -0.07851175 -0.0685473 0.38004622 0.20280541 -0.014354302 -0.44129747 -0.0780876 -0.07590205 0.20155376 0.13741784 0.11911145 0.08806314 -0.3659982 0.01197952 0.10783245 0.1455738 -0.16127907 0.04406266 0.31172523 -0.20111862 0.056634497 0.018065477 0.1587666 -0.022878792 -0.00872547 -0.46870577 -0.07604133 0.020080537 -0.59147006 -0.019318804 -0.01834433 -0.07799989 -0.014412072 0.6986353 0.008945149 0.19087636 0.16667621 0.008280091 0.17008474 0.3391339 0.09271327 -0.079205975 0.29625946 0.3579235 0.20639412 -0.07324672 -0.2019839 -0.18932429 0.42307582 0.2766958 -0.08781874 0.024649529 0.4323973 0.29175562 -0.39051744 -0.59143674
可 0.026584664 0.0803469 -0.16761059 0.20165597 -0.029747386 -0.075521715 0.13615647 -0.24294104 -0.13538705 -0.1309817 0.22337157 0.09947375 -0.033342097 0.004584778 0.14517881 0.016735615 0.045837983 0.29056183 -0.066356555 0.16638234 -0.20100391 -0.16532719 0.3251249 -0.1893758 0.25000352 0.17517926 -0.20644817 -0.023241522 -0.0063563483 0.14844221 0.1796628 -0.013933119 0.19094424 -0.19201185 0.1592204 0.061625328 -0.05757425 0.016351989 0.078703046 0.06317612 -0.038741857 -0.24933682 0.098211706 -0.09668515 -0.126297 0.059392847 -0.37535343 0.025832174 -0.1795975 -0.3716468 0.083804116 0.030048812 -0.017316291 -0.06668019 0.3457432 0.03825747 0.032087605 0.020074131 0.12587006 0.0050851223 -0.06446195 -0.0440862 -0.040281672 -0.09135338 0.014840206 -0.24072826 0.047251802 0.10936803 0.028156344 -0.26609373 -0.038377214 -0.2642288 -0.15786622 0.049068563 0.053917747 0.16970661 -0.19091041 0.22161506 0.12793188 -0.13073537 -0.19143222 -0.2439625 0.24024302 -0.31462148 0.04304118 -0.19874859 -0.14499322 0.17976683 -0.21548921 0.09954655 0.02876516 -0.12008147 0.23331267 0.28985384 0.33339742 -0.08716546 0.15607193 0.08643634 -0.39099807 -0.24545956
如 0.12894358 0.06407273 0.009284864 -0.02156744 -0.20650813 -0.113949634 0.32275552 -0.23507252 -0.22904836 -0.23253413 0.41709632 0.4707316 0.14574051 0.037794553 0.2281606 0.028366623 0.5124901 0.2765083 -0.19677691 0.0037245913 0.10256329 -0.14837019 0.102433115 0.15258981 0.45745045 0.22159663 -0.19089381 -0.12902756 0.016953275 0.2602445 0.24186718 0.45927227 0.158758 -0.25825855 0.18970591 0.31716374 0.08392182 0.12858374 0.034485977 -0.09136547 -0.19898911 -0.18554212 0.07298928 0.44299227 0.08759696 -0.1067464 -0.31816557 -0.120284356 -0.04527827 -0.38827148 -0.07522932 -0.10782345 0.33082727 0.012030483 -0.13099872 -0.046987593 -0.1509727 0.06717924 0.12550744 0.152866 -0.060146406 -0.15455239 0.09574294 -0.13786599 0.0041477624 -0.15105437 0.04714266 -0.07064053 0.0065845624 -0.38201836 0.026234282 -0.055277407 0.41124883 0.067722574 0.11785126 0.48781413 -0.16037941 -0.013365525 -0.11397198 0.13363513 -0.18077134 -0.045203656 0.41567156 -0.4872355 0.023033366 0.025539193 -0.028323533 -0.045766804 -0.19881324 0.07852384 -0.031362522 -0.09727844 0.5009394 0.08455449 0.10725452 -0.1475554 0.25223917 -0.002932794 -0.4150796 -0.3547494
与 0.15757982 0.2513475 0.22620562 0.03779745 -0.16230737 0.17902994 0.15479712 -0.2779351 -0.114096 -0.094359435 0.21891497 0.12048488 0.056784388 0.05789449 0.43322426 0.015571937 -0.32461378 0.14790323 -0.21947244 -0.008722626 -0.21283942 -0.38251683 -0.17053051 -0.15421697 -0.4223157 -0.05026613 -0.031267304 -0.05740348 -0.050927266 0.4582032 0.08703008 -0.18521033 -0.11489434 -0.4633051 -0.07456938 -0.0865531 -0.15419436 -0.09418768 0.07493025 0.11611487 -0.07016716 -0.16225128 0.6235541 0.20278564 0.18158504 -0.21921642 -0.32476735 0.07194395 -0.17152184 0.068117894 -0.14281848 -0.08712644 0.01427667 -0.19860642 0.033270124 0.11058954 -0.3392118 0.19497545 0.07365802 0.09248556 -0.12788177 0.07947253 0.15082571 -0.34495792 -0.019161126 -0.22413026 0.31967047 0.18240039 0.12003668 -0.2802273 -0.074930765 -0.07271922 0.2698708 0.06742699 -0.09887157 0.58040965 -0.26222494 0.14087883 0.3777008 -0.09541915 0.14789759 -0.124947354 0.6680714 -0.18537736 -0.041910514 -0.26125813 -0.22746696 0.35355893 -0.12954625 -0.009538583 0.36116588 -0.19039509 -0.104899414 0.23069558 0.71745783 0.017672624 -0.041237053 0.08518529 -0.27557042 -0.46038032
； 0.059935547 -0.018441606 0.115687706 -0.09786284 -0.08668382 -0.052670076 0.24537326 -0.33239523 -0.058690656 -0.37738883 0.14589089 0.11727783 0.008268167 -0.025459107 0.0130386865 0.0451864 -0.06517424 0.3751459 -0.10403714 0.016622134 -0.15796818 -0.25454232 0.1855033 -0.028159622 -0.2537711 0.41368982 0.026110113 0.1894302 0.011728227 0.21025985 0.098616496 -0.08479561 0.15698734 -0.4560328 -0.06470601 0.09787388 -0.19657938 0.30346966 -0.026233878 0.12406307 -0.23968282 -0.123469986 -0.04492163 0.3552233 -0.03701146 0.20405221 -0.3086671 0.07397621 -0.29310864 -0.3523323 -0.15059564 -0.18841094 -0.007909842 -0.148019 0.16610934 -0.04254981 -0.3308963 0.076029144 -0.25895348 0.122635946 -0.12014273 -0.023298299 0.06857684 -0.12079065 0.06417484 -0.27180496 -0.02280109 0.2855579 -0.2679423 -0.26733872 0.03642545 -0.17608316 -0.21908882 0.16550972 -0.18936072 0.3524494 0.023793679 0.20759456 -0.032634232 0.1283816 0.09605034 -0.14646518 -0.18442403 -0.14247568 -0.014676208 -0.05071811 -0.19138776 0.11214277 -0.08724302 0.08856658 -0.028330538 0.095104754 0.47614548 0.22821625 0.46203628 -0.054836534 0.07128908 0.015644161 -0.12377368 -0.124196805
言 -0.27692068 0.21763633 -0.24554351 -0.23064788 -0.2004974 -0.14586078 0.43307468 0.15744042 0.28716195 -0.38394487 0.46495795 0.42932355 0.40898335 0.123644754 0.19252047 0.27116647 0.24780612 0.4341443 -0.34931013 0.17891963 -0.16606441 -0.4257506 0.054306895 -0.451164 -0.37503955 -0.45456222 -0.324243 0.25844932 -0.11671036 0.44738427 0.4553815 0.41842404 0.34241158 -0.4590426 -0.029278986 0.354394 -0.18298973 -0.11925727 0.37072703 0.20360821 -0.4710606 0.13514699 0.42895457 0.2861811 -0.04989594 0.1945223 -0.255711 -0.45877 0.072083786 0.10823203 0.18485832 -0.3640677 -0.049525984 -0.44641674 0.34969845 -0.12671928 -0.39678702 0.02324574 0.28427082 0.4265324 0.24633437 -0.03422454 -0.18738787 0.27710643 0.09271574 -0.39283338 -0.07471402 -0.0047169803 -0.33832166 -0.32322884 -0.001868117 0.39082992 0.1820751 0.2952743 -0.11817427 0.39499834 -0.35453454 -0.12657565 0.05697409 -0.22916195 -0.40804294 -0.40520334 -0.1372223 -0.116639614 0.15513092 -0.38392755 -0.4040115 0.25546598 0.40497023 0.35188437 -0.04608731 0.35026404 0.37812966 0.21538167 0.4249682 -0.3859658 0.44607282 0.24495222 -0.06134979 0.22020377
无 -0.069389306 0.17889187 -0.40819013 -0.035874866 -0.18617584 -0.1793021 0.01048497 -0.055170298 -0.009418607 -0.19647235 0.40770826 -0.057689555 0.16982777 -0.015532658 0.17822808 0.06064495 -0.11213778 0.09464047 -0.24269572 0.15705137 -0.05817525 -0.17386632 -0.33144498 -0.1408985 -0.07619754 -0.17332913 -0.17329732 -0.06091909 -0.063829824 0.28177994 0.19479847 0.18817517 0.18699703 -0.05093637 0.18318944 0.12921125 0.01432519 0.099507034 0.07008323 -0.09190857 -0.2648324 -0.18953972 0.013364142 0.28488725 -0.09987406 -0.047943003 -0.34772068 -0.026846893 -0.02109969 -0.14778769 0.11797785 -0.15138641 -0.07557319 -0.14506474 0.23829795 -0.11964655 -0.052081168 0.09655692 0.1583464 -0.1608284 0.065169446 0.072590284 0.12322383 0.05087428 -0.01832213 -0.31565702 -0.06021234 0.3104082 -0.36075252 -0.2700111 0.048687328 0.16049011 0.15344721 0.036806077 0.069264114 0.14852789 -0.32611316 -0.10153936 0.31375858 -0.08253947 -0.21673207 -0.1236885 -0.31183606 -0.22630997 -0.047243576 0.18301453 -0.17368414 0.21995103 -0.21873598 0.18530004 -0.18284787 0.06135926 0.32207775 0.13935606 -0.045266233 -0.102152295 0.14152813 0.09336198 -0.37061915 0.13533421
则 0.16964914 0.0036586805 0.2598389 0.16335681 -0.09588428 0.07846155 -0.22265078 0.046040177 -0.22501066 -0.21769139 0.33797237 -0.20638345 0.18901005 0.2134602 0.18170947 -0.22514296 -0.35548887 0.104519464 -0.22695678 -0.11666454 -0.044753354 0.05852117 -0.15600666 -0.39663896 -0.3627715 -0.3904782 -0.18105108 -0.057913374 -0.0063798837 0.31967422 -0.099861145 -0.15760434 0.10711421 -0.12204415 0.21078834 0.37451264 -0.1492443 -0.0015560173 -0.02121436 0.062815264 -0.11547291 -0.15761413 0.24775814 0.4384146 -0.07256996 0.17242226 0.36075372 -0.045864694 -0.13738602 0.25425416 0.1640063 -0.13102093 0.07062203 0.19188152 0.12277275 0.11303178 -0.07521675 0.0948383 -0.17348921 -0.07208401 -0.089844696 -0.010981156 0.21728018 -0.1404274 -0.056134243 -0.22469176 0.0670535 0.4547814 -0.08113166 -0.3897335 0.101803385 -0.3351155 -0.057968277 0.06257279 0.047809098 0.47881904 -0.27124804 0.15307605 -0.10999148 -0.0716442 -0.1911315 0.15382163 0.11633391 -0.36637193 -0.112651974 0.06530212 -0.3175353 0.24403335 -0.102157615 0.15165682 0.15356877 -0.12880135 -0.023837766 -0.11330849 0.4208542 -0.022956068 0.24961863 0.19379167 -0.026357412 0.15085395
！ 0.092524454 -0.105969965 0.36562568 -0.33367625 -0.14767908 0.04591779 0.074784786 -0.21509922 -0.51485306 -0.749348 0.4337216 0.07870733 -0.044802528 0.502042 0.3784099 0.010672558 -0.3304721 0.03690314 -0.3140283 0.41899338 -0.33452442 -0.12321448 -0.50977725 -0.54959434 -0.65434057 -0.57895947 0.2610856 0.13396473 0.1255659 0.39645284 -0.3538622 -0.05333342 0.20540698 -0.47266087 0.35574594 0.044545334 -0.21874115 -0.0772093 -0.01846658 0.5459265 -0.16481003 -0.053904407 0.41648462 0.5113859 -0.27407968 0.41766816 0.5986178 -0.022647396 0.19828007 0.6476971 0.16521843 -0.3958286 -0.26910263 0.5150201 0.27282402 -0.17632405 -0.16407852 -0.090235606 -0.18553737 0.20688859 -0.19277595 0.02329038 0.33186463 0.21510756 -0.12825657 -0.5365182 0.01963854 0.553557 -0.14116298 -0.6750839 0.10760962 -0.49979714 -0.64606965 0.090660445 -0.10764124 0.5635782 -0.5094457 0.33807084 0.450163 -0.4666513 -0.24831922 -0.27483532 0.41279885 -0.5280187 0.3579125 0.096746676 -0.5477352 -0.005683539 0.11994351 0.4182132 0.051404536 0.5523775 0.75399816 0.5589747 0.6323302 -0.06589904 0.444326 0.21833721 -0.19086492 0.31767997
问 -0.05603157 -0.016162878 -0.26083666 -0.1177525 -0.09436282 0.06891769 -0.035995502 -0.06602094 0.05481878 0.20169225 0.0613659 0.04031373 0.15067947 -0.00367884 0.062475886 0.14770858 -0.2541919 -0.14553551 -0.16456936 0.1658922 -0.17923294 -0.16752806 -0.26669073 -0.21278822 -0.41300893 -0.33242255 -0.045948084 0.111091465 0.07625549 0.027532447 0.064882055 0.0936327 0.1558361 0.12494477 0.060663704 0.17870183 -0.09618826 -0.032047052 -0.0494564 -0.031687412 0.03520054 0.012553143 -0.08673878 0.22324246 -0.13863656 0.12680402 -0.17125721 -0.05315787 0.23825929 0.09515978 -0.04371144 -0.10343468 -0.024549305 0.14049138 0.23473758 -0.11870111 -0.11960374 0.00633012 0.40802383 -0.0075302953 0.16721404 0.045152076 0.0542617 0.19144745 0.08851755 0.15419343 -0.10342697 0.03362016 -0.1781621 -0.26616266 0.15358089 0.110554606 -0.4629048 0.0799269 -0.08974545 -0.060742132 -0.17384045 0.028431961 0.23783249 0.071041465 -0.4596393 -0.081585765 -0.30005807 -0.035589024 0.06710112 0.20387693 -0.25534973 0.009582086 -0.07086604 0.1334432 -0.3034943 0.19653912 -0.035560917 0.12958446 -0.33202097 -0.056425996 0.061644312 0.10748074 -0.13763754 0.24141914
知 -0.15468228 0.008669468 -0.28093973 0.1529755 -0.08523251 -0.06635226 0.23202603 0.08377719 0.07789423 0.12893869 0.330015 0.115836546 0.006913881 0.2779553 0.026500573 0.10897213 0.021450743 -0.19689293 -0.087769955 0.23759232 0.3808428 -0.031982135 -0.10309032 -0.21377465 0.1677831 -0.06306136 -0.08072032 -0.037338413 -0.051065348 -0.17296335 -0.2159167 -0.07862715 0.18341538 -0.035108864 0.07787678 0.09859724 0.01616822 -0.018925045 0.16994542 0.03751239 0.03493322 -0.0092211 0.23392941 0.19843766 -0.13861369 0.08403326 0.32929283 0.033602543 0.019356491 0.13785993 0.21676643 -0.20937867 0.07201926 0.18046035 0.15808657 -0.2093476 0.13602927 -0.060350902 0.16997607 -0.1381933 0.009326689 -0.033649974 0.010307079 0.19918762 -0.078381486 -0.19858661 -0.1424641 0.41277987 0.020302938 -0.15914881 0.049135707 0.15825956 0.42387235 -0.13974123 0.1291483 0.2885708 -0.3432721 -0.06447118 -0.009945831 -0.16900992 -0.11658537 -0.09258578 -0.22533096 -0.26615015 0.024133265 0.26430517 -0.27743495 0.09663549 -0.01892355 0.09253732 -0.4831706 0.038065925 0.50678855 0.054127023 -0.4231505 -0.058788817 0.041273914 0.10463573 -0.11042 0.27412778
何 0.25740823 0.045652047 0.34776056 -0.25050518 -0.07637763 0.2783801 0.107071735 0.21738514 -0.030717326 0.25632524 0.35152683 0.21103774 0.33660522 0.1792773 -0.1454374 -0.14588019 -0.098947525 -0.10404441 -0.06308247 0.0074353847 0.27638194 0.13267097 -0.058092583 -0.66306907 0.3532146 -0.13849662 -0.346844 -0.3521884 -0.10433745 -0.011835802 -0.53109616 -0.21490733 0.4206731 0.21270466 0.11395129 0.39491376 -0.109344564 -0.0213718 0.33168045 0.0014134995 -0.36850172 -0.0043491973 0.6679739 0.28583378 -0.16694306 0.11230753 0.5252106 -0.37062705 -0.013830094 0.61821485 0.0066086547 0.09248046 0.23569903 0.61349994 0.07095385 -0.11787201 0.2066811 0.16725226 0.096289076 -0.09624489 -0.097770676 0.23032613 0.12903807 -0.13261436 -0.14469051 -0.25335225 -0.16920109 0.79298115 0.20225133 -0.7560462 0.5000287 0.46694645 0.5366618 0.012993676 0.024407629 0.6799926 -0.3840711 -0.55128783 -0.19437666 -0.092524685 -0.25838575 -0.18582779 0.35844627 -0.07680818 -0.18134898 0.04265523 -0.06566772 -0.2564782 -0.004257247 -0.122952916 -0.33409727 0.041059643 0.001748263 0.06829491 0.38657138 0.069639705 0.13757549 0.00942427 -0.21423149 0.2534316
吾 -0.2905733 -0.23317896 -0.39183003 0.046458993 0.06931408 -0.019836228 0.3282822 -0.0036256844 -0.12919937 -0.093928844 0.005424981 0.2743805 -0.109549224 0.0992781 -0.036981218 0.050695032 -0.35686126 -0.31164548 -0.014882503 0.035520874 0.27419353 -0.16457956 -0.45958993 0.01399569 -0.08782423 -0.15357707 -0.25503296 0.20913681 -0.06692127 0.19054937 -0.07968123 -0.22150415 0.26747212 0.15258548 0.18711115 0.03828225 0.03134966 -0.1382043 0.08557861 0.20565172 -0.28521693 -0.30678344 0.06478171 0.19198106 -0.31747672 0.089258246 0.12938167 -0.3100639 0.12230295 0.09811582 -0.2607025 0.12585707 -0.04037186 -0.1057897 0.23567596 -0.02235004 0.07411818 -0.19516872 0.040226668 -0.21931295 -0.22223055 0.110794716 0.17257954 0.16164632 -0.14540291 0.07240822 0.03382419 0.44315365 0.39488137 -0.34958217 0.32044953 -0.1935224 0.26443335 -0.13811961 0.013849818 0.3873149 -0.27203292 0.07990739 0.43849903 -0.05534056 0.21015501 -0.04573257 -0.03299545 0.09098719 0.008770414 0.12963818 0.20774828 -0.3272223 -0.1658147 0.2536981 -0.40412566 0.02131447 0.39231053 0.4129632 -0.4381376 0.017592356 0.028095933 -0.1929788 -0.05128471 0.100371845
仁 0.16510646 -0.1724615 -0.12185313 0.23233065 0.36151484 0.2236625 -0.056146357 0.21749438 -0.22440109 0.17090411 0.12739718 0.4054506 -0.073374234 0.03157387 -0.23536003 0.17941985 0.09862282 -0.03085339 0.336776 -0.033553936 0.025654385 -0.12540032 -0.17874213 -0.3580688 0.14266662 0.028311037 -0.25789177 0.12688233 -0.15165333 -0.2478672 -0.21665311 -0.22600055 0.39722198 -0.17782414 0.017668184 -0.32170522 -0.20346197 -0.15970773 0.18491593 0.18674542 -0.09171826 -0.25125414 0.18174028 0.110219546 -0.18139902 -0.10472005 0.42506164 -0.04000584 0.11109364 -0.17535913 -0.24916425 -0.14392363 0.16246158 -0.38367933 0.30881473 -0.008300435 0.058789093 -0.086078025 0.45219934 -0.2961293 -0.35624713 0.027322501 -0.12229301 -0.3256902 -0.15752696 -0.36556315 -0.17195255 0.4446914 0.43452367 0.16046092 0.2588092 -0.04422816 0.43615317 -0.19264111 -0.028657023 0.2741672 -0.38018203 -0.23437135 0.2339823 -0.10712152 0.03003783 -0.019567769 0.299329 0.29498637 0.12918629 -0.16019338 0.40814665 -0.2576466 -0.31077588 0.14134721 -0.32818955 0.13689998 0.38502488 0.039742645 -0.059134915 -0.05087364 -0.41981125 -0.1722989 0.05869072 -0.033599745
夫 0.028624818 -0.017093834 -0.24511859 0.3965071 0.13195431 0.06452831 -0.004446374 -0.035643797 0.13951367 0.13170621 0.05717004 0.35243276 0.044551283 0.063615516 0.0010470331 0.11442547 0.14886679 0.039562427 0.09705994 0.12593174 -0.14283244 0.25977445 0.019252239 -0.11893669 0.0048317043 -0.16855955 0.0010762593 0.13010037 -0.21882258 -0.055568554 -0.16274072 0.01099855 -0.014922456 -0.20760332 -0.02847643 0.19427852 0.0043075345 0.015172287 0.21017462 0.06098351 0.02629538 0.016050423 0.17360486 0.31045943 0.08458494 0.060674988 0.3276283 0.24107371 -0.2748438 0.3926373 -0.018031608 -0.016362404 0.06556903 -0.05233146 0.22181366 -0.097889796 0.041343883 -0.04206237 0.41189602 0.05942759 -0.097398594 0.037437636 0.016397657 -0.103790425 0.014874523 -0.1789379 -0.13748236 0.51808244 0.2436896 0.0078412155 -0.04747247 0.3099469 0.29941723 -0.021575335 0.08652594 0.19588847 -0.10911039 -0.036550596 -0.023748616 0.050790317 -0.14351676 -0.06568311 0.4659673 -0.22237706 0.03022351 0.0425447 -0.30418903 -0.22440514 -0.019064963 -0.004187585 -0.5092874 0.2313547 0.4270215 -0.29987893 -0.13817044 -0.10175396 -0.040190432 0.07458843 -0.11600953 0.24724133
、 0.09295408 -0.11673509 -0.3478868 -0.2327326 0.19512501 0.06574104 0.402326 0.13194916 0.19736402 0.31347308 -0.23145798 0.23113452 -0.03749256 -0.2930019 -0.31994653 0.0072484743 0.19462758 -0.46395698 -0.14429185 0.37084022 0.32451117 -0.1248628 0.40921435 -0.38053972 0.24473004 -0.03315603 -0.35278493 0.008149705 -0.269993 0.3025814 0.2543779 0.2479428 0.32317013 -0.23626912 0.3532384 -0.15961692 -0.30933005 -0.122980595 0.14846335 -0.020430967 -0.37716722 -0.3347301 -0.15547183 0.30229995 -0.35583204 -0.049269717 0.42389506 -0.10830249 -0.4392552 0.37037653 -0.36281988 -0.13201156 0.32145718 -0.3412406 0.25114018 -0.33672187 0.40657705 -0.34094387 0.18599592 -0.42608076 -0.35998675 0.34210593 -0.22351572 -0.24730831 0.10481086 -0.24835974 -0.31892 0.40883294 0.18778202 0.30481386 -0.08991845 0.42960304 0.46888304 -0.07425736 0.0362905 -0.10595743 -0.25392562 -0.110951975 0.14741641 0.17999344 0.3662822 -0.33885732 -0.015604313 -0.06687014 -0.038511034 0.37511814 0.2193442 -0.38689393 -0.3379105 -0.25446132 -0.36145365 0.15539087 0.48559004 0.19834886 -0.20061885 0.11073025 -0.082628235 -0.342045 -0.31634516 0.34566233
道 0.21593304 0.06825352 0.052884143 0.415872 0.1940543 0.09326406 0.60384136 0.34389007 0.69335675 0.57902104 -0.18931682 -0.073453866 0.032498643 -0.0064579174 -0.025459694 0.24569497 0.22706322 -0.4832784 0.18846545 0.06824012 0.48804328 -0.114647016 0.40223405 0.5631423 -0.20509394 0.03819096 -0.54288095 0.23847978 -0.09458511 0.34963757 0.35514763 0.014476772 -0.38385487 0.50631726 0.16460773 0.0061971336 0.37527004 -0.16256551 -0.1943583 -0.4023409 -0.74616146 0.1227451 -0.40737456 0.11209603 -0.17666744 -0.115073696 0.23710376 -0.6798273 0.55550325 0.22697861 -0.29364154 0.36283147 0.043650072 -0.15001768 -0.05124575 -0.37551427 0.12707916 -0.18380322 0.13967228 0.41572893 0.323457 0.4699716 0.31453505 -0.23918393 -0.22410908 0.48850378 0.25936633 0.6685031 0.47313654 -0.5654028 0.48770845 -0.8033302 0.3920658 -0.107800305 -0.024060171 -0.13628702 0.13196722 -0.23894422 0.23339134 0.44085425 0.0070240083 -0.101045296 -0.24236643 0.46622887 0.0987037 0.072982796 0.47296682 -0.67369086 0.31035364 -0.070246145 -0.8206575 0.5320074 -0.6767149 -0.028812857 0.29401624 0.07424835 0.053471833 -0.23584493 0.29784977 0.35919318
焉 0.15276763 -0.17763233 0.20349702 0.086733095 0.08666387 -0.09814328 0.37132677 0.06564501 0.25868878 0.22786978 -0.010548219 0.14922114 0.00023158913 -0.23632768 -0.29162878 0.04550806 -0.07300267 -0.17410603 0.4025848 0.021121979 -0.100473695 0.28210634 0.18574092 -0.10517998 -0.0036547657 0.14608857 -0.00046882586 0.12833291 0.032559313 -0.38413748 -0.20771602 0.047430225 -0.23372698 -0.17043357 0.14400801 0.052742478 0.010794938 -0.12852833 0.14861056 -0.082254894 0.12768501 0.076190054 -0.1111792 -0.19055651 -0.045681182 -0.18006691 0.44302213 0.22788614 -0.017416894 0.034884408 -0.048119526 0.1537711 -0.110530056 -0.361914 -0.11727144 -0.21451269 0.314063 0.093391605 -0.046370722 -0.22399068 -0.1730157 0.08308939 -0.03936004 0.09045757 -0.034078266 -0.00046873547 -0.22282656 0.35662976 0.34850037 0.21857285 0.114804484 0.07583934 0.30026 -0.24187005 -0.090163484 -0.3406086 0.14735259 -0.328229 -0.08528936 0.09432457 0.14801046 -0.16309345 -0.07738837 -0.095967524 -0.04255823 0.14145109 0.44780222 -0.24156216 -0.043853015 -0.09150622 -0.10699289 0.22591296 -0.33939403 -0.23779841 -0.14826128 0.054876883 -0.05634086 0.08560379 0.20089556 0.33556566
行 0.061894223 -0.014124169 0.14056556 0.47979587 0.0936864 0.058893874 0.01525198 0.15282959 0.35135892 0.21531193 -0.049756322 0.4028281 0.09382783 -0.1304678 -0.26581377 0.11046066 0.044085164 -0.27603686 0.08332279 -0.0019082422 -0.13122751 -0.006394483 0.24133214 0.017570177 -0.07280034 -0.013490881 -0.103854164 0.2189018 0.036395177 -0.11276007 0.01716271 0.09734943 -0.053476717 -0.13734306 0.10841463 0.085436836 0.053338483 0.01019048 0.27101094 0.011920926 -0.0276582 0.124036096 -0.099762 -0.058531884 0.04346862 -0.23581654 0.32157567 0.2258117 -0.10830091 -0.040752303 0.04364156 0.0998183 0.07831192 -0.4935352 0.04693975 -0.15838467 0.13476516 -0.036119357 0.49210984 0.02806124 -0.03459312 -0.073845506 0.043692794 -0.097986296 0.015438956 0.04517723 -0.098847985 0.23549187 0.5219222 -0.14335829 -0.06453665 0.29762742 0.20342661 0.039803743 -0.09598031 -0.44880423 0.04043081 -0.036428206 -0.10270763 0.12438823 -0.062437065 0.019474482 0.22815423 0.2958956 0.029379439 -0.20378764 0.51603895 0.1232789 0.391133 -0.049294554 -0.05142069 0.18111674 -0.19674635 -0.2882685 -0.32389313 0.032281693 0.21420443 0.091976605 0.0128203025 0.03777074
谓 0.3437134 -0.26068404 0.3781161 -0.011031888 0.25055036 0.36624956 0.36727434 -0.023787756 0.20245352 0.43185166 -0.00970731 0.29466903 0.426785 -0.1285655 -0.434406 -0.013426686 0.03582691 -0.021561675 -0.3003948 0.044374216 0.46519312 -0.18853167 0.43759808 -0.41278413 0.3280996 -0.10191988 -0.07288137 -0.091867805 0.19486691 0.15782546 -0.26274803 -0.44916654 0.35757735 -0.20891528 -0.13062742 -0.5040944 -0.17706676 0.19043024 0.2528634 0.0046270033 -0.35353088 -0.31794336 0.44091073 -0.066761844 -0.09016653 -0.38046426 0.6065482 0.098960705 -0.006272273 0.041678164 -0.29030913 -0.20621389 0.38089722 -0.6298042 -0.069231436 -0.26386148 0.19565621 0.16614364 0.6284433 0.116135135 -0.25618485 -0.2563408 0.34296715 -0.4706029 0.023242606 -0.3442216 -0.18005228 0.32957727 0.6664377 0.23425288 -0.098691866 0.45621887 0.7781846 0.18386672 -0.21973732 0.19400916 -0.3562353 -0.5784298 -0.7767881 0.18840441 -0.05692445 -0.27355453 0.46922845 0.3077434 -0.15974097 -0.29984486 0.4957111 -0.19462045 -0.07749237 -0.1538987 0.09349452 -0.1072675 0.3862045 -0.13726965 -0.34777218 -0.049981743 -0.7894094 -0.019770337 -0.0985312 -0.057075135
必 0.028003354 -0.12156937 -0.09467091 0.369222 0.040386204 0.108085126 0.18732074 -0.07908658 0.24865694 0.12632662 -0.19823389 0.18087623 0.074594006 -0.17161904 -0.20989357 0.2080171 -0.26987836 -0.31865814 -0.26529312 0.013155455 -0.08874514 -0.27249664 -0.08418998 -0.213712 0.42538702 0.037001237 0.049418416 0.064197004 0.019573161 0.04712797 0.08137362 0.37906525 0.18173105 0.007943621 -0.11795585 -0.41170195 0.17250273 0.113036945 0.14092958 -0.20759647 -0.14351556 -0.22317772 -0.4290301 0.068978086 -0.18704344 -0.37352663 -0.047478154 0.18937868 -0.15554956 -0.3024602 -0.13865842 0.16011131 0.037786167 -0.37123644 0.21342303 -0.37633008 0.11194254 0.14928496 0.30171683 0.18026961 -0.17501108 -0.20294592 0.15358838 -0.2780486 0.005220632 -0.15107584 -0.25665024 0.26264933 0.45915347 0.20098598 0.029612003 -0.17892438 0.47275943 0.024412947 -0.2583943 -0.23596743 0.04498345 -0.1041023 -0.24838275 0.0718107 -0.37190825 0.008950908 -0.39673692 0.22517648 0.123371646 -0.20770761 0.2659209 -0.10269005 0.23788247 -0.041038167 -0.28330275 0.05997409 -0.089764975 -0.21597321 -0.46548903 -0.038047172 -0.49060538 0.04935526 0.14867356 -0.06490152
礼 0.03269424 0.20111655 -0.38916913 0.31706536 -0.08003271 -0.14266974 0.16433029 -0.25683045 -0.036780503 -0.11107221 -0.25772166 -0.0190416 0.09862703 -0.18821807 0.1538201 -0.28723446 -0.07494016 -0.07543495 -0.39439252 0.23207453 -0.4208897 -0.34702468 -0.2550958 -0.28423908 -0.23956592 0.12938102 0.2534808 0.18219505 -0.075975776 0.42535493 0.37661487 -0.33716178 0.06101522 0.2511947 0.28175256 -0.41875228 -0.11812214 0.045481756 0.17773925 0.20984821 0.22776839 0.12039437 -0.042896092 -0.2249713 0.10537404 -0.39603937 -0.3179616 0.3247845 -0.3048496 -0.41622615 0.050442964 0.3014647 0.18936044 -0.4677753 0.37851948 -0.39364177 0.04125842 0.26694635 0.032006305 -0.21681362 -0.10995465 -0.14450884 0.19640556 -0.4149504 0.08815387 0.21640173 -0.23266931 0.1567962 0.4567873 -0.4221019 0.13847086 -0.08808105 -0.012892524 0.23462538 -0.12897424 0.42044345 -0.12623818 0.16413799 -0.22946598 -0.03721182 -0.31309494 0.232502 -0.21309252 -0.21534719 0.3216751 -0.24985357 0.46351022 0.32976842 0.015054033 -0.19863525 0.24759224 0.06085521 -0.375074 0.4482966 -0.13381329 0.23053157 -0.45249683 0.30196834 0.2979172 -0.40298155
孔 -0.023582654 0.045437902 -0.07628885 0.29653215 -0.0044947537 0.02276127 -0.018343035 -0.17822596 0.12939657 -0.039429694 -0.38091752 0.2181951 -0.20045017 -0.0770226 0.06539647 0.029755497 0.18114333 -0.481999 -0.027835224 0.18822937 -0.25422737 -0.057410043 -0.31750086 0.15646337 0.3595742 0.116301484 0.1444542 0.17735705 -0.14890893 -0.19338259 0.09013064 0.026795955 -0.13454707 0.020400785 0.10768904 -0.2628426 -0.056004025 0.15739758 0.15769672 -0.048462726 0.40065762 -0.027280958 0.039487958 0.29380205 -0.08086893 -0.007798259 0.33010077 0.34734786 -0.003521319 -0.48775014 -0.017896358 0.013020935 0.012558093 0.1686103 -0.09739253 -0.2553866 0.10419441 0.028868023 -0.028514158 -0.14773224 -0.14779672 -0.10399821 0.10411814 -0.24869029 -0.02880053 0.1774616 -0.11635128 0.119935125 0.4839191 -0.38164148 -0.010168586 0.1129385 0.024342144 0.0780501 -0.07408853 0.15149195 -0.042252827 -0.023962054 -0.21967596 0.019805184 -0.0007306348 0.19612154 -0.3988691 0.083639376 0.287596 -0.17618261 -0.015501572 0.09425068 0.006722675 0.014909568 0.23736024 0.010290734 0.04275029 -0.008279503 0.15532924 -0.035169743 -0.29153877 0.2563909 0.31757414 -0.2597905
斯 0.0514868 0.026794756 0.20222726 0.43022683 0.11530242 0.0051159714 0.04702333 -0.17265283 0.169642 0.27876076 -0.06523195 0.103609905 -0.042646945 -0.03687881 -0.13909045 -0.19263496 0.101040535 0.14392067 0.09748634 0.08263915 0.010175127 -0.13320133 0.218773 0.08447174 0.10203394 0.31872684 0.056441117 0.27269128 0.07653654 -0.3025339 -0.12052967 -0.041352767 0.023550212 -0.3080571 0.09815981 -0.123752415 -0.0071492256 0.0971675 0.019989604 0.2947758 -0.018940406 0.09030092 -0.37642002 0.35259447 0.2935092 0.03634989 0.39644197 0.20650679 -0.26956016 -0.43586415 0.051639486 0.053667955 0.1402914 -0.17874517 -0.07028973 -0.38016936 0.07320895 0.06444841 -0.30269238 -0.044523783 -0.09345373 -0.2392093 0.07842547 -0.32095826 -0.039240558 0.10058688 0.08122932 0.19668587 0.5201458 -0.10761972 -0.056786623 0.15095803 0.07193875 0.2587824 -0.09738576 -0.42220435 0.14689156 0.2266954 -0.41589147 0.12268782 -0.14316069 0.03408105 0.37337154 -0.26094887 0.009705177 -0.027022561 0.13626848 -0.13182111 -0.19111076 -0.057747543 0.3158427 0.12518658 -0.37261817 -0.49939013 -0.16287033 0.09393654 -0.43212718 0.12016966 0.3340039 -0.087891206
三 -0.07209385 -0.24744576 0.18458097 0.6902948 0.08773326 0.17278413 0.067596406 -0.50600165 0.5491858 0.017672354 -0.7317025 0.736935 -0.36867666 -0.04769796 0.07941758 0.31012794 -0.545791 0.7039052 0.23453644 -0.12483933 -0.39929646 -0.45576942 -0.15149984 0.0055696103 0.50199324 0.04005729 0.47873503 0.23706016 0.08425217 -0.37020013 0.28738233 -0.6325598 -0.09065377 -0.29354465 -0.3069217 -0.6117956 -0.09828921 0.55715847 -0.3793297 -0.11468988 0.3876276 0.16539301 -0.40027708 0.30904076 0.16475435 -0.20171617 0.61769545 0.15758474 0.6271844 -0.726073 0.1389374 0.09940419 -0.37924677 -0.54368365 -0.65839946 -0.67269695 0.622753 -0.66012585 -0.47595832 -0.23174483 -0.31062582 -0.60141826 0.19417903 -0.5479547 -0.22581 0.18191846 -0.45531803 0.14041261 0.58121794 0.07502814 0.039659746 0.10840588 -0.58031845 0.19550365 -0.6711018 -0.15783644 0.21006916 -0.30055305 -0.55233026 0.31115612 -0.39127618 -0.023290804 -0.63946617 0.55591404 -0.054264393 -0.36397853 0.541315 -0.47314632 -0.53266793 0.33736044 -0.50003034 0.07604123 0.017062806 -0.6804413 0.47552696 -0.1498186 -0.5307828 0.102384016 0.42611793 -0.65212846
能 0.110737555 0.14021264 0.1757486 0.079616636 -0.087089404 0.04733938 -0.1912322 -0.14401242 -0.0033441691 0.04798703 -0.3677432 0.35113072 -0.12281482 0.08233522 -0.007756506 -0.016608424 -0.09464818 0.503386 -0.16642481 0.08546874 -0.33036333 -0.21100326 -0.07134585 -0.081632115 0.37359327 0.023035498 -0.019250946 0.21763882 0.053254195 0.0022838337 0.23984794 0.11103984 -0.043284245 0.089253485 0.071154736 -0.32801476 0.039770965 -0.12772632 -0.11031333 -0.020886688 -0.14604239 0.11939004 0.20890972 0.29231465 0.18018164 -0.1328305 -0.07902981 -0.08717651 -0.20634192 0.0062731123 -0.022825865 0.09179557 -0.004030112 -0.07830638 -0.14297403 -0.18752323 0.017342428 0.08628555 -0.3722175 0.052786697 0.017140675 -0.07193326 0.049620487 0.21330851 -0.19928905 0.2733089 -0.03698412 0.037091836 0.2875318 0.060711265 0.02076988 0.33486333 -0.27461475 0.30705178 -0.070585854 -0.24784394 0.25296572 0.0053098304 0.07140948 -0.34617165 -0.3227817 -0.04718858 0.069639675 -0.017243529 0.058643784 -0.02313722 -0.16343091 -0.11750292 0.029913418 -0.046671584 0.2886663 0.25109038 -0.29712057 0.23881833 -0.04175655 0.020887118 0.10104979 -0.034457665 0.2528727 0.013322005
见 -0.24709576 -0.15562268 0.16683601 0.22900522 0.036794666 -0.076649584 0.033604186 -0.41656223 0.14562163 -0.34567118 -0.01897485 -0.24266075 -0.08679467 -0.14706112 -0.13633229 -0.27189994 -0.351184 -0.01566647 -0.24456874 0.21988104 -0.33847803 -0.23941213 0.11778529 0.054927584 -0.103636004 0.028346721 -0.1279284 0.09192773 -0.2639875 0.27732122 0.29006013 0.031136746 -0.098502755 -0.24532104 0.26143447 0.4031153 -0.3321433 0.3889738 -0.43360162 0.084620215 -0.15114298 -0.023173766 -0.3585934 0.30575588 -0.20268774 0.31408662 0.059798602 0.19731638 0.2832248 -0.4904487 0.32775974 0.015531881 -0.13831171 0.1629627 -0.046564404 -0.30500767 0.07450933 0.1995261 0.1297187 0.14977226 -0.2742697 0.03587063 0.32463473 -0.2698028 -0.034317937 -0.20012665 -0.19728728 0.026811453 -0.42515856 -0.23915583 -0.13977537 -0.28448808 -0.23989369 0.27604914 -0.26754838 -0.26176423 0.025683764 0.19004655 -0.122917 0.23099314 -0.31370518 0.029347021 -0.5126618 -0.27584615 -0.19539282 0.3197864 -0.4300525 0.11883578 -0.27804238 0.38459998 0.18086652 0.020435989 0.33938918 -0.38074243 -0.002219259 0.06846476 0.47570917 0.24260402 0.0031581477 0.22468813
学 0.4623963 0.17767274 -0.053210054 0.43410766 0.43338597 -0.70417774 0.032809634 -0.011008428 0.5045005 0.73736763 0.1353037 -0.4025723 -0.75303584 -0.36526603 0.35332695 -0.7188786 0.69450444 0.41568953 0.0692216 -0.0685934 -0.12993988 -0.41172 -0.51292664 -0.40051964 0.5741317 0.37744245 -0.4338398 0.50416195 -0.24562281 -0.80450857 0.5309552 -0.41733396 -0.3172143 -0.098712616 0.46695745 0.41553026 0.68086934 -0.0051946947 -0.36759153 -0.038709898 -0.3815635 0.69929945 -0.4653476 0.12508741 0.4998397 0.80765235 -0.28874907 0.63764495 -0.63648236 0.2733922 0.7683118 -0.28250262 0.40688467 0.577527 0.12392195 -0.48359746 0.39302316 0.457233 -0.7054303 0.50775665 -0.11487553 -0.4253334 0.5517085 -0.26089215 0.46118703 -0.45379063 0.55521595 -0.5905162 -0.36152282 -0.16843437 -0.24816504 0.7724026 -0.021833422 0.59159034 0.36369148 -0.627506 0.61336863 -0.033347253 -0.3167583 0.60195816 -0.09035396 -0.34555995 -0.29958114 -0.6425256 -0.5773595 0.095133714 -0.30120268 -0.09947657 -0.46057403 0.5935451 0.6592715 0.49738616 -0.3924956 -0.687575 -0.6203779 -0.25656044 0.52383196 -0.37963513 0.11497539 0.4038327
事 0.27042767 0.052724145 -0.112298675 -0.1285841 0.12143992 0.088341884 -0.028333664 -0.2504529 -0.25504074 0.14193459 -0.113914035 -0.1138375 -0.08670136 -0.07913229 0.24067529 -0.09067515 0.11218195 -0.13283871 -0.14467451 0.02023488 0.0145698 0.04401907 -0.212853 0.24401063 0.14746232 0.20071425 0.071557485 0.15419056 -0.07420375 0.021351127 -0.053411487 0.29118106 0.03278615 0.26836208 0.063696265 0.15412548 0.107157044 -0.02051249 -0.29331094 0.13646401 -0.119351625 -0.08188179 -0.16030325 0.2517202 -0.02289111 -0.095592804 -0.46933547 0.3340343 0.12282937 0.3952577 -0.05612592 0.12366209 -0.10344094 0.21884072 0.16127306 0.037450016 -0.028848479 0.047268994 -0.15310103 0.046368055 -0.08160683 -0.090440884 0.045097385 -0.04766734 0.026941685 0.14610857 0.22978325 -0.3623067 0.14204155 -0.3773581 -0.08773023 -0.04646409 0.45617855 0.0044059297 -0.21308964 -0.06251681 -0.0056076995 -0.30128863 0.059674785 0.19879712 -0.20712793 -0.021541039 -0.16213053 -0.06440767 -0.020322077 -0.15521204 0.40196872 0.14713225 -0.29290986 0.25724706 0.23239453 0.06369866 -0.1307364 -0.17860918 0.04239009 0.029687114 -0.09190782 -0.11334066 0.04604644 -0.501768
是 0.050831806 0.273258 -0.2835885 0.020838266 0.07903069 0.10601414 0.071675256 -0.15760297 -0.16242133 0.12467635 -0.4092717 -0.39111826 -0.21226455 -0.07326877 0.2782977 -0.12753901 0.10107845 -0.46483123 -0.2782016 -0.022458952 -0.3732878 -0.0003463684 -0.003961426 0.23652011 -0.18916866 3.2647513e-06 -0.07707809 0.29196608 -0.14124596 -0.03498051 0.3735682 0.038619332 -0.19216317 0.47239068 0.18735927 -0.09133076 0.09756631 0.24602257 -0.37544295 0.21083243 -0.25482115 0.048593856 -0.48193672 0.078324884 0.058065064 -0.11177912 -0.41980645 -0.02009621 -0.23379593 -0.3979533 0.34526628 0.33890063 -0.049684968 -0.12170853 -0.14012788 0.22675002 0.27099457 -0.25629094 -0.07219205 -0.35356045 -0.028213762 0.03416638 0.13429654 -0.030043438 0.12706955 0.33793724 0.24784309 -0.21192311 0.018860096 -0.23314536 0.014033052 -0.44942057 0.28882325 -0.12279057 -0.011226614 -0.377824 0.1675912 0.27411455 -0.24820153 0.31305575 0.1167904 0.2957305 -0.34023815 0.19712645 0.008627542 -0.15543409 0.4662994 0.34808803 -0.45831305 0.35946798 -0.066463135 -0.08642344 -0.44735566 -0.1857024 -0.38608456 -0.044977594 0.36401537 0.28781492 0.32572162 -0.46373522
哉 0.13941786 0.06939331 -0.07738579 -0.42583102 0.29469243 -0.00718217 0.013014903 0.24761948 -0.2895225 0.14250608 -0.15259 0.3465889 -0.25552946 0.19969529 0.3061603 -0.12242913 -0.2046447 -0.35380498 -0.068182975 0.123814344 0.08617667 0.03201362 -0.35759434 0.060519014 0.36717618 -0.25612718 0.1722587 -0.043888744 -0.037847623 0.108162366 -0.17780718 0.18817298 0.0075581456 0.49617696 0.104997955 -0.12369025 -0.012900088 -0.21143554 -0.4843019 0.24188717 -0.29544103 0.21223345 0.19250305 0.3919608 0.11766347 0.18134269 -0.3595938 0.08171885 0.11597471 -0.52347237 0.07043598 0.13302433 -0.09627213 0.27088505 0.09028167 0.23659268 0.04416247 -0.035762627 0.3485775 -0.24837786 0.026445078 -0.047820717 -0.012372137 -0.26796573 -0.018280437 -0.25479224 0.13268405 0.2037436 -0.42419165 -0.07152097 -0.031815134 0.031682953 0.46915534 -0.033585243 -0.03490284 -0.21195254 -0.10318695 -0.32034793 -0.40219316 0.3714823 0.10320613 0.05412049 -0.28163922 -0.31773385 0.022320319 0.10289036 0.4376526 -0.00082853757 -0.40892628 0.19542879 -0.017142776 0.0015374818 -0.38287088 -0.39000982 -0.0451989 -0.037678175 0.04408218 0.094214715 0.31756344 -0.11301571
闻 0.24165186 0.20731911 -0.10368067 0.2909075 0.2314379 0.016977483 0.24685776 0.2645199 0.04150162 0.17636241 0.13011098 -0.37906954 0.09571753 -0.20759282 -0.15374574 -0.22919665 -0.32900655 0.079031385 -0.14120802 -0.09632688 -0.011447699 0.15076159 0.34455872 -0.19203837 0.012120052 -0.13210508 -0.08897846 -0.17640556 -0.29415816 -0.4279903 -0.11400652 0.093458585 0.081049 -0.19278719 -0.16267228 -0.22812797 0.07312347 -0.026618222 -0.42042908 0.12072231 -0.42007443 0.28506732 -0.42166707 -0.21927057 -0.11240868 0.12861699 0.29522413 0.112276316 -0.37908512 0.3372874 0.36001906 0.010492048 -0.0740394 0.25254884 0.2170783 0.02164132 0.17389254 -0.24514648 -0.065885074 0.22147872 0.14545241 -0.10498227 -0.05299303 0.1172999 0.08718698 -0.3544222 0.14757904 0.21762198 -0.3482624 0.045025658 -0.046138693 0.42223975 0.46148434 0.24616964 -0.13295463 -0.470562 0.24108106 -0.10697777 -0.3365201 0.45176652 -0.38881582 0.19958541 -0.4695928 0.19199447 -0.19511653 -0.15844351 0.44179645 -0.08331352 -0.43629444 -0.19215961 -0.16322464 0.01642531 -0.42528617 -0.38274682 0.23261364 -0.15710568 0.43177631 -0.032437477 -0.2538266 0.3943563
未 0.6597164 0.51139194 0.05023385 0.2878194 0.3700153 0.23707683 0.2906945 0.41133282 0.22520489 0.3853912 -0.33056608 -0.14578712 0.034305964 -0.6807009 0.18735851 0.20038384 -0.22938815 -0.5217506 -0.5732372 -0.620551 0.5553908 0.06061792 -0.5472623 0.8368747 -0.3232072 0.28669813 -0.09560388 0.5469755 0.5386013 -0.7203073 -0.02027046 0.09454036 -0.23047172 0.5911203 0.70155644 0.19034423 -0.23346879 0.2611435 -0.69822216 -0.27546585 -0.63393295 0.582759 -0.72840756 0.5321231 -0.49072257 -0.09017465 -0.7010522 0.43523604 0.19051604 0.35946295 0.44514143 0.32786676 -0.44140136 -0.001055873 0.2675422 -0.18168092 0.12007898 -0.13368015 0.5524058 -0.5853 -0.4006345 -0.010330945 0.3678353 -0.06298654 0.49016994 0.3218102 0.5102175 0.5450638 0.5648393 -0.71824896 0.043785956 -0.38592798 0.087422326 0.41893178 -0.6091171 -0.58707386 0.65968364 -0.07325018 -0.35774195 0.6842181 -0.41932014 0.138225 -0.66230875 -0.4658836 -0.037985448 -0.57625526 0.66921544 -0.13308266 0.08418688 0.21838088 -0.38370612 -0.28751352 -0.7846574 -0.09553792 -0.5340784 -0.59277207 0.54400134 -0.03744387 -0.036907278 -0.13767138
公 0.3492894 0.18925664 -0.23995069 -0.03639508 0.029265685 0.25751635 -0.045373134 0.060931295 0.21934566 0.017901065 0.16523482 0.38255823 -0.15524788 -0.33325544 0.1897859 0.18325917 0.0875907 0.03629723 0.10510059 -0.36106429 -0.1542686 0.4176715 0.19732644 0.24531695 0.34754446 0.30072835 0.115476996 -0.20956074 -0.09145508 0.1642759 -0.009613179 0.3800947 -0.016479934 0.4000659 -0.009071712 -0.23477514 0.07023866 0.26601204 -0.37305322 -0.2296935 0.46134895 -0.17913678 -0.4096084 -0.06853433 -0.0010118017 0.029210493 -0.46394184 0.13439855 -0.12834176 -0.266801 0.20808944 0.063360855 0.19036542 0.110609956 -0.22094028 -0.073738866 0.04372461 0.24094833 0.22234464 -0.3264083 0.060492948 0.14392641 0.14989005 -0.18758233 0.067734346 0.058337122 0.03032431 -0.025548931 -0.24037777 -0.289635 0.03438322 -0.3144702 0.36703613 0.11572528 -0.112166695 -0.05865392 -0.03354157 -0.15961158 -0.28928852 0.38280764 -0.1923638 0.09466702 -0.38459796 0.010586834 0.36688814 -0.13451329 0.28552553 0.24507144 -0.25257596 0.16165341 -0.2069584 0.061565593 -0.23069741 -0.2810466 -0.39739692 -0.37392956 -0.16069444 0.083900526 0.010546075 -0.20439598
好 0.10052576 0.3818767 -0.41887593 0.40393615 -0.06363367 0.40732005 0.33901083 -0.49122265 -0.30335778 -0.25245658 -0.18092842 -0.25576916 -0.14036132 0.38790447 0.4436492 -0.22088984 0.42774037 -0.39391667 0.22218038 -0.15123603 0.4785663 0.15441006 0.16578554 0.40591478 0.3962903 0.39964014 0.2957282 -0.0070681814 0.31152675 0.38795817 -0.27629164 0.31062347 -0.14773488 0.44870812 0.34013164 -0.4271257 0.3754482 0.33257225 -0.44316182 -0.43081734 -0.066716865 0.10146365 0.260721 -0.07932938 0.36593217 0.14897986 -0.45617947 0.34103414 0.3017138 0.009265014 -0.34023085 0.38184148 0.31569594 0.20395902 -0.101712994 0.36523926 -0.28052512 -0.15095368 -0.103759535 -0.22455949 -0.4484919 -0.11185529 4.9268536e-05 -0.43957955 0.14209951 -0.05968708 0.28678364 0.16442877 -0.32867762 -0.40762973 0.4349336 -0.45249328 0.4035779 -0.3253573 0.3550068 0.45881292 0.20670283 -0.2288206 -0.45179904 0.4345433 -0.45005423 0.26450336 0.012549836 -0.4018905 -0.07654137 -0.429781 0.41988763 0.32107222 -0.13946284 0.49163282 0.24514191 -0.21443799 -0.42993957 0.071864754 -0.15185012 -0.3546575 0.083087295 0.35002106 0.1434196 -0.42412442
我 0.25331143 -0.0102844965 -0.34891078 0.31478697 0.25438553 0.21739343 -0.07752294 0.028189242 -0.19241115 0.088008456 0.23477821 0.2415945 -0.10566107 -0.111360356 0.14628215 0.11541678 -0.10774251 -0.04375106 0.50269455 -0.21961357 0.1936455 0.230865 0.6007107 0.4369114 0.6182738 0.42944193 -0.039831933 -0.45423335 -0.29524216 -0.61605036 -0.38102275 0.27933517 -0.18396933 0.5855383 0.2717586 -0.13590048 0.19641118 -0.0011041178 -0.6013134 0.042662233 0.23768122 0.33371013 0.575756 0.094840534 -0.07815904 0.07651171 -0.2840823 0.44036743 -0.027202856 -0.24422243 0.3133056 0.19246373 0.048395596 0.6050824 0.09922114 -0.03123058 0.3342932 -7.625096e-05 -0.37738055 -0.027807431 0.061304983 0.15583548 -0.21982604 -0.33550802 -0.10740775 -0.35626522 -0.16559856 0.24254969 -0.48486775 -0.3739428 0.008066719 0.0010400246 0.79774356 -0.032854266 0.10620822 -0.39045554 0.10592704 -0.35898867 -0.40583068 0.65310603 -0.3862132 0.084581025 -0.51371586 -0.14651677 0.076887034 -0.11958212 0.11799382 -0.12777553 -0.12689811 0.15154724 -0.2196026 0.7022892 0.007375667 -0.6656085 0.0069808722 -0.471999 0.613991 0.42268223 -0.4694224 0.6439383
路 0.024851715 0.13994062 -0.035093214 0.042247392 0.20979947 -0.11045902 0.28333887 -0.14747934 -0.053813174 -0.30302143 -0.120930515 0.11303562 0.0433726 -0.029037159 -0.029178767 -0.11571194 0.43590787 -0.1218042 0.035146113 -0.25709397 0.21208139 0.28485265 0.41841415 0.26926726 0.1006015 0.3654205 0.08009273 0.037139382 -0.039178636 -0.09910917 -0.36615494 0.33862135 -0.024917435 0.35125715 0.07292137 0.3124403 -0.042466007 0.057926 -0.17957093 0.056592297 -0.047478367 -0.032389347 -0.45324406 0.23335914 0.07051081 0.120699756 -0.4614718 0.19499117 -0.27316827 0.034139402 0.23555979 0.22651196 0.044552866 0.4077301 0.06433452 0.04996958 0.016227104 -0.033173576 -0.20608094 0.03466943 0.019746443 0.2957022 -0.030378943 -0.31537935 -0.07413365 -0.13398018 0.24004376 -0.048023608 0.2653066 -0.4347965 -0.052159574 -0.12516823 0.111453824 -0.09602608 -0.0024191795 0.48149434 0.059573367 -0.027030755 -0.5077183 0.37078172 0.3019396 -0.045889005 -0.24277052 -0.18341398 0.021191854 0.15810956 0.041960694 -0.10319671 0.24510151 -0.13801835 -6.0932507e-05 0.0003591029 0.021473613 0.2915648 0.12590687 -0.1614127 0.041969016 -0.044283677 -0.14940216 0.09163009
在 0.1130239 0.24712828 -0.34869292 0.31318897 0.21462862 -0.2747511 0.22636734 0.13488397 0.13564613 -0.08657025 0.22342873 -0.030904818 0.1197031 -0.17880519 -0.1773668 0.14870611 -0.07289482 -0.23775972 -0.040978987 0.15553023 0.2924142 0.048016895 -0.36153546 -0.09456096 0.2584888 0.17133957 -0.15956403 0.15427047 -0.20838836 -0.06760008 0.07104333 0.32348883 -0.23031928 0.24540833 -0.027719334 0.23133707 0.14809647 0.082612626 0.26265872 -0.20770139 0.077340424 -0.048128027 -0.41302043 0.12833999 -0.16825083 0.16043457 -0.37598917 0.3333351 -0.07579016 0.007726373 0.18804318 -0.004858063 -0.05868276 0.1311161 0.29207307 0.0070072003 0.024113739 0.15023237 -0.1820841 -0.34626788 -0.06024838 -0.063164994 0.054799866 -0.267598 0.10072922 0.074759364 -0.10935305 -0.38714868 -0.44124854 0.12135587 -0.13789894 0.24988502 0.19932458 -0.23560682 -0.08662515 -0.017831475 0.04597026 -0.17878233 -0.27157342 0.22736059 0.061818197 0.17295544 -0.10059759 -0.04568836 -0.07920696 0.34811363 -0.26659596 0.19231646 0.23290765 0.13646968 -0.19845796 -0.06455697 0.14306141 -0.3796662 -0.0108410185 -0.30076355 -0.08010751 -0.11327418 -0.040155683 0.41480768
已 0.032795113 0.17603259 -0.39044288 0.479582 0.15026496 -0.09181114 -0.24962787 -0.26211274 0.0053087743 -0.11764269 0.28228635 -0.07465486 0.16016246 0.07963265 -0.032609556 0.3057545 0.2149229 -0.22631957 0.11865779 -0.24582855 0.26007548 0.10947589 0.3984806 0.2296934 -0.1052822 0.1660632 -0.09145858 -0.0336938 0.04957051 -0.23662227 -0.10076441 0.15922727 0.052078303 0.40129077 -0.018269762 0.105094954 0.027826244 0.10622514 0.07548478 -0.22095485 0.2195474 -0.20990667 -0.009490672 0.022424525 -0.030969149 -0.1179523 -0.4534379 0.097583085 0.1858817 -0.18874492 0.050406583 0.121518105 0.16983351 0.18865412 -0.040531553 -0.04620195 0.13691853 0.14409302 0.13325784 0.09267409 -0.071039274 0.16045125 0.20197569 -0.18677515 -0.0355856 -0.025944423 -0.09929502 -0.40881842 0.3985578 -0.2656906 0.07037854 -0.3715166 -0.18181954 -0.26533157 0.17602684 0.464462 -0.15842645 0.15080681 -0.19065334 0.1520977 0.32302386 0.31391865 0.06416151 0.22514452 0.039148707 -0.15142487 -0.39579448 0.31357342 0.22349389 -0.08863607 -0.17330919 -0.060634423 0.4331012 0.3942311 -0.14424823 -0.21799247 -0.2402122 0.2506827 0.3326947 -0.14987533
得 0.020860555 0.027198933 -0.08572197 0.3295254 0.03038577 0.060474537 -0.0026927388 -0.32477036 -0.27655667 -0.15540256 -0.1629576 -0.048024494 0.0859339 0.2519275 -0.087099776 0.017866861 -0.09842669 -0.34734422 0.0951819 0.13826618 0.16701405 0.18355848 0.4335172 0.14197856 0.121073686 -0.10047275 -0.0383714 -0.32179034 0.008537466 0.1363411 -0.3732509 -0.09030057 0.034237217 0.2943976 0.16206732 0.051167727 -0.055118002 -0.15485947 -0.029572453 -0.02459493 0.3429529 0.09107569 0.31853768 0.022847803 0.19748285 0.1975089 -0.009193251 0.119120024 0.101803236 0.24427833 0.09015908 0.06620567 -0.115206376 0.32203326 -0.26315093 0.26601598 0.039753187 0.058549203 0.07619144 -0.12810636 -0.019735755 0.24890374 0.21187845 -0.08850636 -0.2669886 -0.2846442 -0.06521356 0.14632428 0.26960096 -0.27125463 -0.163931 -0.45479277 0.4679779 -0.12541121 0.2762299 0.49298343 -0.24615823 -0.3000327 -0.31870914 -0.35890064 0.35015467 -0.010466596 0.15700173 0.069170155 -0.088124916 -0.02980545 0.10630721 -0.007462408 0.16623867 -0.19415243 -0.25403556 -0.05632595 0.4920984 0.4494637 0.3009907 -0.08097314 -0.120110914 0.1278348 -0.08714618 -0.000706155
所 -0.13539006 -0.40537202 0.5600558 -0.16476843 -0.03603701 -0.12253613 -0.5022996 -0.7214105 -0.5492725 -0.2799697 -0.6110306 -0.28425622 0.6628511 0.62149066 -0.2970533 0.1220404 0.5869439 -0.48793873 0.30854884 -0.4277902 -0.2010772 -0.010075592 0.44480544 0.64347917 -0.5231332 -0.14333624 -0.021364287 -0.033856772 0.64286524 0.52871764 -0.0038562932 0.31975067 -0.12318473 -0.44796157 0.7179939 0.6870657 0.26784465 -0.47178963 0.5355118 0.100851126 -0.56748813 0.19082198 -0.4458627 0.13080452 0.5251876 -0.39651862 -0.72793895 0.46510416 0.22790173 -0.6653252 0.3504833 0.5430903 0.32615006 -0.12054112 -0.006902344 0.043486506 0.16207689 0.07557489 0.1879832 0.67134863 0.2614969 0.41061318 0.38067672 -0.6802786 -0.50734556 -0.6512455 0.14920019 -0.11123145 0.5522249 -0.7258351 0.27396497 -0.72323704 -0.12458212 -0.2974119 0.64860755 0.41836977 -0.061452746 0.41683555 -0.7185452 -0.20479287 0.54153186 0.14374979 0.25727394 0.10770637 -0.069414206 -0.5446789 0.3362366 0.089043945 0.34207425 -0.33162686 -0.7492822 -0.69985324 0.5044451 -0.057677276 0.02753956 0.652505 0.5860341 0.49737555 0.46285668 -0.5688819
民 -0.06614364 -0.075761825 -0.36704728 0.19087459 -0.068525404 0.14832999 -0.26662746 -0.28826725 -0.18488784 -0.4584849 0.02220093 0.003361379 -0.029879842 0.08127846 -0.004098915 0.06917012 0.033956654 -0.15960501 -0.052597336 -0.20754462 0.2836025 -0.004129129 0.47454587 0.19525316 0.010888049 0.3232444 -0.093015835 -0.02486261 0.12013343 -0.047381986 -0.159974 0.09534809 0.115793176 -0.20100199 0.13506384 0.23245811 0.22169226 -0.012622343 0.061509937 0.24233113 -0.16456294 0.018105125 0.1607482 -0.07850259 -0.103137515 0.13877743 -0.3158514 -0.11229447 0.12858017 -0.16701943 0.2028347 0.31032246 0.20082828 0.28184173 0.30641156 -0.09126279 -0.11420276 0.08565558 -0.19853045 0.26534992 0.0062448606 -0.029484745 0.07366039 -0.15522721 -0.20546335 -0.25285918 -0.058426216 -0.23448378 0.33449546 0.15567438 0.022563811 -0.47715876 0.062687635 0.011988933 0.14694603 0.24279378 -0.04132995 0.1105476 -0.03701614 0.13603973 0.26941293 -0.1152352 -0.1484979 0.033416882 0.2674357 -0.16995932 -0.29528812 0.08544808 0.2995863 -0.055112693 -0.36957645 -0.021957058 0.45179698 -0.48736116 -0.44888878 0.044897124 0.027202712 -0.061290298 0.37096813 0.16597316
小 -0.09191988 0.051830173 -0.12106337 0.25348106 -0.021207422 0.14600928 -0.40919912 -0.08787563 -0.21771373 -0.3746968 -0.20374191 -0.2216719 0.10394742 0.024508305 0.109672554 0.10003877 -0.14734808 -0.08403059 -0.11730011 -0.077648066 -0.13432758 0.14930741 -0.056263685 -0.053770162 -0.018338976 0.09190178 0.01097469 -0.14469461 0.020964049 -0.0308638 -0.14780411 0.088735126 0.016847156 0.14893614 -0.08924465 0.08441041 -0.02848842 0.15839723 -0.059783585 -0.04437676 -0.0092895245 0.07386937 0.21482873 0.15927604 -0.09555683 -0.04169628 -0.4926395 0.13846146 -0.04816827 -0.16027017 0.20252903 0.14143895 0.12153016 0.15307768 -0.123720564 -0.064217925 -0.25944513 0.07809269 -0.073696755 0.33769912 0.09811823 0.043971404 -0.0042639486 -0.08036764 0.012298187 -0.28632557 -0.077030346 -0.018307786 0.28310314 -0.1400173 0.025760936 -0.1716594 -0.44760925 -0.05531611 -0.010883107 0.04480079 -0.19705525 0.3553081 -0.5022655 -0.19817442 -0.0148376925 0.028616883 -0.05724174 0.08317812 -0.02031185 -0.10937368 -0.06194544 0.262005 -0.0052586496 -0.32174453 -0.2045022 0.12752776 -0.017576626 0.24106948 -0.25054565 -0.009448535 0.13363376 -0.09859087 0.16893952 0.02376984
天 0.2794727 0.16396978 0.17841339 -0.08220321 0.26230937 0.007853068 -0.31860328 0.23598242 -0.2571404 0.69309914 0.0892238 -0.47321698 -0.13325973 0.12282346 0.017818643 -0.14104113 -0.13568993 -0.61995953 0.056459725 0.22167599 -0.0055831224 0.37225068 -0.25501496 0.1666237 -0.37557548 -0.14794466 0.15469746 -0.16814539 0.054384075 0.08645217 -0.5307564 -0.21115544 -0.47501308 0.3196172 0.017298605 0.013609566 -0.19497003 -0.21536383 0.02753157 0.2785087 -0.16251743 0.24756804 0.21854648 -0.1088943 0.22246043 -0.08684165 -0.14624485 0.22635528 -0.14370677 0.5024651 0.12890619 0.22848132 -0.08628493 0.2349898 -0.12441835 0.12154517 -0.32818243 -0.007889492 -0.1554898 0.2063846 0.33191213 0.3284484 0.029615331 -0.22407585 -0.12161907 0.032227457 0.33405465 -0.01095002 0.2709733 -0.37200868 -0.29413196 -0.058624882 -0.43349501 -0.10712173 0.23847198 -0.03437535 0.012932814 0.016285902 -0.20171326 -0.3749053 0.35556224 0.17868161 0.14496058 -0.056224674 -0.007144547 -0.19195937 0.042649187 0.18423417 0.28239357 -0.21571814 0.30058455 0.045632664 -0.57417107 0.44807342 0.41460037 0.30947673 -0.14102486 0.13904203 0.406874 0.1165307
乐 0.18269223 -0.015347052 0.38146284 0.18174255 -0.041730348 0.12832044 -0.23496898 -0.0991518 0.0002547393 0.108377725 0.06387398 -0.37526894 0.17731807 0.100380115 -0.004372523 -0.05874983 0.28138855 -0.3425797 0.018211273 0.102474906 0.1580139 0.039982677 0.38514966 0.32343966 0.092430405 0.22097144 -0.08125127 -0.29975787 0.17793833 -0.27780008 0.05127874 0.19154663 -0.16423294 -0.23610559 0.17768623 0.22074634 0.17181683 0.0976727 0.033504944 -0.0015570988 -0.14758122 0.21094716 -0.16784607 0.17572415 0.023843514 -0.19327731 -0.3115884 0.091661036 0.0073455367 0.2312513 0.0015709895 -0.0055509848 0.27041176 -0.12589267 -0.18359108 -0.18527237 -0.030952528 0.1399758 -0.22732286 0.44897348 0.20331578 0.21629444 0.10170826 0.00987459 0.05543572 0.3001241 0.0047126235 0.023447359 0.35275218 -0.33104366 -0.13163373 0.30100083 0.40827793 0.11767314 0.22853065 -0.4379525 0.00063611026 0.025001202 -0.41774285 -0.13268206 0.006819201 0.05532425 0.17688191 -0.025947388 -0.13251744 -0.08878814 -0.1937759 0.06653727 0.35281798 -0.032200847 -0.23599617 0.21342652 0.47068313 -0.45081797 -0.44829327 0.1352435 0.033732273 0.06837741 0.2158882 0.19718887
邦 0.08786751 0.0027164023 0.05994205 0.21697608 -0.13896446 0.12840052 -0.2580604 -0.14767207 0.041724276 0.115620755 0.107531086 -0.480656 0.11359899 0.060607493 -0.03874254 -0.07989912 0.17647855 -0.07910184 0.16219208 0.013717984 0.17985573 -0.024863398 0.19120711 0.060477123 0.1773373 0.112367004 -0.124788195 -0.25467134 0.05399926 -0.36094913 0.027119251 0.016384907 -0.084964015 -0.20783997 0.057429463 0.29078937 0.16206421 0.009403429 -0.017537791 -0.13412331 0.3280776 0.22261272 0.046948604 0.012257887 0.042376835 -0.081137136 -0.17504582 0.21950457 -0.031344835 -0.07616246 0.15094012 0.07715377 0.027936038 -0.041971784 -0.18222082 -0.01996663 0.1449115 0.1327142 -0.28902113 0.22401156 0.021066017 0.068414755 0.059065957 0.030136734 0.030789565 0.0647368 -0.0077625285 -0.34213284 0.45609808 -0.09327678 -0.073585995 -0.14974947 0.33624065 -0.053850472 0.08315876 0.2408837 0.04642512 0.19174708 -0.1272077 0.02330004 0.05208076 0.121741325 0.13037059 -0.0821986 -0.18165874 -0.077450916 -0.012229933 0.14236455 -0.029471265 0.045358755 -0.038581077 -0.07338373 -0.49976566 -0.48807734 0.016776085 -0.018514253 0.092842445 0.069669224 0.09362905 0.073878475
亦 0.37171912 -0.05474891 -0.42630914 -0.20637968 -0.37032887 0.35062072 -0.38861278 -0.1699138 -0.099831745 -0.40774226 0.008779539 -0.36840463 0.38302124 -0.087458715 -0.36321512 -0.45980772 -0.3651703 0.36662596 -0.025155783 0.39631236 0.09778501 -0.38209945 0.45534864 -0.3156908 0.20245332 0.3187072 -0.37476784 -0.3506757 0.36023107 -0.44625714 0.3902109 0.42282638 -0.45353988 -0.33574852 0.42136532 0.022799438 0.4387822 0.13798638 -0.36199126 -0.3342921 0.39510688 0.24745978 0.40255538 -0.33431044 -0.3951561 -0.37839952 -0.3931154 0.37670004 -0.022687769 -0.11273498 0.44732606 0.43795967 0.3933818 0.45879975 0.27696836 -0.4150033 -0.3963488 0.3907499 -0.47554442 0.419132 -0.20624489 -0.33909243 -0.4700457 -0.06705833 0.37011045 0.020940574 -0.3135417 -0.002194462 -0.05166059 0.1262801 -0.4179283 0.33690885 -0.35320276 0.33060035 -0.10251355 0.36198536 0.36249194 0.17224102 -0.45991516 0.38085732 -0.41800356 0.09673577 -0.39257768 -0.42290136 0.0660059 -0.40501428 -0.39635593 0.41593382 0.35529914 -0.11349379 0.31026766 0.10276883 -0.07087859 0.36704645 -0.025830222 -0.3034959 -0.036718708 0.32044354 0.373433 0.2903948
使 0.062658116 -0.048768096 0.03647517 -0.13207147 -0.12528872 0.24576706 -0.30501586 0.121230215 0.033725057 0.04986914 0.15474801 -0.22442144 0.15185556 0.12207557 0.08285155 0.023085065 -0.083293274 -0.33159274 -0.10661565 0.10685394 0.29074737 -0.10705799 0.12734082 0.044624228 -0.1392411 0.0028575868 -0.02636845 -0.09801176 0.1941026 -0.018651517 -0.08103438 0.12519838 -0.0028448154 -0.2575501 0.049574744 0.35054561 0.0043983962 0.026446782 0.11117824 0.18690161 -0.09134341 0.033487625 -0.096967444 0.02188794 -0.10749531 -0.27677038 -0.18724906 0.23867375 -0.042848937 0.06597343 -0.047355246 -0.068025455 0.1578498 0.021796321 0.2699475 -0.2031587 -0.30485657 -0.023045104 -0.16920489 0.28731108 0.12561299 0.0060340106 0.011864812 -0.018847434 0.14132479 -0.119456224 -0.011666466 -0.11893846 0.22244255 -0.33349642 -0.09103082 -0.03578755 0.3954525 -0.0037205112 -0.014641865 0.39947003 -0.048580147 0.07435829 -0.317951 0.107676804 0.09869717 -0.031152444 0.027930712 -0.027192565 0.034796223 -0.13814019 -0.18794812 0.26585984 0.3647687 -0.22878437 -0.12603414 0.020721484 -0.46590754 -0.07788492 -0.31191498 0.12926891 -0.20740573 0.039638605 0.29500535 0.2828862
大 -0.46897775 -0.056888223 -0.24468619 -0.042795163 -0.08912328 0.048158083 -0.40381205 0.122108124 0.39790806 0.4435533 0.21315591 -0.36553353 0.013493461 0.16576378 0.48058626 -0.070884295 0.18689975 -0.03432121 -0.42057842 0.47273594 0.28137755 -0.23149164 -0.31950518 -0.47221118 0.1210666 0.12551142 -0.10355503 0.1975621 0.0983553 -0.45356184 0.58019435 0.20663707 -0.036770254 -0.28107083 0.27672076 0.5755891 0.058916416 0.24848984 0.5732719 0.07427648 0.0097191315 0.17139204 -0.6722087 0.46482858 -0.5424907 -0.26843616 0.40518102 0.37573123 -0.3809045 -0.49289462 0.110640585 0.16859391 0.2976662 -0.536078 0.5779086 -0.5914452 0.037746113 -0.12252579 -0.016117001 0.61847 0.32926238 -0.08077444 -0.23809607 -0.10291598 0.5944826 -0.20688058 -0.096246034 0.05708511 -0.2132821 -0.08040634 -0.15565152 0.3659854 0.3610081 -0.18212348 -0.078758225 -0.49900022 0.20382008 0.44922158 -0.80100363 0.3021323 -0.42424458 -0.0035366027 -0.30650055 -0.48544025 0.06341826 0.26782668 -0.55770284 0.10053151 -0.5749951 -0.37667468 0.023407646 0.23593248 -0.5712068 -0.055694234 -0.5102148 0.18667278 -0.42704085 0.12456915 0.5960055 0.462
下 0.036828898 -0.10872611 -0.021472216 -0.3318831 -0.34928173 0.26297095 -0.0864891 -0.16656938 -0.02005323 0.025657576 -0.30950576 -0.3828367 0.1252866 0.037309833 0.1307636 -0.22344472 0.09366639 0.0091472855 -0.17001666 0.02075402 -0.12637217 -0.018571863 -0.12020425 0.07903825 -0.004615305 0.28719643 -0.0063243476 -0.092708364 0.0067511853 -0.13243045 0.13279125 0.04884826 -0.22840703 0.015572295 0.00518582 0.122257106 0.11547222 -0.021261523 -0.038714774 -0.085393846 -0.014160395 -0.044403527 -0.2251871 -0.050273366 -0.037280746 -0.24341598 0.38489833 0.091353394 0.21703939 -0.20863628 -0.14092702 0.050024677 0.10538179 -0.46239832 0.012590236 -0.17447549 -0.018364575 0.09080497 -0.102918684 0.2138553 -0.016620604 0.06269666 0.027664015 -0.055928253 0.14300506 0.22904383 0.16021071 -0.39427152 0.24730344 -0.18804443 -0.0041188253 -0.052697565 0.048469484 0.055036653 -0.009924193 0.46512353 0.24657373 0.041732322 -0.13751727 0.269277 0.015499432 0.25298828 0.18759017 0.077120215 0.06371587 -0.08770993 -0.079520695 0.127083 -0.0679548 -0.061164066 0.079198234 -0.04919221 -0.3180555 0.0036042691 -0.40670824 0.14545272 -0.19575472 0.10250477 0.23701322 0.11993787
贡 0.062152345 -0.11214575 -0.20374817 -0.32666358 -0.23832312 0.297062 -0.12855922 -0.06533179 -0.0077498844 0.121647775 -0.034014307 -0.23860314 0.0679815 0.13656649 -0.10687177 -0.046287496 -0.027598184 -0.10135735 -0.069284834 0.145169 0.3284678 0.08342924 -0.008981757 -0.24937904 0.3367675 -0.03879441 -0.10590993 -0.09891705 -0.09908143 -0.27112854 -0.011980258 0.2085412 -0.099683434 -0.107686535 -0.08086681 -0.2282373 0.15185738 -0.24008365 0.053710245 -0.34665397 -0.019418586 -0.07264707 0.38509166 -0.11565516 -0.22867307 -0.19435683 0.23854938 0.3164624 -0.07805276 0.22095497 -0.035302028 -0.052379966 -0.09749587 -0.066832945 0.43482092 -0.050045308 0.16295715 -0.11860475 -0.11323784 0.23326138 -0.084607214 0.06734876 -0.23701088 -0.086662784 0.23927347 0.19228634 -0.0050036404 -0.29929906 0.0458233 0.27986252 -0.11129361 0.0856523 0.3920868 0.027999122 -0.063083544 0.43845984 0.0108722355 -0.1787978 -0.17155446 0.34056365 -0.34093836 0.00873896 0.1401641 0.012289065 -0.10028105 0.058972206 -0.36625564 0.34699807 -0.17085071 -0.04678965 0.14662382 -0.13388294 0.042230293 -0.50081646 -0.28572395 0.0008126276 0.021110669 -0.12429269 0.19906464 0.3062482
欲 0.24399573 -0.22084033 -0.05649876 -0.21540824 -0.18812907 0.48018542 -0.15280636 -0.23843046 0.02926813 0.18247832 0.0011169859 0.026242819 0.045582138 0.23650227 -0.2305005 0.20534803 -0.153591 -0.5606008 0.076411106 0.28231564 0.7393238 -0.007590508 0.23606037 -0.22451784 0.6049196 -0.0613738 -0.33536184 -0.2275141 0.09624072 -0.080355905 -0.36863545 0.08340226 0.12913221 -0.33752084 0.16853158 -0.15640135 -0.093950145 -0.11712648 0.1476204 -0.5434803 0.29579955 -0.020914584 0.7045176 -0.007259663 -0.29359496 -0.35932162 0.41430795 0.111458436 0.11862995 -0.051024072 -0.21486029 -0.18133895 0.26436043 0.076669864 -0.24766578 -0.2758815 -0.032081455 -0.09879924 -0.056459453 0.17875198 -0.11602044 -0.21591485 0.0019533404 -0.2498944 0.079733856 -0.13062197 -0.26002064 0.198859 0.35341832 0.21229075 -0.050954353 -0.2470879 0.12117437 0.14607982 -0.049909063 0.58727986 -0.20959212 -0.33714435 -0.33617672 0.23151825 -0.08435672 -0.07578456 0.37128526 -0.35227793 -0.07386933 -0.41576597 -0.16637246 0.0049724607 -0.06995293 -0.08622351 -0.20784098 -0.052539945 0.34001982 -0.057875723 0.2922988 -0.2357873 -0.64513713 -0.028121382 0.077793345 0.15500452
诸 -0.10336417 -0.09909682 -0.041920315 0.36360338 0.02373136 -0.048528094 0.033079147 -0.03884508 0.07614116 0.3042008 -0.05909625 0.18743618 0.056791175 0.32998362 0.2744657 0.06596091 0.30159876 -0.14513783 0.10115228 0.03305817 0.41179043 -0.015738657 0.5240598 0.07981105 0.16780268 0.2054059 -0.26164082 0.23141527 0.029755896 -0.31653488 0.1603628 0.25143674 -0.09214416 0.04901559 0.2983022 -0.031536866 0.0067126565 -0.13803673 0.034805615 -0.3401758 0.03856056 0.054650635 0.026534667 0.05465223 -0.039876927 -0.27012655 0.48777378 -0.09749899 -0.17034835 -0.2585377 -0.03931761 -0.2782353 0.04393405 0.1921276 -0.19208387 -0.40187302 0.17543328 -0.11909743 -0.15349048 -0.069041766 0.045279592 -0.10358144 0.038772106 -0.079886615 0.22519837 0.09919084 0.0900398 0.19352473 -0.14757651 -0.0645745 0.030530399 -0.48513788 0.37445527 0.027341146 0.12362764 0.48508906 0.08098223 -0.21640037 -0.4917426 0.32789782 -0.1383047 0.3396256 -0.41389307 -0.024055896 0.05976348 -0.019503854 -0.26145875 0.008308338 -0.18195735 0.082177974 -0.25339672 0.025531294 0.02023221 -0.36990616 0.13185175 0.04219937 -0.2209208 0.03496081 0.35908177 0.04622713
从 -0.2621719 -0.04533479 -0.32997507 0.34462953 -0.2685845 0.097840905 -0.023113342 -0.23004113 0.33618498 0.36239257 -0.12719502 -0.00246163 -0.18329294 0.04941299 0.26060903 -0.33024985 0.17082907 0.2116932 -0.007506874 0.12692991 0.09484663 0.24990624 0.2473111 0.20902207 0.37344965 0.21365398 0.06127333 0.2845895 -0.30371395 -0.2557806 0.3047747 0.2644131 -0.32683414 0.43616533 -0.09332785 0.14944585 0.11837672 -0.05797479 0.23527925 -0.31314972 0.011230845 -0.09317558 -0.24642575 0.07275442 0.12023358 -0.15604998 0.16228004 0.27167723 -0.3431332 -0.13057089 -0.17105323 -0.2940706 0.026486652 0.047094814 0.36621282 -0.3284027 0.36255637 0.034352474 0.023595404 -0.27958846 -0.11320935 0.0056537515 -0.049790062 0.14632918 0.37306207 0.36244157 0.26694638 -0.12398573 -0.32944465 0.18669121 0.24632819 -0.35088387 0.33140805 0.05906856 0.022169126 0.18302804 0.12524202 -0.20373134 -0.4491384 0.28167397 0.123265475 0.18142703 0.05159406 -0.07527414 0.24840836 -0.008378931 -0.32237324 0.27014515 -0.28364062 0.028541228 0.4130954 -0.17673144 -0.47326368 -0.47161052 -0.3828993 0.06959293 -0.45767614 -0.051028207 0.40821788 -0.029417329
文 -0.05434746 -0.032120343 -0.07932381 0.3029553 0.1608987 0.13914603 -0.21791689 -0.18347296 0.26590598 0.14191468 -0.23545776 -0.0017407477 0.030151887 0.2560349 0.22041574 0.0009328961 -0.0496351 0.23096244 0.13223076 -0.16518274 -0.003283948 0.029954825 -0.17322113 0.21109612 0.33733228 0.314743 -0.031261567 0.041434985 0.048870906 -0.4164555 0.07410633 0.33398497 -0.24120753 0.45497242 0.0147558 0.17939582 0.27503756 -0.021359125 -0.31615192 -0.053514943 -0.03117231 0.020032382 -0.13268054 0.1838454 -0.18974967 -0.11630657 0.20463593 0.12856872 -0.196586 -0.13532038 0.020585356 -0.011857495 -0.11332738 0.29361495 0.25191087 -0.31684363 0.024974033 0.090370946 -0.37829527 0.0007708978 0.008116433 0.082194164 -0.15828781 -0.06353727 0.37338048 0.3048806 0.019500338 -0.15369329 -0.28907168 0.2178165 0.34587914 -0.4584845 0.44691584 0.0054073515 -0.040242128 0.37924117 0.2389023 -0.29564652 -0.5095873 0.2274452 -0.2955571 0.2340028 0.3642901 0.018907605 0.14603284 0.028214274 -0.29909885 -0.06626462 -0.02154799 0.060719088 -0.24790077 0.14290026 -0.4717425 -0.50634193 -0.2708913 -0.030473884 -0.04260495 -0.055738967 0.35228848 0.40053433
政 0.042640533 -0.10199153 -0.26952484 -0.09343448 -0.17218335 0.176613 -0.19817783 -0.45272365 0.3921477 -0.4576144 -0.120200455 0.38202727 -0.27044356 0.24496064 0.28732085 -0.15524966 0.32421026 0.42128077 0.27996892 -0.3519239 0.09199848 0.20234065 -0.18647705 0.25375032 -0.3596939 0.3415901 -0.24542616 0.28700784 0.27699226 -0.31899977 -0.344303 0.1938977 -0.15853171 -0.023191031 -0.11348931 0.3434871 -0.13710102 -0.016732706 0.14775251 -0.25205836 0.026164344 0.313148 0.11419323 0.3405636 -0.0098212175 0.3489087 0.45863518 0.39752397 0.0596764 0.38332093 -0.23411795 -0.30107078 -0.09543963 0.4141644 -0.17528935 -0.33651444 -0.24477422 0.31036523 -0.13379294 -0.27901763 -0.2717192 -0.1455348 0.18751304 -0.41236898 0.41294637 0.27649385 -0.08421009 -0.10816268 -0.053682536 0.31449696 0.40366015 0.2754653 0.39160675 0.35836822 -0.12709305 0.44847986 0.20685841 -0.11349959 -0.46160033 -0.18677753 -0.41090137 -0.34404182 0.43073878 -0.3770631 0.16180284 0.0018659554 -0.41313598 -0.1691448 0.07092741 0.32434654 -0.16289161 0.1359805 0.12003234 -0.40956464 -0.22574446 -0.23205836 -0.08004546 -0.3475914 0.26129806 0.097318746
食 -0.24732263 -0.06798392 -0.66093606 0.44170833 0.005723833 0.22681595 -0.6748325 -0.6021416 0.42263713 -0.6086536 -0.41029432 0.40248933 -0.39560834 0.1096812 0.5797584 0.11767921 0.12906379 0.6066142 0.0008486831 -0.500293 0.22829172 -0.10780106 -0.43927228 0.56102365 -0.63936865 0.6703639 -0.5704162 0.6318378 -0.5397264 -0.534103 0.67725104 0.53448814 -0.60149634 -0.081875764 -0.24555466 0.6850059 0.63593686 -0.22865683 0.19331612 -0.20231035 0.36732972 0.13181224 0.019741584 0.5446878 -0.51322 -0.42751724 -0.4887771 -0.5351432 -0.21923344 0.1367169 -0.26997307 -0.7738369 -0.47665152 0.44385213 -0.3614356 -0.67202604 0.5793832 -0.011989361 -0.4490431 -0.11237801 -0.37991592 -0.548733 -0.4282423 0.73781157 0.48560643 0.5580283 -0.048377573 -0.80294096 -0.01914338 -0.01590268 -0.3156724 -0.140492 -0.51396906 0.22786085 -0.23882437 0.58940727 0.54550904 -0.043948226 0.021894205 0.6622843 -0.2078668 0.27346236 0.66073 0.2674352 0.5748098 -0.5307461 -0.68525314 0.55920535 -0.4765708 0.37947765 -0.34996274 0.65601856 0.30411923 -0.5715256 0.17824663 -0.36962935 -0.3885706 -0.10431499 0.50672686 -0.45096067
善 -0.20026349 0.118342735 0.38816684 0.3643192 0.43892723 0.4811142 -0.23955712 -0.45240644 0.3918693 0.31009454 -0.21241027 0.1004409 0.24434988 0.42024016 0.40417817 -0.33981207 -0.21230154 -0.44610843 0.4066741 -0.44254544 -0.02675384 -0.4879308 -0.24843508 0.36077544 0.3760728 0.32933104 0.33120063 0.25526297 0.4379478 -0.36037746 0.040425748 0.31405002 -0.3601618 0.18877976 -0.032757953 0.2852443 -0.08546048 -0.10363065 -0.105499454 0.3917211 0.3675874 0.28418142 0.43267182 -0.049725633 -0.122090444 0.23789401 0.4714066 -0.45258516 0.46549883 0.47821236 -0.20704359 -0.09561505 -0.36061925 0.3278097 -0.46322155 -0.33056673 0.3416634 0.07674372 -0.20840529 -0.37591547 -0.05003272 -0.46780962 0.41746795 0.19596155 0.2608789 0.3725522 0.36638877 0.47701105 -0.42771888 -0.16345973 0.24128638 -0.42416093 0.38154742 0.48625693 0.3404176 0.45733044 0.19080432 -0.22531293 -0.45719612 0.20574054 0.42789295 0.29505578 -0.088218376 0.21492894 0.04765711 -0.480632 -0.32051283 -0.38839427 0.31985492 0.4467192 -0.40883562 0.27070028 -0.3436935 -0.020796396 0.48363355 -0.40646562 0.07163687 -0.4521624 0.34806627 -0.470147
后 -0.1587235 0.114084214 -0.1168639 0.4280663 -0.016813932 -0.017503386 0.00045754347 -0.36665127 0.44127306 0.20772077 -0.058683123 0.121100865 -0.1300697 -0.0018862076 0.2910088 -0.017445479 0.19277233 0.40398842 0.07397583 -0.06423341 -0.3024726 -0.058623135 -0.20890048 0.34650326 -0.41002274 0.32316515 0.26082566 0.15788311 -0.012775099 -0.09005804 0.0603808 0.2901403 -0.29275578 0.4686757 -0.18990302 0.08235417 0.17126845 0.34287962 -0.36962757 0.25953883 0.20039982 0.11375552 -0.33319554 0.11369534 0.11736389 0.030546758 -0.47440574 -0.28935567 0.004812473 -0.48611093 0.15491408 -0.009983046 -0.07291466 0.11316814 0.032297872 -0.15891828 0.09240675 0.22789317 -0.27650318 -0.18066794 -0.006527062 -0.13756533 0.058892738 0.08616735 0.22089234 0.1411065 0.14187273 -0.098802336 0.14586993 0.45454586 0.07187261 -0.45229396 -0.18587293 -0.059808213 -0.06195401 0.24838105 0.3092728 -0.009067701 -0.2220934 -0.05585046 -0.21464576 0.30848387 -0.05305651 -0.1737757 0.106914155 -0.035667647 -0.33216047 -0.16062427 -0.09074498 0.1911974 0.3626405 0.024189407 -0.4324522 0.40925056 -0.24001826 -0.110908754 0.06792766 -0.05845439 0.35192826 -0.35451546
德 -0.343622 0.00018039306 -0.08674876 0.5952545 -0.07710365 -0.28432414 -0.11922708 -0.8803872 0.2965395 -0.6163779 0.5525901 0.6232415 -0.08351892 0.6494397 0.5221279 -0.065220326 0.5486709 0.73784155 0.0124483695 -0.030938398 -0.3219143 -0.67275834 0.01708618 0.62513644 -0.62352407 0.5283753 0.19137573 0.23914513 0.17564408 -0.29925415 0.1647954 0.5135942 -0.386824 -0.026557026 -0.26328102 0.63593966 0.29591498 0.33930492 0.12952925 0.46368217 0.1411708 0.3773746 -0.5859168 0.24149689 0.11064458 0.05061127 0.22474124 -0.3921762 0.44295397 -0.3554494 0.14361931 -0.4486924 -0.36929765 0.6136943 -0.081855446 -0.09447047 0.3342465 0.076210395 0.40962547 -0.009035578 -0.48247302 -0.43334818 0.9070062 -0.12690674 0.5327154 0.6224548 0.26815954 -0.404359 0.15404181 -0.12547077 0.21441376 -0.6220598 0.76722836 0.64810324 0.04318576 0.62340695 0.47074938 0.8294119 -0.69987595 -0.08069363 -0.7769645 0.0634188 0.63785315 -0.33977523 0.26488957 0.011659837 -0.4120139 -0.14518355 -0.13804777 0.56135315 -0.10451149 0.49543843 -0.3875204 0.08475645 -0.50527763 0.02188693 -0.25247467 0.15448688 0.5891026 -0.27730933
求 -0.0018045604 0.01983752 -0.036597904 0.20386481 0.1816109 0.024103746 -0.08968979 -0.16964228 -0.24402808 -0.38201743 0.22800732 0.38058797 -0.03483521 0.12488604 0.041487582 -0.1456442 0.13842352 0.45446965 0.12116017 0.104362845 -0.26368764 0.07666641 0.14224273 0.09467525 -0.26924503 0.113217644 0.1707632 0.043974746 0.09633421 -0.07130346 -0.48849672 -0.036177665 0.0078053987 -0.21422045 -0.022820994 0.1698944 -0.053608984 0.20585775 -0.17693056 0.16116121 0.27134272 0.20872077 -0.087718345 0.26305366 0.05567546 0.1764144 0.49042833 0.24210946 -0.077650934 -0.3725329 0.14324166 -0.105427876 -0.057066962 0.34973946 0.09924342 -0.074712135 -0.06685171 0.08312935 -0.20808317 -0.03523014 -0.044407893 -0.04672874 0.111031115 0.00082243915 -0.0076177083 -0.04609357 -0.11097384 0.057252277 0.02607522 -0.37675312 -0.043802056 -0.45833442 -0.09542372 0.13100411 0.047001492 0.5134698 0.028533736 0.13065222 -0.24158819 -0.19934374 -0.4087927 -0.028771354 0.26411292 -0.28952014 0.089227326 -0.08656149 -0.24656424 -0.07497996 -0.037560664 -0.007676731 0.32709482 0.071469374 -0.116383225 -0.44633374 0.10577312 -0.020540135 -0.032171063 0.08466792 0.06328222 -0.07878877
对 -0.14553596 -0.063386805 -0.17430826 0.47926095 0.04806944 -0.31804144 -0.27033556 0.099277265 0.19462007 0.30443564 0.14353111 -0.034897026 0.050531562 0.17430757 -0.026627675 -0.26375943 0.10593497 0.111389324 0.19787282 0.013558989 -0.15060048 -0.30454743 0.18283859 0.06152984 0.11275548 0.3654119 -0.0962564 0.2587376 0.19457035 -0.0788185 0.49206403 0.098482706 0.06096324 0.23080944 -0.11972565 0.120248616 0.2614298 0.2512591 0.07500308 0.13026989 0.09156007 0.059194595 -0.057007305 -0.24012654 -0.020001084 -0.09596774 0.3544568 -0.4955813 0.26756597 -0.43203205 0.013439716 -0.14361306 -0.1927197 -0.055830892 -0.17003019 -0.21241346 0.10194093 0.13627033 -0.26173416 -0.16644402 0.1368149 -0.059319325 0.12591055 0.17564332 0.12176141 -0.10966308 -0.048315994 -0.010834719 0.24960749 -0.3293211 0.016881183 0.48762935 0.078876235 0.16363099 0.06582426 -0.395829 -0.12495586 0.3036379 -0.21367198 -0.20743024 -0.3525404 0.1041164 -0.29398948 -0.4264478 -0.08950683 -0.012463507 -0.19233012 -0.10157211 0.20943595 -0.2574073 -0.10394372 0.16235176 -0.39169183 -0.3667025 0.07271895 -0.06422276 -0.18031506 -0.030559305 0.34276932 -0.30524066
恶 -0.09245205 -0.06333645 -0.1857264 0.41769996 -0.3463433 -0.08829646 -0.03657153 -0.3813974 -0.08295098 -0.37307727 0.25442052 0.026110653 0.062882125 -0.01577007 0.25955606 0.14228842 -0.41175917 0.40288448 -0.33843398 -0.20184958 -0.38902482 -0.40859705 -0.13029504 0.096025005 -0.32790825 -0.16351974 -0.03071574 0.1409799 0.22898912 0.3621637 0.45421192 -0.009080865 -0.05160315 0.22796364 -0.3327571 -0.077631615 -0.0714094 0.39118063 -0.32551563 0.04805614 0.43327144 0.40166953 -0.3830556 -0.17546232 0.04981914 -0.0033301585 -0.31492475 -0.45473027 0.23796062 -0.20234318 -0.07653036 -0.3297817 -0.15955368 0.13730767 -0.21089077 -0.0011515801 -0.029025622 0.09605882 -0.108168766 -0.19441862 -0.13215755 -0.13196865 0.36695525 0.21390072 -0.025517035 -0.35181662 -0.30052933 0.3686559 0.08949712 -0.33139956 -0.010165416 -0.42855996 -0.4453434 0.34972313 -0.017506829 0.027782599 -0.3236906 0.38985002 0.038628634 -0.30225185 -0.081393525 0.1221312 -0.31019995 0.022567015 0.24073286 -0.29106006 -0.3947031 -0.3650635 -0.24718997 0.043604862 -0.155508 -0.13280022 -0.46531516 0.39913318 0.31214568 -0.2526777 -0.19762564 -0.105489835 0.27246693 -0.3662633
信 0.079383776 -0.0017107592 0.09013156 -0.12018612 0.23851636 -0.09032294 -0.13569827 -0.10109903 -0.12929332 -0.32553166 -0.12605828 0.36092722 -0.11829337 0.17440581 0.1420225 0.17776188 -0.22261381 -0.30257276 -0.118134 0.08346919 -0.1259181 -0.34104374 -0.18702503 0.06495169 0.083342366 -0.13520832 -0.081040606 0.09488556 0.13153668 0.020658331 0.42207754 0.16025808 0.023191473 -0.34348133 0.033018097 -0.056458004 0.094125025 0.036472123 0.13058697 0.16789337 0.059135243 0.029760655 0.2969766 0.09157089 0.11973975 0.04593681 0.4672416 -0.3435342 0.26596853 -0.515812 0.025922367 -0.07815938 -0.1384569 0.033764634 0.077370726 -0.0061614234 0.009027633 0.20710792 -0.2722435 -0.14989907 -0.1846264 -0.132954 0.2420283 0.17876413 -0.12836798 -0.05358603 0.0064560445 0.14863832 -0.072298914 -0.24228601 -0.16791567 -0.21945572 -0.011438233 0.20950793 -0.011958358 -0.36304432 0.09718473 -0.15812403 0.13067676 -0.19384064 -0.07724239 0.05173461 0.41008094 -0.095034115 0.15557136 -0.19478837 -0.15950769 0.0037734986 0.12689495 -0.09499618 0.13431959 -0.039462104 0.09974885 -0.108557425 0.07406454 0.1578183 0.059669018 -0.01231228 0.097067595 -0.38413885
死 0.08670138 0.00048413803 0.09617351 -0.27907452 0.31395116 0.0061482578 -0.34733233 -0.12261476 -0.46836522 -0.47188103 0.42848617 -0.16555081 -0.09705472 0.2716796 0.15869062 -0.026517022 -0.25840995 0.7951009 -0.28560326 -0.1888462 -0.25744018 0.19429563 0.42549625 0.25133118 -0.49452394 -0.22142826 0.11060778 0.107390285 0.33242366 -0.027774034 0.4039851 0.0663255 0.33357254 0.08330336 0.002485076 0.2709928 -0.23047258 0.5903876 0.16600305 0.050230946 0.14364858 0.18230742 -0.37658867 0.13704297 0.22274794 0.109506905 0.04076057 -0.2978494 0.60299486 0.3801138 0.05058987 -0.40010265 -0.2580559 0.38307196 0.067291036 0.27988392 0.21433295 0.102579065 -0.52132004 -0.1457144 -0.102204755 0.36921975 0.50750273 0.26964608 -0.063405946 -0.114846446 -0.014287132 -0.20316216 0.111812994 -0.30743718 -0.089498386 -0.69335675 -0.70890766 0.009365931 0.0051431395 0.089157924 0.102068 0.5141776 0.09141437 -0.086759955 0.38142934 0.31506243 0.6827535 0.28902346 0.2107041 -0.15139966 -0.26015365 0.14009368 0.121121794 -0.27884534 0.4063387 0.14977638 -0.4743399 -0.28993326 -0.26308945 0.2933245 0.6472142 0.15218419 0.21562898 -0.051074043
然 -0.045996062 0.011282469 0.14157018 0.21621916 0.24257909 -0.2900861 -0.15891099 0.13616584 -0.05084681 -0.45261395 0.25995368 0.25300688 -0.053664614 0.059917327 0.06900594 0.013346766 -0.17657109 0.28455293 0.05517672 0.18642469 -0.32130325 0.22331993 -0.095878504 0.08978728 -0.06933125 -0.18294308 0.03219929 0.08997948 0.052085973 0.050277714 0.2775976 -0.1497578 0.38020167 -0.29774094 0.16016202 0.16493891 -0.16333498 0.2736884 0.13719516 0.028598718 0.19959724 0.105168216 -0.1846994 0.10656086 0.07091147 0.15641442 0.3334003 0.41889638 0.17599411 -0.40639332 0.12049099 -0.09609259 -0.13162118 0.12722823 0.00010945718 -0.16868807 -0.041489724 0.06283398 -0.18206498 -0.13049088 0.01652734 0.007512962 0.30833858 0.011497465 -0.0669016 -0.39303026 -0.08235007 0.11676286 -0.46341112 -0.323146 -0.19395389 -0.3788036 -0.37728602 0.07411894 0.063051336 -0.51096064 -0.07166626 0.08247541 0.15097612 -0.08267246 -0.22298346 0.015712773 0.16161941 0.05736362 0.09032562 -0.06469203 -0.2068866 -0.012096432 0.35446507 -0.29827064 0.31182548 0.14787191 -0.33691218 -0.40278274 0.2906203 0.18251553 0.42930567 0.3386243 0.10861273 0.104035825
《 0.04096074 -0.12393529 0.06918729 -0.41840824 0.070169576 0.034081474 -0.11713677 0.0065129576 -0.33527595 -0.50265455 -0.14763625 0.23523188 -0.03474221 0.09412421 0.15413554 -0.07684826 -0.44976127 0.380133 0.09420003 -0.026215674 -0.12303338 -0.08745958 0.4775849 0.2999837 0.11874605 0.022850158 0.07405373 0.043790292 0.31611875 0.111164525 0.15480419 0.2967914 0.36221194 -0.21558702 0.24901131 0.21838881 0.012216389 0.0010905956 0.0054566404 0.13378857 0.34900495 0.06228686 -0.3712757 0.18490656 0.10094632 0.03576263 0.21516189 -0.054118168 -0.02117929 0.33991763 0.02191021 -0.18827942 -0.09344067 0.30550653 -0.19621125 -0.09496324 -0.04892323 0.06733296 -0.35609004 -0.097103484 0.008324319 -0.02143943 0.3153201 0.06268754 -0.032208536 -0.38986558 -0.14619601 0.16619441 -0.0283897 0.10619009 -0.120161705 -0.33189023 -0.2780888 0.13517128 0.16937302 0.0041642464 -0.0395215 0.046903268 0.096075565 -0.32754818 -0.168089 -0.049997784 0.345844 -0.25176567 0.07665039 -0.16624156 -0.19661763 -0.16747218 0.22183084 -0.06627078 0.35151798 -0.0119711505 0.41270378 -0.14825425 -0.24019744 0.12738207 -0.08906424 -0.029638827 0.06728103 0.07804134
