1352 100
， -0.44654965 0.5303904 -0.40641078 -0.016704597 -0.3820507 -0.46150988 0.11000489 -0.40993688 0.5166721 0.54897714 -0.28566906 -0.5672552 -0.22972307 0.37103203 -0.56536376 0.55623126 -0.5479864 -0.45223498 -0.2766607 0.22675191 0.0342556 0.56138027 0.4670258 0.5069796 -0.38718456 -0.054925743 -0.50253475 0.5582816 0.51396656 -0.40564567 -0.5612518 -0.49439603 -0.5470922 0.10185664 -0.45652092 -0.5706613 -0.018835355 0.55809915 0.40317717 -0.40715212 -0.5342142 0.17684953 -0.41183224 -0.31257278 0.5085719 0.49796075 -0.57159066 0.43041852 0.52535874 -0.5543184 -0.5595055 0.51591426 -0.29512426 0.39151126 -0.3651923 0.5585404 0.56629795 0.32589942 0.49148408 0.43163544 0.5210087 -0.23416905 0.33816436 -0.5678832 -0.50081545 0.4239589 -0.53035575 -0.5639653 0.33455542 0.43151462 0.29805398 -0.558505 -0.041691616 -0.521365 -0.46591875 -0.4287501 0.46339765 0.059349325 0.5413829 0.5315625 -0.2428641 0.38660374 -0.18600458 0.4954797 -0.55391777 0.08267667 -0.42282814 -0.54724056 -0.54858816 -0.15968958 -0.5094148 -0.35992783 -0.08710001 -0.42732504 0.55076605 0.49171567 0.12375322 -0.46248436 0.4480691 0.108646154
子 0.55775887 0.5511162 0.05914778 -0.52008253 -0.56539804 0.5377228 0.33197942 -0.32410204 -0.5929703 0.21290801 -0.50704724 0.24899478 0.18937573 -0.0892869 0.32733437 -0.4100913 0.5065937 0.5399878 -0.4741662 0.5460069 -0.5756486 0.57579225 -0.5003017 0.016655382 0.43302384 -0.5673893 0.58200294 -0.52805334 -0.49220842 -0.07743059 0.5379864 0.5083148 -0.6047014 0.49066117 -0.50787425 0.3715751 -0.17185107 -0.5279141 -0.593609 -0.576333 0.526377 0.32728973 -0.351721 0.32043839 -0.26681283 -0.35778332 -0.5784104 -0.60998166 -0.4832319 0.5527058 -0.55094403 -0.59618556 -0.3939182 0.5512383 -0.5821457 -0.5292883 0.5772472 0.4341099 0.18561569 0.3995047 -0.19251789 -0.36929893 0.5261807 0.42205113 0.45309734 -0.5606324 -0.55460596 0.51883584 0.29047978 0.47238272 0.5406772 -0.10392383 -0.5373236 0.08484714 -0.5205289 0.50698185 0.5064389 0.59341806 0.62049603 0.4991605 0.3087073 0.37705407 -0.5963374 -0.57868415 0.37163067 -0.31486773 -0.57073617 -0.45493 0.022398828 0.6013204 0.5332814 0.53572637 -0.49788702 -0.5508947 -0.46087354 0.44203347 0.5174848 0.5317898 0.3453495 -0.49718267
。 0.29950505 -0.013109045 0.11863619 -0.115297854 0.036656357 -0.1607127 -0.28261107 0.005386632 -0.30506507 -0.27503425 -0.28264236 -0.279033 -0.10289007 0.2739423 -0.09492645 0.28364128 0.25160047 -0.3044352 -0.30481586 0.13648045 -0.045582112 0.26328802 0.29932874 -0.15887576 0.2837619 -0.13883244 0.27465013 -0.2505588 -0.30759308 0.2689866 0.28235886 -0.075401545 0.30906513 0.30788738 0.09902037 0.3247742 0.16269605 -0.22309321 -0.19904588 0.043949552 0.27962944 0.31549367 -0.2054371 0.26894733 0.2848759 0.31234342 0.32894218 0.27682358 0.25558 0.2781869 0.2911343 -0.26901725 0.2921174 0.28997666 0.13023931 0.26300117 -0.2883727 0.1562141 -0.13441011 0.2940243 0.1219111 -0.32661054 -0.26487616 0.30000824 0.26142743 0.29087135 0.13819404 -0.16006489 0.0055359784 0.18179354 0.2942306 0.29631338 -0.25451633 -0.15080577 -0.07957083 -0.32010219 0.02445672 -0.1299675 0.2941217 -0.25630206 -0.27122697 0.12825473 0.33525735 0.28294754 0.35686505 -0.030984702 0.26253775 0.07107051 -0.26292264 -0.029302195 -0.22789714 0.29138806 -0.29332387 -0.2817436 0.07485554 0.06524392 -0.085339166 -0.28707144 -0.05801268 -0.28615612
： 0.26483637 0.32295498 -0.31348905 0.30795237 0.26925552 -0.09984438 0.29788968 -0.323208 0.2618641 -0.31418246 0.22920893 -0.27390212 0.17285179 -0.2675585 -0.099268004 0.06914971 -0.015078228 0.1402613 0.3095094 0.317927 -0.28639883 -0.28480163 0.102459796 0.12591867 0.30775344 0.27187166 -0.26338533 0.30116677 0.26628834 -0.28956375 -0.2621868 -0.09263641 0.30621377 -0.26845798 -0.16169935 -0.29061362 -0.3018188 -0.17797953 0.18145648 -0.22357826 0.31717065 0.3125662 0.31342348 -0.32104808 0.2586726 -0.25743294 -0.31764618 0.30312675 0.12293923 -0.26699317 0.05867462 0.3126791 0.2883379 -0.3091017 -0.060035508 0.25243124 -0.24629594 0.024283422 0.35310477 -0.14122206 -0.32807103 -0.34037212 0.24129145 -0.26243597 -0.04914939 -0.27622 -0.2523321 -0.29321045 -0.27765697 -0.013910934 -0.2768313 -0.28806347 0.23439853 -0.09627645 -0.19516338 0.31458566 -0.2129695 -0.28211066 -0.24903063 0.27372783 -0.33387026 -0.29013678 -0.31709072 0.26497683 0.22769481 -0.31754518 0.28559414 -0.30386811 0.1978503 -0.2944233 -0.27661404 0.1900474 -0.15608616 -0.075224325 -0.3195227 -0.14533655 -0.31494212 0.25644758 0.113915116 -0.25361556
曰 0.24989441 0.3185054 0.30173576 -0.26501706 -0.29463115 0.26080516 -0.3086478 -0.27926853 0.2744216 0.322319 -0.0013041212 -0.3005405 0.29844844 -0.26951414 0.31651226 -0.24767505 0.12858464 0.17743364 -0.09637843 0.2908862 0.28968737 -0.31045535 -0.28411958 0.31564695 0.2896006 0.25083974 0.29533577 -0.29230037 -0.3099581 0.28416213 0.1387081 -0.31821737 0.012520025 -0.21479866 0.26322013 0.30115032 -0.29751146 -0.28429568 -0.27952942 -0.27087656 0.18997414 0.28929207 -0.139466 0.26020214 -0.20800656 -0.2687663 -0.16723669 -0.1160631 -0.28426513 0.26281306 0.27098554 -0.30718544 -0.14254735 -0.28336868 -0.09413085 0.15463926 -0.24201345 -0.23616824 -0.080330916 -0.0810678 -0.33300796 -0.21848135 -0.31168646 -0.3292107 0.28965712 -0.30889368 0.1751757 -0.20383686 0.2862062 0.076792896 0.22680111 0.28566793 -0.28503346 -0.064120546 -0.04094782 0.29421905 0.26757598 -0.28643516 0.30963972 -0.30485255 -0.25376916 -0.29664394 0.2951733 -0.27388203 0.25232345 -0.2970507 0.34721962 -0.29136863 0.27984342 0.28309906 0.22059822 0.20863481 0.30502588 0.2960093 0.2802377 0.29234803 0.2930551 0.14594398 -0.18700632 0.118359484
之 -0.3143339 0.051774953 0.038369402 0.319541 0.29420155 -0.041398548 -0.30783072 -0.3228278 -0.2966864 -0.078503355 0.06589541 -0.30527118 0.30171025 0.05661489 -0.24436107 0.30400982 -0.2992618 -0.24582237 -0.19054374 -0.18946716 -0.30782214 -0.30070344 -0.312576 0.16162226 -0.28505227 -0.3349615 0.31001848 0.3105331 -0.3168171 0.3119523 0.014217126 0.31851068 0.33723065 0.3168071 0.2712291 -0.30522916 -0.30591464 -0.2902731 0.32052165 0.12167952 0.12913321 -0.041438032 -0.2290712 -0.30270398 0.30595934 0.1633703 -0.31782696 0.31690633 -0.21047384 0.24311873 0.030503571 -0.34500703 0.26295793 -0.2215638 0.30625933 0.3210787 -0.3023735 -0.037554678 -0.27932566 0.28895023 -0.23507506 0.2926092 0.2686212 0.28367007 -0.346546 0.16459908 0.29916582 -0.30609754 0.3117077 -0.27017552 -0.18301143 -0.3193929 -0.11073261 -0.2896406 -0.24419993 0.30653733 0.29302087 -0.30627012 0.3142888 0.052227024 -0.3180912 -0.30937004 0.018359963 0.3166546 0.30334753 -0.23699252 -0.32046202 0.31257108 0.33604038 0.2837506 -0.28201306 0.27589643 -0.2764673 -0.28696585 0.18148515 0.13995428 0.2478674 0.28653017 0.31341958 -0.18347713
不 0.06779299 0.13038495 0.040965267 0.11108289 0.10997284 -0.110993624 -0.07555566 0.007638249 0.08129508 -0.0006912665 0.06534496 0.05855603 -0.11325869 0.04460197 0.15523532 0.10184784 -0.09000346 -0.17681213 0.12673114 0.08403056 0.19653578 -0.12726945 -0.018633788 0.026148535 0.22086087 -0.009205614 -0.068731256 0.10187721 0.11170333 -0.10861861 -0.059214115 0.11071785 -0.12875451 -0.024645917 0.04056028 -0.15299939 0.15926702 -0.09304503 -0.0035512764 -0.029435864 0.111648284 -0.044138703 0.10629456 -0.0350168 -0.101987936 -0.14024572 0.14677876 0.070491016 -0.10716532 0.13626641 -0.114239685 -0.2575952 -0.13747731 -0.15562783 0.06412203 0.07148078 -0.040787138 0.12715815 0.14733805 0.13709639 -0.067202225 0.034905657 -0.038380604 0.05131337 -0.07794342 0.10379959 -0.09696687 -0.08962317 -5.3205295e-05 0.05191614 0.11153162 0.080359936 -0.0068624886 0.25220934 0.07298251 -0.0049930178 0.048350178 -0.10039136 0.09295268 0.26094824 0.101149656 -0.10803957 0.08818443 -0.12955922 -0.0076840403 -0.1202109 0.008425108 0.033672426 -0.022308318 -0.09844652 0.031976815 0.13267559 0.07385553 -0.037485003 0.12795287 0.112553455 -0.101333834 -0.10467606 0.04039459 -0.05953378
也 0.29947016 -0.20258744 0.2979375 0.09336744 -0.30983284 -0.30372578 0.3069136 0.15781423 -0.29922953 0.31875816 -0.060654476 -0.2260882 0.12692448 0.2731932 -0.11596914 0.30160686 0.17247732 0.30297458 0.23058122 -0.22935596 0.25566614 0.110729806 0.29947174 0.2942251 0.28004566 -0.29286727 0.13242958 0.28881812 0.1326847 -0.3481584 -0.20850563 0.044060342 -0.31922466 0.21679059 0.18537602 0.2760971 0.29292962 -0.039033353 0.29640993 0.27627048 0.08201991 -0.080587536 -0.12375961 -0.26433092 0.24898231 0.3162675 -0.03446181 0.23171963 -0.16577053 0.003049778 -0.23845844 0.13551822 -0.17857878 -0.2510302 0.2768246 0.2788221 -0.20801483 -0.35864645 0.1591908 0.09482698 0.25312856 -0.29535514 -0.12822361 0.24127261 0.24056613 -0.18882553 -0.12048125 0.20464121 0.28389513 -0.2897881 -0.26824865 -0.18427932 -0.0052033206 -0.26504564 0.2827757 -0.18797253 0.29429972 -0.29634464 0.2849075 0.29998124 0.30641764 -0.25970832 0.26956216 0.21263516 0.11716848 0.29577082 0.035111714 -0.29329067 0.256351 -0.33975306 -0.28741884 -0.05851327 -0.26695925 0.18618105 -0.2632987 0.2757098 -0.3197955 -0.28076833 0.29155138 0.33568075
而 -0.4029959 0.3331391 -0.41874596 -0.25813732 -0.3628345 0.5451948 0.32699028 -0.48954093 0.6327161 0.30204996 -0.301055 0.5298298 0.21656713 0.3030952 0.38528365 -0.5591378 0.44897887 -0.07640852 -0.48629314 -0.15182258 -0.21891081 0.008393429 -0.5807766 -0.07226916 -0.24089377 0.0756615 0.22874717 -0.39151117 -0.21782306 0.032549884 0.4757988 0.33429492 0.44055772 0.52204055 -0.44955057 0.07686478 0.38727552 0.20663446 0.16843253 -0.2576657 -0.022219393 -0.31783834 -0.32552987 0.13645712 0.28860164 -0.55739987 -0.43732405 0.2894802 -0.5155849 -0.36078733 -0.34724098 -0.5599488 0.58817124 0.3542796 0.5396191 -0.4329898 0.40313235 0.10371923 0.05335574 0.44206923 -0.530738 -0.43009424 -0.02679181 0.2683277 0.3270949 -0.34177387 0.48317826 -0.19490176 0.3609396 0.45504603 0.39966705 -0.2632509 -0.43959832 -0.47630668 0.4840015 0.47664273 0.26551256 0.39057267 -0.54801667 0.043099593 -0.57401824 -0.08232795 -0.5206803 0.20033555 0.46011853 -0.43842098 -0.34532866 0.43065566 -0.55973655 0.20099914 0.4271732 -0.04933071 0.34720033 -0.46505854 -0.49075195 0.15849584 0.5820819 0.5234388 -0.5652605 -0.4613529
？ 0.39468464 -0.26611006 -0.3403 -0.18331023 -0.37353176 -0.3086888 -0.16184591 0.25831702 -0.4065414 -0.16226031 -0.35563347 -0.34690693 -0.2997803 0.38858536 -0.06323205 -0.047794737 0.3775174 0.2841156 -0.3703895 -0.23895591 -0.2679397 0.28093857 0.30167723 -0.2685025 0.38137344 0.08390317 0.2438155 0.3237703 -0.3340458 -0.31778696 -0.23365094 0.35966516 -0.3026029 -0.05530785 -0.4049169 0.35109362 0.32681444 0.23935513 0.29790545 0.34557304 -0.14284234 0.09808621 -0.34117204 0.38917455 -0.30807275 0.3221052 0.3384414 0.30636242 0.31104586 0.21616523 -0.3702244 0.31319994 -0.2875061 -0.2573652 0.34918758 0.24069831 0.2564566 -0.3130157 0.4136126 -0.26558042 0.30201784 -0.3340786 -0.22056916 0.360794 -0.3055491 -0.16957566 0.26119724 -0.22449206 0.38259766 -0.31516615 -0.08610055 0.35168776 0.26855358 -0.30912 0.30012393 -0.2358864 -0.09756849 -0.22858402 -0.32475537 -0.0022990508 0.30362156 0.12705405 0.27791727 0.28022218 0.14373602 0.2457496 0.33082533 -0.3581237 0.20109358 -0.3245998 -0.094224215 0.25860095 0.26262915 0.36069041 -0.041298375 -0.09247252 -0.27366546 -0.3422789 0.15993498 0.29106724
其 -0.3617628 -0.3057575 0.24498197 0.2545657 0.34552097 0.33886594 -0.35224923 0.31549448 0.35639918 0.32025814 0.28237042 0.3359713 0.20668587 -0.2552359 0.31653818 -0.33852458 -0.00434776 0.3421966 0.013492888 0.30830425 0.15582219 -0.33017558 -0.10825609 -0.16549245 -0.14456047 -0.1900284 0.32412022 0.34185693 -0.32402244 -0.12608202 0.3062863 0.23317787 0.2771825 0.33533525 -0.29517883 -0.3152763 -0.34546188 0.2976189 0.23904529 -0.28793332 0.3397862 -0.3266062 -0.23376808 -0.35378435 -0.3430291 -0.3285598 -0.07163828 0.34131163 -0.31436637 -0.28149697 -0.14684066 -0.3554858 -0.32994056 0.22445801 -0.19507264 -0.26884782 0.117534444 0.18705676 0.25291848 -0.294608 -0.06840705 0.37560728 0.25360227 -0.1016481 -0.33013892 -0.27100205 0.07769837 0.087130904 0.33503604 0.34373066 0.3182627 -0.33003506 0.34959945 0.19099905 0.20417067 0.35657302 -0.3500415 -0.039278507 -0.331836 0.32440662 -0.32619062 -0.33449873 -0.33693984 -0.3032605 0.17500754 -0.33184525 -0.21948524 -0.106454626 0.15224637 0.20286307 0.32497314 0.3387576 0.06993405 0.21252824 -0.262847 0.33649996 -0.103787184 0.31743994 0.30427262 -0.33553812
人 0.28624088 0.31577256 0.31488302 -0.24454801 0.22761022 -0.31314713 -0.32787135 -0.19239087 -0.256819 -0.18700238 -0.29921925 -0.31419873 -0.3506567 -0.31959662 -0.215359 0.29437652 -0.3034716 0.28279486 0.31946796 -0.21028022 -0.31510726 0.03056517 -0.330257 -0.2760771 0.29721445 -0.058927957 0.3117571 -0.3222064 0.2888416 -0.31016046 0.16720907 0.31263795 0.17159106 -0.09034748 -0.30775473 -0.014386088 -0.31330845 0.32084414 0.16701469 -0.326405 -0.25168133 0.3267891 -0.324668 -0.297744 -0.3137586 -0.32666203 0.32402837 0.25831646 0.26879343 0.2447655 -0.18781221 0.30025405 0.29184687 -0.24368626 0.29015067 0.33710942 0.33260465 0.3484211 -0.27553964 -0.3387903 -0.33149907 -0.32295477 0.03050996 0.08652595 0.08179894 -0.32977566 0.3173625 -0.22233497 0.26575905 -0.305886 0.33322734 0.3030792 0.32421842 -0.30557626 -0.3215727 -0.31462026 0.2732212 -0.27622506 0.33442363 0.33956105 0.26943478 0.23918338 0.3245632 -0.024513911 0.24125326 0.27813366 0.33857065 0.10614764 0.22453092 0.14741579 -0.31762105 0.31939402 0.071285225 0.29940504 -0.269712 0.20115235 -0.31405112 -0.30055058 0.30011627 -0.34034026
者 -0.31166947 -0.018620571 -0.33958063 -0.2047264 -0.04530581 0.25946474 0.24929352 0.27268788 0.29453048 -0.34463486 0.37160432 0.34387147 0.3586793 -0.35390332 -0.32023552 -0.34528947 -0.32237417 -0.22931534 -0.26541606 0.3386702 0.33910966 -0.106401004 -0.36425498 0.28040937 0.2742345 -0.3346096 -0.32376772 0.34909743 0.23097153 0.3528104 0.31690335 -0.36205706 -0.34699997 -0.3143365 -0.28093526 -0.35659668 -0.3563986 -0.33157766 -0.27142477 -0.29451156 -0.30466044 0.36906832 -0.28395432 -0.11369578 0.27853796 0.29033452 0.2880089 0.34318495 -0.34453592 -0.010832785 0.23603936 -0.17268622 -0.19539024 0.30134714 0.22766867 -0.28376397 0.36730158 0.352353 -0.100895904 -0.3697883 -0.31141603 0.341218 0.25193635 -0.013556459 -0.3600414 -0.059985023 -0.23103671 0.21577215 -0.07397825 -0.28197816 0.11452647 -0.08321308 -0.2809363 -0.29416183 -0.35948315 0.35525113 0.2060765 0.3583908 0.3057178 0.18024248 -0.34054273 0.22746259 -0.33850595 -0.22985671 0.23382336 -0.35146123 -0.3521079 -0.3069299 -0.35764962 -0.17859967 0.3543946 0.35185927 -0.2742211 0.33237475 0.36288816 0.34301525 0.36611083 0.35333318 -0.0481046 -0.3296047
以 0.27026853 -0.30953705 0.34724256 -0.31341085 0.097884715 0.1523306 -0.2370099 -0.08890807 -0.30957323 -0.33858904 0.28302687 0.35070315 0.114622034 0.021946272 0.20101671 -0.3248929 -0.25853246 0.20973057 -0.32440794 0.22207615 0.18492591 0.1379595 -0.24162805 -0.3177647 -0.3748931 -0.3200522 0.22717954 -0.32212868 0.31345427 0.32348648 0.2710805 -0.005885962 -0.36211354 0.25554523 0.30764675 -0.22067009 -0.13622303 -0.24518967 -0.3306018 0.09701402 -0.32605422 0.18367746 -0.3651795 0.1807706 -0.30837184 -0.29959917 -0.032759167 0.22863063 -0.29090747 0.30518115 0.18391141 0.11379961 0.16718282 -0.075683534 -0.14553887 -0.31282526 -0.24152784 -0.26233888 -0.29416248 -0.20095538 -0.0950704 0.18518353 0.26286355 0.12833996 0.2539044 0.28351596 0.36403012 0.2696275 0.25637034 -0.13625427 0.34001216 0.31087336 -0.28439614 0.32339963 0.28598818 -0.3025436 0.17435974 -0.2028914 0.1295674 0.10778003 0.3488237 0.3341629 0.3752815 -0.289746 -0.019103818 0.3808254 -0.28424338 0.030597541 0.28338638 -0.12704764 0.31480074 -0.18771692 0.28470513 -0.26665565 -0.008539066 0.28633788 -0.28257507 -0.33194196 0.2530944 -0.24718493
有 -0.34539902 -0.2825399 -0.07609288 0.25371873 0.10772251 0.12524937 0.21726695 0.3405869 0.31166562 0.17168598 0.3119892 0.28069872 0.22319913 0.18943524 0.14928646 -0.24707285 -0.2641057 -0.3928871 0.095446855 -0.31815797 0.35647586 -0.23306207 -0.21542542 0.12878622 -0.31785053 -0.1536993 0.13577034 -0.09226292 -0.0467181 0.3769242 0.24345094 0.02368031 -0.3581601 -0.17303975 -0.20912437 -0.035556607 0.32733858 0.35196677 0.21387409 0.3331627 -0.09989221 0.025824057 0.23778906 0.21493834 -0.02169131 -0.2872306 0.31930414 -0.18776628 -0.18972762 0.29883134 -0.11085551 -0.31370756 0.31244847 -0.283039 -0.19884796 -0.014643448 0.304897 0.38988557 0.17451112 -0.1019212 -0.08884053 0.37656006 0.022875652 -0.13483219 -0.3650515 -0.08010124 0.3604364 -0.23101917 -0.0766492 -0.3505654 0.32645866 0.30677563 -0.3115674 0.2719579 -0.18688402 0.17391032 -0.34877574 0.26321325 -0.26264963 0.06153407 -0.2728301 0.26083964 0.42723542 0.23801604 -0.053717617 -0.07521825 -0.14281279 0.22457014 0.21837476 0.21941516 0.30182675 0.03378237 0.35540122 -0.122379534 0.34997845 0.2848358 0.2817223 0.22374837 -0.1561233 -0.16721474
于 -0.19716115 -0.17895809 0.2688226 -0.2347305 -0.097050756 0.2701272 -0.31221756 -0.3355247 0.2072649 -0.29942644 0.2903802 -0.29277155 0.30218107 -0.31996378 0.26841173 -0.31854233 -0.26697692 0.23549797 0.2964738 0.31465384 -0.191052 0.27870864 -0.31747222 -0.2795361 0.3178232 -0.29337224 0.30865678 0.1624883 0.29719552 0.31542534 -0.3641053 0.3111131 0.30101025 0.31130296 0.259845 -0.22585163 0.32717982 0.2969065 -0.3286282 -0.30109853 -0.28005672 -0.09898049 -0.2982669 0.3215293 -0.24714637 -0.27492228 0.083454885 0.29654565 -0.29094806 0.116869554 -0.29396582 -0.28749636 -0.1650801 -0.31908154 -0.35013297 0.3561433 -0.33826375 0.11034163 0.299999 -0.28660387 0.20350105 0.321166 0.041359916 -0.25345176 0.30750173 -0.3262431 0.14987198 -0.2669384 0.31934023 -0.16922095 0.2807858 -0.042301368 0.26566076 -0.2622249 -0.32627067 0.259178 0.30698505 0.09402922 0.3027894 -0.23768972 0.29523584 -0.17171152 -0.26592797 -0.3098793 -0.30742976 -0.3719637 -0.26133147 0.28193712 -0.013650095 -0.30142048 0.31211457 0.3027056 -0.23893853 -0.32119 -0.3091773 -0.16037646 0.3180149 -0.22435962 -0.24258171 -0.28962752
矣 -0.07456048 0.21240585 -0.1270609 0.37818095 -0.16409215 0.38051125 0.25483757 0.12007033 -0.29106587 -0.10455106 0.11823479 -0.56101614 -0.067570135 -0.10997592 -0.16647314 -0.5413283 -0.531963 0.23553324 -0.16526382 -0.3912652 -0.19929127 -0.18365204 -0.43488643 -0.16493417 -0.08581832 -0.49906817 -0.088309586 -0.21182424 -0.44161955 -0.5343275 0.042278938 0.48258972 0.50612366 0.17924465 -0.02998473 -0.2668093 0.060783092 0.5460057 0.47777444 0.29466233 0.05848763 0.14036395 0.50638175 -0.12975277 0.058456358 -0.21722499 0.09242483 -0.078940846 -0.07786399 -0.2579923 -0.2877356 -0.30537614 0.51998836 -0.4901616 0.30498588 0.26508915 0.13242398 -0.4543317 0.51503927 -0.23303956 -0.07503207 -0.489784 0.42904618 -0.5330017 -0.5146509 -0.27338076 0.27253756 -0.45045748 -0.5483373 -0.48264915 -0.061995286 0.35858783 0.3321034 0.49604675 -0.3085236 0.49774182 -0.14582191 -0.5421629 0.17995395 -8.276972e-05 -0.45387828 0.57337654 0.51979506 0.39423305 -0.55905783 -0.21208644 0.36311337 0.55333465 0.41909814 -0.19068243 0.27880323 -0.32713905 0.53659827 -0.13449141 0.18174204 0.2110356 0.52348906 -0.06284252 0.024277003 -0.44054985
为 -0.3253244 -0.3281742 0.34299037 -0.3323635 -0.3399538 -0.28083625 0.2783783 -0.26994717 0.30528525 -0.052844968 0.33716255 -0.10662686 0.15156193 0.22988988 0.3333693 -0.022753721 0.34481207 -0.25625932 0.1720758 0.09381444 0.29677662 -0.2332273 -0.19102798 -0.27996147 -0.3588779 -0.30555964 0.32464373 -0.38667482 0.3874137 0.34458464 0.30351114 -0.28227225 -0.14808801 0.24811096 0.36742955 -0.2236847 0.3751108 0.38164616 -0.3081632 0.10280359 0.019769697 0.27077898 -0.31268907 -0.2279726 0.29363605 0.30753574 -0.26455256 -0.3550986 -0.34928998 0.33160976 0.29122058 -0.32599714 -0.24929917 0.021346461 0.08553572 0.25414652 -0.3099036 -0.05323485 0.19995697 -0.31513795 -0.25265092 -0.34048072 -0.36381567 -0.31878546 0.11666573 0.32510516 0.36701775 -0.24035001 0.21300673 0.28824398 -0.103083074 -0.21421422 0.17409037 -0.27998286 0.12684867 0.21385568 0.021484759 0.3733936 -0.063347496 -0.3152479 0.20318364 -0.28765613 0.3468968 -0.3531714 -0.31438172 0.35102227 -0.328203 0.03931155 0.3149178 -0.37789935 0.2583355 0.0749633 0.35789722 0.36172637 -0.29684177 0.2984312 -0.3071772 0.26702604 -0.3579693 -0.2698582
君 -0.31678912 -0.15561427 -0.30442375 0.04890478 -0.2088604 -0.29736093 -0.02778606 -0.22880492 -0.21989508 0.25535208 0.27884686 0.30612776 0.29527152 -0.32862043 0.06559838 0.16941737 -0.28292078 -0.0047939587 0.17144261 0.24865513 -0.31726152 0.13347031 -0.30212358 -0.32595673 -0.33338803 -0.294641 -0.28789315 -0.13591352 0.3452512 -0.33223948 0.28524268 -0.12300386 -0.14429003 -0.2502253 -0.05361674 -0.291937 0.016492028 -0.29311508 0.28187436 -0.25647682 0.07338367 -0.19438665 0.3315874 -0.27452293 -0.33178535 -0.2576444 -0.26666892 0.27002427 -0.2414566 -0.32987073 -0.32155818 0.15793797 0.27164194 -0.1866577 -0.25370055 -0.26875213 -0.23220488 -0.228159 0.19187076 -0.10962553 -0.0702968 -0.25482085 0.2829916 0.31926435 -0.33338702 -0.23050503 0.13879973 -0.35518712 -0.25527063 -0.20889385 0.15873267 -0.07285302 0.15208064 0.07984169 0.32530797 0.06394436 -0.19790207 -0.23530693 -0.32495347 -0.2971893 -0.21998972 -0.19891849 -0.27380842 0.37462273 0.24409536 -0.23097944 0.24715993 -0.18264154 0.06415674 -0.32254726 -0.10942565 -0.17905393 0.2796911 -0.27630043 0.3101263 -0.08772648 0.25795403 0.0014233314 0.25965106 0.33811352
乎 0.24743591 -0.17428611 0.26081634 -0.027359355 0.090250134 -0.35689613 -0.3134906 0.2210859 -0.2834015 -0.31742746 0.1492654 -0.36130553 0.24807599 -0.32964846 -0.07970661 0.16405557 0.3312383 -0.32395834 -0.26425722 0.32057413 0.23961045 -0.13439773 0.32117704 -0.37661698 0.31488037 -0.1327653 0.25222096 0.08897073 -0.23150644 0.1995596 0.1533873 -0.25628462 0.3635591 0.2695366 0.3394879 0.26702517 -0.17582412 0.3013076 -0.24736165 -0.22830805 0.0464214 0.27592343 -0.18117963 -0.36773995 0.37563056 0.29866034 0.3384985 0.34846553 0.3638454 -0.007508822 0.069085136 -0.0034870883 -0.29466224 0.25549215 0.34107557 0.32191363 -0.24331473 -0.25922164 -0.3190077 0.20845787 -0.0687393 -0.3448876 -0.3305974 -0.01832813 -0.2815646 0.33074924 0.11259995 -0.31455985 -0.25701958 -0.039155804 -0.2800386 -0.26578113 0.29984298 -0.010112593 0.28644896 0.2326921 -0.19586138 -0.02320551 -0.06499184 -0.3275743 0.14844695 -0.29465657 0.35972095 0.32315728 -0.25366688 0.29671535 0.35568592 -0.17543356 0.11098644 -0.3195191 -0.32622075 0.29742357 0.34103122 -0.100926906 -0.14828603 0.09053135 -0.331189 -0.17213577 -0.2791922 -0.20539889
可 -0.30810064 0.35504895 -0.13640164 -0.31114817 -0.10431629 0.25528836 -0.31824335 -0.23554948 0.06681518 0.28683782 0.28919822 -0.27584723 -0.20471522 -0.33733904 -0.2812614 0.015039952 0.27451468 -0.266472 0.27786607 0.31751582 -0.16556111 -0.26563242 -0.010093393 0.23800728 -0.30066168 0.28535977 -0.19554365 0.2259834 0.3066086 0.27130592 -0.31376302 -0.34168458 -0.11200605 -0.315002 -0.33465084 0.26117203 0.18905984 -0.24358785 0.13355796 -0.33041117 0.15486711 -0.22280109 -0.16223697 -0.2758528 -0.32522893 -0.35851386 -0.32763794 -0.22738878 0.02872499 -0.3227432 -0.2748311 0.2328461 0.28753024 0.06947066 -0.30595025 -0.26101542 -0.19466934 0.34811628 -0.29424992 0.153728 -0.3367657 -0.2626976 0.36786056 0.113865554 0.3011015 0.0830509 -0.25549325 0.28365818 -0.21893013 0.3194406 0.30627432 0.072206795 0.24279201 0.38541734 -0.37807542 -0.28609893 -0.33407807 0.2311145 -0.3345519 -0.2286922 -0.22564359 -0.046393383 -0.21771209 -0.3199044 -0.3584665 -0.34564713 0.030140635 -0.2740453 -0.10530893 0.3061621 -0.24284194 -0.27045757 0.3062924 -0.008521755 0.3038311 -0.2734288 0.058412235 0.30799735 -0.31907576 0.13557962
如 0.3214325 0.23939012 0.2745047 -0.0077201775 -0.29186845 -0.29381588 -0.2771154 0.31921178 -0.18868582 -0.30955106 0.3655471 0.32408708 0.30812085 -0.32708624 -0.2999525 -0.26983446 0.00401998 0.23864172 -0.33876014 0.30994794 0.31622946 -0.32448155 -0.294875 -0.23074335 -0.27262238 -0.28815722 -0.31477293 -0.24313737 -0.24394289 0.30464286 0.29185653 -0.32691133 -0.21359514 -0.3428855 0.17312355 0.27259576 -0.15993549 -0.31561467 -0.33333102 -0.18599555 -0.32305425 0.2567729 -0.31088677 -0.2772389 0.35411116 0.33929846 0.28184354 0.0074873473 -0.3002098 -0.2332023 -0.27719384 0.2882418 -0.30586737 0.3242101 -0.2818861 -0.3126691 0.3737942 0.33435488 -0.22499728 -0.29704732 0.3232921 0.11209702 0.313209 0.09438089 -0.29185438 0.32747245 0.15531726 -0.3167045 0.26248756 -0.32805118 -0.34120235 -0.28801456 -0.30831102 -0.32024306 -0.26966077 -0.2803105 0.3122701 0.30656508 0.20320103 0.016090142 -0.30454352 0.33566377 -0.29336143 -0.31534246 0.11243078 0.27269304 0.2638758 -0.3022196 0.030876702 -0.29044342 -0.31948575 0.28977206 -0.0872089 0.32040122 0.30561125 -0.3278335 -0.29233116 -0.088660896 0.3212443 0.33898517
与 -0.24757673 0.27488267 0.18049204 -0.34195986 -0.21304454 0.32011965 0.2922852 0.028273385 -0.28432432 -0.31620702 -0.1224705 0.28096986 0.3329599 -0.33573857 0.32752928 0.21795855 0.2963319 -0.30152312 -0.26631132 0.29883626 0.36720687 -0.16301927 -0.31779313 0.36247686 -0.2528679 0.3294566 0.04758926 0.33726397 0.038183935 -0.3409157 -0.22213063 0.14021805 -0.32740206 -0.2738596 -0.2970784 0.29227197 -0.3559116 -0.33206847 -0.32392263 -0.3056017 0.2511251 -0.352261 -0.2649778 -0.2394251 -0.3180826 0.13180777 -0.35102263 -0.26408908 -0.19474185 -0.3026481 -0.32225892 -0.34676525 -0.3590847 0.1861341 -0.2741547 -0.28188333 0.34451237 -0.032650672 0.23219259 0.12330113 0.2498786 0.17723994 0.32286665 -0.32512996 -0.19751687 -0.2640314 -0.33269826 0.34804076 -0.13265708 0.33908308 0.27983603 -0.33620623 -0.3230315 0.331556 0.3319071 0.21248507 0.36659136 0.33183387 0.13348415 0.32227537 0.29079282 0.32537812 -0.4007085 -0.32767245 -0.21579896 -0.18155046 -0.17118531 0.16542529 0.34636825 -0.1382086 0.3558277 -0.34276608 0.1840829 0.30180338 -0.25249514 0.320581 0.3420335 0.34439257 0.2312755 0.3030138
； -0.22487138 0.25709617 0.3035031 0.18052447 0.35885292 -0.28885183 -0.31857562 0.3064124 0.33656108 -0.2081549 -0.28796834 -0.1852354 0.16317864 0.3256801 -0.04433658 -0.17863932 0.07868672 0.15273158 0.2863766 0.14624457 0.26775327 -0.15229122 0.19421127 0.27798724 -0.30867645 0.33735317 -0.112688124 0.23874588 -0.09504772 -0.14824672 0.29960692 -0.27668115 0.32792354 -0.32515126 0.21445563 0.3679675 0.34491077 -0.21367852 -0.16340435 -0.04330126 -0.33691454 0.23021872 -0.27885112 -0.16336566 -0.31526372 -0.2859634 0.3214413 -0.2399515 0.22560592 0.28209153 0.37351525 0.28278878 0.3240871 0.18756384 0.32165024 -0.09661699 -0.32345548 -0.13827562 -0.31375703 0.07649045 -0.2269243 0.06045738 0.10298126 -0.14612699 0.27313724 -0.17666848 -0.17058697 -0.07035718 0.29274535 -0.24652623 -0.26970312 -0.1288316 0.101591974 -0.25414923 -0.19982986 -0.33853313 0.16739984 -0.26741323 0.21849073 0.26413223 -0.28060418 -0.15097605 -0.3165276 -0.058022976 0.023565134 0.25195807 -0.28038684 -0.040299706 0.31758216 -0.29368743 -0.31156445 0.21978006 -0.26866505 -0.17009081 0.19597381 -0.30801716 -0.28393295 0.28332016 -0.04379751 -0.11815077
言 -0.44978133 -0.25716612 0.093952805 0.49466217 0.49178034 -0.43687338 0.3093564 0.5521246 0.47499475 -0.42540282 0.42724675 0.40381122 -0.057399128 -0.506364 0.53120655 -0.033837914 -0.51044077 -0.091338746 -0.06575884 -0.34472743 -0.33898953 0.5016945 -0.45345432 -0.17850263 -0.5111472 -0.21180627 -0.51570624 0.41659012 0.5053714 -0.4633369 -0.2441515 -0.5124791 -0.2476418 -0.035482895 0.3409693 -0.45816138 -0.44619766 0.25820905 -0.5076968 0.019458182 -0.23186007 -0.424975 0.09686437 -0.51493096 -0.1115268 0.15234666 0.13142331 -0.4537822 0.16219518 -0.3575815 -0.07170658 -0.23063587 -0.46066293 0.37504297 -0.05731263 0.30718973 -0.0019578577 0.096022464 0.41025078 0.1371472 0.35313958 0.5365093 0.5191054 -0.53394294 -0.42974418 0.44714263 -0.03302254 -0.42759442 -0.48063684 -0.49876583 -0.3789222 -0.46362022 0.012451095 0.33060932 0.45089167 0.43321276 -0.27308354 -0.038034063 -0.25531158 0.3055384 0.10395644 0.33913565 -0.48451832 0.07595213 -0.4410847 0.23148964 0.19519626 0.48982224 -0.17816629 -0.2266357 -0.16840434 -0.12409547 -0.25053266 0.0039175684 0.45024374 -0.32907265 -0.2395843 -0.21123046 0.1692132 0.4957623
无 -0.06966396 0.25720498 0.09454502 0.37406436 0.39053074 -0.26561406 -0.22055857 0.33072203 -0.12308336 -0.38982683 -0.24764125 -0.23457615 -0.29674327 0.4112553 0.25217286 -0.00036126963 0.2533877 -0.34868973 -0.28899896 -0.043449353 0.34890592 -0.3304322 0.29216534 0.2638052 -0.26491058 -0.07932955 -0.14694929 0.35043246 -0.13675693 -0.23830232 0.0971159 0.060097847 0.19325835 -0.010109812 0.35093412 0.300502 -0.06450271 -0.20863645 0.34476006 0.323071 -0.2502684 0.031163186 -0.31610945 0.25466073 -0.34457242 -0.36628497 -0.11333502 -0.088781044 0.23656437 0.36270332 0.00029023923 0.058371942 0.30092335 -0.31856012 0.3562064 -0.10011537 -0.34140006 -0.12472908 -0.25889438 0.2376637 0.2947594 0.32576627 -0.36152685 0.2507252 0.13912977 0.36545968 0.174736 -0.29269403 0.21370387 -0.33970654 -0.20765057 0.31757092 0.30026358 0.018015517 0.29842722 0.10707562 0.139123 -0.27825427 0.30513683 0.30881006 -0.121264376 0.05861219 0.320559 0.32588187 -0.19310643 0.3060482 -0.32769084 0.35750955 0.28733847 0.1942561 0.12213362 0.050785527 -0.04826739 -0.24458687 -0.19443803 0.15835737 0.23878852 -0.027730092 -0.38257134 0.1962218
则 -0.3076215 -0.3238296 -0.25521725 0.07282499 -0.06175401 -0.28644717 0.24593484 -0.31931597 0.23291571 0.1296007 -0.14103177 0.32636166 0.2778526 -0.23654129 0.3105885 0.25526968 -0.28853244 0.03565235 0.18862928 -0.30405617 0.30685627 0.28161246 0.32423964 0.06402367 0.09991793 -0.33774617 -0.2896613 -0.3303248 0.30764246 0.3089248 0.3025862 -0.039041463 0.28445068 0.26401207 -0.23481509 0.27570707 0.19453414 0.31988668 -0.21227656 -0.30507573 -0.039949827 -0.2934848 -0.23852444 0.29575476 0.32517722 -0.26072267 0.29543316 0.31026113 -0.32759246 0.15740846 0.3129992 -0.3084044 -0.31706116 0.27031854 -0.29992852 0.30743963 0.32884526 0.3100893 0.3050081 0.32989037 0.27859235 0.26079184 0.00091270776 0.1951766 -0.28225404 0.31557006 0.35439107 0.105793014 -0.28344253 -0.2086372 0.30345362 -0.12482896 -0.3254954 0.33492532 0.18219537 0.31465107 0.29747438 0.27811813 0.13129866 -0.394823 -0.07791477 0.17602791 -0.3003641 -0.3079035 -0.014127381 -0.3329694 -0.25385836 0.06472503 0.061003547 -0.31951824 -0.15658778 -0.1485129 0.33244884 -0.31856847 -0.1397346 0.32571658 0.30999205 -0.2566435 -0.31228778 -0.29789844
！ 0.2565399 0.19517688 0.24478088 -0.13122539 0.096381776 -0.33177724 0.30637345 -0.19315515 0.32584253 -0.25797543 0.32746884 -0.32188216 0.23658997 -0.31989297 0.25324237 0.30605686 -0.2990354 0.06988952 -0.32459033 0.1785214 0.28840706 0.33919126 -0.22826055 0.26838678 0.27600428 -0.07374364 -0.36907575 0.03492018 0.28102145 -0.34279114 -0.322853 -0.10521183 0.29814625 0.06661468 0.3027489 -0.2436326 -0.28525403 -0.17263442 0.3483066 -0.26565728 0.01517724 -0.14904863 -0.12244225 -0.122860305 0.3212162 -0.23822713 -0.12444117 0.084935226 0.31961122 0.051374167 -0.21142763 0.30331227 -0.09003578 0.21325737 0.06250413 0.35664007 -0.33529195 0.10553368 -0.23612523 0.29648146 0.2824172 0.30123058 -0.18117434 0.21670589 -0.19412415 0.202741 0.01656678 -0.16835187 0.19042732 -0.09517578 -0.30282524 0.08005395 -0.09134962 -0.15300813 0.06450497 0.12356607 0.14857516 -0.31690007 -0.28293502 -0.1460749 -0.29880643 0.272267 -0.07484408 0.28434423 0.18148781 0.28030053 -0.24655403 0.060510114 0.27785262 0.26121405 -0.34641752 0.2861817 -0.20461589 0.08591822 0.28648093 0.115057915 0.13222465 0.020747272 -0.27003044 -0.11372816
问 0.18648294 -0.32226875 -0.37817097 -0.29694167 -0.11435582 0.2796346 0.3164722 0.018587893 -0.30931368 0.25525108 -0.3065829 0.33219317 0.37931523 0.278179 0.23852408 0.22024141 -0.28556234 -0.36551818 0.28015324 -0.29310352 0.20755713 0.2876207 0.33676726 0.28978384 -0.299791 0.33687255 -0.30304754 -0.259831 -0.33013335 -0.2552374 0.28121924 0.27075738 0.14451805 0.0575994 -0.33340552 -0.2813418 0.16338153 0.23054072 0.3428119 0.3100044 0.24642818 -0.36170667 -0.28263637 0.3380491 0.35814816 -0.27119315 0.2138874 0.31602365 -0.13308854 0.30793637 0.32367986 0.3537527 0.3729328 0.120764695 -0.14086477 -0.09652807 0.25679368 -0.03381964 0.27390328 0.31459084 0.30114028 0.115438856 0.2564299 0.2563154 0.33102164 0.30191237 0.15758032 0.2830476 -0.27897272 -0.32971826 0.06146387 0.28133446 -0.2590958 -0.32756427 -0.011266671 -0.20229927 0.27753222 -0.2920237 0.26630178 -0.35381123 0.31127974 -0.3121669 -0.3133401 -0.31340826 -0.24760637 -0.3445224 -0.00035268348 0.34319627 0.049637206 0.3302316 -0.3409683 0.23429558 0.28761226 -0.34234792 -0.11894951 -0.21083702 -0.2023648 -0.25458387 -0.09309078 -0.3188214
知 0.2541519 -0.056618582 0.26538354 0.34995288 0.32588437 -0.24970508 -0.31758597 0.33795625 0.26203656 -0.30027843 0.27841863 -0.25438207 0.2747876 -0.30109417 0.31233352 0.11352627 0.31327048 0.33594552 -0.22404693 -0.20569327 0.31609842 0.3046551 -0.15566163 -0.071545206 0.2624436 0.31786427 0.28962317 0.33342728 0.3245582 0.16781321 0.20684408 -0.2558361 0.31785348 -0.33577698 -0.3049511 -0.2576812 -0.29835528 -0.3068957 -0.30924603 -0.3017951 -0.13665771 -0.22548598 0.110627115 0.033633947 -0.29533908 -0.303513 -0.16270007 0.314379 -0.24055754 0.075201266 0.23272629 0.16828224 -0.17446543 -0.29442173 -0.33500203 -0.28122866 -0.18461813 0.31964356 -0.31063417 -0.31393427 -0.3124644 0.16691631 0.18471965 0.29683018 -0.24496597 -0.32767043 -0.30384097 0.29184377 0.2800202 0.32108566 -0.19901496 -0.2557101 0.25595197 0.20849743 -0.27213085 0.30575472 -0.33573845 -0.30909595 -0.318089 0.31023678 -0.16501717 0.229533 -0.31074485 -0.30756494 -0.2508473 -0.30264276 -0.24404189 -0.32784575 0.32079202 -0.31918958 0.0012380402 -0.004305577 0.15211412 0.25517964 0.10659493 -0.16566327 -0.2839082 0.33319584 -0.26223218 -0.31179056
何 -0.17254438 -0.31032193 -0.20352833 -0.33370218 0.2336227 -0.23224786 0.3143884 -0.16705678 -0.3359679 0.300553 0.35765168 0.24958251 -0.26708406 0.17524059 0.12168677 0.2571839 -0.19655736 0.2518541 -0.21079075 0.049681704 0.32105654 -0.2465933 0.35824886 0.22780813 -0.30792913 -0.31422082 -0.042552702 -0.3297858 0.122677356 0.34678763 -0.031215834 0.24376588 -0.32736388 -0.15753564 0.37745368 -0.25999948 0.39108157 -0.050334018 -0.3630459 0.2284235 0.26705158 0.28517604 -0.32900554 0.21520643 0.10356955 -0.35239416 0.34086758 0.04565414 -0.34420392 0.37776735 -0.2203727 0.2232653 -0.3048221 0.28636023 -0.28806612 0.25115785 0.14076503 -0.08017313 0.11182976 -0.34697443 0.34919414 -0.3262553 0.16195285 -0.18480633 0.285287 0.069453225 0.30982304 0.31527707 -0.27330348 -0.32683802 -0.27968353 0.31547278 -0.29329842 -0.086206555 0.3421336 -0.32115486 0.013539007 0.34383005 0.26577976 -0.32522848 -0.14240263 0.13028146 0.19240561 -0.35450292 -0.3085358 -0.26752055 0.3037032 0.24209914 -0.27026612 0.30236393 -0.0810627 0.038526956 0.37632805 0.33371845 0.31805673 0.15660197 -0.33072853 0.24248445 -0.1377798 0.32873344
吾 -0.35827866 -0.28091964 -0.3277787 -0.2858147 0.31998143 0.32201794 -0.32878184 0.30301017 -0.27108938 -0.35526624 -0.19430798 -0.29833597 -0.33156058 -0.33619088 0.23734728 0.04953607 0.3081327 -0.2691902 -0.29915062 -0.21723576 0.33528042 0.247246 -0.11384779 0.13205479 0.10269935 0.32600063 0.27918625 0.31870618 0.34171516 0.17666097 -0.04633125 0.24798866 0.29082274 0.20456581 -0.30587873 0.25798917 0.33833942 0.1585595 -0.32153422 -0.2777685 0.30664024 -0.29883847 0.30107293 0.32951865 -0.3204906 0.28236905 -0.30001667 0.21306817 -0.31429753 -0.35871154 0.32105547 0.04714723 0.29373163 -0.27289945 0.08805972 -0.28526768 0.25481376 0.34104648 -0.3054732 -0.3159658 -0.2738549 0.28304031 -0.286348 0.31144452 -0.3010495 -0.19014427 0.15098497 0.3230515 0.20296834 0.3380669 -0.29209897 0.35290933 0.21298082 0.32949704 -0.11558804 -0.07645624 -0.24806179 -0.28450203 -0.32014382 -0.33233723 0.28797683 0.28976414 0.16284409 -0.3032019 -0.33772802 -0.27856192 0.33920106 0.2453521 -0.32240155 0.24872456 0.32155398 -0.27258444 0.3237543 0.024090482 0.1688094 0.3288854 0.30046663 -0.29802662 0.24167834 -0.32435206
仁 -0.44021007 -0.35541397 -0.5450129 0.46464467 0.24108553 -0.30679128 0.39741057 0.36141735 0.46800956 -0.45513624 0.28923413 0.5925893 -0.4626482 0.114183754 -0.1658658 0.0023543744 0.10662282 -0.18311529 -0.47584733 -0.30059513 0.4189858 -0.08535859 0.40124643 0.28081548 -0.5140789 -0.49254528 -0.50385153 0.42201376 0.27941614 -0.4515956 -0.27843422 -0.19909315 -0.31871358 -0.33296975 0.32996467 0.18743187 0.42289734 -0.050824907 0.43317664 0.4639769 0.0750086 -0.14155078 -0.018308198 -0.45309192 0.3207404 0.40983874 0.1261028 -0.3904501 0.34706578 -0.44081703 0.2755446 0.19831643 -0.39471135 0.271764 -0.45011774 0.40072244 0.3777784 -0.28007612 -0.04912171 -0.17741613 0.31993973 -0.45488465 -0.34609264 -0.41811025 -0.46581295 0.35736686 0.44652224 -0.114774495 -0.39954266 -0.27843183 -0.22063954 -0.01190565 0.35364476 -0.03624045 0.463803 -0.48429686 -0.4267839 0.51670605 -0.26872805 -0.29050153 0.2747298 0.38118464 0.22801363 0.42795646 -0.27971074 0.26526254 0.48544866 0.28286287 -0.40492487 -0.001779686 -0.3596412 -0.42871732 0.31376293 -0.11583911 0.349265 -0.41295913 -0.16082232 -0.13012359 -0.1757371 0.43552187
夫 -0.28715903 0.35425538 0.21276626 0.27929386 0.28999692 0.09045994 -0.32512152 0.30190906 0.22093065 0.33143845 -0.2777888 0.18653058 -0.31544003 -0.05318846 -0.33416912 -0.23644868 0.33887997 -0.27948222 -0.35234904 0.29980215 0.35280654 -0.32861257 0.3047638 0.3400203 0.3208452 0.33011827 -0.16377889 0.33848697 -0.32469714 0.33197203 -0.2947229 0.31651896 -0.319267 0.28709188 0.3269376 0.29988876 0.34938368 0.3014538 0.31424776 -0.32010353 -0.25105146 -0.055163823 -0.35174173 -0.30400515 -0.26601535 0.09199723 -0.32855278 0.33057672 0.2949555 0.23736696 0.2919274 0.27980903 0.30239317 -0.28314167 -0.30627462 -0.3067402 -0.207433 0.19495766 -0.33292648 0.3250367 -0.28872195 -0.024315735 -0.25938392 0.31878033 0.32491705 -0.29324535 -0.29984388 0.24361081 0.1890057 0.24185015 -0.33155558 0.34381536 0.3316463 -0.36257485 0.1764269 -0.32724983 0.11298549 0.3076011 0.28131053 -0.3480071 -0.35359424 0.2991323 0.33097208 -0.31578186 0.2271612 -0.31679353 0.119244605 0.2853507 0.29099685 0.13214412 0.32790968 0.32913032 0.31414443 -0.29166648 0.17130695 -0.33520424 0.32302 0.32659212 -0.2282388 -0.28629303
、 -0.25634882 -0.22917935 0.31925616 -0.29903716 -0.35464835 -0.2925115 0.27485195 -0.31040516 0.28539005 -0.28835157 0.2765605 -0.334057 -0.14589618 0.30648878 -0.20617883 -0.3031071 0.31309 0.28549093 -0.30824915 0.07477509 0.3227926 -0.289114 0.28740177 0.24532162 -0.30813086 -0.25348023 -0.3010882 -0.13928804 0.19730002 0.1549047 -0.14116016 0.24521476 -0.3101484 -0.3408764 -0.2283882 -0.16449857 -0.28346354 -0.32228827 -0.28598365 0.29928854 0.267391 0.31218517 -0.2975735 -0.31377396 0.34996068 -0.06290459 -0.3043104 -0.20888545 0.28166085 0.313238 0.30247888 0.24886198 -0.06301661 -0.2743104 -0.29129952 0.3133793 -0.28385463 0.3201545 -0.3402145 0.29224348 -0.30604756 -0.32123062 -0.30422226 -0.34223148 0.054770835 -0.2547459 0.32180464 -0.13152324 0.3132102 -0.3301683 0.14093192 0.30705377 -0.2976311 0.07920678 0.3194923 -0.28396392 -0.063865066 0.26556203 -0.3168427 -0.3169532 -0.3261703 -0.3167265 0.31364134 -0.20307364 0.29921064 0.30527207 0.30668637 -0.013796989 0.311697 0.29987472 -0.30653262 -0.30368695 0.03792319 0.32538456 0.23299141 0.27294278 0.2665197 0.30232373 -0.32500622 0.31481022
道 -0.32040307 0.096026115 0.26122645 0.2888743 -0.30689785 0.30080152 -0.008598846 0.08216828 0.30131736 0.34807664 -0.084055014 0.10183732 0.32073614 -0.17993025 -0.26594192 -0.30602238 0.2869458 -0.29849136 -0.19135949 0.2976661 -0.16723092 -0.27992907 0.25420997 0.11067032 -0.3159485 0.30483595 -0.20974447 0.30096695 -0.32264793 -0.28521633 -0.044202775 -0.29399648 -0.16708395 -0.28037736 0.09393038 0.19764641 0.097317204 0.29439634 -0.2775863 0.26382703 -0.21204837 -0.2302308 0.31471986 0.25910145 0.32954097 0.17913927 -0.33104 0.308111 -0.31839934 -0.25850096 0.2894543 -0.3155375 0.35220355 0.25728112 -0.26619083 -0.30401978 -0.09739139 -0.287431 0.001482415 0.31472385 -0.14057961 0.2831487 -0.29943785 -0.37242404 0.32562846 -0.29254487 -0.2942376 0.026492355 0.32152104 0.29494628 -0.17268832 -0.28807116 0.07187237 -0.16993974 0.2829726 0.3192181 -0.22804646 -0.3677981 -0.2606716 -0.1292167 0.19275334 -0.33025917 0.28362536 0.16965812 0.28449592 -0.32792994 -0.307909 -0.2319637 0.3092453 0.3369587 0.055711847 -0.084067285 0.23988041 -0.27781317 0.27274776 -0.16540673 0.32266957 0.3027205 -0.23550801 -0.2886851
焉 -0.012044267 0.17466761 0.24229993 -0.107026815 0.23916139 -0.2739807 0.2114439 -0.15914774 -0.14843838 -0.09354573 0.18101457 0.16931006 -0.38353407 -0.34788102 -0.2941665 0.35287693 0.27340496 0.27952948 -0.09340269 0.2695349 -0.31024024 0.27838734 -0.28333244 -0.37607023 -0.1296224 -0.20566656 -0.32855573 0.28169027 -0.07379717 -0.32833815 -0.28902492 -0.32939225 -0.32481462 0.10862543 0.2214782 -0.20626362 -0.065566994 -0.13927133 -0.2648723 -0.19787459 0.0609847 0.23182583 0.25788686 -0.3191958 0.11008926 0.223133 -0.28099605 0.129631 -0.14382122 -0.24857116 -0.30641147 0.29919034 -0.2865998 0.19965151 -0.21015823 -0.0696084 -0.2840199 0.21228948 -0.2869399 -0.24262214 0.04846279 0.32092196 -0.30703124 0.12467746 0.10148166 -0.25334728 0.091722056 0.15188976 -0.10922544 0.00018474736 -0.20488167 -0.31707147 -0.12291221 -0.17501572 0.33107665 -0.3191481 -0.16559513 -0.09296399 -0.32430622 0.06089087 0.2828068 -0.27983108 -0.16815194 -0.2469865 0.17193012 -0.1384878 -0.25508878 -0.006298517 -0.22076005 -0.03885448 -0.27135488 0.25732782 -0.30806404 0.36582407 -0.14884163 -0.24649987 -0.2668059 0.24047345 0.17575306 0.32078385
行 -0.33966127 0.3205298 0.17507926 0.25750628 -0.28847814 0.33916897 -0.293891 -0.36555314 0.19596177 0.28612196 -0.29311955 0.28543663 0.09690606 -0.289637 0.31851262 -0.23005462 0.31138048 -0.32376596 -0.32184526 0.3144085 -0.33108553 0.17899704 0.16642104 0.26557526 -0.3018394 0.33202872 0.31480065 0.3240845 -0.24806927 -0.2621314 0.14634193 -0.2794205 -0.12907133 0.29385865 -0.34414676 0.31021515 0.3300148 -0.29901323 -0.17227508 -0.3329146 -0.1801057 -0.30064675 -0.17018576 -0.27256107 0.055672903 0.2385549 -0.3310384 -0.14515519 -0.31740692 -0.32511637 -0.33272326 0.28225076 0.3382799 0.2905639 -0.18209197 -0.33099464 -0.3100294 -0.32420456 0.3004824 -0.25753015 -0.29199988 -0.38281113 0.07996061 0.083408214 0.3109384 -0.33414507 0.09635094 -0.31724936 0.32903826 0.31194097 0.3319221 -0.3099643 -0.33323815 -0.32302555 0.32510364 -0.26705664 -0.3153912 -0.2476278 0.17078096 0.20441973 -0.37396592 -0.06871434 -0.30513835 -0.3130523 0.22622369 -0.27576953 -0.31558967 -0.26319474 -0.35649356 -0.34098732 -0.21934955 -0.32626694 0.29814094 0.049467243 -0.21843976 -0.32270122 0.26183137 0.33415136 -0.256151 -0.3245243
谓 0.28207797 0.28424695 -0.3152202 -0.35454574 -0.09483569 0.27818844 0.3045502 -0.30864805 0.17788313 0.31456316 0.30960578 0.12400233 0.114067905 -0.31590277 -0.19987862 0.332879 0.3482799 -0.28244013 -0.10598262 -0.17321986 -0.023081005 0.3091664 -0.23074624 -0.2959135 0.005090658 0.29101858 0.21077639 0.2536843 -0.33478665 0.30689254 -0.322198 0.2553922 -0.2939674 -0.12923127 0.32518092 0.29508734 -0.16348954 -0.3391278 -0.33380812 -0.30844676 -0.3127506 -0.075028166 -0.31412002 0.14311497 0.32492635 0.28402746 -0.35545367 -0.32325107 0.30306965 0.022947805 -0.30786344 0.12925406 -0.306629 -0.29484308 -0.3242503 0.2085958 -0.32173172 0.33284783 0.2955606 -0.19206505 0.3468355 0.3599813 -0.34949443 0.31347966 0.14894404 0.3036755 -0.303024 -0.31965837 -0.14464802 -0.30672446 0.2791279 -0.31518063 0.25517505 -0.33450833 -0.24065934 -0.3298873 0.31538883 -0.24755284 0.23680994 0.21028745 -0.26960787 -0.33954683 -0.045460515 0.12703378 -0.2818 -0.26533905 0.2871287 -0.28826717 0.29251635 0.3033152 -0.34201512 0.1337332 0.15150006 -0.29896867 0.19041 -0.3249575 -0.35039124 0.29403424 -0.30887458 0.33721834
必 -0.3045845 -0.3146904 0.29668915 0.010335527 -0.29679528 0.061273463 -0.28274208 0.29534647 0.26682645 -0.28979006 0.28391057 -0.27196932 0.29626542 -0.26559478 0.30268738 -0.2813243 0.27348322 -0.22089212 -0.30223727 -0.3195174 -0.15853281 0.32372797 -0.29795676 0.07857725 0.3061055 -0.2719154 0.29744798 0.28773266 0.30204654 0.3221744 0.30203986 0.29465768 0.28040248 -0.30456093 0.30379385 -0.30270836 0.30805036 -0.3177327 -0.3124621 -0.2443918 -0.22613187 -0.31378254 -0.28429878 -0.29311058 -0.18475164 0.3188842 -0.28242648 -0.30371305 0.30926865 0.27167583 0.31174192 0.28209302 0.32896897 0.3028831 -0.19037507 0.26427364 0.27996588 0.29641923 -0.2819699 -0.21100922 -0.29636315 -0.26905283 0.28751662 -0.25568867 0.32007483 0.28699 0.30126953 -0.27376604 0.31430325 -0.29937714 0.29515234 -0.27066278 -0.30182672 -0.259849 -0.29019514 0.30094412 -0.28680074 -0.07796039 -0.14328527 -0.3182933 0.29479232 -0.02142005 0.3041052 -0.2902598 0.31298894 -0.291431 -0.2897189 0.020685408 0.1826877 -0.045795493 0.29490227 0.21941179 0.29845554 0.29662567 0.2839467 -0.2903828 0.30966902 -0.2922493 -0.29538545 0.2847015
礼 -0.11604265 0.33601728 -0.55975324 0.12152097 -0.21213457 0.32888845 0.117563315 0.21353826 -0.43534026 -0.2079005 0.44702217 -0.43916997 0.58469 -0.5548235 0.23915876 0.2576832 -0.47885376 -0.43374166 0.088544354 -0.41983303 -0.4792811 0.4636746 -0.50603527 -0.07795322 -0.04359311 0.09498755 -0.40139648 0.3738872 -0.050792433 -0.4737909 -0.5277885 -0.48206395 0.008667844 -0.24170229 -0.21680994 0.082035 -0.4252327 -0.011008473 -0.44878927 -0.49091572 -0.5183928 -0.52407306 -0.21156758 -0.3638659 -0.5487969 0.48557702 0.48816818 -0.43909708 0.46221447 -0.54951745 -0.5061502 0.48377594 -0.501857 0.17817624 -0.5671241 -0.060737405 0.5536056 0.4341522 0.5024243 -0.59179515 0.50301856 -0.18953551 0.4356177 0.4004319 -0.4182166 0.39714807 -0.12349534 0.16469793 -0.16954502 -0.45409477 0.56649655 0.09411206 0.503311 -0.37874612 -0.014709988 0.41601548 -0.49883 0.30855873 -0.58527374 0.3770089 0.1396353 0.39067358 -0.47785887 -0.4923265 -0.32130122 0.467442 0.33402196 -0.16098106 -0.2257754 -0.5842802 -0.11314429 -0.50578487 -0.14085881 0.3421832 0.3584631 -0.47267848 -0.254196 0.2745652 -0.38838837 0.46091926
孔 0.032024022 -0.33123502 0.3397589 0.3482651 -0.2758711 -0.30949262 -0.3177365 0.34020042 -0.35225302 -0.3222792 0.30232185 0.31734672 0.28960755 -0.3549047 -0.33030522 -0.32051924 -0.2917076 0.26565132 -0.18598248 0.035642434 -0.26733732 -0.3314729 -0.26716933 0.16792218 0.2720289 -0.29926196 0.25051633 0.18338059 0.30789942 0.32939485 -0.34890434 -0.21297598 0.29296076 -0.35026577 0.20097145 0.32149234 -0.20418811 0.29516777 0.22506733 -0.2761403 0.23428988 0.32478556 0.2441197 -0.25057718 0.33827037 0.33327833 0.37631074 -0.26586005 -0.23495501 -0.31104732 0.31632113 0.21420768 -0.31422034 -0.28728047 -0.27761224 0.31600642 0.14802831 0.07841015 -0.030921899 -0.2983816 -0.27982762 0.3280429 0.31458035 -0.31778267 0.23509212 -0.04545832 0.019210596 -0.2635426 0.2771122 -0.34520078 0.32042944 -0.29763916 0.31748012 0.1183775 -0.27196634 0.13678978 0.29180634 0.07970249 0.33725932 0.27175742 0.260751 0.3034681 0.2864414 -0.31046823 -0.2468808 -0.30307508 0.2532352 0.26764926 -0.16626804 0.3339802 0.3150516 0.3146983 0.3341474 0.3566773 0.20015103 -0.27403226 0.21896628 -0.17705509 0.3286261 -0.012587138
斯 -0.315405 0.28568113 -0.2337367 0.2585156 0.3120183 -0.26511973 0.16760106 0.25269848 0.29980457 -0.27309966 -0.26958373 -0.25480247 0.18938884 -0.19760242 -0.23435266 0.20273542 0.28640676 -0.27411273 0.28547138 -0.2608673 0.23627345 -0.25680524 0.23868318 0.16651766 0.24370849 -0.15311553 0.03567661 0.29417756 0.14934327 -0.26938593 -0.2936362 -0.31468135 0.31179696 -0.28532264 -0.30536002 0.31045127 -0.0769829 -0.00591058 -0.30789077 -0.33013538 -0.20289214 -0.2900077 -0.10578199 -0.31439874 -0.117638014 0.26982546 0.2547431 -0.24414952 0.26041365 -0.2725733 -0.091873765 -0.25428858 0.33180925 0.3093393 -0.31979388 -0.011252718 0.30240542 0.31175655 0.17361693 0.23334898 -0.31024632 0.31723002 -0.2909487 0.15341067 -0.2835899 0.2986932 -0.32877252 -0.2715766 0.11304387 0.060532447 0.30757472 -0.3042656 0.31119943 -0.27119482 -0.31340554 0.229333 -0.31599754 0.30237257 -0.30887836 -0.1710541 0.083056025 0.25064382 -0.29392776 0.22172147 -0.29390863 0.2762009 -0.3471261 0.21793133 0.07372211 0.32354558 -0.2672315 -0.24628891 -0.27621996 0.25838155 0.14491692 -0.23949927 0.31946033 0.31771088 -0.1889575 0.27956
三 0.25645095 -0.32356268 0.02023385 -0.34844804 -0.3014334 -0.27102548 0.23220547 0.1239491 -0.3305485 0.08967391 0.33361715 0.3303552 0.32823667 0.23698574 -0.2463049 -0.33488345 -0.31516567 0.2967029 -0.0026114758 -0.2831412 0.38578004 -0.3131635 -0.27984822 0.26840898 0.20119205 -0.111563414 -0.31145173 -0.33182773 0.33424813 0.30273202 -0.19444552 0.24764001 -0.29182255 -0.22603655 0.32472044 0.16531593 0.28280893 0.2823948 0.22553425 0.3356584 0.12799233 0.10057901 0.30901563 0.2332707 0.2747984 -0.3245525 0.30219084 -0.35334903 -0.33181986 -0.2315375 -0.28602013 0.23604035 -0.30016983 -0.27141038 -0.33835274 0.072796464 -0.14750527 0.23237234 -0.05720275 -0.23521625 0.32694715 0.27501482 0.3168526 -0.18710926 0.25840753 0.037619404 0.14442392 0.122513436 0.18198451 -0.33307457 -0.02790412 0.3739498 -0.31280386 0.33566523 -0.15402438 -0.32457915 0.24273159 0.35786474 -0.36597508 0.30416825 0.33673784 0.33856326 0.35020655 -0.318905 -0.34470204 0.20404102 -0.30778968 0.35346556 -0.26260668 0.29314604 0.33961686 -0.2622146 0.3394028 -0.25146013 -0.2711945 -0.16699323 -0.3062708 0.26222447 0.28655297 0.33943096
能 -0.29800615 0.30122566 0.32149956 0.24477534 -0.29050288 -0.24840632 0.33375233 0.13199148 0.23974846 -0.3205624 0.22708055 0.31748748 -0.2979056 -0.3205764 0.27037722 0.24414417 -0.18538533 0.31656146 0.31899405 -0.24092428 0.12303475 -0.30361348 -0.32128075 -0.14290956 0.314051 -0.32413197 0.35057992 0.32002562 0.0673997 -0.25879213 -0.31894705 0.3220499 0.26570153 -0.19475111 -0.28180647 -0.17845291 0.29950374 0.31160885 0.28675026 -0.3008879 -0.085282296 -0.3165583 0.1268938 -0.24871495 -0.30420828 0.06710309 0.31316283 -0.063817844 0.2638106 -0.30856004 -0.31894234 -0.23113722 0.03697612 -0.3449299 0.068245605 -0.30542904 0.29477745 0.07184278 0.31740215 -0.30588108 -0.29722503 -0.29927862 -0.037551958 -0.26726598 0.30727768 0.2742393 0.10525033 -0.28849432 -0.2692799 -0.28529567 -0.32462952 -0.31344843 0.28755957 -0.327711 -0.19617198 0.22361135 -0.27579245 0.32250068 0.29791358 -0.29770315 0.32515657 -0.21939014 -0.3239774 -0.30315423 -0.27303147 0.21739222 0.13470694 0.31732625 0.23921147 0.12947983 0.14614779 0.28295323 -0.32673937 0.31581527 -0.3464281 -0.28653213 -0.27259272 -0.13387546 -0.2366124 0.2983929
见 -0.34352374 0.33871788 0.31026074 -0.2778867 0.036069877 0.3040275 -0.3011579 0.3208978 0.34764028 0.29627234 -0.15560459 0.01936004 0.33491114 0.28837025 -0.29265982 0.2692783 -0.3360805 0.32429436 0.30516458 -0.300976 0.32725105 0.30735803 -0.3647602 0.3198672 0.2864293 -0.31475613 -0.3358863 -0.26368216 0.3238885 -0.32380795 -0.33347917 0.3073786 0.04042771 -0.120266266 0.3077726 -0.32403237 -0.31268826 0.2046608 -0.045357928 -0.26375008 0.27221543 0.098838516 0.30243415 -0.32887638 0.18080498 -0.34436297 -0.3071884 -0.34736565 -0.33007535 0.3140792 -0.30035576 0.029428106 -0.014661242 -0.33858454 -0.2704521 0.31506208 -0.30885345 0.24519742 -0.29602936 -0.29559517 -0.031384222 -0.22909035 0.32807696 0.2159417 -0.31778497 -0.30312872 -0.30041826 0.18636009 0.047217023 -0.32577872 -0.30096328 -0.2985713 -0.2909385 0.33250794 -0.28302994 0.26758325 -0.13342728 -0.04847394 -0.29628822 0.32551274 0.2388829 0.25273824 -0.32983667 0.15757537 -0.2079354 0.2858242 -0.3406397 -0.12787281 0.34690657 0.3690634 0.35579714 0.15434818 -0.29782692 -0.2842334 -0.27386674 0.32373562 -0.2912623 -0.18409003 0.32686663 0.25862765
学 0.32236856 0.3191807 0.27352247 0.23952112 -0.30486143 -0.2862858 -0.24245952 0.22129287 -0.3205216 -0.26682872 -0.2831234 0.30644578 -0.26474443 -0.29001245 0.28910366 0.3055641 0.3174935 -0.21274304 0.2465105 0.13114764 -0.23052028 -0.3049537 -0.26630983 0.31658584 0.23993114 0.29368374 0.12021293 0.27047384 0.11433059 -0.28017855 -0.27608874 -0.30346203 0.1403826 -0.27987045 0.22245711 0.25004593 -0.31923988 0.287503 -0.12875247 0.30231032 -0.24867533 -0.2620987 -0.26923937 -0.29239982 0.29723477 0.3056551 0.27605838 -0.26650423 0.29864588 -0.28658172 0.29211974 0.2979072 0.29611912 -0.2409045 0.15643631 0.14671578 -0.24328028 0.31314808 -0.022149336 0.3068393 0.2522692 -0.29723155 0.307251 0.27273938 0.28347865 0.3106273 -0.26986545 -0.20319027 -0.3105502 -0.28711587 -0.2915042 -0.29456088 0.065372296 -0.22641838 0.27989903 -0.31467515 -0.3142938 0.25293767 0.27219972 0.3099374 0.2761488 0.30878156 -0.30956286 0.2510837 -0.1850583 -0.28980085 0.31067172 0.2392481 0.2460987 0.30004945 -0.30628976 -0.29489902 -0.22136869 0.2650861 -0.11169947 -0.2628361 -0.29765248 0.26821917 0.30124497 0.17131764
事 -0.31517425 -0.30171406 0.23516771 0.1307079 0.3004452 -0.16179797 -0.26069558 0.29943824 0.33143896 0.14186238 -0.32633027 -0.27651903 0.30940527 0.24918264 -0.30982783 0.2868949 -0.30594784 0.2140627 -0.15515234 -0.2430181 0.13238081 0.32205638 0.27179986 0.16074376 0.23396759 0.20367084 -0.34804988 0.29136327 0.20860592 -0.3134844 0.31808117 0.2845032 0.10779159 -0.2546824 0.2561231 -0.27779162 0.09183765 0.29872447 0.33429098 -0.3189041 -0.24815679 0.30587542 0.32655737 0.27781528 0.16099642 -0.2525183 -0.20756249 -0.24141665 0.330571 -0.21120444 0.23160209 0.3193348 -0.20525147 0.32166916 0.26052788 0.20731917 0.29514873 -0.31229958 -0.27305838 -0.32325378 -0.24010028 0.0088961525 -0.29724315 -0.30952471 0.26670003 -0.15573102 0.24644546 -0.31850624 -0.19297357 -0.29868913 -0.14651297 0.05733055 -0.29231548 -0.3160233 -0.042858623 0.3468949 -0.20203264 -0.31832466 0.0395849 -0.26572976 0.2689309 -0.15596396 -0.3086038 0.37985265 -0.25947216 -0.11744752 0.1623019 0.2687814 -0.32311153 -0.30087367 -0.30603692 0.27263355 -0.3220437 -0.31142214 0.23052374 -0.16569635 -0.10667087 0.0053896783 0.32341683 -0.29951885
是 0.1074208 -0.32625744 0.6173677 0.01760742 0.11089721 -0.37650433 0.4948063 -0.23998024 -0.43879926 -0.104196146 -0.52638716 -0.0437514 -0.45294365 -0.32826167 0.40115026 0.49366665 0.59440625 -0.47345328 0.5639649 0.3064992 -0.55075866 -0.4827161 -0.52600175 0.45875442 -0.6257277 0.5697366 -0.35589367 0.5992719 -0.03349448 -0.4234789 -0.60854185 -0.52642053 -0.18900113 -0.60394937 0.58984655 0.4144115 -0.09277667 0.38550875 -0.50458455 0.70483285 0.09402243 -0.2390218 -0.13506055 0.3953452 0.012522865 0.53104544 0.5434559 -0.16991283 0.5899653 -0.026385512 0.61533004 -0.52490616 0.1406776 -0.18653242 -0.20810357 -0.54976344 -0.5838326 -0.2360001 0.59732026 -0.5319348 0.3324596 0.35956585 -0.53630584 0.5932923 0.5561963 0.41910797 0.08736805 0.6068504 -0.5412198 0.5663259 -0.5942956 0.54382026 0.47685996 -0.5806411 0.42229187 -0.54824835 -0.5305588 -0.29331338 0.33238485 0.21825068 -0.4889497 -0.5972332 -0.63591677 0.53564584 -0.5706636 -0.5946453 0.520263 0.23512675 -0.562103 -0.16083528 -0.52001095 -0.25508282 0.5570023 0.3548883 -0.015768498 -0.38850594 0.12822373 0.5702059 0.42875376 0.2511657
哉 -0.084941305 -0.31079787 0.042493 0.1938243 0.30550858 -0.025418151 0.08850171 0.2627424 0.29185402 -0.38111842 -0.24711943 0.3075876 -0.1146175 0.09823743 -0.3083827 0.27384505 -0.35316756 0.12010965 -0.3648399 -0.23692685 0.252885 0.27801913 -0.21705063 -0.3743268 0.1932264 -0.03597985 0.32958066 0.018089077 0.15937795 -0.23089969 0.0035680472 0.30791682 -0.2371762 -0.24705021 0.3096035 0.34986103 0.10195237 0.32094708 -0.32126132 -0.17709787 -0.39799047 -0.15696327 0.05741253 0.22808698 -0.36327344 -0.33546388 0.20242655 -0.33633587 0.20142622 -0.2653428 0.28353292 0.28963843 0.25606018 -0.03749833 0.35927254 -0.118827 -0.18863268 -0.2842337 -0.1324879 -0.11629078 -0.02838434 0.3123038 -0.323155 0.34493157 -0.3632793 -0.167843 0.37274516 -0.30777714 0.01851 -0.3329664 -0.32579407 0.30525497 -0.11400898 -0.32369116 0.31865203 -0.21667904 0.06532706 -0.27419809 0.29628038 0.042683456 0.34572554 0.23062013 -0.0073829824 -0.026156658 0.21816997 0.33613345 0.26689738 -0.09100345 0.16390075 0.060617797 -0.32202905 0.15816818 -0.20585705 0.33920705 0.019906905 -0.16681205 0.3140558 0.1893086 -0.10138802 0.08281245
闻 0.30222592 -0.18279673 -0.25442263 -0.13789845 0.3248406 -0.30764884 -0.27429834 -0.13925412 -0.2884342 -0.3603335 -0.042299636 -0.35118103 -0.10503477 0.20581001 0.21203294 0.32442114 -0.1798862 0.2899626 0.14419481 0.24164495 -0.11830382 -0.31426078 -0.15825321 0.3031783 0.34853855 0.35364348 -0.35927287 0.34811428 0.0461554 0.23613968 -0.34095815 -0.32178894 0.20709224 -0.29745406 0.344016 0.31634957 0.23145826 -0.3127251 0.24074331 0.34458202 0.17192933 0.21534579 -0.29513964 -0.34587803 0.3150529 0.32634628 -0.26488462 -0.21012622 0.3469367 0.14776298 0.3397623 -0.17142487 0.31087264 0.27670988 0.2657186 0.27043936 -0.28867072 -0.35478866 0.088022545 -0.1210114 -0.09399813 0.1594397 -0.35251266 -0.3117267 0.13525397 0.2733765 0.025900172 -0.26168492 -0.28606722 -0.11208499 -0.35908902 0.13963765 0.33616194 -0.3088782 -0.2326043 -0.17497604 -0.061378982 -0.34467903 -0.3027905 -0.3062031 0.13194071 -0.34099758 -0.2875126 0.33913082 -0.2799352 -0.04023546 0.3477212 -0.114762306 -0.31566468 -0.32515582 -0.34830555 0.13957086 0.34169528 0.30275685 -0.18728986 0.013001058 0.21075553 0.06589016 -0.35218662 0.18820073
未 0.21980806 -0.29459983 0.20894808 -0.04816758 -0.28350565 0.29730436 0.03192758 0.2617158 -0.16031015 -0.27334192 -0.27753562 0.28358468 0.31138575 -0.30975717 -0.26786068 -0.14877473 -0.28260157 -0.2992943 -0.28533503 -0.35378757 0.31796342 0.30181047 0.32241073 0.3450452 0.2964058 0.2493124 0.33149597 0.21305339 0.1031749 0.29137596 -0.30299813 0.29553115 -0.32155058 0.24916501 0.13105047 0.32082725 -0.1577289 -0.3219918 -0.2771261 -0.2916587 0.2866655 -0.18463193 -0.28012162 0.29878324 0.16083519 0.27576077 0.29831588 0.32036078 -0.2624585 -0.27715167 -0.30944633 -0.28219122 -0.3203773 0.31202853 -0.3299941 0.26483938 0.2633296 -0.3050134 0.29054588 0.24813503 0.3123413 0.2861056 -0.34120438 0.22775285 -0.18405306 0.119527064 -0.2893877 0.12245985 -0.24184592 0.31660268 0.31941995 -0.25411367 -0.31437775 -0.29351196 0.32520527 -0.31292215 -0.058804635 -0.293658 0.2755242 0.3090518 0.27569118 0.3116556 0.31462634 -0.30505636 -0.22258246 0.31573367 -0.30127668 -0.32190612 -0.29067525 0.3223037 -0.28631335 0.061172575 -0.11198517 0.26165196 0.06327845 -0.054548267 -0.08192818 0.32166442 0.29639068 -0.24148473
公 0.3007844 0.3494453 0.015247164 0.3657529 0.30546284 -0.30837563 -0.32035074 -0.2736346 0.35313302 -0.31746602 0.33316797 -0.3013534 -0.36346614 -0.3534135 -0.34183228 0.30480066 0.37061292 0.3702473 -0.30926728 0.3074255 -0.30662245 -0.27140853 -0.3608083 -0.26822117 0.31779358 0.3097047 0.08978776 0.31609306 -0.29163533 -0.31776097 0.0687479 -0.31280184 0.32244748 -0.3491358 0.26004338 0.32178447 -0.28270072 -0.31045544 0.017349545 0.12627316 0.032440018 0.24136977 -0.1330643 0.14109817 -0.22820777 0.31572703 -0.33793885 -0.12550323 0.3118542 0.36894965 0.14583981 -0.14167553 0.074517794 -0.08842277 0.07559782 0.26992217 -0.08773483 -0.32822958 0.2379635 0.24995486 -0.33983362 0.32203627 -0.32864124 -0.27197084 -0.3162916 0.31616768 -0.32807365 -0.30156383 0.38562942 0.34750193 0.32591456 -0.3434647 0.30642742 0.33897972 -0.30464888 0.22703652 -0.30827126 -0.29672778 -0.1565942 -0.24883959 0.31399497 -0.30479944 -0.32968906 -0.33956096 -0.23984435 0.32132077 0.14145647 -0.33442166 0.36428636 -0.07011908 -0.26908553 0.3879748 -0.25053167 -0.16121244 0.35601345 0.1226911 0.31698462 0.20578371 -0.043752175 -0.13282734
好 -0.35614628 -0.20721012 -0.26705965 0.2954866 -0.32163462 -0.30001715 -0.3158083 0.25537154 -0.2134539 -0.3486106 0.11523451 -0.27910247 0.29611918 -0.27732423 0.24709362 -0.32803047 -0.25095758 -0.31873497 0.22163904 -0.20095529 -0.09505394 -0.13548325 0.33546525 0.27392474 -0.252698 0.27625772 0.1616611 0.013661988 0.1520954 0.3047043 -0.30152944 -0.30121127 -0.3284486 0.2204021 0.3257383 0.30476227 0.24032614 -0.16891627 0.25949433 0.27380696 -0.10388171 -0.19170678 -0.32638276 -0.069346204 0.32540798 0.3178274 0.3393212 0.3053906 -0.1601747 0.32653433 -0.096233495 -0.29081303 0.11836235 0.3052168 -0.3267081 0.31916982 0.24741293 0.088111356 0.311652 -0.16900095 0.32199568 -0.30986276 -0.11469954 0.21862589 -0.33089212 0.32469323 -0.15843378 0.31557506 -0.097725235 -0.08994131 0.13962448 -0.26099214 0.23752227 -0.11268697 -0.10627861 -0.3397349 -0.15384315 -0.27541503 0.08420426 -0.28216138 0.107723944 0.31053877 0.33723885 0.2941314 -0.3046425 0.3318659 0.28970796 0.2737275 0.3684818 -0.30604178 0.021817528 0.011779476 0.3258858 0.18434899 0.27176827 0.054346047 -0.1581698 -0.21506503 0.14826478 0.062653854
我 0.017924484 -0.12399055 0.32761097 -0.15523888 -0.16739531 -0.16634645 -0.25284073 0.34538025 -0.20959494 -0.20547283 0.27679697 -0.1496706 0.10659223 -0.27471328 0.30945894 0.11504349 -0.021134136 0.12828383 -0.2997006 0.19754738 0.2048945 0.32033703 0.2714691 -0.141831 -0.079722546 -0.21819904 0.1349006 -0.09831 0.16106074 -0.25076628 -0.3285135 -0.17449823 0.112245694 -0.08902773 -0.028694896 -0.19108339 0.28071803 -0.17835946 -0.3410017 -0.15195407 -0.2410986 0.160235 0.30059057 0.36036903 0.30874023 -0.104572155 -0.24065134 -0.3312985 -0.042794414 -0.21295182 0.011829877 0.30324164 -0.3130248 -0.2305917 -0.21786526 -0.26744497 -0.30024716 0.026259514 -0.028035192 -0.3598992 0.32789087 -0.3431981 0.28417167 -0.27859983 -0.28694937 -0.1419094 -0.10163281 0.18419029 -0.29665282 -0.21848315 0.30828208 0.19318628 -0.008618854 -0.23830323 0.0020719 -0.36072505 -0.219709 0.34356084 0.0961266 -0.20840424 0.3013134 0.31512854 -0.15416299 -0.32863918 -0.22682573 0.15120427 0.35243562 -0.25342834 0.14984336 -0.12547837 0.23022172 0.19196036 0.24216999 0.31669423 0.10127312 -0.020278513 -0.26088896 -0.34223935 -0.005559816 0.0014601947
路 -0.33327642 -0.19155417 0.25019762 0.32371813 0.2946972 -0.34511703 -0.2404194 -0.23869394 0.30742326 -0.17260772 0.34582633 0.33244672 0.210408 -0.34861368 0.27790564 -0.19024223 -0.3449306 0.26362184 0.33185032 0.1564235 -0.33216548 -0.17523555 0.1708488 -0.32985058 -0.33908194 0.2795146 -0.35671744 0.27737123 0.33437577 -0.15856957 -0.05103623 -0.31476426 -0.050283737 -0.3369072 0.23854022 0.29293334 0.29765987 -0.31220046 -0.048414946 -0.29974857 -0.33039495 -0.3182772 -0.27991912 -0.32008144 0.32787246 -0.13359267 0.2869927 0.229911 -0.12305211 -0.16401911 -0.33239448 0.26411694 0.19819777 0.32635766 -0.31381357 -0.25828663 -0.24660614 0.2972528 0.24023771 -0.14118773 -0.2376596 -0.26543087 0.016825316 0.026100311 -0.032444444 0.3276923 0.009726363 0.19763264 0.0877236 -0.32816362 -0.20976713 -0.33935678 0.32659966 -0.29742023 0.3682418 -0.28701174 0.10873782 0.14339593 0.1252725 -0.18734479 0.33136776 0.11010659 -0.34037125 -0.17010322 -0.3364145 -0.31252706 -0.11124831 0.32078242 -0.18888046 -0.32471675 -0.32274598 -0.34525317 0.29155344 -0.018067181 0.1780256 -0.2893746 0.21056575 0.36844972 0.31658995 -0.10765852
在 0.44889575 -0.62362903 0.44539034 -0.19758785 -0.49017477 -0.39467382 0.5119238 0.4180588 -0.5848368 -0.36252886 -0.5173314 -0.10514733 0.5081107 0.23784997 0.42971593 -0.028181726 -0.38275155 0.051323023 -0.03601598 -0.17586045 0.5399486 0.06827611 0.5470445 0.20612031 0.5432036 -0.28273132 0.09146142 -0.5496335 0.12818006 -0.00071854267 -0.5559278 0.22199208 -0.5681791 0.53124106 -0.5804772 -0.36793908 0.39244145 -0.56980044 -0.5023293 -0.4802391 -0.39137432 0.33513877 0.43448967 0.62682503 -0.40853712 0.2678752 0.40787736 -0.6006677 -0.25888458 -0.054312453 0.30554327 0.58658844 -0.51416695 0.10638822 -0.057491854 -0.40419644 -0.46913484 0.5270232 -0.42650306 -0.22304758 0.5534044 -0.47981107 0.47064844 -0.1393956 0.36113173 -0.4227134 -0.0043282597 -0.017683899 0.60237914 -0.44479442 0.13285154 0.25576818 -0.4392601 -0.2887859 0.5134322 -0.5087526 0.6293813 0.58456564 0.47405756 -0.56792754 0.03543899 0.57895416 -0.57677644 -0.43354174 0.490338 0.14509563 -0.062418837 0.5281554 0.6523545 0.20389205 -0.27008635 0.24380477 -0.5971404 0.36786476 -0.59840417 -0.13457243 -0.40700707 -0.552313 0.5956462 -0.53717655
已 -0.25830165 -0.25285116 0.30223566 0.23326886 0.3040163 -0.24537359 -0.23370138 -0.3363928 0.33855876 0.32245785 0.29424003 0.29047307 -0.07398387 -0.3070391 -0.27889377 -0.32334292 0.02128406 -0.14586034 0.31029457 0.30914322 -0.28150055 -0.27495027 0.25484964 0.3376222 -0.34367904 0.034667578 -0.29699844 0.29629079 0.28261924 0.3281936 -0.27068412 -0.3173622 -0.21371114 -0.27573645 0.30050886 0.28903365 0.25195837 -0.2998267 -0.310246 0.18385953 -0.24761896 -0.22307527 0.28493744 -0.31389922 0.19734222 -0.2586187 0.26233628 -0.26980132 0.008847005 -0.023162456 0.295088 0.11495965 0.30392924 0.3051393 -0.30225378 -0.32502416 -0.3156645 0.08843839 -0.3073069 0.27025226 -0.3313509 0.21442163 -0.27205598 0.24845865 0.30988914 0.31772164 -0.29736397 -0.2625916 -0.31313813 -0.23490453 -0.20802692 -0.2626322 0.2923822 -0.18215275 0.22271211 0.00780324 0.15934926 -0.10250206 0.29277498 -0.26282948 -0.24935031 -0.29566395 -0.30744112 0.079741955 -0.30764714 -0.3234558 -0.36500052 -0.27962643 -0.26594734 0.31203398 -0.27615112 -0.291865 -0.21799937 0.04483917 0.29016474 -0.29492018 -0.0669225 -0.25304097 0.13872379 0.19023085
得 -0.010110944 -0.31896576 -0.12962063 -0.30985883 -0.32617995 -0.28050473 -0.0701569 0.33671677 -0.2986866 0.14005625 0.23694511 0.34724003 0.3089964 0.016506905 -0.25173154 -0.36556822 0.31681803 0.28913382 -0.16150188 -0.34096023 -0.18170173 -0.31155398 0.31428996 -0.2439026 0.016527973 -0.32684678 -0.29725543 -0.33443865 -0.23802662 0.3343364 0.3041449 -0.31734988 0.11254857 0.26209906 0.32573545 -0.2927521 0.34183878 0.19190589 0.0036688764 0.29959542 -0.18538408 0.15580429 0.2730487 0.3224767 -0.26417863 -0.26513135 0.32926252 -0.32109022 -0.35540986 0.3122168 0.31397495 0.24724382 0.24720353 0.15143475 -0.15568882 -0.28046754 -0.27116707 0.32505918 -0.29339862 -0.24457237 0.37198272 -0.29850304 -0.30380562 0.27870452 -0.048922375 0.29920873 0.018616628 0.3281759 0.052292723 -0.32719222 0.2959627 0.3143425 0.23797414 0.33022264 0.050325245 -0.34601173 -0.26959914 0.22029883 -0.32644737 -0.3193019 -0.24074169 -0.22676311 -0.22876026 0.2655348 0.18662089 0.0022660494 0.3082469 0.36683315 0.32408154 0.2735716 0.31921315 0.02729746 0.057043318 0.29403278 -0.23695159 0.3164211 -0.15795332 -0.3279885 -0.30110496 -0.10924483
所 0.29583582 -0.26342374 -0.24772997 0.10512164 0.33020642 -0.15481402 0.27744582 -0.3263619 0.33516932 -0.23288813 -0.2860379 0.31264552 -0.18953079 -0.34251022 0.19217198 -0.30277854 -0.2711283 0.08779004 -0.2480448 -0.16819927 -0.3542731 -0.17402637 0.20771314 -0.32661253 -0.33707464 -0.31619823 0.26220477 0.29520085 0.2259404 0.33219123 -0.16420716 0.1936698 -0.25081602 -0.23779082 0.31532905 -0.35318744 0.1750345 -0.024539068 -0.33838055 0.24607939 -0.32279748 -0.06855986 -0.25617233 0.21241064 0.07172526 -0.079647146 0.2835625 -0.32617694 0.116167255 0.25839272 0.33476755 -0.27599922 0.19115949 -0.073786184 0.18966635 -0.3157238 0.28274304 -0.23534438 -0.3158473 0.3236467 -0.32898626 0.30830315 0.34640723 -0.20595108 0.33638495 0.313485 -0.32567438 -0.30224103 -0.33494043 -0.23282775 -0.0973496 -0.35591426 0.2511095 0.33710784 -0.2785007 -0.11424438 0.29226738 0.32599908 0.28958344 -0.3264634 -0.3477806 -0.32373893 -0.33588716 0.12919204 -0.33853298 -0.31895036 -0.318798 0.34237528 -0.3374795 0.3200924 -0.26035595 -0.34115386 0.27502587 -0.37081274 0.33768913 -0.31175187 0.27415383 0.03197385 0.11969214 0.28182945
民 0.0963067 0.17410362 0.23557407 0.19399615 -0.2123393 -0.2847349 -0.32538146 0.20068868 0.34851545 0.085352175 0.34145203 -0.26399842 -0.34475818 0.32980335 -0.3079539 0.18162079 -0.34371424 0.2598079 0.27891147 -0.34374186 -0.09823562 -0.17123757 0.3133454 -0.33189192 0.20360683 0.2551214 0.35064992 -0.32774556 -0.3397464 -0.12597044 0.30202234 -0.3526079 -0.3344334 -0.29270378 0.31612092 0.05070193 0.29072145 0.33341262 -0.24968503 -0.07688217 -0.11867269 -0.33690706 0.18134405 0.28820136 -0.38889444 -0.3176078 0.3117675 -0.101546876 -0.004218868 0.002341068 0.30202714 -0.2926811 0.34653085 -0.3404113 0.31575382 -0.35690525 -0.26582196 -0.11429708 -0.24803501 -0.093885496 0.30830273 0.3374004 -0.271672 0.2979735 -0.04892285 0.30020612 -0.12186621 0.1510657 0.15880635 -0.3240238 -0.28670537 0.26882422 0.3197378 -0.03602014 0.29531208 0.3246415 -0.009352576 0.31348923 -0.34272245 -0.30740222 0.25907812 -0.29549366 -0.07376595 -0.15681215 0.070711285 0.031943507 -0.115761526 -0.13457376 0.34690592 0.061524138 0.36854416 -0.060323402 0.20059249 0.33454105 0.26902625 -0.042275973 0.08427836 -0.13210724 -0.30237788 0.31720844
小 -0.15135594 0.068204075 0.14398795 0.3427663 0.31930423 -0.23249462 -0.06422856 -0.005046149 0.3230143 -0.33955646 0.199747 0.29304987 -0.14253467 -0.100376196 0.2619757 -0.15007672 -0.29733008 -0.33650273 -0.33228195 -0.3313066 0.24049582 -0.33203274 -0.16853924 -0.23395373 -0.32607672 0.30410936 0.30331072 -0.27469096 0.23647654 0.34180132 -0.29405496 -0.33466893 -0.29814073 -0.31687477 0.2460613 -0.27455807 0.30968928 0.30660826 -0.29446355 0.33143324 -0.2591146 0.017499708 -0.31506133 0.33609736 0.0028574225 -0.3213357 0.32420528 -0.32355255 0.25148752 0.3446854 0.35059136 0.24674599 0.34833187 0.23330317 -0.025359627 -0.21392155 0.029602667 -0.30135426 -0.13776283 0.31828144 0.25619262 0.32845277 -0.27847368 -0.27390677 0.21370359 0.3332878 -0.12032093 -0.19912794 0.22257966 -0.23534632 -0.29130578 0.23366265 0.282962 -0.28172624 0.31504866 -0.34153146 -0.33254406 -0.2612717 0.26289052 -0.31895748 0.29026783 0.28666362 0.32559377 -0.21590257 0.16367178 0.2800206 0.30916613 0.33141154 0.32686582 -0.3351279 0.22973941 0.086819254 0.32030115 0.3241638 0.34341496 -0.27871296 -0.23528418 -0.32078078 -0.23743154 0.12811467
天 0.29657674 0.30386543 0.3244729 0.30968133 -0.0014515714 -0.31050107 -0.3214944 0.33083695 -0.32825285 0.3221104 0.33959317 -0.28649524 -0.2923138 0.31006148 -0.33549058 0.31044245 -0.26214018 0.24928837 0.29507077 -0.2755143 0.2867747 0.29506683 0.011571357 -0.26897523 -0.29772627 0.30939823 0.30357912 -0.3198496 0.332835 -0.27041534 -0.336428 -0.0051372712 -0.3034354 -0.32344905 0.3284057 0.30129224 0.31335226 0.2819056 0.2968336 -0.34336278 0.08727869 -0.3050861 -0.0029316605 0.3082739 0.32532185 0.3005665 0.30482286 0.30316392 -0.31427184 -0.3074725 -0.028763467 0.300979 0.32966286 -0.3011871 0.32770556 -0.3475257 -0.07605175 -0.3010485 0.3016327 0.33881074 0.2745033 0.2642746 0.27956802 0.26805913 -0.30370605 0.3089377 -0.29714954 0.2923433 -0.31969267 0.30638802 -0.30059937 0.3089566 -0.35415098 0.30218488 0.28692532 0.27172127 -0.30423242 0.3353649 -0.2574507 0.26538214 -0.2955382 0.31495646 -0.3362671 -0.2955018 -0.30885348 -0.35138145 0.30465224 -0.14119053 -0.31955642 -0.11238999 -0.27607659 0.30399618 0.305811 0.31848368 -0.3122881 0.32326394 -0.30168462 0.33513045 -0.3239863 0.31238803
乐 -0.31696695 0.29889497 0.10855412 -0.28880164 0.2771027 0.10543412 0.18673337 -0.26554507 0.22420979 0.029502856 -0.23244457 0.046768177 -0.3037295 -0.27696684 -0.14754528 -0.13470353 -0.15405822 -0.24205711 -0.36134717 -0.31720507 0.014616029 -0.3447317 -0.2708053 -0.326402 -0.3375716 -0.304048 0.2725553 -0.3052014 -0.12620403 0.33892807 -0.3111858 -0.32699454 -0.33330616 -0.13221192 -0.21294387 -0.18314812 0.17900436 0.35520148 -0.26365206 0.15615427 0.18283103 -0.22096212 -0.33277258 -0.016470198 0.29704887 -0.16268902 -0.30102456 0.24159364 0.08268038 0.274512 -0.26097322 -0.32751033 0.31740767 0.02061319 -0.13300453 -0.2652774 -0.32228565 0.3117954 -0.08019028 0.21058457 0.3447997 -0.22648157 -0.3177023 0.2522028 -0.3110537 0.31660613 0.16919026 0.12050708 -0.2663339 -0.26712644 -0.2749959 -0.14487833 0.33267885 0.13949351 0.33659256 -0.05829759 -0.324921 0.32161126 -0.3265044 -0.30085036 0.20458029 0.11720313 0.345154 0.32461017 0.030682655 -0.111370206 0.33152163 -0.3117524 -0.03134173 -0.33475617 0.31808725 -0.29358646 0.35987997 -0.07156728 0.05235631 -0.209297 -0.0018933092 -0.32306433 -0.33874732 0.3342351
邦 0.5818234 0.40886667 -0.27084255 -0.27191138 0.6147742 0.4970913 -0.3898336 0.35852313 -0.5231987 0.26761663 0.060831327 0.15708633 0.27035034 -0.4217517 0.36429787 -0.18154088 0.40360177 0.21027693 -0.063517675 -0.39525086 0.1151369 0.5846545 -0.14976522 -0.5239898 -0.46432775 0.42470396 -0.28962573 -0.53166884 0.39335743 -0.28360763 -0.38716623 -0.32641682 0.16362879 -0.3064703 0.17110121 -0.014054145 0.43731856 0.5228326 -0.3352608 0.07066228 -0.48724663 -0.5464507 0.495745 0.50014496 -0.40966797 -0.04054658 0.43316013 0.064902976 -0.25328285 -0.5218207 -0.32609496 0.21716566 -0.3131444 0.5404852 -0.5823869 -0.46056858 -0.029346056 -0.3931653 -0.17627917 -0.16658258 0.3434625 0.5588754 -0.015430221 0.5248554 -0.18387938 0.35664627 -0.59995234 0.4414103 -0.31138763 0.33407614 -0.14621459 0.29624662 0.015492865 0.5075137 -0.22046712 -0.29780963 -0.34936783 -0.35984018 -0.48120725 0.15842861 0.07575017 0.0948009 -0.4965567 -0.5866118 -0.5318681 -0.26859963 0.3524319 0.38748637 -0.15528718 -0.5101518 0.07978697 -0.30163723 0.42144832 0.14362396 0.25828245 0.29754072 -0.19049223 -0.55817294 0.0747121 -0.055884603
亦 -0.33931866 -0.20321777 0.06425452 0.2523086 -0.12578243 -0.28983346 -0.07239267 -0.27741656 -0.3083372 -0.307362 0.27402818 -0.116871364 0.18419185 -0.35627475 -0.2261127 -0.008170189 0.34863606 -0.25723493 -0.20532314 0.21532884 -0.21223481 0.114617355 -0.17607205 -0.3215606 0.31723565 -0.22790726 0.2191409 -0.08954011 0.24085286 0.14990819 -0.34251335 -0.25726163 -0.16615975 -0.122392066 0.18361138 0.35069364 0.08902571 0.29571497 -0.021869954 -0.12103361 0.20895462 -0.21344797 -0.048030216 -0.34123623 0.33769384 0.35051456 -0.29171893 0.34280583 -0.0294334 -0.31196007 -0.056332465 -0.20245829 -0.32937813 -0.3128089 -0.056298975 0.30347264 -0.34311345 0.07775718 -0.05580117 -0.21743463 0.2650024 -0.08050653 -0.29221365 0.23484823 -0.046904184 -0.06973466 0.06883927 -0.03873761 -0.34130913 0.025107427 -0.25950927 -0.34641618 0.068221465 0.12854148 0.31516692 -0.10576381 -0.21260335 0.03637243 -0.32213736 -0.20667003 0.13229436 0.17989717 0.34766445 0.21912464 -0.059651893 -0.21024084 0.3503653 -0.19569394 -0.08550146 -0.32983452 0.17586236 -0.14470828 0.34536734 0.264869 -0.03488237 -0.17057972 -0.19166085 -0.21934448 -0.33965445 0.33802918
使 -0.353717 0.2319704 -0.017671783 -0.22030804 0.39876068 0.090370186 0.13007852 0.27944344 -0.14364995 -0.28938746 -0.12806815 0.3656632 0.13081947 -0.12593451 0.31436217 -0.1021052 0.18206295 -0.07818847 -0.35497996 -0.27732056 -0.30403408 0.27659014 0.30727088 -0.31816515 -0.3388398 -0.31780893 -0.35352123 -0.15559939 -0.19236347 0.32380304 -0.07385241 0.13185835 0.29082853 -0.04957694 -0.15843838 0.25185654 0.33463806 -0.037547257 -0.20775454 -0.280987 -0.33290958 -0.3056058 -0.20574252 0.33528882 0.2593957 -0.31584042 -0.24568906 -0.30556422 0.27628577 0.33907148 0.030677283 -0.18120272 -0.15586741 0.3222361 -0.082397975 -0.33242863 -0.12960476 0.046136055 -0.10941161 -0.3010079 0.28314778 -0.25129235 -0.31250903 0.055311326 -0.2228103 -0.16304423 0.05050937 0.21964085 -0.1049025 -0.04980328 0.2154356 -0.31435448 0.30089667 -0.23222238 0.06378529 -0.34651613 -0.090161055 0.1094515 -0.3106792 -0.31041723 0.31661075 -0.0820334 -0.28573588 -0.29007983 -0.18326288 0.23183589 -0.33671442 0.21441261 -0.050155096 -0.31016532 0.11225472 -0.24163426 0.2978599 -0.32497373 0.33271816 -0.09197372 0.3427954 -0.3194563 -0.27537724 0.20396875
大 -0.32283008 -0.2513054 0.2840193 -0.26420745 -0.24009909 -0.019362867 -0.25697136 0.31241986 0.3214432 0.20983104 0.17649917 0.254895 -0.027994651 0.2982478 -0.32046613 -0.3140235 0.32588398 -0.26782927 -0.3439 0.3062101 0.2814736 0.15560606 -0.15401912 -0.29841453 -0.20179349 -0.320769 -0.2502108 0.3891265 0.27295315 0.28962582 -0.33455154 -0.3208742 -0.3307121 -0.32202762 0.32857305 0.35247782 0.336977 0.29560912 -0.32107162 -0.19499841 0.31767523 0.26103476 0.3078391 0.30681854 0.2686216 0.34316948 -0.31062457 0.24088313 0.31706908 -0.31705552 0.29531854 -0.33384147 -0.31151766 0.33850256 0.26843336 0.25088343 -0.17524922 0.32477474 -0.21014318 -0.27756736 0.3145387 0.31093907 -0.12867796 -0.2600208 -0.32761517 0.2607407 0.30153987 0.31716877 -0.31278348 -0.2928061 -0.30542734 -0.30451196 -0.28872162 -0.29949063 -0.27888247 0.30743048 -0.31577548 0.32393807 -0.3415418 -0.3235223 -0.3157829 0.32907322 0.2736152 -0.04694302 -0.2712085 0.20525225 0.28579786 0.24792242 0.2924531 -0.26872116 0.30231577 -0.31886533 0.23891495 0.27353755 0.30014804 0.2878975 -0.26876476 0.27972695 -0.26363465 0.3122657
下 0.13021687 0.31721658 -0.28531972 -0.30232397 -0.2902436 0.31583264 0.3166914 0.3361935 0.29860207 -0.31536174 -0.3216292 0.32467896 0.33398318 -0.2997395 0.31168225 0.2873466 -0.2672537 0.27334028 -0.323555 -0.27712694 -0.3315308 -0.3397412 -0.31763858 -0.18543103 0.20784342 -0.3081965 -0.31518593 0.2558434 -0.32042357 0.3414481 0.3198288 -0.3256782 0.31674352 0.36809474 0.32596388 -0.005244124 -0.34586692 -0.33005935 -0.08714046 0.3244564 -0.29894134 0.3187118 -0.2106064 0.33046785 -0.29148746 -0.30144945 0.29565525 -0.32630572 0.34148732 0.32561916 0.32224694 0.3120458 -0.34586173 0.32627943 0.30994928 -0.298127 -0.32791895 0.009737292 0.32486284 -0.23477136 -0.2928469 -0.28878862 -0.31035116 0.33088195 -0.32367387 0.1719139 -0.2656564 -0.33751512 -0.35237423 -0.31350732 0.2737144 -0.3090936 0.33024165 -0.13944368 -0.29549876 -0.26715708 -0.3525914 -0.2842602 -0.27034208 0.23431082 0.32200515 -0.34949195 0.34540194 0.11577003 0.30972493 0.32419974 -0.30797845 -0.2585207 0.30493325 0.28413576 -0.29995045 -0.3088976 -0.31691942 -0.32727975 -0.34754956 0.30364153 -0.3184346 -0.21611218 -0.27873078 -0.193342
贡 -0.3493027 0.33056742 -0.18998042 0.22243556 -0.1559775 -0.3435142 -0.24511854 0.17607808 0.31553298 0.19992788 0.20701207 0.077708565 -0.33707863 -0.18518144 -0.31186646 -0.19982873 0.35507518 -0.29998875 0.3413442 0.33419982 -0.06028497 0.32569394 0.3513068 0.29403985 0.10230972 0.25877765 -0.36421648 0.11110017 0.3181773 -0.23147886 -0.241502 -0.32381248 0.36238483 -0.23872426 -0.19320881 0.33072218 0.22235689 0.043360006 -0.33806542 0.12624697 0.15439051 -0.37501648 0.29186502 0.3336373 0.24285424 0.32822412 0.3567495 -0.24141574 0.34283274 -0.27417183 0.3541425 0.32724994 0.07180568 0.13279238 0.1250413 0.30039188 0.08450959 -0.22853534 0.15571602 -0.35861766 0.29594773 0.317791 -0.31270427 -0.33252248 0.08360419 -0.16874576 -0.3299054 0.17277336 -0.24920265 -0.19589996 -0.32440555 0.15676734 -0.006157605 -0.18581292 0.009830151 -0.18873449 -0.32151884 0.2747009 -0.33191928 -0.31037483 -0.2892018 -0.25184143 -0.30703855 -0.20177111 -0.31997094 0.36941913 0.3508974 0.03483526 -0.34563673 -0.3382982 0.0677332 -0.35007283 0.3704408 0.32841405 0.01795213 -0.049245507 -0.30150265 0.08568272 -0.28645477 0.32414877
欲 -0.32928646 -0.30345848 0.03650272 0.28954577 0.20654978 -0.07611565 0.14791961 0.2677289 0.3353359 -0.3509667 0.2821289 0.2083913 -0.32758778 0.1202331 0.26968297 0.25435215 -0.34376398 -0.35028988 0.29383165 -0.3391543 -0.2677092 -0.39974618 0.4200095 -0.34459546 -0.22183564 0.20006932 -0.36824986 0.3572044 0.25035733 0.1662783 0.34635675 -0.3704692 0.11059113 -0.3040576 0.32915714 0.2569797 -0.024585543 0.14708164 0.3907837 0.3652777 -0.3395592 0.038307637 0.32554573 0.38615754 -0.36754078 0.35475802 0.36211365 -0.092910156 -0.097982995 -0.2900823 0.0345163 0.35205933 0.35184485 0.107199095 0.35405967 0.0711983 -0.1805101 0.30802506 -0.14046216 0.23013727 0.018159678 0.33157986 -0.37445635 -0.066300474 0.17191191 0.32126924 0.3257821 -0.36721075 0.17410447 -0.35066012 -0.13808614 0.13496248 0.30622768 0.09201046 0.26509848 0.007850075 -0.058015563 -0.2401223 -0.3243803 0.13724774 -0.20083116 -0.209993 -0.019147588 0.0011954792 -0.19742794 0.15520792 0.018698465 0.19573933 0.059996344 -0.018084565 -0.177209 -0.3632713 -0.19025575 0.34674773 0.14130592 -0.047556814 -0.30239546 -0.35608298 -0.298516 -0.061003007
诸 0.02857274 0.32440302 -0.32157952 0.3171623 -0.19794782 -0.33902484 -0.29489166 0.18571037 -0.08274846 0.20644072 0.30161068 0.2194997 -0.33182266 -0.36592823 -0.2841927 -0.08731517 0.30456877 0.17567289 0.25287434 -0.2718815 -0.16017336 0.01166454 0.35080114 0.15663683 0.28680354 0.32073474 -0.36961198 0.33242893 0.33433118 -0.3452266 0.11893039 -0.3242222 0.20644163 -0.2879172 -0.17417598 -0.06797534 0.2794143 0.24608305 -0.24112216 0.2910509 0.17143914 0.082288034 0.30240682 -0.3517124 0.34823224 0.33792645 0.34320813 0.3014574 0.21840249 -0.30349657 0.31160975 0.3450689 0.33383983 0.20641223 -0.047492206 -0.22067331 0.28093624 -0.1064455 -0.26266333 -0.31282508 -0.30327618 -0.3091157 -0.3639098 -0.34358007 -0.037513506 0.30377352 -0.17813942 0.123112425 0.10116041 -0.07904018 -0.32345274 -0.23045518 -0.11646482 0.32951608 -0.25097102 -0.3344922 -0.32147685 -0.2729902 -0.35135257 0.14386193 0.27711573 -0.34260556 -0.11582916 -0.2580961 -0.305181 -0.31177127 0.3841712 -0.15725827 -0.3277567 -0.31601638 0.21316221 -0.32910407 0.33381453 0.31542033 -0.05334682 0.07597526 -0.33843493 0.11246139 -0.26105618 0.35986498
从 -0.2966054 -0.43883115 0.2442639 0.34394625 0.51493424 -0.55621076 0.44753817 0.21789269 0.09899317 0.32835487 0.5111428 0.35149565 -0.5906016 -0.30043453 -0.5400195 0.28382835 -0.1609161 -0.38426286 0.35050333 -0.4620296 0.49294543 -0.43716037 -0.13963513 0.09809604 0.6462632 0.5081159 -0.562741 0.46600714 0.4660152 -0.44028798 -0.42765805 -0.14970897 -0.3224417 -0.5481994 0.540713 -0.2912966 -0.52377385 0.48663017 0.5984009 0.580831 -0.28476328 0.4073964 0.3714608 -0.19102602 -0.20769146 0.6252401 0.5017817 0.5021092 0.5020421 -0.5452114 0.4498737 0.4272871 -0.17589615 -0.4986029 0.32469478 0.40534538 -0.5947191 -0.53503555 -0.1389092 0.48402652 0.22194916 0.4484457 -0.52349496 0.17792971 -0.516723 0.5829394 0.3613947 -0.13959593 -0.47353423 -0.49291396 -0.56727624 0.13625823 0.476362 0.40875977 0.571614 -0.17923775 -0.077493995 -0.5277812 -0.52650076 -0.020628348 -0.52526087 -0.40727574 0.57967335 0.5953132 0.32271028 0.52701664 0.65117383 0.41317844 -0.14868173 0.2208238 -0.52960074 -0.41405764 0.20226651 0.5872402 -0.0054892106 -0.5224744 -0.47508284 -0.43795714 0.26786536 0.51996344
文 0.26328126 0.0074477503 0.08467842 -0.34583393 -0.2741558 -0.12253765 -0.053807896 0.28686932 -0.021176508 0.060678273 -0.05762771 0.3460227 -0.20149437 0.2853835 -0.08300046 0.26943144 -0.083091155 0.11396528 -0.3370201 -0.27357256 0.33708715 0.26887414 0.29247308 0.2952514 0.25369945 -0.3086983 0.29771045 -0.3131559 0.30288061 0.35299212 0.338031 -0.32225013 -0.36204916 -0.24665262 -0.20995665 -0.1497685 0.3183041 -0.2690407 -0.35444993 0.3192022 0.10227856 0.16397883 -0.35637432 0.32835418 -0.30026335 0.32413647 0.26387584 -0.12942767 -0.34393796 0.3483283 0.03568373 -0.3012243 -0.358335 0.29076886 0.18413615 0.30543718 0.101743095 0.3403888 -0.27556667 -0.33044648 -0.12097725 -0.32896426 0.25982517 -0.07883326 -0.15868396 0.3121935 -0.15005596 0.3290193 -0.16070399 -0.3041905 -0.16195503 0.34270537 -0.3320321 0.12847836 -0.2751435 0.11302177 -0.26542357 0.3711108 -0.16750522 -0.24724789 0.30475688 -0.09681831 -0.2375303 -0.3195032 -0.35094264 0.20563601 -0.2728087 -0.07587976 -0.31670368 -0.3057785 0.3067229 -0.15387838 0.32215047 0.3222441 -0.04601168 0.31960112 -0.27654102 -0.21303758 0.28737578 0.012695428
政 0.29116207 -0.3163326 0.34801257 -0.34957972 -0.3180367 -0.2637753 -0.05761534 0.32662982 0.2932784 0.2790804 0.3782254 0.37636 -0.31439787 0.022381406 -0.23563462 -0.36335123 0.32185438 -0.07010593 -0.32984453 -0.3473213 0.3380224 -0.12040698 -0.28910336 -0.3598101 0.2274092 -0.30579185 0.06864418 -0.3401645 0.3257836 -0.09283864 0.24755083 0.27483627 -0.36080474 0.108081706 -0.17023449 -0.19092755 -0.13345592 0.34073332 -0.3122017 0.31985098 0.19443144 0.27095678 0.22704606 0.3491595 -0.3131537 0.2398957 -0.21246304 -0.1745272 -0.18741353 0.341515 0.055222772 -0.28402832 0.23295341 -0.19958563 0.092993125 0.3234254 -0.29777142 -0.29713234 0.22252953 -0.3104982 0.3509822 0.2144327 0.29399812 0.2703024 0.2519588 0.34481332 0.3835839 0.34997967 0.3036351 -0.361247 0.29951727 0.30877718 -0.35013422 0.3492417 0.3417279 -0.023535552 -0.35898963 -0.19722211 -0.17734896 -0.29898354 -0.10287903 0.35004577 0.28103498 -0.32595217 0.2342993 0.34353498 -0.28378198 -0.2609365 0.0055311876 0.25431323 0.3585604 -0.32557598 0.34686545 -0.056609362 0.3359872 -0.28182146 -0.35407534 -0.34786114 0.25657415 -0.22481348
食 -0.36291626 -0.35048383 -0.341867 -0.23808745 0.3104276 0.07286579 0.24387975 -0.016668085 -0.36987728 -0.31963795 -0.24540074 0.35661477 0.36812678 -0.39100224 -0.26083142 -0.03402194 0.23215605 -0.36928126 -0.3267871 -0.3198266 0.030326527 0.28450212 -0.05419224 -0.3235238 0.2880083 -0.33746135 0.27191585 0.0034164987 -0.30883074 0.23617892 0.23502998 0.14693858 -0.26678613 -0.26116493 0.14958674 -0.31928834 0.30032513 0.15754907 -0.2855697 -0.008142164 0.05611905 -0.31079975 -0.27779773 0.32957366 -0.297017 -0.27989694 -0.18780413 -0.35571983 0.08849011 0.31683353 0.13839711 -0.19376762 -0.20535429 0.16740516 0.300757 0.36597303 0.20179515 0.1534132 -0.28243136 0.09050492 -0.05785637 -0.0057365317 0.3384241 0.10863236 -0.24602646 -0.1421725 0.30485913 -0.18574739 0.09502571 -0.28357515 -0.07814184 0.28809696 -0.101381585 0.09036024 -0.32319766 0.34186384 0.22667061 -0.32217488 0.31693894 -0.34075752 0.36556107 0.118699476 -0.35110372 0.18190415 -0.31015363 0.24504317 -0.26374933 0.36030024 -0.2497584 0.35349703 0.13312341 -0.32510096 -0.33941254 0.3718438 0.12687829 -0.2863102 0.31666657 -0.3636363 0.30867082 -0.11806509
善 -0.25449112 -0.21762657 0.26901287 -0.022823013 -0.24030593 0.005457963 -0.32144567 0.22084735 0.32011226 0.09269642 -0.20670179 0.06704559 -0.31480134 -0.20516714 -0.064189 -0.19809708 -0.06949907 -0.3396242 -0.28964195 -0.14847752 0.13983525 0.3379893 0.12424187 -0.32340539 -0.11915826 -0.1461034 -0.082686335 0.06729038 -0.07518225 -0.33734143 -0.037851047 0.1079919 -0.1815549 -0.01749373 -0.17796616 -0.30904844 0.26801747 0.32043922 -0.24316305 -0.3407863 -0.09331529 -0.044382513 0.34205127 0.3109756 -0.3631059 -0.29569417 -0.27719414 -0.32222727 0.05659857 -0.050372448 -0.35722083 -0.18628316 0.12304918 -0.28322107 0.28545964 0.15468366 0.3369488 -0.23615733 0.014488419 -0.3204913 0.3313456 0.3238125 0.21530987 -0.10796362 0.1429866 -0.15981552 0.22484137 -0.009280523 0.0056057544 -0.23720598 0.29573318 0.09215817 0.043249313 0.14755486 0.23851788 0.19214179 -0.2820261 0.16054697 -0.26329273 -0.1937662 0.047921687 0.2962 -0.33840775 -0.27740294 -0.34576878 0.0457251 -0.1699851 0.06674787 -0.2910934 0.08124781 0.12149439 -0.3139711 0.29775852 -0.1459966 0.34285948 0.08076136 0.10838109 -0.22848569 -0.31701094 -0.14777742
后 -0.27987143 -0.30012938 -0.15926185 0.32504398 -0.32005543 0.19990055 0.26342645 -0.27133673 0.31587213 0.11840188 0.3241552 0.34141085 0.34892836 0.075405724 -0.31806535 -0.3383738 0.10897256 -0.3097875 -0.30451927 -0.25731325 -0.2467389 -0.32355982 -0.32091296 -0.22499257 -0.30570522 0.3087246 -0.31453264 -0.33284864 0.02036081 -0.04462251 -0.31088716 -0.329106 0.32505688 -0.3175531 0.28279012 -0.31350136 -0.3237686 -0.30040085 -0.29778966 -0.29481032 -0.2360784 -0.28299236 -0.29773647 -0.122718364 0.33472887 -0.26986814 -0.31182438 -0.3129157 0.2918865 -0.22033298 -0.30417055 -0.30839348 0.20936917 0.3032866 0.014813704 -0.268646 0.33409783 0.30849507 -0.32237464 0.044559047 0.31092706 0.19346282 0.31626973 -0.306644 0.30733183 -0.110279 0.3247607 -0.2723548 0.3374297 -0.350186 0.29438144 0.084882066 -0.30501106 0.011340816 -0.2882738 -0.31484178 -0.26413703 0.30141357 -0.31562358 -0.30436924 0.32278058 -0.17143843 -0.2678513 0.23147671 0.3170808 -0.30117652 -0.30847523 0.17929246 0.17953148 0.30067754 0.32103384 -0.30626965 -0.24021241 -0.25748622 0.33057064 -0.2041674 0.3209496 0.28465247 0.32536554 -0.3211296
德 -0.32919365 -0.2464366 -0.1353531 -0.26085576 -0.32960117 0.11004552 -0.32440913 -0.2598515 -0.33969176 0.17712054 0.37604943 0.36643434 -0.14185989 0.17072788 -0.31829247 -0.33293033 0.20486166 -0.17560096 -0.015135782 -0.37314078 0.24846911 0.17553559 0.33008948 -0.1477539 -0.3412605 -0.32123056 0.032564998 -0.3719554 0.33636832 -0.15463202 -0.3404575 0.27462614 -0.28739566 -0.13709503 -0.2835145 0.3482452 0.3258928 -0.2593748 0.22925468 -0.045633588 0.33307615 -0.2977103 0.2313008 0.30433634 -0.21042821 -0.36887679 0.16137137 0.27908313 -0.32882363 0.1437655 -0.33563113 -0.26661533 0.28914943 -0.28797397 -0.2879484 -0.26578644 0.30406028 0.31737798 -0.24809171 -0.31998974 0.2962914 -0.35564217 -0.32714584 -0.080708966 0.27189845 -0.30269969 0.32530418 0.3203423 -0.25568178 -0.1655501 0.32876816 0.35173956 -0.3308936 0.3453276 -0.21370898 -0.33137366 0.20548724 -0.17198554 -0.34874085 0.32613504 -0.26842755 0.30353832 -0.27308023 -0.3389186 -0.11911191 -0.27128568 0.28005567 0.31170177 -0.28034344 0.2641346 0.32596433 -0.30875358 0.3511095 0.31603336 0.32390702 -0.17302112 0.1827387 -0.19373886 0.25107142 0.28746465
求 -0.024021253 0.2638192 -0.27204555 0.25111574 -0.32893553 -0.33170488 0.26966265 -0.35384417 0.3089878 0.1956444 0.31186342 -0.3458739 -0.0043146275 0.28991488 -0.29637513 -0.009462751 -0.2868794 -0.30679137 -0.31245068 -0.3167397 -0.24777505 0.35627374 -0.27277005 0.320356 -0.2965643 0.33400103 -0.325207 -0.33340597 0.3629339 0.2302549 -0.224785 -0.28376016 0.18234648 -0.28205243 -0.21863975 -0.20837772 0.38988906 0.31021774 0.31929886 -0.2748965 -0.31984422 -0.26855785 -0.3051538 0.322597 0.13655944 -0.27588254 0.018019227 -0.26362452 0.29643092 -0.30231145 -0.15495284 -0.2885499 -0.3377633 0.34386992 -0.114593096 -0.12336532 0.32740626 -0.3084309 0.2965099 -0.30105016 0.34521028 0.32177204 0.3208849 -0.29959926 0.31002334 0.318851 0.23374844 -0.3345314 -0.33269697 0.30792734 0.33861926 0.3566025 0.30553263 -0.08993584 -0.29185906 -0.33475742 -0.15936057 0.29321864 -0.24313515 0.31982446 -0.21445468 -0.36932334 0.052344814 0.32667837 0.033317372 -0.29724553 -0.31126285 -0.29509744 -0.23331921 0.26664135 0.2752266 -0.28101832 -0.23031773 -0.2958834 0.32811296 -0.2153001 0.25016934 -0.34097192 -0.1627237 -0.18246742
对 -0.46799636 0.13373695 0.11846228 0.1344888 -0.58220553 -0.3614343 -0.20737915 0.16110747 -0.49252725 0.54321796 -0.32624325 -0.4089011 -0.51264244 -0.007120672 -0.5665481 0.33455703 0.5063665 -0.52041507 0.55531216 -0.4582749 -0.47742018 -0.55236566 0.55574894 0.5100518 -0.58240336 0.29886508 -0.11113404 0.10550705 -0.4220012 -0.36549377 -0.5505672 0.016509918 -0.4044292 -0.41806856 -0.5181695 0.39951217 0.5375577 -0.500105 0.36900046 0.44519958 0.5216248 0.13662425 0.40001106 0.35525748 0.40560728 0.4868255 -0.38566834 -0.18746912 -0.12557432 0.114060126 -0.26948074 -0.08810676 0.15166415 -0.07260543 -0.5057866 -0.30579963 0.21614482 0.497177 -0.23646368 0.48052597 0.2927211 -0.044665214 -0.5024145 0.4720075 0.41054457 0.2952776 -0.30743098 0.53519964 -0.069769844 0.2862189 -0.08534841 0.3330474 0.057756484 -0.07402477 -0.41597503 -0.49151352 -0.24885416 0.5030274 -0.22429663 -0.3618382 -0.4644918 -0.51239884 -0.52647275 0.28568888 0.20045519 -0.55377716 0.42856 0.24103741 -0.48770258 -0.5726304 0.44622618 0.091169514 0.51299816 -0.060485687 0.35777286 -0.5551975 -0.50558376 0.37481168 0.22572318 0.4032023
恶 0.27270535 0.3163296 -0.33849832 -0.3120915 -0.19222434 -0.20934927 0.05196073 0.37979525 -0.31060225 0.22441943 -0.2519992 -0.34588772 -0.22238511 0.15291822 0.13928343 -0.3499805 0.3060206 -0.31667063 -0.3317221 -0.3279048 0.285908 0.2911815 -0.25761193 0.21267842 0.18638486 0.3435019 0.17124815 -0.27761203 0.38745594 -0.3589165 -0.0034871143 -0.001248327 0.28080884 -0.3320071 -0.3206129 -0.34737396 -0.31658047 0.33866334 -0.33294022 -0.35240614 0.29781008 -0.33324403 0.3637023 0.34216902 -0.2974338 -0.2916401 -0.29469138 -0.23328434 -0.22538008 -0.3367518 0.027901197 0.38504988 -0.32058305 -0.28102708 0.10213335 -0.28468966 0.33284006 -0.20609562 -0.36222854 -0.34877443 0.15770327 0.3787357 0.32827017 -0.1420042 0.15452749 0.33444393 -0.30472684 0.3019107 -0.36787194 0.31454834 0.33072612 0.27580622 0.3043196 0.32423967 -0.25688183 -0.33292446 -0.032922745 0.19765589 -0.3660647 0.29069084 0.24548995 0.32739168 -0.19128901 -0.3446488 -0.30343527 -0.15329802 0.3508098 -0.25220326 -0.33242676 0.24464288 0.30510506 -0.313439 0.31646276 0.1893743 0.32754055 0.19992387 0.27703276 -0.11235059 -0.12530933 -0.2715855
信 -0.21981049 -0.24801576 -0.3262092 -0.15169302 0.32736823 0.31449425 0.34001175 0.3008278 -0.1746962 0.23238605 0.34210914 -0.24144 -0.38019305 0.30228645 0.2868536 0.31967956 -0.3557808 -0.21159521 0.32850555 -0.2764525 -0.2918813 0.08534433 0.26332566 0.3183787 -0.29151908 -0.30415025 -0.30602658 0.3358459 -0.14719862 -0.27833846 0.32543603 0.31692553 0.3378908 -0.30364373 -0.33039972 -0.33976787 -0.28066152 0.33559468 0.32729593 0.3427621 0.32609808 -0.2741749 0.34675068 -0.3100311 -0.25260803 -0.15988101 0.25783125 0.30504516 0.31290573 -0.20534109 0.21725519 0.3078618 0.31047097 0.22134823 -0.32159707 0.023294259 0.32032257 0.30106977 -0.1535879 0.0983463 -0.32278794 -0.3555762 0.33645147 -0.24276274 -0.2866398 0.17993347 -0.2828297 0.25532165 -0.33855554 0.006876192 -0.31754917 0.27641392 0.32590052 0.33143985 -0.33448744 -0.331548 -0.35535416 0.2850305 -0.3206314 0.18382831 -0.3296282 0.31633684 -0.253324 0.29488477 -0.35326013 -0.043096103 -0.044978578 0.28765783 0.33798587 -0.31163847 0.3076264 0.2855846 -0.3470034 -0.30890462 0.06348191 0.3748352 0.0614107 -0.23593353 -0.24928465 0.20271789
死 0.17450377 -0.33367583 -0.32297605 0.29497916 0.33474067 -0.24223611 -0.19867353 0.34838694 -0.10381652 0.2987788 -0.09154885 0.35351408 0.29980746 0.3274874 0.29253498 0.31502205 0.32539442 -0.18752009 -0.34424132 -0.33599958 0.12424046 -0.30472946 -0.120158605 0.2848229 0.2594109 -0.2575695 -0.30399066 0.3035781 -0.3272796 -0.31611112 0.33364788 0.2335705 0.26281577 0.2930495 -0.33246815 -0.27133563 -0.3061239 0.1745949 0.30358177 -0.30095842 0.31584477 -0.3502399 0.15439248 -0.016036484 0.31567135 0.33447266 -0.18959822 -0.1946988 -0.2137294 -0.3393309 0.3323593 0.19609714 0.33581972 -0.09787403 0.30115986 -0.33626616 -0.2747461 0.2610378 0.31666648 0.3138697 0.13876791 0.017395332 0.30711806 0.17598735 -0.020759743 0.31340903 -0.31204963 0.32534084 -0.29653275 0.23551428 -0.14240475 0.24972461 0.14548664 0.29458228 0.107960634 -0.30136034 -0.3492812 -0.2671071 -0.101428196 0.28483567 0.26235148 -0.30109295 -0.30017483 -0.28453633 -0.17572701 -0.27681997 0.009669165 0.30508924 0.0022035341 0.30510178 -0.13477986 -0.34150353 -0.048973784 0.29766735 -0.3130284 -0.24986155 -0.27326363 0.3043125 0.29200047 -0.32527965
然 -0.30616185 -0.29079401 -0.29421216 -0.20667517 0.11218895 -0.26552567 0.30678192 -0.29812342 -0.31411505 -0.20836812 -0.32255054 0.27592555 0.31409752 -0.085036874 0.2807998 0.28301185 -0.30148897 0.18389906 0.09364394 0.25528026 -0.30501798 0.30514973 0.33199275 -0.19865151 -0.3060355 -0.23075877 -0.3126702 -0.31744537 -0.29025972 0.27900854 0.14358905 0.2552419 0.3041206 0.29295567 0.26483056 0.1968662 0.31896958 -0.29456824 0.3022966 -0.17011473 0.21214825 -0.2619921 -0.058899794 0.3336116 -0.002672793 0.28727773 0.24986847 0.27120215 0.30688334 -0.2807853 0.2450801 0.06291738 0.3086455 -0.101853125 -0.1378324 -0.3192934 -0.32363078 0.09209724 0.18206273 0.29545754 0.31077018 0.27212027 -0.17462206 0.30852166 0.29140317 -0.11318648 0.22967197 0.27310142 0.2191452 0.26489756 0.1995683 0.29205513 0.3102085 0.022838406 0.27102375 -0.06446148 0.2775743 0.32257342 0.2750978 -0.32277977 -0.26412794 0.19081557 -0.3100471 0.2930174 -0.26137668 0.31350008 -0.25602683 0.29264483 0.30180407 0.14937691 -0.33108658 -0.30826345 -0.28367496 -0.30154815 -0.30584025 -0.30580875 0.30381957 -0.27456728 -0.32721788 0.2426966
《 0.27104154 -0.32445392 0.28206483 0.33055842 0.044909894 -0.23480919 -0.09109451 0.31873077 0.2827824 -0.3172883 0.306428 0.36310694 -0.3395587 -0.26622146 -0.29143387 0.25356892 -0.20276405 0.3428967 0.32942963 0.21224403 0.012320912 -0.16046311 -0.3137211 -0.3063347 0.28894648 -0.3698164 0.31838048 0.33098432 -0.33664647 -0.31254828 -0.107771926 0.090442315 0.07795525 -0.18586482 0.27071887 0.32146546 -0.27115908 0.28720874 -0.32798645 0.31634814 0.31411657 -0.31857714 0.30734688 0.1447572 -0.35194314 -0.28382748 0.34540915 -0.3148399 0.2728812 0.12544748 0.035854265 -0.031675536 -0.33496082 -0.3195963 0.28320393 0.28584284 -0.07047284 -0.20023507 -0.16009665 -0.31052682 -0.36199608 0.34842306 -0.3375659 -0.29210475 -0.33400688 0.26102242 -0.21998012 0.2675066 -0.27261606 -0.29093257 -0.24449912 -0.32259348 0.16708697 0.27099222 0.21514 0.14073166 0.27542764 -0.28759962 0.018364996 0.285321 0.31223392 -0.22817259 -0.3071808 0.09454878 -0.34060887 -0.078660645 -0.18658687 0.29629362 -0.21246685 0.34526217 0.36577854 0.13236307 -0.3352886 0.29866773 0.23029184 -0.23749004 -0.25034568 -0.022254989 0.29352263 0.124457926
》 -0.33528748 -0.39403808 0.35050306 -0.2721066 -0.27506536 -0.28095597 -0.24688214 -0.048014216 -0.3148035 0.3134346 -0.32459345 -0.23690435 -0.33991826 0.3180982 -0.27102762 0.32747024 0.17949218 0.257642 0.31441325 -0.17107046 -0.3574933 -0.30501258 0.3923286 0.372609 0.34515807 0.3152834 0.2839564 0.2333251 -0.33186388 -0.32476372 0.20863762 0.20165499 0.3218482 0.0032673331 -0.30570656 0.3201709 -0.17318441 0.27757722 0.35843918 -0.07073124 -0.29379633 0.17452356 0.31787074 0.32421237 0.2890348 0.33377475 -0.32690665 -0.23023698 0.39084166 -0.1717029 -0.33859622 0.36289614 0.23612222 0.3540944 0.18881905 -0.0463372 -0.20744045 -0.3309094 0.33951896 0.19871579 0.3106822 -0.15404151 -0.33901274 0.35923117 0.22479682 -0.23599061 -0.23805486 0.3704207 0.13526891 0.3075142 -0.30427027 -0.37816897 0.35062388 -0.021401552 -0.14362606 0.0051861242 -0.26734143 -0.25449654 0.31389585 -0.2051869 -0.3246347 -0.116067305 -0.26572207 0.3373535 -0.29795307 0.33332866 0.21200716 0.16257408 0.22984587 0.29632428 -0.19561133 0.16092093 -0.30352986 -0.28169367 -0.34167904 0.029761393 0.022669502 -0.0798548 0.3374335 -0.04484779
由 0.28527597 -0.2783631 0.30740005 0.30458272 -0.32526845 0.34435946 -0.3190601 0.30471534 0.31321466 -0.251932 -0.31737772 -0.32618243 -0.26145944 -0.23700903 -0.31663588 0.3245768 -0.12713349 -0.062475067 0.24970548 0.29560274 0.15627171 0.32106128 -0.19435257 0.3301994 0.30431315 0.30732056 0.25288135 0.29479533 -0.2666163 -0.16051368 -0.321844 -0.28255054 0.30265164 -0.26132768 -0.2955207 0.273094 -0.30639336 0.31753203 -0.25124574 -0.32882228 0.3063577 -0.30057344 0.3140013 -0.31812224 0.28929394 -0.2840845 0.2617029 -0.27811432 0.26894212 0.32557294 -0.28885108 0.27697796 0.098027214 -0.28530827 -0.27991667 0.30914146 0.28623897 -0.30223736 -0.31439576 -0.20932159 0.32009763 -0.3282687 -0.27182463 -0.1426154 -0.2942247 0.28386766 -0.32647207 0.29718027 -0.04543278 -0.2542961 -0.3177744 -0.3053771 -0.32183057 0.32395306 -0.32471588 0.32843593 0.31981722 -0.26934895 -0.21825837 0.33390176 -0.3301931 -0.3158367 -0.31904468 0.32607013 -0.2708785 0.3009471 -0.2956128 -0.3166899 -0.103799865 -0.10655713 -0.32401443 0.3253488 -0.31925055 -0.33445087 -0.32364923 -0.290881 0.29892838 -0.29734245 0.32553804 0.29294232
