1352 50
， -0.18437113 0.21213858 -0.0347578 0.005410659 0.055120096 0.23980239 -0.32096988 -0.25656977 0.1019169 -0.28669673 0.05377877 -0.07433266 0.04995686 -0.048763502 0.19030608 -0.24019817 -0.1467295 0.25580007 0.005687491 -0.12377188 -0.15084217 -0.13411148 0.047266252 -0.2776709 -0.4412239 -0.05311218 0.08906355 -0.3060967 0.40885362 -0.20774671 0.10202191 0.71454954 -0.075051166 -0.18957703 -0.23793754 -0.20404762 -0.09812053 -0.012868531 -0.29212174 -0.09967777 -0.041507296 0.059001412 0.2727807 0.25155127 -0.33916897 -0.72050244 -0.35184658 0.011946606 -0.08298403 0.96881044
子 0.20373656 0.092520095 0.04073283 -0.053900205 -0.08546955 0.014080452 0.13495822 -0.28039414 -0.039928354 0.0651229 0.15620716 0.0101014 0.131037 -0.014406175 -0.06110059 -0.049086202 0.11905026 0.14011486 0.034529664 -0.032283377 -0.17681563 0.096595526 -0.053922426 0.047496844 -0.4951038 -0.031557467 -0.15695387 -0.059618518 0.21918218 -0.06651583 -0.0935614 0.5622376 -0.5084517 -0.2547581 0.009819014 -0.06937971 0.26857692 -0.023158636 -0.3490811 -0.011652388 0.13837525 0.32916433 0.08169348 0.16686991 -0.025943225 0.1175786 0.10024934 -0.12721987 0.016809866 0.8111849
。 0.014322958 -0.0077527766 0.009502647 -0.031692833 -0.3400642 -0.032461327 -0.3971385 -0.33052683 -0.021176636 0.29057908 0.04834634 -0.12826735 0.16475089 0.11920089 -0.15540247 0.033977017 0.1779086 0.030566959 -0.30682462 -0.14604875 0.089368805 0.26540452 -0.07115995 -0.16438386 -0.035716955 0.21742952 -0.23704676 0.09958745 0.29785964 -0.08151592 -0.26720187 0.68028486 -0.0790011 -0.1682619 0.113537475 -0.05333183 -0.2491866 -0.1296692 -0.35063013 0.1034943 0.023274327 -0.030815458 0.1380452 -0.07922598 -0.04342578 0.2150162 0.15115051 -0.15504785 -0.14740479 1.0101217
： -0.06862954 -0.18492146 -0.08427929 -0.21533778 0.0757407 0.028688494 -0.47088307 -0.088176556 -0.1512171 0.06551529 -0.013214753 0.23490052 0.10783273 -0.10839469 -0.029209267 0.17926629 -0.028235923 0.099304006 -0.51715875 -0.016982699 0.06455317 0.011139403 -0.1283123 0.22317316 0.044613816 -0.11357873 0.058672212 0.16648291 0.33630463 -0.05105687 -0.39987165 0.69499576 -0.3216633 -0.29007348 0.024713583 0.05837027 -0.3798237 -0.2509431 -0.29827595 0.04245573 0.24410471 0.16179605 -0.052528992 -0.05344769 -0.16006991 0.26402658 -0.013627248 -0.20185056 0.15825556 0.38147965
曰 -0.08200053 0.039696064 -0.0824315 -0.14877072 -0.043639403 -0.03931147 -0.19138497 0.03048874 0.14925091 0.046886258 0.13763222 0.04877621 0.13423912 -0.07156944 0.03067958 0.012235705 -0.020360928 0.19146585 0.084873736 -0.058828346 0.009889474 -0.042967737 -0.050293278 -0.070343636 -0.28700295 -0.013006698 -0.028425597 0.31440243 0.23069449 -0.116588585 -0.14978616 0.4653741 -0.31733635 -0.13208795 0.16449185 -0.012859715 -0.07743068 -0.13130973 -0.3391747 -0.14759727 0.11957374 -0.0738305 0.066473335 0.04471018 -0.11639736 0.12599961 0.012295194 -0.015863977 -0.115427144 0.3044726
之 -0.3588439 0.052325197 0.06090952 0.007541897 0.09567629 -0.027851082 -0.23410985 -0.0015286193 0.1755044 0.109653 -0.0036173293 0.037047964 -0.05098826 -0.05957359 -0.05139452 -0.11184741 -0.113724634 0.20683745 0.21269768 -0.12778583 0.06010816 0.22111082 0.07507904 -0.082688935 -0.12199901 0.1020424 0.06494616 0.41959727 0.17248876 -0.11068011 0.07937399 0.29933235 -0.21976146 0.0044267317 0.19190206 0.069624186 -0.06503547 -0.039564315 -0.13080996 -0.107545145 0.250747 0.18309417 -0.17557164 0.18258303 -0.06588886 0.20675118 -0.0053130314 -0.07132979 -0.25272205 0.32464528
不 0.10236926 -0.000858088 0.08712733 -0.16022861 -0.36198965 -0.042922493 -0.38216278 -0.09964881 0.16227788 0.22819866 0.049938116 0.006718948 0.1197895 0.10443397 -0.11679955 0.067088276 0.0008133673 0.19217059 -0.24720442 -0.020448597 0.116330184 0.13855033 -0.12105691 0.008878841 -0.14531098 0.3304816 -0.13703601 0.09217142 0.10196763 -0.072083436 -0.1719887 0.6451772 -0.18713033 0.047882937 0.08495984 0.12817898 -0.2519313 -0.19970275 -0.4509855 0.0533931 0.16278987 0.1608163 -0.09154535 0.0039068097 -0.15837748 0.4353002 0.20313807 -0.2956209 0.038150005 0.67241555
也 -0.17575109 0.009301957 0.099359766 -0.081195876 -0.06445338 0.079762265 -0.13817042 -0.034168657 0.0027289083 0.11668496 0.06673633 -0.018142011 0.23482357 0.05833211 -0.07917469 0.08784686 0.024906307 0.019941848 -0.15314832 0.16289257 0.022957828 0.05790494 -0.046280086 0.050423246 0.009897709 0.22867423 0.004678809 0.2512586 -0.0030496325 0.048704058 -0.15869796 0.24318981 -0.19804132 0.14582334 -0.111967064 0.069383934 -0.006562026 -0.08130227 -0.22948372 -0.023327738 0.11551694 0.08012339 -0.059666656 0.00976813 0.033208303 0.19944417 0.082588755 -0.25089234 0.05486043 0.084772535
而 -0.15313819 -0.006065572 -0.034922704 -0.18373692 -0.019432526 -0.13929313 -0.004774479 -0.041110087 -0.023243062 0.18736091 0.071132496 -0.011145988 0.02064362 0.10789698 -0.15525386 -0.03663082 0.17326766 0.10240441 -0.23659334 0.0029303357 0.06649643 0.20668446 -0.058494847 0.1111362 0.10000259 0.25618547 -0.099941164 0.32279152 0.16291064 0.04467821 -0.26115394 0.22085772 -0.03456883 -0.18381283 0.11630655 -0.0140326135 -0.1674269 -0.00079299975 -0.23558418 -0.083035916 0.24932303 0.025573343 -0.19230084 0.1362842 -0.01611935 0.02297155 0.08406369 -0.28922394 0.032336056 0.55168676
？ -0.16854692 -0.0057881298 -0.1369062 -0.05853324 0.13232239 0.07643076 0.10391713 -0.027099384 0.15320517 0.10962476 0.09409508 -0.034072027 0.135731 -0.058554094 -0.052885685 -0.17233844 -0.10648754 0.048346985 -0.16561194 -0.014584028 -0.0954669 -0.09791331 -0.08220102 0.055768963 0.051542237 0.14896135 -0.04893174 0.2379373 -0.10694964 0.03337854 0.16521324 -0.058611974 0.008820286 0.27515137 0.0757616 -0.0053611267 -0.018774822 0.12387851 -0.1800335 -0.01669366 0.02169276 0.07287319 -0.1296093 0.10368442 0.06618945 0.30332395 0.06594685 -0.13554567 0.039568417 -0.33820313
其 -0.10644798 -0.09955434 -0.078399226 -0.05522723 -0.2741855 0.05231411 -0.1258907 0.014717557 -0.095733605 0.07423863 -0.023386225 -0.15945597 0.14588822 0.15189391 -0.14849485 0.01142117 -0.043440964 -0.03343385 -0.10917305 -0.077594034 -0.041258387 0.14612216 0.14479388 0.065649 0.27088872 0.06769176 0.23397426 -0.011184711 -0.17264408 0.041170496 -0.18675302 0.45802343 -0.057791352 -0.3231308 0.0847633 0.10557643 -0.21885142 0.10944841 -0.28031623 -0.0020182468 -0.03459413 0.09550767 0.07195698 -0.03836146 0.0593765 0.038868885 0.19726363 -0.18831882 0.055538215 -0.41490442
人 0.28872466 0.06877386 0.02382554 -0.018872166 0.17539823 0.039575122 0.6766301 -0.33737737 0.058587573 0.10554227 0.32868004 -0.2134318 0.27905118 -0.12831192 -0.16014494 -0.049454104 -0.29191145 0.20792203 -0.23594697 -0.042840134 -0.13921575 -0.0034561823 0.11061268 0.10906993 0.029440511 0.28441757 -0.18268377 -0.11641502 -0.3805656 -0.052547466 0.24118909 0.3476232 -0.36223367 -0.0958201 0.14502612 0.045794986 0.18370128 -0.08604467 -0.2496366 -0.30083427 0.07895823 0.30843887 -0.099031046 0.190584 -0.052516248 0.48840302 0.18991806 -0.35746825 0.046517972 -0.09884864
者 -0.00261439 0.11169778 0.019400997 0.09236014 -0.056141037 0.013624246 -0.033046056 0.02843112 0.06419092 -0.1360029 0.078132465 -0.2439213 -0.0806915 0.059376165 -0.14621612 -0.18149592 -0.017206492 0.14104341 -0.122663446 0.17747852 -0.14569964 -0.052996375 0.13914637 0.10207004 0.15873738 0.050316066 0.09186797 -0.23647341 -0.03211583 0.15046102 0.011113261 0.35484743 -0.025381679 0.049006924 -0.09133175 0.016938642 -0.12387781 0.033403225 -0.24975142 -0.028878715 -0.092204794 0.05131294 -0.09995396 0.12117051 -0.1204515 -0.0666659 0.0644605 -0.27951932 0.04101166 0.47845143
以 -0.18270065 0.07415046 0.0076853 0.093201905 0.021009365 -0.010685829 0.11627462 -0.0717598 -0.010514516 0.014576064 0.0042130025 -0.18171868 -0.16308562 0.07563001 -0.21008827 -0.24960254 -0.06610916 0.09095076 0.02542248 0.05098464 -0.13021122 -0.0740988 0.13657705 0.19443753 0.19142261 0.097849496 -0.0022412061 -0.16133705 -0.014827938 0.12897053 -0.00943051 0.086336635 0.04412307 -0.27214748 0.028666053 -0.03381362 0.039410762 0.02416303 -0.11120544 -0.03554057 0.07324879 0.044487357 -0.087379634 0.065479666 -0.01951271 -0.094186895 -0.02888101 -0.06340958 0.12513845 -0.024827044
有 0.08487713 0.23491539 -0.08982511 0.13790464 -0.03996672 0.20252182 0.41372597 -0.044070657 0.2591661 -0.004746932 -0.20658027 -0.053204346 -0.22203831 0.03565079 -0.07784263 -0.441206 -0.3240495 0.17431566 0.114503816 -0.06847201 -0.29763278 0.09557166 0.1423799 0.029691355 0.07235411 -0.20959829 0.00094200275 -0.14506277 0.14685102 0.116649255 0.053347748 0.35992983 -0.2005061 -0.21884647 0.13504592 0.09773097 0.16972755 0.09029763 -0.25354427 -0.106349215 -0.07314962 0.06853754 0.16620159 0.038152076 -0.11122386 0.055417906 -0.23628995 0.11826788 0.25496128 0.10602409
于 0.34840658 0.11478508 0.15168464 -0.06263781 0.051662534 0.006140729 0.39227676 -0.011796832 0.25407374 0.13968396 -0.11534111 -0.121660456 -0.052900434 0.022840936 0.035536345 -0.1661862 -0.09311151 -0.083550036 -0.044323232 0.02083122 -0.12480216 0.15568684 0.23758134 -0.13127154 0.45335168 0.040721104 -0.0011304952 -0.28072658 -0.10860812 0.12735632 0.038291436 0.20964019 -0.18803589 -0.109684974 0.09940274 0.12869503 0.035664402 -0.053073663 -0.14147927 0.052150313 -0.052276343 -0.068888575 0.20584251 -0.12576248 0.023602106 0.18717699 -0.042312343 0.020736435 0.056841496 -0.5500217
矣 0.28939256 0.16292264 0.09531652 -0.0065914327 0.035045523 -0.051094294 0.40425864 -0.016079046 0.28972462 0.14187124 -0.20506062 -0.23456907 -0.056227572 0.018887315 -0.14525251 0.0005581388 -0.008198956 0.16976826 0.116658084 -0.062676355 -0.13678414 0.2846595 0.23764473 -0.07414741 0.10465313 0.003658995 0.08445576 -0.1144214 0.005057694 0.12914799 0.008495476 -0.23119417 -0.20412882 -0.07388396 0.19469315 0.0224046 -0.15532275 0.008211932 -0.2807041 0.0012035426 0.0010463619 -0.08015881 0.08693774 -0.19255602 0.036088042 0.30903187 0.15539673 -0.0873956 -0.031834163 0.19006756
为 0.36177158 0.078373924 0.13728414 0.011785206 0.13024762 -0.047039352 0.20666419 -0.13251205 0.08205207 0.033242777 -0.17620537 -0.032876436 -0.16562869 0.08479978 -0.10045093 -0.045517568 0.018914647 0.018710952 0.09426241 -0.0086189145 -0.06631981 0.00050323247 0.19271366 -0.062459834 0.18039036 0.19445406 0.0267243 -0.31992722 -0.061566442 0.110875264 0.18768674 -0.02056348 -0.04947366 -0.369755 0.18321598 0.060723383 -0.20558512 -0.003406453 -0.14231429 -0.050002478 -0.104087956 -0.0405566 0.24565361 -0.16356613 0.025367377 0.1349139 0.060889717 -0.09936249 0.04515723 -0.16857363
君 0.2882078 0.12920158 0.10947244 -0.016357 -0.065566234 0.048808336 0.084424175 -0.06512268 0.17621708 0.120986015 -0.30506593 -0.12153866 -0.14872102 0.13005142 -0.05441474 0.15227145 0.0349723 -0.03307162 0.033727065 0.01954168 -0.18477093 -0.03887365 -0.068974115 -0.10872318 0.22761832 0.10407005 -0.05448708 -0.23994766 -0.20318341 0.1953426 0.0059075216 -0.2946121 0.11693136 -0.40602586 -0.058181234 0.07986171 -0.07832309 -0.036175027 -0.2595725 0.08031522 -0.22846888 -0.26641673 0.32338056 -0.16049013 0.022993937 -0.18706983 0.031155063 0.0074150274 0.077963606 -0.21613404
乎 0.5832847 -0.029411627 0.11170983 0.1269488 0.061792813 -0.1353476 0.12047412 -0.12307599 0.2678119 0.21440168 -0.36600357 -0.06664235 -0.1439881 0.007961965 0.04693257 -0.12724045 -0.123256944 -0.036057193 0.0062598153 -0.032445636 -0.21379137 0.1803939 -0.09398897 -0.06293423 -0.22291775 0.19670673 -0.13899034 -0.22631799 -0.010424631 0.0852667 0.10320073 0.006420847 0.09028948 -0.5449956 0.103364795 0.2313934 0.025233984 0.12406885 -0.23985153 -0.08033516 -0.22809038 -0.062110476 0.37946463 -0.040969577 0.13934225 0.016602919 -0.2976322 -0.043246 -0.12095557 -0.8165017
可 0.41192928 0.14345115 0.20845371 0.018743223 0.10067708 -0.08032786 0.41211724 -0.054644793 0.20631428 0.17474902 -0.12961982 -0.17649621 0.11928214 0.12440439 -0.051883243 0.03317436 -0.092863016 -0.036190648 -0.021867383 -0.012894322 -0.12442726 0.21815558 0.20618021 -0.110211425 0.0014094166 -0.01611656 0.10022026 -0.30755684 -0.040722426 0.166143 -0.07542812 -0.13594362 -0.11882407 -0.44584942 -0.0974472 0.14133893 -0.17450081 0.06138194 -0.19338539 0.11975062 -0.17261517 -0.16112894 0.38370848 -0.12288162 -0.05489713 -0.040585373 -0.026176794 0.029978521 -0.0018795975 -0.5458466
如 0.31054187 0.049141735 0.15822715 0.111943744 0.04254166 -0.10379525 -0.0013587738 -0.11103198 0.20067921 0.15634131 -0.13084835 -0.039337724 -0.0331532 -0.044650227 0.023602268 -0.22980668 0.015103902 0.009202433 -0.071514495 0.06990693 0.23113452 0.27471054 -0.108621866 -0.09053364 0.1693772 0.15816657 0.06711538 -0.37804425 0.0943032 0.076921426 0.025784846 -0.18134163 0.12067555 -0.33123928 0.08182237 -0.045285724 -0.20141253 -0.10611204 -0.07667018 0.059042867 -0.0895405 -0.13119116 0.008653416 0.07501273 0.03450576 0.032080054 -0.06938789 0.026447568 -0.11089585 -0.36765626
与 0.51785845 0.13552989 0.29939324 0.09717684 -0.0017039664 -0.08043433 0.28625077 -0.20694119 0.20789197 0.20758308 -0.33959547 0.01749209 -0.07025889 0.13942271 -0.053039037 -0.064101055 0.030016394 0.015302632 -0.117798984 -0.13643403 -0.12500083 0.22566175 -0.36117917 -0.0131478505 0.12217516 0.12878829 -0.23003697 -0.5527684 -0.012960762 0.2437847 -0.025196351 -0.35919675 0.15220496 -0.64297557 0.054771572 0.10819492 -0.08183028 -0.100435585 -0.09861634 0.22969472 -0.28820324 -0.021422274 0.44124952 -0.08562873 0.021486744 0.10993753 -0.046453357 -0.019822486 -0.017401306 0.32787645
； 0.27423435 0.022808295 0.18364833 0.1508454 -0.19708404 -0.06532983 -0.16795595 -0.13741598 0.027611304 0.038216628 -0.027892955 0.16762108 -0.17435457 -0.023124617 0.18993223 -0.1580687 0.056368463 -0.04371103 0.2152562 0.070870675 0.13803533 0.12599066 -0.13371137 -0.07901474 0.074347235 0.20616294 -0.15091282 -0.2554505 0.089376695 0.16212457 0.017847491 0.2842784 0.02613499 -0.33250898 -0.22025397 -0.09765345 -0.24633485 -0.15828414 0.043907724 0.13743642 -0.066959314 -0.13309601 0.09904854 0.0059706382 -0.13001373 0.03153953 -0.22455776 0.22297606 -0.0823462 -0.42842597
言 0.2529434 0.10584412 0.04414818 0.04130379 -0.23544306 0.021553924 0.038524818 -0.09485887 0.07875282 0.16887218 -0.11498112 -0.00056923693 -0.24338467 -0.028010849 0.08042815 -0.21418622 0.0019712732 -0.110414304 0.10987068 0.017451618 0.08612299 0.08694227 -0.101956725 -0.012781269 -0.0240057 0.10417091 -0.08912408 -0.41877794 -0.049353592 0.12809628 -0.095227055 0.2293486 -0.06405356 -0.16120009 -0.07152302 0.15218072 -0.071686506 -0.09319839 -0.15017517 0.121923566 -0.03074358 -0.23935786 0.09299467 -0.010668793 0.16150528 -0.2154075 -0.09595424 0.10071358 0.03010278 -0.4415542
无 0.24199986 -0.08366455 0.15375829 -0.017691825 0.056115896 -0.105488375 0.14908534 0.04310631 0.046857726 0.07750905 -0.07453403 0.020178622 -0.26573953 -0.065060586 0.05218394 -0.16929373 0.0073130955 0.01757671 0.042485125 0.05886883 0.036041196 0.26161787 0.00028120982 -0.054918244 0.05595453 0.0864338 0.072986744 -0.3451472 -0.031215042 0.030980285 0.01830985 -0.29857427 0.030031666 -0.40887177 -0.066011146 0.10720145 -0.03803981 -0.1269955 0.28488004 0.103855014 -0.029316416 -0.112157084 -0.06635671 -0.016517196 0.08597858 -0.109548666 0.050289176 -0.029464096 -0.04937779 -0.42732555
则 0.3697438 0.050785694 0.038964354 -0.067557365 -0.19698496 -0.09078353 0.14724359 0.011104826 0.10585758 0.10865686 -0.03402874 -0.048751857 -0.019756777 -0.07413879 0.09624103 0.1331381 -0.071543925 -0.1297822 -0.18567649 -0.016922237 -0.006818101 -0.0016255432 0.060864314 -0.2811218 -0.010305981 -0.14389417 -0.15912846 -0.5130146 -0.033134796 0.019869646 -0.09639746 -0.1828506 -0.030051615 -0.47829306 -0.076567695 -0.01661592 -0.062435627 -0.10400062 -0.032247145 -0.115473785 -0.14528261 0.046862952 0.2358043 0.08958882 0.046058454 0.0456591 0.042504795 0.07097755 0.05364845 0.4849291
！ -0.02646156 0.16069993 0.1155162 0.1302523 -0.32069328 -0.23074377 -0.26343957 -0.18932557 -0.09562723 -0.15107472 0.055344876 0.17568494 -0.19645709 0.13555251 0.01651322 0.06630927 -0.14679496 -0.20803556 -0.40040207 0.15852684 0.11475607 0.10492185 -0.041451354 -0.32820776 -0.0064133625 0.08848556 0.19632958 -0.5115943 -0.09492324 0.16572478 0.003280609 0.08810066 0.17466907 -0.3376082 -0.25165513 0.043999642 -0.1982456 -0.10446645 0.1995529 -0.017513134 -0.32224533 0.0855419 0.11461156 0.0958803 -0.21577603 0.13642126 -0.024808723 -0.00067755603 0.17368856 0.29159296
问 0.32773924 -0.031162884 -0.079536326 0.07645288 -0.28285676 -0.025819099 0.16287462 0.0026438027 0.0702717 0.12528652 -0.00021038763 -0.012657195 -0.1346675 -0.045528993 0.08328957 -0.16176748 -0.0373547 -0.17832159 -0.045854524 -0.024875648 -0.11352519 0.21074365 -0.072059736 -0.06125895 -0.13893181 -0.06997122 -0.10581352 -0.40748084 -0.109990865 0.10466279 -0.09279202 0.030354016 -0.12687871 0.12541704 -0.16939142 0.0072515076 0.10209247 -0.031612244 0.10570274 0.013860035 -0.17555763 -0.054337624 0.041380703 0.13748708 0.06761996 -0.37420365 -0.17650732 0.07932967 0.1294149 0.056347743
知 0.12756382 -0.013739455 0.059449263 -0.075708926 -0.34960476 -0.1413661 -0.4149568 -0.037625894 -0.1001599 -0.01083006 0.010036977 -0.14366429 -0.21512395 0.040728234 0.006562086 -0.110806584 -0.0020647747 0.015543596 -0.17035028 -0.18939158 -0.056981795 0.080527365 0.17815545 -0.22683313 0.20492522 -0.116932094 0.017594647 -0.22912757 -0.13577771 0.054597057 0.009261482 -0.030463703 -0.020176739 -0.34913164 -0.05764983 0.028756008 0.122291036 0.062221177 0.19295096 -0.110312015 -0.20461254 -0.036170803 0.053678047 0.04593336 0.031718522 -0.14540905 -0.0223856 0.06872264 -0.02071683 0.43453076
何 0.29903936 -0.0514348 -0.22988333 -0.092337646 -0.27411586 -0.211762 -0.3163471 0.13316551 0.14221701 0.01363693 0.050965406 0.013275728 -0.10768447 0.062120494 -0.018097237 -0.06293607 -0.19838403 0.06270454 -0.52619606 -0.46419966 -0.18323417 0.15862411 -0.07743854 -0.5144142 -0.225999 -0.066309065 -0.17143266 -0.35594955 -0.22370066 0.13640967 -0.29482093 0.24032553 -0.36301973 -0.43227586 0.32282433 0.07239742 0.013920896 0.23696762 -0.19588038 -0.29805562 -0.38926578 0.10167791 0.22823969 0.25363436 0.15141512 -0.03448604 -0.09101425 0.05868893 -0.19563018 0.5603414
吾 0.30511564 -0.031833485 0.12184209 0.0063745375 -0.20980945 -0.17056467 -0.013561469 0.105258316 -0.080330715 0.030108502 -0.117831685 0.11917665 0.0349117 0.04925502 0.079058565 0.1196863 -0.011094375 -0.08569123 -0.36169282 -0.075317375 -0.040375743 -0.14092219 -0.20941219 -0.16596366 -0.21172106 0.049528662 -0.15597989 -0.270858 -0.21489392 0.08144093 -0.023071658 0.055205103 0.13901766 -0.4206447 0.16775917 0.13185097 0.10318408 -0.036084455 0.17470007 0.023099879 -0.22098045 0.00094570965 -0.05537768 0.08157795 0.16303164 -0.01401793 -0.14533168 0.17395636 0.11914889 0.10859886
仁 0.409577 0.12183105 0.035425402 0.06814461 -0.05879195 -0.17517892 0.058343396 0.1710573 -0.13441008 0.15502526 0.004567297 0.17848416 0.12254089 0.058189835 0.037706036 0.116323456 0.008558022 -0.055967722 0.102308735 -0.1454049 -0.11628746 0.069946304 -0.18113674 -0.1363548 -0.18298133 0.011031112 -0.04106057 -0.1768701 -0.054468818 -0.05024269 0.0946293 0.27364793 -0.12349458 -0.23880298 0.059006806 0.022317784 0.08176078 -0.04337453 0.1498022 -0.15586491 -0.28074706 0.04078687 -0.242808 0.2353255 0.11112118 -0.40548363 -0.24848011 0.20497335 0.04395573 -0.511731
夫 0.37393972 0.1295854 0.1290999 -0.06569743 -0.033313967 -0.09655522 0.2430824 0.038556784 0.113865934 0.044072486 -0.08675892 0.0067896466 0.12558159 0.07814301 -0.011867183 -0.18437116 0.035579804 -0.1526291 -0.2001445 0.022778392 0.043650936 0.045603994 -0.044061575 -0.044371586 0.024688482 0.1641131 -0.026090518 -0.2058708 -0.16379556 -0.032054573 0.1632978 0.27142048 0.015262873 -0.21668355 0.18074353 0.007476597 0.3054658 0.024415933 0.14507821 0.053659275 -0.19819911 -0.070331626 -0.046169266 0.07800021 -0.12021174 -0.019805932 -0.014802838 0.052707046 0.071228914 0.17475915
、 0.3411238 0.114947535 0.0755925 -0.006517411 0.023519592 -0.16218165 -0.024997499 0.09474899 0.021051725 0.19642633 -0.0051074256 0.04297872 0.17344573 0.17608446 0.029514795 0.13771428 0.14648046 -0.11027687 -0.31610438 -0.17465556 0.19883572 0.04255707 -0.14448795 -0.15858465 0.028919253 0.15238084 -0.11652776 0.07345079 -0.11861876 -0.040193588 0.23887816 0.23632875 0.03329344 -0.13164465 0.28171185 0.13376018 0.27264613 0.054103293 0.15490574 -0.13818538 -0.18091339 0.10174303 -0.041930996 0.19918561 0.11318494 0.09880857 0.029236287 0.06327982 0.05819963 -0.1255063
道 0.07204749 0.18771702 0.11741721 0.023871746 -0.32462892 -0.17025436 0.31852457 0.0030515199 -0.1925399 0.13835667 0.027291533 0.21556826 0.07751217 0.25716996 -0.13512467 0.17936118 0.14542118 -0.09779173 -0.474798 0.109741524 0.20178024 -0.042973362 -0.3055658 -0.20198801 -0.2329225 0.33584306 -0.19793808 -0.36759955 -0.023653263 0.0578301 0.19442464 0.3236826 0.34535217 0.18431802 0.27940825 0.22103894 0.20739587 -0.06477137 0.07540529 0.2362583 -0.041156918 0.23628676 -0.27281168 0.2468921 0.04608413 0.08310417 -0.104915574 -0.2164047 0.1814387 -0.3545332
焉 0.25361452 -0.029578097 0.14020601 -0.0031991834 0.03135592 -0.007931859 0.46110794 -0.22483228 -0.07111453 0.233213 -0.25564125 0.14493541 0.14793326 0.18600874 -0.05280173 0.18449612 0.09741412 -0.2497687 -0.24467863 -0.018153343 -0.08313399 0.033028904 -0.03432128 -0.11777145 -0.11790066 -0.04146442 -0.18670681 -0.14062844 0.0035482126 0.05080761 0.07244841 0.21330506 0.06483597 -0.19081199 0.36799183 0.14889988 -0.14152059 -0.066825695 0.07559858 0.06532624 -0.26352313 -0.08558167 -0.2116872 -0.008420913 0.053186387 0.078577995 0.044233065 -0.09041413 0.15492797 0.004454028
行 0.070992395 0.15874995 0.09257599 -0.022667909 -0.100893416 -0.06486209 0.05679583 -0.114400245 0.08912493 0.210894 -0.12917991 0.1660272 0.18351033 0.14265421 -0.09074733 0.14281635 0.18439966 -0.0022399249 -0.05666384 0.050878756 0.09938451 -0.09989819 -0.0101272985 -0.11410805 -0.23868428 0.20965442 -0.12378459 -0.2846716 -0.09679619 -0.021174282 0.19026163 0.035246193 0.07249186 0.17937942 0.04514177 0.13744108 0.114760816 -0.05318578 -0.029545328 -0.018313287 -0.07192606 0.04246601 -0.098569214 0.024794236 -0.05041651 -0.103437625 -0.08289609 -0.08113089 0.2661771 -0.57805264
谓 0.22521254 0.37196007 0.13335307 0.12899102 0.15719724 0.0532558 0.4944303 -0.2581595 0.101130635 0.26603594 -0.17031974 0.4887714 -0.009426378 0.16233595 -0.11177258 -0.118235335 -0.07966363 -0.17115788 -0.2297784 -0.008469012 -0.10386898 -0.24052748 -0.16962816 -0.15510912 -0.37661952 0.261376 -0.13231218 -0.37303618 -0.19780724 0.046637133 0.15530315 0.3814366 0.06631233 0.028441308 0.20483759 -0.0008932138 -0.23870942 -0.0063211974 -0.072128594 -0.061197586 -0.41524032 0.31738645 -0.10917424 0.10000661 0.011575733 0.033385985 -0.23598231 -0.039063636 0.41587847 -0.71523225
必 0.0946963 0.1830037 0.123534374 0.006144616 -0.02723055 -0.15352574 0.2656227 -0.18247378 0.059226617 0.16414934 -0.22207612 0.0875184 -0.072394975 0.10082842 0.09153043 0.13055764 -0.016361061 -0.15736604 -0.043109752 0.10270128 0.06767647 -0.19264762 0.1452679 -0.111404076 -0.11698833 0.052769855 0.26431644 -0.33912146 -0.14884947 0.04656018 0.11564058 0.1928679 0.3183391 -0.1354889 0.16785586 -0.09709597 -0.17406838 -0.22930308 -0.08688758 0.08727671 -0.30524397 0.16858737 0.15015095 -0.10937634 0.014554892 -0.27665713 -0.11147347 -0.025912525 0.09752797 -0.17810377
礼 0.034856085 0.0861978 0.18257093 -0.12061077 0.1410103 0.032984056 -0.3270266 -0.2440914 -0.12220189 0.1610951 -0.15244724 -0.0771183 -0.2184684 0.09604587 0.09984094 0.23788115 0.10420376 -0.3437783 0.060256034 -0.19109377 0.060725275 -0.007574545 0.078336775 0.03457257 0.19847551 -0.034764 0.12276868 -0.14739686 -0.068334125 -0.0095243985 0.13357367 0.1695562 0.278884 -0.5193577 0.11257905 0.11452515 -0.25595453 -0.27521312 -0.14450468 0.24505983 -0.08890856 -0.03224093 0.04213012 -0.23936296 -0.0015131067 0.13077587 -0.1256939 -0.10627935 0.18669686 0.16349025
孔 0.2153755 0.25082982 0.041183688 -0.14213914 -0.027402848 -0.14038618 -0.17369045 -0.29361585 -0.0652587 -0.014523392 -0.01628309 0.14209211 -0.14536265 -0.10785248 -0.10443148 -0.067094326 0.13574652 0.0031751664 0.069781765 -0.08789238 0.094209135 -0.11023778 -0.035421804 0.048970208 -0.1240659 0.0046422547 -0.042067405 -0.15871525 -0.3293743 0.030870069 0.30308706 -0.24556665 0.0071110716 -0.11895001 -0.15178667 0.021519694 -0.08530148 -0.046361987 0.10818707 -0.018689573 -0.049085237 0.034019247 0.15648313 0.11380438 0.12182717 -0.07740733 -0.09521528 -0.014054041 -0.04234473 -0.5771058
斯 -0.040430844 0.21764627 0.082882054 -0.018447045 -0.032835945 -0.07246219 -0.16224436 -0.33325273 0.13327944 -0.005218854 -0.06488626 0.3370259 -0.21647649 -0.1530796 -0.12504455 -0.21400261 -0.011224929 0.028164353 0.1726026 0.059195332 -0.072483055 -0.075627536 0.09093431 -0.0104632005 -0.15333854 0.030139122 0.01970105 -0.16187145 -0.1500661 -0.17062409 0.23014548 0.196374 -0.17497665 -0.19888723 -0.065745406 -0.064860746 -0.14187598 0.10861003 -0.04555335 -0.12273235 -0.049812566 0.12818599 0.21822014 -0.03395579 0.00070434716 0.07525712 -0.16721949 -0.036860604 0.16554396 -0.19689333
三 0.17589945 0.29443926 0.27719012 -0.04595516 0.2570441 -0.20353109 0.1769752 -0.18036982 0.042049106 -0.03992724 -0.06497803 0.35494107 -0.4078834 -0.16171823 0.056512482 -0.15918382 0.004677332 -0.30474177 0.30781484 -0.022738257 -0.21976492 -0.053069413 0.09392813 -0.08632485 0.01764952 -0.0025283634 -0.02079535 -0.22991502 -0.1803633 0.35061246 0.21789975 0.1811032 0.0079756025 0.1135221 -0.1760562 -0.13360006 0.16027224 -0.11167708 0.029424896 -0.15617368 -0.42300072 -0.06530725 0.39353144 0.10346456 0.08770572 0.19960886 -0.306922 0.28557068 0.021039218 -0.8133378
能 -0.26803976 0.13634482 0.15205996 -0.09565383 0.009829614 -0.16224271 -0.32578546 -0.026596082 0.1055318 -0.10452494 0.13093932 0.014230563 -0.29705152 -0.17991462 -0.08971085 -0.064947516 -0.078038864 -0.07537061 0.19242042 -0.2045776 -0.26934975 0.11097313 0.1450491 0.021875435 -0.015943125 -0.084320515 0.21211039 -0.14298916 -0.22470863 0.107436866 0.18852684 -0.2465798 0.045022734 -0.43709993 -0.063585415 0.016800214 -0.15348326 -0.05321675 0.14363052 -0.013463335 -0.08488097 0.1808181 0.18150946 0.101712264 0.013442548 0.29526317 -0.14925845 -0.11197445 -0.08452303 -0.6019904
见 0.29180267 0.1690958 0.27356958 -0.30646545 0.078006476 -0.21473989 -0.35654765 -0.284187 -0.066498086 -0.10627352 0.024862854 0.030568535 -0.24778327 -0.12338826 -0.11549402 -0.020259416 -0.11972196 0.020476267 0.22732636 0.093820274 -0.14151175 0.11042925 0.1596887 0.1774129 0.0416054 0.01213775 0.045489617 -0.11122901 -0.18173507 0.18878181 0.11821084 0.11473122 0.065813094 -0.2932078 -0.2537037 0.09613409 -0.09360308 -0.10167083 0.12751506 -0.12836601 -0.16650063 0.109053604 0.15585582 -0.0313598 0.2012348 0.3151589 -0.122240916 -0.0059635383 -0.02583087 -0.03775812
学 -0.035220787 0.14497 0.3993742 -0.34659228 -0.15131216 -0.31916812 -0.91923445 -0.4992571 0.027172098 0.014171915 0.14225985 -0.011715839 -0.20307975 -0.14466901 -0.50661194 -0.028745271 -0.05582947 0.24382706 -0.14858039 0.055322457 -0.25162357 0.18040685 0.2999945 0.007661907 0.3708122 0.11353269 0.1000303 -0.35210547 -0.11476224 0.21868086 -0.10149249 -0.1006136 -0.09430665 -0.44755486 -0.31678766 0.11315039 0.27535275 -0.15377772 -0.17247096 -0.09823358 -0.03698357 0.42604002 0.5494612 -0.14918523 -0.040006768 0.56640154 0.13358654 -0.28609678 -0.08030087 0.54767525
事 -0.07809307 0.15810212 0.23845257 -0.17018382 -0.17207582 -0.22830726 0.128834 -0.4071783 -0.061533976 -0.0041393377 -0.035973564 0.02412218 -0.115629695 -0.031128854 -0.04067931 0.11512183 0.013739917 0.034884136 0.021091405 -0.014398631 -0.22696875 0.15582715 -0.08246814 0.015087897 -0.12714493 -0.01920747 -0.02602825 -0.45464447 -0.112016395 0.06301855 -0.025385609 0.049857326 0.2436041 -0.31729853 -0.22310175 -0.026771275 0.13822891 0.050819032 0.047026314 -0.11683986 -0.25644332 0.056368835 0.26440912 -0.17201672 0.21954098 0.28357744 -0.18467203 -0.1173022 0.0031245523 -0.020932266
是 -0.18486086 0.24069294 0.13691188 -0.07105179 -0.11018872 -0.204836 0.1340099 -0.28890938 -0.16698205 -0.098007984 0.00079142884 0.11182371 -0.08116079 -0.20274535 -0.056383986 -0.063438505 0.047466997 0.030704282 -0.22470795 -0.0593416 -0.2993466 0.11965642 -0.0895256 0.0721508 0.024557248 0.039886657 0.19825062 -0.3556248 -0.07868893 0.20498215 -0.09582558 -0.046836875 0.25639665 -0.5353898 -0.0007013082 0.026452206 -0.07498495 -0.01305822 -0.1991686 -0.09922588 -0.24052785 0.17126013 0.21495801 -0.024739677 0.19471586 -0.0030352194 -0.17625457 -0.13608332 -0.021336626 0.04884283
哉 0.22474162 0.087658785 0.20708804 -0.2667252 0.13161325 -0.1939989 0.37784624 -0.20023397 -0.06125799 -0.029594367 -0.13100085 0.16678514 -0.15898497 -0.14627105 0.13409185 -0.0026248475 -0.07889384 -0.15688294 -0.29476255 -0.0276823 -0.24884583 0.102398984 0.16463755 -0.03181969 0.15837212 0.071108654 0.25356126 -0.09133624 -0.17413995 0.20494618 0.2159027 -0.26246268 -0.03417114 -0.35700184 -0.029074945 -0.030658513 -0.2082185 -0.047000058 -0.064232394 -0.22150311 -0.25559747 0.21904998 0.24850994 0.032290276 -0.074418694 0.2592063 -0.027365996 -0.06343362 -0.05174238 0.049793113
闻 -0.13227092 0.15040748 0.0986581 -0.19181332 0.121429995 -0.006440852 0.16404332 -0.22933818 0.04098434 0.14877282 -0.20210536 0.19903103 -0.21893072 -0.1566291 -0.006980072 -0.052943803 -0.28977844 -0.27002934 -0.29395217 -0.057396285 -0.14692678 0.009015058 0.18659264 -0.059147153 -0.05252199 0.05825009 0.10969672 -0.14503115 -0.13492003 0.14502421 0.09583179 -0.026122484 0.19208936 -0.5813158 -0.010858189 -0.018611535 0.06855022 -0.04348168 0.02844598 -0.034881733 -0.0036219936 0.1651745 0.13008934 -0.05931731 0.03215316 -0.089449584 -0.15236253 -0.10712957 0.036559958 0.15634972
未 -0.13738544 0.06436871 0.20597959 -0.15045013 0.034402274 -0.15991725 0.47561955 -0.2772699 0.016946575 0.089646 -0.325072 0.06846263 -0.2663297 -0.04771156 -0.15884478 -0.18370333 -0.16821143 0.11187709 -0.50371057 -0.1672982 -0.2658537 0.20335615 0.43603334 -0.17206164 -0.04080888 0.19562063 0.13974045 -0.52858436 -0.28213426 0.044786446 0.21158223 -0.62593865 0.15647283 -0.6151621 0.15862417 0.098240554 0.018160483 0.20026071 0.13073474 -0.19628873 -0.17225908 0.23695181 0.18825485 -0.10075014 0.11831723 0.17877702 0.071775645 -0.32825282 0.04933508 0.27735993
公 -0.078854024 0.15213782 0.23935616 -0.18669991 0.12813391 -0.056667686 -0.2958926 -0.16113386 -0.04940919 0.09556477 -0.17373152 -0.011993377 0.17139044 -0.31914857 -0.15661496 -0.17126155 -0.1078579 0.055598162 -0.4276897 -0.10571797 0.17612666 0.22663571 -0.025353685 0.10657093 -0.06103313 -0.12812252 0.22158757 -0.27596456 0.07902878 0.029477673 -0.08004853 -0.009556265 0.017920263 -0.13933198 -0.07149256 -0.050270326 0.07120295 -0.025729947 -8.004159e-05 0.030095428 0.029295035 0.18444018 0.18578127 -0.14381565 0.03406804 0.017347153 -0.15114778 0.13682237 0.009384459 0.11841121
好 -0.36051172 0.09850142 0.019072888 -0.34058043 0.16541082 0.06701571 -0.16536751 0.12619072 -0.09287387 -0.0009602327 -0.0633931 0.05083287 -0.2927265 -0.20044935 -0.07047573 -0.20417802 -0.20229201 0.08712344 -0.2789384 -0.20606497 0.15810908 -0.11418735 -0.12069095 -0.022500074 0.04985084 0.09374756 0.16304602 0.026984897 -0.33019635 -0.1509728 -0.02006404 -0.104134314 0.14657679 -0.1729259 0.140793 0.09138665 -0.09907093 -0.03771798 -0.081172414 -0.30255795 -0.2038267 0.030897833 0.089267425 0.06374307 0.017506965 -0.22916782 -0.13961919 0.044845507 0.07384351 0.15232494
我 -0.44793212 -0.008609984 -0.17730582 -0.44172516 -0.01870265 -0.21348733 -0.6137479 0.09991817 -0.1706125 -0.03500339 0.007434886 0.43503445 -0.17382824 -0.18833603 0.05599951 -0.50395316 -0.18830463 0.28793135 -0.5639147 -0.24750125 0.41800773 0.10015215 -0.27352738 0.18357034 -0.06369012 0.2207271 0.51907694 0.15732552 0.0073483773 -0.029949555 -0.040644977 0.035375625 0.293552 -0.12615223 0.12143391 -0.035544798 -0.1328262 0.046658225 0.49954396 -0.3445724 0.10790877 0.5276084 -0.5027432 0.20469603 -0.22466096 0.3399524 -0.4781833 -0.25592697 0.18745276 0.23758896
路 0.07611943 0.14785507 -0.013246995 -0.1956756 0.15257387 -0.07278015 -0.13626699 0.11099266 0.13662148 0.032357883 -0.16677499 -0.022591678 -0.214182 -0.046868112 -0.07859056 -0.33828673 -0.34856775 -0.084306516 -0.29574913 -0.112119034 0.19213034 -0.0063488977 0.12695865 0.020095617 0.2875676 0.205315 0.19109315 0.102339864 -0.0124939885 -0.04883108 -0.03273214 -0.1905042 0.2680717 0.13263308 0.19649775 0.2125411 -0.28188387 0.062218063 0.046614084 -0.0074526975 0.08561558 0.020716734 -0.025094682 -0.036902383 -0.047995124 0.050729956 -0.20716196 -0.19405487 0.13577412 -0.51176727
在 0.21429268 0.10998827 0.06423119 -0.1649541 0.15572909 -0.04933563 -0.45459625 0.21743348 -0.099191524 -0.16892987 -0.20977971 -0.20683755 -0.25673038 -0.07182161 -0.14291212 -0.2973858 -0.07508716 -0.12702037 0.038228042 -0.11239578 0.0759412 0.14598958 0.08147196 0.084435746 0.116658255 -0.14779603 0.19620577 -0.20085035 0.15719153 0.0029660459 -0.08254856 -0.3069569 0.25673938 -0.21989653 -0.022775985 0.1937872 -0.20553827 -0.03919751 0.00286707 0.08919001 0.024513189 0.26403737 0.18348083 0.27853715 -0.17425416 -0.049675673 -0.19684978 -0.19401076 0.14361112 -0.33146235
已 0.14604752 0.11097496 -0.063329265 -0.040809207 0.2762799 -0.1425144 -0.44819126 -0.010581738 0.07431579 -0.067602605 -0.14809431 0.1317088 -0.2909227 -0.0057337624 -0.098611236 -0.25126955 -0.37721866 -0.1449393 -0.028676044 0.097988084 0.04584109 0.0037670617 0.017244622 0.18609299 0.10131869 0.11728082 0.1911311 0.06616619 0.070194 -0.04348076 0.17848092 -0.2279214 0.2254099 -0.03615308 -0.20914836 0.2655192 -0.2881908 0.08877784 0.09849261 -0.10199118 -0.010312053 0.36981335 0.028039055 0.23905483 -0.008015908 -0.26066163 -0.10750484 -0.18646693 0.18686427 -0.3310555
得 0.28738347 0.21280569 0.1633763 -0.015740924 -0.15301351 -0.14538912 -0.5716515 -0.11452077 -0.011323252 -0.13393275 0.08045996 -0.009636253 0.07547849 0.045635447 -0.2221516 -0.12933902 -0.2519071 0.09726939 -0.12386182 -0.01679876 0.19549984 -0.09140842 0.11255308 0.104455 0.18537392 0.17212301 0.072126456 -0.13916743 0.037788395 0.043092236 -0.074940555 -0.039271325 0.16925502 -0.09813576 -0.24169655 0.091685385 0.02154062 -0.113454685 -0.020581543 0.1200809 -0.059485983 0.2759429 -0.040299747 -0.014825663 -0.24881989 0.042308785 -0.26587892 0.10447339 0.051143378 -0.4261831
所 0.14900488 0.0926883 0.13804543 0.06480389 0.08051527 -0.11004809 -0.30522943 -0.17473465 0.03071333 -0.069976114 0.11706148 0.3419133 -0.2106029 -0.0289124 -0.20616671 -0.21272612 -0.36816806 -0.14053194 -0.15753725 -0.120799996 -0.017708626 -0.16511206 0.22362766 -0.10895559 0.037905272 0.16085596 0.044309035 -0.15485379 -0.14614989 0.27427876 0.3416908 -0.5462289 0.006646639 -0.5417887 -0.12614591 0.09145084 0.1294994 0.0013750475 0.76802963 -0.10257882 -0.1633763 0.3092372 0.13537616 0.09565864 -0.2643647 -0.33072937 -0.43868992 0.12888932 0.02921606 -0.7973479
民 0.018918194 0.045388166 0.07190949 0.009202013 -0.0017458629 -0.17601046 0.108300254 -0.013193661 0.09349477 -0.16441219 -0.061760888 -0.0024989373 -0.034985315 0.05815982 -0.19636661 0.011133999 0.16796683 -0.04831183 -0.06218268 -0.11472433 -0.19952525 0.00804824 0.12405303 -0.1138 0.29364637 0.119393505 0.072497234 0.180997 0.00029661215 0.23754433 -0.059036236 -0.2253259 0.25807425 -0.55108833 -0.16616988 -0.03560827 0.17871831 -0.06296295 0.0796733 0.031946365 -0.12632659 0.2576976 -0.22713922 0.030281875 -0.22369896 0.051577494 0.019148218 -0.08312739 -0.01787056 -0.17134571
小 0.19694224 -0.03588631 0.15013549 -0.11589455 0.10000032 -0.10185091 -0.38526416 -0.0121490015 0.005027546 0.05154924 -0.25730902 0.098671734 -0.041052405 0.16731381 0.024148017 0.3291247 0.15928404 -0.33030328 -0.12274444 0.029846642 -0.18761766 0.022823554 -0.09231437 -0.05742475 -0.04114682 0.018319717 -0.14824474 -0.118768 0.03239786 0.19656867 -0.016405892 -0.09243508 0.06546979 -0.20489049 0.042430803 -0.016667679 0.06809604 -0.07351101 0.06232433 -0.06837406 0.21684715 0.2389361 0.21818338 0.000113995746 -0.16397454 -0.14087844 0.037699234 -0.046223164 -0.11270473 -0.5771711
天 0.7356448 0.027961718 0.09702807 -0.20062512 -0.41990882 -0.0789893 -0.7992691 -0.14907938 -0.39133587 0.22852051 -0.1477416 -0.36156237 -0.04712094 0.3668807 -0.058946423 -0.058066376 -0.20334756 -0.27770075 -0.3382665 -0.46843266 -0.6791529 -0.031057442 0.16537286 -0.064711414 0.2794546 0.3614359 -0.50530773 -0.47394514 -0.42179674 0.3945825 -0.18420708 -0.19797936 -0.03394873 -0.5971589 -0.346181 -0.25883996 -0.011747697 -0.4220633 -0.050071005 0.23179546 -0.1459853 0.40606079 0.20495813 0.14228888 -0.5755474 -0.28152543 0.27204075 0.07346932 0.10082349 -0.29947057
乐 -0.06630154 0.059799936 0.06539588 0.14325544 0.08557454 -0.049794428 -0.49642834 -0.25679857 -0.1800414 0.14867693 0.12758137 0.099016815 -0.34592143 0.019333573 0.01112962 -0.1093672 0.16070797 -0.021577135 0.22001356 -0.34653172 -0.2939289 -0.11330896 0.08744092 -0.2209045 0.09314848 -0.012944142 -0.28391033 -0.3851512 -0.016534971 0.2264318 -0.05810996 0.13983163 0.091832615 -0.47824433 0.08339966 0.0097463075 -0.023017213 -0.14268416 0.06887343 0.015926776 0.04119564 0.13471153 0.18030603 0.1416643 -0.27219146 -0.06793557 0.039756313 0.18606913 -0.0031198147 -0.3581941
邦 0.12222207 0.10055836 0.023283472 -0.046065558 0.19389002 0.022564497 -0.46460503 -0.019227825 -0.04788486 0.09352206 -0.14765616 0.11999568 -0.30707487 0.24419454 -0.1675022 -0.044267602 -0.15271364 -0.12237348 -0.22654146 -0.36553407 -0.36387038 -0.24772944 0.10762824 -0.10785605 0.12604514 0.023481622 -0.046193425 -0.17731796 -0.020116806 0.23750553 -0.009721897 -0.18706068 0.16981235 -0.42234975 0.057147983 -0.042670324 -0.09733362 -0.24354021 -0.021902611 0.06561503 0.13849793 -0.17359433 -0.018902952 -0.07639455 -0.14553438 0.014247713 0.050462805 0.0022751545 -0.0031086595 -0.4461621
亦 0.32794306 0.08933441 0.18780187 -0.17656566 0.1209562 -0.16097158 -0.1920553 -0.082747005 -0.06679362 0.16111721 -0.2993038 0.09865938 -0.30586433 0.16260888 -0.065971956 0.027779387 -0.10720648 -0.18013768 0.109292254 -0.19112003 -0.35165712 -0.2211453 -0.1463153 0.0005209211 0.061937563 -0.030200614 -0.2155277 0.09263995 -0.0962327 0.15077959 0.043674503 -0.32035974 0.20398101 -0.4550317 0.0655284 -0.078161106 0.19752538 -0.048578255 -0.026573475 0.005424889 0.114683695 0.15029062 0.13107203 -0.050906815 -0.11552862 0.059672225 -0.04314258 -0.007836625 0.15323201 -0.42016563
使 0.34922543 0.26879713 0.14065374 -0.11745433 -0.05099716 -0.06120085 -0.43793234 -0.24750514 -0.07073589 0.078257605 -0.24095239 0.00049271504 -0.19490585 0.19230194 0.09868852 0.026617909 0.1417858 0.03734584 -0.19932161 -0.14676622 -0.34453002 -0.1362902 -0.08125867 -0.014420215 -0.14472955 -0.107988104 -0.2354511 0.12781012 0.12844664 0.16761519 -0.09148094 -0.3931602 0.13379638 -0.4243792 0.0020283037 -0.073623784 0.3093644 -0.14861767 -0.039159004 0.12677692 0.049852468 -0.021201733 0.06851464 -0.070855245 -0.021979421 -0.21129312 -0.16704914 0.08836194 0.016365338 -0.44239235
大 0.0026442828 0.3089351 0.30140966 -0.22788092 -0.10203032 -0.22050731 -0.6186752 -0.18595015 -0.2284105 0.34254888 -0.22898759 0.033018354 -0.24189748 0.35845402 0.02347728 0.13240232 0.12966652 -0.0038786933 -0.13920577 -0.16546181 -0.4793523 -0.4079539 0.023060352 0.041576028 0.43115148 0.22712973 -0.47836822 -0.1464544 0.08333654 0.22062977 -0.113949955 -0.4063227 0.36755866 -0.71882117 -0.12462125 0.18205622 0.2564138 -0.10170052 0.22502147 0.064035766 -0.08354983 0.120625935 0.2112957 -0.29569 -0.16409466 0.18422419 -0.13211593 -0.254303 0.1623879 0.15033197
下 0.29251355 0.26689148 0.10824437 -0.14640684 -0.18443416 -0.27066502 -0.52134275 -0.0058874246 -0.11907686 0.0285043 0.2328519 0.09886866 -0.03580205 0.22757313 -0.047799002 0.08419771 0.07584559 0.12919846 0.012815652 -0.3151586 -0.3431158 -0.14253376 0.06835835 -0.10179867 -0.054977186 0.035030525 -0.1697118 0.12910803 -0.07846034 0.17312723 -0.16280933 0.18697298 0.16913049 -0.23313335 -0.055249617 -0.067277536 0.13520347 0.0049216016 0.13744713 -0.1506699 -0.21296638 -0.019867681 0.15521742 -0.020237986 -0.09741295 0.024326045 0.1770688 0.17515635 0.07035203 0.22780335
贡 -0.014449914 0.3182501 0.23291452 -0.107294045 -0.12255033 -0.16150646 -0.50228256 -0.15761615 -0.17162819 0.055443082 -0.08168933 0.33858305 -0.37975007 -0.12859677 0.05956971 0.09867753 -0.1581319 0.19548574 0.11465224 -0.1681028 -0.24321786 -0.31002402 0.054123934 0.018660733 0.051957007 0.024792891 -0.27933776 -0.08017082 0.2108532 0.104608215 0.024926037 -0.22640234 0.0062071946 -0.17556974 0.014245793 0.077510044 0.123916715 -0.1635587 0.011501404 -0.14661631 0.15123275 0.097772196 -0.1070274 0.02561355 -0.056072444 0.101330765 -0.05015322 -0.06294682 0.20318788 0.40300208
欲 0.57288295 0.5302218 0.18707429 -0.3615792 -0.31797552 -0.10290957 -0.6288835 -0.21818115 0.027878914 -0.011397723 0.020299997 0.3671196 -0.34185782 0.40567982 0.015252743 -0.05472004 -0.27269027 0.28149113 -0.18628061 -0.39817575 -0.39292192 -0.6878274 -0.195932 -0.16416423 -0.5255666 -0.16102025 -0.6181346 0.18996458 0.212854 0.3159095 -0.32128474 -0.48310152 0.27081668 -0.5210112 -0.103465036 0.035860732 0.27911496 -0.30618605 0.26497427 -0.25054532 -0.36433554 0.005949884 -0.0022327963 -0.04058688 0.14760116 -0.21934846 0.059996516 0.2676564 0.24731013 0.8108165
诸 0.120345 0.23068142 0.11850394 -0.107024975 -0.09882738 -0.23711574 -0.45327914 -0.19350164 -0.24343885 0.01307351 -0.032587536 0.1460037 -0.30420196 0.26778877 0.012918648 0.043457523 -0.049207885 -0.07699302 0.16650353 -0.026226427 -0.26133826 -0.2285238 -0.041410953 0.054092042 -0.17371573 -0.15099432 -0.28214115 -0.033857133 -0.012795123 0.08279411 -0.09056524 -0.34260127 0.11031212 -0.5136898 -0.017960252 0.12376871 0.102127224 -0.06430727 0.080161415 -0.17313525 -0.17264241 0.08790246 0.012214272 0.009476286 -0.10947658 -0.25101507 -0.21820575 -0.027029935 0.014411814 0.5087759
从 0.01267986 0.074890114 0.19358426 -0.029229876 -0.07514247 -0.09306363 0.15417667 -0.06344441 -0.1713384 -0.027664002 0.08085571 -0.030053783 0.013111819 0.20295285 -0.07487027 0.06940983 -0.1296262 0.14766149 -0.035675332 -0.048549183 -0.0837101 -0.28343442 0.20959918 -0.07841414 -0.18267001 0.088551596 -0.14655244 -0.13679844 -0.21733834 0.22769049 -0.108650975 -0.108655855 0.0751893 -0.54148644 0.06756081 0.29328197 0.22492883 -0.04392772 0.07283254 -0.2120642 -0.30086145 -0.055745635 -0.047512278 -0.0734723 -0.23570763 -0.08830979 -0.23853967 0.044364233 0.1083927 0.48914862
文 0.03612168 0.09550179 -0.041242376 -0.0630975 -0.29910946 -0.2843266 -0.22021198 0.34636962 -0.12264573 0.09920257 -0.032574296 0.028794058 -0.16310038 0.18108638 -0.034917306 0.12148865 -0.049671613 0.11689579 0.1360108 -0.027932633 -0.04529444 -0.13059661 0.20417438 -0.0784023 0.120977215 -0.08860142 -0.09814921 0.026102815 -0.09150678 0.11116876 -0.057269093 0.038226306 -0.12015617 -0.5194412 0.07515309 0.2527688 -0.17151679 0.09968099 0.113386326 -0.20024197 -0.32018855 0.031808697 -0.23713917 0.036986887 0.057537705 -0.09524107 -0.28566402 -0.15893416 0.25084618 0.37385157
政 -0.23214743 0.14093049 0.072883844 -0.012349811 -0.16408907 0.06731975 -0.015430168 0.1987153 0.007507095 -0.11614326 0.05488185 0.1049784 -0.27056763 0.16005503 0.089543395 0.19599666 -0.21876273 0.28564495 0.10557734 -0.29242325 -0.21394576 -0.08929647 0.023787286 -0.20255786 -0.42072228 0.027168032 -0.25815958 -0.2541561 0.013334589 0.17701387 -0.09435539 -0.2784016 -0.22565286 -0.53419054 0.20795295 0.14288166 0.07261906 0.006674349 0.049968343 -0.10992936 -0.31879887 -0.038785998 -0.12757052 0.18469903 -0.1030883 -0.044504173 -0.14819899 0.12967049 0.17238541 0.22111438
食 -0.037045233 0.3826928 0.024714306 0.33082548 -0.41912106 -0.32509953 -0.008072953 0.09098577 -0.12982267 0.047525488 -0.0012814859 0.09140547 -0.53040713 0.21579894 -0.044925895 -0.018680492 0.13142428 0.2322358 0.030111283 -0.08910023 -0.4383349 -0.28823847 0.2187307 -0.36902967 -0.4585391 -0.10766104 -0.28198096 -0.14028005 -0.057111003 0.16446792 0.083389774 -0.34881535 0.14995898 -0.6235749 0.27570745 0.17159861 0.29737446 0.17396057 0.075694315 -0.38781202 -0.6309591 0.13365856 0.052625053 -0.03372658 -0.27120602 0.13364872 -0.006857061 -0.22312436 -0.011989274 0.49979922
善 -0.133524 0.08827308 0.0783199 0.011721845 0.119990304 -0.08680385 0.24751529 -0.0681707 -0.098536916 0.030759498 -0.08046462 -0.08784764 -0.3650627 0.087482594 0.03226685 0.016386345 -0.16736059 -0.086766705 -0.030917732 -0.11988477 -0.33691326 -0.04556081 0.111776344 -0.04948345 -0.41213673 0.06318635 0.047575627 -0.110618345 -0.10315078 0.25533873 0.137836 -0.27470067 -0.100982115 -0.5933542 -0.14825428 0.23568806 0.07107824 0.11917693 0.001882466 -0.04393328 -0.43448803 0.02338714 -0.01839301 -0.15337965 -0.11080007 -0.06568336 -0.21809058 -0.08085286 0.06247026 -0.61646056
后 0.23076469 0.0346899 0.0046080844 0.068582624 -0.10621933 -0.25576115 0.39974347 -0.016601335 -0.006069059 0.05514458 0.004069446 -0.15227978 -0.13113593 0.16890696 -0.041974477 0.08562327 0.14100419 0.19244555 0.06444578 -0.16891003 -0.20340285 0.045002073 0.14323016 -0.17291197 -0.1844342 0.119966604 0.13933492 -0.30335662 -0.01066556 0.2214132 0.21259408 0.13419141 -0.16072072 -0.4854779 0.084184065 0.16790168 -0.1555799 0.06028194 -0.17271425 -0.18955778 -0.42882216 -0.13457614 -0.036048576 -0.0146540515 -0.04525127 0.28585872 -0.26855806 -0.20119411 0.0017587561 -0.19986503
德 0.3045891 0.20521152 0.17524472 0.04334701 -0.15363987 -0.109182775 -0.09394487 0.029911978 -0.04515007 -0.11053584 -0.12212953 0.0024359478 -0.31652763 0.0453285 -0.28065228 -0.06502954 -0.020678915 0.2535784 0.19218178 -0.16748863 -0.42230445 0.12823048 0.3341114 -0.26493073 -0.37992182 0.23835455 0.1728002 -0.33411744 -0.014201871 0.27083334 0.36168697 -0.48765174 -0.29516947 -0.8597882 0.05959763 0.36646587 0.51154774 0.40545982 0.16204868 -0.18276481 -0.5569463 0.0435284 0.16258961 -0.01216197 -0.27236447 -0.07215649 -0.30977133 -0.066772625 0.18091865 -1.1259232
求 0.09258414 0.16329855 0.037540395 0.018010939 0.15238643 -0.23729153 -0.008409441 0.005307048 0.07388331 0.02701388 -0.15414405 0.029566959 -0.22083682 0.15053725 -0.088856906 0.28687128 0.0019347686 0.12951581 0.3409467 -0.02142274 -0.2627652 -0.048411228 0.20016466 -0.2607299 -0.39065686 0.13105479 -0.07360263 0.044704292 0.05178372 0.14905599 0.14847045 -0.19494462 0.00026376126 -0.5872076 0.20563991 0.18403608 0.072009064 0.08543071 -0.029156312 -0.10117851 -0.18455553 -0.060375277 0.15043238 -0.12579034 -0.20587498 -0.008685231 0.059130713 -0.19743517 0.07253441 -0.31852183
对 0.110579036 0.18510689 -0.09506529 -0.17643441 0.46128136 -0.058681242 -0.5535035 0.10368771 0.044254348 0.12764284 0.032128323 -0.08999412 -0.26421684 0.072318345 0.07628964 -0.088624015 -0.17285787 0.02390932 -0.0048374464 0.115596876 -0.10834308 -0.25557587 0.09824929 -0.24709712 -0.34205803 0.10511039 0.11841069 0.17844352 -0.074657574 0.19221802 0.17285182 -0.14005086 -0.0019394855 -0.51914847 0.20078452 0.27406996 -0.08086261 0.029846668 -0.008273053 -0.09889824 -0.31089216 -0.13784859 0.20200516 0.06266912 -0.07290086 0.35929036 -0.22044659 -0.27772638 0.035213552 -0.12773415
恶 -0.07725556 0.05325346 0.015961312 -0.12493314 0.17489144 -0.20352806 -0.31418276 -0.20341355 -0.051320102 0.14200835 -0.06622161 -0.11660988 -0.075240366 0.26431102 -0.06815351 0.107674524 -0.15351474 0.097002886 0.09793331 -0.028745044 -0.24926722 0.11530042 0.21317133 -0.0012048136 -0.21862787 0.28912994 -0.051851902 -0.016065987 0.05073369 0.14844215 0.17156447 0.17645477 0.22451489 -0.53121763 0.10888229 0.12606569 0.0062879934 -0.06912482 -0.105409175 0.058995478 -0.24411213 0.025265492 0.29926285 -0.08293995 -0.025567109 0.4170878 -0.017115697 -0.25265124 -0.09126102 -0.310491
信 0.22041786 0.060032636 0.20023349 -0.12012335 0.061453808 -0.30885112 -0.41745105 0.022601364 0.17718354 0.22455123 -0.097181484 -0.1498971 -0.33517054 -0.08138653 -0.07515778 -0.119654596 0.0370371 0.071276724 0.08466138 -0.029369993 -0.18262655 0.18697214 0.16378601 0.17082208 -0.3634228 0.2513583 0.07503772 -0.028006276 0.20141578 0.059328742 0.19526838 0.08666113 -0.13203429 -0.4051062 -0.017363932 0.32798168 0.15938902 0.11346727 -0.25036976 0.0959271 -0.033077873 -0.09981717 0.28319338 0.054663613 0.08873908 0.17941852 -0.15911046 -0.14706185 -0.19682355 -0.44301373
死 0.33195612 0.2561261 0.20700957 -0.28324133 0.6530895 -0.3202933 -0.5039046 0.028934099 0.250214 0.24286044 -0.30858704 0.16816168 -0.35381797 0.03567016 -0.0024506694 -0.12810591 -0.05523209 -0.012356007 0.2958414 0.026743261 -0.29860544 -0.18188804 0.16102944 -0.054697257 -0.45736644 0.24802195 -0.22172485 0.2088159 0.03917851 0.27839208 0.1651033 -0.53442043 -0.07024466 -0.5637792 0.22163257 0.3072424 0.23809488 -0.25719976 -0.041648593 -0.10537884 -0.22413136 -0.023458555 0.18417329 -0.14180508 -0.23736736 0.22685978 -0.045540914 0.14441983 0.19942151 -1.0152476
然 -0.039394125 0.14897169 0.18785456 -0.15273236 0.28762847 -0.20392679 -0.58565134 0.1147217 0.17697325 0.1330779 -0.07090515 -0.1486972 -0.19059959 0.14593682 -0.11742937 -0.0941195 0.20722815 0.15854806 0.17403106 0.0030197883 -0.24312714 -0.066716656 0.14534797 -0.0030842952 0.14827593 0.17780675 0.030840041 0.25775254 0.060025513 0.17595644 0.20605075 -0.10756906 -0.1350534 0.07328466 -0.057872865 0.15749131 0.22887288 -0.15443209 0.083074056 -0.0024484117 -0.11572281 -0.11517443 0.29858366 -0.047075663 -0.02876975 0.08141039 0.08521991 -0.04017908 0.04519822 -0.5346521
《 0.08448036 0.05556649 0.19864553 -0.30553654 0.23513201 -0.25379667 -0.5401684 -0.03665696 0.13508123 0.16022722 -0.09933696 0.08769752 -0.19925943 0.08481282 -0.010495873 0.08251776 0.14152744 0.08010291 0.1349872 0.08356606 -0.062303413 -0.02402978 0.037519976 -0.123887755 -0.15439963 0.1543186 0.06837485 0.22373779 0.3591648 0.13838631 0.06436374 -0.27568614 0.084177025 -0.15331541 0.002467243 0.11520062 0.20763333 -0.16605198 0.13307615 -0.18211684 0.098614976 0.17703985 0.21569258 -0.082159884 -0.17221433 0.2049463 -0.1900088 0.10024006 0.1959463 -0.30983567
》 -0.19060375 0.250547 0.5058716 -0.3318298 0.5149712 -0.5429088 -0.9745692 0.25844014 0.08968789 0.4012424 -0.090067096 0.10039658 -0.4155252 0.3197139 -0.27067274 -0.05882424 0.10205367 0.15803987 -0.069276705 0.0076718507 0.16128072 0.47247365 -0.016431918 -0.14270052 -0.3993801 0.5024752 -0.21466112 0.2976665 0.49708855 0.110925 0.3635791 -0.26405066 0.2471228 -0.2317281 0.15158343 0.26319662 -0.13607955 -0.3300734 -0.02432341 -0.19151731 0.3066443 0.17362945 0.07932129 0.12786621 -0.012223275 0.21291263 0.09452014 -0.24494648 0.031851254 -0.5482388
由 -0.13608956 0.20013687 0.3416766 -0.14999111 0.09107512 -0.2958104 0.16525899 -0.023105282 0.08615533 0.27739847 -0.020135026 0.07003762 -0.04871265 -0.05877635 -0.19204143 0.025470352 0.21300375 -0.0368551 0.030900104 -0.0053100702 -0.044286534 0.09908713 0.27100652 -0.08344973 -0.16067578 0.06950133 -0.20609465 0.19090489 0.39120305 -0.061991192 0.013677151 -0.059304122 0.010406926 -0.14211443 -0.05760135 0.16566563 0.3462918 -0.2844466 0.18918975 -0.05710601 0.49685898 0.03521481 -0.082571484 0.09499771 -0.11886943 -0.10528927 0.05047165 -0.10499523 0.09427664 -0.03470754
仲 -0.24478014 0.164798 0.3540371 -0.09833001 0.09810397 -0.09765063 -0.39600465 0.091377266 0.16995604 0.12141468 -0.080292456 0.233536 -0.18579957 -0.038398843 -0.12474415 -0.03806967 0.035134822 0.026121097 0.0051104156 0.08474384 -0.16948916 0.05611695 0.18468188 -0.06544683 0.06739744 -0.013364724 -0.16787083 0.04880296 0.37398303 0.054399837 0.140581 -0.37219286 0.1088525 -0.20122409 -0.11795539 0.10114801 0.08731282 -0.28771627 -0.08470448 0.020043086 0.19981395 0.02920916 0.040070105 -0.0037464674 -0.11401533 0.045812596 -0.04787323 0.111187406 0.17503983 -0.44937903
非 -0.16315748 0.15500635 0.31974185 -0.1989162 0.14682648 -0.2726076 -0.12430091 0.013683613 0.12410787 0.27582046 -0.12726802 0.13853154 0.06255532 0.2005987 -0.2583067 -0.05201117 0.0042751 -0.15923756 -0.10202283 0.13739745 0.026383055 0.05198678 -0.1139449 -0.042924963 0.1650253 -0.08182974 -0.14419624 0.15997094 0.2928458 -0.01616817 -0.07760597 -0.40731114 0.10739814 -0.2784345 -0.1976065 -0.12671332 0.24456093 -0.14983171 0.11468219 0.024161443 0.06162091 0.11315431 -0.26873973 -0.024613628 -0.07902661 0.14805219 -0.31910074 0.096228525 0.31247213 -0.44552043
出 -0.0011768045 -0.046445433 0.29384282 -0.23285833 -0.06608543 -0.122366585 -0.41457638 0.08819425 0.008553818 0.22947143 0.06278617 0.26709947 -0.20985097 0.04755486 -0.11844752 -0.14493945 -0.0974703 0.052147917 0.23633373 0.1619386 0.025730025 0.1918875 0.055730738 -0.08858762 0.12164877 0.05232707 -0.009483703 0.12329583 0.12472895 0.13006389 -0.0770649 -0.2559665 0.15251695 0.17875898 -0.19265932 0.05308109 0.223369 -0.15935944 0.0014859755 -0.17555656 0.051949147 0.07630112 0.013459656 0.18032108 -0.04988535 0.06623495 -0.20905331 -0.13331532 -0.03465962 -0.487755
过 0.057322368 0.046549592 0.40607873 -0.1563087 0.4159492 -0.2469652 -0.29190463 -0.20567022 0.102157526 0.26456237 -0.08119026 0.13419336 -0.28136986 -0.024988644 -0.3849919 -0.2394353 -0.17817403 0.2875853 0.48244727 0.08822434 -0.04639782 0.21269128 -0.15061054 -0.06739399 0.09668667 -0.19713911 -0.06316888 0.20128803 0.7031043 -0.12397525 -0.18008351 -0.25070515 0.13287075 0.5344885 0.15022002 0.06761972 0.48018026 -0.2698546 -0.04473297 -0.14343394 0.34773293 0.32237163 -0.111151405 -0.14842777 -0.073246606 -0.20787634 -0.5167831 -0.047849916 0.18368034 0.1422047
一 0.14198907 -0.100040615 0.27958462 -0.0139177125 0.25609547 -0.10806952 -0.2620407 -0.09016736 0.055209342 0.26666048 -0.046278745 0.1186011 -0.2808981 0.017478067 -0.28815264 -0.1640293 -0.025528688 0.17542693 0.2115232 0.055537455 -0.18857831 0.18844849 0.088726915 -0.008270603 0.12218113 -0.036899995 -0.029907383 0.21780208 0.14395192 0.08905657 -0.22705138 -0.19929282 0.040520184 -0.00930996 0.17079595 0.21684432 0.20328425 -0.14832741 -0.1070696 -0.044500463 0.07136357 0.041480176 -0.2795741 0.029857209 0.01332773 0.064832985 -0.2870586 -0.007732767 0.16918391 -0.5443641
虽 0.32326677 -0.008039808 0.32356507 0.10368084 0.038659666 -0.24542591 0.414934 0.09703432 0.033785056 0.06854344 0.0010415311 -0.025644075 -0.14209707 0.0599429 -0.19275488 0.017694961 -0.2126182 0.038785696 0.20134664 0.20191818 -0.26057196 0.15200211 -0.24227221 -0.10429649 0.10839739 -0.20137769 -0.061728235 0.013947463 0.27932057 0.13437524 -0.37672105 -0.24678114 0.1513114 -0.3971292 -0.03154489 0.17249931 0.24954371 -0.093866885 -0.12422849 0.21372166 0.14456454 0.009427112 0.040318605 -0.11189009 -0.108067304 0.10994328 -0.3779806 0.24812357 0.32712725 -0.32027113
足 0.41600338 -0.25936028 0.34073195 -0.15894006 -0.13222371 -0.5139397 0.11675045 0.16842242 0.1320691 0.45055258 -0.18438634 0.32423225 -0.32367957 0.13757995 -0.03702522 0.016945036 -0.07158223 -0.11139685 -0.15974966 0.25116086 -0.13842808 0.36504212 -0.49307185 -0.17691751 0.16010135 0.16875197 -0.15832411 0.005119498 0.30177987 0.333531 -0.4895472 -0.596895 0.5249932 -0.25607374 -0.035913154 0.057052433 0.073257506 -0.3032952 -0.32825798 0.0074139093 -0.10516713 0.33753818 -0.062199604 0.20129636 -0.18530604 0.5150467 -0.50656176 -0.30348635 0.3740376 -1.0897692
居 0.447712 -0.015057509 0.11123388 -0.046076916 0.23487516 -0.24258448 -0.0488874 -0.12789798 0.082611546 0.25323212 0.079899 0.16494384 -0.1642585 -0.06474721 -0.09338647 -0.06364298 -0.03512861 0.22808695 -0.12567335 0.0044125356 -0.10174549 0.2546924 -0.24231468 -0.051750228 -0.11782755 -0.0083020395 0.13498406 -0.032633945 0.124254905 0.18100251 0.022763401 -0.26047608 0.03293421 -0.1123863 -0.09222294 0.069933325 0.20395371 -0.03244683 0.1200372 -0.033061065 0.10718858 0.26841182 0.022738872 0.12662606 -0.11739535 0.08242874 -0.39401153 0.035828426 0.14206567 0.031425565
尔 0.31993556 0.01874967 0.018775487 -0.18524678 0.11058453 -0.21792038 0.12518352 0.12718543 0.20643638 0.1826589 -0.02874404 0.25306284 0.0978895 -0.26851922 0.025760693 0.04845024 0.07119738 0.2099772 -0.073469914 0.042385936 -0.054306168 0.29030424 -0.24757005 -0.21976577 -0.28850043 -0.055634428 0.1630329 -0.061288454 0.017546082 0.18945616 -0.15131459 -0.07339263 0.039764665 -0.1395009 -0.05515138 0.107670695 0.21411292 -0.021682195 0.057956696 -0.13257758 -0.21788773 -0.09728782 -0.19510654 0.22040674 0.030636346 0.07207903 -0.11467308 -0.031057077 0.018562626 -0.4200722
夏 0.38691792 -0.043413147 0.14351155 -0.15629238 0.11026162 -0.29366556 -0.010023512 -0.07476566 0.08813538 0.13092303 -0.14075798 0.18548301 0.051387567 -0.16704729 0.02473164 -0.16179363 -0.09398221 0.15943186 -0.22718793 0.13363877 -0.14476235 0.22765651 -0.106168516 -0.103647105 -0.099644564 0.08842372 0.024363354 0.056443475 -0.039952394 -0.012664147 0.022796467 -0.26502872 0.20664646 0.30821764 -0.11376831 0.056534562 0.2839284 -0.009712972 0.23013918 -0.071696416 -0.2284195 0.033162843 -0.26278937 0.08864729 -0.23920134 0.3296944 -0.26068586 -0.15184093 0.11802704 0.25910634
父 0.017045654 -0.06832119 0.13379711 -0.17867103 0.10724454 -0.3401544 -0.011961841 0.2077456 0.04192721 0.19816546 0.018023651 0.26023754 -0.31387767 -0.14543226 -0.053392768 0.1596587 0.002211038 -0.078087464 -0.15038127 0.20958835 -0.022804707 0.22870506 -0.20941608 -0.114442416 -0.08876841 -0.01383016 0.0030933945 -0.02101531 -0.11482591 0.16184011 -0.21849525 -0.1139226 0.29476574 -0.13975689 -0.14527562 0.21443856 0.21399215 -0.22012213 0.22699177 -0.071514495 -0.1291978 0.22795503 -0.12179698 0.20545371 -0.23905262 0.38886204 -0.07012551 -0.22384919 0.06447861 0.20442873
及 0.45905265 0.37011334 0.24500872 -0.2708615 0.30387387 -0.19795138 0.15222877 -0.067715384 0.11066439 0.271197 -0.0071481876 0.20004857 -0.42553166 -0.3770269 0.1044097 -0.02291763 -0.031565193 0.049018573 -0.10154365 0.29212362 -0.22969985 -0.2396327 -0.09361034 -0.17932838 -0.3110074 0.14916277 -0.060028173 -0.21506503 -0.092857234 0.34563097 -0.27838278 -0.097552456 0.4741302 -0.06975413 -0.4189758 0.22462946 0.4697026 -0.2870891 0.39254022 0.040758356 -0.20020701 0.32383692 0.02909529 0.08470901 -0.32481858 0.22680396 -0.39913878 -0.16570576 0.23754756 0.14231786
己 0.34162354 0.21008557 -0.075736575 -0.025034081 0.17285143 -0.10754882 0.48762226 -0.21165273 0.2966974 0.19570471 -0.035031207 -0.027362065 -0.2969755 -0.2440346 -0.15965122 0.0371117 -0.0080203675 0.18949534 0.22777225 0.028974215 -0.18105356 -0.06965515 -0.17665571 -0.13337989 -0.322116 0.06561609 0.1154536 -0.12478548 -0.15396245 0.12319463 -0.20963663 -0.3008585 0.2330293 -0.123561785 -0.04880361 0.27508274 0.3097091 -0.18895517 0.14639577 -0.110059746 -0.06874225 0.23038626 -0.1777156 0.14887555 -0.29489723 0.10345193 -0.08372583 -0.038730033 -0.024725642 -0.07655687
予 -0.035796743 0.34117532 -0.027889362 -0.119495444 0.20844474 -0.36880803 -0.28674898 -0.26724744 0.22766763 0.092743106 -0.06634332 -0.008337621 -0.11182695 -0.12867978 -0.0414387 -0.013923575 -0.024198625 0.13480373 -0.033523176 -0.043252386 -0.19286484 -0.025651185 0.05802706 -0.08356963 -0.4060348 0.17468409 0.19506018 0.13782218 -0.038418155 0.13112442 0.18695156 -0.5310183 0.1673175 -0.22283839 -0.09552986 -0.12665635 0.34865862 -0.22729787 0.21697114 -0.19005443 -0.28003722 0.059268337 -0.12408046 -0.052755017 -0.1113564 0.06897998 -0.18302485 -0.099126294 -0.090740785 0.052653786
色 0.12455493 0.27805537 0.09872188 -0.19111197 -0.028685011 -0.39868158 -0.73906064 -0.011278764 0.37655327 0.12810841 0.09267282 0.10170149 -0.31480387 0.0496939 0.02333669 0.06968167 -0.06774679 0.10800602 0.049374968 -0.055599578 0.07297465 0.18745857 -0.24206384 -0.104748756 -0.44298202 0.12141338 -0.030508721 0.021478355 0.08509969 0.13363287 -0.23885058 0.00050279486 0.47965533 0.27055585 -0.26539296 0.14943287 0.15380527 -0.44520015 0.50496656 -0.34202504 -0.24309026 0.24938919 -0.06915502 0.24151441 -0.2969564 0.2998197 0.053792905 -0.16535816 -0.13967551 -0.10117099
友 0.108697705 0.20139898 -0.019433446 -0.17425811 -0.051336627 -0.3043719 -0.46524453 -0.15496922 -0.05744857 0.081767745 -0.067931496 -0.04069492 -0.35544312 -0.16232005 -0.018855639 0.15415882 0.23266591 -0.0854399 0.16834126 0.06299412 -0.113059595 -0.0065609096 -0.031431254 -0.034749836 -0.0021072882 0.040312868 -0.21865386 -0.1365773 -0.13306105 0.23852475 -0.15139563 -0.17793275 0.16329013 -0.07068094 0.11316366 0.14943418 0.15104827 -0.30708292 0.31054813 -0.20059691 -0.22720788 0.3663906 -0.16051772 0.13985671 -0.19901302 0.2717127 0.0845487 -0.0043872264 0.06356969 0.15974107
成 -0.060944445 0.30519047 0.024406794 -0.22185738 0.1961558 -0.23073702 -0.011101587 -0.042348564 0.12308971 -0.08455371 0.09015995 -0.11096845 -0.018493935 0.04480984 -0.11110574 0.19321436 0.08098685 0.04998453 0.08870958 -0.28526208 -0.18121122 -0.06502629 0.057213802 -0.157891 -0.43040022 0.0646037 -0.23786862 0.12431809 -0.1463256 0.082170494 -0.057731736 -0.2960248 0.06005182 0.001456195 0.06552413 0.33624047 0.2109546 -0.31930286 0.13285656 -0.021611743 -0.21857356 0.35836488 0.16163512 -0.104311794 -0.14940563 0.3250539 0.18919133 0.17670721 0.10770583 -0.021164015
远 -0.17535311 0.2119139 0.2792051 -0.032477833 -0.038801365 -0.2497974 0.5408972 0.19440615 0.0735293 -0.0880546 0.092613965 -0.018235201 0.262613 -0.019342264 -0.21814635 -0.015163742 -0.012085216 -0.13592146 0.29778185 -0.2243689 -0.28112727 -0.035786126 0.011602489 -0.22853464 -0.502495 0.1789388 -0.03811711 0.105493575 0.1255687 0.20220605 0.11462605 -0.25723532 0.18601826 0.06568883 0.013458464 -0.010055745 0.28239882 -0.3281961 0.12603278 -0.015369866 -0.10216804 0.01772683 -0.27833876 0.10632731 -0.22037329 -0.0170728 -0.08057103 0.077910915 -0.039584752 -0.5744731
上 -0.18435346 0.28739175 0.30955315 -0.076613545 -0.08764023 -0.26641616 -0.26806787 -0.11624193 0.14103669 -0.09860861 -0.18273352 -0.08869144 -0.024823384 0.2394878 -0.050363947 0.08010986 -0.1360354 -0.039254498 -0.090808935 -0.22542918 -0.06615716 0.0011216206 0.016058246 -0.012121629 -0.38659048 0.10170597 -0.33374003 0.08500886 -0.17438014 0.33136293 0.064552404 -0.24479459 0.09784352 -0.06918837 -0.12538306 -0.0822091 0.26560134 -0.1076389 0.25496998 -0.08353997 0.038002543 0.26029563 0.047651686 0.061076865 -0.23304933 0.17349431 0.09896488 -0.09838241 0.122275166 -0.045021024
立 -0.4303623 0.08523693 0.3256131 -0.23532048 0.035950154 -0.45867586 -0.7085231 0.32083368 0.16795126 -0.10877988 -0.11581567 -0.06394756 -0.2308418 0.2737076 0.031512156 0.18579686 0.17355748 0.09528006 -0.09927496 -0.38970667 -0.23705193 -0.17062213 -0.07586453 -0.30028832 -0.06667376 0.3003086 -0.34629866 0.17898965 0.26173282 0.4015303 -0.15621687 -0.40182596 0.5236129 0.008568522 0.3313125 0.17378005 -0.19357532 -0.28213075 0.21520156 -0.030358616 0.043371316 0.31248248 -0.5179962 0.136768 -0.31388438 0.24395446 -0.030143559 -0.054430395 0.22652633 -0.50045365
今 -0.021380473 0.04469256 0.27567902 -0.2590104 0.026543414 -0.084100515 -0.27603048 -0.015858203 0.00079044513 0.056086592 0.10579564 -0.20176 -0.009735739 0.16761577 -0.078148864 0.091182575 0.27082795 -0.09849096 0.028951721 -0.23915218 -0.07788971 0.21111365 0.12682398 -0.26199982 -0.26524228 0.07361281 -0.036192678 0.12639198 0.3180753 0.061426386 -0.12949383 -0.24516332 0.15200122 -0.18033443 0.14775726 0.27353454 0.19791563 -0.06977482 0.021022841 0.14797229 0.0021058358 0.057777047 -0.061124623 -0.17742102 -0.34905216 0.3118086 0.113586776 0.09172699 0.37601393 -0.28400508
张 -0.28211772 -0.005256341 0.3358913 -0.30134937 -0.33832645 -0.07396556 -0.4032261 0.17963047 0.19801715 0.08423234 -0.11265724 0.15627739 -0.03235279 0.092109166 -0.2587278 0.08927412 0.1434793 0.12062226 0.23332445 -0.3382038 -0.15372685 0.021156423 0.066691056 -0.13497685 -0.18735445 -0.24561967 -0.30755672 0.15679419 0.27053672 0.06634967 -0.028005924 -0.021135164 0.09054179 -0.05792789 0.094118915 0.09531893 -0.014306735 -0.16592966 0.14721498 0.12872514 0.04006152 -0.0131778205 -0.20923236 0.15805988 -0.2178371 0.12945738 0.21962759 0.023417093 0.25462553 0.24786304
中 0.029393965 0.28221098 0.4697812 -0.30455977 -0.22838622 -0.24855879 -0.38333628 0.2544941 0.122635424 0.2638198 -0.24870172 0.06714576 0.097955085 0.085462086 -0.16092685 0.115222014 -0.036861666 0.08907938 0.12601614 -0.23230554 -0.33408496 0.023000348 -0.0731803 -0.27626956 -0.046677466 0.116875775 -0.48315006 0.39202797 0.17339937 0.1429246 -0.118701056 -0.7483046 0.010302227 0.15115315 -0.0008186088 0.3101692 0.4538867 -0.27728418 -0.17589933 0.16677453 0.32421637 0.37569618 0.31210893 -0.031049334 -0.4710631 0.17443457 0.03619051 0.059303805 0.1193757 0.045267537
季 -0.023571536 0.1456546 0.33427373 -0.39755595 0.0066676727 -0.34353766 -0.584276 0.25995538 -0.05732326 0.06671581 -0.2712544 0.024333829 -0.07474116 -0.023837937 -0.07318708 0.13965042 -0.09696775 -0.3104236 -0.121123515 -0.17911536 -0.22055298 -0.15402257 0.14612772 -0.02264231 -0.07229901 0.1966931 -0.18602365 0.14305964 0.047503576 -0.019355573 -0.29995552 0.059965774 -0.18803053 -0.06890322 -0.14654101 0.18314882 0.22413796 -0.009232435 -0.052657556 0.22762075 0.20288669 0.20866016 -0.22082837 0.05373385 -0.2826179 0.096551195 -0.021970466 0.17200486 0.026193587 -0.51226133
臣 -0.1718364 0.052658726 0.28007972 -0.021885557 0.16576017 -0.09582422 -0.5101211 0.22496213 0.015531251 0.039505385 -0.28556022 -0.03947003 0.025203064 -0.04786266 0.0018645687 0.07165632 -0.07368629 0.041865084 -0.14244361 -0.24040404 -0.16161172 -0.061470084 -0.19015858 -0.24900402 0.12889974 -0.21291173 -0.35076135 -0.034355853 0.11512119 0.25124902 -0.19932838 0.09919549 0.065591164 -0.11597671 0.16075586 0.25210005 -0.025225032 -0.10399616 -0.0173591 0.17730922 0.16254997 0.24835019 -0.07792688 -0.026980536 -0.25044274 0.44663706 0.08950968 -0.1314293 0.2700573 0.0096336035
贤 -0.28732812 0.00874676 0.1666699 -0.24417306 -0.064683855 -0.0037148576 -0.5207783 0.15561959 0.072029136 0.085267775 -0.24705276 0.1818127 -0.11734984 -0.117573224 -0.16342114 -0.016220713 0.00926939 -0.030764753 0.0960679 -0.27713344 -0.008458292 -0.16102533 0.05430231 -0.116251454 0.1609397 0.022438593 -0.3067685 0.14870538 0.09772319 0.1619325 -0.19556277 0.08607906 0.253373 -0.12342182 0.28669852 0.24230623 0.13363369 -0.19309366 0.24216026 0.06120506 0.1429727 0.0065872506 -0.059743214 -0.011310723 -0.1951182 0.21615015 -0.021250177 -0.10746442 0.05260906 -0.30307525
思 -0.2044515 -0.119113825 0.22269768 -0.22829404 -0.2516694 -0.17920713 0.040678047 0.2822368 -0.08311117 0.04416566 -0.034363657 0.3447701 0.027826548 0.05215178 -0.09399464 0.17161393 -0.00067432877 0.041997667 0.052978694 -0.21443039 -0.16467345 -0.13914298 -0.08336167 -0.29420286 0.007984129 0.07791828 -0.2352965 0.1027023 -0.003247084 -0.0007014219 -0.13435797 -0.22004382 0.16433941 0.02572295 0.13262811 0.13727269 0.19592002 -0.2552128 0.3253703 0.056324247 0.14743115 0.25627276 -0.11461595 0.07489645 -0.39947632 0.114645764 -0.07903229 -0.025800554 -0.036494594 -0.51379776
齐 -0.73001605 0.23695783 0.20383015 -0.49169305 -0.28243154 -0.34340328 0.024330411 0.5085607 -0.07907949 0.044626947 -0.09699342 0.26220366 -0.21999244 -0.15725541 0.02125294 0.20977627 -0.35010087 0.10988472 0.41819596 -0.43929732 0.17150801 -0.11060722 -0.3134633 -0.25235268 0.14423089 -0.045012526 -0.43141767 0.33190224 0.26377785 0.18371592 -0.40076485 0.1037161 0.5300465 0.27677175 0.033926822 0.24110034 -0.11692888 0.17714871 0.02985632 -0.10219775 -0.19067207 0.25582522 0.24692893 0.23130643 -0.13495201 0.36481777 -0.21729568 0.22665729 0.043304462 -0.07470388
义 -0.10844382 0.098114416 0.16148174 -0.15724298 -0.24542648 -0.13562845 -0.007607434 0.22662568 -0.117367014 0.14140068 -0.16677341 -0.032530297 0.015824052 -0.035677187 0.05638254 0.22728816 -0.19149944 -0.15730736 0.058016963 -0.29307875 0.04698971 -0.07345512 -0.22479528 -0.07046776 0.033728685 0.03866314 -0.28117767 -0.039481107 0.18932247 -0.03214158 0.01888766 0.09718393 0.0008835392 0.060323276 0.30406386 0.19996388 -0.12727813 -0.2659616 0.17830613 0.056114864 -0.08876759 0.18023331 -0.24413101 0.1469163 -0.08925584 0.39323917 -0.3159155 -0.15875284 0.22928342 -0.3447495
正 -0.23198602 0.066709906 0.091536626 -0.24762562 0.04019973 -0.24573244 0.06345029 0.15673167 -0.06664742 0.08265987 -0.13679472 0.28183606 0.2899918 -0.0041782814 0.04809618 -0.10023404 -0.20283331 0.02374015 0.04895064 -0.26397964 -0.018824084 -0.17007801 -0.18403341 0.08667544 0.16864055 0.24392654 -0.26089963 0.2989077 -0.06092935 0.10167405 -0.08201268 0.4113568 -0.06008074 0.25563112 0.2796078 0.30787653 -0.23523577 -0.076069474 0.14199427 -0.13536529 -0.045922957 0.0976366 -0.27519208 -0.14359897 0.007935116 0.113946274 -0.2694377 -0.26098502 0.10233827 -0.5509979
命 -0.53868246 0.074033014 0.021020861 -0.34430265 -0.46254295 -0.33523247 -0.17340411 0.29202175 -0.013433721 0.2682562 -0.23821698 0.46377927 0.19985107 -0.016880406 -0.04506731 -0.42707652 -0.13134326 0.12619823 -0.39798746 -0.26918808 0.20994908 0.1281117 -0.45942843 0.049318153 0.12648259 0.35003343 -0.32600722 -0.27279177 0.20035507 0.003376806 -0.11138075 0.2898163 -0.14523946 0.3113739 0.21120995 0.31967852 -0.092804246 -0.44985703 -0.016914157 -0.16319932 0.5631575 0.16895843 -0.4877006 0.003281243 -0.13115898 -0.039059795 -0.3815253 -0.40674984 0.27084082 -0.89961874
曾 -0.3327244 0.24594928 0.032001566 -0.05876746 0.07223575 -0.36100823 0.26001304 0.18448412 -0.07927364 0.14810859 -0.047080085 0.20866846 0.23696844 0.10014589 -0.05502129 -0.0039484072 -0.05480106 0.036530193 -0.090178214 -0.20360434 0.0011749645 0.21977247 -0.49719134 0.082708284 -0.0063511482 0.29681832 -0.3021938 -0.033863053 0.108285695 0.13100232 -0.039259087 0.077391736 0.015430896 -0.029341824 0.07882771 0.06913372 -0.36187416 0.13822293 0.1619111 0.04241971 -0.19603528 0.06975892 0.00013689231 -0.091385484 0.044184282 -0.18950799 -0.15193325 -0.121282585 0.076373234 -0.55682486
伯 -0.028546799 -0.014678976 -0.0050702584 0.02811652 0.22889362 -0.08919653 0.5721218 0.21101929 -0.010512846 0.22737147 -0.015103456 0.0031406141 -0.08913556 0.20088965 -0.21193317 -0.11245003 -0.1671592 -0.04061484 0.11328026 -0.2025185 -0.13980845 -0.060499944 -0.35193288 -0.016455168 0.19737859 0.14196324 -0.07770086 -0.20550352 0.082018726 0.20398219 0.053938378 -0.06159387 0.11450416 -0.033219874 0.22545758 0.21469769 -0.27392086 -0.07821422 0.01783372 -0.05683445 -0.12520799 -0.06706637 -0.049714662 0.07335912 0.15288518 0.035913695 -0.20520379 -0.18974109 0.13072897 -0.4439045
门 -0.31405032 0.091978475 0.084509715 -0.14101894 0.14495555 -0.22677307 -0.22438397 0.15879966 0.19074808 0.101518124 -0.10355855 0.09927515 0.19813986 0.0712525 -0.32955143 -0.1700163 -0.35995936 0.1652806 -0.058275826 -0.13306099 -0.0012843992 0.02067523 -0.34667888 0.02926244 0.3267804 0.12603076 -0.07520237 0.2673161 -0.045333434 0.14826834 0.025558317 -0.0023567225 -0.025726724 0.20837617 0.16565971 0.09672428 0.04641525 -0.16573262 0.06853911 -0.28549916 0.12954354 -0.050857846 -0.2766776 0.23675087 0.031846672 -0.06135605 0.02369014 0.0053925407 0.29611894 -0.5127006
敢 -0.048311453 0.0025771523 0.23688099 -0.2527074 0.24737522 -0.1453367 0.20446633 0.20820695 -0.19001356 0.13479865 -0.06962992 0.29222262 0.11548212 -0.117807224 -0.21885622 -0.018098596 -0.1971615 0.072083816 0.11561764 -0.025613772 0.02640264 -0.21102658 0.015572522 0.049885385 -0.12412241 0.009917767 -0.118443854 -0.021503508 0.20319586 -0.03150765 -0.056595184 -0.14638056 0.005374899 0.013363979 0.1054141 0.20886488 0.18690033 -0.40024614 0.18702878 -0.16192134 0.04014383 -0.006159011 -0.15528451 0.07769199 -0.24013935 -0.021805659 -0.1666179 -0.006707526 0.35963187 -0.31082886
犹 -0.64399743 0.10904899 0.12908408 -0.26160112 0.21915437 -0.49460465 -0.16725457 0.11823682 0.077389136 0.39168516 -0.15991801 0.35015434 0.12954046 -0.08029949 -0.4452966 -0.4662467 -0.1652202 0.31729522 -0.19921044 -0.3788124 0.5005735 -0.14472382 -0.16796441 0.24977398 0.26934096 0.2708428 0.17289361 0.3969157 0.44524866 0.15618269 -0.18897918 0.008399661 -0.011070052 0.21156721 0.3166617 0.24669062 -0.106916845 -0.24683842 0.102707975 -0.35660207 0.09901589 0.16070727 -0.48503765 0.27214593 -0.16017205 0.18767558 -0.2823425 -0.13039382 0.38426182 0.247579
生 -0.17804241 0.11033423 0.2365919 0.11624053 0.36421022 -0.064621225 0.14660227 -0.3152934 0.030436002 0.17337446 -0.20451838 0.40662783 -0.05371089 0.16789445 -0.42978507 -0.14033806 -0.14439484 0.18811736 -0.1463471 0.29247597 0.029191209 -0.17471054 -0.16895442 0.124061435 0.101221874 0.008032892 -0.030132443 -0.004178576 0.17796224 0.26607174 0.14521953 0.092338964 -0.08344781 0.06961126 0.035167266 0.040369425 0.1575491 -0.06494657 0.13201797 0.011496883 -0.10093522 -0.13957301 -0.20739867 0.15885589 -0.16734695 -0.15694584 -0.15735438 0.012371951 0.17049277 -0.15026297
日 -0.19490647 0.2188927 0.26472962 -0.26135498 0.09429064 -0.08529003 -0.51444864 -0.19184735 0.25613615 0.065447934 -0.017702729 -0.11211349 0.27364835 0.3600992 -0.47731996 -0.09296632 -0.42500928 0.11906301 -0.31464627 -0.08544154 0.0665688 -0.069304734 -0.24509372 0.10828476 0.18976477 0.017936027 0.15041015 0.33551133 0.09086545 0.4003266 0.07162931 -0.13450477 0.0016651466 0.15523487 0.0891168 -0.054613605 -0.32620597 -0.17256081 0.15148681 0.19182763 0.048599873 -0.059511036 0.051929817 0.012921414 -0.062408168 0.1504808 0.04397412 0.04910692 0.21132638 0.11554674
敬 -0.4595346 0.085865855 0.33000907 -0.27216733 0.18851286 -0.2635705 -0.87343657 -0.23711966 0.42662856 0.15845655 -0.15842567 0.56464446 -0.10645515 0.4924087 -0.4316161 -0.13232183 -0.5175297 0.3221551 -0.316943 -0.07083466 -0.39546835 0.1055127 0.007847335 -0.16812891 0.2979396 0.4585358 0.13921084 0.22461161 0.13112678 0.37173694 -0.25679746 -0.0030017106 -0.24359035 0.08249367 0.28616244 0.23569523 -0.16842276 -0.19194072 0.10390564 -0.48631483 -0.051349908 0.041900374 -0.120481655 0.10559694 -0.37852606 0.11760323 0.17457172 -0.4736252 0.3624814 -1.0377975
难 -0.17096233 -0.04719192 0.1645506 -0.19309191 0.13291329 -0.19841453 -0.58059096 0.017963592 -0.057833634 -0.04617132 -0.008764975 0.056104157 0.10524107 0.37896702 -0.30134934 -0.16678831 -0.2852494 0.17536409 -0.2683966 0.05721157 0.110830344 -0.14603092 0.037085515 -0.04651215 -0.11688837 0.063590184 0.10458578 0.18669438 0.20160253 0.09354443 -0.1589915 -0.17272869 0.14858195 -0.06945123 0.20261267 0.21986678 -0.18301925 -0.091740504 0.15419266 -0.3515885 -0.17729722 0.03438925 -0.087041974 0.06278389 -0.27058783 -0.10366366 0.018896412 -0.05783001 0.25943452 0.041914146
直 -0.11549705 0.040553898 0.2323638 0.07407674 -0.027441006 -0.3544572 -0.6209895 -0.10531841 -0.07571212 -0.03328371 -0.06510011 0.14755395 -0.12482709 0.2654231 -0.22117548 -0.12796372 -0.3242219 0.3027752 -0.22558352 -0.04875596 -0.0047032586 0.020764565 0.12992537 0.17913459 -0.035212047 0.057085976 0.018904109 0.23388939 0.183667 0.1488168 0.14389345 -0.2006391 0.14387344 0.11860672 0.011704922 -0.03344634 -0.19137037 -0.08663048 0.274259 -0.2725441 -0.1184464 -0.103867665 -0.2110681 0.2163785 -0.17983365 0.100811005 -0.106158644 0.15184471 0.08899657 0.12367216
丧 0.0017340383 0.25755185 0.23868789 -0.13344711 0.156242 -0.3967896 -0.37726638 -0.03100421 -0.15300965 -0.018906733 -0.0536862 0.116009586 0.01715482 0.2225834 -0.19010542 0.08156267 -0.20798638 0.06417532 -0.5322367 0.30121037 -0.17782763 -0.095763385 0.14379758 -0.11372071 -0.027406821 -0.055882365 0.06859373 0.18777645 0.027022265 -0.06572484 0.1690169 -0.18354292 -0.20074253 -0.14279407 0.08751066 0.06986362 -0.1539394 0.19385213 0.029042667 -0.32748616 -0.21064131 0.056138754 0.114311926 -0.14487284 -0.16313884 0.34737822 -0.019775877 0.2553671 0.10799351 -0.5719557
说 -0.33953005 0.28646013 0.054247003 -0.24646819 0.3205456 -0.27883855 -0.41332057 0.04932133 0.07386131 -0.096432 0.09439841 0.098935165 0.09167843 0.17149808 -0.2973447 0.1287029 -0.18414342 0.24618316 -0.2090451 0.26982725 -0.1904524 0.14848635 0.20844804 -0.11073167 0.1693497 0.13244395 0.113627635 0.18449055 0.05720222 0.075441785 0.028055502 -0.122653335 -0.016223222 -0.22389022 0.36569625 0.18226482 0.15647538 -0.09995114 0.21691017 -0.23158929 0.17540723 -0.1296632 -0.01039464 0.11086942 -0.25230914 -0.12311314 0.16088542 -0.085258566 0.19404738 -0.114747904
自 -0.77361226 0.44243878 0.42135805 -0.2508699 0.10689044 -0.39487714 -0.818124 -0.11921312 -0.067754194 0.07063349 -0.08698924 0.14782506 0.1547209 0.5115003 -0.22953524 0.0065677436 -0.09022094 0.24214847 -0.2547355 0.15684669 -0.321108 0.22751641 0.30395612 -0.45404905 -0.26087838 0.39214128 -0.16412653 0.41624835 0.045067254 0.26456642 -0.22207223 -0.038176388 -0.14312764 -0.31885955 0.1708395 0.13078268 0.20779751 0.09986195 -0.069348894 -0.104860365 -0.20829904 0.22109273 -0.31051585 0.0586629 -0.30697575 0.3017755 0.23255603 -0.28506076 0.29482055 0.1677256
用 -0.29129553 0.289323 0.069557965 -0.23405002 0.008846505 -0.3498374 -0.5723026 -0.10241768 0.003430701 -0.069746345 0.16742206 0.11329927 -0.019965125 0.30210048 -0.19855581 0.06331959 0.0007752329 0.18768033 -0.11227313 -0.09775708 -0.10514943 0.06936401 0.12490286 -0.31419975 -0.054896943 -0.07365389 -0.09014999 0.16936077 0.13579597 0.06708388 -0.009395211 -0.054367438 0.18770604 -0.12076614 0.18211733 0.19561917 0.27127865 0.13286394 0.25959164 -0.38431722 -0.25300473 0.065678835 -0.12561095 0.0659171 -0.17088993 0.22513592 0.14132276 -0.09512635 0.1842725 0.4276378
周 -0.2192333 0.007639969 0.36975434 -0.3246265 -0.109069 -0.30805936 -0.60827255 0.14581633 -0.080560885 -0.00096158916 -0.013305031 -0.026911147 0.22432534 0.08347441 -0.08739444 0.14820673 -0.008383879 0.12932266 -0.3648715 -0.12310756 -0.24526908 0.10499085 0.041276164 -0.09957978 -0.14187418 -0.0012127999 0.2420294 0.35084468 -0.08880594 0.007720599 -0.3338059 -0.1583906 -0.062706314 -0.22645566 0.1828153 -0.124427915 -0.19608594 -0.036915384 0.015549254 -0.3165506 -0.13959149 -0.2193169 0.035222117 0.122308 -0.0068773986 0.09768851 -0.02228958 -0.13256721 0.124904916 -0.007382053
颜 0.26089713 0.2602819 0.53028643 -0.6687958 0.12463565 -0.5918604 -0.25701126 0.111489 -0.3508331 0.01809836 -0.13486455 -0.19581024 0.20460045 0.14755735 -0.30461812 0.22995038 0.25582656 0.38354495 -0.13648145 -0.044563178 -0.17590046 0.38682425 0.086879075 -0.10873015 0.010175115 -0.18536071 0.2878374 -0.38657168 0.21263993 0.078733616 -0.48338795 -0.5400107 0.21581736 0.35184062 0.30563286 -0.066435575 -0.261673 -0.12604871 -0.47724465 -0.40683776 -0.19739343 -0.09333959 0.5688627 -0.20548995 -0.33272833 0.05890949 0.046039503 -0.3752959 -0.15483291 -0.2117849
年 -0.1959002 0.015666155 0.37593976 -0.42693567 0.19030523 -0.31491882 -0.4720942 0.09845834 -0.19279046 -0.09513979 0.071210384 0.14349534 0.19528566 0.20227215 -0.22848284 0.14446135 0.15188788 0.08906433 0.17955089 -0.050214507 0.024186596 0.2235547 -0.21408187 -0.048117626 0.0063311066 0.24016166 0.15211377 0.20766753 0.13204053 0.08263689 -0.3106259 0.10278817 0.017829701 -0.021238089 0.1363094 0.20007662 0.038919773 -0.009723344 0.009056482 0.14563745 -0.16837442 0.2566559 0.05191715 0.04648698 -0.19157153 0.19800614 0.027979707 -0.17540482 0.094290726 0.1848184
告 -0.18877545 0.047250804 0.30753338 -0.26409584 0.13859722 -0.4063833 -0.5191322 0.3384423 -0.2737186 -0.0018930198 0.18579325 0.23608933 -0.051984046 0.07300907 -0.24104291 0.18511537 -0.10020532 0.11618689 0.19499134 0.060744517 0.00745071 -0.24541253 0.076192155 -0.27062756 0.051836662 0.037621275 0.0014000628 0.24091804 -0.060097918 0.25599894 -0.23410362 -0.01464054 0.19063309 0.11422691 0.11816218 0.13118125 0.018925475 0.021800656 -0.24782161 -0.18466265 -0.45672065 0.10851516 0.062499106 0.013000512 0.02672239 0.16272321 -0.0043625697 -0.1378712 0.06039092 0.29424304
十 -0.180222 0.03758414 0.4389513 -0.23377484 0.005228013 -0.41954783 -0.499333 0.21985833 -0.04907859 0.17628123 0.19601236 0.07713302 0.008047772 0.17570685 -0.2548614 0.09988545 0.1253428 -0.04351193 0.09947316 -0.3129087 -0.0040785107 -0.22694254 -0.27455035 -0.02420986 0.24937956 -0.15523341 -0.06552602 0.10831439 0.093150996 0.1214673 -0.38667774 -0.23301245 0.13245237 0.098448694 -0.011594384 0.2700743 0.08041447 -0.060980044 -0.091006845 0.12983333 -0.37846956 0.24426392 0.14594233 -0.071994536 0.09768766 0.20870103 -0.16249485 0.04153224 0.15257978 -0.17433488
怨 0.0063210716 0.060509555 0.43379548 -0.034253843 0.10221265 -0.43664443 -0.24864809 0.11448616 -0.20161995 0.034843177 0.029975433 0.004489296 -0.1178391 0.14361095 -0.3563267 0.101909675 -0.023247432 0.1437457 0.15327244 -0.19879662 0.033747073 -0.250324 0.08333834 -0.07323169 -0.15798956 -0.14841245 0.100695424 -0.05174802 -0.16904156 0.005598667 -0.45794776 -0.14858712 0.2066389 0.2311117 0.34520206 0.14692663 0.23290673 -0.041201912 -0.048347116 -0.31953388 -0.37704638 -0.13205552 0.02846352 -0.068759196 0.006818045 0.3501345 -0.06657857 -0.105872504 0.0038596215 -0.0921068
达 -0.23196314 -0.025116822 0.6999358 -0.55241436 0.11240506 -0.41485432 -0.8685801 0.30217993 -0.07281038 -0.18936023 -0.031663593 0.34042212 0.10334205 0.2718666 -0.17393705 -0.024049856 0.18332721 0.3423763 0.6048387 -0.3508464 0.26328206 -0.10417611 -0.0890207 -0.07437643 -0.17968385 0.033783793 0.07959417 -0.19977681 -0.10453034 0.2016251 -0.6617609 0.25832483 0.31364805 0.48848924 0.15235376 0.25307164 0.42371422 0.18028434 0.2536728 -0.2222917 -0.66152835 0.31573832 0.31533378 -0.17771031 -0.19815227 0.16755265 -0.27507937 0.11323555 -0.09043367 -0.17375784
孝 0.044307567 -0.0023754966 0.12057518 -0.17376937 0.19426148 -0.17703743 -0.51320964 0.286242 -0.10908221 -0.045324784 -0.053063165 0.08357749 -0.35915446 0.22262473 -0.26593405 0.0807386 -0.09349909 -0.032115586 0.07836034 -0.18701774 0.051149484 -0.15182935 -0.2987174 0.06760534 0.0624695 0.066411495 0.1467126 0.055953708 -0.24560703 0.14430915 -0.48864222 0.1995006 0.07559177 0.26102325 0.2404319 0.08662896 -0.07469136 0.13684855 -0.11563383 -0.19306241 -0.54179126 0.10759042 0.3123016 0.0026386846 -0.03534078 -0.06512834 -0.08100006 0.03791239 0.13431509 -0.30307335
弟 0.23233911 -0.09212181 0.31001225 -0.13923965 -0.11709328 -0.22378057 -0.37197217 0.27550644 -0.18943164 -0.070342794 0.05376634 -0.024282452 -0.28252596 0.09333185 -0.3182237 -0.11611196 -0.059612725 0.14560784 0.008541816 0.0108223 -0.0035980076 -0.24724275 -0.07463621 -0.22774883 -0.19012143 -0.06328506 -0.13429175 0.09954515 -0.112076275 0.23206043 -0.30908313 0.02743297 0.26564658 -0.22647409 0.00050407276 -0.18138511 0.26104397 -0.10989503 0.14138769 -0.14755838 -0.43143797 0.30057353 0.25317323 -0.16221124 0.04912365 0.25632513 -0.085228905 0.16665137 0.2122988 -0.43544108
至 0.14058138 0.04070045 0.47459683 -0.037597325 0.021198366 -0.35574764 0.75525427 0.09291755 0.11309177 0.26234224 -0.20080447 -0.011633044 -0.41022906 0.30416057 -0.49651018 -0.18150339 -0.06045364 -0.10024594 -0.1253025 -0.067861915 -0.060168013 -0.246977 -0.042609386 -0.2767735 -0.10319104 0.037619326 -0.38118595 0.3166681 -0.27197096 0.2870187 -0.3285399 -0.3213396 -0.26671138 0.6188517 0.6005053 0.08975457 0.29009786 -0.11721494 0.19460514 -0.29870188 -0.6736701 0.27301705 0.22575656 0.13327841 0.16544174 0.24670208 -0.094508864 0.23276334 0.36705637 -0.35607857
先 0.1219081 -0.08382344 0.31775868 0.030539425 0.09866206 -0.37332466 -0.15181136 -0.0074028205 0.020259382 -0.018644445 -0.26497358 -0.033515573 0.020194732 0.32713908 -0.3589982 0.15787998 0.013892713 0.015873529 0.02497322 0.09665923 0.009139864 -0.23402894 0.2170674 -0.38543534 -0.42119676 -0.06667529 -0.22650519 -0.038588967 -0.17495705 0.19272919 0.02905608 -0.06963719 0.1601832 -0.14527534 0.32825148 0.1435883 0.33064207 0.14801492 -0.0063441447 -0.19007628 -0.1711213 0.42370617 0.16034219 -0.13176218 0.1070459 -0.10246875 -0.2932644 -0.040259063 0.2784378 -0.3379197
师 0.23318547 0.065458216 0.24486683 -0.17117138 0.1961244 -0.22800665 0.12982948 0.24079806 0.050485693 0.11948337 -0.2017027 -0.05730786 -0.068054385 0.3209677 -0.1956512 -0.18559045 -0.27222478 -0.09175362 -0.0027150232 -0.09216085 -0.074716285 -0.1613392 -0.008105837 -0.1427247 -0.21328081 0.1526875 -0.07516777 0.031589508 -0.12442509 0.046153873 -0.25170916 -0.27499905 -0.08065193 -0.17369482 0.37633535 0.09557467 0.0104234805 -0.02362644 0.08203843 -0.21435922 -0.06973247 0.22933199 0.073192365 0.12435296 0.09338784 -0.07246765 0.028375376 0.098121636 0.077096395 -0.33485267
女 0.25875145 -0.06893104 0.25957674 0.04119491 0.15184645 -0.17076764 0.12246982 -0.048950948 0.1642336 0.12076587 -0.24636553 -0.1453548 0.020768903 0.18398812 -0.11581336 0.21495032 -0.28188565 0.26718646 0.1809504 0.024984347 -0.111668 -0.20451462 -0.20806101 -0.17692672 -0.4967935 0.0056076804 -0.21631444 0.02344531 -0.123678446 -0.06476305 -0.19934449 -0.29506811 -0.058204867 -0.20370233 0.17551056 0.12441932 -0.062006883 0.023008032 0.049543247 0.03874868 -0.028547151 0.14434351 0.05591792 0.306539 0.0510449 -0.13193394 -0.11028469 0.036438264 0.010410906 -0.28244737
多 0.32993782 -0.08695984 0.22120443 0.060225844 0.21998289 -0.07769774 0.06426588 -0.078727774 0.13850285 0.2898643 -0.28560758 0.28123343 -0.0030518027 0.033074837 -0.2843919 0.081655145 -0.38826168 0.14277159 -0.033156853 0.041794855 -0.17743196 -0.16495065 -0.14425921 -0.17975453 -0.11034911 0.1603904 -0.15705696 0.0109016625 -0.1963533 0.16469973 -0.13181344 -0.21824966 0.045140523 0.2488853 0.38111016 0.06745084 0.0054041184 0.09734719 0.3547042 -0.23893492 -0.1461134 0.13562843 -0.05348529 0.36244625 0.14760214 0.02289506 -0.054859992 0.097621635 0.031724315 0.03362194
忠 0.57042927 -0.05184793 0.3578219 -0.28507632 0.30883738 -0.39386395 0.5008848 -0.5135299 -0.2791885 0.241005 -0.39609197 0.23559254 0.23782456 0.20036685 -0.28994069 0.2407929 -0.16780259 0.23278499 -0.30307224 -0.0754483 -0.3796658 0.14788064 -0.10451789 -0.2648839 -0.542383 0.2797817 -0.057434294 0.26856276 -0.23618557 0.11641861 0.038241554 -0.5977603 0.33811662 -0.0033383989 0.45056802 0.21887535 0.064318374 0.16648555 0.45421663 -0.1437555 -0.2489495 0.5231501 0.048581988 0.32399082 -0.12347281 0.07209888 -0.4566957 -0.23470011 0.22317043 -0.026572116
四 0.51699966 -3.332016e-05 0.16802685 -0.18534987 0.2580272 -0.17471522 0.03185039 -0.07810286 0.15432331 0.08045576 -0.10140423 0.1850472 0.14929168 0.037874654 -0.19722629 0.22884567 -0.32042783 0.2136994 -0.01148913 -0.027159339 -0.14507641 -0.010676807 -0.083744906 0.0140661085 -0.21117459 -0.02815104 -0.096728794 0.16231032 -0.201627 0.11125062 0.04720132 -0.27317545 -0.092996106 0.105355114 0.087666295 0.16060174 0.2733616 -0.12672347 0.27218324 0.24627268 0.021695409 0.19166845 -0.10308471 0.3949953 -0.0005670171 0.09415013 -0.19059762 0.046958312 0.013017042 -0.5701406
疾 0.41131628 -0.14434987 0.16906314 -0.08445895 0.1341555 -0.31827164 -0.13111386 -0.03149524 0.02968664 0.2398433 -0.18568811 -0.23054914 0.15118134 -0.12215224 -0.14109522 0.21703403 -0.34746873 0.3032372 -0.19948362 -0.33976933 -0.31895372 0.14510696 -0.23924589 0.001304647 -0.11449982 0.053641085 0.08087587 0.08011397 -0.17280968 0.052726604 0.104692146 -0.46239963 -0.24142511 -0.27656272 0.16265956 0.31250152 0.17546827 -0.09133507 0.030615397 0.07729566 0.36651808 0.050993126 0.07141129 0.44010678 -0.06854158 0.19229512 0.18413292 0.042186208 -0.13773534 -0.23438135
服 0.6883445 0.11987811 0.22353819 0.07971032 0.3193204 -0.34323034 -0.10251395 0.17947313 0.153493 0.3340824 -0.1910575 0.16957746 0.023696378 0.25112125 -0.054109775 0.60810405 -0.72889256 0.31331974 -0.15233396 -0.36852807 -0.26978126 0.50160354 -0.28269777 -0.52715456 0.15411174 0.18870065 -0.23776129 -0.17960817 -0.37130156 0.38368618 0.27656835 -0.80771905 0.4370931 0.3230403 0.21993646 0.42032447 -0.38158414 -0.04502674 0.35542232 0.09768595 -0.26879913 0.08019248 0.31554112 0.61769414 -0.14796361 0.004459756 -0.0021568583 -0.26969457 -0.3298842 -0.5748581
氏 0.2917178 -0.05692444 0.26243827 0.1700351 -0.07523215 -0.3307358 -0.07218966 -0.12070045 0.051650643 0.08135924 -0.06452103 0.29009977 0.22765444 0.19802934 -0.16370052 0.14619438 -0.29408494 0.27577284 -0.21131136 0.048097674 -0.14592443 0.380769 -0.17718923 0.0208686 0.12795174 -0.09854852 0.12757576 0.19601193 -0.049321156 0.11763841 -0.084595814 -0.21062669 0.087172754 0.13381568 0.08556987 0.25138068 -0.26589972 -0.02683602 0.25712898 0.17332383 -0.45944887 -0.08561909 -0.14647245 0.27859652 -0.2088691 0.20704074 -0.090544656 0.018047446 -0.15803762 -0.41507
冉 0.16891865 0.04406287 0.21179649 -0.26120007 0.17416245 -0.22923961 0.11292987 0.048925333 0.08017618 -0.0039098626 0.22682096 0.26841733 0.08362286 0.16309126 -0.25070316 0.03348646 -0.27242792 0.22435209 -0.09729327 -0.23881102 0.060071718 0.43150675 -0.11040678 0.021272596 0.026905311 0.0962375 -0.11548622 -0.047853295 -0.02459428 0.059600677 0.21033601 -0.14495827 -0.123813525 -0.08445808 -0.020974135 0.07864367 -0.23812328 0.1498013 0.2336652 -0.050934393 -0.2840325 0.14417529 -0.19042206 0.31626663 0.008381166 0.2579875 0.011498429 -0.031937875 0.028962698 -0.23840909
将 0.20391028 -0.075470395 0.20903729 -0.24829812 0.20250131 -0.38180444 -0.532201 0.078146175 -0.12538992 -0.008286798 0.0013335122 0.10823493 0.24664898 0.24338776 -0.10907808 0.064163625 -0.2837234 0.003535247 -0.27345195 -0.04156953 0.052872326 0.4442042 0.047064427 0.08509328 0.17824313 0.034418385 0.13221303 0.29874054 0.16418561 0.121330865 -0.12903184 -0.19263132 -0.108642936 -0.05742083 -0.14987768 -0.004394907 -0.3576219 0.050648518 0.17666177 0.17425549 -0.35078183 0.33277866 -0.25253433 0.09709168 0.02703107 0.20921618 0.28550354 -0.15376945 0.09730896 -0.24812444
士 0.020338444 -0.2124426 0.13547191 -0.26143482 0.26077208 -0.30257574 -0.44582996 0.13826263 -0.2329957 0.13551448 0.08569191 -0.012518141 0.24091047 0.014242373 -0.08886331 0.039424405 -0.16415204 0.33298042 0.06084172 0.021286264 -0.16439869 0.4169533 -0.031758152 -0.24040386 0.06122782 0.17863357 0.14673106 -0.11181045 0.042842112 0.10936828 0.16655298 -0.21437421 0.119257525 0.06398788 -0.12516388 -0.007511204 -0.30340335 -0.10745301 0.08222385 -0.14341128 -0.38706395 0.10204498 -0.15476212 0.2608204 -0.3182865 -0.020972326 -0.2196487 -0.32009742 -0.11084456 -0.25254518
丘 -0.3372808 0.11009563 0.3265903 -0.29356477 0.024970401 -0.49624202 -0.7922449 0.34560174 -0.40067822 -0.22047861 0.04015548 0.24808745 0.1737866 -0.030743884 -0.24146453 -0.11057706 -0.24461865 0.2079783 -0.3331318 -0.26541469 -0.16915114 0.3370309 0.025374886 -0.28005376 0.3035544 0.25683016 0.0201058 -0.07643688 0.20501447 0.26371044 -0.29582778 -0.23912102 -0.097242914 -0.04269176 -0.39006215 0.065054595 -0.45216545 0.022436636 0.0094110435 -0.30124512 -0.5208755 0.1497016 0.08140465 -0.03665546 -0.37266344 -0.24708645 0.077289715 -0.0973773 0.29020137 -0.44931412
身 0.13325737 0.07012008 0.35178378 -0.4488082 0.23860416 -0.39192083 -0.36169147 0.11037972 -0.10861469 0.07710399 0.13494611 -0.16988865 0.149024 0.1221173 0.032883305 0.033611055 -0.065104544 0.2225693 -0.160487 -0.14333366 -0.06992256 0.25712004 -0.048536114 -0.00082625705 0.06182839 0.2738917 0.14102793 -0.016947526 0.011209777 0.013787593 -0.009803088 -0.20854612 -0.12999399 0.088061735 -0.26710802 0.007168612 -0.39197928 0.1387098 0.18485162 -0.19411485 -0.51363724 0.4005292 -0.09129646 0.091014594 -0.081016324 0.057558205 -0.3078008 0.04741004 0.2744073 -0.18568015
入 0.20666584 -0.0020905563 0.4192172 -0.44535872 0.038892902 -0.4464027 -0.102108486 0.17213508 -0.199337 -0.013795558 0.04582306 0.18013668 0.14610878 0.0059276656 0.14293887 0.14525655 0.016187599 -0.05793449 0.074270345 0.065104745 -0.19547439 0.23577131 0.044307593 0.050889943 -0.10993865 -0.018585501 0.00101957 0.14075662 0.25748378 0.19589907 -0.28906733 -0.24878074 -0.31189013 0.13535295 -0.10267423 0.08712585 -0.17789602 -0.0707563 0.08320162 -0.14117227 -0.3890625 0.3117847 -0.10927146 -0.11243371 -0.16516903 0.28225118 -0.09512876 0.02007739 0.11291396 -0.47543472
志 0.09973618 0.21000566 0.5860053 -0.6545435 0.3409928 -0.44705632 0.044835165 -0.16567613 -0.023111397 -0.04907313 -0.099395044 0.62361616 -0.13127922 0.05991325 -0.19360927 -0.009535776 -0.09899323 0.26427868 0.12211784 0.47093004 -0.24238488 0.44108278 0.24582568 -0.0941757 -0.27891102 -0.031046923 -0.019289587 0.13857076 0.37632942 0.045202844 -0.36375532 -0.49050853 -0.44112426 0.62018627 -0.3117916 0.060814504 -0.10451418 0.3230737 0.19685729 -0.312393 -0.55139816 0.42527232 -0.22859721 0.06331172 -0.1892836 0.52621 -0.4350503 -0.057907164 0.45746836 -0.6347752
耻 -0.04423607 0.22584885 0.06788138 -0.23787516 0.032284517 -0.24844359 -0.39585078 0.18823634 -0.14200285 -0.0323549 -0.28345558 0.3608391 0.1891963 -0.12838978 0.0030987475 -0.15936057 -0.027466057 0.17744738 0.18487436 -0.020440891 -0.21949682 0.018400453 0.19098954 -0.11707759 0.086909555 -0.09293901 -0.22577146 0.11841946 0.027075145 0.218869 -0.23627743 -0.099037655 -0.17036003 0.05920342 0.031555057 0.16786097 -0.17907244 -0.14798892 0.1503926 -0.0805303 -0.45233977 0.18690154 -0.20472516 -0.08173391 -0.050322328 0.1383951 0.0538912 -0.06639238 0.20735009 -0.4051143
失 -0.10739764 -0.07016748 0.3200011 -0.23714714 0.22796288 -0.15311578 0.027150208 0.09095061 -0.059961192 -0.16945009 -0.19169758 0.18663335 0.012635727 0.0023915768 -0.19160204 0.07325881 -0.060912296 0.22969745 0.18971913 -0.1569138 0.093062736 0.0130562475 0.047786944 -0.04888069 -0.19308305 0.12971511 -0.3193813 0.30990005 -0.05539056 0.15171589 -0.17920953 -0.3551726 0.1292111 -0.008850105 -0.15377317 0.12293044 0.37533918 -0.27705696 -0.042455755 -0.060203664 -0.2629399 0.19535342 0.17171031 0.117210835 -0.18657987 -0.28028905 -0.26717877 0.035641976 0.22093819 -0.4090752
安 -0.044322744 -0.048092928 0.34621632 -0.08871825 -0.117739126 -0.33748376 -0.0016760435 0.080131084 0.06860639 0.013090308 -0.11678158 0.20751172 0.10489621 0.18510516 0.13921654 -0.105731055 -0.27808827 0.07309117 0.08251348 -0.18373671 -0.15654448 0.19915147 -0.13818967 0.0056483783 -0.020880952 0.16587293 -0.03083523 0.3682837 -0.03699331 0.12188302 -0.09689932 0.07428554 -0.17554508 0.36548203 -0.1078548 0.027576571 0.2855358 0.031059274 0.049609322 -0.14667408 -0.17877738 0.13775736 -0.0065922868 0.06700542 -0.1331661 0.043128602 -0.15465361 0.25646117 0.100748315 -0.4373182
富 -0.22135368 -0.084683955 0.4150195 -0.23714039 0.1902893 -0.2479217 0.18331394 -0.23996207 0.008844967 0.021998152 -0.30041414 0.086541615 -0.09291521 0.21029462 0.041135635 0.15834647 0.06537027 0.1025299 0.093857 0.15948586 -0.27612224 -0.31643757 0.18116935 0.0077705896 0.10735337 0.17740291 -0.22291152 0.12793773 0.14329103 0.06522907 -0.02969414 -0.23364078 0.17326082 0.083926 0.079260305 0.19110656 0.16273852 -0.023147583 0.07872886 -0.062643506 -0.10056064 0.25647578 -0.2916393 0.031463984 -0.29214543 0.46776175 -0.22392611 -0.10192781 0.08639611 -0.43022043
赐 -0.2532525 0.27204585 0.22588247 0.084428035 -0.09587933 -0.19594802 -0.7361289 -0.40626967 0.08907381 0.11018871 -0.29393473 -0.17095883 -0.042022627 -0.16926722 -0.13257629 -0.07251701 -0.21026057 0.107852876 0.3005829 0.2390848 -0.44689375 0.1494876 -0.046290595 -0.09883271 -0.04978121 0.09354606 -0.20645855 0.25705627 0.2089246 0.30441618 -0.3283659 -0.19570081 -0.37392977 0.39153442 -0.036083423 0.4559678 0.26717 -0.28939444 0.06578949 0.29902363 -0.11467516 0.19394845 0.13029422 0.18514426 -0.30983055 0.49450877 -0.046997294 0.024824532 0.26524663 -0.77935576
患 -0.30532753 0.15417701 0.23200394 0.019067483 -0.013207037 -0.120426975 0.293614 -0.27891618 0.1927412 -0.08554743 -0.47294998 0.12800261 0.16918038 -0.0529013 -0.10762502 0.19864835 0.10072207 0.1897798 0.1393799 0.06372817 -0.34073403 -0.035118256 0.18282722 -0.19261937 0.024876764 -0.09420397 -0.21182352 0.3701032 0.10052277 0.023989972 0.13548489 -0.2746619 -0.018985596 0.24485345 0.017497389 0.358326 0.2396805 -0.30814335 0.14763382 0.07424665 0.11323765 -0.1344569 0.08451693 0.16685882 -0.20081048 0.29245102 -0.27274767 0.017787987 0.25326332 -0.2765249
百 -0.09899591 -0.20006324 0.2638244 0.05252608 0.01266207 -0.16519076 -0.41703203 -0.11976663 -0.116543084 -0.16405481 -0.50849223 -0.06800985 0.19853544 0.28649035 0.019950913 0.1783972 0.029990532 0.09982493 -0.3174846 -0.07248052 -0.41176686 0.13091305 -0.10965898 -0.33524892 0.3074738 0.13907862 0.14295913 0.21892725 0.20789722 0.14161837 -0.00982126 0.45402157 -0.12862904 0.20988785 0.16259138 0.2006827 0.10376556 -0.17987938 -0.047416486 -0.0953135 -0.14813711 0.029992295 0.1678178 -0.11521368 -0.15719396 0.26532564 -0.20203623 0.023556057 -0.2533655 -0.5194819
回 -0.21041124 -0.032975372 0.4605166 -0.1750804 0.25017932 -0.20045955 -0.48644966 -0.20996486 0.18639168 0.119159326 -0.62634134 0.0631983 0.23351143 0.3408744 -0.12756203 0.27823275 -0.4334393 -0.15342471 -0.3401539 0.014338501 -0.48834276 0.039245915 -0.23521255 -0.23212841 0.036633696 0.25366792 -0.12904455 0.67617166 0.3610953 0.19236076 -0.4876342 0.5625368 0.18112367 0.6161595 0.28973976 0.2887598 0.10392768 -0.5711989 -0.3122579 0.11984868 -0.06679146 0.2361494 0.1793612 -0.04851558 -0.62589747 0.10034234 -0.26543367 -0.08417618 0.30117664 -0.55915093
宰 -0.43900493 -0.0007489119 0.02714813 0.009248136 -0.10303773 -0.26502064 -0.1906191 0.08038406 0.1604628 -0.04268491 -0.4031356 -0.050979085 0.0734722 0.06301186 0.10986987 -0.0005065971 -0.086125046 -0.18594553 -0.08835957 0.09563811 -0.42851582 0.08052458 -0.28428718 -0.22212003 0.1178394 0.17479835 0.060428582 0.21688183 0.19241716 0.09046395 -0.253489 0.23119053 -0.21313539 0.13163027 0.15388037 0.17983188 0.07724564 -0.36274484 0.005450008 0.09564732 0.1571972 0.13267887 -0.08499609 0.117966145 -0.30899304 0.076703645 -0.1479159 0.02008533 0.10064761 -0.4741635
朝 -0.1694202 0.044915497 0.24216563 -0.24754776 0.33343843 -0.26930317 0.102716155 -0.27825603 0.3012458 -0.021123016 -0.42372036 -0.060425594 -0.023292206 -0.073699124 -0.057987384 0.26872683 0.0480386 -0.23770693 0.22059095 0.050376687 -0.17219038 -0.2416436 -0.23259453 -0.080048814 0.2929152 0.2551005 0.167929 0.11348556 0.19465852 0.10522307 -0.28366086 -0.19587228 -0.04915096 0.2786688 0.13201708 0.24377066 0.053166155 -0.42356613 0.076366596 0.10443651 0.17954744 0.13716443 0.16468693 -0.06607815 -0.019234596 0.13550232 -0.28804612 -0.16654451 0.28598574 -0.4267351
莫 0.16407709 0.07630265 0.15402283 -0.0361785 0.25560772 -0.17120193 0.33214113 -0.050649993 0.2102657 -0.094371356 -0.39951256 -0.12382097 -0.19212566 -0.0070288936 -0.16412108 -0.10059905 -0.12251315 -0.15248042 -0.119786635 -0.026908174 -0.12047653 -0.17620508 -0.22478163 -0.29624698 0.25635678 0.12843621 0.31534618 0.118097246 -0.018369574 0.05937744 -0.16029271 -0.21157989 -0.12494053 -0.0769011 0.10952063 0.274669 -0.0005945312 -0.09745212 0.23084539 0.061256003 0.11285109 0.23545481 0.2053034 0.085802354 -0.19916268 0.033171378 -0.353499 0.1031131 0.27632305 -0.49864656
若 0.18438208 -0.03346982 0.26329204 -0.16049775 0.1926517 -0.23125577 0.16020408 -0.015824975 0.07772753 0.09117724 -0.4163009 -0.10079679 -0.123746276 0.25173107 -0.27229133 0.017813602 -0.16977099 0.006107376 -0.3981773 0.04912108 0.010634829 -0.18392746 -0.27471423 -0.101165965 0.3893231 0.0011838789 -0.050022192 0.031314645 -0.11816721 0.2627885 -0.15706632 -0.17385304 0.06487765 -0.17005914 0.029929467 0.19132154 -0.08457961 -0.29427212 -0.23168789 0.031644907 -0.030649044 -0.057924815 -0.089895196 0.113973595 -0.17169939 -0.19015929 -0.2943574 -0.3074064 0.15927565 -0.3779732
