1352 100
， -0.247738 -0.15156047 -0.108133055 0.0392785 0.15532336 -0.24416034 -0.09939785 0.024693241 0.19523366 -0.15536135 0.089240305 0.11478864 -0.06110595 0.03451432 -0.03181447 0.07257154 -0.0032870364 0.07733628 0.628712 -0.058075964 0.6437277 -0.22363271 -0.012715163 0.68731064 0.16932753 0.04435673 0.009560133 0.095946744 0.16600868 0.2754728 0.088132866 0.3155635 0.09687458 0.03487134 0.022131532 0.16690369 -0.13351072 0.016652022 -0.086401656 -0.02780299 -0.13749336 -0.0137031125 -0.44128722 0.10695331 -0.07760952 0.044460773 0.26026067 0.35964614 0.024513558 0.06085169 -0.057907067 -0.25110534 0.1981657 0.12963034 0.12324764 -0.11720784 0.17493518 -0.2670564 0.08397286 0.115621366 -0.23370221 0.09466242 -0.08413949 0.043978058 -0.20282698 -0.029291844 0.05056651 -0.036932167 -0.013756779 -0.040674176 0.016387865 -0.017123468 0.057617042 -0.013815859 -0.11260379 -0.09164605 0.09794317 -0.062260773 -0.02098897 -0.24679475 0.11573004 -0.03409556 -0.052203152 0.10934704 -0.02173444 -0.10485239 -0.20259856 0.024954943 -0.041007087 -0.1513547 0.5456327 -0.26620114 0.13051414 -0.104988776 0.029091746 -0.12094073 -0.0062895594 -0.06482999 -0.024164729 0.009724336
子 -0.14519995 -0.24996373 -0.122444004 -0.25516412 0.11559721 -0.32003903 -0.00066239183 -0.10497605 0.5646221 -0.124444835 0.076529235 0.034956146 -0.2074716 -0.12583907 -0.2407845 -0.0050894157 0.124913685 0.13685308 -0.8893996 0.18206394 0.36504897 -0.37863225 -0.08560332 0.48773697 0.2517214 0.081062205 0.032347366 0.08336787 0.045599855 -0.38713685 0.19822627 0.33364013 -0.20864186 -0.04642178 0.023009114 -0.055738393 0.031443417 0.13975598 -0.1562028 0.06081503 0.23550233 0.1929605 -0.5984019 -0.14776425 -0.05951508 0.11243887 0.6296952 0.17864425 -0.06815601 -0.13246956 -0.13004114 -0.2765461 0.25916028 0.34678772 0.21421722 -0.00012022686 0.08155121 -0.1488631 0.026568998 -0.014538842 -0.12092919 -0.041583855 -0.047834106 -0.08235059 -0.2249866 -0.19532123 0.1116556 0.09235465 0.286716 0.108580045 0.08977181 -0.061065447 -0.35153502 0.017202644 0.14201054 -0.092539795 0.17840487 -0.30385384 -0.13178696 -0.32092795 -0.16347158 -0.20657876 -0.26470375 0.18470839 0.0337765 -0.2518704 -0.01198303 0.056868058 0.011557432 -0.09705179 0.42522907 -0.24214612 -0.04254052 -0.13361605 -0.43610936 0.09200926 0.023741541 0.19599408 0.16546008 0.15396826
。 -0.25281698 -0.03968598 -0.19465509 -0.18542424 -0.036976375 -0.31169865 0.14864063 -0.10381404 0.6828984 -0.17680067 0.04048203 -0.14109987 -0.09638455 -0.13371964 0.014759638 0.17015316 -0.42016667 0.13818854 0.68565357 0.013210177 0.575856 -0.42098516 -0.17257938 0.39770147 0.12751557 0.095091544 0.028202025 0.113419116 0.30955654 -0.2446826 0.10114364 0.27677572 -0.1811678 -0.14952868 -0.04521127 -0.18199234 -0.09045858 0.6758702 -0.04886498 -0.23295428 -0.19865537 0.017961994 -0.6543945 -0.2298994 0.02791211 -0.082639545 0.68213445 0.29345888 -0.15391386 -0.046618663 -0.08637912 -0.104841016 0.37815773 0.23239648 0.118140176 -0.141352 -0.07967415 -0.4149846 0.18470931 0.0077849953 -0.40372744 -0.13532628 0.06009922 0.3020563 -0.3795001 -0.28050914 0.028583357 0.11692377 0.30775195 -0.065451816 0.041688025 -0.09523674 -0.33767578 0.09730917 0.21028565 -0.21423897 0.13714351 -0.29369166 -0.19808796 -0.37816176 -0.0011659081 -0.17178534 -0.23842539 0.004708029 0.2010849 -0.20538059 -0.22161686 -0.0041106297 -0.09704695 -0.23911181 0.17494191 -0.09784772 0.15134102 0.21166372 -0.10094183 -0.17613077 0.10628359 -0.18290848 0.02121515 0.4513025
： 0.21689083 -0.55596435 0.06791379 -0.07823019 -0.035235804 0.1107905 -0.18436489 0.3437871 0.087920226 -0.1826477 -0.06336812 0.091337234 -0.283807 0.035042573 0.08923401 -0.14639546 -0.5144001 -0.07619513 0.63068765 -0.19732389 0.45485255 -0.058398284 0.38164943 0.2491798 -0.19409044 -0.27692223 0.2882231 -0.24049169 -0.17276317 0.3172094 0.39732704 0.3568563 0.10955535 0.38946205 -0.12691425 0.12160617 -0.06989812 0.3579689 -0.18666595 -0.32024267 0.053773575 0.111982234 -0.14007868 -0.20876792 0.07866946 0.048179895 0.59088403 0.20620896 0.18732645 0.027701154 0.15659204 0.2862774 -0.036903955 0.110934615 -0.16208987 -0.031693418 -0.05290498 -0.49741703 -0.022325376 0.028329242 -0.3693053 -0.063078664 0.11179686 0.12770365 -0.11193345 0.013059207 0.11405312 -0.115819834 -0.11545379 -0.14338149 -0.055823777 0.054405347 -0.035940047 -0.011039915 -0.05649624 0.0053181555 -0.14916228 0.29487684 0.30574068 0.17657028 0.12930936 0.11226204 0.37581727 0.4122164 -0.06602711 -0.081393555 -0.094324805 -0.29581723 0.008538304 -0.24167216 0.32966018 0.2768882 0.459914 -0.29326114 -0.30772743 -0.009242224 -0.086572155 -0.34161732 -0.012082 0.5942544
曰 -0.24858408 -0.14139126 0.18584156 0.1814299 -0.049366895 0.0629358 -0.086829156 -0.0064969934 0.17621648 -0.20137507 0.0634989 -0.033943266 0.11616736 0.021764662 -0.041186444 0.063941725 -0.18055823 0.18455638 0.010169583 0.030750105 0.24462791 -0.26582384 0.05796211 -0.052221328 0.098536186 -0.01349615 0.06726639 0.01449503 0.08411396 0.19652075 0.012583168 0.19424984 -0.14409043 0.017323773 -0.061786167 0.053558763 0.12425695 0.12653627 -0.10133659 0.09801611 -0.05813078 0.10353313 -0.1698286 0.1384199 0.106284 -0.017366648 0.32479894 0.30835006 0.07056367 -0.11583569 0.08677881 -0.0061128954 -0.0820999 0.16794623 -0.20440832 0.019254213 0.03197878 -0.13396926 -0.05575636 0.00048956345 -0.2973155 0.045974895 0.10936515 0.0926154 -0.20263892 -0.099987686 -0.08240566 -0.027529966 0.09541768 -0.08736482 0.06219796 0.0372946 -0.06110898 0.06042194 -0.124525696 0.024348935 -0.0020722002 -0.080629855 0.019337468 -0.054256488 0.105931334 -0.028282916 -0.031255737 -0.07386007 0.0033597993 0.044288382 -0.005943697 -0.040603515 -0.0383267 -0.16244301 -0.024065955 0.11739747 0.3257951 -0.08044017 0.039400928 -0.036116477 0.10579491 0.04250694 0.14409104 -0.15936513
之 -0.257354 -0.13901947 -0.016904794 0.11891636 0.025137195 -0.25833693 0.048472933 -0.1089642 0.10516366 0.08116671 0.06522201 0.0013450554 0.12267016 0.0017454787 0.10977241 -0.012228485 -0.14603272 0.03283052 0.033679783 -0.115965664 0.5643541 -0.38480654 0.0017336169 -0.0024796173 0.17444792 -0.06999855 0.13114974 0.06616328 0.033790532 0.33282632 0.21394978 0.3805267 -0.17077985 -0.10152353 0.02865887 0.13160929 0.17864278 -0.083668426 -0.21186946 0.051842038 -0.2137614 0.049579706 -0.16877297 0.29756176 0.04765662 0.015408771 0.51342857 0.3228567 0.14062345 -0.094728485 -0.07770948 0.11483112 0.07723917 0.029099789 0.116673484 -0.16231966 0.039612625 0.1778413 0.05019997 0.066871226 -0.22460124 -0.05057571 0.093322314 -0.11418986 0.103441074 -0.13541119 -0.045819726 0.111781016 -0.03427353 -0.04793872 0.013208197 -0.06400268 0.023096588 0.12327407 -0.01952417 -0.03731918 0.086585626 -0.11382752 -8.6782034e-05 -0.18091834 -0.10575534 -0.089369155 -0.14808574 -0.09991501 -0.018459188 -0.12421033 -0.11448625 -0.08561211 -0.13371807 -0.14439814 0.10885858 0.031326808 -0.026511407 -0.17725873 0.18401483 -0.20128576 0.028568316 0.07256706 -0.056948643 0.02722301
不 -0.54469925 -0.31524825 0.014205325 -0.02611972 -0.12838684 -0.33606067 -0.037479915 -0.10786895 0.63138926 -0.11062024 0.12521517 -0.1433489 -0.012145749 0.20878634 0.13319132 0.1440781 -0.5998394 0.14052504 0.49507195 -0.100608885 0.30022556 -0.32667696 -0.21871941 0.4259948 0.32267195 0.15719853 0.21163142 -0.0033845594 0.2065467 -0.30610391 0.042257987 0.43328196 -0.36198342 -0.18209925 -0.033109512 0.1914622 0.0756401 0.3682481 0.12275367 0.14261808 0.009529472 -0.12462753 -0.57568276 0.09945452 -0.0055573853 -0.055811483 0.5290165 0.5419353 0.0638758 -0.024260713 -0.009891053 -0.29310852 0.15083322 0.260436 0.29653284 0.07805315 -0.14361264 -0.50154144 0.29241446 -0.00930638 -0.30976 -0.14695342 0.22479828 0.3354504 -0.31624946 -0.2337624 -0.11296641 -0.030861061 0.18881446 -0.06218941 0.14296363 0.08675871 -0.015220676 0.25047794 -0.20240822 -0.20837446 0.074164554 -0.16844825 -0.10400577 -0.3037938 0.055094294 -0.115664795 -0.2982435 0.17124757 -0.0020219067 -0.012716709 -0.12049282 0.0024965561 -0.18672384 -0.17276923 0.2833559 -0.12464208 0.20956028 -0.11746309 -0.05562197 -0.29812685 -0.03429571 0.027282633 -0.007063845 0.1833536
也 0.109539874 -0.0502866 0.15751849 -0.09342101 0.025397077 -0.07305234 -0.102365576 -0.0759485 0.20554519 -0.08484326 0.051712528 -0.0700932 -0.025454892 0.039107613 0.033493906 -0.06980854 -0.21722923 0.0062233713 0.20237869 -0.13939472 0.041698717 -0.28474683 0.014275005 0.09555757 0.13299221 -0.14290895 0.047812156 -0.048745357 -0.04635452 0.1133305 0.1313017 0.26528215 -0.29672784 -0.038084526 -0.0992921 0.17533249 0.044388544 0.26565465 -0.105790265 0.16947888 0.037755493 0.0091424035 -0.10140057 0.10411847 0.1109173 -0.09313468 0.30692887 0.22972584 0.10512282 0.017511893 0.09696149 0.088664085 0.12342961 -0.1116717 -0.23140477 -0.017583711 -0.06445311 0.066279635 -0.004346096 0.0826305 -0.28188133 -0.030452842 0.22890063 0.09933704 -0.14915907 -0.089160815 0.03665053 0.0073755877 -0.065673724 0.019534383 0.0024066856 -0.10278479 0.05251647 0.03462875 -0.2450523 0.08157973 -0.04456886 -0.00820003 0.06814157 0.040325724 0.036214247 -0.061939567 -0.18042351 0.016370615 -0.11472272 -0.04894259 0.113919444 0.050763242 -0.021114955 -0.21200034 0.18892628 -0.027218193 0.27233222 -0.11454575 0.2503313 -0.18030608 -0.08686511 0.030973032 -0.06711982 0.1920279
而 0.01584272 0.094632946 -0.021005755 -0.08550714 -0.053134907 0.10316899 -0.05426784 0.035823762 -0.059993714 -0.1737284 0.06925587 -0.073849544 0.11014344 -0.046429973 0.05333944 0.0018638272 -0.33859238 -0.018442616 0.45511293 -0.03019294 -0.03662193 0.05532454 -0.05731916 -0.25240648 -0.022049796 0.045424584 -0.03516136 -0.01035146 0.020585686 0.109703034 -0.061471347 -0.03751212 -0.06126306 0.0011413814 -0.029432273 -0.0043233125 -0.13875161 0.21410595 0.038066577 0.040022336 -0.0906162 0.0064805523 -0.124849744 -0.06317094 0.18742177 -0.10379062 0.00732648 0.06892 -0.01508326 -0.12833363 0.050892584 0.051789925 -0.036976565 -0.068749405 0.03679404 0.048045386 -0.10121627 -0.19323969 0.15183142 0.01371007 -0.23350881 -0.0043407544 0.25095442 0.2013881 -0.04589498 -0.049891528 0.0024123802 -0.052086446 0.16876869 -0.06346324 -0.053485654 0.123523846 -0.054143928 -0.07522579 -0.0779803 -0.02367421 -0.0088894535 0.045632754 0.021593498 0.0011594775 -0.006456972 0.02136689 -0.0033103954 -0.068563 -0.03473424 0.012656461 -0.061896823 0.029467626 -0.029379262 -0.06864004 -0.11799679 0.08309435 0.40480593 -0.01685922 0.04935532 -0.23194933 -0.010522706 0.015499894 -0.040469546 0.20135559
？ -0.19027969 -0.30405095 0.057610493 -0.0011166701 0.020962503 0.21416925 -0.026494436 -0.12050784 -0.40959954 -0.09307025 0.12954132 -0.028314108 0.20717435 0.084493026 -0.057903644 -0.035996735 -0.36101764 0.035914917 -0.07357124 -0.09361857 -0.14158314 0.12775642 -0.10784874 0.017837556 0.19738306 0.10334456 -0.09368476 0.013689008 -0.15125547 0.12885211 -0.16493057 -0.19337586 -0.20806475 0.027418328 -0.06279933 0.27947843 0.118099675 -0.1800199 0.017486677 0.27177504 -0.12581259 -0.039736804 -0.33991143 0.13999867 0.1765516 -0.15347134 0.15515968 0.1100426 0.13898598 -0.34157473 0.15652646 0.08120448 -0.15517351 -0.22405234 -0.008616598 0.123569496 0.046649225 -0.19948865 -0.08713771 0.059594717 0.016582888 0.13522755 0.23133692 -0.03346388 0.062063992 0.029770311 0.13952196 -0.043737687 -0.018619683 -0.011477026 -0.06671032 0.15598124 0.032823607 0.0246088 -0.25852877 0.08531913 0.018319795 0.106035374 -0.01943268 0.21490462 -0.001996111 0.030823272 -0.19141716 -0.12049769 -0.060613386 -0.031981803 0.06531297 0.103922054 -0.12471259 0.007588004 -0.23686267 0.16021793 0.50042313 -0.036797393 0.23800309 -0.33316067 -0.06408048 0.29538053 -0.08917272 -0.31492865
其 -0.009112943 0.12946332 0.16854782 0.14804831 -0.022441873 0.038507916 0.005811361 -0.1004131 0.19422637 -0.032577783 0.22002614 -0.054722372 -0.036886908 0.09489112 0.10035127 -0.081002556 -0.16019958 -0.04563489 -0.37850922 0.04305647 -0.28949472 0.009209878 -0.22290984 0.20037001 0.12841944 0.1889473 0.055955205 0.029838804 -0.16648167 0.13847187 -0.14360291 0.060534224 -0.287029 -0.0689976 -0.02533786 0.20390926 -0.05324847 -0.25300133 0.16552633 0.20503746 -0.0631292 0.0077978005 -0.09730038 0.066974655 0.06067233 -0.060076475 -0.10725081 -0.3229752 0.05519958 -0.27907646 0.21262415 -0.05220028 -0.034610018 0.16266477 0.08442045 0.056393538 -0.0091406135 0.07228612 -0.0006228993 -0.056197282 -0.06388429 0.07005824 0.11596945 -0.017657716 0.025859619 0.05615273 -0.024582235 -0.04994203 0.062893376 -0.11967269 -0.049376093 0.04600403 0.17182045 0.041341025 -0.108640775 0.11828719 -0.04158496 0.031646434 -0.030434184 0.010950604 0.06796843 0.024789697 -0.08570105 0.13273098 -0.013185308 0.122137256 0.10566138 0.0627672 0.024158644 -0.018761465 0.12867224 0.093103535 0.40319932 0.06090147 0.38380075 -0.32120663 -0.0050129467 0.20285127 0.23268168 -0.041560415
人 -0.35778382 -0.3314589 0.05487068 0.20059991 0.06388812 -0.04993287 0.092629105 -0.2779559 0.13753366 -0.15120575 0.33991495 -0.20428675 -0.01051966 -0.117235266 -0.13453132 0.09375621 -0.5070529 -0.047461677 -0.18935183 -0.009879512 -0.34845096 0.0018127199 -0.286375 0.12003163 0.08373094 0.14524214 0.045711163 0.22471188 0.109601185 0.12501813 -0.06566426 -0.022234652 -0.6427415 -0.38134181 -0.015644653 0.10767556 0.090026975 -0.5969251 -0.07302489 0.27793625 0.08841884 -0.24050598 -0.53908443 0.26095593 -0.06903398 -0.11979835 0.65486306 0.0233811 0.103260726 -0.48762503 0.1516983 0.011197547 0.1726739 0.30344418 0.13094045 0.05285603 0.107505135 0.1049156 0.13561822 0.06788448 0.008171179 0.11815559 0.28593397 -0.1617333 -0.24326442 0.036803085 0.13254997 0.03867388 0.009803161 -0.13143381 0.0727068 -0.057546742 -0.15090452 0.026257258 -0.33128533 -0.17138213 0.12896654 -0.13246842 -0.109751135 -0.12815267 0.18106699 -0.11936786 -0.325015 -0.042837113 0.13893005 -0.15520538 -0.2336314 -0.07359951 -0.16141257 -0.122008525 0.27680236 -0.21593066 -0.049040128 -0.12109014 0.5921831 -0.2261913 -0.068610385 0.4654631 0.3013393 -0.051659323
者 -0.15141752 -0.12172519 0.102131754 0.17280895 -0.04333869 0.26660284 -0.107491136 0.05854202 -0.09500019 -0.26824158 0.18495838 -0.093877435 -0.10222811 -0.04652504 -0.043478485 0.037680946 -0.3170332 0.080720864 0.35685351 -0.061890267 -0.32036862 0.16234532 -0.06272149 -0.064190336 -0.058358695 0.051074643 -0.11784748 -0.013214301 -0.013534229 0.156542 -0.07500946 -0.14880028 -0.08732648 0.1704688 -0.016329927 0.045219064 -0.20244822 -0.28284067 -0.014049007 0.14947225 0.124491364 -0.1379811 0.13253388 0.28721043 0.042679608 -0.14498907 0.27061805 0.1656977 0.020664895 -0.15173776 0.1712988 0.10419004 0.010941109 0.03143969 -0.1239787 0.05719819 0.10448143 0.0035029333 0.016292281 0.09125762 -0.02095836 0.12698433 0.08245846 0.10824476 0.1636786 -0.040244132 0.11555065 -0.04744129 0.20462114 -0.1114378 -0.019256972 0.12736733 -0.09458447 -0.06409814 -0.35553953 -0.14065015 -0.0138300955 0.103617966 0.058682658 0.090152785 0.15535387 0.092264265 0.065473154 -0.11904563 0.023614917 0.07739107 -0.16619608 0.005598273 0.02601773 -0.056895338 0.23025735 -0.17492859 0.3891669 -0.06332834 0.35325056 -0.2179319 -0.0009395579 0.36187464 0.08105442 0.1709255
以 -0.03877118 -0.25671262 0.14963734 0.13195373 0.042403627 0.12616278 -0.027952522 -0.15171266 -0.0013325049 -0.14058663 0.21660826 -0.105206616 -0.11706285 -0.016336787 -0.094579615 0.07880433 -0.12245593 0.07469391 0.17778079 -0.027727798 -0.181073 -0.05869231 -0.09537037 0.20300987 -0.018512778 0.025599068 -0.17996503 -0.027602345 -0.10743322 -0.35573855 -0.20004123 -0.20673604 -0.095183246 0.032786302 0.009428195 0.2002274 -0.068703316 -0.15748455 0.014140366 0.24335918 0.18077901 -0.13148911 -0.21575147 0.21072502 0.12027301 -0.14391676 -0.00059138937 -0.14519498 -0.010901688 -0.08407684 0.15825513 0.01896074 -0.045816157 0.19857076 -0.28245533 0.06837692 0.10761967 0.1928657 -0.006079823 0.06847653 -0.030872405 0.22356068 0.23714323 0.039531745 0.024523688 -0.0017176243 0.0195828 -0.054040983 0.05756587 -0.044684105 -0.010240557 0.055949096 -0.062034406 -0.02509382 -0.23131523 0.074152075 -0.0128000965 0.151752 0.006093351 -0.008654986 0.05888956 0.009777443 -0.1466612 -0.15804864 -0.0682292 -0.02322461 0.0057911333 -0.056983408 -0.08838341 0.05285398 0.24026108 -0.24203661 0.24945071 0.00981741 0.1348399 -0.08985964 0.030798895 0.4054187 0.062246624 -0.13043378
有 -0.38052693 -0.27916953 -0.042715233 0.19279845 0.19309944 -0.10044935 -0.07535972 -0.11104186 0.061836205 -0.22179893 0.14965773 -0.18393542 0.025259428 -0.06353447 -0.31451917 0.07411907 -0.40494528 0.039612964 0.6633197 0.059403945 0.29591534 -0.09676084 -0.29805762 0.47233173 0.048300177 0.21468633 -0.2845872 0.2262491 0.28837124 -0.32061157 -0.34146315 -0.28400582 -0.2360951 0.19475718 0.12655708 0.32309282 -0.32789087 0.11610385 0.05549957 0.28870222 0.16452527 -0.1474989 -0.5080619 -0.03443198 0.014601518 -0.17777139 0.0025107558 0.19636808 -0.12240784 -0.24581605 0.2779307 -0.024475956 -0.026827522 0.339965 0.082791574 0.21992102 0.28212264 -0.40938175 0.10240207 0.22652763 0.13656437 0.2772498 0.20805274 0.22173893 0.06153538 0.18287867 0.16688369 -0.121735185 0.16739367 -0.1704071 -0.11099206 0.08866971 -0.19281806 -0.13658662 -0.28606206 -0.09265769 0.07126019 -0.04477589 -0.22291562 -0.21248345 0.13533926 -0.05890346 -0.111118935 0.08358948 -0.064689256 -0.09288145 -0.2654296 0.1985564 -0.06653388 -0.053099263 0.05526974 -0.56523156 0.46636656 0.06340584 -0.094413385 -0.2687477 0.035648406 0.4830422 0.13548394 -0.08812827
于 -0.12765919 -0.234147 0.13999026 0.14320354 0.2217718 0.035775367 0.10552241 -0.18091917 -0.13137993 0.00035818567 0.16817287 -0.16016881 0.088347085 -0.10601888 -0.10957109 0.022677543 0.3341064 -0.043284208 -0.18256016 0.062140945 -0.26961192 0.009987719 -0.2440261 -0.1354601 0.106 0.082486086 -0.15497567 0.11618901 0.030183058 -0.04338422 0.005660258 -0.27926794 0.10766804 0.08258964 0.09857265 -0.0060132025 0.1276274 -0.3256865 -0.09782618 0.0835931 0.15045062 -0.06777701 -0.20572628 0.09886697 -0.032387704 -0.11779307 -0.038215734 -0.072700135 -0.050589558 -0.20369805 -0.09403476 -0.11150003 0.11149303 0.45474976 0.061256766 -0.07171448 0.16719566 -0.02310594 -0.10928736 -0.033157375 0.067062676 0.1789504 0.010504443 -0.14194463 0.16784187 0.0155897895 0.08350474 0.057484467 0.11558578 -0.07597153 0.046648186 -0.0025936007 -0.29533482 -0.029354475 -0.08533849 -0.0017418594 0.16090433 -0.0074995123 -0.15223652 -0.010150318 0.031759255 -0.03130819 -0.09679231 -0.2018451 -0.06596369 -0.08737521 -0.03289381 -0.006873073 -0.018621888 0.01308996 -0.14523639 -0.08657488 -0.27250516 0.050008394 -0.029121207 0.15788497 0.07598157 0.52882385 0.09435999 -0.09422998
矣 -0.16827936 0.09532994 0.0065827053 0.24750018 0.19550307 0.22513613 0.0507938 -0.06329901 0.12650034 -0.0171719 0.20798059 -0.052316435 0.016276855 -0.1126194 -0.11420387 -0.018315531 -0.16380997 0.05237543 0.30685115 0.060772523 -0.11466721 -0.061039522 -0.21253093 -0.045371544 0.119401164 0.0036299955 -0.18775292 0.13197394 0.05309724 0.10967503 0.020058246 -0.21725497 0.15368825 -0.032854483 0.0893654 0.23758925 0.090211466 -0.28158185 -0.15446614 -0.015978234 0.16056833 -0.018359441 -0.11641679 -0.047905404 -0.20750692 -0.0035100968 0.27215233 0.31030953 -0.007488373 -0.119678475 -0.258243 -0.05904269 0.14654072 0.47315377 -0.14184308 -0.06953224 0.22672309 0.051971637 -0.14172699 0.1325354 0.12581924 0.22198465 -0.1506633 -0.16738687 0.022206947 -0.1231815 -0.073042475 0.026592249 -0.043022662 -0.06285051 0.028590547 -0.012747775 -0.2449925 -0.0402258 -0.27929878 -0.025847912 0.11420075 0.03428139 -0.0041319607 0.25884187 0.021070085 -0.003433145 0.015563801 -0.4853413 -0.11752177 -0.13870251 -0.3235943 0.0046941936 -0.12734453 -0.11635915 0.1283395 -0.18112916 -0.24137974 -0.039375465 0.16487834 0.07305594 0.04014219 0.36567363 0.014324467 0.108937636
为 0.14120063 -0.25659072 -0.045072976 0.14225146 0.11956694 0.25499362 0.0032520362 -0.048955113 -0.100449145 -0.09868146 0.13314651 -0.049523808 0.0027230221 -0.07841096 0.01304955 -0.0039017345 0.117427856 -0.0022343665 0.44134733 0.024767421 -0.23670676 0.27312687 -0.18557699 -0.007863719 -0.1530337 0.078849606 -0.09000818 0.027225683 0.2507752 -0.31605467 -0.08677554 -0.30981353 0.07914569 0.034860443 0.057906363 0.03994157 -0.12311066 -0.22361891 0.066871464 0.034680203 0.21030542 -0.0016334411 -0.1972179 0.06702952 -0.09561677 -0.12306753 -0.2714173 -0.01681945 -0.0939219 -0.08190705 -0.007806555 -0.04561691 -0.08702745 0.3430496 -0.13446297 0.05805162 0.10700041 0.2606928 0.022718009 0.089486666 0.05263884 0.15958728 0.07461332 -0.04110495 0.07654721 0.034055784 0.012135161 0.026643794 -0.12316996 -0.13635069 0.077947296 0.15646826 0.12449532 -0.026972603 -0.20818907 -0.101711065 -0.000880074 0.042753045 -0.16083968 0.14734645 0.17944014 0.11790786 0.053896785 -0.021284807 -0.008148523 0.037538353 -0.12074969 0.08664466 0.015199916 -0.1566809 -0.13658881 -0.09137536 -0.083579555 0.020365892 0.18560278 -0.0576787 0.06093594 0.32269284 0.21772093 -0.032359313
君 -0.20951389 -0.18913382 -0.055511884 0.16674133 0.15616934 -0.21957093 -0.002908925 -0.030849371 -0.23832816 -0.22873195 0.037925553 -0.11001076 -0.033627078 -0.11817304 -0.05653503 0.05103082 -0.37422362 0.10959047 0.18222539 -0.05337903 0.4280117 -0.030437436 -0.25654942 0.20478068 0.10459804 0.03985886 -0.15720332 0.074485615 0.2692557 -0.14447784 -0.18840958 -0.21351717 0.14510803 -0.023135982 0.13398288 -0.00443469 -0.10770392 -0.24087468 0.07160125 0.106201276 -0.056481518 -0.020492578 -0.33027864 -0.010930935 -0.13539802 -0.06397261 -0.31655526 -0.07004235 -0.16620919 0.04671785 0.16645196 0.23834082 -0.09037061 0.42756665 -0.08148586 0.073631674 0.14963695 -0.16571826 0.004783996 0.20466654 -0.057212967 0.15840632 0.08251761 -0.023954472 -0.024139859 0.015455707 -0.015918082 -0.04068754 0.04709166 -0.089755856 0.08244185 0.090090655 -0.14778544 0.08176225 -0.08436873 -0.15100598 0.013661707 0.13205771 -0.13256805 0.07639595 0.13947764 0.0305627 -0.12234179 -0.33158413 -0.020039013 -0.0007327295 -0.2552924 0.08594062 0.018915916 -0.22096923 -0.013376489 -0.28460532 0.06649061 0.16719198 -0.11767287 -0.058853604 0.08344806 0.08350656 -0.030464033 -0.0426391
乎 -0.3600654 -0.1279594 -0.08209655 0.08774994 0.33818868 -0.34923863 -0.04568129 -0.22943337 0.14722514 0.17813551 0.23967417 -0.22826809 0.3769551 -0.21671532 -0.21887735 -0.03842057 -0.3103453 0.2165274 0.3343783 0.07819952 0.0386014 -0.17297186 -0.2623538 0.047884353 0.12509972 0.29854465 -0.3589722 0.14649545 0.19859366 -0.29367778 -0.2824229 -0.19389893 -0.2974951 -0.06866628 0.07352937 0.14095968 -0.001992065 0.04149997 0.25085086 0.30398607 0.15276724 0.08121529 -0.40207282 -0.121229514 -0.3170353 -0.16878222 -0.83216184 0.36950105 -0.15471675 -0.05283455 0.1545075 -0.0667419 -0.029374713 -0.13867965 0.122488886 0.11755343 0.30278158 -0.67093843 0.092428505 0.082364365 -0.024391076 0.39575505 0.018546935 0.16819139 0.050875038 0.025310697 -0.23439279 -0.17508651 0.29395887 -0.1848635 0.22043213 0.12929776 -0.32037368 0.12662014 -0.16352597 -0.18816878 0.14487949 -0.21957178 -0.38041967 -0.08680481 0.27320865 -0.17174248 -0.15451498 0.03714855 -0.17378479 -0.029494436 -0.24269085 0.26966748 0.13949896 0.061437335 -0.20184958 -0.31592378 -0.29627237 0.35309327 -0.32895738 -0.24855517 -0.006663225 0.40824103 0.12213807 -0.35224655
可 0.036599036 -0.13011953 -0.117851526 -0.0058871573 0.20744018 -0.05243348 0.013991294 -0.035392415 -0.39051417 -0.078609705 0.055840153 -0.07179155 0.040682796 -0.16787699 -0.10574392 -0.025889073 -0.016837616 0.082024634 0.035893682 -0.03545457 0.15026917 0.18869431 -0.20874609 0.26454923 0.11728332 -0.04362339 -0.2632453 0.04000095 0.08675508 -0.06413173 -0.10297316 -0.23141277 -0.079470895 0.1633464 0.060565565 0.06554469 0.0061447644 -0.093392804 -0.060375694 0.042001322 0.06399044 0.1391181 -0.1794142 0.02350565 -0.0987295 -0.09252358 -0.0909384 0.17749222 -0.0011969309 0.15921399 0.14599732 0.17742224 0.050159626 0.23934615 -0.07815316 -0.057040554 0.14660175 -0.13256219 0.006975705 0.1338229 -0.07418641 0.1624863 -0.07558306 0.035600305 0.16447164 -0.014060068 -0.027552623 -0.035176903 -0.049755007 -0.06947113 0.0025923455 0.12044655 -0.3236469 0.06302536 -0.06384935 -0.06328046 0.12240402 0.09485033 -0.23084293 0.04429117 -0.079579756 0.021672744 -0.11273556 -0.28805915 -0.07143717 -0.045998693 -0.2480485 0.14902863 0.033996146 -0.18887766 -0.44103795 0.038619254 -0.3049365 0.103304215 -0.45587447 -0.15669133 0.14701712 0.24318132 -0.10214 0.0916848
如 -0.054437548 -0.013889086 -0.16052985 -0.005589333 0.06679663 -0.08432042 0.09986589 -0.09427771 -0.23177743 0.033159837 0.032085914 -0.0992638 0.020031296 -0.20300864 0.010807865 0.049777146 0.32060358 -0.00030515064 0.4603463 -0.032597076 -0.38300282 0.4299715 -0.11270838 -0.43743336 -0.04360979 0.09111667 -0.18898478 0.10373085 0.06915794 0.11368153 -0.050058786 -0.3461871 0.017941065 -0.11714353 0.14011165 0.022194726 0.011802493 0.14316349 -0.108996846 -0.024508346 -0.027408151 0.14936723 -0.0070605087 0.10373284 -0.10322715 -0.07379898 -0.29775584 -0.25983647 -0.14374849 -0.0045148013 -0.09185478 0.17698993 0.023655558 0.18889078 0.089948714 0.060004875 0.026716862 -0.39664555 0.04249603 0.04497899 0.16857468 0.19142194 -0.05346389 -0.04159945 0.068754666 0.034167346 0.012801725 -0.11555073 -0.041542485 -0.127078 0.09003826 0.13382117 0.023919012 -0.09132985 0.18917927 -0.16534021 0.08471413 -0.05749556 -0.1303159 -0.020853106 0.10098719 -0.026777927 -0.036165662 -0.48207992 -0.056907278 -0.058385536 -0.18774207 0.09222388 0.020013176 -0.19904174 -0.22792755 0.17504866 -0.19580492 0.094598174 -0.22534537 -0.14336072 0.013246001 -0.10483878 -0.07602953 0.020377852
与 -0.12463335 -0.13786554 -0.4263566 -0.0631912 0.16884764 -0.36032104 -0.006635607 0.022822894 0.09170027 -0.26590806 -0.055996545 -0.1074165 -0.40133852 -0.22436036 0.04173272 -0.2730721 -0.15480746 -0.062162675 0.7832443 0.018848248 0.45624474 0.20739941 -0.15023516 0.14357944 -0.09680653 0.009668341 -0.28656647 0.032273326 0.31645703 -0.52743864 -0.14209142 -0.053090837 -0.3111211 0.3179255 0.17698957 0.046189763 -0.3063511 0.5946577 -0.18382698 -0.15151806 0.14755768 0.27988657 0.095937714 -0.462131 -0.110081546 -0.07484248 -0.26412082 -0.40115845 -0.39181614 0.1428005 0.28228822 0.16392641 -0.023185324 0.0925469 0.15225601 0.19787839 0.09845623 -0.51772577 0.24607827 0.22069174 -0.05747303 0.082595 0.092394456 0.06369596 -0.24677005 -0.10372356 0.21437046 -0.24741362 0.026717313 -0.13667175 0.17860003 0.29761478 -0.33960804 -0.04467645 -0.022368118 -0.40584585 -0.052043945 0.046492234 -0.13840422 -0.096370876 0.24164057 -0.06955227 -0.038088415 -0.08252804 -0.0065783816 0.009144593 -0.26457122 0.061628137 0.0636937 -0.33418563 0.18387872 -0.30134228 0.08699936 -0.07475646 -0.47684887 -0.23300672 -0.10859938 -0.28365052 0.098069385 0.4531087
； -0.049323916 -0.06788289 -0.023492476 0.20683725 0.17196691 -0.32567242 0.08065926 -0.01735591 0.17122373 -0.057663787 0.08917831 0.06450893 -0.19691442 -0.27228844 0.10730161 -0.14708722 0.030560117 0.011874303 0.2567042 -0.019014664 0.11879139 0.019341623 -0.11926676 -0.40287545 -0.044646535 0.14373732 -0.2155901 0.045758266 0.012639945 -0.06395049 -0.084107034 -0.03687984 -0.44588202 -0.05473209 -0.0016905617 -0.004342589 -0.23801956 -0.06401283 -0.10017731 0.12513374 -0.20440748 0.05696562 0.28335533 -0.23518121 -0.052576292 -0.11301154 -0.5216214 0.0042864196 -0.20311934 0.37963396 0.08004894 0.11480316 0.02359906 0.09412884 -0.050659306 -0.050965838 0.09188207 0.074935526 0.12484171 -0.04072957 0.10154313 0.08490479 0.008422764 0.11646058 -0.15668409 0.015123554 0.1026703 -0.18602481 0.058251906 -0.09718624 0.0806878 0.092644885 -0.08623587 0.04526358 -0.013610941 -0.027927218 0.043435358 0.08030042 -0.13082302 -0.069770746 0.07935645 -0.08831213 0.006001563 -0.14616692 -0.06926095 0.07607523 -0.1966317 0.16311169 0.10629198 -0.20568931 -0.07681633 -0.28197655 -0.030784696 0.031312447 -0.0198308 -0.22878848 -0.08901142 0.16762744 0.047818895 -0.19764781
言 -0.20490715 -0.101720795 0.2241408 -0.021895701 0.23831467 -0.055587 -0.013349751 -0.04942276 -0.076324545 -0.03610429 0.012626821 0.09049664 -0.11844637 -0.055695288 -0.04103335 -0.093915485 -0.06828984 -0.003571391 -0.12688942 0.08914291 -0.20594321 -0.20999157 0.018886698 0.037361618 -0.16896002 0.11555294 -0.21769077 -0.19925152 -0.02681184 -0.48632628 -0.18899325 0.007369005 -0.27275175 0.08902596 -0.078978926 0.075133264 -0.30362284 0.018699575 -0.04604764 0.16480261 -0.068397276 -0.07537091 0.07145966 -0.019083852 0.025737323 -0.16399576 -0.09350128 -0.25843212 -0.06306602 0.072417304 0.18054143 0.10607394 0.108837105 -0.06000683 -0.23988616 -0.16051382 -0.06370829 0.10440045 0.016004654 0.07078773 -0.042332508 0.18437591 0.048911367 -0.030934764 -0.101979665 0.026288632 0.16609754 -0.17018318 0.104998596 -0.043345485 0.0046874247 -0.14763643 -0.29782262 -0.051000625 -0.12570347 0.16679597 0.010233293 0.17454386 -0.09465959 0.098727085 0.09313399 0.09077401 0.031659003 -0.021175502 -0.01456062 0.09270028 -0.0077417595 0.19916114 0.113910966 -0.013246099 0.012690015 0.119925246 -0.008420815 0.0442478 -0.2950643 -0.1290675 -0.07245845 0.237771 0.072301656 -0.06053948
无 0.12905692 0.01588059 0.013363013 0.2320597 0.14328732 -0.11416593 -0.06958085 0.05934365 -0.010041058 0.014137244 -0.040387098 0.02903286 -0.07330422 -0.1800094 -0.11468087 -0.11465381 -0.020221446 -0.07196947 0.22811402 0.13958062 0.16741261 -0.16515312 -0.018914666 -0.17053351 -0.16617227 0.05633657 -0.15461788 0.13110606 -0.16518618 -0.09272138 -0.034681913 -0.06694421 0.01784298 -0.07023038 0.08845516 0.08435785 -0.33535382 -0.124817625 0.072812974 0.097050466 -0.33230066 0.011130493 0.13280854 -0.23939255 0.12822396 -0.14232898 -0.30688414 -0.4300374 -0.077345096 0.16768843 0.037154548 0.20759676 0.19447142 -0.17685382 0.122193724 -0.030440293 0.124561876 0.2528707 0.07211737 -0.050798092 -0.01609174 0.06914522 0.0038066837 -0.19174331 -0.26680377 0.18690573 -0.010635255 -0.11864701 0.08467816 -0.14061141 0.033559266 -0.03813896 0.25098667 -0.20360015 0.12246428 0.042222455 0.046941638 0.086940534 -0.011571445 -0.03256051 0.06541481 0.058025558 0.20485379 0.19621964 -0.024857912 0.12483475 0.016043248 0.12185115 0.048872255 0.05031303 -0.36522424 0.08944124 0.22723752 -0.027182933 -0.26025483 -0.13054211 -0.12579446 0.078555524 -0.0504083 0.0648354
则 0.028200151 0.14504178 -0.1124528 0.12063668 -0.090596616 -0.073055744 -0.065691255 -0.07535102 -0.14834867 0.100516684 0.13487257 0.023455886 -0.3512133 -0.22327545 0.06396067 -0.10399604 -0.033475537 -0.103683814 0.5213752 0.059833664 -0.18411814 -0.06877184 -0.1709648 -0.11657616 -0.129872 0.0980095 -0.104922764 0.16412053 0.014847172 0.08167523 -0.2004414 0.21995594 -0.036845837 -0.039955154 0.11812816 -0.10278368 -0.2066545 -0.06464526 0.1935271 0.01890452 -0.09224925 -0.07917981 0.3223692 -0.11815501 0.0055813882 -0.12657844 -0.3548188 -0.25649893 0.029525932 0.0417042 0.19692814 0.21523382 0.27432808 -0.15586375 0.05639756 0.063842185 0.0031941987 -0.07563122 0.18350857 -0.06346076 -0.006450353 -0.08735329 -0.037370913 -0.02101196 -0.28466755 0.057314664 0.3381599 -0.24388483 0.07071208 -0.075517386 -0.03656566 -0.022766523 -0.10483418 -0.08383195 -0.0031273763 -0.21845914 -0.061191108 0.1329412 -0.034887042 -0.02471588 -0.05067388 -0.016818838 0.22022367 0.11193133 0.03380451 -0.030817268 -0.14262661 -0.12335846 -0.07340502 0.01863408 0.33508423 -0.17808048 0.08147496 -0.12018941 0.12895796 0.02607487 -0.108131714 -0.032941632 -0.08037377 -0.023230538
！ -0.06263333 -0.10079505 -0.27467567 -0.18944946 0.09584766 -0.24251273 0.010201654 -0.23001951 0.16945647 -0.09724222 0.021587633 -0.021347132 -0.5472054 -0.37576494 -0.08151121 -0.3260554 0.21532625 -0.22132719 -0.5077698 0.2232775 -0.25120282 -0.2407202 -0.09658589 -0.29132527 -0.10381981 0.17003387 -0.2475416 0.024472937 -0.08932793 -0.27440843 0.08672905 0.19804883 -0.5088518 0.23145597 0.06665711 0.10185491 -0.16292025 0.018456824 -0.098860234 0.18206011 0.03321797 0.10251613 0.1452498 -0.4495607 0.038144927 -0.04624052 -0.048209403 -0.09656311 -0.41289923 -0.0021961245 0.06284602 0.015832266 0.16480048 -0.3671752 0.018004315 -0.06331462 0.23069628 0.52497524 0.08696491 -0.30048272 0.29364 -0.05097354 -0.062737375 0.032692675 -0.13872583 0.16352491 0.18982002 -0.34950832 -0.2404443 0.21983106 0.0067851716 0.044862144 -0.19154596 -0.08784459 -0.06558903 0.008120807 0.071563244 -0.102652945 0.11750218 -0.097759284 -0.10211107 -0.13495597 0.09345063 -0.40525714 -0.24181978 -0.20733057 0.17727914 0.109745964 0.06734529 -0.089883454 -0.04088154 -0.7023461 0.08505577 -0.23645648 -0.5612848 0.18866812 -0.18644193 0.17412251 -0.11682895 -0.30043364
问 -0.2796196 -0.24136482 -0.083819166 -0.060569108 0.08204446 0.19738139 -0.050605837 -0.049415078 0.09143278 0.0058831526 -0.021459801 0.11756714 -0.24015394 -0.18282205 0.086613685 -0.15786168 -0.32660684 -0.06433494 0.14438929 0.21003154 -0.11087457 0.2630015 0.0038519548 -0.23961636 -0.15989338 0.21888015 -0.08759189 0.05944039 -0.21710879 -0.25283232 -0.22089493 0.10734574 -0.018396692 -0.00031066057 0.111197375 -0.023101637 -0.21015052 -0.3690326 0.039379254 0.17805766 -0.0003644561 -0.06230641 0.08535856 0.17551613 0.14153656 -0.010665427 -0.2284875 0.118232526 -0.27338773 -0.030750534 -0.09904741 0.046017583 -0.055180468 -0.038112435 -0.12557955 -0.04452802 0.09512213 -0.00847906 0.0455742 0.019236814 0.2908683 -0.06750391 -0.15837425 0.17016788 -0.0378235 0.04386523 0.04075323 -0.16963133 -0.18298568 -0.07925054 -0.016698787 0.009438334 0.11849582 -0.12455383 -0.07688774 -0.13358659 -0.01431064 0.073435165 -0.048176758 0.00010695425 -0.09896043 -0.16257256 0.09170089 0.014071437 -0.043377038 -0.09344101 -0.05195945 0.17071594 -0.0716373 0.09260642 0.07644963 -0.26709107 0.09164401 -0.12628195 0.19477533 -0.13794956 -0.1587149 -0.015612933 -0.13434578 -0.21597113
知 -0.29032737 0.08013882 -0.08409126 0.04350419 0.0043877177 0.025931194 -0.053635724 -0.07231743 0.2550559 0.0099688005 -0.012998154 -0.0051516276 0.0016030231 -0.16619477 -0.043215856 -0.14838885 -0.2578332 -0.064548284 -0.25920948 0.22863537 -0.14577682 -0.12012419 -0.009578638 -0.14600952 -0.023692133 0.16449945 -0.15115677 0.17040531 -0.06847281 -0.086210266 -0.102052815 -0.019489579 -0.19760068 0.017943043 0.10349471 -0.21674736 -0.26854354 -0.12339796 0.14839727 0.12819122 -0.23788139 -0.058691923 0.016182572 0.0753813 0.1039406 -0.09691596 -0.27011898 0.036728214 -0.124840155 -0.009020617 0.024771608 -0.22817771 0.20228174 -0.21115218 0.2698267 -0.02064396 -0.015875706 0.08157727 0.1114688 -0.13218519 0.031018049 -0.033623543 -0.06800944 0.004532787 -0.11207694 0.07023749 0.05421851 -0.12510759 -0.0415902 -0.05996008 0.0017585836 -0.007415258 -0.0621606 -0.21000914 0.060002033 0.014960037 0.02155443 0.11075765 -0.15132627 -0.20987906 -0.0634588 -0.12758048 -0.0128126675 0.034326907 -0.047721278 -0.020961054 -0.056076482 0.1467729 -0.07440402 -0.0020429636 0.109791234 0.21342534 0.19803984 -0.026252538 0.0099431295 -0.19638905 -0.03738048 0.11002199 0.06891427 -0.055127013
何 -0.42728126 -0.15259215 -0.25015816 0.07001398 0.10986376 -0.22578321 -0.10345576 -0.08292935 0.5188377 -0.009316365 0.21337643 -0.1001483 -0.03297083 -0.13382164 -0.09308938 -0.19345452 -0.39770195 -0.08918635 0.77055126 0.19236957 0.16356765 -0.25732768 -0.22068267 0.13499646 0.19765876 0.3157429 -0.24889934 0.28787687 0.26318812 -0.28672686 -0.20138054 0.34071526 -0.3086184 -0.08558973 0.17131642 0.14215703 -0.33209565 0.26038128 0.14591941 0.211281 -0.1747439 -0.026734648 -0.3869082 -0.12661916 -0.035551433 -0.17627311 -0.6506154 0.24317507 -0.16162719 -0.089870065 -0.08341036 -0.26676333 0.32116425 -0.13012052 0.4461517 -0.032448422 0.21653832 -0.27301055 0.20595767 0.09151274 0.11886048 -0.070397966 -0.016898178 -0.032844387 -0.1690703 -0.016181845 0.13613869 -0.13935883 0.029899484 -0.23323372 -0.0129864495 0.021941444 -0.12529232 -0.21065067 -0.31615707 -0.29999682 0.10384656 -0.19022724 -0.20869958 -0.34341797 -0.0055294605 -0.0986389 -0.06581284 0.3066947 -0.07862458 -0.11883526 -0.3134872 0.1912373 -0.15948214 0.060045954 0.5446216 -0.33189502 0.2522611 -0.27689803 0.040601525 -0.2798924 -0.065091394 0.17582633 0.17134044 0.20233564
吾 0.22028421 0.14710446 -0.26270288 -0.039351497 0.06206089 0.16246752 0.0054005077 -0.06543809 0.38040018 -0.018145049 0.20659092 -0.20821038 0.075087234 -0.112660676 -0.06927907 -0.26060954 0.0984829 -0.14300464 0.12923019 0.17804365 -0.10261731 -0.20802714 -0.15574422 0.0789078 0.018521713 0.08095373 -0.17859772 0.17004563 0.09417482 0.23000227 -0.084126934 -0.0040865745 0.14047553 -0.025367564 0.104812525 -0.08184372 -0.078889854 0.20493719 0.18312736 -0.15148687 0.08828149 -0.09138236 -0.074509814 -0.1404029 0.03796824 -0.10618478 -0.4212941 0.0551377 -0.1623336 -0.08638697 0.09296968 -0.16243148 0.29822272 -0.11500412 0.30509946 0.022638312 -0.06750185 0.19173089 0.111980945 -0.07982167 0.057005834 -0.05573717 -0.1710053 -0.0021050503 -0.058121942 0.11414939 0.19463666 -0.059537448 -0.03151256 0.02446937 0.11259125 -0.040689394 -0.0698064 -0.19480099 -0.16685542 -0.028783502 -0.015857218 -0.14334042 -0.13230999 0.031624395 -0.17107968 -0.07153009 0.13246553 0.19076553 -0.06439116 -0.08916599 0.07481106 0.013019317 0.0876569 0.052143242 -0.17612721 -0.18649395 -0.17679925 0.022206532 -0.23430224 0.19061945 0.10769417 0.3051247 -0.015931455 0.09874101
仁 -0.0042847823 0.10810777 -0.15196492 0.23461097 0.06734681 0.26010403 0.062612526 -0.027716571 0.3463925 0.075997576 0.09958392 -0.16332005 -0.22879425 -0.15646017 0.009852349 -0.22993606 -0.18659224 -0.050592046 0.3715714 0.17706868 -0.14277937 0.5227378 -0.092845894 -0.17678465 0.058684777 0.110333875 -0.15662594 0.05629192 0.09128444 0.2804077 -0.024981655 -0.0016503958 -0.012139229 0.08760842 0.06283373 0.18456335 -0.090306826 -0.012265797 0.1790983 0.0979335 -0.04850576 -0.09774167 0.08700993 0.070253536 -0.033177704 -0.018960413 -0.15996051 0.0012478721 -0.20040454 -0.1941498 0.06562074 -0.018599205 0.12927923 -0.15721324 0.11624815 -0.05216315 0.11567381 0.062956154 0.11765102 0.095868014 0.433374 -0.011308873 -0.028572427 -0.0037843958 0.21680933 0.08595796 -0.06450219 -0.06442045 -0.11454683 -0.004988967 -0.06212755 0.020706786 -0.116732314 -0.085766114 -0.17959404 -0.15610816 0.10697326 0.049948223 -0.11958846 0.1542263 -0.12651242 -0.05316418 0.031922724 -0.011268768 -0.110924646 -0.16644804 -0.14512327 0.04165412 -0.047375116 0.053323098 0.26942742 -0.3342351 0.27865437 -0.047012627 0.041359268 -0.17816572 -0.13014314 0.23596673 0.050098877 -0.011357835
夫 -0.15462159 0.17253368 -0.1964742 0.01905437 0.015519403 -0.11292647 0.017584547 -0.07147992 0.40529478 0.16524412 0.0640689 0.004286426 0.08596747 -0.11899319 -0.044864513 -0.12314119 -0.4905286 -0.061571386 -0.39413315 0.28326097 -0.08067555 -0.07278858 -0.04797816 -0.15521981 0.05626979 0.14246675 -0.0803713 0.12643088 -0.06812157 0.2923618 0.07758457 0.07093632 0.0494168 -0.03805567 0.20997013 0.06445713 -0.1888257 -0.49744937 0.121160574 -0.056404322 -0.29343405 -0.07781345 -0.014785406 0.036258757 0.07778443 -0.049360886 -0.0137116555 -0.05146622 -0.19678925 -0.07089489 -0.17394136 -0.14817202 0.17682198 -0.1699895 0.18150145 -0.10701915 -0.040854424 0.19562739 0.035037912 -0.015097796 0.21534774 -0.091479935 -0.13199526 -0.09000634 -0.012794979 0.036958165 0.04337751 0.019235034 0.020833513 0.04143105 0.004098383 -0.04550366 0.03134218 -0.10464257 -0.09159913 -0.18098797 0.054778546 0.056559954 -0.15539545 -0.13368589 -0.080731586 -0.14981152 0.11842081 -0.0017258599 -0.018767519 -0.06481585 -0.187123 0.10857865 -0.08253923 -0.13718356 -0.08940624 0.089543454 0.3155692 -0.121655315 -0.026109118 -0.13522321 -0.037352774 0.12527959 -0.055275973 0.05559526
、 -0.20085526 0.17148824 -0.07083209 0.17851193 -0.032693706 -0.3150187 -0.012900167 -0.060797397 -0.0027344846 0.18232277 0.08199037 -0.026789444 0.03523248 -0.04096808 -0.06439707 -0.054693006 -0.3598617 0.023515167 -0.344972 0.13026471 0.2765511 -0.10398847 -0.19905457 -0.28917462 0.28935498 0.11029953 -0.13404328 0.20705374 -0.01695279 0.14843948 -0.026362577 -0.12231304 0.17180818 -0.03100165 0.23640004 0.036238465 -0.20029041 -0.08917888 0.1151235 0.11772196 -0.33107024 -0.12742844 -0.064363025 0.08191358 -0.068868786 -0.04456646 0.08892894 0.051137898 -0.07027491 -0.004684619 -0.15786195 -0.096559614 0.15958472 0.061672743 0.27544284 -0.18862869 0.030747628 0.1929409 -0.06758344 0.07684511 0.15874133 0.060020544 -0.17017403 -0.17617308 -0.13447484 0.027272945 -0.080116406 0.047953553 -0.11939884 -0.03986216 -0.09470482 -0.06369561 0.2984344 -0.14495672 -0.11393818 0.022688106 0.13966031 -0.13836782 -0.1810555 -0.034165997 -0.0807603 -0.005567776 -0.052758645 0.1734965 -0.05939334 -0.10318488 -0.33707938 0.18773547 0.014670622 -0.14511077 -0.21847688 -0.191224 0.34583077 -0.0988594 0.051205676 -0.2140904 -0.011145338 0.08830156 0.10944056 -0.03911401
道 0.12849663 0.17944713 -0.23240626 -0.035279468 0.272414 -0.028808562 -0.16511759 0.06267686 0.3937085 0.072071396 0.064303875 -0.16851911 0.25909975 -0.24533641 -0.26564744 -0.30602413 -0.6516477 0.14669052 0.2601592 0.4291457 0.46396345 -0.12944467 0.15176727 0.4784099 0.052718934 0.2382859 -0.18858793 0.2081437 0.3416984 0.45242107 0.14179616 0.17597395 -0.028820526 0.10519465 0.11372573 0.17838001 -0.29997933 0.028561365 0.19086172 -0.36770254 -0.27808425 0.09051201 0.46080813 0.16404279 -0.055173956 -0.34753206 -0.15519479 0.31100586 -0.20123369 -0.23260926 -0.1778454 -0.040086683 0.2674123 -0.26103002 0.2915569 0.06703143 0.009218697 -0.3417821 -0.08181956 0.034067415 0.061822813 0.3235893 -0.36983204 0.04905017 -0.22603083 -0.27912593 0.32967198 -0.028381372 0.23316024 -0.10877775 0.18262033 0.19706774 -0.41435444 -0.3532379 -0.17885722 -0.39109206 0.029720632 -0.40608928 -0.35405865 -0.27750733 0.1545645 -0.06525794 0.3401612 0.16240077 -0.08955237 0.057532694 -0.3569955 0.0511254 -0.07022537 -0.17518368 0.06772023 -0.24674477 0.68066853 -0.2809438 0.03871004 -0.22336182 0.02719806 0.026860049 0.35246214 0.39500254
焉 -0.0196274 -0.07819747 -0.011557844 -0.17932081 0.18396208 0.09828594 -0.013817536 0.03271555 -0.19976634 -0.096174486 -0.11636441 0.079410724 -0.030430043 -0.028807612 -0.0036777076 -0.182411 0.22681136 0.066781975 -0.12603894 0.32160243 -0.08787858 0.19951859 0.14157131 0.082203664 0.0017699585 0.08547461 -0.13088425 0.011668242 -0.031064004 0.20044272 -0.02103319 0.1102613 0.17993958 0.20651239 0.13181333 -0.05339038 -0.15956478 0.26494753 0.0856843 -0.13626882 -0.02369259 0.07230128 0.2383061 0.03963791 -0.061318092 -0.12932934 0.08517184 -0.16491361 -0.0037567741 -0.09944232 -0.0011689472 0.07724632 0.12819944 0.24159169 0.12103215 -0.1926117 -0.09191486 0.041834023 0.006954257 0.029533174 0.063349105 0.07783771 0.005052247 -0.1293971 0.0837285 -0.09527713 0.05823054 -0.07018931 -0.08719472 0.014698124 -0.09686227 0.17125157 -0.07258906 -0.18618295 0.19516435 -0.12048107 0.09207722 0.1854125 -0.23071006 0.05370276 0.07498301 -0.03388263 -0.03986453 0.026590403 -0.022870021 0.009618716 -0.058832984 0.083435744 0.107622914 -0.011838455 -0.09661248 0.12527633 0.30808738 -0.08939798 -0.29747844 -0.100233555 -0.14117494 -0.09507741 0.26509902 0.40671918
行 -0.07214391 0.3201223 -0.17249583 -0.20372747 0.0839576 0.16308977 -0.047417507 -0.16088842 -0.069493555 0.16010731 -0.11168743 -0.072085485 0.06769495 -0.04041758 -0.19534476 -0.060210787 -0.16846147 0.021532781 -0.37433922 0.3261037 0.28265136 -0.04285401 0.018616626 0.25434014 -0.120367855 0.16739789 -0.08738746 0.043649275 -0.07875964 -0.27208805 0.06720091 0.13832702 0.24257997 -0.021435654 0.15851583 -0.22616534 0.009189154 -0.22083324 -0.02907445 -0.1908653 0.06159222 0.09120311 0.24349366 -0.16071238 0.16734627 -0.10042158 0.16438103 -0.12567613 -0.09941514 -0.102895044 -0.17033389 -0.13508624 0.06429782 0.16295293 0.24052182 -0.09055042 0.06328388 0.20191796 0.0216045 -0.030931704 0.16113235 0.20816627 -0.03542867 -0.12231587 0.039369345 0.05548826 0.13903874 0.06690239 0.06713501 0.13761312 0.05548077 -0.06319711 -0.17596541 -0.2503677 0.20665644 -0.20426106 0.14759341 -0.2092952 -0.16650467 -0.13590011 0.032431614 -0.040155653 0.0721851 0.23145996 0.078400195 -0.11757923 0.05061179 0.085332364 -0.015478376 0.071419455 -0.37564486 -0.27807638 0.16323105 -0.083509386 0.086624436 0.002048925 -0.081419446 -0.06610199 0.004251023 0.09372902
谓 -0.33335403 -0.16551745 0.10973218 -0.21465595 0.35499543 -0.0607753 -0.32585663 -0.24274057 -0.6687105 0.37085867 -0.1598994 0.25084582 0.18716967 0.35031104 -0.4111658 0.12103607 0.23947598 -0.2314757 -0.58404785 0.39354074 0.11729419 0.12031858 0.043393698 0.11151294 0.17246518 -0.07808029 -0.2798074 0.13715388 -0.21797502 -0.24269453 -0.22433223 -0.13637675 0.4343863 -0.021636806 0.3585681 -0.086433165 0.069964156 -0.24287036 0.12542026 -0.1985473 -0.036292393 0.05193871 -0.17783931 -0.040525988 0.010597688 -0.03791103 -0.06928203 -0.35396987 0.2130875 0.07676156 0.27891278 0.29332277 -0.2438439 0.20402944 -0.0027868303 0.025008807 0.15478928 0.5018211 -0.22809093 0.018527303 0.32458955 0.3559863 -0.2727227 -0.31698686 0.06300394 0.15857583 0.39651027 -0.24919951 -0.3106385 0.15508895 0.10026664 -0.100837186 0.28241742 -0.020041358 0.22468546 -0.024479656 0.027598493 -0.047496583 0.051601294 0.08741782 0.15504876 0.028265249 -0.22011077 -0.13769478 -0.058252726 0.163758 0.4333824 0.21004172 -0.06176606 0.18304494 -0.4237036 -0.106071554 0.020333853 0.08345868 -0.14845571 -0.08565199 -0.17995682 -0.33274865 -0.11013971 -0.33734035
必 -0.31862044 0.098800674 -0.02350446 0.19987206 0.25645527 -0.08092957 -0.12926917 -0.020110443 -0.41380984 0.072262175 0.035958372 0.037811626 0.09563772 -0.0313224 -0.29095677 -0.021592863 -0.3359425 -0.100928545 -0.005178094 0.23523808 0.18945812 -0.17102711 -0.10016684 0.2853588 -0.06465994 0.08215359 -0.15241122 0.15876059 0.27239412 0.0071157077 -0.004864548 0.041112673 -0.019737631 0.051416703 0.2463768 -0.09779168 -0.006084947 -0.123742916 0.19264291 -0.010336383 0.13655594 -0.2420794 0.06309012 0.13628046 -0.002905441 -0.2320061 0.07261126 0.08372587 -0.07685796 -0.050202005 -0.14338276 0.25135717 0.13153851 0.22586931 -0.04542066 -0.16709352 0.21557683 0.0029942298 0.09119327 -0.05538608 0.18737985 0.34266692 -0.035003126 -0.045046315 0.010409564 -0.0071272384 0.2604991 -0.021353442 0.12693448 -0.07275227 0.15635197 -0.19727166 -0.18349355 -0.1974147 0.06852363 -0.26570162 0.040676177 0.060892474 -0.05360687 -0.2350486 0.15651342 -0.029202256 -0.2113009 -0.4210305 0.12451674 0.066257685 -0.04477193 0.07253456 -0.07609757 0.010674311 -0.46338302 -0.07216936 -0.016641602 -0.14419046 0.48941806 -0.1140595 0.14786918 -0.07628336 -0.4208418 -0.15057641
礼 -0.21039872 -0.32383677 0.027217267 -0.10469394 0.19155613 0.045139994 -0.111335024 -0.09608308 -0.45226055 0.066740684 -0.09946274 -0.013339547 0.08249531 0.019754473 -0.21146823 -0.04710196 0.24331445 -0.030395905 -0.39583543 0.30879644 0.17527196 0.026389142 -0.12763087 0.4832522 -0.035523865 0.116295196 -0.14133139 0.08838392 0.03239991 -0.1790207 -0.1606249 -0.23671007 0.030394945 0.2684889 0.21461129 -0.01666261 -0.04866808 -0.2523334 0.16292658 -0.055975366 -0.0041736416 -0.013797747 0.28628156 -0.1104195 0.024961783 -0.18457055 0.27943662 -0.23623534 -0.17021614 0.070012964 -0.00058799435 -0.053197384 0.022858828 0.2815517 -0.07278961 0.056682725 0.1262223 0.24581814 -0.054747347 0.03450722 0.06560242 0.3021918 -0.05816431 -0.066227615 0.023587823 0.0477179 0.15996572 -0.048293635 -0.037064124 -0.022459237 0.11066761 -0.0069705104 -0.25964564 -0.18330981 0.012886899 -0.10385117 -0.007907172 0.069247186 -0.13611446 -0.045834225 0.22820811 -0.08881351 -0.19193457 -0.109192766 0.012781448 0.085477106 0.01621629 0.10884336 0.0732158 0.008858161 -0.08023844 0.09743115 0.055532202 -0.03258569 0.21148479 -0.09741326 -0.054329883 -0.09087902 -0.13236874 -0.21727788
孔 0.050858695 -0.3035989 -0.21065125 -0.0677014 0.102030754 0.2294738 -0.039272435 -0.1350877 -0.31031683 -0.049954146 -0.09488249 -0.023945348 -0.07693159 0.04662904 -0.15211196 -0.18041545 0.395326 0.07799171 -0.42128104 0.303662 0.36631233 0.14430153 0.052622005 0.51256996 -0.19509421 0.033821817 0.051989242 0.09516452 0.1170367 0.03206122 -0.006486036 0.14426212 0.08687412 -0.11226286 0.14673749 -0.077968545 0.09380804 -0.50370777 -0.0066938773 -0.10911423 0.048770435 -0.011025807 -0.26350194 -0.36238185 0.22453058 -0.12588033 0.45269784 0.040591 -0.16166832 -0.2759148 0.009016169 -0.014560315 -0.044779792 0.35362896 0.10058626 0.067361586 0.22825342 0.30945995 0.015665261 -0.09297235 0.046210192 0.2637109 -0.0077035273 -0.1429043 0.062942 0.010704147 0.2529701 -0.031194376 -0.19787839 0.03487453 0.23845072 -0.00853787 0.16505812 -0.12580043 0.09483303 -0.21518278 0.1455223 -0.18522406 -0.06079504 0.065708764 0.27092648 0.0103346 -0.063937835 0.113462426 0.102951646 -0.019815661 0.09219903 -0.02621966 -0.051854685 -0.09967269 -0.28182626 -0.1514144 0.36346462 0.07784272 0.029573072 -0.014826243 0.04839704 -0.15079089 -0.08099878 -0.08702011
斯 0.013088449 -0.23800734 -0.116545804 -0.122850336 0.19206476 0.16166016 -0.21309912 -0.1439703 -0.237577 -0.03281269 -0.16026141 -0.09422276 -0.11026248 0.07704898 -0.02396387 -0.09916588 0.10514298 -0.045304604 -0.45312807 0.10892366 0.279782 0.20552911 -0.07784015 0.22086826 -0.16075933 -0.1001546 -0.2857707 0.19359078 0.026047952 -0.1400273 0.018506981 0.14107734 -0.100118704 0.012873638 0.15262422 -0.0359722 0.101101235 -0.057694662 0.07361459 0.005838969 -0.08600004 -0.014796487 0.25519368 -0.16994704 0.11612773 -0.069154926 0.053702217 -0.17708363 -0.11754824 -0.12783153 0.032666054 0.041087594 0.14009672 0.04269921 0.028032955 0.11707333 0.21461822 0.14774929 0.20904666 0.17344162 0.07252938 0.29592556 0.16791433 -0.15295628 -0.05689452 0.15800855 0.1952263 -0.06893764 -0.1850413 0.00090169074 0.18734455 -0.0058894437 -0.010429157 -0.09488049 0.15216579 -0.020079339 0.08721717 -0.03936614 -0.029004006 -0.2642716 0.278462 -0.17564467 -0.23396692 -0.0073541286 -0.06951619 0.006665702 0.046774924 0.022620583 -0.09678273 -0.023595644 -0.33627334 0.1633371 0.19364664 -0.08290272 -0.2849037 0.17871201 -0.19839141 -0.22852018 -0.19992657 -0.1839828
三 0.08985853 -0.90881944 -0.39414343 0.03785703 0.29911926 0.42323375 -0.6746456 -0.4859326 -0.46198574 -0.25763687 -0.20723748 -0.26243573 0.42885727 0.007886825 -0.34946957 0.103989065 -0.33893386 0.19865595 -0.04908094 0.27640653 -0.16053863 0.40444916 -0.18953986 0.87793094 -0.11166235 0.033305667 -0.38221386 0.11871383 -0.034038242 -0.3320368 0.0021765404 0.4214602 -0.10012643 0.01531629 0.30237284 -0.06824563 -0.25674108 -0.36962897 -0.2159225 -0.0641635 0.33743295 -0.34231016 -0.10745398 -0.05318363 0.5317797 -0.29612374 0.25457582 -0.072498016 -0.48893112 -0.65240383 -0.30899632 0.31035614 0.123402946 -0.11980453 0.1825245 0.58052456 0.77059203 0.07478598 0.4859885 0.3810919 0.34386677 0.3183059 -0.023211014 -0.20140816 0.4775971 0.3578704 0.5534585 -0.22468321 -0.43146822 -0.32152697 0.51842725 -0.0015361471 0.23006387 0.1332837 -0.015420666 0.013773486 0.48993355 0.289703 -0.15924765 -0.09955868 0.82183033 -0.09615915 -0.20292474 -0.13701254 0.13989787 0.017081883 0.15973732 -0.08164784 -0.35487387 0.27479845 -0.09074765 -0.33465338 0.4379706 -0.46012837 0.13616534 0.06100641 -0.5273256 -0.24493514 -0.15471801 0.07828349
能 -0.1458892 -0.34408462 -0.08344311 -0.11065517 0.099373735 0.25146762 -0.06713198 -0.11388769 -0.14580826 -0.16514507 0.004604225 -0.17755888 0.11337667 0.04809444 0.012715619 -0.07705926 -0.3132393 -0.0067969253 -0.3097313 0.23764935 -0.28188613 0.32527256 -0.23701087 0.18285754 0.052156527 -0.19217668 -0.14303392 -0.0009908379 -0.060414344 -0.030900655 -0.005819332 0.099202916 -0.18751065 -0.13301657 0.14162546 -0.16399416 0.11894271 -0.25937408 -0.11502615 -0.029732544 -0.03699021 0.023857772 0.06407146 -0.36683828 0.24546283 -0.07398904 0.46937793 -0.20822525 0.002971941 -0.083661705 0.099133 -0.045439318 0.009262035 0.13146402 0.06633525 0.048051078 0.24046607 0.3132825 0.2200852 0.020681757 -0.16196789 0.082558304 0.04556572 -0.14487094 -0.04384339 -0.020000253 0.07142213 -0.030970184 -0.19880988 0.026000824 0.24085034 -0.042234797 -0.26344427 -0.036238816 0.023018995 0.19549392 0.09495405 0.17661656 0.07612021 -0.09146998 0.30740124 -0.15355621 -0.3508883 -0.23621789 -0.11976435 0.11766662 0.21289566 -0.1397507 -0.039627295 0.018756598 -0.16570592 0.46706727 -0.03934663 -0.16625302 -0.05548555 -0.031560704 -0.101598985 -0.14101999 -0.07428171 0.044100214
见 0.10192834 0.073115855 -0.33183926 -0.12986542 -0.0033031513 0.26562518 -0.05196328 -0.095434844 -0.063743345 0.030369997 -0.06905134 -0.13581577 0.092261456 -0.21552467 0.0025049252 0.184265 0.18084478 0.019631572 0.50001967 0.20352307 0.21838655 0.31500962 -0.19900341 -0.19319421 -0.16194971 0.021769376 -0.13994801 0.116907306 0.05384859 -0.24986616 0.038793493 0.15304749 0.24915145 -0.25491413 0.23758021 -0.4047125 0.009853971 -0.15105858 -0.09673464 -0.16037868 0.056155324 0.012879672 -0.018716944 -0.31897274 0.087129205 -0.11446188 0.034454767 -0.15010443 -0.16669261 -0.14693968 -0.17723411 -0.049206313 -0.026976941 0.13939483 0.2750387 0.035639603 0.2588095 -0.2101172 0.062050752 0.12692527 0.1834562 0.0032343664 -0.010962505 -0.14415684 0.04415865 0.051730234 -0.04714713 -0.0819079 -0.08610555 0.023107646 0.27970257 0.006834287 -0.3042732 -0.112305075 0.29369006 -0.048061304 0.20035042 -0.20206068 0.015486707 -0.09943217 0.07777625 -0.07453036 -0.034633 -0.049170867 -0.009808412 0.02206302 0.0065933075 -0.036663778 -0.019989423 0.039697338 -0.082278594 0.24104644 -0.044316966 0.0022541578 -0.06992855 0.16556321 0.019720715 -0.16108151 -0.053125612 -0.13703382
学 -0.05289857 -0.12398108 -0.26117396 -0.30606043 0.283101 -0.16468708 -0.1945085 -0.23862675 -0.2674898 -0.09808026 0.118089676 -0.3429576 -0.14152879 -0.19777061 -0.13178448 -0.24894552 -0.35622445 -0.12343415 0.2827654 0.18334529 0.44858366 -0.09230757 -0.2601472 0.26661566 -0.042759143 -0.0779698 -0.19932777 0.3128022 0.12179633 -0.35324308 0.044996966 0.31355235 -0.08493775 0.2913087 0.24472037 0.02819201 0.035865873 0.21886879 -0.26899385 -0.2031177 0.43058297 0.23231906 -0.12916349 -0.45650515 0.14116521 -0.087137625 0.75587815 0.11579109 -0.19367346 -0.23070575 0.16147934 -0.08509863 0.2913431 0.41314784 0.23154116 -0.17314336 0.25547063 0.5322177 0.2291167 0.28054887 -0.24172609 0.0050187167 0.11424959 -0.3377281 -0.2706329 -0.1507142 0.24916798 -0.1300225 -0.058181178 0.005085396 0.30044013 -0.013242846 -0.4408618 -0.15020204 0.1259276 -0.12784113 0.30244952 -0.086735874 0.001096617 -0.28956345 0.085578285 -0.20237482 -0.22327399 0.08177003 -0.2215318 -0.1646478 -0.19355325 -0.03919199 -0.22008198 -0.106736526 0.33460975 -0.39974305 0.048207387 -0.27210596 -0.5186171 0.3687011 -0.24400416 0.23228066 0.14973933 0.3087084
事 0.18404776 -0.014701492 -0.15186991 -0.05728735 0.11166453 0.04287752 -0.07790134 -0.12343455 -0.5129733 -0.04111416 0.004725772 -0.13253465 0.16156486 -0.058198527 -0.14831278 -0.1530996 -0.011328607 0.00088044535 0.3408719 0.009189438 0.39976323 0.050296627 -0.10214113 0.15489836 -0.13171722 -0.0693855 -0.12903354 0.056301545 -0.18394972 0.24277975 0.13369782 0.09939046 0.017481593 0.026024848 0.07465779 0.15826936 -0.0607626 -0.13631465 -0.24505156 -0.14001943 -0.15645596 0.16001809 0.1472705 0.007933729 0.19683617 0.03809959 -0.09015339 0.06443906 -0.23905131 -0.07642873 0.0034920268 0.33282694 -0.047753997 -0.1046766 0.1640851 -0.06159881 0.15748973 0.32230538 0.036709297 0.1936063 -0.076303065 0.01984763 -0.00054553524 -0.26277637 0.044858813 0.028641414 0.027578276 -0.18879783 -0.2469661 -0.09590809 0.078613564 -0.11959608 -0.1657404 -0.08500855 0.0019702609 0.05425864 0.2651879 0.14454949 0.13489056 0.17423883 -0.006366535 -0.12656689 -0.007105691 -0.22500467 -0.06161018 -0.11597512 -0.028731117 -0.14667548 -0.16277306 0.02461962 0.314122 0.040867504 0.35921085 -0.04755845 -0.3828516 -0.10646806 -0.22732097 0.20972018 0.17431417 0.25474268
是 0.27119258 0.14265898 -0.22691256 -0.14110073 -0.020676533 0.093563445 -0.0753153 -0.16161346 -0.10325252 0.14837068 0.19530684 -0.112571046 0.06346042 -0.066423886 0.04334237 -0.09681736 -0.09248106 -0.10451011 0.44341165 0.01776348 -0.102573626 0.01782592 0.011554056 -0.01725886 0.049579553 -0.09578314 -0.18690085 0.11905973 -0.10807508 0.24381004 0.07193448 0.030985586 0.17633034 -0.006612863 0.13342936 -0.10429651 0.07169434 0.1383718 -0.11314476 -0.0056648906 0.20648436 0.02691605 -0.23891345 -0.399478 0.140595 0.046586797 -0.04954967 0.17864129 -0.033867706 0.07856471 -0.22508705 -0.12482393 0.14845145 -0.12499625 0.028020982 -0.19635892 0.28487408 0.29922494 0.08736237 0.16883852 -0.12938173 -0.11975848 -0.05408816 -0.10540219 -0.19425093 -0.2195458 0.048124637 -0.15258126 -0.08436838 0.04914234 0.23072194 -0.18443918 -0.41383013 -0.08198462 0.034748197 0.023692116 0.19719113 0.031029562 0.09673351 0.24328184 -0.2541549 -0.23002778 -0.20569704 -0.19531775 -0.2562352 -0.111353904 0.07105999 0.047652498 -0.18823226 0.0726442 0.23236845 -0.15771432 -0.17515022 -0.05159875 0.2893999 0.098907046 -0.11057788 0.024981413 -0.21404971 0.26736915
哉 0.13160403 0.15963696 0.0010206595 0.083968155 0.03234164 0.012595132 -0.029982157 -0.08423982 -0.20447594 0.07896501 0.10899514 -0.18211992 0.16546963 -0.037088383 0.0680443 0.083798036 0.13822755 -0.09368039 0.39350522 0.058854215 0.17145023 -0.004279902 -0.08765651 -0.48389798 -0.027940292 -0.09238843 -0.13658945 0.09668641 -0.12715317 0.23086639 0.073205106 -0.096378125 0.16678181 -0.11678226 0.156634 0.031613003 0.19836332 -0.14164738 0.09993673 -0.022129035 -0.22149576 0.092543595 -0.25961608 -0.08903252 0.073474735 0.021554608 -0.53486055 -0.028668046 -0.056232158 -0.0446166 -0.02132127 -0.033921182 0.04131773 0.20031412 -0.14093956 -0.1325723 0.116436064 0.3540043 -0.00658972 0.017863771 0.017126461 0.065686606 0.06891458 -0.120752424 -0.018668285 -0.09963241 -0.16528471 -0.13674729 -0.1122915 -0.1145609 -0.0065806527 0.003290254 -0.27282277 -0.148724 0.020349363 0.015416774 0.30231652 -0.030167865 0.06344275 0.3700399 0.08698643 -0.14841068 -0.20180741 -0.18109018 -0.19928554 -0.13481621 -0.02126399 -0.0015011979 -0.0650277 -0.037753932 -0.51740485 0.44572282 0.10855297 0.011959334 0.37146425 0.1739402 -0.038799882 0.16342074 0.19614327 0.43086922
闻 -0.050632697 0.27725917 -0.15056135 -0.18279321 -0.04170978 -0.20961016 -0.12352216 -0.16981801 -0.2693749 0.20655684 0.159184 -0.18638748 0.18016699 -0.065526634 0.111489326 -0.029141655 0.0046884567 -0.11752997 0.22372109 0.021162838 0.3586671 -0.23618092 -0.11173896 -0.21107699 -0.007876782 0.03336989 -0.092542514 -0.07014478 0.044334464 0.16459395 0.10280327 -0.0008128912 0.2945649 0.24687451 0.17475969 -0.07087759 0.028906204 0.20869617 -0.038711444 -0.21017337 -0.07235165 0.3267784 0.3177652 -0.22932537 0.108977795 -0.014573997 -0.21166596 0.033998985 0.0034673912 0.3142839 -0.16346367 -0.17678942 0.06157486 0.20362307 0.13235712 -0.18387571 -0.029726908 0.28282675 0.16297835 0.111130625 -0.27843228 -0.10885345 0.10841464 0.024576465 -0.16813785 -0.26178676 0.061706465 -0.19608949 -0.020502003 -0.046893083 0.093527004 0.07684511 0.044985317 -0.14510071 0.008636344 0.017539537 0.21220075 -0.058442466 0.033160903 0.036759 -0.09839641 -0.054822937 -0.08083689 -0.112095 -0.20536959 -0.08182675 -0.10831834 -0.07065176 -0.08984971 -0.036544625 0.08162797 -0.100928105 -0.11218287 0.13724802 -0.26826465 -0.07210742 -0.11081487 0.035201903 0.07047475 0.26606655
未 0.04360454 0.0472953 -0.021371242 -0.15792522 0.0644573 -0.27018148 -0.12121295 -0.23749243 -0.35730216 0.19915803 0.15890925 -0.2729179 -0.278236 -0.23921305 -0.021957869 -0.26795748 0.61331236 0.044729985 -0.5458695 0.10804985 0.25575575 -0.3237352 -0.112221695 -0.118570924 -0.12502028 -0.21717556 -0.15587208 0.0543849 -0.16651407 0.39382023 0.06997535 0.14591272 0.08075103 0.30881506 0.3453518 0.066760466 0.090428434 0.010003898 -0.38412145 0.0926815 0.15528314 0.30932847 0.44704166 -0.64300036 0.32566473 0.05897436 0.3597482 -0.17390396 0.16729143 0.16711481 0.14645702 0.2625707 0.23405407 0.58948034 -0.07492243 -0.232084 0.16346258 0.8049298 0.05997266 -0.011522842 -0.07522991 -0.101652436 -0.26292527 -0.19678703 -0.24835835 -0.3237821 0.34138945 -0.2341011 -0.21525984 -0.09801917 0.0831969 -0.122589536 0.0065576546 -0.18193702 -0.009266753 0.03662594 0.3780407 0.5431674 0.09696732 0.46714494 -0.15879561 -0.21688804 -0.007384869 -0.20432273 -0.16328867 -0.043985896 -0.2925025 -0.39549455 -0.3422216 -0.06801013 0.16792071 -0.33994803 -0.08858816 -0.017502587 -0.45220688 0.14836514 -0.3254035 0.44602826 0.2848906 -0.0047988994
公 0.019213634 0.21978042 0.015111626 -0.028260909 0.028327566 -0.13380064 0.085372694 -0.21180359 0.09782688 0.15618655 0.11942079 -0.16692115 0.12804198 -0.17530225 0.00032950542 -0.33398435 0.24341096 0.047365017 0.2483971 0.07457654 0.074542016 -0.33558643 -0.06937923 -0.08219908 0.034358867 0.093400836 -0.17569706 0.011312159 -0.056353554 0.36607963 0.18472292 -0.02348342 0.027516585 0.15747647 0.113822885 0.2830338 0.2076093 -0.1529536 0.062396754 0.09938742 -0.16815805 0.19833858 0.31016925 -0.34063008 0.029225968 0.0054409346 -0.08414863 -5.2807387e-05 -0.051501848 0.062643774 0.29800278 0.28313562 0.0034369766 0.12568483 -0.23041254 -0.11210863 -0.010164934 -0.10868242 0.06749453 0.054246627 -0.1492673 -0.03645547 -0.23867187 -0.15761392 -0.12793979 -0.273284 0.08495499 -0.17259708 -0.008434687 -0.16326277 0.025293669 -0.044813793 -0.006223674 -0.036846165 -0.044501565 0.07324182 0.21411164 0.043679122 -0.030916486 0.2623651 -0.06269494 -0.20434041 -0.05589123 -0.34874198 -0.21880649 -0.10024269 -0.1369179 -0.03688153 -0.15618488 0.04493944 -0.22725749 0.04177432 -0.096523575 0.097653896 -0.2612423 -0.007201869 -0.23844695 0.35592186 0.102145664 0.14540498
好 0.19721858 -0.061712593 -0.07722252 -0.05130095 0.03548054 -0.27982938 0.11976935 -0.04915534 -0.017046632 0.22495148 -0.12846936 -0.12249365 -0.020345664 -0.09884913 -0.18211107 -0.17440213 0.4780869 0.01065821 -0.09078924 0.1682261 0.25422877 -0.07251606 0.017725471 -0.07180341 0.0006384086 -0.036567986 -0.24166635 -0.055156186 0.061655793 -0.05700248 0.018679218 -0.22067341 0.2811387 0.063994184 0.083429106 0.33379602 0.22461824 0.21893361 -0.17634694 0.06285788 -0.17643322 0.30820674 0.17559563 -0.2208361 0.088931456 -0.014444964 -0.4598008 0.08381033 0.029253438 0.14342567 0.0961352 0.0064151892 0.110059 -0.023734821 0.066001505 -0.036255036 0.046023894 -0.11845859 -0.0056739883 0.07334887 0.19369693 0.099647634 0.038616713 -0.15078866 -0.11027569 -0.13151553 0.09159717 -0.14746916 -0.027053755 -0.028388113 -0.13397522 -0.14362691 -0.055754557 -0.23662747 -0.2013947 -0.03843602 0.1838719 0.028959986 -0.10914431 0.11570979 -0.25696456 0.010269588 0.06501866 -0.17843324 -0.1086792 -0.3194356 -0.11901063 0.013463639 -0.03935357 0.041624654 -0.19121836 -0.10292838 -0.3102997 0.10057768 -0.15769328 0.123950586 -0.0009130129 0.42620325 0.10452066 -0.05417343
我 0.06583717 0.10792237 -0.34868708 -0.01930267 0.18205166 -0.39529055 -0.18940793 -0.09827728 0.035007395 0.21487871 0.16754615 -0.18885122 -0.3971637 -0.29142153 -0.12332127 -0.21205406 -0.1963832 0.11072388 0.4334595 0.18255682 0.035905786 0.084531166 -0.19442607 -0.6933982 -0.012606175 0.15137085 -0.25622737 -0.010026736 0.3188571 0.35933307 -0.26626593 -0.56064945 0.10158475 0.35195217 0.22391535 0.4130793 -0.25875583 0.34319717 -0.2908398 0.20925072 0.084449716 0.5587193 0.14044183 -0.23306601 0.0615135 -0.23101278 -0.36654437 0.20777163 -0.043722562 0.27007666 0.29568988 -0.16454776 0.37019828 0.23022905 0.05134429 0.1249579 0.24166545 -0.14592741 0.29936525 0.23218377 -0.072266735 0.12234204 0.019115701 0.31346008 -0.4033469 -0.38440531 0.35290518 -0.3356812 0.015134527 -0.17987312 -0.07909566 0.41336775 0.23624405 -0.31830558 -0.32995838 -0.2269731 0.09615071 0.2516181 0.03533794 0.010084714 0.19134372 0.11803323 0.084611356 -0.042923965 -0.28858462 -0.4081022 -0.26328465 0.11664214 -0.2582065 -0.17118907 0.04377642 -0.35572875 -0.19282643 -0.21371543 -0.27663946 -0.23629327 -0.36294982 0.07171646 0.21629544 0.40529037
路 -0.074971415 0.16303854 -0.11183908 0.19914284 -0.041267738 -0.2547067 -0.06705057 -0.035848744 0.16589618 0.2393835 0.019096179 -0.05992888 0.08913332 -0.27330106 -0.14276958 -0.06763532 0.42494425 0.045664184 -0.36261573 -0.009832886 -0.46856326 0.049086303 -0.011160875 -0.33195046 -0.016216349 0.10678963 -0.17442206 -0.10795435 -0.0707395 0.08331591 -0.088820204 -0.17785488 -0.018345563 0.12488785 0.23493835 0.13819738 0.24978863 -0.1743044 0.00397136 0.26179788 -0.12008642 0.123777285 0.36105278 0.11250777 -0.065395325 -0.19271894 -0.0593449 -0.014368136 0.1554649 0.050575804 -0.010441858 0.12362271 0.22595063 -0.23836501 -0.034724828 0.07490799 0.029663948 0.079326645 0.18516989 -0.0098097585 0.13596304 0.15720569 -0.057944868 0.046132434 0.16873875 -0.18651977 0.05180753 -0.08221315 -0.036852423 -0.13182952 -0.07125047 0.1798233 0.06793557 -0.1320802 -0.25279373 0.12372399 0.14830787 0.12769166 -0.09912717 0.008061576 0.0007030943 0.07308225 0.09066561 -0.3537116 -0.084232524 -0.1792617 -0.3150346 0.023861514 -0.10842979 0.028315056 -0.4464962 -0.19057345 -0.4150244 -0.1087567 0.0506429 -0.055884555 -0.28148925 0.28875518 0.12319564 0.11328814
在 -0.21124133 0.03534089 -0.12204464 0.1393813 0.10509161 -0.2812648 -0.03680986 -0.1225635 0.24900852 0.239287 0.014003258 -0.102995634 -0.25220358 -0.18092397 -0.11038319 -0.06801738 0.34844083 0.09062446 0.03283834 0.10414752 -0.028126827 -0.061981764 -0.060400747 -0.20011294 -0.055727847 0.21005131 -0.08467392 -0.03548603 0.23313893 -0.12663291 -0.08376354 -0.195449 -0.12924805 -0.114991546 0.19093254 -0.011890526 0.091329336 -0.3640431 0.013244928 0.18436852 0.15804046 0.117978305 0.33852032 0.1140776 0.007864941 -0.18783602 -0.12225946 0.03628517 0.050277464 0.12895267 -0.0134692015 0.14801759 0.027545251 0.19781542 -0.17540976 0.010153581 -0.02284929 0.38105434 0.08266653 -0.07331881 0.14723751 0.08391565 -0.1929863 0.2180036 0.020921217 -0.28532448 0.12891325 0.048536263 -0.09019272 0.024142727 -0.07103006 0.3500936 0.085287176 -0.18203688 -0.090739444 0.038239032 0.065007865 0.07248201 -0.10951812 0.24838239 -0.1950165 0.061459932 0.13829096 -0.120507054 -0.008138002 -0.12523344 -0.2664524 0.12620984 -0.21825303 0.11258336 -0.29894748 0.07993616 -0.34350476 -0.30017897 -0.28327802 -0.14220978 -0.15986781 0.2552323 -0.035281606 -0.19827026
已 -0.01774561 0.07274871 0.07257936 0.1839209 0.18052667 0.110952325 -0.07506966 -0.15481573 0.09652848 0.07282218 -0.07100636 -0.17878915 -0.0030559343 -0.3420723 -0.047927078 -0.13486141 0.13208693 0.08416092 -0.067333765 0.19062574 -0.19654664 -0.0063398555 -0.081120096 0.021915961 -0.044266485 -0.06692194 -0.21329047 0.11725537 0.048146944 -0.17344104 0.21397083 -0.23723155 0.052268706 -0.10617805 0.057051383 0.18235615 -0.074051626 0.044688232 0.13805234 0.09166616 0.02153831 -0.15257907 0.20135115 0.041757017 0.10352861 -0.12474314 0.046485484 0.14362717 -0.12465107 0.06291219 0.079086155 0.07226162 0.18376271 0.17234927 -0.10478638 0.2532532 -0.02768576 -0.4101876 0.20143813 -0.012699408 0.11556713 0.11950112 -0.15769035 0.12998213 -0.12116949 -0.12359475 0.15087014 -0.15693116 0.032231852 -0.048337616 0.07105838 0.2977336 -0.044616126 -0.14514948 -0.044385694 -0.08043657 0.13967223 0.06823015 -0.21750425 -0.1429154 -0.1228708 0.07026768 0.13640748 -0.23301679 -0.08390921 -0.081438 -0.16056919 -0.058585536 -0.1220165 0.021165593 -0.18461227 0.10862544 -0.03772681 -0.11803968 0.038213156 -0.10759848 -0.24774116 0.2038554 0.03295559 0.10538698
得 0.21556729 0.08920444 -0.28471684 0.16852188 0.24758995 -0.18265294 0.02783687 -0.0016749748 -0.27094078 0.17420894 -0.07404131 -0.08714446 0.053797416 -0.34832662 -0.13072167 -0.08002071 0.101122595 0.035129096 -0.32818413 0.23599966 -0.23322988 0.15249076 -0.07806808 -0.27187485 -0.016391072 0.16640076 -0.11842044 -0.05212633 0.17444623 0.26315412 0.015411913 -0.23962475 -0.14602916 -0.27885482 0.0969777 0.06911098 -0.098878816 -0.18054442 0.114194125 -0.0003541524 -0.21316484 0.27381998 0.30939147 0.22495371 -0.045202464 -0.22594392 -0.2210475 0.20430139 -0.10531096 0.093255155 -0.10084949 0.13906108 0.12751782 -0.09678874 -0.035781372 0.14360327 -0.14932159 -0.2440085 0.29491085 -0.032397676 0.14463983 0.14153206 -0.18024299 0.16381384 -0.10535486 -0.13579074 0.08373073 -0.08655107 -0.27163962 -0.01779018 -0.10180415 0.39544338 0.23251 -0.046309527 -0.20747148 0.0019933518 0.11797778 -0.054347057 -0.14051878 -0.033062212 0.20995164 0.15893236 0.0890412 -0.13688356 -0.11677068 -0.23360708 -0.3003676 0.039960954 -0.17103213 -0.07005524 -0.14553836 -0.06430844 -0.10938917 -0.030363565 0.16848958 0.0063154986 -0.3009501 -0.19335765 0.1406543 -0.15415817
所 -0.26456818 -0.07863251 -0.117580704 0.2217413 0.14937538 -0.41220227 -0.15145358 -0.27529892 0.36643136 0.13061245 0.16955352 -0.29069528 0.02291484 -0.35045838 -0.29824674 -0.024665466 -0.28153962 -0.076621205 -0.10025017 0.08924324 -0.050533406 -0.1634692 -0.15881784 -0.1452797 0.15546171 0.18417753 -0.17958473 0.18115346 0.32311383 -0.10420741 0.016736781 -0.28298482 -0.248295 0.06720412 0.21458212 0.17837061 -0.072820656 0.020440854 0.028458152 0.34340677 0.20343693 0.15178062 -0.33620974 0.38106278 -0.0090916 -0.2526704 0.025651911 0.5046863 -0.17295392 -0.19681853 0.12998942 0.02120919 0.381545 0.16632435 0.18260033 0.14796788 0.036849614 -0.17777818 0.27047363 -0.104106806 0.27067357 0.19302757 -0.26834184 0.4923467 -0.017145649 -0.07459021 0.3067454 -0.11430546 -0.13364922 -0.13582264 0.08167741 0.5547576 -0.26762548 -0.15008007 -0.29711968 0.0071518677 0.19212702 -0.21695323 -0.23673369 -0.1988249 0.1851089 0.20088367 0.109367006 -0.04495312 -0.34784627 -0.11090145 -0.40224692 0.08326209 -0.14442062 0.07318539 -0.3078458 -0.21559486 -0.06769392 -0.315524 0.0045215543 -0.039437346 -0.20066899 0.2242737 0.3052559 0.076266915
民 -0.12529509 0.11655098 -0.27057728 0.0923407 0.11040482 0.22451623 -0.12889014 -0.037146196 -0.26942715 0.14154251 0.24587856 0.003306334 0.09096612 -0.17969789 -0.25367185 0.11322883 0.19909748 0.004291283 -0.3282939 0.07388153 -0.26041913 0.041694716 -0.17354727 -0.2155898 0.023196777 0.09727591 -0.0600085 0.14218035 -0.16059206 -0.14058729 0.073787525 -0.082766846 0.054923207 -0.01850909 0.08860361 0.12982596 0.093575455 -0.3161729 0.10768791 0.030661354 0.21249206 0.054417502 -0.014990393 0.037189774 0.02254596 -0.19980054 0.07239123 0.28444412 0.10619098 0.02297425 -0.03739572 0.40787125 -0.11108647 0.2212021 -0.47060764 0.06990661 0.275827 0.06660621 0.15723397 0.08386643 0.33781904 0.110961184 -0.14031993 0.28247413 0.27914265 -0.24005768 0.005831275 0.03358929 0.05039334 0.047542397 0.002634081 0.36503023 -0.08661909 -0.12437093 -0.21553457 -0.029497342 0.14174439 -0.057843253 -0.060024124 -0.04748263 -0.04670361 0.11874997 0.08815438 -0.0589562 -0.14107186 -0.045110673 -0.21912324 0.040225793 -0.26139092 0.06719599 -0.39338914 -0.025543619 -0.011958866 -0.33312583 0.121125564 0.2685156 -0.14594905 0.13772207 -0.0090920115 -0.10140155
小 -0.3223526 0.110422015 -0.24955863 0.2741702 0.048589073 0.16778511 -0.096504144 -0.026573487 -0.15210344 0.12138706 0.070850365 0.0037357924 0.18095663 -0.1522614 -0.23962452 -0.15030058 -0.033066105 0.12202545 0.042739183 0.032322247 -0.06885319 -0.02421628 0.025380092 -0.13863732 0.030393291 0.18755479 -0.13528672 0.080176875 0.1995191 -0.056178402 0.018217808 -0.1275105 -0.31412765 -0.048714515 0.092726156 0.04606913 0.09763612 -0.050225265 0.23246124 0.18220645 -0.26438677 0.053799044 0.01678188 0.25515452 -0.04654277 -0.20057648 -0.13873422 -0.0020162289 -0.01009103 -0.22590722 -0.11695137 0.3302375 -0.08151062 0.17739433 -0.07364386 0.19390593 0.19902135 -0.11480011 0.29977563 0.017832326 0.18828733 0.14118989 -0.1297221 0.2927598 0.092874624 -0.20678602 -0.0263542 -0.14404176 0.07045598 -0.0545343 -0.01193072 0.31070903 0.020836309 0.012965009 -0.058040373 -0.22925206 0.17300154 -0.037322417 -0.24880351 -0.14387277 0.21893282 0.20485805 0.13919795 -0.056633044 -0.01603831 0.08517742 -0.21417524 0.08909954 -0.23284256 -0.06225373 -0.38060313 -0.12499622 0.1731054 -0.1885512 0.07556716 -0.1476712 -0.05244672 -0.023568582 0.10597976 0.0738677
天 -0.4755128 4.746935e-05 -0.32538643 0.2788197 0.25291064 -0.26704043 -0.15401393 -0.23665743 -0.348527 0.14199261 0.19504389 -0.27287307 0.08979199 -0.31017905 -0.36687914 -0.062103286 -0.30749133 0.14805368 -0.0058953064 0.21011569 -0.15471883 -0.26958245 -0.23298986 -0.17857744 0.3574573 0.33437237 -0.29171106 0.28884566 0.35618126 -0.22906244 -0.03274026 -0.015973682 -0.383975 -0.078539744 0.19212814 0.3399854 0.0016814459 0.057072703 0.1767014 0.1356821 -0.11032358 0.25789475 -0.22416459 0.1662452 -0.03940725 -0.2703518 0.09607476 0.26283666 -0.17908563 -0.37018415 0.07122498 0.36092484 0.04315596 0.28965944 0.23911592 0.25124562 0.21872917 -0.69311565 0.35249594 0.19797806 -0.12160977 0.30336156 0.11587203 0.2831088 -0.2717758 -0.24718542 -0.011285246 -0.17999683 0.43584955 -0.20857382 0.2155534 0.37441975 -0.38981122 -0.029678589 -0.23892005 -0.34470856 0.31086245 -0.31505007 -0.33730787 -0.32295123 0.2810505 0.03142181 -0.20661667 0.0020833898 -0.20360442 -0.22373453 -0.41141737 0.2407646 -0.2986961 -0.27198023 -0.278492 -0.37436852 0.28487155 -0.16488089 -0.24096213 -0.24149731 -0.28461018 0.11992081 0.1544163 -0.00059774856
乐 -0.3761757 0.21138202 0.0041902503 0.16200373 0.03503989 -0.27474028 -0.07390266 -0.059673343 -0.276196 0.23418586 0.032453798 -0.25786695 0.16257258 -0.12417609 -0.19913736 0.079513974 0.30612627 0.15533182 -0.16801919 0.16364837 -0.41564208 -0.20368208 -0.03864832 -0.18970497 0.24684228 0.23839846 -0.022520347 0.05070884 -0.14501719 -0.13453303 0.14021003 -0.2701058 -0.037985757 -0.116745576 -0.03068957 0.036969036 -0.024226233 -0.26600423 0.12607582 0.039773963 -0.12323549 0.2178298 0.44794992 0.020458287 -0.24803378 -0.25769466 -0.41083142 0.12519202 -0.22600617 -0.3607592 -0.025051411 0.19708158 0.014638438 0.06730167 0.2601288 0.034658194 0.04305751 -0.46090698 0.15030335 -0.012793191 0.069772266 -0.043310236 -0.17372687 -0.103922896 -0.056324404 -0.06905502 0.057075944 -0.13104922 -0.06459469 -0.16677117 0.1872026 0.1772708 -0.25620925 -0.05576448 -0.14218706 -0.22875941 0.19196416 -0.04242644 -0.11244428 0.0740288 0.27243453 0.13908233 0.0689471 -0.14476581 -0.17031515 0.03981384 -0.23719451 0.12758322 -0.046736762 0.059798453 -0.18569082 -0.028125765 -0.008439125 0.0376847 0.026676439 0.15470226 0.008383478 -0.016121782 -0.042281825 -0.24610731
邦 -0.031197358 0.14864892 -0.005586922 0.07258676 0.036830544 0.08131027 -0.0005352497 -0.010883546 -0.31508014 0.10531315 0.098427124 -0.14141579 0.093303725 0.025553606 -0.045962773 -0.07032891 -0.12202461 0.15665697 0.12268718 -0.10692087 -0.3064934 0.2766912 -0.105506875 -0.15318918 0.109775975 0.054140024 -0.15474002 0.03539512 -0.25581923 -0.017442755 0.0035801912 -0.15981282 -0.025651075 0.101437725 0.10175476 0.16275747 0.06292228 -0.34365544 0.044281036 -0.012766898 0.120778635 0.2214808 -0.20557837 -0.1457242 0.012732148 -0.17231418 -0.26355314 -0.42589185 -0.109671794 -0.33206978 0.022515606 0.032865167 -0.18511686 -0.032565854 0.34277079 0.26304126 0.111880355 -0.07133826 0.12390701 0.010715691 -0.029763613 0.109107345 -0.11553143 0.19503215 0.07456638 -0.06182138 0.011608043 -0.12570894 0.11404094 -0.16431068 0.33635044 0.15721346 -0.09959988 -0.0006050179 0.16517724 -0.0009302166 -0.08455377 -0.14590152 -0.18515088 -1.0939024e-05 0.22254542 0.1232634 0.051179517 -0.10649311 -0.0732134 0.10625574 0.013527241 0.22378312 -0.059579536 0.046577346 -0.18334535 -0.20776875 0.36448523 -0.115284994 -0.1439227 -0.05017767 -0.06788676 -0.06637712 -0.0040317844 0.10193764
亦 -0.21305823 0.13480766 -0.14658724 0.18810804 -0.079269215 -0.1061322 -0.05420041 -0.028917257 -0.040454835 0.13337095 -0.01502229 -0.07654439 0.045167323 0.014392581 0.019368328 -0.17110695 0.22786644 0.11813914 0.11073756 0.09449401 -0.22403389 0.03426909 0.13755468 -0.20638825 0.09472006 0.12686214 0.011406663 0.029834015 0.035395917 -0.18520245 0.14803106 -0.01269198 0.27491298 -0.04225904 0.06122804 0.09967647 0.08634679 -0.1800704 0.043890387 0.21134464 -0.22655903 0.09583512 0.20388892 -0.037206717 -0.019389428 -0.0883085 -0.4689131 -0.0061186063 -0.034350075 -0.18899345 -0.21076398 0.092659354 -0.06730932 -0.0493152 -0.10574875 0.17240733 0.20177354 -0.43838248 0.14761803 0.12633857 0.12116643 0.1954968 -0.005474409 0.103793256 0.092409454 -0.19242644 -0.16409725 -0.17576633 0.17611776 -0.035892494 0.21859936 0.18034227 0.14293392 -0.037959564 0.11171598 -0.23775116 0.120881855 -0.30356464 -0.16794056 -0.017690439 0.23924232 -0.06966413 0.0070492174 0.24692115 -0.13004006 -0.0016640697 -0.11505672 0.2543438 -0.18101642 0.10707727 -0.44767746 -0.16226766 0.13548708 0.026961723 -0.1322882 0.11031836 -0.20204176 -0.17852904 -0.036135726 -0.009644222
使 0.12430989 0.21414086 -0.19942483 0.052931044 -0.09174895 0.048065335 0.049724866 -0.019104378 -0.23517746 0.18069936 0.09751392 -0.20426607 0.16769245 -0.1420502 -0.15241322 -0.1212516 -0.060778 0.09604965 0.106178135 0.07571768 -0.4087544 0.06748125 0.030164227 -0.49240813 0.14623643 0.14605847 -0.16047552 0.17630875 -0.34606016 0.43573165 0.08030033 -0.05909109 0.1313919 -0.089741394 0.15313709 0.31222606 0.09349519 -0.105963975 0.09322393 0.17175874 -0.0964365 0.20768093 -0.12660189 0.049092446 -0.07800266 -0.045037314 -0.32726112 0.15869114 -0.05740971 0.15821743 -0.061677635 0.14564915 0.021528756 -0.06277776 0.26261705 0.30749938 0.13357584 -0.49060172 0.055226095 -0.0022712215 0.096601814 0.23049065 -0.11068809 0.050019145 0.24736573 -0.10734929 0.09444198 -0.10244883 0.35951906 -0.04369668 0.14433783 0.10589656 0.07662365 -0.1420208 0.109442584 -0.037816852 0.12130478 -0.33467132 -0.11904917 -0.1120961 0.028253732 0.014169441 -0.032878917 -0.03204439 -0.05429441 -0.059457947 -0.060513657 0.089095674 -0.12276155 0.16787715 -0.044211842 0.19012208 0.1179566 -0.034201026 -0.2754726 0.04873508 -0.111191474 -0.15640454 -0.08035891 -0.142448
大 -0.52939117 0.016177535 -0.3944171 0.35349643 -0.009415014 -0.18450692 -0.13143112 0.12919259 -0.03097087 -0.0653126 -0.2286089 -0.43784398 0.32616374 -0.057461683 -0.18980391 -0.19885811 -0.17093787 0.25431967 -0.17425594 0.3659314 -0.20878859 -0.3567589 0.06718939 -0.28021252 0.50510633 0.3425469 -0.14536029 0.17909852 0.21161139 0.15771055 0.06634449 0.09532354 -0.22217551 0.07601325 0.0033423342 0.26587608 -0.08598766 -0.141439 0.38791406 0.24973373 -0.45508653 0.14323345 -0.041089296 0.13573605 0.14892946 -0.38012096 -0.39815125 0.10946906 -0.3372086 -0.32347924 -0.21645783 0.40366656 0.12121426 -0.013643651 0.5268731 0.36544684 0.21087025 -0.70501614 0.28015625 0.15270433 0.10537433 0.22343087 0.069204055 0.12549174 0.000127938 0.013769964 -0.0623345 -0.15185925 0.3970151 -0.16121303 0.38319477 0.04382481 -0.13172539 -0.08856355 -0.024044063 -0.39151037 0.37729278 -0.32676792 -0.25474277 -0.06951935 0.3718555 -0.17791378 -0.3900142 0.15544614 -0.085331574 -0.15720208 -0.3083053 0.22544694 -0.28388727 -0.08385677 0.383243 -0.14704746 0.43175042 -0.35606122 -0.23152813 -0.3739085 -0.22909184 -0.112116896 -0.23113778 -0.23400065
下 -0.21669564 0.05289485 -0.004778142 0.06072785 -0.12889336 0.057246916 -0.0964764 -0.030011319 -0.23141123 -0.035724424 -0.11569862 -0.20002854 0.12455593 -0.10912248 -0.054994512 -0.1419101 0.08714821 -0.021967987 0.23060082 -0.03379697 -0.28909498 0.13092929 0.21544129 -0.18994549 0.21555059 0.15994121 -0.121101566 0.21179608 -0.19150287 0.14784206 0.026834987 -0.15901557 0.046786807 0.12909096 0.08324376 0.04275654 -0.04119575 -0.16601573 0.078103386 0.07590665 -0.2522049 0.36724547 0.07175212 0.19448628 -0.17882696 -0.14441401 -0.45680574 -0.25925714 -0.17353287 -0.28823382 -0.052811757 0.08956921 -0.1641175 -0.12659967 0.38153931 0.16011389 0.078483604 -0.09771868 -0.035947155 0.19260617 0.14419 0.08068986 0.17554858 0.095555276 0.048466273 0.014428632 -0.027407672 -0.14634731 0.064963736 -0.17866413 0.26670972 0.13822486 -0.1284032 0.027519515 0.06495021 -0.1257889 0.12808177 -0.21722768 -0.18780617 -0.08911611 0.16382939 -0.015173851 -0.061126254 -0.14205196 -0.2181665 0.026561417 -0.048953567 0.19457278 0.022509726 0.056875218 0.29833022 0.07415821 0.38579342 0.044354185 -0.35711116 -0.05831462 -0.24642465 -0.18044342 -0.08517418 0.017399346
贡 -0.01591012 0.25942102 -0.004658589 -0.028140396 -0.20438361 0.1585674 0.04277429 -0.019512713 0.07752641 0.11115158 0.031164248 -0.18562952 0.2355667 -0.026229026 0.022466006 -0.11642745 -0.028436862 -0.0010995677 0.3649489 0.19354284 -0.17905222 0.21070209 -0.042223245 -0.44364887 0.055579163 0.20270047 0.004359252 0.15491404 -0.12520024 0.21569194 -0.036094237 -0.029776998 0.050730504 0.25694105 0.20609862 0.18923657 0.036665037 -0.17002285 0.03316854 0.13345006 -0.10077965 0.20019032 0.116732225 -0.25245866 0.024255157 -0.08066969 -0.21081324 -0.027244786 -0.057128206 -0.18544847 -0.043112576 -0.056295604 -0.021838885 -0.15597889 -0.03940289 0.3281188 -0.00015194848 -0.32483006 0.034534544 0.15860477 0.16703033 0.062208537 0.119723685 0.06283626 0.1095255 -0.07455618 0.06653947 -0.06160898 0.037834063 -0.04738409 0.196248 0.15625522 -0.026526932 -0.07872566 0.03549666 -0.13971138 0.1203629 -0.36654684 -0.20145115 0.06540728 0.16503182 -0.28118727 -0.021046711 0.14910465 -0.10024888 -0.015861267 -0.14846276 0.256538 -0.21551391 0.09987798 -0.23224695 0.040022857 0.118218765 0.015401805 0.17607859 -0.00094564504 -0.26086417 -0.017730996 -0.12443327 -0.036573585
欲 0.0025201053 -0.2407027 -0.27673334 -0.45055062 -0.14576615 0.3943409 0.13083038 -0.46749288 0.15238817 -0.0064454284 -0.055679075 -0.23650548 0.060105603 -0.2937777 -0.29381722 -0.51796377 0.30350658 0.032262035 0.39131218 0.32150486 -0.64772505 0.38254082 0.102516815 -0.37194055 0.022545857 0.2439964 -0.30577046 0.36575133 -0.2327363 -0.58286506 -0.6339249 0.37088153 0.0323316 0.78627753 0.5026411 0.19178663 0.3873059 -0.14277491 -0.36175132 0.12883946 0.3254827 0.5013863 0.42636555 -0.7002608 0.4008299 0.120348886 -0.6688876 -0.044026867 -0.285041 -0.2581981 -0.10405263 -0.6824273 -0.2657008 -0.4424191 0.31457767 0.72910076 0.41934103 -0.8917819 0.09802645 0.3714151 0.6733868 0.12079652 0.6428673 -0.37351495 0.62102807 0.36802736 0.17343898 -0.24849002 0.16334856 0.15450104 0.5015059 0.6061929 0.19711487 -0.3200926 0.16294311 -0.22254972 0.5724745 -0.49629223 -0.38967925 0.4554542 -0.04054241 -0.69950664 0.29005235 0.63517046 -0.27995524 -0.2676832 0.37569636 0.2942931 -0.42959547 0.5482858 0.4899303 0.015332162 -0.4618032 -0.118796214 -0.88776255 0.4991911 -0.24380161 -0.06961876 0.3830162 -0.0627484
诸 -0.025632825 0.20627142 -0.22382376 -0.032743886 -0.12973656 0.20614237 -0.029144466 -0.091027066 0.18027851 0.033252425 0.14690623 -0.12980412 0.109467395 -0.062423456 -0.005182809 -0.013174786 0.27111998 0.038643643 0.060354687 0.068162 -0.12782857 0.2521418 0.057942923 -0.21922965 0.082033284 0.24829856 -0.010277547 0.08473782 0.0080242995 -0.17885552 -0.16104001 0.013615496 -0.11258174 0.3357647 0.2967402 -0.16803247 0.18292642 -0.26110944 0.056897182 0.0641745 -0.03594073 0.21056448 0.37488663 -0.21336757 -0.0019590934 -0.106608905 -0.39878613 -0.036133345 -0.14018245 0.1306256 -0.12195587 -0.2597123 -0.11070001 -0.208624 0.17777057 0.35806137 -0.0015241139 -0.19580092 -0.10306076 0.18450198 0.14066549 -0.0670365 0.05276153 0.0802015 0.21075518 0.08682091 0.054363064 -0.03754767 0.069819465 -0.10441389 0.13565399 0.18110558 -0.06942356 -0.17401457 0.031557195 0.012305321 0.17057906 -0.22080337 -0.122553416 0.11962416 0.075986296 -0.26706615 -0.12040363 -0.029418295 -0.028566748 0.16768298 -0.0003696226 0.07311035 -0.14684556 0.08070079 0.2457806 0.16272984 -0.11688766 -0.1318969 0.112533145 -0.005852909 -0.0595185 -0.05613434 -0.11656538 -0.2697752
从 0.2690165 0.12536785 -0.16831595 -0.3018403 -0.041238297 0.19880676 -0.13145536 -0.053460795 -0.03229801 0.026431505 0.018919721 0.01266552 0.15857925 -0.16411325 -0.083852224 -0.26615712 0.3190436 0.059330337 0.24671362 -0.04020109 -0.06896371 0.15273999 0.1275822 -0.14323632 -0.028613124 0.085415535 -0.12807103 0.074921094 -0.14157367 0.03212605 0.0031151045 0.081335604 0.26313716 0.24795051 0.23819622 0.02724423 0.19659315 -0.12119972 -0.020946428 -0.015253526 -0.2623622 0.30658424 0.36240894 -0.13955761 -0.10545633 -0.1133155 -0.24403395 -0.033208642 -0.0019082519 0.13046433 -0.16320868 -0.20560381 -0.03216294 -0.19551434 0.37111115 0.32903787 -0.09476699 -0.30076328 -0.14938027 0.16426064 0.0941809 0.04321574 0.018032378 0.0130669 0.014046516 -0.057845607 0.29834682 -0.0038436253 -0.0140888635 -0.1245954 0.06837353 0.12159562 0.026061578 -0.22837299 0.016452003 -0.025057765 0.08123106 -0.33669728 -0.20430541 0.260437 0.14346524 -0.075947866 0.0055487766 -0.09852343 -0.16723868 -0.08678876 0.026530394 0.13719846 -0.06980861 -0.05117775 0.2767946 0.023459043 0.096845835 -0.08848259 -0.10030628 -0.039446756 -0.13370892 -0.19094603 0.044902965 -0.05243461
文 0.022342103 0.042118233 -0.0970823 -0.26761395 -0.07834877 0.1460611 0.009904299 -0.08995472 -0.20672774 0.024571825 0.076533526 -0.038833275 0.14470093 -0.21756114 -0.035365388 -0.07472244 -0.25203854 -0.046150066 0.24552378 -0.1275396 0.15622577 0.26063025 0.02285993 0.08992229 -0.14392342 0.10021553 -0.0147627145 0.10761801 0.08807637 0.11428977 0.016113486 0.29626593 -0.0243392 0.093140274 0.2835829 -0.09502524 0.15704308 -0.2513117 0.096612215 0.0010091597 -0.07021571 0.24101192 0.2512773 -0.2919436 -0.043393362 0.032932855 -0.11980447 0.20168269 -0.017473448 0.18461646 -0.18885182 -0.036750175 -0.083221175 -0.06465284 0.20628309 0.39930117 0.047851797 0.043203205 0.06104767 0.14728847 -0.1231557 0.03291007 -0.043236576 0.1260146 0.09273321 -0.09329089 0.10142804 -0.11131258 -0.18434335 -0.19281302 0.27308947 0.15794809 -0.074628 -0.06712341 -0.0034750311 -0.20378834 0.098524794 -0.2420607 -0.18385322 -0.05321957 0.31884822 -0.23844051 -0.07166973 0.11726677 -0.05362652 0.15737939 -0.15663822 0.009203209 -0.106219545 -0.011256497 0.3095965 -0.1539701 -0.058128133 -0.008899383 -0.06878904 0.079621226 -0.14853927 -0.2667034 -0.1743428 -0.12718737
政 0.03592527 0.18148232 -0.1502968 -0.38773698 -0.06329063 0.28895056 -0.03249052 -0.028678669 0.09257598 -0.12549087 0.06894461 0.20611654 -0.039896432 -0.08064054 0.1204252 -0.028150847 -0.18456686 -0.07678851 0.48774418 0.15120548 -0.08270461 0.32542825 -0.09442802 0.02328806 -0.14329354 0.17494169 -0.20574678 0.125199 0.19426936 -0.32951683 -0.20391165 0.14377804 -0.047239773 0.12190418 0.34020263 -0.0061638444 0.0154035855 -0.22243768 0.019806284 0.061740577 0.07385796 0.33062893 0.45852792 0.04069008 0.037192587 0.04709707 -0.16985445 0.042422414 -0.16895424 0.026243472 0.03476132 0.13292831 -0.11307984 -0.0010767537 0.09711445 0.35289434 -0.117752545 0.012356837 0.13051541 0.24355409 -0.012712049 -0.11704659 -0.048048303 0.14986101 0.16797264 -0.08761048 0.27322972 -0.14657207 -0.11697878 -0.15346631 0.1279351 0.21742009 0.2338579 -0.20311776 0.08849114 -0.070937365 -0.037684765 -0.12315272 -0.05272004 0.1866129 0.11643152 -0.3136858 0.15537454 0.21199827 0.05212434 -0.058971 0.17436682 0.05793863 -0.15469193 -0.04202612 0.21151271 0.11281065 -0.013015372 -0.24800757 0.1667765 0.019925924 -0.01869247 -0.21703757 -0.09470411 -0.16971286
食 0.1456714 0.072004125 -0.2809801 -0.38146245 0.2682247 -0.17253983 0.099445544 -0.32033247 0.34371197 0.34865803 0.5330605 -0.10947288 0.16735029 -0.43955526 0.01394863 0.14299017 -0.54822624 0.06558312 -0.106082745 0.29502097 -0.1297308 0.23476456 -0.1427152 -0.06658481 -0.17132246 -0.0331228 0.009207826 -0.25851685 0.46010152 -0.27521265 -0.25773436 0.18384467 -0.2264443 0.0812589 0.35302696 -0.06503588 0.09605737 -0.3278285 0.09562383 -0.1393215 0.20475401 0.15715662 0.3894306 -0.25268683 -0.23317635 -0.23555505 -0.29131562 0.24915649 -0.18806961 0.099240184 -0.09951995 -0.35302836 -0.14490262 -0.14716312 0.13234267 0.303153 -0.04837522 -0.4105264 0.15579145 0.24082892 -0.5009823 0.031355765 0.059421036 0.15860863 0.23485765 -0.37122774 0.51541626 -0.26971352 -0.058110107 -0.4637153 0.2276205 0.3312541 -0.1904921 -0.32945663 -0.42495874 0.18418582 -0.21145938 -0.10607532 -0.3411434 0.16294444 0.15116584 -0.40736288 -0.33124483 -0.06622246 0.08407028 0.19359352 -0.16872051 0.0012865495 -0.22695185 -0.23666297 0.04510901 0.18404242 -0.3662971 -0.19883256 0.09942811 0.0059617944 -0.05009972 -0.030743029 0.39755955 -0.08663386
善 -0.0797249 0.20009305 -0.22469535 -0.31689513 -0.0024438817 -0.094185494 -0.09385287 -0.15797743 -0.109269656 3.4766737e-05 0.3171832 -0.14166746 0.32851353 -0.2325381 0.15666212 -0.08915387 0.02276762 -0.005604481 0.1683269 -0.033049103 -0.22160046 0.17999446 -0.071415305 0.11231797 -0.024915189 0.060206544 -0.02366905 0.12172654 0.11725555 -0.15518734 0.11297131 0.09454877 -0.1104696 -0.13395478 0.25358903 -0.10792485 0.10060431 -0.27165377 0.06290625 -0.09149806 -0.26577604 0.11658085 0.4137857 -0.104117036 -0.09451018 -0.12818412 -0.3004839 0.16717303 0.04490532 0.16100176 -0.17231618 -0.074611336 0.09573845 0.23129773 0.15633295 0.22494751 -0.13746758 -0.18973394 -0.0027299854 0.07016523 -0.25985932 -0.13116176 -0.13387208 0.15803376 0.041920677 -0.22584824 0.36424094 -0.12352529 -0.0001124274 -0.15823394 0.17335829 0.082748346 0.26109958 -0.20883547 0.15481655 0.052484363 -0.031869747 -0.031541876 -0.076159686 -0.041040253 -0.034282353 -0.22214419 -0.10529387 -0.019623099 -0.06610756 0.2767661 -0.08620479 -0.042774286 -0.18174209 -0.22072737 0.40318644 0.31018344 -0.038751014 -0.27147117 0.09949963 0.08639214 -0.05816821 -0.15877768 -0.027542837 -0.013839871
后 0.13387863 0.16918153 -0.031849872 -0.16696376 0.08062496 0.090570286 -0.192044 -0.1828181 0.17168052 -0.20094499 0.3903308 -0.22406884 -0.101137765 -0.15768123 0.054681055 -0.027255137 0.2183835 0.01739164 -0.21480107 0.026890595 0.052132394 0.2905787 -0.19391164 0.18478246 -0.051528886 -0.045307193 -0.1661857 0.020504653 0.12593533 0.40771943 0.10634901 0.2552804 0.42903614 -0.10777639 0.09491067 -0.21473987 -0.27091557 -0.20295957 -0.15785307 -0.043092903 0.037324693 -0.047727786 0.4415023 -0.10207116 -0.11749971 -0.16152593 -0.1264329 0.020333353 -0.051659055 0.24172162 0.078113936 -0.06698888 0.2495644 0.12401182 0.17436078 0.18226577 0.12616068 -0.4117739 0.12918992 0.16612555 -0.3370958 -0.16576155 -0.13096966 0.005111115 -0.07057398 -0.15890427 0.38232064 -0.053655446 0.0658593 -0.051692173 0.065710254 0.0037695304 -0.019938443 -0.3225386 0.013856679 0.033788692 0.1000499 -0.18868358 -0.03949447 0.0038849565 -0.13245127 -0.014281104 0.017418759 -0.045162376 -0.01874151 0.3142264 -0.05256909 -0.11289717 0.10369507 -0.24177916 0.3476967 0.11506215 -0.1346229 -0.21793032 0.13662137 -0.011831794 0.12010516 -0.31410605 -0.062344875 -0.11073308
德 0.08992306 0.23337592 -0.20660448 -0.44051433 0.3242644 -0.22514278 -0.32751602 -0.30641723 0.08962377 -0.58948594 0.42773545 -0.26708442 -0.2877465 -0.3095045 0.2809442 -0.20044103 -0.37427565 -0.120386206 0.40768158 0.009721719 0.038188297 -0.04241916 -0.34688082 0.07011334 -0.26062226 0.16696091 -0.14755876 0.3901973 0.25860614 0.088702165 0.060763758 0.4417424 0.19056828 0.052995473 0.33019716 0.046773043 -0.5308437 0.37768766 -0.3386538 -0.05377592 0.36593997 0.15931652 0.6681121 -0.44957754 0.25283206 -0.17697994 0.29282713 0.26435524 -0.30261043 0.2228502 0.14614666 -0.2383243 0.27948627 0.20753868 0.08134124 0.4186671 0.21289305 -0.2772532 0.48919588 0.41767997 -0.20048724 -0.12744066 -0.056575667 0.27970704 -0.23121129 -0.29679963 0.4759075 -0.42686477 0.22750778 -0.234796 0.35591686 0.25089657 0.2606416 -0.21985085 0.03643596 -0.33628544 0.19775142 -0.2777425 -0.2514289 -0.2654267 0.08572222 -0.46936548 0.08489819 0.056686006 -0.2379454 -0.25718796 0.08228234 -0.10976054 -0.28183398 -0.26071703 0.44187447 -0.36146018 -0.40068975 -0.32119352 0.0572259 -0.17972057 -0.22155677 -0.2365315 0.16677748 0.2203654
求 0.25468877 0.18555087 0.04881248 0.027094362 -0.04114183 0.06880393 -0.04130028 -0.24878821 -0.062149078 -0.023338903 0.25701675 0.11798954 0.11382617 -0.064622395 0.11890188 -0.05884088 -0.32425356 -0.06731552 -0.46015817 0.20668009 0.15769751 0.10240189 -0.059717786 0.18660058 -0.080053866 -0.047594156 -0.004163518 0.21388388 0.12072808 0.26937693 -0.05649425 0.024994282 0.18577595 -0.044658706 0.16352552 -0.08611057 -0.26892212 -0.47456816 -0.058030095 -0.09192818 0.14527263 -0.05721518 0.28914216 -0.106319144 -0.04753118 0.0029982608 -0.16432239 0.26645645 -0.072225824 0.3068913 0.022283772 -0.24472767 -0.025210025 -0.16117743 -0.2585395 0.11054216 0.09849603 -0.16463277 0.20898537 0.053043015 -0.12614894 -0.012938444 -0.16452911 -0.023454677 -0.19579746 -0.18543498 0.26253185 -0.36581 -0.22487949 -0.0590211 0.030545793 0.029037133 0.31893864 -0.103692085 0.1294306 -0.14229469 -0.12976557 0.2410642 -0.10915855 0.23579974 0.16014926 -0.13918984 0.046118632 -0.14512198 -0.15459485 0.01413433 0.082355164 -0.08371952 -0.1245357 -0.30699387 -0.025323719 0.22544992 -0.43597654 -0.23148492 0.2596043 -0.16571157 0.10279863 -0.28488454 -0.05949544 -0.14286773
对 0.16873777 0.20631284 0.10060596 0.028789846 0.075751826 0.29619122 -0.10773895 -0.08194664 0.3659182 0.083550595 0.23827127 0.04201142 0.26595703 -0.023535533 0.17243977 -0.07718267 -0.119315974 0.025813669 0.30735746 0.14363143 -0.24083549 0.18176277 -0.1454872 -0.13462016 0.023905372 0.07857841 -0.02482455 0.25327632 0.07253246 -0.20789005 -0.06975646 -0.06993613 0.2087508 -0.13355844 0.19606993 -0.30195895 -0.31228688 -0.5096813 -0.017254023 -0.030638838 0.1762995 -0.15917791 0.18566726 -0.36929384 0.021581536 -0.08316996 -0.49837106 -0.2850396 -0.10692212 0.06378148 -0.13573055 -0.102796 0.015955172 -0.1842994 0.0020118016 0.15278578 0.027385132 0.24755418 0.046574857 -0.06101745 0.075561546 -0.006181449 -0.048338123 0.18601483 0.13597558 -0.23998475 0.076994434 -0.23521902 0.08045925 0.0063683772 0.21465598 0.0443379 0.06998999 -0.17509598 0.16586249 -0.1131492 -0.06582153 0.0021254371 -0.14778256 0.17812234 -0.084171526 -0.35475665 -0.055885874 0.2265608 -0.10791542 0.08507325 0.07293019 -0.076864414 -0.16855675 -0.113139614 0.09374974 0.13394225 -0.13308603 -0.21838558 0.33192122 0.042700533 0.06706236 -0.04910648 -0.11318513 -0.4303714
恶 0.005054972 0.1844117 0.08361804 -0.073639914 0.10910047 -0.24175899 -0.078682125 -0.07224213 0.44139186 -0.10728049 0.26266736 -0.07381528 -0.0021968954 -0.093977675 0.10158792 -0.024092168 0.0045406125 -0.056208305 0.08519998 0.033133008 0.0095398445 -0.10201664 -0.10753125 0.13958569 0.035943672 0.07813648 -0.04431266 0.2683687 0.019011209 -0.071397126 -0.0052261595 0.12354132 0.13389367 -0.05966574 0.042688277 0.05154099 -0.2657564 -0.38695613 0.18036518 0.050203606 0.40670887 -0.1396439 0.38286874 0.09289634 0.042131484 -0.23718761 -0.1994991 -0.12652783 -0.14216176 0.09702112 0.03075709 -0.050739516 0.10012277 0.044743504 -0.09058735 0.19126204 0.10242791 0.17083654 0.25131196 -0.052941337 -0.076683626 0.05144768 -0.321709 0.14017743 0.067134604 -0.27669662 0.2571682 -0.15007398 0.07261873 -0.0062539256 0.20869756 -0.047928806 0.3054587 -0.10463271 0.18757558 -0.11658401 0.104879774 0.08116218 -0.0717291 0.3208314 0.13243301 -0.3523907 -0.027957816 0.06671661 -0.1312087 -0.009200993 0.109237075 0.05778365 -0.04440221 -0.1537034 0.08974985 0.078991614 -0.24787228 -0.1620478 0.098904796 -0.13601413 -0.027152447 -0.14216997 -0.009588857 0.15763883
信 0.31107166 0.28578788 -0.011217369 -0.024296882 0.18753654 -0.10735081 0.0686214 -0.15658714 0.19583923 -0.0045307586 0.29208905 -0.22313163 -0.288918 -0.20685415 0.16958381 0.07445115 -0.03345166 -0.14581451 0.12513527 -0.18347648 -0.30229965 0.2516516 -0.05501153 -0.21435753 -0.06165396 0.05875788 -0.1504511 0.2849822 0.051603235 0.22561535 0.037562083 0.2692988 0.024879448 -0.0051159533 0.030818738 0.056051865 -0.18024537 -0.25439197 -0.07143824 0.010191103 0.35106444 -0.28459433 0.33049402 -0.21858875 -0.07798558 -0.25899625 -0.5487065 -0.122708306 -0.10158739 0.27021188 0.072869584 0.17342189 -0.09945964 -0.2849596 -0.21474926 0.20911087 0.1200097 -0.036399014 0.3656896 0.0014651369 0.2792259 0.013044934 -0.1625835 0.031003231 0.1960503 -0.26129568 -0.034714345 -0.098803915 0.24129307 -0.14225544 0.22666787 0.069518246 0.18616223 -0.0022492227 0.103184216 0.14604694 0.017578533 0.036257155 -0.021441532 0.052541282 -0.20091185 -0.40887684 9.076018e-05 -0.17652336 -0.11139046 -0.29417816 0.05393541 -0.040981382 0.04810857 -0.2890122 -0.15738693 -0.39842066 -0.33662352 -0.10989681 0.13670276 -0.023443315 0.05484899 0.035519663 -0.12716874 0.1972761
死 -0.13397908 -0.2600371 -0.37994668 -0.015014182 0.08402679 0.059074752 0.39440686 -0.82295823 0.7028302 -0.5636004 0.36863244 0.24792403 -0.33341262 -0.63999957 0.10004631 -0.528435 -0.4327873 -0.014022211 -0.23642771 0.37923896 -0.1177338 -0.07751038 -0.0079615265 -0.25271818 0.060849383 0.47971812 0.013237382 0.8398691 0.029895442 0.35650995 -0.21215734 -0.38824892 -0.2585426 0.72842574 -0.09924881 0.4617356 0.7110095 -0.39321288 -0.6122779 0.55214304 0.7697784 0.047333714 0.14049362 0.023787273 0.32916462 -0.6811793 0.196472 0.036221355 -0.82541156 0.0050569857 -0.3639985 0.015096607 -0.111648865 -0.16762051 -0.6356733 0.50679237 0.8584964 -0.37765196 0.6612659 -0.03321663 0.7316115 0.5758122 -0.46718177 0.7400218 -0.15856825 -0.23769121 -0.1999345 -0.7111474 0.64705104 0.06870081 -0.17116927 0.81360877 0.2936742 -0.16173433 0.36183783 0.12926114 0.07456356 -0.43577474 0.08677274 0.5546331 0.70507973 -0.81529814 0.23178641 0.45548508 -0.7811552 -0.8486979 -0.3037604 -0.26280272 0.19651285 -0.61977816 -0.385216 -0.36582637 -0.26198834 -0.0017096126 0.42494738 -0.30598885 0.12017199 -0.46387255 -0.53767735 -0.6780791
然 0.12081261 -0.28170842 -0.027434649 0.059248533 0.07257469 -0.12129249 0.06135077 -0.21090308 0.2391023 -0.05820668 0.16961631 0.058558036 -0.28707966 -0.028702017 -0.082751974 -0.03802312 0.22077596 0.14360204 0.12145818 0.28157318 0.029731514 -0.052891802 0.0655115 0.15116036 0.044546932 0.12231641 -0.0123378085 0.36150524 0.030549692 0.006093805 -0.061748438 -0.047378417 0.23388763 0.16853838 0.011133345 0.089341044 -0.07829113 -0.20847213 -0.34069094 0.30449545 0.39633423 0.11511798 0.458468 -0.06699553 0.23971827 -0.035003424 -0.105274744 0.11322792 -0.24495138 0.0022665826 -0.04800343 0.36066478 -0.099870116 -0.20735367 -0.069261804 0.11242965 0.1944461 0.3534385 0.23773465 -0.13060151 0.02948162 0.13896066 -0.2041075 0.23076823 0.43063068 -0.2002937 0.26052877 -0.19406117 0.32276616 -0.0855886 -0.09372272 0.052886426 0.23123336 -0.09573324 0.022145398 -0.14491652 0.0889701 0.2566537 0.18194455 0.15673392 -0.009199194 -0.17084594 0.2302197 0.048707154 -0.09883836 -0.11547405 0.06046039 -0.12790874 -0.0697917 0.06944538 -0.15384395 -0.41420412 -0.21209419 -0.059724405 0.2490318 -0.05493811 0.027708378 -0.28815657 -0.14528476 -0.12839292
