1352 50
， -0.3864084 -0.21552444 -0.3019522 0.25821292 -0.3585831 -0.30159834 0.23508614 0.19224587 -0.29861945 0.1702968 -0.50563383 -0.14652614 0.19383295 0.17731455 0.19637391 -0.03309369 -0.22884522 -0.2804928 0.13659027 0.27789924 0.21476339 0.009793557 -0.3353129 -0.30068433 0.08318114 0.41895252 -0.24479978 -0.15016232 0.045331076 -0.0916687 -0.085740834 0.0064242557 -0.24674338 0.42538428 0.30057845 -0.2455134 0.3994244 0.04902657 -0.38656363 -0.20102052 0.45189038 -0.10858478 0.23715043 -0.068289705 0.26099184 0.19229701 0.18162633 0.22712167 -0.15931985 0.19233333
子 -0.59381527 -0.6139636 0.4591326 -0.5494515 0.56446844 0.5750207 -0.5765959 -0.6026505 -0.5883791 0.2670673 0.6236172 -0.39264438 -0.5649795 0.45809853 0.6037531 -0.42535663 -0.34315118 0.39604604 0.51957744 0.02647701 0.6043296 0.5259318 0.3722389 -0.28301582 0.01290968 -0.38967302 -0.57542235 -0.4009735 0.18672763 -0.14316808 0.40285957 -0.5087566 0.6121531 0.54551864 0.34411168 0.59148353 -0.633681 0.52746856 -0.5842849 0.52614695 0.6064871 -0.2880461 0.55032456 0.38654852 -0.59376085 -0.06345229 0.4133986 0.62016976 0.3017544 -0.58029956
。 -0.36061713 -0.2527979 -0.14933051 0.18632402 0.20538338 -0.17861384 -0.24480665 0.25582883 -0.3314026 0.050441608 0.09854029 -0.09313978 -0.31525388 -0.34379914 0.32183665 0.041561745 0.06689088 0.32782528 -0.25908053 0.186862 0.24945472 -0.13990223 0.3409699 -0.30625194 0.40244722 0.24290909 0.25929716 0.029463507 0.3174275 -0.024580844 0.095498174 0.29931965 -0.20452623 -0.32674477 0.0020997496 -0.0646147 -0.18829283 0.22009732 -0.35799807 -0.12245382 -0.17316468 -0.07958947 0.08020697 -0.26963815 0.34840247 0.32649454 0.12758327 -0.109550774 0.1772445 0.19653901
： -0.36776647 0.19935553 0.14377646 0.31331792 0.3380687 -0.20240186 -0.13577858 -0.32369033 -0.25545907 -0.07624106 0.3289223 -0.12718827 -0.07090405 -0.36330244 0.13565704 -0.096266314 0.3069547 -0.33586976 -0.316832 -0.29349297 0.077402346 -0.27374744 -0.26347423 -0.24819216 0.34496224 -0.35049343 -0.11536829 -0.19655792 0.32976452 -0.3152783 -0.0058824625 -0.3413477 0.105116546 0.3052039 0.32393256 0.33021048 -0.34957242 0.33118322 -0.31855235 -0.25955868 0.31213436 0.26369542 0.32737243 -0.11547395 -0.24917573 -0.34397167 0.15788871 0.017088266 -0.32782075 -0.34853512
曰 0.26860136 -0.3354962 -0.36659482 -0.34455574 -0.2792262 0.0152116455 0.39781508 0.34058273 0.18031454 -0.30208525 -0.016559446 -0.16468954 0.18321487 -0.32145628 0.24808341 -0.35780722 0.3164675 -0.4013481 0.30691215 0.35104027 -0.3719538 -0.075736225 -0.2760752 -0.10890453 -0.32650194 0.23496693 -0.3377168 -0.17393644 0.34902558 -0.13272451 -0.35899886 0.32852894 -0.3270604 -0.33519387 -0.37344772 -0.14494462 0.32262477 0.33857268 -0.36241436 -0.3602279 0.2401874 0.24167687 0.38622776 0.24136293 -0.33714706 0.36248103 0.38571256 -0.3549293 -0.39439774 0.39376587
之 0.34024003 0.33432388 -0.27162117 -0.3732099 -0.33799672 -0.35759464 0.324451 0.33715597 0.3179371 0.2192276 0.19623494 0.2773757 0.3735743 -0.39819187 -0.27655256 0.111155525 -0.33049148 -0.33843073 -0.007005093 -0.3490687 -0.24430178 -0.35609034 -0.2063458 0.339662 -0.234933 0.41466972 0.35638216 -0.25718248 -0.031792074 -0.06612614 -0.2619751 -0.33484346 -0.3536415 0.33739954 0.3333314 -0.2019992 0.36720607 0.3618821 0.38148758 -0.286191 -0.36008793 -0.27698743 0.15523197 0.0787587 0.3817246 -0.3405451 -0.21719256 -0.3526615 -0.33999702 -0.31023768
不 -0.34615478 -0.35931295 -0.32267287 -0.0887037 0.353344 0.3598625 0.04969338 0.35562637 -0.34466448 0.16750629 -0.3704371 -0.10217131 0.40989223 -0.17418298 0.42109415 0.21898206 -0.37729418 0.013771047 0.36267725 0.0389993 0.21577679 0.28431544 -0.3683175 -0.32418555 -0.2936252 -0.3081368 -0.33029583 -0.14570266 0.36516243 0.1384804 0.340672 0.33080268 0.32459062 -0.30239528 -0.25460362 0.12983231 0.37444538 -0.36805376 0.3898605 -0.3150391 -0.31018302 0.33851784 -0.39023682 0.3090045 0.21172379 0.38858622 0.32976574 -0.33792353 -0.30572528 0.3238282
也 0.23945452 -0.0033170902 -0.34074068 -0.29706416 -0.056666955 0.389408 0.30889532 -0.020069784 -0.3458159 -0.061447214 -0.16791734 -0.11951168 0.27859524 -0.041208055 -0.32575125 -0.03741372 0.043034397 -0.3228957 0.123745285 0.14731061 -0.27386668 0.19609639 -0.08944925 -0.12047616 -0.33986428 -0.35835415 0.043310206 -0.16652119 -0.11080025 0.33076352 0.13478646 -0.27659106 -0.14343709 -0.13507661 0.33623484 -0.27294022 0.00024128478 -0.080868684 0.27614984 -0.13626932 -0.30415353 -0.3463264 -0.19114013 0.11186787 0.16202292 -0.28050977 0.3564545 -0.044683497 0.089938775 -0.17465974
而 -0.14607091 -0.32033342 -0.3049297 -0.45179084 0.33870938 0.56782365 0.48962173 -0.42382312 0.29777795 -0.050386127 -0.49011013 0.28016794 0.14220975 0.12551083 -0.03881268 -0.24519704 -0.20961276 -0.20923369 0.26428717 0.38511086 -0.061923686 0.2576946 -0.19124167 -0.048390932 0.1150788 0.41067457 -0.46335703 0.22242378 0.35881445 -0.15070961 -0.09579882 -0.12768874 -0.029804925 -0.0049192957 0.051589217 -0.27647606 -0.2717867 -0.31675604 0.41429138 -0.06874923 0.03973618 0.17239062 -0.026162684 -0.3292266 0.16323352 -0.077882476 -0.41957983 -0.018673195 0.07139055 0.089251935
？ 0.34638205 -0.25228 -0.38537046 -0.40700418 -0.33569363 -0.36932972 0.4023993 -0.14234295 0.042945255 0.011146232 -0.0703929 0.2495951 -0.18781562 0.36153373 -0.002074554 0.16622515 -0.048266295 -0.4094506 -0.10277091 0.34600756 -0.059428465 -0.29961565 -0.19726017 0.32275704 -0.36641118 -0.12495619 -0.074930236 -0.3782505 -0.3643592 0.22170702 -0.26690066 -0.37337735 -0.30815038 0.29232112 -0.12039758 -0.2728108 -0.344966 -0.21153651 0.22792132 0.11976827 -0.32811263 -0.3746417 -0.36173266 -0.35136214 0.21224234 -0.42099965 -0.16626512 0.3310768 0.08325382 -0.3773966
其 -0.0066634757 0.17011745 -0.08486199 -0.08980153 0.40443975 -0.14097677 0.10977459 -0.31804505 0.13360615 0.05782422 0.41024116 -0.09663315 0.03156994 0.3255164 0.34283787 -0.071668826 -0.2835275 0.3400417 0.33618736 -0.2984927 0.09891537 0.1834149 -0.21990976 -0.18513182 -0.40777513 0.0880147 -0.353987 -0.052526977 -0.1763692 0.18073167 0.09537813 -0.072580546 0.20112357 -0.22241601 -0.28605998 -0.060363375 -0.4051328 0.43130088 -0.0030380618 0.051957514 -0.32148454 0.039642606 0.23972899 -0.061840903 0.34902754 0.19135492 0.3231584 -0.2460482 0.04502512 0.06641005
人 -0.27041316 -0.3845894 0.11471273 -0.27845034 0.29324397 0.40962613 -0.32618582 -0.36117333 -0.022086168 -0.28597075 -0.3956344 -0.26249704 0.4034411 -0.31190014 0.3574324 -0.118606694 0.32169306 0.025617622 -0.25799102 0.36584696 0.32543314 -0.345968 0.30041343 0.3842727 0.36690772 -0.33306614 -0.37689957 -0.33838344 0.3515577 -0.1698351 0.3222845 0.3868191 -0.2722201 -0.3833924 -0.37796217 0.20738381 0.4042018 0.18522395 -0.34077072 0.32562345 0.30960712 -0.3830037 0.057051815 0.09393966 -0.28639296 0.36978897 0.3463695 0.38250548 0.39202875 0.3989612
者 0.3920834 0.16051729 -0.20020446 0.32141194 -0.2945424 -0.14599983 0.29283226 -0.38980734 0.31623602 -0.33070374 -0.30752373 -0.14450082 -0.15484445 0.04131458 -0.32851642 0.1643997 0.31583887 -0.35860267 0.3423908 0.33059266 -0.23793487 0.2984794 -0.32974377 0.21437158 -0.34612536 -0.36575758 -0.35292438 -0.062808 -0.37539083 0.1326223 -0.077954814 -0.4077828 -0.31640014 -0.35710463 -0.35979605 -0.35224324 -0.2864618 0.32607386 -0.16134383 0.2808164 -0.31125948 -0.06310533 0.05435062 0.2980871 0.3697251 0.27302578 0.33728805 -0.22675572 -0.045222245 -0.018179195
以 0.3475109 0.2764329 -0.36220133 -0.364003 0.3372168 -0.3858944 0.4101647 -0.362174 0.3765643 -0.14807023 -0.186578 -0.38021246 0.26144364 0.28016135 -0.3651483 0.23065887 -0.25395536 -0.3137885 0.29085466 0.3429576 0.12798655 -0.2730335 -0.3775003 0.3258772 0.2710501 0.38277894 0.31715667 0.027586749 -0.358438 -0.12563546 0.36670086 0.29448566 0.3808402 0.24263838 -0.3077657 0.38205022 0.34349757 0.3170652 -0.3262972 -0.081828065 0.32867813 -0.3591208 -0.04318534 0.31249446 -0.23542751 -0.3281777 -0.13353719 0.16517353 -0.3698329 -0.35112965
有 -0.23209731 -0.26126924 0.3011448 0.3409011 -0.26690087 -0.10905673 -0.34304047 -0.36589274 0.33506626 0.12237278 -0.030601826 -0.2240374 0.09397757 -0.13219063 -0.20828938 -0.25184387 -0.026157748 -0.31623006 0.31630853 0.2933755 -0.19887626 0.26127064 0.20282361 -0.30340585 0.38966548 -0.18775845 -0.374817 -0.040963106 0.22782512 -0.2089062 -0.1813104 0.37501824 0.01258664 -0.07312408 -0.36988792 0.02602237 0.26272726 0.40726012 -0.33527073 -0.116492435 -0.015676985 0.18716037 -0.2943564 0.25206476 0.3081809 -0.35882595 -0.03666617 -0.00357291 -0.22825655 0.17180264
于 -0.3257284 -0.31291196 0.25613448 -0.17233141 0.35422727 -0.0633429 0.060754903 0.297702 0.3033728 0.24533188 -0.4267979 -0.25757855 -0.284092 -0.22477381 0.30413085 0.02524886 -0.19534424 0.38307887 0.30834743 0.2863764 0.39389572 0.24318452 0.24371418 0.1948599 -0.08722434 0.29846078 0.37219763 0.2079478 0.29207617 -0.3135451 0.282941 0.31237656 0.12943736 -0.30537155 -0.37869 0.25756222 0.09875919 0.21802604 -0.36808968 -0.17260481 0.4054022 -0.23130813 -0.34928033 0.25526544 0.09206953 -0.3929098 0.31777787 0.28459603 -0.25836068 -0.15431596
矣 0.1993926 -0.022354322 -0.03657917 0.29887295 0.19589503 -0.33307913 0.09563396 -0.042882517 -0.502628 0.08558905 -0.5670148 -0.596965 0.54410416 0.40323788 0.44278988 -0.28286213 0.010905143 -0.55628824 -0.4990962 0.57817686 0.3557997 0.4080975 0.40766463 -0.10429031 0.40303388 -0.6075409 -0.27717516 0.048867285 0.31065753 0.2783327 0.48185074 -0.5193909 -0.5743588 0.33712304 0.3280835 -0.6361755 0.05666294 0.381929 0.23870978 -0.33817568 -0.5933294 0.045231976 0.105817996 0.34544772 0.4470511 -0.44552663 -0.116637304 -0.23016872 0.14693043 0.47669643
为 0.37083253 -0.39100915 0.30797964 -0.3554091 -0.35896617 0.2992024 -0.20145087 -0.13397042 0.33494696 0.33627757 0.3381784 -0.37096572 0.3579135 0.2479142 0.16440497 0.24506219 -0.09435862 0.13576366 0.32231507 0.3840534 0.31210724 0.37500912 -0.37888545 0.31289807 -0.33607697 -0.31012067 0.32995614 -0.41663197 0.12313023 0.4337523 0.29645035 -0.37620473 -0.32514435 -0.16540566 0.30638742 0.36439452 0.28365982 0.37779307 -0.3765348 -0.3866697 0.3411399 0.009431736 -0.1961217 0.3337213 -0.23060824 -0.35482478 0.3185602 0.30220655 -0.35692465 -0.38419098
君 0.082211375 -0.0593771 0.03444214 -0.38658395 -0.32698506 0.3394946 -0.016383491 0.20119806 0.18927792 -0.08067665 0.056956667 0.10188845 0.10366029 -0.36484942 -0.070619226 -0.23001209 0.35827282 0.35085273 -0.31000048 0.20714417 -0.33812258 -0.24559428 0.44161332 0.4065925 -0.38184798 -0.35522494 0.1617113 -0.08034416 0.36967373 0.2389327 0.38831958 0.04298019 0.0899561 -0.21546806 -0.15274528 -0.12724343 -0.34612498 0.2899381 0.36275715 0.21179442 -0.36215028 0.22028077 0.16990072 0.32877058 -0.1975829 -0.3839404 -0.007148738 -0.26085824 0.12892124 0.271607
乎 0.31831586 -0.30399024 0.32136524 -0.32831398 0.371917 0.35853094 -0.04031858 0.337375 -0.40742332 -0.20482157 0.32644024 -0.3154806 -0.32317314 -0.18611354 0.020089757 0.17714232 0.3301835 0.13235193 -0.31059298 -0.20779268 0.3368386 -0.3848434 -0.35523406 -0.23318188 -0.28585878 -0.37510827 -0.11919247 -0.31300578 0.24302018 0.3098488 0.0871379 0.033011783 0.30512694 0.09361384 0.2919691 -0.30661476 -0.25979316 0.33145985 -0.33294195 0.010276849 0.24542338 -0.31965274 0.30245203 0.27152354 -0.032392986 -0.32257333 0.3468485 0.25864223 -0.24684146 0.32123646
可 -0.052562464 0.12728108 -0.03804419 -0.3332278 -0.33191088 0.3371911 -0.24891156 -0.25072998 0.3081972 0.22744904 0.38504663 -0.021586519 -0.3783319 0.026976626 -0.36003777 -0.114110634 0.20884171 0.32570946 0.25769305 -0.08557415 -0.34580305 -0.17635623 0.33892423 -0.3485224 -0.3174596 0.33007342 0.33219522 -0.21626973 -0.25343576 0.00027902215 -0.090080574 -0.018176638 0.020214666 -0.31540632 -0.34417865 0.19294736 -0.33686364 -0.23745057 -0.3793337 0.16975828 0.15217121 0.1892259 -0.30403274 -0.2727547 -0.04027746 0.33731362 -0.004439467 -0.3115188 -0.03474523 -0.15259929
如 -0.32987604 -0.3541978 -0.3286919 0.14929654 -0.31106552 0.2670483 -0.25025705 0.34009278 -0.35939988 -0.2759254 0.23384823 -0.26340646 -0.32481894 -0.37547392 -0.15912008 -0.11842741 0.24250028 0.2723024 -0.33861053 0.2576375 -0.10408027 0.2698652 -0.37797195 -0.20908555 -0.3359734 -0.31124932 0.21767436 -0.018337853 -0.31406167 0.36532658 0.13977662 0.27690682 0.30330107 0.33111823 -0.16811661 0.06571147 0.3848346 0.34451467 0.10632954 0.058671776 0.32981566 -0.37240884 0.21869692 0.33077297 -0.24493867 -0.1170044 0.3757238 0.30847844 0.0122873755 0.28015867
与 0.27640942 0.27113408 -0.3654131 -0.35736287 -0.35148883 -0.41592234 0.34743574 0.38958 -0.37002048 0.0857585 0.39681515 -0.35126618 -0.4149374 -0.14222199 -0.29699525 0.26033857 -0.14156495 0.024641167 -0.32489026 -0.2763582 0.25114736 -0.3244786 0.050659873 -0.3672706 0.23540635 -0.3522886 0.32497567 0.15733537 -0.3838194 -0.22303817 -0.37678206 0.28219217 -0.26641905 0.22002672 0.40017617 -0.22571135 -0.35378543 -0.21366344 -0.14685836 -0.27031007 -0.36257517 0.33221042 -0.10347746 -0.3944 0.18174697 0.3735622 0.3904309 -0.3864455 -0.38425684 -0.3540746
； -0.38713348 -0.29931873 0.3332517 0.2514336 -0.18950275 -0.14647722 -0.07699008 0.06668374 0.39132854 0.043105505 -0.1539191 0.10411244 -0.16240245 0.37374574 -0.21113023 -0.16108395 0.21249525 0.048848026 -0.075764194 0.30132395 -0.29392073 0.16691524 0.38613933 -0.30756745 0.2808534 0.21760178 0.3588174 -0.06004303 -0.16773778 0.26671985 0.31916425 0.19299342 0.20054524 -0.08709471 -0.05787795 0.37297127 -0.07577916 -0.1628735 0.20323667 0.21767832 0.040865097 -0.17251739 -0.032124326 -0.1226073 0.067368895 -0.06779008 -0.4259743 -0.09744036 0.24149884 -0.37226737
言 0.15230985 -0.69224066 -0.60795593 -0.12054597 0.6780067 -0.1694849 0.09393172 -0.06575038 -0.29813388 0.23728293 -0.10867459 0.15145218 -0.4168958 0.30315307 0.6677191 -0.0035250438 -0.16776522 0.3524662 -0.69112027 0.18040216 0.31011286 0.08630508 -0.041247077 -0.2978827 0.35955545 0.26399246 0.01741193 0.4243381 0.72601706 -0.4004754 0.18573903 0.59921443 0.33126763 0.38197592 -0.23612936 -0.09208543 -0.33632237 -0.22769651 0.13415459 -0.016064607 -0.33253095 -0.30738366 0.08373279 -0.26649097 -0.021175772 -0.23483993 0.46721834 0.3022061 -0.32671407 0.16959046
无 -0.16272277 0.3165838 -0.09708363 0.0498069 -0.34240445 -0.32905596 0.36240122 0.11048792 -0.17763482 -0.033251688 -0.2558207 0.18196459 -0.041086916 0.385102 -0.33103916 -0.12242742 0.35211354 -0.28588516 0.010134079 0.26035008 -0.10668634 -0.029282805 0.3331265 -0.2961063 -0.35849488 0.29194728 0.37892222 0.23680483 0.1685182 -0.07670726 0.32333985 0.30413663 -0.22677116 -0.35236642 -0.31921974 -0.19026831 -0.16816612 -0.35819948 0.3728199 -0.07336245 -0.21201834 -0.14423963 -0.35388643 -0.10435927 0.35582852 0.2751563 0.06357897 0.035177283 0.06892686 -0.2971516
则 0.076482266 0.35355702 0.222621 0.20678818 0.34524703 0.15111537 0.14299215 -0.09831377 0.2993442 0.3237781 0.3264886 0.06537398 -0.3040371 0.17567357 -0.029484324 -0.1727455 0.12566541 0.24071844 -0.357818 0.11815912 -0.3136406 0.07983691 0.39727074 -0.30475605 -0.3065048 -0.18189728 0.06037008 0.05238887 0.28333718 -0.05668186 -0.305766 0.041227207 0.42901736 -0.012049006 0.25752598 0.2909118 0.07498768 0.3774442 0.3867416 -0.12905495 0.04740399 0.12183445 -0.22490466 0.26370174 0.10236503 -0.42457876 0.30970642 0.032852262 -0.2801591 0.32906544
！ -0.11156671 0.32521176 0.00215546 -0.170574 -0.26334897 -0.37598422 0.32010448 -0.45788914 0.31969845 -0.30339944 -0.13058203 0.26401737 0.32859075 -0.079895616 -0.37055337 0.017254408 0.2684456 0.052881103 0.2160462 -0.27152303 -0.07908572 0.20937659 0.33791858 0.339491 -0.41108197 0.2029508 0.27224 -0.027477864 -0.364319 0.108139284 0.3804315 -0.07548445 -0.24297504 -0.3973592 -0.13970457 0.045870196 -0.28933597 -0.24630417 -0.027087942 0.011362809 -0.37178645 -0.02118144 0.26613575 0.1538955 0.36721772 0.26195794 0.18690409 0.03037574 0.090308815 -0.3299535
问 0.39451554 0.30152217 0.058959085 0.1023869 0.32523134 -0.34280932 0.40955576 -0.35600674 -0.3365364 0.03005122 0.14506193 0.25801814 0.30588192 0.07987051 -0.025781611 0.31072712 0.17045994 -0.3575112 0.33237112 -0.18696302 -0.050601978 0.25612822 -0.41875505 0.070928 -0.02361625 -0.060286578 -0.3826917 -0.046744585 -0.45226392 0.038572684 -0.24725536 0.35957664 0.36084616 -0.3676749 0.40873656 0.24698326 -0.07434182 0.38156587 0.37356395 -0.16519296 -0.1612367 -0.123025976 -0.10382353 -0.24683164 0.3459953 0.38056636 -0.07723496 -0.27536327 0.16445944 0.13523453
知 -0.3820445 0.12497365 0.32033244 -0.40166938 -0.33513072 -0.3903106 0.4024771 -0.37365878 0.3766225 -0.28952911 0.38017616 0.3072312 -0.36877674 0.03795038 -0.3778932 0.19875696 0.33877444 0.26758343 -0.30755183 -0.28026786 0.12302301 0.3921462 0.39838803 0.27028492 0.10212798 0.3859364 0.27722493 -0.20222656 -0.123209745 0.39096287 0.37522328 -0.15087269 0.18884794 -0.18609236 0.35867003 -0.26323646 -0.37614036 -0.29997313 0.35752782 -0.0775492 0.3425593 -0.30247685 -0.24369948 -0.39179173 -0.3445458 0.21438555 -0.07232851 0.25311917 -0.10335424 -0.3872287
何 -0.25090224 0.12836507 0.21861738 0.40582338 -0.36596727 -0.3437318 -0.38013774 -0.33586445 -0.13432172 0.22256956 0.35364246 -0.19097796 -0.28889588 0.4268055 -0.07685104 0.07776456 -0.21762139 -0.2990507 0.4290759 -0.11912282 -0.109326646 -0.010448761 -0.027321447 -0.288573 0.35842675 -0.091471024 -0.01929823 -0.16682084 -0.36861134 -0.1221817 -0.40199417 -0.094499126 0.34568208 -0.27452466 -0.36734602 0.27892995 -0.12617697 0.0037694918 0.29661295 -0.09949014 0.13219889 0.09291729 -0.025459774 -0.2902183 0.24934804 0.3353376 -0.39582282 -0.28601643 -0.22189897 -0.4109815
吾 -0.3015979 0.17736572 0.33158302 0.24311987 0.3815591 -0.35644928 0.35231885 -0.37118077 -0.04137019 -0.028384605 0.18468937 0.119295955 -0.07418223 -0.24675733 -0.16058527 0.1485593 0.066385284 -0.30845726 -0.35187116 -0.20530039 0.04934063 0.25218156 0.27080947 0.33468962 0.10986684 0.37025502 -0.33862588 -0.15438092 -0.3621418 -0.0500458 0.27583924 0.3502449 0.105570555 -0.31907484 -0.33700192 0.042248864 -0.06533118 -0.079030044 0.26100737 0.009176394 0.27133915 -0.27948987 0.012465946 -0.28611857 -0.32376266 0.3098995 0.2623425 0.2941712 0.3112203 0.22163588
仁 -0.53033763 -0.46565643 0.45228866 0.29931235 -0.41238287 0.56927824 -0.27509668 -0.53055155 -0.51063436 -0.094559394 0.087477654 0.05643609 -0.46935216 0.5531227 0.52517116 -0.13788392 -0.4072005 0.50205535 -0.28628212 0.34741694 0.01947892 0.10099126 0.66108924 -0.65199715 0.001977804 -0.6223171 0.033806607 -0.30447182 -0.0040903185 0.58430034 0.27917498 0.4000787 0.5893825 0.31959125 -0.642413 0.25679842 -0.24098879 0.30062371 -0.5853027 -0.14133802 -0.46733144 0.1353247 -0.24436851 0.53528136 0.4306091 -0.52565914 0.3327253 -0.11205692 0.3654117 0.07257341
夫 -0.13546847 0.30900925 0.301155 0.30843675 0.38416135 -0.37561908 0.4135404 -0.12352379 0.4015606 0.24859485 -0.17663321 -0.06640697 -0.11051656 0.070588455 -0.39380112 -0.045239653 0.28218174 -0.3956247 -0.10425706 -0.31793243 0.2383055 0.35216582 -0.34104538 0.34523192 0.16999348 0.37337518 -0.2646801 -0.03730088 0.24378917 0.049501725 -0.009402072 0.30034316 0.3943254 0.0350945 0.33464962 -0.09376431 0.0864952 0.1156194 -0.45911774 -0.115374915 0.34996685 0.014898598 0.30195498 -0.40898582 0.28326574 0.31082857 -0.08310613 0.2284954 -0.051964793 -0.019338448
、 -0.41935265 -0.36876673 -0.18276864 -0.05020377 0.14065827 0.35208508 -0.20759696 -0.35997263 -0.11093335 0.22077659 0.3009749 0.2992501 -0.36582384 0.3376146 0.31173256 -0.15847184 -0.2892184 -0.3116297 -0.33758336 -0.31257364 0.35421962 0.041365635 -0.19033684 -0.29954523 0.35418993 -0.33982414 -0.3745548 -0.28334242 0.3245074 -0.28770372 -0.07715945 -0.31020555 0.36501914 0.32177448 -0.08031834 -0.041940425 0.29519618 -0.33607304 -0.315836 -0.17815676 0.03351838 0.22405896 0.29281893 -0.054953087 -0.27549934 -0.33482876 -0.33872712 -0.2758137 -0.21093275 0.31479707
道 -0.32981208 0.35095707 -0.31571916 -0.30375028 0.2996164 -0.3773155 -0.29749328 -0.3815553 0.17839411 -0.017401146 0.31332842 -0.08402733 -0.3501052 -0.3182067 0.39808294 0.39816946 -0.17706622 -0.33185455 0.37486193 0.3245933 0.32969126 0.09333762 -0.3537343 -0.34553263 -0.3277537 -0.3280818 -0.24945386 -0.05922523 0.34792244 -0.3823791 -0.3213338 0.30634084 0.2990537 -0.33478838 -0.38074514 0.33490652 -0.2539825 -0.37106133 -0.33157662 -0.22030172 0.37787005 -0.034427598 0.25895923 0.38447562 0.25978076 0.33480778 -0.3654258 -0.07180005 -0.33395362 0.360351
焉 -0.24632049 -0.43503487 -0.11938006 -0.017667444 -0.38485652 -0.14891474 -0.054130014 0.2862123 -0.040030964 -0.0043002483 0.08722916 -0.3499806 -0.31596613 0.33392394 -0.045943882 0.066549525 0.21631047 0.22646685 0.2466051 0.40527532 0.14779082 0.07369377 -0.36792803 -0.17026813 -0.46693337 -0.3659958 0.026316416 -0.18737036 -0.008535901 0.42807382 0.0617824 -0.3065074 0.3333304 0.28152812 -0.2851858 0.23116334 0.19146568 -0.290536 0.3046758 0.078641936 -0.001433298 0.10961348 0.36618978 0.24558216 -0.16547792 0.1400916 0.29440457 -0.12165344 -0.16050413 0.20770164
行 -0.3182297 -0.18946204 -0.0047776876 -0.31004158 0.3209509 0.3410694 0.27370837 0.15752256 0.092613265 -0.18814152 0.37406072 0.21462932 0.13672693 0.36975363 0.32244688 -0.2177107 -0.314203 -0.34600887 -0.1287376 0.11535258 -0.11852306 0.15989101 0.19200996 -0.12410874 0.38626748 -0.3158026 -0.33253488 0.024803542 0.38942105 0.078351304 -0.22572786 -0.06765752 0.03202151 -0.3548454 -0.40506762 0.3572828 0.28254297 -0.35043857 0.009327215 -0.19673593 -0.25533864 0.33704117 0.0019835925 0.02479734 -0.24860764 0.36230585 -0.016489444 -0.28162825 -0.16904147 -0.032775704
谓 -0.34880394 -0.20959961 0.21520308 0.32940036 0.34591106 0.3469221 -0.35609132 -0.3572863 -0.35025853 -0.0006269461 0.06456291 -0.29113513 0.024296375 -0.21423957 0.05188742 -0.20695394 0.09829453 0.23492645 0.06162223 0.33049116 -0.2916851 0.35656998 0.3221617 0.34038877 -0.3329445 -0.37917483 0.21774353 0.14864053 0.364562 0.29396048 0.13988853 0.3764503 -0.16850014 -0.37454492 -0.33989346 0.0057051363 -0.3235015 0.2684411 -0.077604614 -0.024475805 0.3779237 0.16025671 0.1541957 0.09612195 -0.36373636 0.35538667 0.21884327 -0.10519778 -0.07150587 0.35285574
必 -0.40779442 0.30473745 -0.123717465 0.39682126 -0.371705 -0.30573964 0.30173415 0.38285005 -0.3859565 -0.2860935 0.43870735 0.020515244 0.15039873 -0.15730321 0.25985503 -0.059955712 -0.085525244 -0.21417075 -0.22204186 0.095403895 -0.1597817 -0.06817739 0.27437326 -0.29276103 0.35042664 0.022235768 -0.39953932 -0.090559445 -0.0824091 -0.001720801 -0.35483336 0.07015848 -0.19144095 0.30297405 0.09498744 0.34826657 0.07782552 -0.028622579 0.3077117 -0.19625033 -0.13859327 0.0111251 0.23967713 -0.23866811 0.07197796 0.38465312 -0.017489545 -0.33593756 0.06572961 -0.43840334
礼 -0.470668 0.42752123 -0.018911092 0.489878 -0.15040956 0.49263373 0.573974 0.630427 -0.54898125 0.48613405 0.5068478 0.032238185 -0.38790795 0.18088701 0.17494081 -0.40174106 0.5670929 -0.60341 0.6369758 0.5374376 -0.08104333 0.034585584 -0.3293355 0.076325886 -0.046946608 0.5571433 -0.07966469 0.5823912 0.5943269 0.56494117 -0.30828694 0.6259953 -0.36766002 0.16126628 0.1377884 -0.1301524 0.4686661 -0.4037989 0.65586245 0.011057921 -0.51084894 -0.3981605 0.10415934 0.18219861 0.595099 0.49652946 -0.6627604 -0.17858589 -0.5561518 0.5833219
孔 -0.27056932 0.0002972628 -0.19360381 0.3666837 -0.37647575 0.35768232 -0.053401366 0.3696969 -0.31216893 -0.010030611 0.15138096 0.36792788 -0.30855817 -0.3532533 -0.34273353 0.034704473 0.28000268 -0.36843795 -0.10306966 0.14444476 -0.3169416 -0.15195988 -0.28258714 -0.19427112 0.36783254 -0.24638376 -0.37521014 -0.30239528 -0.3390363 0.2158398 -0.3173581 -0.37514213 0.07740335 -0.18476143 0.06465859 -0.3387968 0.19503875 -0.34392345 0.40223354 0.016646331 -0.0046765557 0.026931409 -0.029283859 -0.36367622 0.18092215 -0.035346773 -0.36955306 -0.21795438 -0.06938902 0.28297538
斯 0.33116388 -0.37065417 -0.31460026 0.32940838 0.31979278 0.2691166 0.35611945 -0.29698512 -0.17119458 0.31731734 0.087904476 -0.30288252 -0.12638643 0.35682443 -0.23813616 0.20667993 0.3557742 -0.31634116 0.14551735 -0.36168706 0.37343657 0.11939575 -0.32149205 -0.3398861 0.34514412 0.15008596 -0.3150265 -0.28993884 0.23519221 -0.263086 -0.22660536 0.3623369 0.12790795 0.1973569 0.2647192 0.34431052 0.051332254 0.22747925 0.27095458 -0.19504324 -0.03386382 -0.3335572 -0.019341636 0.063430905 -0.16526477 -0.38025683 -0.30027753 0.32554618 -0.27120823 0.34243652
三 0.38362366 -0.38152736 -0.0781365 0.28039128 0.41235778 -0.12462318 0.30494705 -0.40244794 -0.3045945 -0.18949746 -0.279064 0.34542304 -0.14904037 -0.33838135 -0.30242062 0.043744758 -0.026122682 -0.33436942 0.2002574 0.3269201 -0.23311155 -0.08760606 0.1995296 0.36420545 -0.35291916 0.17073756 -0.2761805 -0.2734721 -0.350301 0.012056743 -0.114482306 -0.3977099 0.2196336 -0.061475165 -0.3200731 0.034553863 0.3555963 -0.18861765 -0.28424686 0.12418051 0.24439296 -0.1354289 0.03529151 -0.012497971 0.003775941 -0.3802236 0.0520609 0.0050004767 -0.014535955 -0.3389343
能 0.24408394 0.3847585 -0.08937516 -0.03187944 0.34928674 0.22002053 -0.28232616 0.38547575 0.29756755 0.22266375 -0.38728547 -0.1421519 0.3869154 -0.3452446 -0.2377552 -0.27417478 0.34067237 -0.28565198 0.15870707 -0.005755799 -0.27032715 0.21606098 -0.26667148 -0.26440662 0.2637531 0.26525715 -0.26917535 -0.30569246 0.3582288 -0.08942118 -0.16456264 -0.37362024 -0.19161026 -0.35759526 0.36136517 -0.34373817 0.34587806 0.31705555 0.3832586 -0.18480256 -0.13178712 -0.22441342 0.19366752 0.33290955 0.04264407 -0.34865245 0.0890588 0.24639565 0.07299212 0.38577476
见 -0.045014128 -0.36827287 -0.13096415 0.09697887 0.3337796 0.4061216 0.3406126 0.39216933 0.25651556 0.09006794 -0.13950664 0.31649858 0.27099565 -0.35195708 -0.18589686 -0.26922885 0.18710496 0.31919315 -0.30971137 0.15318558 -0.031820286 -0.038521323 0.10245973 0.32901752 -0.38518932 0.3698095 0.14367388 -0.17092727 0.42092404 0.05474706 -0.11423465 0.3721877 0.05754322 -0.36965072 -0.32590628 -0.1774536 0.09146858 -0.41021094 0.2624477 0.06594147 -0.00937251 -0.29418024 -0.2875724 0.29655418 0.3191215 -0.11249554 0.288426 -0.0048715235 -0.02411579 0.35819173
学 -0.3748976 -0.29891253 -0.21647336 -0.39607018 -0.3147085 0.33286297 -0.2299475 0.3818876 0.39644024 0.19016741 0.35020885 -0.32812345 -0.15170263 0.18696897 0.3242079 -0.1379896 -0.11710995 -0.019680783 -0.06634684 -0.078227594 -0.3609276 0.099207595 -0.35819554 -0.0024831975 -0.41152167 0.28994906 0.33285415 -0.14141907 0.29597986 0.11010489 0.29493198 0.06189896 0.21743034 0.18887632 0.40559098 -0.23584998 0.36311013 0.31058022 0.38041446 -0.06966437 0.3151202 -0.1515571 -0.34271926 0.2655542 -0.03175308 -0.35691676 -0.0537988 -0.15364397 -0.010293082 0.14033824
事 0.2612673 -0.27665305 -0.04376691 -0.28495455 0.31877893 -0.3250684 0.08787606 0.2708002 -0.3267144 0.3323555 0.32342952 -0.32501987 -0.018611848 -0.13096301 0.3784583 -0.32453477 0.22304532 0.10999127 -0.36397728 0.11572996 0.30125782 -0.18741888 0.3843359 0.2913137 -0.37829188 0.33240238 0.011458066 -0.32238466 0.25390017 -0.21027623 0.11655666 0.37757972 0.25641572 -0.3880916 -0.33191526 -0.36460328 0.26924667 -0.35078543 0.20196864 -0.019819746 0.23414537 -0.35785615 -0.37971464 0.32805496 0.36870372 0.28786188 -0.05459344 -0.14798202 0.36883965 0.36210516
是 -0.6821707 -0.515326 -0.21618173 0.25493485 0.31094274 0.6714831 0.5308508 0.5068782 -0.3732765 0.40632343 -0.33600315 -0.33929956 -0.19694118 -0.6057721 0.59941864 -0.42966866 0.5259129 0.030031074 0.60581577 0.46361065 -0.57289904 0.5721465 0.60070264 -0.6017747 -0.5037518 -0.6624409 -0.63483423 0.40718937 0.65692645 -0.43330735 0.13836083 0.62904006 -0.39233524 -0.57662463 -0.46828952 0.101199895 -0.5318137 0.30295482 -0.60188997 0.34079933 0.5228368 -0.55826366 -0.41156894 0.59028816 -0.07231426 0.33609548 -0.08762295 0.23151594 0.27527016 0.5488837
哉 0.08512497 -0.041029748 0.03970455 -0.05858297 -0.0531766 0.34303567 0.27209988 0.31152385 0.27440467 0.15437393 0.40717226 -0.024421582 -0.3028714 0.24650325 -0.109115124 -0.13097385 0.15520532 0.29570606 -0.041971974 0.1922298 -0.0058187153 0.3662347 0.37272322 0.39690152 -0.3672554 -0.39017245 0.41922787 -4.950835e-05 -0.1436216 0.32320625 -0.21767062 0.102514796 0.3232329 0.36449164 0.16197215 0.016277865 -0.018310681 0.0052480893 0.16341558 0.0047466233 0.3186765 -0.40365028 0.08460554 0.20698741 -0.12803395 -0.41043738 -0.18788679 -0.08359586 0.044136927 0.3542993
闻 -0.35085145 0.03450207 -0.31341708 -0.04181346 -0.034076408 -0.31111547 0.36926347 0.2056867 -0.33423224 0.01266517 -0.33906442 0.04841332 0.05761816 -0.090724826 -0.0805408 0.008635691 -0.18040283 0.024752358 0.332703 0.291445 -0.15346113 0.077584244 -0.041720156 0.0076228376 -0.39366215 -0.049341004 -0.29683 0.00617874 -0.36397475 0.08523203 0.32205462 0.39004797 0.13040683 -0.32658845 -0.17517143 0.20443515 -0.057577774 -0.39183 -0.14409208 -0.018981796 0.30653873 -0.14761518 -0.1775035 0.26926196 0.4014397 0.38322377 0.15814757 -0.014598692 0.23341466 0.3539234
未 0.26075438 -0.355293 -0.16614358 0.35176185 0.3349144 0.12489029 -0.30385578 0.32027164 -0.3107821 -0.069020994 0.32344878 0.25625607 -0.17079814 -0.2802259 0.32110503 -0.20725416 0.21712254 0.103295505 0.06161613 0.057406597 -0.34462565 0.3611031 0.3376314 0.14837942 -0.21714222 -0.015674014 -0.38958883 0.029776743 0.38421297 0.14047237 -0.020078918 0.3505308 0.3499982 0.31505108 0.33517733 0.011405749 -0.34144902 -0.3588419 0.397459 -0.1507373 -0.25137863 0.14393046 0.036133118 -0.23388977 -0.2535358 0.39626163 0.2000066 -0.20878476 0.23330994 0.38102034
公 -0.38186082 -0.0381576 -0.38834497 0.34529302 0.38531336 -0.33616915 0.23567714 -0.09163969 -0.16157205 -0.0371664 -0.28064218 -0.33979973 0.3023682 0.34597504 -0.30093747 -0.1585296 0.09004139 -0.0055686133 0.3729722 0.19449925 0.07045426 -0.07850096 -0.3153565 -0.27935857 -0.28852305 0.38911685 0.082661785 -0.023608861 -0.27656427 0.12703642 0.2174395 -0.3738212 0.23410662 0.1781792 0.26348522 -0.3218056 -0.2842061 0.015512077 0.09027592 0.022153953 -0.064095385 -0.22816637 -0.19307749 -0.102322236 0.35544142 0.3798861 -0.32031673 -0.30162808 0.044147927 -0.37542272
好 -0.39403272 -0.21234104 -0.13847338 -0.26468766 0.36762533 -0.14728437 -0.23118578 -0.14618406 -0.33808866 -0.08619881 0.024136439 -0.21224992 -0.10082826 0.37204596 0.38155323 -0.25505167 -0.09474021 0.2598296 0.32240456 -0.024052834 -0.27069917 0.39367223 0.30725554 -0.39757055 0.32487828 -0.34351557 -0.0023975766 0.09355381 0.3748727 0.25677624 0.027119055 0.37900627 0.32360896 0.2153097 -0.36096787 0.2782819 -0.36211333 -0.38519502 -0.37100267 0.009180799 -0.34406355 -0.17377573 -0.36410102 0.30670926 -0.13172747 0.38075137 0.13831058 -0.13812646 0.30905294 0.3548187
我 -0.39856347 -0.26392066 -0.32882753 0.36110792 0.36115626 -0.37704623 0.3343774 0.37919354 -0.16805011 -0.28618532 0.3648668 -0.3687885 0.34070393 0.022703277 -0.08078505 -0.29012954 0.25714758 -0.34228405 0.1941056 0.34189546 0.34843287 -0.3863727 -0.31262586 -0.3353148 0.36622468 -0.31893104 -0.33016437 -0.33246824 0.37620857 -0.38507685 0.057705194 0.00817664 0.12556744 -0.2720085 0.37510753 -0.33581263 -0.3655623 0.37094095 0.33315274 0.110535935 0.40057337 0.40048394 0.22357254 0.38875198 -0.39451918 -0.3959984 -0.34518194 -0.36536086 -0.33208355 -0.38207206
路 -0.41879195 -0.26876122 0.35295847 -0.052270226 0.4011164 0.1985631 -0.19440942 0.3812799 -0.24362507 -0.025652105 -0.36521968 -0.07217151 -0.13870835 0.3296677 0.2750792 -0.13632475 0.09701647 -0.3095893 0.05934937 0.17733924 -0.2714872 0.33412898 -0.2594219 -0.02187879 0.22952233 -0.3567603 0.37144497 -0.06650584 0.38067088 -0.11282772 0.16263533 -0.3889712 -0.051086973 -0.026025971 0.27756187 0.38474122 -0.07028619 0.3748819 -0.25512883 -0.060587443 0.30039823 -0.30105314 0.41367948 0.25085604 -0.011785561 0.27141243 -0.36894104 -0.30412585 -0.30217007 0.32373488
在 -0.56410056 0.60745585 -0.21618304 0.4837505 -0.17717978 -0.25270978 0.5377903 0.038928594 0.09197034 -0.17877823 0.06312617 0.15737295 0.5394791 0.28571978 -0.25537342 -0.33497563 0.02684515 0.3170934 0.3241553 0.5651312 -0.084928036 0.06676282 0.16383556 -0.6251574 0.32898965 -0.5787359 0.015590914 0.18704952 0.24437526 0.69959897 -0.24198534 0.47512245 0.06576217 0.09338834 0.70436907 0.090372704 0.054713856 -0.52626544 0.3549025 -0.018226305 0.085177734 0.11506148 -0.0077889077 -0.20527455 0.45847794 -0.58047676 -0.20224604 -0.26795053 -0.74726355 0.14632624
已 -0.20275012 -0.059033982 0.29717392 -0.19027549 0.113676704 -0.15848255 -0.1176553 0.3611027 -0.18090908 -0.14083508 0.37438542 -0.17814575 -0.21681069 -0.080929264 -0.32312298 -0.030475525 -0.09088515 0.009409021 0.23326477 0.33654493 0.0664051 -0.055359133 -0.3835887 0.058142155 0.37245026 -0.34897098 0.3834225 0.07289539 0.35138476 -0.15764615 0.047498167 0.17773733 0.38798964 -0.37911317 0.09712981 0.25483647 -0.026039414 0.15898909 -0.38678086 -0.05355272 0.07752663 -0.2710112 0.3713041 -0.06708477 0.40297386 0.396454 0.09984822 -0.3293425 -0.106341794 0.35905468
得 -0.40927884 0.36808968 -0.007684436 -0.2645175 -0.39862072 -0.30146885 0.3819852 -0.44188517 -0.30689627 0.34138024 0.39814255 -0.02235791 -0.26486057 0.3810041 0.121033296 0.034726195 0.12939328 0.31273514 -0.16516963 0.012825747 0.25489467 -0.053663567 0.39966145 -0.38743627 0.10243965 -0.4062553 0.38761574 -0.05024745 -0.42838618 -0.14159724 0.25962377 -0.30018318 -0.3679571 0.39439476 0.30929074 -0.045226432 -0.3310823 -0.43737173 0.24276476 -0.15122962 -0.3470756 -0.12880689 -0.25402954 -0.12784871 -0.058072034 -0.3747205 -0.007658614 -0.17068368 -0.33798674 0.2366613
所 0.114490084 -0.23611659 0.35894233 -0.32855713 -0.3982716 -0.3373681 -0.3539002 0.40240625 -0.27573892 -0.062185906 0.40328786 0.12569436 -0.31679723 -0.22694507 -0.2502335 -0.24789499 -0.1956822 -0.13335305 -0.038864575 0.15355536 0.34478223 0.21148328 -0.38326693 0.37868914 0.28794426 -0.3725219 -0.024860568 -0.04004628 -0.39703473 0.30715334 0.2629599 -0.35907555 0.3870026 0.33292413 0.3151481 0.243125 -0.13535444 -0.37621182 -0.28778335 -0.16298538 -0.2324499 -0.24618325 0.11340987 0.026373176 -0.055510744 -0.45436662 -0.39063415 0.10524574 0.28234258 -0.3852383
民 -0.20011447 0.09706061 -0.26250607 -0.057959523 -0.23569635 -0.33593327 0.36583623 -0.29215306 -0.32728562 0.27176774 -0.18643184 -0.204848 -0.3235676 -0.027508348 0.060918942 0.018217225 -0.055512663 -0.11892349 -0.33038124 -0.2875769 0.15374562 0.32629278 -0.20376492 0.27029574 0.38473544 0.34827417 0.1812665 0.003187617 -0.35130185 -0.3599857 0.35480177 -0.2979947 -0.046549395 0.38632974 0.30924332 -0.2766906 -0.29840615 0.34433502 0.31845337 -0.10359775 -0.3606646 -0.10945056 -0.20528287 -0.013322079 0.33567703 -0.37016547 0.0311683 -0.15801197 -0.013675873 -0.3067605
小 0.3641966 -0.3346944 0.32746193 -0.21243405 -0.03265429 -0.29493058 0.2855442 0.3693072 -0.34995753 0.15806761 0.34385186 -0.16507265 -0.3380638 -0.12048915 0.29297626 -0.087054275 -0.22711927 -0.2823061 -0.25298834 -0.33003318 -0.34279564 0.3486888 0.3195683 0.37791485 0.25185835 -0.33365706 0.37386537 -0.09448853 0.3858102 0.19352263 -0.009304239 -0.36127982 -0.051845755 0.27557364 -0.33994025 0.36238465 0.3681808 0.14562431 -0.27876914 -0.21292517 0.3328322 -0.280034 -0.35715887 0.38062677 -0.36434925 -0.37781635 0.35620978 -0.20568469 0.031968437 0.35988733
天 0.39451283 -0.18508221 0.17292885 0.13448313 -0.36284718 -0.24949999 0.35539198 0.042062968 -0.20469832 -0.13071872 0.015945649 0.10944809 -0.26990274 -0.048830558 -0.18452987 0.14547056 0.0040098075 -0.22759338 0.15504393 0.12762946 -0.2808943 0.22542334 -0.2685585 0.12611754 0.17761272 0.287562 -0.39710382 -0.18910001 -0.3651474 0.30808753 -0.35730305 0.07601899 0.033836156 0.32275236 0.22361246 -0.239556 -0.31176198 0.4321974 -0.1924865 -0.23007587 -0.33237866 -0.010216739 -0.31832886 -0.33712438 0.3822432 -0.17835912 -0.0939135 -0.24876142 -0.17136662 0.1118252
乐 0.035570703 -0.14167444 0.022120683 -0.32268846 -0.3865373 -0.29536358 -0.3882851 0.41972288 -0.033267207 0.028039392 0.37850708 -0.11575808 -0.33767447 0.06080933 -0.050220598 -0.16138734 0.30162755 0.36747548 -0.32190803 -0.33343703 -0.31942868 -0.41263205 -0.25201553 0.38711345 -0.28795844 0.023344204 0.40928805 0.10008482 -0.39043605 -0.3193486 -0.37253344 -0.3929491 -0.36915943 -0.0924967 0.23599459 0.24754149 -0.3586707 0.33089623 0.35448587 -0.1424289 0.08982728 0.19565627 -0.018742986 0.34239063 -0.23865734 0.007020732 0.1713441 -0.27201462 -0.16670817 -0.36601198
邦 0.6312776 0.0709047 -0.17074294 0.1338239 -0.14859769 -0.6260053 0.032977108 0.26772508 -0.06323471 -0.49953276 -0.5291068 -0.16433041 0.30329007 -0.424494 -0.32992497 0.18669306 0.16050117 -0.62751466 0.16119677 0.47203 -0.2646834 -0.25407323 -0.5543356 -0.10072658 -0.4956243 0.5541525 -0.17912404 -0.33552596 -0.6267989 0.52406996 -0.35187632 0.29085922 0.0002576217 -0.07231768 0.15068887 -0.3043293 0.6866577 -0.25856063 0.6986782 -0.5682088 -0.50330484 -0.15682663 -0.36352694 -0.62072366 0.6506396 0.13633 0.37806356 -0.34044328 -0.52141774 -0.16340874
亦 0.35099372 -0.18711601 0.038622595 -0.32675883 -0.36179373 -0.3636568 0.24260372 -0.37794763 0.04749173 -0.013851801 0.269508 -0.3456883 -0.15433696 -0.34476152 -0.14307606 -0.1511127 0.29410863 -0.34489396 -0.014272088 -0.12894854 0.28429115 0.12270405 0.14758034 0.25636727 0.30264345 -0.35505378 0.32170033 -0.18739942 -0.3724857 -0.052690413 -0.1481042 -0.36391184 -0.37233356 -0.29573208 0.31915465 0.18350925 -0.34753504 0.2127555 -0.14756633 -0.1707504 0.21678714 -0.16505957 0.21657246 0.07307673 0.29598305 -0.3209457 -0.37984782 -0.087183826 0.03450705 -0.366424
使 -0.26781297 0.048903324 -0.3154453 0.15170863 0.22913842 -0.3225092 -0.31108925 -0.41835523 0.28127018 0.1523175 -0.05362584 -0.31970584 -0.124540016 -0.31883916 -0.04272703 0.22208895 0.30712324 -0.13711119 0.18530554 0.0034568228 -0.06977853 -0.27039406 -0.34901226 0.009578042 -0.37511075 0.4329963 0.006852137 -0.17307584 -0.26905954 -0.11397126 -0.07562118 -0.26344308 -0.0062743453 0.19884454 0.266706 -0.13418502 -0.15982135 0.42698073 -0.04403474 -0.16308653 -0.33545038 -0.02377557 0.21559641 -0.19729081 0.0040238732 0.3575564 0.1740506 0.26122993 -0.05856173 0.21734758
大 -0.23948883 -0.18884279 -0.0035193583 -0.3749789 -0.24037474 -0.39189926 -0.04085092 0.3527069 -0.2584189 0.08002676 0.18948685 -0.3887778 0.3579582 -0.3394075 0.14233272 -0.15571961 0.28790748 -0.4114985 0.33078083 0.36198685 0.01214305 0.069668025 -0.04636559 -0.35991418 -0.14184988 -0.31875893 0.14623906 -0.13469978 -0.1038059 0.113839366 0.087817974 -0.4530003 -0.019568965 -0.09486677 0.4012283 -0.29647115 -0.3671103 0.2980354 0.34264812 -0.08079368 -0.032871976 -0.05043891 -0.3504842 0.30990663 0.3106549 -0.03239494 -0.012891345 0.052123457 0.25621024 -0.18115214
下 0.38122448 0.3279545 -0.1842705 0.14214717 -0.038120463 -0.32181036 0.00645173 -0.38218343 0.44450513 0.39229813 -0.05923882 -0.37447944 -0.13679509 -0.25204423 -0.36477596 0.11655349 0.39087963 -0.23891693 0.13512538 -0.04834494 0.17484856 -0.17839135 -0.07223926 -0.30378157 0.36477 0.38908532 -0.20014505 -0.17912892 -0.07721307 -0.19407627 -0.07489479 0.3360775 0.18626446 0.3246254 0.39331704 0.26813656 -0.4302964 0.32720384 -0.40046456 -0.12666458 -0.22205245 0.071019836 -0.14587592 -0.050249938 -0.0050146505 -0.41904518 -0.090521745 0.1634209 -0.098760895 0.15212803
贡 0.03721609 0.2670337 -0.27057472 0.022114657 0.27194476 -0.04141182 -0.0018153894 0.34476107 0.38018987 -0.11844846 0.22391135 -0.2638013 0.35836768 -0.28241512 0.25950137 -0.042652093 0.29398182 -0.043564513 -0.25267172 0.3443931 0.2504722 -0.27803847 -0.33484957 0.2752886 -0.30096793 0.21144651 0.021850895 0.0020659696 0.27054763 0.11667056 -0.01759245 0.3028484 -0.00079323817 -0.37782702 0.1735853 -0.21695906 -0.28449595 0.32978094 0.3642789 -0.10622677 -0.38497365 -0.06079327 0.20975308 -0.054507185 0.267164 0.3215209 -0.22131218 0.058644067 -0.10507288 0.35231215
欲 0.35180044 -0.16729714 -0.3306227 0.34721148 0.28794572 0.29099572 0.19344547 -0.28810355 -0.25447422 0.32360607 0.3686032 -0.36973816 0.34647715 0.4152543 0.32399806 0.10194097 0.23982431 -0.21644847 0.31245267 -0.2437443 0.24575381 0.3689235 -0.3032838 -0.35680526 0.37210026 -0.40859574 -0.37777847 0.12326342 0.35234064 -0.3416712 0.3634533 0.3969037 0.36015093 -0.360541 0.28105915 0.07230285 -0.091068655 -0.22251116 -0.40450466 -0.34671307 -0.3037563 0.20156817 -0.3494087 0.25479007 0.3807233 -0.34998795 -0.32541603 0.34711552 -0.2683383 0.38366753
诸 0.16643056 0.18699199 -0.26808667 -0.26641563 -0.25855252 -0.13643588 -0.23613033 0.3422981 -0.3277503 0.20455638 -0.0590778 -0.25993487 -0.19113398 -0.28295985 -0.33484703 0.14247397 0.2813338 0.35817194 -0.29935417 0.26009694 0.024530804 -0.04253612 0.27447233 0.3815052 -0.18240361 0.10304597 0.19943613 -0.16117138 0.029718162 -0.36231348 -0.11286102 0.36728254 -0.07102897 -0.3545541 0.29657593 0.18570292 0.40820384 0.37596014 0.13894252 -0.074894994 -0.26279864 -0.30699265 -0.41866907 0.34266263 0.26314515 0.33135566 0.15226153 -0.08127293 -0.17220505 0.3051743
从 0.4041119 -0.45586812 -0.4169978 -0.5389404 -0.35288104 0.5829185 0.15139134 -0.35801497 -0.4744229 0.29573143 0.51081985 -0.38276666 -0.020878281 -0.14223239 0.7070809 0.087083854 -0.39369625 0.018926151 0.5357347 0.15632226 0.37468562 0.5694057 0.5996624 0.5498674 -0.6428045 0.49020135 -0.620561 -0.12328142 0.5262612 0.39312333 0.3514421 -0.21179791 -0.41400152 -0.2775696 0.5371119 -0.5682362 0.42718092 -0.46914357 -0.14983468 -0.3581631 0.33724797 0.29136017 -0.11384119 -0.58559275 0.5748216 0.49671263 0.62414324 0.3716515 -0.016399449 0.6261096
文 0.36052588 0.33334225 -0.29144853 0.025820551 0.35436854 -0.04130545 0.35562423 0.2869189 -0.3147902 0.15024985 -0.3181304 0.3183544 0.049683757 -0.17555909 -0.11067907 0.01809715 -0.010145847 0.029965209 -0.31161866 0.37523982 -0.0034507439 -0.34838963 0.042175844 -0.2555224 -0.37556243 0.27208346 -0.3841505 -0.1243459 0.3904608 0.096851446 0.3665375 -0.32233045 -0.13944653 -0.42231125 0.35098132 0.26612583 0.058005836 0.23102981 0.33619142 -0.105477445 0.049256362 -0.17297864 -0.25123924 0.32237825 -0.38552314 0.32767254 0.11403083 -0.024343647 -0.3360108 -0.28473634
政 0.19282068 -0.1460002 -0.20092764 -0.3382939 -0.19877996 -0.18049099 0.32911354 0.05322127 -0.3734448 -0.009553347 0.40422326 0.14030194 0.20671664 0.24109742 0.17702095 -0.060198434 0.36036044 -0.32552093 -0.008228255 -0.332014 0.18339601 0.026516518 -0.3415985 0.39801756 0.4297466 0.39953548 -0.40595308 -0.1954977 -0.33154956 0.39252406 -0.32793927 -0.29578352 0.39619115 -0.19420812 0.30832416 -0.35306787 -0.3191481 -0.34525704 -0.3254725 -0.18970504 -0.36054337 -0.07249953 0.39948124 -0.40186688 0.3885487 0.4064068 -0.14478737 0.16781211 0.34917662 0.33210796
食 -0.34335184 0.23975012 -0.004008636 0.071984135 0.02937393 0.16835651 0.032941826 0.22103745 -0.2950425 -0.011373925 -0.06570424 -0.120452635 0.21306795 -0.15407123 -0.086366564 -0.049096856 0.38483498 0.3391645 0.28635773 0.3962501 -0.24285781 -0.14751078 -0.31755656 -0.41590324 -0.36489484 0.28069332 0.25440764 0.08345925 0.38067096 0.23633298 0.28128812 0.36969778 -0.02777715 -0.26785475 0.076833844 0.29566348 -0.23017024 -0.042401824 -0.3657813 0.031043883 0.22921574 -0.07215812 -0.00254396 0.20076378 0.3613667 -0.26321393 0.38547245 0.066249445 -0.17612846 -0.14296752
善 -0.034674104 -0.3744191 0.09375287 -0.3054733 -0.06866073 -0.34427774 0.37207493 0.33149672 -0.2038185 0.27779076 -0.052004457 0.19288212 -0.10783838 0.31439275 -0.41063333 0.01589644 -0.0060320683 0.009161598 0.20528455 -0.18205394 -0.057165746 -0.0017701318 0.073107496 0.41320044 0.30469328 0.413609 0.3750112 -0.06241557 -0.38013545 0.19489004 0.078824475 0.11615895 0.31343526 0.17248306 -0.13007952 -0.17571661 -0.23646115 -0.37593198 0.17105132 0.12313598 -0.4019925 -0.31604412 -0.042616494 -0.41702694 0.32584974 -0.44215852 0.10688104 0.08801193 0.052686077 0.16171066
后 -0.43922138 -0.095529005 0.30560768 0.32976875 0.112375066 -0.36788127 0.3998644 0.07932932 0.17520137 0.32657257 -0.37056935 -0.27982265 0.3171037 -0.28773952 -0.29833776 -0.3004304 0.35113943 0.30451453 0.29241666 -0.26898733 -0.37299222 0.06802725 -0.34647846 -0.4166794 0.14883173 -0.31399444 0.004010383 -0.3552415 0.37689757 0.31728178 -0.23334771 -0.36221513 -0.29371297 0.31002784 0.35923028 0.3402693 0.38336107 0.34628376 -0.4092941 -0.10290712 0.35420284 -0.38028774 -0.39213267 0.38175622 -0.05744172 -0.3899509 0.36045334 -0.37230158 -0.15578674 -0.35613984
德 0.34174317 -0.09974411 0.025176235 0.21937254 0.40460616 0.26847705 -0.0058783814 -0.35501084 0.40322715 0.18524234 -0.3195601 -0.09866104 0.38095114 -0.025217209 -0.34109852 0.030269291 0.1468722 0.13100158 -0.24468331 -0.19947582 -0.077054024 0.27343327 0.37402257 -0.18598534 -0.31028035 0.44711193 0.40541562 -0.017118242 -0.30907178 0.30387196 0.30283603 0.16420557 0.061821952 0.2463418 0.09153415 -0.15961727 0.22976884 -0.21290202 0.31326407 0.027764436 -0.24506831 -0.1943835 0.029677056 -0.37597227 0.39391938 0.18972507 0.27731526 0.33922827 -0.084990054 -0.3586898
求 0.3447973 -0.33522826 -0.24066383 0.15793118 0.33796448 0.26033333 0.22173372 -0.26101643 -0.19857523 0.25532776 -0.40924275 -0.051953122 -0.28191 -0.13012883 -0.37064248 -0.023194961 0.08652204 0.3312362 -0.31894362 -0.32702386 -0.07305879 -0.22914366 -0.33046192 0.36682183 0.3867811 -0.12847203 -0.32801685 -0.25295532 -0.38323158 -0.32929587 -0.31520408 -0.36810768 0.050076187 0.16529258 0.3663547 0.22314528 0.40679747 0.02472647 -0.32466722 -0.20729597 0.40081987 -0.33896017 -0.16253142 -0.33028013 0.2752923 -0.3989107 0.33827907 -0.24111481 -0.3141581 -0.3908737
对 -0.6040594 0.5035886 0.4229054 0.5087928 0.62219435 -0.14100893 -0.61878854 -0.40291792 0.4721221 -0.07855086 0.4408487 -0.56490123 -0.19499546 -0.3224996 -0.27844244 -0.5994886 0.49694043 -0.57289994 -0.08062225 -0.57507366 -0.53499204 0.48376635 0.2955216 -0.27604395 0.55191004 -0.6279242 0.4881851 -0.3417256 -0.084414266 0.5256943 0.087729834 -0.081655376 0.31671473 0.0648885 -0.18920559 0.51225144 -0.10985579 0.60262305 -0.6817315 0.4192398 0.5710529 0.50015235 0.58059 -0.34823796 0.19168754 -0.086054765 0.42961812 0.36386368 -0.38669732 0.48880938
恶 0.38968474 0.11242667 -0.30054688 -0.2273006 0.081332766 0.08820187 0.35365173 0.335789 0.054829933 0.037596848 -0.057753682 0.15574884 0.35443002 0.18471155 -0.3390708 -0.014389026 0.27230468 -0.3880054 -0.028699137 -0.104947045 -0.31580272 0.14158826 -0.002368406 0.3087985 0.35218006 0.25598657 0.369825 -0.10496776 -0.38163128 0.15645272 0.114283115 -0.35426688 -0.028016502 -0.29504794 -0.3427598 -0.20110223 0.24882483 -0.2684998 0.32385707 -0.1579102 0.16151918 0.06368855 -0.19813426 -0.37111953 -0.21974447 -0.39068228 0.33179292 -0.27422875 -0.35067743 0.26737884
信 0.3442933 0.007980045 -0.23001356 -0.22916025 -0.1126341 -0.30937278 -0.29283884 0.29333454 0.17637084 0.06033108 0.3559544 -0.30089083 0.2718873 -0.39111435 -0.31474692 -0.25090227 0.2587799 -0.3632155 -0.31373423 -0.06012463 -0.13139883 -0.32998696 -0.36123952 -0.36043254 0.15046555 -0.21866807 0.28368407 -0.33178172 0.25645375 -0.056912288 0.2267546 -0.36160773 -0.33454397 0.3204626 0.33907 -0.017309383 -0.35674614 0.35904476 -0.32619372 -0.09506062 0.2655118 0.19517115 0.37468934 -0.31155762 -0.24039085 -0.39800057 0.19399619 0.18590613 -0.03106129 -0.34260312
死 -0.16676375 -0.087839395 -0.08545608 -0.033209134 -0.12902848 0.15881756 0.16119108 0.24745975 0.08950175 0.14388391 0.28960568 0.17329936 -0.044060983 0.39035922 -0.38150305 0.13419181 0.24212912 -0.36498258 0.1741764 0.0045197313 -0.33886647 0.06625509 -0.2650846 -0.42829904 0.22536948 0.061696008 0.3966211 -0.020007374 0.15247485 0.33639908 0.1782481 0.4352262 0.07616072 -0.334497 -0.34200725 0.31591132 -0.029476427 -0.38403702 -0.1850788 -0.18516633 0.027111635 0.075208314 -0.33331323 -0.04449547 0.031522434 0.10439661 0.3389655 -0.121817924 -0.10765709 0.37324452
然 0.14811854 -0.25596178 0.35303536 -0.31530437 -0.38692322 0.2500485 -0.15144002 -0.2629333 0.37956154 0.12083796 0.36295888 -0.0058783866 0.07205473 0.33149064 -0.08962264 0.057916097 0.08966028 -0.37986803 -0.3712941 -0.34433833 0.054192655 -0.18644945 0.029923458 0.36116242 0.35030222 -0.036842063 -0.27548724 -0.1356405 -0.3499101 0.16926995 -0.02772426 -0.21450588 0.0601807 0.38162056 0.24498816 0.11947493 -0.121027105 0.3397843 -0.36551568 -0.02808751 -0.3882073 0.09645901 0.0013451711 -0.35895112 0.348137 0.08310727 -0.021482453 -0.19680648 0.16906056 -0.41818914
《 -0.11458926 -0.22582792 -0.23996207 -0.1353558 0.30069837 0.39614698 0.34677958 0.32178602 -0.04249176 0.17531708 0.38975334 0.3463952 0.33590665 -0.36257732 -0.36615878 -0.073467396 0.33467388 0.24334103 -0.3956768 0.3350099 -0.35890865 0.09250009 0.034061864 0.33518317 0.39382035 0.35554174 0.391726 0.33205563 0.37894312 0.28055444 -0.37311727 0.34741756 -0.32624048 -0.31196937 0.38021487 0.37691504 0.37586084 -0.29975754 0.3613557 -0.19629754 0.39966604 -0.11700145 -0.008700074 0.3936675 -0.3829315 -0.3999664 -0.27846822 -0.3461942 -0.26351762 -0.362405
》 -0.25477698 -0.25720268 -0.23464113 -0.32984844 0.286535 -0.34088942 0.009382522 -0.33333254 0.3353959 0.19953859 -0.3713772 0.03990545 0.35853773 0.34823823 -0.2315726 -0.28681004 0.21938087 -0.31469545 -0.011878836 0.085030615 0.3535532 -0.33583662 0.1217982 0.40116173 -0.38182086 -0.06649418 0.2668493 -0.053945463 -0.35715586 0.2997238 0.30857307 0.3957618 0.36119846 -0.17418735 -0.37016734 -0.119263105 -0.33545536 0.3686412 -0.30573308 0.04983641 -0.19165729 -0.15353762 0.033742215 0.27730727 0.32300505 0.37760723 -0.35919303 -0.33687153 -0.017746123 0.15734234
由 0.39180988 -0.040642362 -0.23673388 0.21635757 0.3372635 0.29937994 0.35693562 -0.3727859 -0.35006046 -0.06936894 0.37038398 0.2026915 -0.19269462 -0.37529027 -0.29489544 0.20265928 0.16691649 0.3456077 -0.38542867 0.34556377 -0.24969651 0.25138324 -0.37871 -0.36389962 -0.097586125 0.2802309 0.38123596 0.14077419 -0.04020264 -0.21090873 -0.14369129 -0.4018921 -0.1504834 -0.33954474 -0.43120444 -0.18201974 -0.3700432 -0.047588076 -0.3710592 0.12832254 0.382321 -0.21143185 0.2984829 0.300395 0.016630232 -0.37546262 0.1486574 -0.100296505 -0.27041602 0.25970244
仲 -0.6603354 0.37136182 -0.56942296 0.12523 -0.19632353 -0.569781 -0.1435198 0.5524932 -0.59073555 0.26083913 -0.68916214 -0.3029978 0.005418932 0.30690137 0.5556918 -0.5473283 -0.5127273 0.33714533 0.6586515 0.5263637 -0.5528148 0.26577893 0.6263022 -0.63574284 -0.19829075 0.33181834 -0.3443103 0.39546978 -0.21691868 0.56126034 0.6079808 0.29757056 0.14055376 -0.05001319 -0.24856862 -0.55410886 -0.5750182 -0.1164134 -0.53740805 -0.22608942 -0.50229895 -0.5092279 -0.5173048 -0.06430303 0.51648915 0.56085616 0.35050935 -0.5135762 0.6905311 0.5089476
非 -0.39583358 -0.00049774384 0.3946872 -0.107554644 0.38859528 -0.18841398 -0.3836171 -0.3895257 -0.30633435 0.1773989 0.026974378 0.34068882 -0.025988033 -0.21920913 0.11373138 -0.068155974 -0.01232355 -0.13277583 -0.2677475 -0.011631014 -0.25256738 0.038688093 0.3714517 -0.38088202 0.40518713 0.3287352 -0.34117496 -0.12139911 0.4085558 -0.1402073 0.005685796 0.2485725 0.013532695 -0.3442326 -0.2523354 0.22174385 -0.33685124 -0.117306694 -0.39208207 -0.07763829 0.21525759 0.08473831 0.14977711 -0.1936606 0.17769553 0.36563098 -0.06451975 0.35083264 -0.10509409 0.39272586
出 -0.28913844 0.036152158 -0.18276145 0.15659216 0.39252353 -0.29565904 0.15320645 -0.36577106 0.32039678 0.14889431 -0.3821484 -0.07092775 0.31873164 -0.21006568 -0.06168849 -0.1319687 0.04838669 -0.2887168 0.40189362 0.1494345 -0.03876317 0.06184615 -0.18001947 -0.36905256 0.3685797 0.39569277 -0.3581082 0.067951426 0.35984203 0.020592133 0.11812458 -0.0017514098 0.10478816 0.055232096 0.37053227 -0.056824174 -0.36218414 0.39188683 -0.35825574 -0.016803488 -0.39451876 0.19647624 -0.33089405 -0.3277947 0.38467652 -0.19425347 0.3785059 0.069260396 -0.2237519 0.13702057
过 -0.3511871 -0.33849013 0.09866799 -0.3911736 0.33000398 0.35326624 0.10795129 -0.3584843 -0.40403727 0.2511572 -0.23619328 0.41966182 -0.29738826 0.38338876 -0.28314665 -0.07510336 0.21585461 -0.37415314 -0.18409549 -0.41066074 0.25616923 -0.04377147 -0.33106235 -0.40751454 -0.23841888 -0.24916603 -0.40162808 -0.21647596 -0.15373062 -0.29083097 -0.4191161 -0.28616568 -0.412008 -0.14787751 0.30003905 0.30793464 0.27845785 0.35795528 -0.36062083 -0.3122112 -0.20851591 -0.31158835 -0.061773967 -0.31214014 0.321358 -0.33238715 -0.18801515 -0.101831935 0.028279487 0.35336834
一 0.2153998 0.032039005 -0.1881532 -0.08515768 0.345821 0.30808225 0.36976022 0.38652313 0.35142264 -0.30381233 -0.23471044 -0.08057206 -0.3179664 -0.3693047 -0.12321429 0.09948108 0.18197009 -0.40831745 -0.096508175 -0.14505075 -0.21177341 -0.2205012 -0.32795137 -0.4131294 0.13064618 -0.1510571 -0.3464286 -0.1283167 -0.31708685 0.15465608 -0.11431063 0.37617224 -0.3489652 -0.44526467 0.3821924 -0.13647234 -0.37898844 -0.17625813 0.39163968 0.027848218 -0.0765594 0.08200602 0.33213556 0.19938354 0.122753635 0.2203911 0.34260434 0.26418623 -0.34847936 0.4144412
虽 -0.32906243 -0.40525565 -0.051137786 0.46256655 0.39812878 -0.06350599 0.2873398 -0.34560844 -0.23508589 -0.21555048 -0.100685515 0.25530118 0.13449195 -0.32835764 -0.17913319 -0.0064349687 0.10667393 -0.37545323 -0.35509756 0.07788286 0.26701662 0.17028843 0.043796286 0.21170221 -0.093694866 -0.329115 -0.38531122 0.18724252 0.3436021 0.26468912 -0.0021082992 0.3336629 -0.24327058 -0.21589515 0.09389101 0.036961466 0.15719162 0.06911334 -0.24085158 -0.13090892 -0.053169787 -0.17307708 -0.2913212 0.27748454 -0.08692488 -0.040697753 0.18943724 -0.1239489 0.01328068 0.3975438
足 -0.32927635 0.16069318 0.14063886 0.002896189 -0.39906758 0.14647646 0.098311424 0.392199 0.42739326 -0.15021788 0.23964097 -0.0014405272 -0.35009444 -0.3820342 -0.22766282 0.015262157 0.040963 -0.086780906 0.41410345 -0.050236475 -0.39564666 -0.20548925 -0.37463534 0.42943406 0.3217869 -0.20568731 0.38293377 0.1629431 -0.40388498 0.023245072 0.08566776 -0.45367646 -0.06675831 -0.21574278 0.3827535 -0.029462531 -0.090291515 0.033586428 0.24732478 0.073712476 -0.05630855 -0.08995274 0.37170172 0.24109666 0.05163337 -0.43389255 0.054871574 0.036940012 -0.119168565 0.18504064
居 -0.37667522 -0.30144122 0.37500116 0.12576853 -0.36688742 0.30321687 -0.36612862 -0.20886356 -0.013663685 0.19801703 -0.16927667 -0.22103514 0.008673675 -0.36587402 0.21504866 0.1506396 0.20128283 -0.18963028 -0.336616 -0.25467795 -0.35742244 0.33374014 -0.37576026 -0.031776752 0.4214363 -0.38381863 0.39308727 0.004380646 -0.10793314 0.12926796 -0.3858705 -0.38443115 -0.35303742 -0.108701654 -0.07856229 0.2825326 0.31053668 0.31585073 -0.05916399 0.04847395 0.050104164 0.3323839 0.15044644 0.1165286 0.15748218 -0.38034832 0.2904952 -0.28566745 -0.26760504 0.1744824
尔 -0.37500584 0.6777738 0.5643633 0.31099617 -0.5554421 -0.5082621 -0.7204054 0.71474236 0.48323864 0.20254178 0.49942675 -0.5268202 -0.2251701 -0.35125893 -0.367544 -0.35369226 0.03796569 -0.026115272 0.10217703 0.009297306 -0.57289135 0.14369042 -0.6265174 0.7038194 0.6748481 -0.40199018 0.209984 -0.34200317 -0.24283284 -0.18442862 -0.022331595 0.1218741 0.4205386 -0.3278485 -0.07252158 0.37215596 0.49652562 0.24274608 -0.7010771 0.25782925 -0.6425383 0.26359373 0.5084758 0.6491168 -0.2532734 -0.6084729 0.14580946 -0.43251425 -0.3386485 0.35634524
夏 -0.36111692 0.09296168 0.20391375 0.2004261 -0.38671106 -0.078764915 -0.23467264 -0.41936257 0.082924575 0.20590556 -0.090728365 -0.107787095 -0.21848488 0.3050707 -0.27145538 -0.015022533 0.08101118 -0.10140955 0.30726942 0.18168058 -0.39848465 0.26852417 -0.32166126 0.29342225 0.16521046 -0.43273637 0.20768458 -0.09594618 -0.4131178 -0.1259091 0.15954968 -0.29527834 0.0069594043 0.39227578 -0.0592112 0.1399346 -0.13862625 0.064147815 0.35153502 -0.082290635 0.35415712 0.23927861 0.33221304 0.10864998 0.029111926 -0.43741167 -0.26735973 -0.12023412 -0.13658333 -0.046040278
父 0.30135477 -0.25658602 -0.13070937 -0.074332565 -0.38178477 0.30749628 -0.33557814 0.38249516 0.1694028 0.10898909 -0.21472561 -0.3672405 0.103459924 0.3629312 -0.012084277 -0.27085257 0.029749585 -0.29765648 -0.29624102 0.34405518 -0.2198619 0.30963624 0.28153783 0.35715854 -0.34526736 -0.36805 0.10443216 -0.094233125 -0.35470352 0.23564543 0.31519517 -0.29695576 -0.3137832 -0.34651434 -0.3748779 -0.095548585 0.37078917 0.26492766 0.33592635 -0.18221417 -0.27792743 -0.19937281 0.27085593 0.18891037 -0.21199964 0.18387863 0.3386859 -0.2696416 0.25414973 0.3159581
及 -0.27887678 -0.22732499 0.19093242 0.00058948726 -0.3938176 -0.24031734 -0.14900893 0.36879387 0.34976062 -0.04530778 0.21350914 -0.15152906 -0.31842363 0.36081293 -0.3200242 -0.07287934 -0.09026363 0.080716886 -0.01741666 0.32188064 -0.2204726 0.052239176 -0.3990652 0.35418227 0.22956409 -0.30143937 0.38247988 0.031111345 -0.39748842 -0.0059965616 0.06661358 0.30825263 -0.3332013 0.35524732 -0.36705518 -0.17073496 0.33143374 -0.16607746 0.36000156 -0.16056047 0.040202633 0.04188115 0.31128588 -0.33525264 0.15124846 -0.37712312 0.29460055 -0.016314596 -0.09770381 0.36198264
己 -0.34104604 0.19559872 0.061275486 0.37714475 -0.18125054 -0.32245588 -0.15799029 0.3389077 -0.21150227 0.15286955 0.19976029 -0.3395429 0.32693717 0.33123785 -0.41532245 -0.24094462 0.11504562 -0.35788548 -0.4168736 0.15592062 0.37193978 0.18687005 -0.4205392 -0.019697376 0.19566807 -0.36905867 -0.041543297 0.14758202 -0.38793147 0.3615955 0.18215586 -0.35721275 0.16896911 0.16035353 0.058071632 -0.2913464 -0.07754144 -0.38381895 -0.37332496 -0.23254763 -0.42318502 -0.26847312 0.26974434 0.0052824346 -0.087963775 0.11827951 0.017025981 -0.35068956 -0.14053562 -0.20759566
予 -0.29498374 0.048811987 0.2890339 -0.010148785 -0.37592623 0.18290156 0.3716841 -0.3766291 0.38194987 0.06970247 0.35008353 -0.37904334 0.37071276 0.085625716 -0.16635431 -0.22348745 -0.13142145 0.037892032 0.35312432 0.29957375 -0.123398714 0.22728205 -0.3916367 -0.23601331 -0.4184941 -0.26629564 -0.012406409 -0.14344871 -0.31253433 -0.30935147 0.22084913 -0.36539963 0.07988288 0.14447312 -0.18982531 -0.16585982 0.33817554 0.31405103 -0.4185743 -0.15099616 -0.3615226 0.09847352 0.1613527 -0.121358246 -0.04746885 -0.39740786 0.33512056 -0.045352373 -0.28255033 0.24893968
色 -0.26237705 0.007387949 -0.27922916 -0.19825327 -0.3734305 0.4032215 -0.39986646 0.42407033 -0.33354235 -0.37689492 0.3852406 -0.36432743 -0.38028774 0.27694678 0.15987612 -0.09237292 0.2505629 -0.18574801 -0.34551474 0.25433213 -0.058592375 -0.011154412 -0.34059215 0.07181744 0.040630512 -0.39831388 -0.26043358 0.08711891 0.30707678 0.1657134 0.22464038 0.24671839 0.12430568 -0.20641103 -0.37456656 0.26647696 -0.22515377 0.35345063 -0.103594385 -0.14289927 0.21524604 -0.24938476 0.2538323 0.3751737 -0.2217882 0.018699106 0.032537885 -0.046681903 0.06296988 -0.3434298
友 0.011623146 -0.051899835 0.0009610262 0.2980973 -0.39863917 0.32712767 0.057457674 -0.24579562 0.1836616 -0.016462278 0.18522118 -0.39349678 0.119384214 0.23620898 -0.11867886 -0.30888867 -0.014371844 -0.26094157 0.043205965 0.09724944 -0.30177534 0.103317216 -0.15488742 -0.4072934 -0.12429137 -0.16094097 0.40403965 0.036498465 0.44656017 0.37187958 0.39741364 -0.40611103 0.38846564 -0.39628085 0.066731006 0.062304273 0.113226086 -0.10479254 -0.16815263 -0.0027455762 -0.33434397 -0.1759997 -0.37376148 0.27951157 0.16251743 -0.21155712 -0.06041117 -0.06863941 -0.007764534 0.27812523
成 0.65776575 0.63873065 -0.432292 -0.30214012 0.3656902 -0.5796906 -0.6787939 -0.005934383 0.13219215 0.46252474 0.6188223 -0.5465899 -0.3210915 0.6908072 -0.5764727 0.27329937 0.2252171 -0.571906 0.2817946 -0.38135433 -0.008197735 -0.0022440506 -0.10640059 0.41602755 0.7643689 -0.059626404 0.5449829 -0.47726268 -0.63696104 -0.31002095 -0.6044776 0.029974597 0.52245456 0.2828803 -0.39326718 0.67094135 -0.62095743 -0.3972258 0.63982135 -0.07573278 0.42137042 -0.49906674 -0.38293165 -0.48913714 0.5365348 -0.47350335 -0.76426566 0.4628327 -0.48341924 -0.68294895
远 0.14608595 -0.3819881 0.35665146 0.19525251 0.06701292 0.062410027 -0.24455199 -0.37071657 -0.2686682 0.14994575 -0.38608435 -0.35366037 0.13929103 0.17491835 0.3276832 -0.35576713 0.3299388 0.052822586 0.26722798 0.39118475 0.13396405 0.36358032 0.38570893 -0.36915773 -0.38690078 -0.3856099 -0.33654752 -0.3616053 -0.25958985 0.29907218 0.3573671 0.21986674 0.36006525 -0.38191867 -0.38728988 0.37065423 0.33179602 0.35435465 -0.36776516 -0.19498667 0.32401964 -0.34049565 -0.3954232 -0.3080001 -0.18228245 -0.40171707 0.38909486 -0.2717821 0.3438934 0.29237646
上 0.2976528 0.3733789 0.2942333 -0.30275276 -0.31844395 -0.2708728 -0.28953788 -0.3430661 -0.17831105 0.2318669 0.23635426 -0.21392892 0.4060645 0.1251506 0.37144905 -0.23604792 0.32206243 -0.37913698 0.42677826 -0.0091816 0.36642167 0.033257436 0.35377005 0.29688868 0.31047583 -0.40652478 -0.36621678 -0.2756693 0.42466986 0.30478215 0.19731861 -0.3850793 -0.38363177 -0.096987166 0.3854963 0.31622416 -0.32581604 0.3888955 0.3969117 -0.21704347 0.22591265 0.15669324 0.35424864 -0.31052256 0.33285674 0.11481463 -0.35303926 0.036880955 -0.1449785 -0.18654822
立 0.106728815 -0.41273093 -0.18884757 0.3761079 -0.38186702 -0.18646657 -0.024909688 -0.28162065 0.19983774 -0.09150933 -0.24652271 0.28238627 0.24313974 -0.048989914 -0.21981354 -0.037183914 0.0076073506 -0.007797209 0.029656772 0.27866045 0.11060326 0.34679148 -0.02044747 -0.30923316 0.328841 -0.3333038 0.11180727 -0.31008473 -0.31054926 0.08285433 -0.053535204 0.3442006 0.3721718 -0.40800393 0.20986634 0.39707094 0.10811065 0.3097591 0.12990215 -0.07884574 -0.011089922 -0.11219577 -0.38103604 -0.24913928 0.31495228 -0.1700919 0.01670011 -0.31798849 -0.21138863 0.24383664
今 0.2617844 -0.2016198 -0.08035926 -0.39077693 0.21014504 0.3236226 -0.3822156 -0.38048777 0.05815366 0.03490257 0.39574614 -0.098588794 0.32057923 -0.025288062 0.17516102 0.16878587 0.28255373 -0.40133768 -0.10049741 0.22627114 -0.088760585 0.0107198525 0.32992208 0.11058691 0.37602457 -0.3284267 0.40311855 -0.025134932 0.4082264 0.04794631 -0.26430386 -0.1227729 -0.21079504 0.33598956 0.3761892 0.014992034 -0.42538187 0.409623 -0.0820132 0.06753992 0.059084024 0.015013836 0.3759044 -0.3674755 0.39247313 0.3944358 -0.104218364 0.00631156 0.09214058 0.2320581
张 0.3565469 -0.39797643 -0.38468757 -0.27780417 -0.32089046 -0.41775203 0.23223573 -0.39521295 -0.15338954 -0.05838561 -0.34816393 0.32794514 0.2969285 -0.39033434 -0.4163569 -0.03968602 -0.09549193 0.25737557 0.16442184 0.32001114 0.22413066 0.097658396 -0.2400219 -0.38602355 0.2755 0.26475433 -0.3536478 -0.05573918 -0.27338013 0.0951579 -0.13880605 0.4051315 0.055547554 0.0061199446 0.07262022 0.07648212 -0.2345223 0.41878998 -0.021862969 0.0058825007 0.30242887 0.068629794 -0.103043854 -0.41065094 0.04659165 0.33220816 -0.14574473 -0.20814022 -0.35875094 -0.43357852
中 -0.29937658 -0.2485134 -0.13002148 -0.3624563 -0.343111 0.30889177 -0.07258114 -0.39435822 0.08580005 -0.12260026 0.36173576 -0.30851656 -0.03160593 0.27862135 -0.033300843 0.018682018 0.34555137 -0.25967804 0.27111778 0.34271044 -0.057814777 0.24426384 0.36041775 -0.37898192 -0.3470498 -0.36339858 -0.2153141 -0.093126155 0.32885852 -0.25832364 0.1874975 0.33620596 -0.2869148 -0.19070323 0.14274918 -0.31378803 -0.36909765 0.39977333 -0.40898576 -0.0014152951 0.17723557 0.3167652 0.2919268 -0.3451566 -0.37833512 0.40839964 -0.0015882128 0.23765081 -0.06284485 -0.38114235
季 0.37398165 0.059347507 -0.3377853 -0.36816826 -0.1270714 -0.42794624 0.35113302 -0.01916665 -0.02688396 -0.066164926 -0.01747479 -0.10126588 -0.20871142 -0.31965384 -0.2658636 -0.090920135 0.1965088 0.3074807 -0.3642766 -0.08622244 0.17700683 0.101655334 0.23633389 0.395831 -0.3328834 -0.3239444 0.06820126 -0.11188068 -0.4079161 0.3058409 -0.29900703 -0.35720396 0.019064877 0.15323588 -0.3457287 -0.04222185 0.059039444 -0.04326251 0.36252403 0.017496238 -0.21781148 0.028088503 0.39408302 -0.39050204 -0.041179236 -0.16485724 -0.1233253 -0.2227062 -0.32417002 -0.14830391
臣 0.5457804 -0.62818956 0.7047287 -0.5059807 0.40562364 0.6574465 -0.3705407 -0.027487107 0.21882325 0.48173633 0.18931384 0.46800125 -0.34537148 -0.5972208 0.57935286 0.03150547 0.6139914 -0.039950304 -0.62209433 0.43023577 -0.023123385 0.53766 0.48101005 -0.30056274 0.55366045 -0.6665357 -0.61659527 -0.5143018 0.51479554 -0.59228545 -0.026645493 0.1623255 -0.22092336 0.14478081 -0.24280472 -0.29386377 -0.5546089 0.61216724 -0.52527905 -0.49384353 0.635113 0.4956902 -0.11755074 -0.5245358 -0.6994556 -0.097572 0.60418785 0.1927542 -0.44590798 0.4048064
贤 0.35259062 0.24200104 -0.1437608 0.027344503 -0.021627039 -0.38270456 0.3019449 -0.0411898 0.2225154 0.0047686943 0.31481346 0.124213845 -0.3037512 0.28443697 0.069842935 -0.25091133 0.21739975 0.20028469 -0.34154254 0.1827665 -0.31532902 0.09774 0.35832822 -0.4152419 0.2361027 -0.3595655 0.338595 -0.08774041 -0.3554168 0.29391083 0.034333516 -0.3341397 -0.037225064 -0.35832548 -0.3627351 0.2677305 -0.29088333 -0.42916575 0.33651158 0.10130938 -0.09435836 -0.23871844 0.21020819 0.11539568 0.03259901 -0.37020206 -0.0036842292 -0.036692053 -0.2587031 -0.16260904
思 0.09916541 -0.30261284 -0.14730278 0.41923618 0.21979168 0.40477738 -0.38687965 -0.3800735 -0.25315014 0.35760748 -0.14968072 -0.38476744 -0.35466427 -0.24029401 0.38372096 -0.1155822 0.3646598 0.35717946 -0.38862097 0.37727162 0.37400153 0.34013724 0.29313415 -0.27002203 0.3891765 0.268187 -0.38075578 -0.3417683 0.40387148 -0.4158453 0.25706977 0.3999352 0.40891817 -0.3196947 -0.30803886 0.12514311 0.22535093 0.41813007 -0.4209729 -0.3082415 0.3864083 -0.3527833 0.42308384 -0.34378952 0.33422646 0.31697145 -0.26637772 -0.016643478 -0.18507992 0.3563626
齐 0.38839468 0.33705288 0.021302518 0.11443156 0.1382882 -0.3606851 0.30054954 0.08258412 -0.028419338 -0.048362806 -0.02065565 0.043028936 -0.05603731 -0.16968869 -0.3859429 -0.22496651 0.3144911 0.09761516 -0.34521103 0.3729899 -0.33826667 0.18494992 -0.03413399 -0.3939881 0.31401348 -0.36464757 0.38418072 -0.17396057 -0.22292775 0.07150791 -0.2661038 -0.3751566 -0.024690319 0.0910479 0.34692776 0.33410436 -0.2313118 0.33597708 -0.31062442 -0.075014964 0.058450054 -0.24878903 0.21241488 0.29564446 0.3342268 -0.39523643 -0.09082941 -0.21071695 -0.32236862 -0.38772273
义 -0.01519108 -0.07565184 -0.32174847 -0.36070532 0.061046064 0.25393155 -0.11973415 -0.38284385 0.29634058 0.30541912 0.1357967 -0.35881954 -0.29568097 0.39437062 -0.026506847 -0.17027523 0.3272289 0.33814582 0.34872085 -0.34236932 0.29490882 0.14269836 -0.39288872 -0.33360305 -0.36833706 -0.376185 0.3741933 -0.025788896 0.37144074 0.33074751 -0.37398535 0.35433817 0.35564446 0.40276775 -0.3991691 0.2956767 -0.32278273 0.368542 -0.36386853 -0.3242827 -0.3506033 -0.3576202 -0.40521908 0.39654982 0.3502471 0.23220158 -0.3127923 0.3359513 0.056003515 0.3847489
正 0.3612805 -0.37451455 -0.024062136 0.29459962 -0.14936143 -0.031252284 0.13680167 -0.0027486195 0.03058937 -0.1253364 -0.4289621 0.22372158 0.11373815 0.12286167 -0.4095962 -0.28245735 0.34260297 0.024244644 -0.35758725 0.31721932 -0.28458986 0.28658277 -0.03329359 0.3479627 0.20067115 0.057680413 0.080609374 -0.007955123 0.38783506 0.333034 -0.13140707 -0.3982704 0.14394197 0.14949575 0.41617882 0.28738415 0.3944568 0.4200824 -0.055725347 -0.13089783 -0.25039282 -0.08088062 -0.19765654 0.1550453 0.13856934 -0.30193365 0.08721116 -0.15882963 -0.3603058 -0.39108586
命 -0.3692027 -0.24500686 0.2603791 0.076492 0.39485878 -0.38725123 0.15502144 -0.4182101 -0.35708246 0.12981695 0.024248332 -0.17281449 -0.38849854 0.342741 0.093488455 -0.14239898 0.38130912 -0.3927334 -0.40595534 -0.08242835 0.3470122 0.13355348 0.31049055 -0.17889602 -0.26722535 -0.29249352 0.33513367 0.061563827 0.37340012 0.08560348 0.015582192 0.41144192 0.35951474 0.1793461 0.06359741 0.39803344 -0.18770134 -0.11442149 -0.15002443 0.011407407 -0.28569883 -0.20032373 0.1970027 0.11860046 -0.17751141 0.38025066 0.0038358178 0.31454307 0.112497725 0.37884915
曾 0.007192701 -0.36841714 -0.24330662 -0.34277362 0.3548371 0.3959548 -0.38783395 -0.38622954 -0.19736771 0.35995552 -0.38239136 0.3398887 0.41479212 0.10402286 -0.27849197 -0.36494792 -0.08660337 0.38492414 -0.32882556 0.11638273 -0.32431355 0.17141359 0.3396966 0.21186674 -0.12135752 -0.39501044 0.2803002 -0.18556577 0.4122118 0.027637694 0.3202876 -0.29277572 -0.4156705 -0.32029986 0.38713214 -0.36545104 0.24213323 0.48514077 -0.14092195 -0.19090983 -0.3553137 -0.21982281 0.36709198 0.40303808 0.018942134 -0.35448244 0.32815668 -0.32118574 -0.3529737 0.013929539
伯 -0.42571464 0.5272677 -0.672037 0.013446431 0.5628425 -0.6241804 0.12482843 -0.57957935 0.4180826 0.29552898 -0.37162894 0.07601362 0.6689239 -0.32673314 -0.18461719 -0.31446663 0.627973 -0.69683677 -0.30552182 -0.009303727 -0.22105584 0.30123422 -0.63788563 -0.37477666 0.6604682 -0.3541816 -0.14094473 -0.13499117 0.08038531 0.06283106 0.12922373 -0.1142952 0.44649905 0.67168325 0.051987153 0.5748783 0.19003664 -0.5680602 0.52269894 0.14690581 -0.09166228 0.043982234 -0.19893049 0.5564855 0.055756893 -0.34290245 -0.2669584 0.25193608 -0.16208524 0.0031990325
门 0.36395168 -0.32143393 -0.13580054 0.119882874 -0.23413904 0.09897639 0.3139634 0.4735515 0.18628886 0.17504747 -0.25779742 0.18405037 0.0063664177 0.04292971 0.23213567 -0.36909336 0.03559185 0.3332506 -0.41941336 0.068398274 0.01980901 0.28900898 0.38872868 -0.3151902 0.3910899 0.087928936 -0.3489869 -0.2310765 -0.38329756 -0.07425343 0.16716926 -0.3530276 0.3482442 -0.39770433 -0.21170416 0.25821304 -0.049152475 -0.08576354 -0.34123465 -0.12511776 0.06424453 -0.3318251 -0.31537187 0.05800616 0.30213258 -0.39553875 0.4057789 -0.18700443 -0.052894764 0.24634674
敢 -0.2696313 -0.23784949 0.32467487 -0.30006546 -0.09959206 -0.0061092973 0.33710375 -0.40126672 0.00055452995 0.2634024 -0.37916288 -0.33558893 0.19882965 0.3962223 -0.01417452 0.0070436858 0.2209046 -0.36983153 0.32719684 -0.27322614 -0.23690784 0.3862487 -0.40780836 0.34972337 -0.33857498 0.23900932 -0.3925745 -0.21148369 0.2567291 0.39056918 0.08185248 -0.38846064 0.37683338 0.38622195 0.009937992 0.32847273 -0.009288676 0.24793285 -0.33645248 -0.12941712 -0.27227837 0.15153274 -0.0010474224 0.20745914 0.33617407 -0.38967097 -0.34860805 -0.19048962 -0.16519023 -0.45077965
犹 -0.34380588 -0.15430015 -0.30693477 0.37606815 0.3750316 0.36006078 0.20808889 -0.39196837 0.32334316 0.115801394 -0.18306653 0.29697242 0.38015643 0.19460678 0.025292402 -0.359661 -0.111814044 -0.19625095 -0.31331426 -0.33413947 -0.1749843 0.25180656 0.35434872 -0.282453 -0.40408123 0.37477326 -0.3992151 -0.061446454 0.37091494 0.025433173 0.24044722 -0.36859247 0.3049015 -0.35169506 -0.39641133 0.23548682 0.34742355 -0.35255593 -0.36287332 -0.087798916 0.30021015 0.22022092 -0.4067511 -0.25635317 -0.26189297 -0.40510327 0.30961984 -0.2186874 0.012593749 0.14699112
生 0.33161482 0.42194766 -0.03395543 -0.09077241 0.39807886 -0.31948265 0.3512743 0.34645367 -0.35237017 -0.09902193 -0.19015843 -0.23887229 0.34889603 -0.33085713 0.3022385 0.045683064 0.006857007 -0.19367056 0.17528903 -0.36549014 -0.18600096 0.24477296 0.35607576 -0.3121536 -0.07842891 0.3205852 -0.34227538 0.045928013 0.3884335 0.27874818 -0.083617404 0.40484196 -0.06734723 0.008201909 0.15393066 -0.004522357 -0.27207318 -0.37731737 -0.28709656 0.016570473 -0.30641392 -0.060190212 0.3375879 -0.012220625 0.31041664 0.39529788 -0.26318982 0.0040991805 0.21109281 -0.3160066
日 -0.26333636 -0.011635806 -0.15389405 0.37888086 -0.1754828 0.20069827 0.2820523 0.2671134 0.19283159 -0.10228533 -0.41468617 0.18478145 -0.2521276 -0.15750578 -0.01917524 -0.1957044 0.28934 0.3266711 0.023200067 0.032229006 -0.2445997 0.098761626 0.3858289 -0.2974807 -0.27875072 -0.1991415 -0.05662351 0.18252927 0.42431033 0.3380529 0.3480823 -0.35796282 0.3797934 -0.33056754 -0.34147373 -0.391484 -0.29059747 -0.41086474 0.074114524 -0.14511713 -0.3667908 0.007570019 0.12807426 -0.27895546 -0.1579372 -0.35653788 0.3046422 -0.26603323 0.25763723 0.3490036
敬 -0.017610556 -0.32699668 0.17897019 -0.35754228 0.25159168 -0.40263048 -0.2524934 0.40912625 0.26117584 0.23732378 0.03901851 -0.36565414 0.31019387 -0.35786647 0.08351955 -0.29861498 -0.21939406 0.2547373 0.32319185 -0.21541691 0.23854636 0.24335475 0.2566721 -0.34311718 0.020510564 0.3572669 -0.35810864 -0.19233349 0.35660315 -0.39900258 0.30923924 0.39053208 0.35236514 0.33494607 -0.22911818 0.30312997 0.1408645 0.2619251 -0.08885776 -0.32087266 -0.2312195 0.2661987 0.23445697 -0.3133068 -0.3869701 0.20585002 -0.3272766 0.23641668 0.34641528 -0.39610258
难 0.32722786 -0.062686175 0.2987932 -0.029886236 -0.37176737 0.28709108 -0.22673309 -0.36873928 0.37594742 -0.23265423 -0.41154248 -0.09984855 -0.26670307 -0.38750678 -0.35554788 -0.20472658 0.25043437 0.37072277 -0.312363 -0.055433817 -0.37216806 -0.047976285 0.28096178 0.37662178 -0.41677076 0.37183404 -0.2646293 0.03991156 -0.36592638 0.2712394 0.26987022 -0.3847613 0.34761193 0.2373924 -0.031499736 0.20713182 -0.3371465 0.25404698 -0.33061484 -0.2566581 -0.30956018 -0.25293434 0.23200186 -0.34059992 0.23780315 -0.39433703 0.2757609 -0.3367164 -0.21197182 -0.36698478
直 0.5315778 -0.5283564 0.42695048 -0.087630585 -0.69046 0.6877219 -0.59071755 -0.49000418 0.6072811 0.27562734 -0.61101884 -0.58526266 -0.41931912 -0.4600656 0.005720966 0.21683939 0.23780026 -0.63897794 0.67681664 -0.46548182 -0.60654217 -0.67717665 -0.6043282 -0.25533321 -0.28371686 -0.1396109 0.5145582 -0.35041702 -0.26689622 0.55126333 -0.68359596 0.51020664 0.18702322 0.55591166 -0.56404823 0.6238304 0.5134028 0.46600622 -0.21030997 -0.3224745 -0.6277459 -0.5567211 -0.7013471 -0.39378652 -0.39074907 0.6732103 0.55964047 -0.58584625 -0.5113498 -0.6743455
丧 0.35178706 -0.06982547 -0.07893858 -0.20499279 0.10299165 -0.03999702 -0.34493384 0.37138167 0.33079022 -0.3463246 -0.34569263 -0.068102226 -0.16212116 -0.37089097 0.23783456 -0.18338081 0.09739515 -0.18980497 -0.247598 0.15751489 -0.3724483 -0.0010454173 -0.24097773 0.33786896 -0.1404993 0.37358418 -0.41413334 0.14360356 0.33688676 -0.07933888 0.04819557 0.40299195 -0.07088957 -0.28985912 -0.41270295 0.34824276 0.34765288 -0.39930463 -0.35133085 -0.2055848 0.28224728 0.023090983 0.21071625 -0.34683278 -0.39650396 0.36088532 0.025226528 0.20905527 -0.2905311 0.056892514
说 0.1840733 0.37128362 -0.35033107 0.3108253 0.30769444 0.13164513 -0.0022902414 0.3733697 0.13746758 -0.20358008 -0.016732028 -0.3627099 0.13151449 -0.24212106 -0.36854094 -0.08614992 0.20789133 0.13727342 -0.35404614 -0.06876955 0.22620049 0.09515721 -0.3718858 0.37615383 -0.31912863 0.15218662 0.33916673 0.10487187 0.25559753 0.28009024 -0.19733265 -0.40500113 -0.39337745 0.15059805 -0.06562737 -0.36632463 0.39163688 -0.32254806 -0.32520047 -0.10216128 -0.1757154 -0.31535432 -0.331358 0.08310385 0.21564236 0.24190001 0.29769832 -0.30872354 -0.4141578 -0.2283975
自 -0.42897364 -0.059970982 -0.06795089 -0.23496018 0.40933514 0.36960575 0.2095228 -0.19535017 -0.4138739 -0.1221181 0.3280294 0.04307175 -0.26637378 -0.18568036 0.3866697 -0.28757352 -0.02608855 -0.068735614 -0.28204527 0.267168 -0.18597639 -0.007447713 0.31860882 -0.24564043 0.38080025 0.3270679 -0.2667955 0.020553501 0.39179444 0.24775404 0.0144848265 0.43583137 0.13428971 -0.39475304 -0.31754026 0.3644908 0.09854542 0.4199913 -0.43247694 -0.10566367 0.33773148 0.13148992 0.35192633 -0.40295646 0.07997167 0.3933656 -0.2513695 0.31781748 0.3343865 -0.28293958
用 -0.17023408 -0.37609878 -0.37470552 0.39481157 0.23407929 0.40270656 0.37256768 0.2734042 -0.04923514 0.2726323 0.02767146 -0.06550836 -0.11437589 -0.006579173 0.3928132 -0.02723806 -0.2182458 0.056128375 -0.23848693 0.33828807 -0.3338375 0.36702874 -0.2922075 0.2255045 0.40475738 0.029847126 -0.44243026 -0.03547645 0.27065876 0.36316743 -0.08297186 0.05835218 0.04209495 0.3759765 0.032647744 -0.12993044 0.18204401 -0.18560885 -0.20665124 -0.31434837 -0.24019703 -0.28513637 -0.41579157 -0.08511254 0.050469495 0.2648327 0.32979253 -0.2657196 -0.21803679 0.22539021
周 -0.41485977 -0.029881002 0.37663528 -0.14303838 -0.3061003 0.43440276 -0.41524678 -0.32103446 -0.27800333 -0.04658811 0.35935968 0.0764429 -0.1056799 -0.30956876 0.038664088 -0.26767677 -0.09871589 -0.35979104 -0.32988164 -0.32348526 -0.07901915 0.02796637 0.3804627 0.21181777 -0.106661685 -0.3167172 0.3565121 -0.24265166 -0.36399117 0.03797563 0.3443029 -0.42096007 0.062851936 -0.18685102 0.19312885 0.007620897 -0.17797709 0.33246297 0.34334648 0.009598703 -0.34523836 0.37607375 0.3782243 -0.30234233 -0.091227405 -0.31844094 -0.14561385 0.044150077 -0.03424541 0.37242788
颜 -0.30736074 -0.28474453 -0.35118645 0.41210023 -0.20292525 -0.038935773 0.43792257 -0.05449897 0.30287024 0.06856269 -0.4251388 0.32213834 -0.21336055 -0.1793049 0.058926757 0.00091628416 0.0545713 0.1752196 -0.17986469 0.023866178 -0.22065377 0.11001835 0.3832446 -0.24129632 0.05936828 -0.3955069 -0.19055498 0.07879795 -0.22567087 0.14475335 0.2604834 -0.43714273 -0.21070541 0.45077214 0.3803542 0.24388197 -0.1682252 -0.17108811 0.3691043 -0.16871431 -0.29257813 -0.1178901 -0.32439816 -0.30645835 -0.1681156 -0.44026345 0.19046201 0.38911143 0.16170017 -0.4249805
年 -0.3439314 0.22036189 0.049696308 -0.29158697 -0.3256141 -0.18368259 0.048705112 0.36562538 0.2890778 -0.17825751 0.190292 0.0648675 -0.34442744 -0.3285552 -0.35551286 -0.10367758 0.17540498 -0.36595318 -0.29730058 -0.37840107 -0.26901367 -0.0016430123 -0.27481785 0.38480926 0.3072664 -0.3193376 -0.2049922 -0.23911722 -0.4180297 -0.13458024 0.053148832 -0.3166826 -0.24160823 0.19634788 -0.19339505 0.09500525 -0.1017972 -0.30035535 -0.23655516 -0.07835555 -0.09333376 0.35088876 0.08339919 -0.34166002 0.19641207 -0.40763134 0.13225237 -0.2406527 -0.32743716 0.07842198
告 -0.34034064 -0.57198614 -0.6843307 -0.6271743 0.408452 -0.02901319 0.6548293 -0.35915917 -0.63878196 -0.5513375 0.604675 -0.4641869 -0.33568045 -0.42102453 -0.45308205 0.33089018 -0.10319138 0.3839998 0.48633492 0.04091605 -0.40775183 -0.36202097 0.5759031 0.48055884 -0.7411813 -0.4206732 0.5920568 -0.2363511 -0.572572 -0.5240915 0.5967999 -0.69443625 0.17048837 -0.49748614 0.017685521 0.4794216 -0.65520865 0.09893052 -0.32681492 0.6453477 0.6098747 -0.6373985 -0.43369573 -0.13998091 0.14319345 0.17219293 0.6053534 0.073908344 0.23252355 -0.66081107
十 0.20938417 -0.067673616 0.20575078 -0.39654467 0.02652634 -0.40270603 0.37360054 0.2924421 0.3830806 0.17130423 0.20953931 -0.09276819 -0.19708827 0.3859773 -0.34604084 0.0011001616 -0.06592837 -0.33867434 -0.24807175 0.075710535 -0.33343735 -0.3174648 -0.17885074 0.33849806 0.3235252 -0.28508285 0.41228083 -0.12538122 -0.3774546 0.054811254 0.027872354 0.40910485 0.05877826 -0.34560904 -0.060975358 0.20958327 0.18480377 -0.34104145 -0.3801292 -0.097715974 0.22169285 -0.0995734 -0.15622345 -0.39079288 0.3973965 -0.29746523 0.061936904 -0.29563802 -0.38381648 -0.02824594
怨 -0.3157081 -0.19374327 -0.339069 -0.092489064 -0.13207301 -0.36890644 0.3986942 -0.22167024 0.053108677 -0.00016197609 -0.23322725 -0.3822602 0.19624735 -0.24910286 0.034735702 0.011334269 0.20195976 0.011337746 -0.3978948 0.0028086556 0.032531384 -0.14524525 0.40592337 0.27143148 -0.3500357 0.18164627 -0.19325289 -0.0002873768 -0.31690925 -0.1048678 0.19210567 -0.035580948 0.10185981 -0.26915145 -0.2605646 0.27353337 -0.39823517 -0.4176438 -0.38203916 0.016993286 -0.3639664 0.051161475 -0.40570515 0.3800885 -0.08737519 0.094645046 0.31191415 -0.37554094 -0.05495173 -0.15167369
达 -0.19510764 -0.22778966 0.18497768 0.28226185 -0.08667914 -0.43219668 -0.15957992 0.14819708 0.16074014 0.1673952 -0.00604239 0.044064675 -0.3099525 0.35090965 0.35487935 0.22256464 -0.052612867 -0.028915064 0.19424035 0.3205347 -0.31734285 -0.0044941627 -0.16742429 -0.38667905 -0.2289138 -0.34275147 0.39147604 -0.1655018 -0.3530725 0.15762515 0.3114145 0.41741133 0.4052135 0.0070950678 0.035592403 0.341733 -0.12529416 -0.071749784 -0.30267718 0.088942885 0.12616941 -0.31125414 0.13175426 -0.35965532 0.25504068 0.38639578 0.12003058 0.10986595 -0.2863761 -0.2905155
孝 -0.012620547 -0.38113007 -0.18687855 0.35220388 0.019653842 -0.051293463 0.2909415 -0.32450557 -0.31241482 0.09714428 -0.4005508 0.13998343 0.3269491 -0.1602268 0.18632282 -0.2881694 -0.052715797 -0.42279997 -0.20813525 0.3705413 -0.3234586 -0.0070185727 0.3085412 -0.3889453 -0.024477357 -0.413099 -0.23468997 -0.15998568 -0.07255117 0.34575057 0.067230545 0.24202217 0.13406155 0.19648664 -0.23642124 0.27071196 -0.32453117 -0.18418686 -0.34006155 -0.043509338 -0.32019597 0.09710931 -0.3283746 0.01683423 -0.3740989 0.14585376 0.21174487 -0.33171937 0.028338708 -0.42938882
弟 0.3981611 -0.2978421 0.17028159 0.25632715 -0.2986429 -0.32099286 0.30189088 0.39613396 0.34575862 -0.00993795 -0.37449956 -0.072315834 0.27604324 0.35456076 -0.3287416 0.26880348 0.32655212 -0.16496348 0.19012773 0.27247906 -0.31719685 -0.09200604 -0.39666528 -0.27714187 -0.20018968 -0.28834295 0.38157478 -0.13219826 0.06754948 -0.0508647 0.36291146 0.07684353 -0.39047363 0.05219298 0.015056318 0.13010575 -0.092321515 0.3519024 0.36414266 -0.08572075 -0.35272494 0.11672006 0.2379756 -0.38927406 0.3603891 0.15603197 0.24685995 -0.2589288 -0.28956282 -0.20165172
至 0.2296622 0.118042566 -0.31954274 -0.34413263 -0.0061596967 -0.29142496 0.29931575 -0.1031517 -0.121245235 0.053501368 0.34368917 0.2373733 0.27718058 0.30998972 -0.42199886 -0.11680684 0.10208468 -0.3833973 -0.20680629 0.009361328 -0.11896407 -0.063926 0.32698852 -0.3321821 0.21438093 -0.3799062 0.19477199 -0.16844426 -0.41375813 0.35643485 0.37230355 -0.37776434 -0.1007041 0.11892721 0.21593465 0.3450093 0.030334068 -0.39019555 0.19901694 0.046718538 0.13206638 -0.04892512 -0.3920529 0.07605137 0.010577803 -0.030805252 -0.1840407 -0.22563867 0.086036876 0.36175874
先 -0.12296746 -0.38771847 0.23575175 0.052205354 -0.3670909 0.40219665 0.35915276 0.21879095 0.18988098 0.3430148 -0.3271473 -0.39897773 0.22040854 -0.28001904 -0.38350528 -0.099250555 0.16560398 -0.3763804 0.401503 0.39695862 -0.39621502 -0.15014768 0.3805499 -0.40652445 -0.08191092 -0.39451462 0.39552703 0.08736902 0.36964577 -0.054680906 0.39740825 0.18191838 0.17007312 0.21567333 0.01697927 -0.35308865 0.36340225 0.4044837 0.28347945 -0.11734165 -0.256733 0.073143944 0.25510442 -0.2858846 0.36961886 0.22464988 0.3510132 0.047633354 -0.24069345 0.2685856
师 -0.5679952 -0.30148286 -0.6393708 -0.37287349 0.21666704 0.40162775 0.16428116 -0.5176028 -0.31432596 0.41674182 0.51888406 0.21561909 0.56158805 0.036884196 -0.58627415 0.18587738 0.47216156 -0.6397552 -0.31866068 -0.2956477 0.4578034 -0.14102173 -0.5272052 -0.51542556 0.13661525 0.5723965 -0.5345773 0.073236555 0.5348731 0.70227635 0.6437327 -0.7235608 -0.35338318 0.60099006 0.67563003 0.47824675 0.45135725 -0.2337413 -0.33892184 -0.0015487388 0.38075683 0.008705079 0.1949376 -0.17372179 0.5265483 -0.63925606 -0.03139345 0.37268868 -0.054008164 0.13597877
女 -0.36600393 0.41522488 -0.12763679 -0.29424715 0.07508568 -0.39137733 0.14209919 0.416107 -0.08062484 0.04713163 0.16642812 -0.14958659 0.20695537 0.1276854 0.011157321 -0.1380274 0.17779648 0.22883113 -0.16761543 0.42026365 -0.31595954 -0.265755 -0.1680279 0.27634275 -0.32447186 0.4185316 -0.36559516 0.24151665 -0.37017682 0.13045952 0.3210723 0.28919354 0.18766323 0.32773286 0.37818047 -0.35527092 -0.08849667 -0.33699456 0.42516476 0.13593006 0.055679746 0.19090362 -0.31607828 -0.4183742 -0.19494244 0.34512997 -0.21905656 -0.06652599 -0.31069118 -0.22013925
多 -0.34928307 -0.1565284 -0.37166747 0.41471824 -0.372073 -0.0059845475 0.14251068 -0.0156132905 -0.31929353 0.042940527 0.2518934 -0.106994554 -0.3627124 -0.3906681 0.071612 -0.103782184 0.11054855 -0.37149698 -0.36477616 0.3113965 0.008904745 -0.29276738 0.41731554 -0.12815398 -0.2912044 0.34343606 0.30309615 -0.21753839 0.28108966 -0.23339579 0.06651639 -0.41207743 -0.33173823 -0.38015312 0.3276888 0.3062613 0.16926289 0.31225884 0.3943329 -0.14505008 -0.104042314 0.2263366 -0.26570278 0.105441004 -0.33925852 -0.39843196 0.38411468 0.05199038 -0.005373212 -0.40960622
忠 -0.39067712 0.30908158 -0.20969583 0.01295138 -0.3979588 -0.42625496 0.062581755 0.338564 -0.005481121 0.14318635 0.35967416 0.17873056 -0.29705104 -0.24279746 -0.20234612 -0.29400522 0.22416107 -0.22954726 0.38493314 0.37983382 -0.33590963 0.12928364 0.334956 0.3759566 0.14726673 0.3820825 0.2791963 -0.07222012 0.43789256 0.11784795 -0.0968497 0.35556963 0.10192042 -0.18796879 0.077197626 0.37729833 -0.09293922 -0.21746394 -0.3789364 -0.08468491 0.38945344 0.2626343 0.21338382 0.103193246 0.10483665 -0.21752831 -0.18619476 -0.16484733 -0.124662355 -0.38531202
四 0.29812157 0.25219566 -0.20889634 0.09831905 0.055445336 -0.3464764 0.13607466 -0.24544646 -0.030235585 0.09889116 -0.41912186 0.11958819 -0.2631762 -0.39458892 0.018661262 0.0065788226 0.23812342 -0.38939545 -0.39240175 -0.16868193 -0.2107036 0.0024969277 0.31524965 -0.35304064 -0.12715822 0.23651506 -0.3209252 -0.12983975 -0.41360575 0.033476472 -0.31749347 -0.4165412 0.19842502 -0.3999907 0.43016446 0.34704965 -0.3411525 -0.37091208 -0.08002289 -0.017569503 -0.41934425 0.15480858 0.119720794 0.08087056 0.31341618 0.30607212 0.2749992 0.09147023 0.07788381 0.41872048
疾 0.4194606 0.1198313 -0.18711467 -0.0099569 -0.14366929 0.12128918 0.12292201 0.21559954 -0.0063519776 0.21416122 -0.15255475 0.20427021 0.26763183 0.37604192 -0.32306325 -0.081957854 -0.058921766 -0.35769868 0.13323018 0.39258364 0.21610029 0.3428986 0.34860125 0.45012212 -0.26960784 -0.3608605 0.38714406 -0.22122711 -0.11374085 0.14438888 0.19593947 0.38768578 0.03910953 -0.3775646 0.17644237 0.41533345 -0.3983383 -0.12070908 -0.3800968 -0.10397798 -0.04426125 0.056774437 0.35089037 -0.16821733 0.05667915 -0.4173343 0.002097485 -0.286123 0.16893634 0.056723334
服 0.4040557 0.14405608 -0.3990321 0.37268975 -0.42195287 0.1318824 -0.1453157 -0.26909822 0.33551526 -0.05646569 0.056266885 -0.07910326 -0.062416412 -0.20178054 -0.2399304 -0.355171 0.051762585 0.36437148 -0.37041068 0.42394507 0.1005529 -0.05186784 -0.3814055 -0.40680248 -0.3529059 0.05904842 0.3423941 0.015374949 -0.2702169 0.32973674 0.06988402 -0.05844948 -0.15298626 0.27623156 0.31493437 0.12448398 -0.40255195 -0.25938556 -0.28412148 0.040191215 -0.28248942 -0.07964716 0.2585233 -0.2593311 0.39148086 0.040077213 0.12823178 0.10323208 -0.025169685 0.12699924
氏 0.061555017 -0.24173398 -0.28610548 -0.2731584 0.3726629 0.29242405 0.1573992 0.36817425 -0.3115908 0.27365375 0.3831137 -0.13883036 0.0029144771 -0.121430345 0.14129952 0.2818045 -0.00965158 -0.030925643 -0.23287405 0.3474314 0.38661134 0.28327754 0.36847857 -0.41434565 0.38119662 -0.412853 0.1518909 -0.28407553 -0.40927795 -0.052459512 -0.24730618 -0.32907847 0.037964042 -0.08630494 0.35468766 0.22074823 -0.366081 -0.15940244 -0.39741927 -0.25648355 -0.16059472 0.29689795 0.043403696 0.11113478 0.34677327 -0.38866422 -0.16616589 -0.33621934 -0.045060337 0.3113216
冉 -0.6483388 -0.5273362 -0.52458787 -0.49480745 0.4503599 0.6698674 -0.6644977 0.53075206 0.34491175 0.1918592 -0.014782572 0.55561846 -0.6241909 -0.5196741 0.31107056 -0.6012934 -0.5313414 -0.5276989 0.34439126 0.5803094 -0.29159033 0.35501832 -0.5818183 -0.5681858 -0.7008029 0.59058416 -0.56431067 -0.49422866 0.6174759 0.39672452 0.47382385 0.63436925 -0.24573745 0.6162454 0.24196881 0.51264375 -0.27785698 -0.032647274 -0.56962705 0.4656858 0.55029935 -0.61695015 0.58338153 0.5116649 0.59452575 -0.5569291 -0.38445187 0.49292383 0.6628123 0.49003795
将 -0.11657877 -0.08644091 -0.14117208 -0.17996234 0.13244839 0.28320372 -0.04385502 0.38212574 -0.37046924 -0.12777746 0.33547634 -0.30404738 0.37629873 -0.12511499 0.31259623 -0.22404517 0.11285563 -0.24743462 0.17331684 0.33596906 0.4060338 0.38742357 -0.4221938 0.28071457 0.40024948 0.15127663 -0.18174514 0.27623165 -0.39295545 0.3242319 -0.31826517 0.43401375 0.027778333 -0.35080767 -0.38612667 0.004158918 -0.23596539 -0.36117345 -0.33276772 -0.26859573 -0.35577232 -0.32876593 0.34079117 0.41750202 0.38013595 -0.37434414 -0.40004894 -0.29833597 0.06561074 -0.4138723
士 0.29133976 -0.19917184 -0.29112345 0.031675458 0.018352933 0.37054744 0.26691383 0.37119514 -0.32074004 -0.29756573 -0.42374277 0.40434393 -0.32659718 -0.19922473 -0.2727483 -0.36801764 0.11416824 -0.021145437 0.0057555083 -0.25131938 -0.3370952 -0.02452192 0.25546506 -0.33331385 -0.36359894 0.38738346 0.32415244 0.19086672 0.3529919 0.40255433 0.2850971 0.38316864 0.37773496 -0.21704343 -0.31813392 0.2507763 -0.22065286 0.09038071 -0.15487641 0.080784634 0.082858406 -0.08926194 0.3240293 -0.29955852 0.39290738 0.3679498 -0.053980846 0.12964793 -0.07489269 0.3336886
丘 0.040135477 0.39744276 -0.07025617 0.41398662 -0.3909594 0.03283433 0.19632605 0.3726278 0.41251403 0.121180125 0.30542675 -0.13391945 0.38654336 -0.4260476 0.0049237977 -0.12007432 0.32089895 0.23414873 -0.37504426 0.15511537 0.21501185 0.20898472 0.30902255 -0.28796464 -0.21598405 -0.35863867 0.20519866 -0.119431295 -0.23288658 0.18630221 0.09017079 0.32693973 -0.28855112 -0.31711417 0.18950176 -0.17861779 -0.26631755 -0.027047988 -0.33319077 -0.0897542 0.13430445 -0.18818262 0.2636452 0.2840918 0.39783058 -0.3704816 -0.11455174 0.026042819 0.027128428 -0.38707697
身 -0.45622063 -0.014906179 0.0115905255 0.050445817 -0.29008076 -0.32264107 -0.17960247 0.34980133 -0.035368543 0.10518338 -0.06606134 0.10241733 0.010506705 0.20608993 -0.087742165 -0.3047974 -0.07677771 -0.026515462 -0.00969618 0.1284209 -0.14381938 0.06367351 0.28527933 -0.07706066 -0.1973031 0.40401602 -0.36079463 -0.088257425 -0.4260769 0.08348588 0.21448275 -0.012023329 0.23031126 -0.39770326 0.047932968 0.29050678 -0.35579285 0.067586355 -0.01634898 -0.09184004 0.21097757 0.03242238 0.050796255 0.00040164962 0.29791003 0.25183544 -0.02039354 -0.011853935 -0.17436686 0.1388472
入 -0.0149303 -0.12578581 -0.14259486 0.16957588 0.2755074 0.4089984 -0.40976316 -0.2690666 0.18081778 0.29520082 0.409722 -0.22027153 0.076797225 0.15696943 0.39012086 -0.06505096 -0.07260695 0.3921228 -0.27778274 0.118020825 0.09012312 0.20778903 0.43518877 -0.1225006 -0.34427437 -0.117964916 -0.34802833 -0.109904185 -0.23740582 0.1154001 -0.039848134 -0.3845276 0.40455976 0.20146021 -0.3771018 0.19498104 -0.40861785 -0.24212568 -0.17828003 0.035584614 -0.26943824 -0.16977344 -0.12660053 -0.027528029 -0.011476284 -0.37477574 0.06831189 0.04131251 0.39276016 -0.40250334
志 -0.38912866 -0.17811598 0.27426216 0.39105985 -0.37462735 -0.36746618 0.23157574 0.41647586 -0.020505687 0.28579473 0.2506229 -0.251728 0.27240595 -0.2845483 -0.1094351 0.102276415 -0.09278019 -0.3080089 0.009891475 0.27578545 0.36877 0.29426175 -0.16769685 0.36175752 0.054186426 -0.26923674 -0.38256407 -0.10180738 -0.25899324 -0.30980107 -0.42603457 0.2602892 -0.4156195 -0.27873537 0.37855753 -0.33333337 -0.19315834 0.34002528 -0.28896904 -0.320934 -0.2975589 -0.018057097 -0.15467206 -0.07528786 0.31961557 0.10956328 0.29582274 -0.24564038 -0.30339652 0.34558767
耻 0.4258332 0.35142484 0.11228422 0.22654621 0.101334475 -0.1743499 0.37515515 -0.26414278 0.36511248 -0.0122078415 0.2919051 -0.23415108 0.39764845 0.4035429 -0.33563504 0.08026036 0.08544099 0.11798265 0.2203574 -0.33035886 0.12889916 0.18435815 0.3756403 0.3179952 -0.38329065 0.30494115 0.411499 -0.22999035 -0.42742825 0.15128477 -0.19116302 -0.39889574 0.27362248 -0.30164132 0.24821025 -0.14651029 0.048643228 0.33891475 -0.03241208 -0.1070984 -0.2860468 -0.2682633 0.30897626 -0.30740392 0.14843732 -0.41207427 -0.058704186 -0.08238661 -0.23964104 -0.43681496
失 -0.6097183 0.06059884 0.6604407 0.4350879 0.13882469 -0.5315622 0.33511662 0.40680096 -0.038239397 0.37236384 -0.69963944 -0.6480959 -0.2090509 -0.5831259 0.38758203 -0.0029797691 0.24173634 -0.6862186 0.7469846 0.55077237 -0.38868868 0.405155 -0.09442945 0.6371293 -0.28673676 0.4959718 -0.6108849 -0.383642 0.5098964 0.14064585 -0.20281908 -0.48838234 0.62181425 0.47861555 0.51408803 0.67533916 0.6804548 0.6673526 -0.5025652 -0.41787168 -0.38992977 0.38119963 0.025186433 -0.49937165 0.30242786 -0.49539948 0.3689711 0.007639533 -0.617067 -0.29874855
安 -0.16447729 0.19374971 -0.16438718 -0.31600735 0.10403025 -0.25378197 0.41128972 0.30002716 0.18567115 0.13433595 -0.26790386 -0.21340802 0.16079529 0.069668755 -0.32943952 0.0062715136 -0.31274223 -0.028935375 -0.035014383 0.030980518 -0.2309159 -0.0487301 0.2510634 0.2761292 0.060756132 0.33688858 0.35567388 -0.08641723 -0.31365746 -0.26900047 -0.037090838 -0.22456688 -0.041604977 0.28638932 0.117265135 -0.12862009 0.0016671643 -0.3346737 -0.41704467 -0.12596072 -0.37373716 -0.1868368 -0.43195343 -0.34802738 0.3919186 -0.38885665 -0.317085 -0.35426888 0.03394763 -0.3843532
富 -0.015415869 -0.23844084 0.1324243 -0.027557772 0.17308207 -0.36544964 0.32335916 -0.39416736 0.30849075 0.26469627 0.19073945 -0.34443605 -0.21095909 0.038344413 -0.13178436 -0.024459625 -0.18532184 -0.30918306 -0.07713703 -0.06387161 -0.25854194 0.26718333 0.34396905 0.37966537 0.42575085 0.350715 0.3755239 -0.25564346 -0.40748382 0.13842338 -0.4048875 -0.3954627 0.2794984 0.25032446 0.25662372 0.36187506 0.08601376 0.3404875 -0.35032827 -0.09439145 0.12538674 -0.070178375 -0.1997086 -0.36269048 0.058727335 0.08467403 -0.36457112 -0.18271506 -0.28291926 -0.405314
赐 -0.030866995 0.104476005 -0.2820668 -0.042526003 -0.12814623 -0.27739185 0.4249994 0.2968892 0.34526083 0.19568485 -0.40402284 -0.087770194 0.35543722 -0.12730116 -0.39093345 0.027848482 0.13540576 -0.39775306 -0.21784441 0.07041633 -0.3513385 0.065153554 -0.3188164 -0.35337573 0.41564322 0.3763869 0.3875154 -0.22937402 0.13745151 0.08706719 0.16745257 -0.29163733 0.33000216 -0.42924663 -0.077018306 -0.051766053 0.43207952 -0.27265215 0.39427683 -0.32390928 -0.3366186 0.05282534 -0.37313676 -0.3978838 0.102850206 -0.2922622 -0.38125136 -0.2641599 -0.26554498 0.102829844
患 0.34666747 -0.39250052 0.20657839 0.26075187 0.39580864 -0.32241535 -0.2827723 0.42192057 -0.008043745 0.19711849 -0.41901976 -0.36438864 0.2538143 -0.12619522 0.021235492 -0.01892731 0.16489555 0.08731292 -0.38245654 0.16797258 -0.23764265 -0.11861735 0.40324676 0.39025217 -0.36109874 0.41993278 0.1696768 -0.36218637 -0.13406171 0.16065884 -0.23663555 -0.15815166 -0.08462516 -0.07888775 0.04504822 0.06829816 -0.09683772 -0.12088638 -0.37539005 0.1093779 -0.0852137 -0.27589324 -0.37656286 -0.33784667 -0.07227467 0.36571315 0.35682714 0.12150383 0.26980516 -0.06531687
百 0.017732244 -0.108160235 -0.29887798 0.32416773 -0.11002302 -0.39717284 0.31684464 -0.38632122 0.36221343 0.30164972 0.332622 0.060287707 0.023546362 0.44668967 -0.38069 0.23669145 -0.41390577 -0.36673453 0.40780008 -0.29773295 0.011828325 -0.095891885 -0.35482287 0.44607338 0.43999448 -0.12094461 -0.35584766 -0.32666093 0.26009053 -0.3788844 0.27834147 -0.19888425 0.38860947 -0.2352796 -0.41507843 0.12985855 0.2547572 -0.38511345 -0.38559902 0.035903815 0.33914128 -0.21001743 -0.39292404 -0.39759976 -0.3731364 -0.2762616 -0.40085167 0.06557948 -0.3705216 -0.28221077
回 -0.36059418 -0.3358171 0.361397 -0.08694926 0.38148916 -0.27299488 0.21035853 0.3368862 -0.35935408 -0.118627295 -0.4163949 0.394938 0.042488355 -0.32404682 -0.24573293 -0.07496671 0.13954273 -0.33829007 -0.32052568 0.37516645 -0.31312874 -0.036686264 0.3205883 0.29241753 -0.34683162 -0.1956861 -0.31446162 -0.050449673 0.39727607 0.22925687 0.09369343 0.37142992 -0.21452333 -0.3366249 0.35433918 0.33999488 0.21769294 -0.39482996 0.35273063 0.18948592 -0.12985115 -0.3296572 -0.38500723 0.19746634 0.21555729 0.37624717 0.3297607 0.378075 -0.27287644 0.3832476
宰 0.33343935 -0.13259807 0.15573049 -0.30695915 0.18394868 -0.35910532 0.19565573 -0.36515987 -0.36058533 -0.008328518 0.35568452 -0.07241541 -0.23067154 -0.37737522 -0.15556945 -0.1649104 0.094064154 -0.3977859 0.055154428 -0.3222948 -0.08478255 -0.1173767 0.3370582 0.42173865 -0.4070871 0.41287974 -0.36531606 -0.033768494 0.21809159 -0.15305217 -0.075288795 -0.44318524 0.3498248 0.41733822 -0.16948494 0.17035177 0.38106394 0.26511532 -0.18561064 -0.07814034 -0.09612498 -0.18634129 -0.33616087 -0.08436792 -0.06694724 -0.33413577 -0.29608077 0.25344047 -0.05130592 -0.38614812
朝 -0.5908067 -0.38193068 -0.15394647 -0.46906587 0.6221875 0.56208116 -0.40435207 -0.64251095 0.33504513 0.12495414 -0.4601151 0.2404726 0.55323935 0.43674254 -0.46556133 -0.34520277 0.3519342 -0.6413745 -0.35898715 0.4737608 0.53001165 -0.07324056 -0.37120712 0.13405277 -0.45317602 -0.71770304 -0.5679541 -0.4531025 0.080614775 -0.11604694 0.24470112 -0.63988316 0.5760924 0.23357745 0.6080563 0.6147376 -0.08389121 -0.551349 0.5570698 0.012492207 0.45686272 -0.3744674 0.4356521 -0.019035121 -0.5500096 -0.56702596 -0.19990985 0.6820113 -0.5115205 0.019687563
莫 0.33222792 -0.3597648 0.0071332967 0.39746103 -0.20423281 0.02688514 0.37644163 0.26137653 0.31362408 -0.21734592 0.15083018 0.038634732 -0.037175942 -0.4378222 -0.3753295 -0.33095402 0.3095413 -0.39575452 -0.37150458 -0.21237648 0.1477522 -0.36313415 0.37795195 0.38481396 -0.38636106 0.40699106 0.040798396 0.15218163 0.43595603 -0.014482375 -0.24680467 -0.39190498 -0.12822452 -0.3311086 0.17964935 -0.03762324 0.41602236 0.41996095 0.3942712 -0.20506628 -0.40615362 -0.14509006 -0.38740227 0.3075944 -0.2677549 -0.40377706 -0.14975506 -0.19779189 -0.02609157 -0.43053183
若 0.048219524 -0.39155644 -0.34238395 -0.22354095 -0.41082394 -0.26890987 0.15472397 -0.42022815 0.35961264 0.3645523 -0.22386713 0.27845424 -0.16400188 0.3250662 0.38213608 -0.1022982 -0.071791805 0.040602785 0.42487237 -0.1795672 -0.13513938 0.37240607 0.3451885 -0.30121768 0.42089212 -0.36306536 -0.40333205 -0.28859735 0.13659689 0.38040122 0.37254277 -0.39363003 -0.072389126 0.1653932 0.35135972 0.3909789 0.07278126 -0.4216308 0.41523796 -0.2590045 0.09955092 -0.15949626 -0.21407965 -0.3318365 0.356365 -0.4381213 0.4026656 -0.18297523 -0.029831197 -0.060719244
云 0.013575706 -0.3501912 -0.07241394 -0.04806572 0.16625178 -0.35712287 -0.41336957 -0.38896218 0.35293266 0.24262637 -0.074711025 -0.17552906 -0.31888413 -0.29851085 -0.3853026 -0.2961269 -0.34396064 -0.34545183 0.33696043 -0.38130924 -0.28750154 -0.15153496 -0.32348773 0.3864032 0.39712316 0.40597558 0.4187957 -0.14267309 -0.12406434 -0.32764834 0.2196581 0.20816477 0.08776868 -0.29513118 0.18480316 0.31208888 0.4001804 0.26698437 0.21473657 -0.29242998 -0.18458706 -0.058391556 0.2790226 0.20069332 0.007848239 -0.12335628 0.31530628 -0.08281362 -0.36208507 0.105046466
孙 0.11154593 -0.3149352 -0.13546397 0.3817551 -0.24781862 -0.3843486 0.30392715 -0.41337746 0.28024182 0.35180074 -0.37566954 -0.094081275 0.44989076 0.100977354 -0.05592871 -0.014435621 0.27315155 -0.016265064 0.043785337 -0.018936515 -0.3612914 0.19147222 -0.42606527 0.432455 0.36154985 0.4180282 -0.1799081 0.013842551 -0.41372108 0.39371392 0.07022679 0.24596858 -0.20883538 -0.18505779 0.32045427 0.40419966 -0.19740255 0.40154874 0.3422091 -0.018722203 -0.1862277 -0.21471882 -0.006442393 -0.39787003 0.39148948 0.36474407 0.28037772 -0.108935915 -0.16322584 0.16714586
或 -0.09763967 -0.38879883 0.4024116 -0.13626431 -0.17912853 0.26400316 -0.2717041 -0.4037991 -0.40230143 0.30848008 0.15360206 -0.020983957 -0.15894066 -0.42391428 -0.3538863 -0.38482738 0.17541154 -0.29350302 -0.4210879 -0.3143991 -0.3425853 -0.19780925 -0.20199093 0.23501894 0.30064192 0.054851096 -0.22395268 -0.3322621 -0.3492993 0.3648435 -0.161169 0.28746954 -0.21065758 0.2898813 0.4002457 0.33721775 -0.21615787 -0.2316288 -0.23145853 -0.33199668 0.3873681 0.2997586 0.39565745 0.27529377 -0.38485324 0.025063407 0.19345137 -0.30870116 -0.3895448 -0.33222514
