1352 100
， 0.46455044 -0.2333708 -0.13673538 -0.3778539 0.14287218 -0.26913655 -0.04546278 0.46394444 0.4326195 -0.23294038 0.40445524 0.1437087 0.15515637 0.12338684 -0.23829311 -0.56743956 -0.40110338 -0.40592268 -0.33133447 -0.4883691 0.51969796 0.37715647 -0.4075741 -0.37330472 0.2892847 -0.4011074 0.54725987 -0.59630454 0.7565697 0.08317469 -0.05389513 -0.5832181 -0.37084734 0.54683805 -0.33763084 -0.37538534 -0.020032318 0.45166427 -0.11245793 0.4312065 0.121070504 0.40180954 -0.15694919 0.5208005 0.08099513 0.5219332 -0.10535906 0.028989617 0.44456685 -0.3544566 -0.05361006 0.13509412 -0.04491382 0.20016088 0.21503456 0.36269385 0.069142655 0.5921772 -0.37029082 -0.023865256 0.48094335 0.5756542 0.078167774 -0.13957894 0.37834367 0.353599 -0.06327374 0.3828854 -0.03116265 0.5855573 0.5322011 0.41279036 -0.06488867 -0.031631723 -0.3304243 -0.5560366 -0.7394078 -0.08878695 0.4170213 -0.43436295 0.42689043 0.42602867 0.5233789 -0.007854964 0.22139306 -0.59538037 -0.33865663 0.47043872 0.43693426 -0.013599077 0.429317 0.25858042 -0.4853819 0.53353643 0.46808493 -0.018347992 -0.30803 -0.27666432 -0.12508444 0.36821896
子 0.52711296 -0.010483708 0.26995018 0.31773832 0.030983651 -0.4676391 0.04963479 -0.55438894 -0.36952513 -0.5929317 0.43847075 -0.03771643 -0.31601992 0.16431126 0.48202506 0.29085156 0.5206607 0.064917825 0.3115625 -0.1676527 0.5658758 0.054385517 -0.25801337 0.6704221 -0.48219103 0.14128396 -0.04388434 -0.5689912 0.38850996 0.42876044 0.20937891 0.640041 -0.05068355 0.49974453 0.521378 -0.28431934 0.38774136 0.4669158 0.41110602 0.46127534 0.39569575 -0.15026318 -0.38786006 -0.47693744 0.4979117 0.2834777 -0.45747775 -0.3663731 -0.14096788 0.14634883 0.25341505 0.18044287 -0.5484081 0.36209494 0.16058175 0.53989124 -0.011569316 0.6548748 -0.46653566 0.3348035 0.4596746 0.38059673 -0.13863033 0.5943632 0.5252243 0.45046526 0.49291497 -0.65639657 -0.50298005 0.19038753 -0.16480087 -0.38603935 0.3290028 -0.3706018 0.14482239 -0.4883336 -0.5363766 -0.62827885 0.050487734 0.5879624 -0.39573207 -0.38375765 0.41062036 0.3886948 -0.47980377 0.461527 -0.32538196 -0.18198267 0.5145713 -0.5046439 -0.32033637 -0.42820758 0.4330466 0.56833035 0.53613245 -0.07269254 -0.2890571 -0.5536329 -0.5802947 0.25516698
。 -0.05927258 0.029785119 -0.1478595 -0.0935348 -0.022737412 0.054067843 0.13732406 -0.034827713 0.1621606 -0.13629673 -0.004803189 0.03272885 0.0006128201 -0.0022648675 -0.021605326 -0.05176265 -0.23085298 -0.009732272 -0.06620999 -0.025533605 0.31330088 -0.031668894 -0.14682434 -0.032292224 0.032270648 -0.0393901 0.30105498 -0.23318651 -0.020386523 -0.03446315 -0.06444789 -0.021153862 -0.0010640894 -0.16884117 -0.044660155 -0.06552122 0.04624608 0.10711898 -0.012000385 -0.0317178 -0.018396229 0.017035263 0.056250248 -0.08943715 0.36450717 0.04087581 -0.116822004 0.0012879759 -0.008031163 -0.025872506 0.0098213665 0.047668044 0.051936638 -0.045800816 0.0051710866 0.017116096 -0.048533592 0.06364632 0.037383452 0.26967558 -0.013467411 0.09531292 -0.025243184 -0.20519933 -0.14460492 0.011665089 0.08127917 0.33134788 0.018281054 -0.022735262 0.26679575 -0.08198625 0.053116657 -0.28794143 -0.040306702 0.021345772 -0.00508393 -0.10685007 -0.08941164 0.04702243 0.045905877 0.02967656 0.0646249 0.14837502 0.038881406 -0.16412978 -0.0844627 0.2412839 0.06154694 0.045380957 0.2193442 0.048654817 -0.10554566 0.16573331 0.18181154 0.042386863 -0.033662204 -0.09976307 0.0023983256 0.02454285
： -0.28361976 0.18281148 0.065614484 0.28630245 0.35618228 -0.29210135 -0.14910574 -0.33476108 -0.26612413 0.33378148 -0.08494859 -0.35516107 0.05717802 -0.2385256 -0.1423783 0.30799502 -0.23528814 0.26848185 0.0156006515 0.2933064 -0.31143945 0.05990812 0.25117755 -0.19055712 0.24298641 0.08554999 -0.061417878 -0.34698948 -0.25208384 -0.22466962 0.29912847 0.32456246 0.097714216 -0.21625955 0.071982384 0.26358542 -0.053820226 -0.021569483 -0.13873641 -0.18090127 0.22278547 -0.12605318 -0.23941204 0.31799164 0.24797572 0.26388156 -0.2390224 0.04404846 -0.054557808 -0.19460583 -0.3135807 0.16622305 0.028616289 0.019096036 -0.17427218 0.1293529 0.0069804033 -0.3239 -0.25912964 0.18554287 -0.12404507 0.28372648 -0.10032614 0.0354828 0.12410223 -0.36125162 -0.33895797 -0.34997132 0.19668008 -0.29689226 0.045420706 -0.010933879 0.10503735 0.15629567 0.03680466 0.27598217 0.29414386 -0.3329811 -0.3235814 0.1549035 -0.10225743 0.00416987 -0.089520715 0.25717068 0.22296368 0.33580804 0.15767322 -0.207425 0.033204474 -0.05039408 -0.3161734 0.09912831 0.038663436 0.32339737 0.078278065 0.0012665209 -0.09777127 -0.27089405 0.2957749 -0.19776817
曰 0.19442396 0.06262567 -0.045964938 0.2024128 0.02735282 -0.15765667 -0.25103644 0.36092752 -0.07125452 -0.35044265 0.055765767 -0.039494544 0.010957116 -0.07318711 0.05428612 -0.23095451 0.19832008 0.33955288 -0.087446935 0.09543891 0.05077879 0.018409751 -0.1281674 -0.18222463 -0.025025545 0.013383536 0.105962306 0.17993873 0.057605043 0.009543596 0.1777628 0.02711881 -0.038437985 -0.11070898 0.18405579 0.21035445 0.062438924 0.087789826 -0.16187577 -0.24421024 0.13464822 -0.07783977 -0.08917804 0.21424963 -0.3319809 -0.096992575 -0.051867407 0.06917905 0.08757503 -0.014786443 0.02543472 0.000771071 -0.12731682 0.10497823 -0.01354601 -0.10285568 0.14743549 -0.039853077 -0.100457296 -0.23191695 0.33078048 0.1229165 -0.039351895 0.14134426 0.074965656 0.11007317 -0.15086924 0.11634604 0.0036050442 0.005431547 0.32924116 0.12075254 -0.24422215 0.2349004 -0.12996094 -0.0012983463 0.34501836 0.042782053 0.06687199 -0.15439305 -0.02180895 0.2760537 0.15062791 -0.26683864 -0.06959368 0.354931 -0.039543383 -0.21578713 -0.032343548 -0.10528992 0.15423383 -0.075243965 0.15641117 -0.07725238 0.16460162 0.0038368402 0.065539405 -0.055209614 -0.3313555 -0.01659723
之 -0.11905687 0.058129914 0.13901952 -0.10153474 -0.20057467 0.23914815 -0.13648838 -0.32981348 -0.08975904 -0.31225997 0.1009562 0.095211506 0.0036438885 -0.038143173 0.23320147 -0.10954069 -0.28380105 0.14918914 -1.3742247e-06 0.34231317 -0.28863636 -0.087499775 -0.12467688 -0.12161498 -0.2495957 0.18407792 -0.29938748 0.21230945 -0.31326059 -0.08614674 0.26811624 0.33423465 0.10392572 0.048672352 0.06517265 0.2678729 0.09235255 -0.21617338 0.09481618 -0.2391457 -0.220673 0.08930278 0.1372758 0.2010323 0.34075934 -0.19110289 -0.09418838 0.04055637 -0.16425169 0.16763128 -0.06108251 0.09327853 -0.18872976 -0.06647156 -0.012803404 -0.15338077 -0.279869 -0.3074852 -0.13704719 0.09219468 -0.20107026 -0.33877292 -0.05924388 0.24067238 0.07957703 0.108636945 -0.1224811 0.33846506 -0.10699646 0.29415467 0.11814568 0.10264506 -0.09974272 0.26510736 -0.1509836 0.32667947 0.22316444 0.34977695 -0.27901548 0.0675056 0.05754408 -0.04377926 -0.1781089 0.07268503 0.054151412 0.04078954 -0.16971605 0.14425658 0.137728 -0.17559862 0.03991835 0.04564188 0.1582691 -0.28412834 0.16995585 0.13294384 0.0260467 -0.3330436 -0.09539986 -0.19932926
不 -0.24345377 0.096948005 -0.063898094 0.012903002 -0.16024049 -0.15948947 -0.32438445 -0.32464024 -0.2529843 -0.31446856 0.17216922 -0.22671515 -0.039401427 -0.19066922 0.12195357 -0.0023759892 0.33665574 0.21029949 -0.054552354 -0.06876526 -0.0124002155 0.038891435 -0.011464202 0.051719025 -0.20157595 -0.23492444 -0.030250859 0.2913169 -0.050938867 -0.024385996 0.06819372 0.3118387 0.034075297 0.1332251 0.319256 0.3364748 0.010568533 0.041753277 0.051786624 -0.34132305 0.08505611 0.029745217 0.0074587357 -0.070699245 0.26177886 0.24555947 -0.035959207 0.060160846 0.09453142 -0.02228344 0.023560796 0.059398178 0.003969719 -0.079198174 -0.033441823 -0.08774651 0.06607331 -0.106326275 -0.17405973 -0.18924609 0.29148296 -0.19004813 -0.10704707 0.21155292 0.34843946 0.15264626 0.05230427 0.31501704 0.028566472 0.0064866794 -0.0036396948 0.018368375 0.16005869 -0.006657624 -0.058551814 -0.062143542 0.11667486 -0.25203183 -0.21480174 -0.34047464 -0.19104867 0.05564037 0.07558472 0.39376533 -0.109653704 -0.20349927 0.10804369 0.034221385 0.12714694 -0.07287153 -0.22280654 -0.11366216 -0.062701866 -0.09306026 -0.21358249 0.04035861 -0.03665874 -0.01519746 0.33452624 0.08814947
也 0.33629727 0.3123071 0.3158889 -0.014515973 -0.31283763 0.007883862 0.27992478 0.3324051 0.31950393 0.33528942 0.3258006 0.20890175 0.31019923 0.31585273 0.2992964 -0.2871947 -0.3006752 -0.3231301 0.3294982 0.30163535 0.3030604 -0.32011127 -0.3309387 0.22412814 -0.3265839 -0.22352289 0.29351237 -0.28363428 0.3503127 0.34246516 0.023750972 0.32358682 0.3124629 0.3368769 -0.26823416 -0.32173076 -0.3062248 -0.29159 0.3039525 0.31473964 -0.30757043 -0.3145305 -0.32026356 0.32226202 0.27424648 -0.23693591 0.30971918 0.18832967 -0.3190184 0.050797105 0.29272926 -0.33781734 0.33921093 -0.31589082 -0.31240264 -0.2990251 0.33672982 0.1470288 -0.31455868 0.25517794 -0.30258575 0.3281781 0.1609442 0.31308836 -0.18635151 0.33431196 -0.33885112 -0.32396755 0.33188602 -0.33839753 0.03198064 0.3228966 -0.33439264 0.31161416 0.33103234 0.30502874 -0.066111475 0.31244785 0.3201036 0.29376432 0.31062892 -0.2998435 0.31571785 -0.29132396 0.14162703 0.27074236 -0.27153513 0.31478396 0.3060224 0.33001602 -0.22282128 -0.33986673 0.32259312 -0.3226629 -0.33712596 -0.33454195 -0.061758704 0.18741147 -0.026636494 -0.3098006
而 -0.17570573 0.11497228 -0.2757028 -0.5016074 -0.32568067 0.06800354 0.20196234 -0.6441451 0.06096701 0.46905604 0.24489777 0.0013973303 -0.23903154 0.18244001 -0.26031238 0.33865497 0.35691097 -0.39362293 0.0073466324 -0.25086132 0.31925678 -0.05202732 -0.01585873 0.35991853 -0.43670398 -0.52209276 -0.23245451 0.29951006 0.05855597 -0.06246798 0.07878575 -0.31293318 0.10757234 0.18944575 -0.2067725 -0.029895544 -0.052564293 -0.09656927 0.3668342 0.5974946 0.20416279 -0.2383025 -0.23355676 0.034736093 0.5554174 0.13868454 0.26506725 0.026053816 0.16567035 -0.09987373 -0.04347735 0.1735834 0.20300163 -0.034187756 -0.19062902 0.094429485 0.4632883 0.2351231 -0.090124354 -0.07509072 -0.3924791 -0.17613155 -0.0968659 -0.24845986 0.5779965 0.1509003 0.5877491 0.43076488 -0.013726785 -0.14917064 -0.20572612 -0.08053624 0.6874806 0.1514387 -0.06752658 -0.08454092 0.615521 0.42164895 -0.5435286 0.11731627 -0.23857167 0.0035955766 -0.56932646 0.17230298 -0.05167615 0.22870627 -0.0013061101 0.47381565 0.28231922 -0.18078394 -1.1397264e-05 0.0024317978 -0.515901 -0.21763355 -0.000375917 0.03822546 -0.15642321 0.02866947 0.46676287 -0.009827764
？ -0.03956054 -0.036278836 0.015161585 -0.03786005 0.1536855 0.09522292 0.17328188 -0.069615856 0.20028724 0.26958698 -0.051861126 0.27080205 0.029698635 -0.028974252 0.057559855 0.002685225 0.35937864 -0.15225591 0.05750383 0.17280315 0.40970817 -0.25095326 0.14887333 -0.04468404 -0.2116628 -0.097598635 0.121616565 0.24401402 0.034674924 -0.028011 -0.10003102 0.35327867 0.094269685 -0.08872616 -0.1773584 -0.31627965 0.024794083 -0.054917797 0.03390802 0.34507623 -0.118565634 0.021248687 -0.13976529 -0.2648794 -0.11487295 -0.3316323 0.04153454 0.016952215 0.02943345 -0.14746514 0.04349655 0.014196259 0.1772851 -0.012946049 -0.20575938 0.10341136 0.09011971 -0.12165638 0.06417651 -0.14055212 -0.0042055915 -0.0881294 -0.09681429 -0.09379055 0.24997881 -0.29787412 0.059242424 0.04111734 0.048449647 -0.06657967 -0.37428164 -0.12403823 0.11475803 0.03801047 0.05711908 0.038717058 -0.05414927 0.37932602 0.36754754 0.06424021 0.34654078 0.123651 -0.17539807 -0.37396866 0.17484322 0.2908466 0.104270734 0.049625915 -0.016900571 0.14155391 0.0034496326 0.109653234 -0.03963699 0.068045095 -0.1782194 0.029139021 -0.0742469 -0.2460565 -0.011098729 0.031911194
其 0.15602063 0.32578745 0.29528046 -0.25357917 -0.36546198 -0.0004442731 -0.04891687 -0.29000625 -0.15014091 -0.32424608 -0.17102529 0.3138486 0.14352497 0.0003405942 0.06629694 0.30828452 0.33186293 -0.32131818 0.124611765 0.12994349 -0.14283659 -0.31092963 -0.34497634 0.33599013 -0.29417962 -0.3305273 0.29655743 0.28332493 -0.042942643 -0.06254819 0.11591265 -0.25179833 0.1157027 0.15191785 -0.04790255 -0.26946098 -0.019803936 0.29267627 -0.26547676 0.21237509 0.29384655 -0.2585436 -0.26019135 -0.19410977 0.32641384 0.21085206 0.26264712 0.025947371 0.06297248 -0.25498462 0.23043458 -0.079770066 0.17271174 0.006895705 -0.21446835 0.15203875 0.36632168 -0.20017351 -0.14966083 -0.3076763 0.30636188 0.3649707 -0.08196967 0.26431 0.27114698 0.25402418 -0.35492557 -0.31192303 -0.18509004 -0.3614202 -0.030751225 0.055482246 -0.06217211 -0.0022397377 0.086505346 0.12531312 -0.27586704 0.3237978 0.13115236 -0.35719103 0.044648927 -0.06027408 0.34519768 -0.32695493 -0.060201094 0.3173058 -0.2888896 -0.08779375 0.34453118 -0.31941077 -0.13611917 -0.1102976 0.025063092 -0.027429802 0.0528634 -0.21596001 -0.13772115 0.2712657 0.31666842 0.17782801
人 0.35865715 0.31839865 0.29611403 -0.1376811 0.20305212 0.27694082 0.18406796 0.29864085 0.33493048 -0.31065232 -0.20212623 -0.3402071 0.21890031 0.3451449 0.28252923 -0.34995788 0.19045663 -0.32098478 0.28743497 0.2862668 0.34202492 -0.29174393 -0.32751447 -0.051098727 -0.2808855 -0.19560596 0.3085763 -0.3327309 0.3516073 0.35447273 0.32446167 -0.34462535 -0.012227258 0.35666233 -0.28282484 -0.18595201 -0.0023260007 0.33011487 0.3017709 0.01286278 -0.31894025 -0.09036842 -0.35768855 0.24670449 0.32463834 0.24547829 -0.25019678 -0.20885244 0.36803487 -0.28635505 -0.25253385 -0.16153839 0.18749063 -0.09894547 0.15618002 0.20175485 -0.23615 -0.046948902 0.31042764 0.3175743 -0.25528163 -0.26412898 -0.29599634 0.3348633 0.3123914 0.32688072 0.3438112 -0.4069381 -0.3297265 0.29187736 0.35748202 -0.35140008 0.21709964 0.2868872 -0.17337802 0.2226133 -0.33048865 0.27279255 -0.106964946 0.18472429 0.2976764 0.29842854 0.29191405 -0.30541578 0.093587875 0.2689511 0.23284043 0.36174974 0.30876797 -0.30908823 -0.35609382 0.320326 0.19772598 -0.26256147 -0.19854084 -0.09245934 -0.07240695 0.40043962 -0.34464198 -0.21229492
者 0.026223365 -0.04869491 -0.02998769 -0.028522037 0.04982353 0.1309665 -0.106290266 -0.26849073 -0.20392491 -0.12557285 0.06270068 -0.29373702 0.18932112 -0.15513143 -0.074719764 0.3875056 -0.048325177 0.36600766 -0.03534125 -0.2745386 -0.40463582 0.004967791 0.14067246 -0.40496585 -0.10210014 -0.014450921 -0.29418495 -0.018226013 -0.17113627 -0.08377679 0.053133074 0.039858162 0.12637794 -0.049799576 0.09087044 0.053100668 0.061746053 -0.11686054 0.14723217 0.2154321 -0.28368965 0.057553265 -0.1764443 -0.16511735 -0.29964095 0.2465095 -0.07634923 0.016035214 -0.025842635 0.008578844 0.081012204 0.028837219 0.051731285 -0.098418824 0.039688673 -0.03607928 -0.033647258 -0.046441022 -0.017884547 -0.013400349 0.08906079 0.0033987688 -0.015109358 -0.10688713 0.34807888 -0.24113354 0.091467746 -0.1407245 0.15580705 -0.047926255 0.22799146 0.03446835 0.018381791 0.02984031 0.07682102 -0.10311892 0.040015157 -0.2308691 -0.24796836 -0.039388023 -0.063585795 0.015141497 -0.25776747 -0.21465325 0.041497305 0.08239369 -0.026892629 -0.16874811 0.04137154 -0.022093367 -0.23051466 0.047854345 -0.008355991 0.13961393 -0.013134402 -0.016508257 -0.17707655 -0.15325437 0.3632638 -0.07298804
以 -0.09844594 -0.032617215 0.13324027 0.32395524 0.2877792 0.36659223 -0.3706539 0.32724375 -0.08118178 0.26153505 -0.20166785 -0.26706618 0.07536418 0.118881874 -0.20654841 0.25965407 -0.3354715 -0.047913864 -0.0046406696 0.34722397 -0.31617162 -0.19499864 -0.2442037 -0.08667445 0.2525838 0.26605242 0.28143826 0.33006886 -0.18752906 -0.0360293 0.34510112 -0.25365067 -0.14342749 -0.12550874 -0.023451632 -0.15339117 -0.096793726 -0.21001422 -0.068964794 -0.34893277 -0.37120304 0.061090488 0.36688897 -0.238858 -0.36569825 0.079458915 -0.0155493 0.34311736 0.14848943 -0.033882473 -0.2525909 0.052026194 0.10152793 -0.18063188 -0.13894805 -0.31545988 -0.04436604 -0.3651258 0.23725197 0.30396295 0.015975082 -0.30831465 -0.10575566 -0.24217892 0.26318 -0.22775541 -0.0045470586 -0.2469346 0.07557213 -0.09946953 0.33005613 0.2967725 -0.030016031 0.15126455 -0.17823356 -0.012662614 -0.24089888 -0.21876135 -0.23079665 -0.061677136 0.36686972 0.30142552 0.34543213 0.16548482 -0.09949669 -0.3651662 -0.09286618 -0.13111289 0.34357357 -0.040788483 -0.15136056 0.03358826 0.1880031 -0.28427267 0.10619301 0.23523471 -0.17186064 -0.34849882 -0.21732426 0.09529926
有 0.1331112 0.033386484 -0.114502415 -0.0647093 -0.005395344 0.05558619 0.23199238 -0.07203054 -0.056074698 0.29392824 0.02205476 0.028467251 0.18468314 0.10859358 -0.11623087 0.38630256 0.25659108 -0.166049 -0.14488289 -0.20692693 -0.1465376 -0.025409454 -0.16925412 0.36314267 0.033330273 -0.0052188453 -0.06645197 -0.34345087 0.19367395 -0.070103586 0.014590474 -0.20828743 0.16494918 0.11790292 0.0009283749 -0.16429421 -0.0057419427 -0.06206501 0.27377328 0.41609538 0.17766531 0.021919237 -0.02950072 0.2783034 0.16749892 0.01039686 -0.04337642 0.2465644 0.23862489 -0.032218046 -0.13888316 0.013630647 -0.016272096 -0.13549119 -0.06753134 -0.030619461 0.31378046 0.089323185 0.10461025 0.25215653 0.24410796 0.23105192 -0.10100679 -0.19532172 0.30204055 -0.1565414 -0.10493627 -0.21929632 0.22888082 -0.13655886 0.4279194 -0.07338035 0.35339975 -0.32565007 0.04854854 -0.06682014 0.16862832 -0.1488548 -0.3031721 0.24275663 -0.20450221 -0.09581995 -0.350447 0.29795808 0.014155448 0.02475286 0.027645992 0.03605451 0.3605248 0.1767231 -0.027032487 -0.14570943 -0.21606526 0.3237005 -0.11599195 -0.029770138 -0.077136815 0.08958907 0.38612002 0.04977439
于 -0.085093476 -0.100510255 -0.31941158 0.22785385 -0.14647302 0.31587458 -0.36735752 -0.3465188 -0.19566566 0.26736912 0.06942078 -0.31608334 -0.079775505 -0.27643707 0.13494189 -0.25400653 -0.3391994 0.3657458 -0.289488 0.22322495 -0.023157533 0.31955507 0.3582468 0.33101586 -0.029678889 0.25544718 0.18956435 0.30816042 -0.35272694 -0.0682176 -0.1847998 0.08198962 -0.12218345 -0.34217453 -0.120281205 0.35967055 -0.12091398 0.12933353 -0.12070279 -0.21659636 -0.31653658 0.13749233 0.32583433 0.33308193 -0.358846 -0.022034971 0.110784955 0.37869114 -0.273812 -0.3638507 -0.10542108 -0.12768297 -0.05216283 -0.25668824 0.05574964 0.11219106 0.30806208 -0.19313683 0.23404007 -0.30986536 -0.17089175 -0.30220205 -0.20877627 -0.36447272 0.11164537 -0.31400767 -0.11245684 -0.22718048 0.33986598 -0.23456474 0.13603367 0.3240021 -0.07851601 -0.0397074 0.18727885 -0.273611 -0.2030583 -0.29544982 -0.35206982 -0.33421564 0.3099007 0.3725628 0.02226164 -0.24256851 -0.1286327 -0.3558179 0.30166504 -0.05464443 -0.25630665 0.184035 -0.23897593 0.118799925 -0.27241606 0.07694176 -0.14894761 -0.15803151 0.19140728 0.2742613 0.34204412 -0.21800521
矣 0.6531502 0.35848916 -0.21086422 0.03848603 0.1448256 -0.14067455 -0.31512523 -0.56118137 -0.4485205 0.5500336 -0.23774482 -0.39143196 -0.02325599 -0.025270274 -0.26476234 0.5773976 0.56700534 0.11026281 -0.29797798 -0.24505796 -0.49852785 0.22318217 -0.021691749 0.30954516 0.42870307 0.02710136 -0.43057412 0.56076694 0.3386751 0.0729697 -0.26064944 -0.13214833 -0.07532639 -0.12128292 0.5339458 0.15412714 0.053421974 0.17826508 0.07434992 -0.026923822 0.41817164 -0.22612704 -0.18271852 0.35849953 -0.23334667 -0.1174282 0.03262444 0.32732058 0.21793585 -0.16406484 -0.1451872 -0.088477224 -0.03481454 -0.02296651 0.26377726 -0.24186566 0.50065535 0.022555524 0.03750236 -0.13961165 0.4330662 0.51786953 -0.030145653 -0.25691277 0.27191004 -0.21634857 -0.46930626 -0.36881745 0.34843597 -0.3597445 -0.09893031 -0.3197064 0.5663093 -0.13646765 0.21120793 -0.21034862 0.56070226 -0.5211817 0.32351622 -0.085390545 -0.14622399 -0.028112864 -0.35279548 0.3902786 0.06697612 0.021690965 0.17720838 -0.26037008 0.3818824 0.19860795 -0.11660366 -0.45145017 -0.10685318 0.3185666 -0.07251165 -0.16124672 0.26382425 0.22728083 0.5431955 0.12879667
为 0.17674531 0.3326275 -0.023808459 0.31346887 0.06418476 0.0066345283 -0.2039312 -0.2804765 -0.006332188 -0.14319295 0.01854495 0.10436629 0.08096205 -0.26209176 0.06546683 -0.30582613 0.24992892 0.37022516 0.07492122 0.14408854 0.33587316 0.18808632 0.29663467 0.21394803 -0.13743441 -0.011628463 -0.16007496 0.27095088 0.197434 0.062531844 0.0674028 -0.14964177 -0.09295863 0.22736959 0.010194551 0.17397119 -0.05368933 0.2550913 0.00084511144 -0.029485766 -0.3477112 0.29969174 0.040726658 0.3305611 -0.24688156 0.23734608 0.084868826 0.073196664 0.027023792 -0.13894494 0.0857163 0.021125494 0.0020936518 -0.10887405 0.030123983 0.11263941 0.006542916 -0.3607627 0.014031144 -0.08268814 0.2180191 0.33551392 0.060934685 0.1339571 0.007276429 0.30911 0.15482609 -0.14767674 0.15306129 -0.36370885 0.38515872 0.284463 0.0114235915 0.061748423 0.09901458 -0.13307598 0.035375345 -0.21906082 0.34443834 -0.38026577 0.30955306 0.35642868 0.15713012 -0.3261865 -0.06214216 -0.39393085 -0.024278514 -0.032900713 0.033320777 -0.057006516 -0.12214297 0.06128859 0.012386544 -0.047607154 0.03317872 -0.033223268 -0.14091776 0.07631476 -0.10784072 -0.1703399
君 0.12292442 -0.05458627 -0.25504652 0.04163196 0.2043184 0.13203366 -0.18064995 -0.27206022 0.071223825 0.33326167 -0.075187296 -0.140244 0.032529112 -0.21343616 -0.021903602 0.35508928 -0.05128407 0.06589295 -0.14245607 -0.23077115 -0.25246572 -0.14241566 0.37313738 0.2596531 -0.031660076 -0.18470964 -0.14421187 0.042098522 -0.081319116 -0.0066951197 -0.007915269 0.15727735 -0.10453011 -0.29878053 0.329966 0.02758894 -0.042837903 0.013343091 0.11558208 -0.22543198 0.16646695 -0.10975047 -0.21193504 0.011607917 -0.16744572 0.24063215 -0.115983374 0.32293704 -0.116813414 -0.14623407 -0.032886792 0.06766383 0.066410646 -0.019129371 -0.07799285 0.14215496 0.28926942 0.0075529926 0.024105975 -0.16030993 0.018280603 0.18597122 -0.0974453 -0.2962672 -0.21104875 -0.15078677 0.31979585 -0.1640017 0.26268888 -0.11193801 -0.23806678 0.05793868 0.0030386138 -0.29283375 -0.033522043 -0.014275366 0.30504894 -0.18985549 -0.046075072 -0.27513632 -0.07438044 0.19507864 0.24158376 0.33174962 0.071922496 -0.24051222 0.05336586 -0.0895816 0.23669463 -0.07524622 -0.119560644 0.16972253 -0.055317245 0.35580403 -0.13088332 0.040485147 -0.0050019557 0.11131382 0.34040695 0.053361043
乎 0.1376876 0.2412651 -0.26506153 0.29401177 0.14004256 0.25557345 0.21725444 -0.26988733 -0.03271753 0.012068099 -0.20939788 0.29418796 -0.00210879 -0.11704057 -0.10824041 0.11372275 0.09493922 0.06671515 0.09253616 0.22357126 0.2618164 -0.22789647 0.24392428 0.13875568 0.12825844 -0.05435899 -0.15228425 -0.040324926 -0.24399139 -0.1281443 -0.15437485 -0.14827499 0.20796695 0.17051478 0.007779056 0.2008158 -0.04146335 0.28402728 -0.102331534 0.11304651 0.1809566 0.08285782 0.04350179 0.32475102 -0.024590997 0.14242889 0.127769 -0.22919685 -0.15126412 -0.17574897 0.1397737 0.07980733 0.11634575 -0.089308575 -0.018071756 0.23055483 -0.14712353 -0.04408031 0.042018477 -0.1259283 0.0001012088 0.33308312 -0.030875897 -0.12654535 0.05312059 -0.20086986 -0.11848809 -0.088980995 0.19027993 -0.3285218 0.31877568 -0.13515726 0.28218114 -0.21327032 0.15613368 0.29296622 0.071365096 0.21760665 0.15300986 -0.18451634 0.052404217 -0.06367092 0.14465594 -0.23511304 0.30268273 -0.1880872 0.049861133 0.17322542 -0.10981275 0.07984072 0.08982629 0.053051163 0.08169002 0.27916327 -0.040493492 -0.09899698 -0.06310271 -0.29519922 -0.16551796 -0.09510444
可 -0.078384936 -0.03000628 -0.15709281 0.24150978 0.024259366 0.33627486 0.33198565 -0.3546929 0.20655012 0.021268567 0.0004600198 0.21132612 -0.14257102 0.10389489 0.027105916 0.34077537 -0.36026227 -0.19003946 0.1109524 0.07778678 -0.26368988 -0.19782236 0.30483413 -0.007378294 -0.25546616 0.024766548 -0.06560169 -0.3056558 -0.22634669 -0.03913896 -0.041421786 0.24768205 0.06628757 -0.2316987 -0.18450506 0.012630695 0.07338517 -0.051221345 0.07033035 -0.013835233 -0.06930817 -0.041432884 0.31698573 -0.12688705 -0.29389158 -0.22420087 0.124713145 0.09279404 -0.1254981 -0.0016537814 0.1402959 -0.1101408 0.34634623 -0.024578884 -0.058792785 -0.17722109 -0.044409014 -0.06359389 0.05066943 0.31180504 -0.22046039 -0.13538912 -0.16679096 -0.33079445 -0.045267 -0.1683763 0.35542694 -0.008699258 0.3284973 -0.031709276 0.0552823 -0.18569396 -0.31358296 -0.26182207 0.008597882 0.07260642 -0.0056140516 0.32620075 -0.33877176 -0.18076265 -0.0012510705 -0.16213098 0.04621784 -0.36532477 0.0695342 0.10545311 0.14465588 0.07447034 0.24326056 0.09368422 0.07845919 -0.085881546 0.093728065 0.07085707 -0.28703701 0.098773375 0.05712956 -0.35046557 0.32956165 0.030239344
如 0.040682636 -0.0051055574 -0.17269099 -0.015048031 -0.33798435 0.17305464 -0.11639858 0.14165175 0.033794757 -0.3225872 0.0541648 0.2433307 0.09033001 0.04372037 -0.037712418 0.14537622 0.11542823 0.046018668 0.027535204 0.025188863 -0.23308674 0.0994969 0.0504209 0.14455144 0.20943637 0.027324094 0.36680472 0.40084788 0.12659988 -0.05082477 -0.18969195 -0.3401831 -0.09861964 0.097640574 -0.027417932 0.06762264 0.061032847 0.29831564 0.027677119 -0.14918748 0.064596705 0.04865097 0.13886453 0.06913803 -0.35703787 -0.030896937 0.0900244 0.06573064 0.073356956 -0.15375173 -0.04840547 0.040440638 0.093832135 0.02831746 0.15668374 -0.17018439 -0.24314885 -0.005563 -0.005031046 0.3101329 0.389516 -0.22201966 0.009765897 -0.007031575 0.28049114 0.009157972 -0.0616012 0.2746847 0.0125725055 -0.12538314 0.26773912 0.004683881 -0.047558554 0.017760083 0.019701313 -0.0010993665 -0.0057505164 -0.014434083 -0.26940775 -0.3763691 0.024766825 0.07459601 -0.0896099 -0.34998193 0.094211385 -0.2113181 0.016337126 0.058550872 -0.037218895 0.004693516 0.14684014 -0.024881871 -0.10399943 -0.07232918 0.09378448 0.010475398 0.06818259 -0.25963393 0.112578854 0.09089734
与 -0.105807856 -0.10533423 -0.055421468 -0.3654241 -0.29847425 0.35509762 0.06242148 0.17935774 0.34324217 0.19940893 0.014794558 0.31588855 -0.09188934 0.10519755 -0.03060398 0.37523472 -0.29334837 -0.23686968 -0.14881678 0.1346119 -0.39807257 0.24566106 0.0667793 -0.19323549 0.018253818 0.04699172 0.04979517 0.26997685 -0.14360534 -0.19974801 -0.26996824 -0.31383783 -0.0053394646 0.16126315 -0.089391746 -0.10036672 -0.07298825 0.07601244 0.34718698 -0.020367011 -0.033442438 -0.14316548 0.34715912 -0.30296332 -0.316782 -0.31881273 -0.2694806 0.064730704 -0.21220136 0.14349522 0.036853895 -0.08423602 0.2464574 -0.07600108 0.058778383 -0.10455024 -0.11281109 0.21259177 0.019338638 0.33272356 -0.037661973 -0.2689081 -0.31445387 -0.012215478 0.006616555 0.13399024 0.37569463 0.3769572 0.18878691 -0.09616587 -0.33642933 -0.029548937 0.3836683 -0.2530665 -0.12863532 0.042683788 -0.098504 0.31294662 -0.37470365 0.07781908 -0.14762196 -0.017339388 0.22380388 -0.31257233 0.22803575 0.01398682 -0.075887814 0.12631842 0.02644997 0.042153034 0.26483235 0.1090935 0.047192905 -0.23893635 -0.14110543 0.062162757 -0.1891294 0.06309643 0.27689245 -0.01394553
； 0.020289058 0.05840142 -0.10249685 -0.27915525 -0.37226585 0.08454309 0.1659183 0.33955598 -0.080462806 -0.23010997 -0.028356383 0.30756703 0.07223727 0.09855599 0.19996262 -0.24683616 -0.28260416 -0.008153288 -0.023716819 0.018712057 0.18490002 -0.03136869 -0.21029973 0.34389636 0.016899612 -0.049768735 0.37546784 -0.17021102 0.09166012 -0.12102347 0.35408673 0.38508257 0.089092314 0.04312786 0.114958584 -0.1345709 0.007493639 0.30474693 -0.0469631 -0.2623104 0.1668639 0.0958646 0.11275808 -0.19220927 0.38717106 0.16931131 0.02712305 0.15557644 0.022571702 -0.21202168 0.047670957 0.02304192 0.1295958 -0.03858225 -0.13406636 0.08167668 0.05787639 -0.20026055 0.072571695 -0.3330596 0.19904402 -0.01975738 -0.13746494 0.17190266 -0.030101538 0.057936806 -0.0941289 0.3748788 -0.07351951 -0.04014715 0.34886813 0.026778793 -0.11650463 0.17443031 -0.04421229 0.14378887 -0.10945971 -0.1746106 0.35511905 -0.30960706 -0.23335989 -0.22602275 -0.27354085 -0.23979074 -0.12848142 -0.36283547 0.13221407 0.027706038 -0.012017634 -0.19064952 0.16871335 0.0050521228 0.0077704648 -0.11048116 0.37363037 0.062210448 0.07466871 0.011941046 0.07876267 0.029197752
言 -0.21903805 -0.14585453 0.41365167 -0.6603257 -0.33966982 0.63015586 0.15657838 0.22187701 0.62660843 0.1636983 -0.06883888 0.08971955 -0.07806169 0.34428173 0.040050868 -0.03830172 -0.284202 -0.1981467 0.04482595 0.63350374 0.6434895 0.30526337 -0.34302002 0.0778471 0.117860086 0.16286287 0.1646121 0.43267044 0.22248185 -0.19020581 -0.07830625 -0.08189407 0.10573933 0.23690435 -0.44077832 -0.30152884 0.06380596 -0.03375363 -0.09961321 0.21250078 -0.037720505 0.06199999 0.34580064 -0.09569027 0.71012187 -0.30409163 -0.025420213 -0.16530989 -0.23441465 0.017077733 0.054522637 0.014019929 -0.22156684 -0.044938333 0.042882852 0.30369338 -0.14381132 -0.08040749 0.1649782 -0.36625662 -0.09405943 -0.40555316 -0.26357952 -0.07896887 0.6410956 0.5326046 -0.48026243 0.53821546 -0.31971952 0.109626055 -0.21650325 -0.057838477 0.20063776 0.12761447 -0.2029031 0.08762765 -0.150488 0.5014784 0.17861308 0.23282897 0.07897588 -0.25566876 -0.04698181 -0.56301236 0.38067117 -0.40241978 -0.3723988 0.19457504 -0.30376482 0.07610078 0.55874634 0.28768203 0.016771413 -0.15399848 0.3237958 -0.0424965 -0.57876474 0.22172329 0.5190544 -0.1280674
无 -0.0014963204 0.11530212 0.08359758 -0.35006067 -0.016153125 0.1851274 0.21377869 -0.2612912 0.04843096 -0.32369295 0.026324214 0.089912884 0.05984062 0.21705857 -0.09820216 -0.08575438 -0.3341901 -0.175838 0.008169243 -0.10629863 -0.2735819 0.08603199 -0.1653213 0.08843689 0.1972422 0.084553465 0.36720306 -0.3507274 0.27320448 0.034540832 0.3456024 -0.18129367 0.14871363 0.070726804 -0.17177753 0.30307662 -0.06949182 0.2793257 0.1496911 0.33506194 0.10970454 0.15396513 0.29283985 0.17197345 0.31771147 -0.14006624 -0.09996155 0.024425725 0.07635151 -0.117466904 0.14198156 0.10898956 0.061554074 0.065571845 -0.02710923 0.16620278 -0.22778276 -0.3557503 0.14608856 0.13222931 -0.17550613 0.27289587 0.07798258 0.063067205 -0.2916291 0.057721045 0.31865224 0.38621238 0.042779725 0.077445075 -0.30546004 -0.23254253 -0.31212157 0.07070258 0.05124233 -0.107303984 0.19665262 -0.012067519 0.2705089 0.33230215 0.21719576 -0.10750703 -0.32653955 0.20779201 -0.062374275 -0.35208374 0.07776894 0.13901693 -0.059039716 -0.35627568 0.15813947 0.26563662 -0.07389803 -0.116505906 0.40697846 -0.020187672 0.056693036 -0.010081545 0.18895775 -0.2071875
则 -0.07649373 -0.004813934 0.119524814 -0.19492729 -0.047366682 0.32044813 -0.013413593 -0.006033033 0.40013564 0.36364216 -0.05430019 -0.008612811 0.10302439 0.14634795 -0.10451019 -0.24862638 0.08910746 -0.1853135 0.091749586 0.3747067 0.40425688 0.15852083 -0.08914976 -0.3676999 -0.025111452 -0.08576297 0.25152597 0.25031275 0.19057103 -0.09721497 0.26791275 0.19052602 0.021813529 -0.032161556 -0.26811412 -0.07837334 0.10794767 -0.07329699 -0.01776264 0.24348378 0.024163732 0.11078249 0.38024503 0.3965953 0.2764244 -0.36999443 -0.157917 0.048071336 -0.005297955 -0.05186296 0.24441963 -0.03599613 -0.077831484 -0.15348278 -0.29130715 -0.025550853 0.110009655 0.04430356 0.087898865 -0.12547196 -0.08240254 -0.14118397 -0.12399163 -0.12478509 0.35798487 -0.07728616 -0.17176211 -0.07424788 -0.007953595 0.054241456 0.31158015 -0.14349356 -0.04143745 -0.038477764 -0.0978905 0.032715436 -0.1457432 -0.17588423 0.28338715 0.0029987495 0.30989036 -0.12745427 0.12182483 -0.15701625 0.08118322 -0.35461557 0.03801493 0.18294246 -0.079340234 0.14167501 0.3759783 -0.16305964 -0.091028795 0.20297395 0.38784167 0.065246105 0.03540463 0.10523864 0.2354455 0.05349442
！ 0.23112552 0.27139127 0.24824212 -0.111317225 -0.08757137 0.10706775 -0.37282342 0.12219557 0.24662046 -0.31195307 -0.019373767 0.21414857 -0.034406513 0.047113404 -0.011633505 -0.26667 -0.34699047 -0.050679006 0.08299226 -0.08040129 -0.28026766 0.06338896 -0.31848776 0.31359032 0.008762288 0.09752205 0.2032618 0.3380756 -0.2017357 -0.12877895 0.25431114 -0.080952734 0.0494921 -0.18360895 -0.103617184 0.29383838 -0.09240637 0.35364786 0.025432087 0.30680907 -0.35450765 0.109870575 -0.16164555 -0.31265578 -0.09222948 0.006752625 -0.04056396 0.13868618 -0.15244722 -0.04438329 0.010345258 0.06875664 -0.045704205 -0.004809324 -0.15437374 0.027908979 -0.19531061 -0.3673757 0.240094 -0.16857705 0.23177971 0.33403713 0.11698407 0.22491059 -0.3189332 0.06734304 0.23262268 0.3584101 -0.054443337 0.2309506 -0.34447283 0.30873048 -0.30342162 0.15583524 0.030165428 -0.08187117 -0.33440298 -0.038825825 0.10504773 0.016253702 0.1409138 0.064163715 -0.18181877 -0.17626168 0.18539765 -0.33781964 -0.2382339 0.15304852 -0.13321462 -0.28162444 0.27617627 0.24087204 0.23716961 -0.2740819 0.30019322 0.17920907 0.1062152 -0.09708744 -0.34385973 -0.049959965
问 0.36088756 -0.04967761 0.15608917 -0.2121512 -0.039215907 0.23092258 -0.057720277 0.21317087 -0.23136762 0.36422634 -0.13773601 -0.2146733 0.18007138 0.14412321 -0.08111401 -0.2657569 0.10332208 0.07272674 0.0039600343 0.36577827 -0.34166798 0.2144734 -0.10677666 -0.30994806 0.048829168 -0.00058138394 0.055953793 0.37582007 -0.13571738 0.029623106 0.33764854 0.31163085 -0.11642886 -0.34626168 -0.03764765 0.18936089 -0.011315012 -0.18579215 -0.2349498 -0.17893702 -0.09275248 0.007739937 0.20102227 0.26922303 0.1803093 -0.36175165 -0.3840145 -0.011980379 0.008634529 -0.037680928 -0.05797216 -0.20181943 -0.16197644 -0.18708739 -0.2574727 -0.03058866 -0.27585745 -0.027401451 0.043922044 -0.2558451 -0.0053777387 -0.27017558 -0.17087479 -0.07504572 0.3185054 0.17447335 -0.25522128 0.21543954 0.15424803 0.27669126 -0.2849316 0.081771545 0.30697918 -0.29333842 -0.27564797 0.22272556 -0.2808867 -0.27017924 0.29343322 -0.37469962 0.35571644 -0.015660252 0.17732072 0.32472306 0.041622635 -0.29338557 -0.10407932 0.0643868 -0.2931141 0.041668467 0.21973953 -0.1453505 0.1303499 -0.23498899 0.04644823 0.032559156 0.16206673 -0.10993807 -0.24038273 -0.20316666
知 -0.124883406 0.3837379 -0.13927084 -0.058982007 -0.026722638 0.12748034 -0.01735143 -0.36865214 0.024537468 0.33014232 -0.13363066 -0.28091916 0.015150404 -0.04850982 -0.020775156 0.3867444 -0.35283542 0.048522443 -0.07314481 -0.31372973 -0.110194676 0.015749326 0.21694186 -0.04498896 0.10492919 -0.022010187 0.073575154 0.22467102 -0.3842695 -0.015380299 -0.24106832 -0.057281297 0.08938736 -0.4137218 -0.23376307 -0.054930013 0.0290821 -0.10896027 0.059319552 0.41408288 -0.13760649 0.017484706 0.14367686 0.025760656 -0.12582532 0.10329329 0.032720376 -0.020190138 0.043421436 -0.028934693 0.030009368 0.06722984 0.18755156 -0.0023438009 0.086593755 -0.20802912 0.36533445 -0.27270672 0.13727623 0.05068359 -0.15884076 0.37242046 -0.011118591 0.002488676 -0.21177956 0.017443432 0.41328043 -0.07267786 0.16430977 0.08124096 0.27142718 -0.29224738 0.31108144 -0.32398355 0.04076234 0.37884566 0.23722096 -0.024790924 0.24242027 0.3507476 0.027275845 0.25282305 -0.0985175 0.049348064 0.07985527 0.25991386 -0.054644417 0.03939638 0.008631204 -0.18548188 0.048850495 0.05383446 -0.0651209 0.17195565 0.16580553 0.13456978 0.14415708 0.13071643 0.106347635 0.023689622
何 0.30197108 0.011214808 0.03456311 0.26769385 -0.019950336 0.19481778 0.05738244 -0.061748914 -0.009722003 -0.36566383 0.016794646 -0.28956902 0.12148366 -0.01722869 -0.06379913 -0.37224448 0.34951136 -0.23521867 -0.10689231 0.006159887 -0.14252234 -0.25802612 -0.050972264 -0.36796707 -0.3398382 -0.26560748 -0.13116473 0.2353218 -0.07638182 0.02286587 0.15065302 0.39804778 0.13746594 -0.008798399 0.13745278 0.1773146 -0.045600664 -0.18050452 0.061705187 -0.38077438 -0.1470872 0.027733304 0.29806602 -0.16640143 0.0993848 -0.06048237 -0.18700543 -0.009621965 -0.12316031 0.09998577 -0.054613248 -0.067909315 -0.0043009007 -0.1607597 -0.13860701 -0.14191847 0.03428103 0.058265686 0.0038170288 -0.025822468 -0.08076878 0.34569535 0.05989266 0.27541947 0.35570228 0.03835411 -0.27370533 -0.14739466 0.14433491 -0.08944468 -0.2598545 0.0996573 0.3684717 0.07842161 -0.114680886 0.243781 -0.122449055 -0.08682516 0.23442583 -0.17247778 0.13868584 0.005790907 0.38752964 0.32512057 0.0372769 0.25584042 -0.13473204 -0.073974036 0.2710581 0.31395623 -0.13745044 -0.09437663 -0.012314391 -0.21173093 -0.07449128 0.03617956 -0.1015043 -0.14136118 -0.2109715 -0.26384282
吾 0.32228166 -0.060564075 -0.30030337 0.19218221 -0.0026203487 -0.11076471 0.29208708 0.16041914 0.0040990873 0.21916018 -0.00342647 -0.20441452 0.07906634 -0.18171291 -0.10671197 -0.18073785 0.3809098 -0.040379267 0.13565704 -0.10582604 0.4038246 -0.14202802 0.054977994 0.31136483 -0.2294021 -0.031463202 -0.17717038 0.18718188 -0.12081704 0.004467987 0.17047633 -0.14827397 -0.043173637 -0.06727953 -0.13570428 -0.13330287 -0.03225525 0.117829606 0.12090651 -0.014688685 0.040363435 -0.01708452 -0.07893556 0.1014069 -0.25083014 0.0438392 0.28969184 0.024717106 0.34246466 0.052505262 0.05567839 -0.06637318 0.31709445 0.041709293 0.10650331 -0.23729989 0.39119855 0.3718335 -0.047344524 -0.15284054 0.11187144 -0.3396462 -0.10655743 -0.24602275 0.15737966 -0.20769858 0.41794813 -0.10149371 0.11538778 -0.35962576 -0.014991898 -0.074764244 0.17768669 -0.20110138 0.040120423 0.35046777 0.08780027 0.055522986 0.14659792 0.1598841 -0.020418515 0.27348492 -0.29623476 0.12984292 -0.046045575 0.28942838 0.1457966 -0.13946399 0.2971064 -0.11240987 -0.048646018 -0.40330294 -0.14158374 0.07609079 -0.0170252 0.045271628 -0.04421144 0.12644863 0.41222626 0.026353616
仁 0.33760682 0.35082155 0.37867004 0.19831778 -0.018037938 0.13922302 0.33755112 0.42325568 0.21421923 0.09440246 -0.14906567 0.17748033 0.48312 0.049601518 -0.076047115 0.5436476 -0.440921 -0.39634812 -0.09402398 0.12285217 -0.13386124 -0.38932168 -0.20091198 0.39774507 -0.103678696 -0.42005295 0.04309331 -0.0130244475 0.375567 -0.06486815 0.3369569 0.3631119 0.25865507 0.556774 0.1336782 -0.037087288 0.0220802 0.0879635 0.24279976 0.5740913 0.27585363 -0.10232706 -0.41445592 -0.08055503 -0.54651827 -0.0017900688 0.03571283 0.19744924 -0.067556836 0.036218446 -0.2752599 -0.24133936 0.29111734 -0.11955288 0.02422414 -0.22359663 0.05006806 -0.47759935 0.07064847 0.37752435 0.0820163 0.64413834 0.12047615 0.1847168 0.4078427 -0.07310879 -0.4184681 -0.2925586 0.29273388 -0.17182353 -0.2873078 0.15340507 -0.047153242 0.1584253 0.34083706 0.43308523 -0.025109 0.6267135 -0.24256305 0.21518384 0.18183087 -0.4538786 -0.274473 -0.2341432 -0.13459848 0.027920572 0.11186621 -0.18815121 0.59034723 0.35845459 0.12975988 -0.48094323 -0.059619367 -0.09342611 -0.37917817 0.06369124 -0.09755175 -0.114152275 0.35435602 0.11517802
夫 0.14288668 0.12554553 -0.23279755 -0.19576243 -0.28367078 0.2175206 -0.11266958 0.32167953 0.26665068 0.18132375 0.24371646 -0.26193088 0.12154694 0.09058423 0.04481026 0.057076536 0.03351819 -0.16933458 0.31073108 0.2233509 0.32616398 0.3660171 -0.3506563 0.23211238 -0.2693806 -0.13538286 0.3130796 0.33337063 -0.06329846 -0.009115508 0.2197936 -0.0012214078 -0.09403343 0.10284179 -0.33558524 -0.33018267 0.24683891 0.052271925 0.19513372 -0.26925617 -0.19171841 -0.13157864 -0.21239243 0.32891053 -0.34801364 0.25500894 0.29943672 0.13927495 -0.23369107 0.16575788 0.27509403 0.21422896 -0.3164235 0.09235076 0.13916981 -0.21242562 0.3074295 -0.24682526 0.07476153 -0.3275225 0.28370398 -0.13329251 0.13161632 0.31268802 -0.29679838 0.24662185 0.27008247 0.3144474 0.058030132 -0.04358202 -0.32031348 0.19296691 -0.35437593 0.31296524 0.18861641 0.2861777 0.10163218 0.022906793 -0.25717813 0.34039798 0.24616005 0.19353122 -0.36204234 -0.31810123 -0.23134032 -0.31472906 0.07459617 0.28009173 0.05830891 -0.22477317 0.29921737 -0.11857158 0.16321966 -0.1683496 -0.3027778 0.23280859 -0.116210856 0.29212835 0.3049223 0.28285682
、 0.24273834 0.079773255 0.08035391 0.07113071 0.10505847 -0.1035755 0.15776965 -0.35797405 0.38236246 0.3992638 -0.08063736 0.36476982 0.29312208 0.048934028 -0.12158713 -0.24853395 -0.07868704 -0.1830827 -0.09584875 -0.014099386 -0.36006877 -0.26246378 -0.13448747 -0.33612198 0.26419148 -0.19649696 -0.15328771 0.44401562 0.27117488 -0.06487927 0.029799944 -0.16186658 0.2752869 -0.062172595 0.064216346 -0.07598651 0.014009707 -0.12569527 0.15712875 0.30861074 0.09081308 0.03246201 -0.10277934 -0.058000065 -0.2415027 -0.02609356 -0.035526603 0.16081049 0.012882564 0.108928785 -0.0456017 -0.005105705 0.051927444 -0.06157165 0.025200292 0.0067882435 0.35963485 -0.30400634 0.11645343 0.35809746 -0.12964283 0.3292439 -0.027220998 0.08245759 0.044691827 0.29032898 -0.05762629 0.26395988 0.013947158 0.04382791 -0.365392 0.3617759 -0.10387265 0.13232674 -0.001951431 0.23058611 0.16151474 0.1657257 -0.38848582 0.10264123 0.33291337 -0.087657005 -0.31956494 -0.35711038 -0.015681943 0.2850607 -0.315672 0.34476495 0.081993386 0.083784856 0.3975264 -0.016589506 0.04748519 -0.254334 -0.22872443 0.034432467 -0.30532157 0.1169372 0.07756687 0.12067881
道 0.096464865 0.07445046 -0.096140124 -0.29323334 -0.14541773 0.25479043 0.1983729 0.1369503 0.33972186 -0.3411089 -0.083704695 0.37881827 0.18574141 -0.13257135 0.23684248 -0.10030344 -0.29926005 0.39405483 0.09193606 0.23729683 -0.3165695 0.04178 -0.19482337 0.19131355 0.027884593 -0.05769284 -0.08852904 0.4171947 0.08807212 0.06939744 -0.05662776 0.34057248 -0.047702827 -0.3096225 0.14399552 -0.29502785 0.0525016 -0.26936653 0.22237526 -0.123593025 0.016529083 -0.06824695 -0.19145934 -0.2840616 -0.35208544 0.16500224 -0.075081736 0.053417157 0.1742185 0.014626979 0.3455679 0.104461014 -0.16709238 -0.09746215 0.093789026 -0.3058566 -0.17311789 0.19228733 0.13548751 -0.32591113 0.306685 -0.23295052 -0.20420782 0.125493 -0.02988072 0.3970169 -0.119006105 0.3305693 -0.0040274593 0.26421642 -0.32900193 -0.08519915 -0.27808964 0.30411315 -0.06762623 0.052701645 0.35192633 -0.31768385 0.13498943 -0.2749011 -0.0981127 0.14821091 0.14705034 -0.35809398 -0.21965395 -0.29841688 -0.21331388 0.19864404 -0.12157973 -0.31237614 0.37892425 -0.19471309 0.16758613 -0.22542955 -0.2665941 0.114344686 0.078546695 0.11020638 -0.26596767 0.021201186
焉 -0.03175626 -0.192038 0.11452534 0.2831666 -0.039470814 -0.04988466 -0.30752012 0.24530981 0.38003343 0.36325356 -0.16731858 0.16190527 0.21561092 -0.01240873 -0.113533586 -0.2292748 0.3023693 -0.058465637 -0.017822953 0.31190327 -0.036245614 -0.25882328 -0.24258608 -0.20316622 0.20913129 -0.18258876 0.18998314 0.32116494 0.25164407 0.06572646 0.06687001 0.18431151 0.13968496 -0.10964071 -0.11943878 -0.05532103 -0.1364829 -0.21439072 -0.2069194 -0.246634 0.05798235 0.22181393 -0.017919006 0.35515416 0.3708051 -0.39022833 -0.12127705 -0.14771977 0.2918012 0.02801141 0.074925505 0.13002856 0.38281584 -0.14922509 -0.1440998 -0.16356787 -0.2701471 -0.35775235 0.044055775 0.22548276 0.14830045 -0.15787509 0.23464012 0.2192582 -0.0511509 0.20744133 -0.3231698 -0.11486018 -0.1455768 -0.040371973 0.24578653 0.28563547 0.044990525 0.27443257 -0.046599887 0.28495172 0.2373737 0.38247567 0.3858211 -0.18517102 0.37906632 -0.13831323 -0.013129901 -0.079761736 0.09679138 -0.04274686 0.04041832 0.06819573 -0.18082452 0.14785686 0.386696 0.020871313 0.005768661 -0.27571175 -0.06425369 -0.010872895 -0.17696212 0.2924397 0.37351367 -0.077543296
行 -0.028882544 0.060705088 -0.29264957 -0.09719537 0.08174586 0.41248453 0.23367783 0.2444451 0.07568951 0.19751611 -0.16720755 0.14324103 0.116577245 0.039837096 -0.05805265 0.17046094 0.015370888 0.08416412 -0.0799656 0.019719101 -0.298683 -0.035178944 -0.013481534 0.31868586 0.10122165 0.121654086 -0.116596125 0.33813152 -0.34341824 -0.010672953 -0.07198398 -0.25008634 -0.018190857 -0.4110874 -0.1999115 -0.2078465 -0.10098601 -0.20479715 0.0026538726 -0.21286659 -0.07082278 -0.070094824 0.41396758 -0.12880944 -0.3379904 -0.2470347 0.08267824 0.011489508 0.18606324 0.016080284 0.18567087 0.14907816 -0.13758823 0.0024771497 -0.0012674899 -0.3134061 0.132738 -0.0060782116 0.0067791627 -0.15178598 -0.1507187 -0.20702706 -0.12946957 -0.04216916 0.05412322 -0.015613088 0.19355732 -0.06475421 0.021882696 0.08766285 0.3910666 -0.12915619 0.11570345 0.060627893 0.018060796 0.31867608 0.37996626 0.26970112 0.41108495 -0.38136548 0.031356763 0.13933077 -0.22805685 -0.09676216 0.07954066 -0.36581582 -0.06726863 -0.14907871 -0.085412234 -0.21498601 0.102608874 0.07994904 -0.0069301585 -0.33681726 0.07423539 0.044251714 0.025348753 0.24605988 0.0358679 0.0052824533
谓 -0.06296766 0.016375579 -0.0031343321 0.16560589 0.09667415 0.2169295 0.0738854 -0.30271083 -0.1715829 0.18243751 -0.14185108 0.10231313 0.034864593 -0.040879868 -0.08028098 -0.30576345 -0.15359566 -0.23202148 0.019749794 -0.17829327 0.37917712 0.11151111 0.28925747 -0.40421095 0.18695536 -0.11421328 -0.0635034 0.31851453 0.11613576 -0.11947561 0.3577378 0.31184012 -0.071947314 -0.2962129 0.020491224 -0.1242369 -0.037116025 -0.1418196 -0.2792792 -0.31516504 -0.17606366 0.0070274197 -0.20572144 0.4019876 0.40390632 -0.400645 0.186917 0.05693787 0.036161393 -0.32039553 -0.15773459 -0.12944268 0.38657042 0.08198481 -0.22915995 -0.03697632 -0.15749234 -0.37615028 -0.0133110965 -0.31297472 -0.103436634 -0.17480317 0.11938964 -0.33897302 0.32854536 -0.2829194 -0.30956316 -0.17364131 0.07960425 -0.101885624 0.33257902 -0.03328628 -0.16354752 0.11717052 -0.036305618 0.35050166 0.33376446 0.18691362 0.09890594 -0.30575243 0.37904328 0.17790027 0.3800845 -0.26029176 0.12183098 0.124709904 0.1391958 -0.01054617 -0.103419006 0.06791726 0.2904827 0.14271417 0.10174781 -0.10756244 -0.078121305 0.007806834 0.1557171 0.047318615 0.37716857 -0.16457933
必 -0.065694004 0.2587541 -0.16891298 0.01341506 -0.008588385 0.34023088 0.23613721 -0.050399955 -0.10315221 0.14974655 -0.064494185 0.04227802 -0.02945444 -0.13841498 -0.0061723986 0.37630948 0.0696671 -0.28752875 -0.12238177 -0.12524907 0.15079662 0.082570456 0.1007581 0.18144909 -0.0027946196 -0.011432248 -0.09365996 0.030172205 -0.35520965 -0.024874618 -0.08684779 0.119130105 -0.01870501 -0.2543074 -0.007029374 -0.12060943 0.05953465 -0.03312957 -0.010878921 -0.1493347 0.09476252 0.025250092 0.3753376 0.20727138 0.11287552 -0.41567892 -0.08242647 -0.04820812 -0.051684823 0.044386074 0.12987952 0.16148236 0.18559189 0.023679292 0.11858756 0.017235063 -0.27975196 -0.21625909 -0.18400258 0.35795727 -0.22110926 0.049015477 -0.01555189 -0.038402908 0.06261125 0.052977294 0.2739134 0.20217602 -0.063589044 -0.18055516 0.330865 -0.2489647 0.026400834 -0.26505515 -0.006421576 0.3901607 0.21147801 -0.04486802 0.29051358 0.010536183 -0.053563714 0.19554079 0.22652355 0.2470068 0.10505543 -0.31836548 -0.1222965 -0.03419128 0.111027524 -0.10194691 -0.024146965 -0.023659103 -0.01819211 0.030572325 0.22463468 0.06387192 -0.11516981 0.08050314 0.22306167 -0.029104682
礼 0.5871955 -0.11914792 0.26162267 0.083617285 0.123750694 0.52289236 0.3231175 -0.50725144 -0.47028077 0.4686012 -0.13477252 -0.29348028 0.022130866 -0.1042655 0.2855044 -0.11558789 0.29780942 -0.121457025 0.2789691 -0.3092528 -0.57959247 -0.33425292 -0.57951707 -0.12641576 -0.057601828 0.040523224 -0.5184114 0.4027687 0.12634261 -0.058641724 0.19528794 0.4006162 -0.02856669 0.19453673 0.0061652567 -0.23090102 0.26829275 -0.38271162 0.093081295 -0.31518447 0.012264675 -0.074236594 -0.5558436 -0.38871732 0.03672951 -0.6549202 0.17803457 -0.0035149981 -0.29057738 -0.06940251 0.08514711 -0.34767237 -0.14390075 0.040104087 -0.09494688 -0.53326786 -0.36060134 -0.5381092 -0.03177243 -0.2928549 -0.10890462 0.17546724 0.28530416 -0.17521726 0.6191591 -0.51914686 -0.42532524 -0.052713834 -0.2958836 0.35070294 0.27692273 -0.35222647 0.6052342 0.5432893 0.09392091 0.6092974 -0.17998105 0.37607417 0.22746882 -0.49837175 -0.029206162 -0.43344888 0.6062878 -0.57232463 -0.22209167 0.543896 -0.106696025 -0.17314903 0.44173607 -0.35168135 0.034916367 -0.41685915 0.4485305 -0.5069017 0.26430604 0.15048395 0.24234317 -0.40282255 0.027672129 -0.106614724
孔 -0.11072026 -0.015051343 0.10217078 -0.21711162 0.08100949 0.10891676 -0.34948346 0.32534763 0.30040228 0.25393286 -0.17310534 0.15375859 -0.013139145 -0.17294246 0.09287454 0.190435 0.29465604 0.08602929 0.011182995 -0.23098782 -0.33119842 -0.28475997 0.060695443 0.20272775 0.32994688 -0.33267218 0.19993167 0.31192285 0.10910998 -0.09822933 -0.27381346 -0.41505837 -0.08087783 0.26762596 0.00520434 -0.28835422 0.010965427 0.06649927 0.04066175 -0.06540254 -0.2854618 -0.026382122 0.024314975 -0.11985652 0.33000425 -0.07697541 0.14722443 0.06767565 -0.09763651 -0.076465525 -0.21296768 0.21137808 0.37743363 -0.14872628 -0.24945253 0.29504827 0.3966809 -0.3942652 0.06685323 0.19257814 0.33047345 -0.28242165 -0.38479862 -0.088436 0.28425753 -0.25793535 -0.06587758 -0.17488176 -0.0004240608 -0.36943245 0.37705925 -0.07361065 0.025572881 -0.23894116 0.024048947 -0.01735994 -0.1872494 -0.12488538 -0.019009836 -0.35181618 0.021694412 -0.019626703 0.32745224 0.26250315 0.161612 0.3495614 0.0075842915 0.079492934 0.23075704 0.29887155 -0.0038504938 0.18174575 -0.16488929 -0.1148035 -0.041040614 -0.12403479 0.031573057 -0.042838458 0.37537256 0.13665651
斯 0.38258815 0.06743716 0.1742667 -0.36141875 -0.05203398 0.3003515 0.21660385 -0.17187178 -0.08326687 0.080556944 -0.06654697 0.2545433 0.16813444 -0.018832957 -0.0056147724 -0.3640716 -0.3712167 0.32969692 -0.10967439 -0.29059133 -0.1920811 -0.32581636 -0.019314097 0.2773143 -0.13011321 0.02674818 -0.013954621 -0.060163707 -0.3270054 -0.24147663 0.17785928 0.003447714 0.17720105 -0.055884305 0.15807092 -0.30121884 0.0057199365 -0.16644365 -0.052580293 0.3264479 -0.2613186 0.08508935 -0.23928934 -0.29503658 0.37778106 -0.38188994 0.019897955 0.26335964 -0.2373107 0.09594308 -0.100549825 -0.06344291 -0.26081866 0.057591986 -0.2547969 0.31811213 0.03926166 -0.3554531 0.12558068 -0.1440804 -0.097668916 0.3795109 0.07009682 -0.023460802 0.35052046 0.022265522 -0.051937703 0.37128755 0.033535685 -0.033240527 -0.3188335 0.17017244 0.3301064 0.24704245 -0.086593986 0.31233504 0.33200604 0.3989055 -0.3112801 0.29894027 -0.09615177 -0.23682204 -0.3273581 -0.13052812 -0.026819106 0.096255645 -0.0908853 0.13714567 0.10006106 0.062339026 0.22225004 0.2348532 0.09149111 -0.29535568 -0.060180634 0.04270193 0.2804598 -0.22753523 -0.3208959 -0.16428918
三 -0.103161916 -0.25976124 0.110933304 0.11359683 -0.014836192 0.14486654 0.1404335 0.21992622 0.29188013 -0.35927513 0.16348611 0.3386728 -0.09520356 0.100268066 0.11933102 -0.34181052 -0.072322235 0.2260796 0.019192202 -0.04088029 0.39070183 -0.4236279 -0.34972057 0.3604141 -0.26762214 -0.2208018 -0.071589835 0.24441339 0.15333448 0.11597826 0.304059 -0.038522497 -0.09780331 0.3716697 0.40410617 -0.045197718 -0.056321967 0.009220278 0.025058035 -0.09785974 -0.40382656 0.18691674 0.18857794 -0.11826698 -0.30536723 0.016445909 0.17079648 -0.041822888 0.198122 -0.12931558 -0.20955482 0.0052753156 -0.08031255 -0.09207558 -0.0969049 0.02890386 0.2908731 0.10918755 -0.13263755 -0.03404718 0.07624698 -0.30762035 0.023056537 -0.10939422 0.1382752 -0.18760118 0.332439 -0.2752265 0.09950999 -0.3216935 0.24620067 -0.024187634 0.37223217 -0.29178023 0.06383038 -0.1552046 -0.28925338 -0.15967529 0.34412602 -0.36437753 0.041397233 0.049204003 -0.15210454 0.3064587 0.016103074 -0.084407344 0.06813685 -0.22360493 0.35076413 0.151597 -0.2468105 0.0593213 -0.23367217 -0.15553214 0.13782525 -0.036407802 -0.069798544 0.030029608 0.0052400534 -0.32097435
能 0.12475206 -0.23123111 -0.3094305 -0.18953763 0.27139956 -0.18092282 0.14105028 0.30423135 -0.22197086 0.29638237 -0.15658034 -0.30899468 -0.02336939 -0.0234249 -0.055447616 -0.21349968 -0.3643966 0.30236074 -0.31920797 0.3486957 -0.31072032 0.2701275 -0.35333684 -0.17385615 0.2659807 0.09399029 -0.0033317138 0.050913483 -0.36660385 0.16017327 0.2133002 -0.15128545 -0.029065669 -0.08575604 0.30335322 0.36989972 0.23462054 -0.27116388 0.09344811 0.33798012 0.14959948 0.3363085 0.18353952 -0.22054575 -0.119441494 0.11983181 0.15307645 0.22990078 0.10134197 0.28616673 -0.25999433 0.28495622 -0.30903286 -0.20239629 -0.10912902 0.105366595 0.32615784 -0.39772007 0.2894694 -0.331613 0.3556712 -0.3415775 0.11937208 -0.30684793 0.0584329 0.26725027 -0.056669056 0.29735783 -0.2699834 0.34718797 0.3449667 0.13649724 -0.3184141 -0.11286269 -0.10915288 -0.19534929 0.31060687 -0.16010156 0.37475646 0.24428347 0.38892576 0.013324967 0.383111 0.3091912 -0.23384424 -0.37891495 -0.018392779 0.36359003 -0.11697643 0.05878419 0.3670202 0.1605912 -0.28712624 -0.31538424 0.3185927 0.10906831 -0.013071177 -0.37239176 0.337003 -0.1741178
见 -0.08856282 -0.20162438 -0.19992378 0.18853857 0.07667297 0.07449246 0.2276948 0.38843697 0.3783654 0.043874323 -0.032911837 0.11794764 -0.020603461 -0.15419948 -0.24597552 -0.0343894 -0.0043525347 0.39425582 -0.00282538 -0.20375274 0.3685835 -0.3112547 -0.34724626 0.3496853 0.15035708 -0.10674796 0.19447818 -0.13234237 -0.20287764 -0.07623813 -0.3248943 -0.34316877 -0.11656409 0.031381793 -0.07075358 -0.24932666 -0.08719153 0.07371497 0.07438212 -0.21177739 0.20245562 0.014817464 0.024914254 -0.39500356 0.33299488 -0.151017 -0.15978943 0.13848276 0.24653767 0.06894883 -0.20666361 0.041805424 -0.24701369 0.030927846 0.04511901 -0.0787282 0.32192785 0.2765656 0.054722402 0.31293014 0.2309016 -0.36695045 -0.022722952 -0.36000502 -0.2422627 -0.2385454 -0.34987837 -0.02641699 0.100334644 -0.09758257 0.29245988 0.10761437 0.38112935 -0.3606647 0.093186036 -0.23387818 -0.05290575 0.19588694 0.343704 -0.20222333 0.20451857 -0.030258844 0.33153626 0.2694535 0.032886676 0.055813268 -0.035338268 -0.04061497 0.309466 0.26637822 -0.09701847 0.14929417 -0.2526502 -0.08875118 -0.10842643 -0.0020323403 -0.028426452 0.18665814 0.24629015 0.29309258
学 -0.29123107 0.0114018135 -0.13577601 -0.2695238 0.33469868 0.3799118 0.33375263 0.06792972 0.34553555 -0.3307513 -0.27465963 -0.32603115 -0.21351072 0.17141148 0.2351293 0.36654472 -0.31782308 -0.271774 -0.34000307 0.3498164 -0.31779236 0.040678315 -0.04727547 -0.31754133 0.25926593 0.1652395 -0.34245887 0.33814585 0.27703384 0.27191696 0.3229773 -0.31751552 -0.1635113 -0.3012842 -0.072612554 0.34686726 0.20170578 -0.15736474 0.24994682 0.3381995 -0.35189676 0.30151963 0.34462547 -0.14538299 -0.34901616 0.028602272 -0.32909805 -0.22141929 -0.06589201 0.22359411 0.05709706 0.3454997 -0.30010578 -0.3497521 0.06220253 -0.21099548 0.24121301 0.2450239 0.30030876 -0.25095066 0.30028933 -0.35385376 0.12116066 -0.38643533 0.3773837 0.06151553 -0.08826798 0.35451913 0.09830344 0.24416839 0.15049039 -0.1779776 -0.3240024 -0.3622627 -0.08878946 -0.3115894 0.25471872 0.3377373 -0.3184968 -0.27182356 0.16379353 -0.19667658 0.3508161 -0.17233263 0.35812697 -0.062381424 -0.20646247 0.34820035 -0.29473624 -0.37431648 -0.054884445 -0.038796492 -0.32956138 0.35737965 0.26605847 0.020032844 -0.35888466 0.22301292 -0.14231734 0.056766685
事 0.32969296 -0.1390874 -0.27491343 0.17056744 -0.071317516 0.36183456 0.20545873 -0.29419497 0.10357594 0.16096294 -0.010016252 -0.095910534 -0.08338451 -0.063816264 0.12320484 -0.28971863 0.28465638 0.18902901 0.14735407 -0.077831104 0.3221793 -0.03276215 0.3803117 0.12418086 -0.16581884 -0.05539686 -0.013487309 -0.39458737 -0.31924748 -0.09172543 0.09521602 -0.14255814 -0.0077566677 0.11899837 -0.20037559 -0.091759376 0.22637704 0.13961983 -0.01750951 0.17596875 0.07449788 -0.05908777 -0.031412873 0.3686907 0.37534684 0.21137531 -0.13512611 -0.0529476 -0.024769656 0.004361672 0.20577426 0.26257467 0.114467 0.19358046 0.13530883 0.15066364 0.38119134 0.34821945 0.07182331 -0.17101139 0.09579074 -0.3324226 -0.057818115 -0.0706065 -0.07533062 -0.099359065 0.046616632 -0.034916606 -0.14760625 -0.25958714 0.24148245 0.09382106 0.3788031 -0.36605552 0.0137633495 -0.0012641803 0.060013372 -0.026121462 0.3443189 -0.2330241 0.19756879 0.0609892 0.25305104 -0.24431916 -0.044600967 0.16990101 0.089782886 0.1726759 -0.09026931 -0.096547395 -0.0743913 0.23537356 -0.07937222 -0.11397489 0.32133207 0.03015986 -0.16211143 0.11134938 0.35263595 0.020619156
是 -0.31206703 -0.40320703 0.005826182 -0.5973763 0.010266636 0.104960464 -0.4658937 -0.40837407 -0.047583252 -0.15848388 -0.31101075 0.2786065 -0.1948304 0.38152003 0.08100305 -0.121340565 -0.41433287 -0.2654746 -0.106516 -0.4146294 -0.30166328 0.0079327915 -0.4472659 -0.14417171 0.2996083 0.24009234 0.14984864 0.44875878 0.4676557 0.0062017157 0.54317105 -0.10742891 0.19634311 -0.02271717 -0.014988655 -0.25615007 -0.04416532 -0.20718004 0.28211212 0.076163456 0.10600305 -0.041234683 0.39671 -0.036171734 0.46662974 -0.41428038 0.2778466 -0.09240892 -0.22584534 -0.049664088 -0.08788168 0.16415842 0.13292295 -0.08609896 -0.030894198 0.34318238 0.5958356 0.011836876 0.28698215 -0.06778067 -0.004961724 0.14314727 0.06618522 -0.18742408 0.5325332 -0.3582382 0.3115809 0.08532217 0.16309151 -0.37552938 0.23067239 0.23988813 -0.54169536 -0.25699773 -0.08455904 -0.25475636 -0.2152256 -0.04067988 -0.5384107 -0.33698618 -0.3866718 -0.34614736 0.16122034 0.60361964 0.18381554 -0.4433822 -0.250351 0.042271174 -0.23411006 -0.027808866 0.15110707 0.27090734 -0.06322999 0.5279014 0.18979818 0.031740576 0.11795099 -0.24851055 0.27371708 0.31616703
哉 -0.08288607 -0.0825123 -0.2611675 -0.3869679 0.12846808 0.3403059 -0.3626525 -0.086436115 0.030233884 0.3063635 -0.040436186 -0.2941361 -0.040753227 -0.07908306 0.022952637 -0.40803552 -0.09390757 0.05627077 -0.16070671 -0.2548658 0.050899886 -0.08938401 0.10096933 0.30550236 -0.3413517 0.009793454 -0.16524437 0.15398742 -0.36169901 0.010714765 0.067756146 -0.21902113 0.031489592 0.009531675 0.042775717 0.16119026 0.14654104 -0.16744442 0.01762261 -0.19394185 0.07691519 0.15944453 0.3893177 0.36228052 0.38159052 0.2753875 -0.1865346 0.12979023 -0.0012487341 0.18123962 0.14715873 0.13815805 -0.053443536 -0.04008477 0.12459218 0.16045286 0.31596345 0.06558536 -0.031652246 0.31767586 -0.31559452 0.33604077 -0.122398145 0.10638991 -0.07287656 -0.06913982 0.088928215 0.2393494 0.042184085 -0.40071127 -0.33093068 0.01496801 0.13436605 -0.16906308 -0.066280894 0.08548224 -0.108799845 0.0863859 0.16927187 -0.337123 0.3243815 0.161823 0.29025283 0.2354792 -0.11291468 0.33053094 0.07011666 0.20946774 -0.026487783 0.049836293 -0.16647983 0.1644725 -0.04042624 -0.24744168 -0.14296043 0.09009291 0.065738015 0.12904993 0.4025149 -0.052242264
闻 -0.074590616 0.039243713 -0.13218488 -0.3662516 -0.012035722 0.2286622 -0.26424155 -0.34081155 -0.13069037 0.29886213 -0.14985403 0.28810596 0.19007383 0.073809035 0.0038186244 -0.30039844 -0.3456874 -0.038522154 -0.13487458 -0.063527994 -0.3265032 0.101674415 -0.055748887 0.33964327 -0.0778888 0.034376737 0.12326409 0.30318937 0.05313137 -0.17757967 0.36825967 0.34182933 0.047128763 0.17774343 -0.14538775 -0.2836331 0.018413788 -0.14772353 0.27412376 -0.20395541 -0.16567364 -0.002737812 0.35219896 0.4016237 -0.2510899 -0.3759588 0.11803403 -0.15774027 -0.17435046 -0.05706061 0.12648438 -0.07950823 -0.26071733 -0.0044933995 0.11076069 0.15914328 0.3924918 0.060027637 0.13161115 -0.24780038 -0.30998528 0.056694366 0.19082002 -0.27868453 0.32708043 0.051451467 0.20743579 0.18217021 0.36562857 -0.35082355 -0.10588252 0.28001872 -0.32196748 0.1736735 -0.06794045 0.12833856 -0.03917499 -0.12474461 -0.28466958 -0.3167577 0.011928649 -0.13594918 0.38528186 -0.40151724 0.3833971 0.26460585 -0.2060772 -0.11379831 -0.15606162 -0.082167886 0.34308782 0.11540322 0.14859585 -0.09128172 0.031705856 0.047637966 0.12610024 -0.39532256 0.19048353 0.08404873
未 -0.32204267 0.12768406 -0.30706975 -0.39765126 -0.051184606 0.38284877 -0.41827154 -0.031892173 0.055451766 0.34556526 0.034182563 -0.036356237 -0.16913287 -0.13862874 -0.15325983 0.36133206 -0.08981664 0.15893202 -0.019628115 -0.3317308 0.27711967 0.16763711 -0.31868416 0.2293758 -0.40532464 -0.004487663 -0.08431773 0.18786429 -0.37643078 -0.097600825 0.13267498 -0.13735989 -0.12546718 0.15885529 0.074756406 -0.16421129 -0.13128169 -0.14816166 -0.10017741 0.26393762 0.0073179444 0.07889335 0.066181324 0.31951517 -0.11954582 0.13768175 -0.37694842 0.29798266 0.019197568 0.08979198 -0.0088536525 -0.051676665 0.1652796 -0.08486179 0.07888904 0.03824545 -0.33709005 -0.33315206 0.0022103891 0.26082477 -0.14206116 -0.10107171 -0.08256483 0.013878194 0.35959494 -0.044731323 0.17532273 -0.020165145 -0.10714262 0.2021343 0.3590833 -0.2956222 0.38281694 -0.18284318 0.010807499 0.32728633 -0.13166659 0.09922187 0.2653237 -0.3968359 0.1323233 -0.06990038 0.33154568 0.36883482 0.019389022 0.09568827 0.08724243 0.21102017 0.021343853 -0.24267013 -0.23926546 -0.25301 -0.037576273 -0.11576445 -0.09172043 0.158239 0.10666682 -0.22914124 0.407519 0.03904335
公 0.3489126 -0.10339808 -0.08014016 -0.30123654 0.09307889 -0.31089008 -0.009220721 0.39627612 -0.17254102 0.021618843 0.13768959 -0.080994375 0.23612945 0.07106461 -0.18977185 -0.32068735 0.40112633 -0.09952756 -0.12866576 0.17490064 -0.3005872 -0.07293703 0.27365857 0.19460638 0.086661555 0.025255417 -0.070035815 -0.33797988 0.20559645 -0.22080196 0.35137957 0.30019185 -0.15431961 0.2638664 -0.13911712 -0.32815126 -0.059014134 -0.19341071 0.4062881 -0.24641341 -0.13589182 -0.029473599 -0.26871452 0.35847145 -0.25400665 -0.34817863 -0.21898341 -0.011830711 -0.12349121 -0.014383867 -0.16767071 0.10915779 -0.27168438 -0.0015148708 -0.008112746 -0.23768675 0.41570896 0.078978315 0.086455695 0.20539793 0.022662852 -0.08647881 0.17410353 -0.113848485 0.2644383 0.17551105 0.38640353 0.29853895 0.3844732 -0.0052300147 0.08786694 0.2878474 -0.28287598 0.07153112 -0.07863812 -0.12133839 0.28810158 -0.053613454 -0.16610603 -0.11029281 0.36249992 0.0051001743 0.3246713 -0.0055394946 0.3942655 0.33574724 -0.20509905 -0.07273714 -0.08711084 -0.2569832 0.19573885 0.024490392 -0.16960147 -0.1613482 0.13328438 -0.008651025 -0.087951876 -0.32873538 -0.19719888 0.27942586
好 -0.19687416 -0.31162348 -0.3583345 0.26483408 0.17898579 0.33584893 -0.37762943 0.35316238 0.30744705 -0.30776122 0.072752 0.34376863 -0.19844076 -0.22385 0.33505353 -0.3772844 -0.3264615 0.3437631 0.080828816 -0.19331749 -0.34618145 0.15322632 -0.31750885 0.2705945 0.30817798 0.23679328 0.3585371 0.38907328 -0.3626777 0.057695776 -0.053312343 -0.2642634 -0.2523661 0.12497384 0.22653191 0.20921834 0.2932403 -0.06419866 -0.20386416 -0.029826613 0.07120576 0.14972892 -0.18717499 -0.3098206 -0.33559233 -0.3393751 -0.31323913 0.29468998 -0.087354966 0.27677605 -0.2885532 -0.037487593 -0.25836277 -0.25081503 0.06541337 -0.31253323 -0.2876526 -0.102278374 0.25116545 0.34814566 0.33966377 -0.31459278 0.07862976 0.10788367 0.3636745 0.1612318 -0.3199083 0.33916917 -0.2597187 0.31199503 0.35929802 0.07866871 0.3311166 0.25344357 0.018720113 -0.030197445 -0.055843916 0.36057088 0.2410277 0.23336045 0.26538876 0.3462035 -0.24000077 0.17661507 -0.19211635 0.26388535 -0.30860725 0.34037775 0.24794433 -0.09421097 -0.0250759 -0.20904486 -0.15603995 -0.31777322 0.23245992 0.1264033 -0.20981412 -0.05239364 -0.2322256 0.28493002
我 -0.34615836 -0.09951636 -0.26772434 0.019217806 -0.13797839 0.075680494 0.38061562 0.21390665 -0.16279143 0.17338288 0.25415498 0.3453288 0.1886699 -0.04837688 -0.04426142 -0.1275259 -0.15894878 -0.16790049 0.034827378 0.14397202 -0.24932419 -0.16550763 0.33134678 -0.097504735 -0.16574545 0.03836274 -0.17501694 0.050537646 0.090866596 -0.28679672 0.3530326 0.20418328 -0.01818618 0.24947563 -0.23775522 -0.21942651 -0.0020068712 -0.28553712 0.25565934 0.032191243 -0.028462995 0.22041528 0.17355448 -0.16776691 -0.20537215 0.038662452 -0.18992637 0.2291005 -0.20867299 0.06311795 0.14054547 0.18886313 0.26809886 -0.11200207 -0.08513362 0.0051799994 -0.29798335 -0.39803642 -0.09951296 0.37593958 -0.017256003 -0.36739042 0.10410163 -0.170217 0.32881016 0.18068525 0.34929946 0.36994904 -0.043854717 -0.33179033 -0.28058147 0.366499 -0.09766729 0.04849772 0.014194607 0.00634893 0.0093266815 -0.0437695 -0.21912974 0.06883543 0.2729197 -0.024487132 0.21341605 -0.1531406 -0.23750342 -0.23243745 -0.10840839 0.22552638 0.030815186 -0.17397133 -0.037062373 0.07567779 0.07242725 -0.319281 -0.105293415 0.07776002 -0.2094834 -0.01130438 -0.14740293 -0.0972786
路 0.037610363 -0.06856447 0.032136634 -0.060403824 -0.025328005 0.10059673 -0.15715265 -0.057272907 0.348678 -0.339235 -0.012671224 -0.08313358 -0.013545685 -0.0692901 0.2856898 0.34703964 -0.27674973 0.40179533 0.05290826 -0.011726876 -0.36946023 -0.029210074 -0.26824036 0.2642509 -0.3845089 0.12003076 0.31510282 -0.26534954 -0.30538222 0.020766461 0.050037343 -0.098706245 0.002521126 0.025411949 0.35267538 0.3658197 0.14342734 -0.30768645 -0.024111602 -0.18594913 0.07098933 -0.22105402 0.40299726 0.340875 0.088561885 -0.23471688 -0.12714164 -0.0021585496 -0.3055065 0.023495382 -0.043004062 -0.013014016 -0.18146217 -0.1496569 0.047479067 -0.17794515 -0.11981579 0.054762173 -0.18828586 0.34931955 0.08116737 0.35705453 0.012591752 -0.16579156 0.21934184 -0.024440853 -0.21585982 -0.35517842 -0.01309664 -0.40281346 -0.34996825 -0.22782774 0.3714592 -0.3423355 -0.16267976 -0.19525681 0.15804368 0.15039095 -0.36856312 -0.38345438 0.14897402 0.11128703 -0.14425176 0.2873156 -0.21877865 0.22990392 -0.3310706 0.1285753 0.03675297 -0.038568817 -0.19051793 -0.3824185 -0.12548864 -0.042476043 0.046190705 0.08452412 -0.024746556 0.141157 -0.0148617225 -0.16396776
在 -0.1304322 -0.036025215 -0.35018098 0.11302893 -0.13536762 -0.5247527 -0.4549372 -0.13570586 -0.4703316 0.39552155 0.18270297 0.33004925 0.08810428 -0.19957653 -0.5026808 0.35866988 0.6009095 0.5788501 -0.33463335 -0.2939624 -0.54471356 0.37980875 -0.35201383 0.25650185 0.45577523 0.03380295 -0.13296765 0.5709668 -0.066238865 -0.13681689 0.13739458 -0.5836608 -0.22849795 0.20433901 0.41089186 -0.22545286 -0.34088954 -0.011762037 -0.4539804 0.18131016 0.5145795 -0.13070577 -0.18941972 -0.041119102 -0.526944 0.60375136 0.21883193 0.33152783 0.037348237 0.17694326 -0.3546874 0.16672248 0.45314705 -0.19357109 0.2988269 0.1634697 0.12825619 0.13821045 -0.065995656 -0.38976404 0.44589782 0.19550262 0.34873858 -0.607294 0.10235532 -0.15456413 -0.37505043 0.19198112 -0.0059174667 -0.4973605 -0.55295956 0.23211311 -0.3665419 -0.2714136 0.47276232 -0.43860036 0.100231975 -0.4968323 0.2453218 -0.60505646 0.033861607 0.0025032707 -0.16896228 0.5657811 -0.20076483 -0.44437706 -0.018548751 0.23963533 0.1233301 0.1991243 -0.13901328 -0.2006896 -0.018571926 0.25478858 0.009099436 -0.35339713 -0.5006555 0.4768971 0.48464012 0.53367174
已 0.15102926 0.20836459 -0.17894056 -0.29705608 -0.23224553 0.16510157 0.30669022 0.16635893 0.29153624 0.33551702 -0.082817204 -0.31996623 -0.05220097 0.008853435 -0.10440918 0.34225202 -0.342115 0.35088882 -0.2921734 -0.06479653 -0.17128687 0.2481873 -0.23081908 -0.28334424 0.17480434 0.10603981 0.33700123 -0.37231925 -0.34981397 0.0448234 -0.27783534 -0.23895 -0.08383538 -0.06679564 0.16002096 -0.0751706 -0.0911461 0.16196437 0.12398985 0.023873225 -0.21784078 -0.098046474 0.3441829 -0.04197496 0.06323736 0.33652592 -0.21799228 -0.0044753365 -0.097204335 0.17082435 0.11380623 -0.057674326 -0.036829118 -0.018242626 0.09458666 -0.16922174 -0.19759892 0.35407567 -0.11820926 0.38167483 -0.15351275 0.37333912 0.11509877 0.32747087 -0.36383647 0.20104319 0.017986367 0.30431134 0.17006026 -0.15225103 -0.17678155 -0.070633076 -0.15237948 -0.25784808 0.071102224 -0.011068078 -0.11677852 -0.023436107 -0.25612724 0.24481316 0.051065475 0.21382742 -0.3162536 0.35246444 -0.008667885 -0.30423164 -0.3249114 0.23579767 0.27265373 0.20815507 -0.104047425 -0.051555373 -0.22886 0.37503505 -0.20816125 -0.09414011 0.043572415 0.1848358 0.02136781 0.19925585
得 -0.026700158 0.06040329 -0.004373898 -0.39188728 -0.17993057 0.11258946 -0.20858824 -0.35495996 -0.029010003 0.27898344 -0.1503684 0.19855715 0.036607422 0.05168558 0.24687551 0.03192227 -0.38796008 0.19296664 0.098961435 0.23068671 -0.25007087 0.005716006 0.13376743 -0.14871205 0.18692878 0.038799725 0.028739655 -0.23157981 -0.36064318 -0.14520065 0.082193226 0.07291696 0.17071177 -0.34188628 -0.20466913 -0.07483001 0.021801362 -0.15604843 -0.100655325 -0.25494823 0.016783645 0.024418978 0.27472275 0.4112495 0.032802194 0.23242417 -0.0059604435 -0.08827527 0.0102159055 -0.08062649 -0.1322496 0.23896943 -0.1807295 -0.15210819 0.036230683 0.021531729 -0.12945944 -0.2073475 -0.0048003467 -0.37092537 -0.3035946 -0.30957428 -0.20806718 0.33972526 -0.30299932 -0.19420752 -0.31400818 -0.2816806 -0.030649183 -0.29753265 -0.2700955 -0.16211647 -0.015615281 0.1539716 -0.039565966 0.3569248 -0.03901567 -0.10281551 0.29191017 -0.38815334 0.098409146 -0.058351506 -0.083177924 0.2251111 0.41258726 -0.325153 0.07233923 0.15236942 -0.3263919 0.053041805 -0.08950492 0.17494923 -0.18380687 -0.1334656 0.2610498 0.14098516 0.1603953 0.119705856 0.2215923 -0.37017924
所 0.26915428 0.31298047 0.32381824 -0.3205384 0.31631187 0.16068734 -0.21346653 -0.2471646 0.3459158 0.3037446 -0.31538302 -0.19803546 -0.2946502 -0.19688843 0.38174096 0.36047995 -0.32771 -0.007381463 -0.30998918 -0.2429633 -0.30990338 0.15792596 0.30841425 -0.32449523 0.13245131 0.21833402 0.33897284 -0.12772393 0.2540246 -0.23625614 0.038122855 0.3919079 0.033205733 -0.36177206 0.3814664 0.051008806 -0.23328063 0.053380657 -0.1262088 -0.3179672 0.20757146 -0.20718125 0.33374912 -0.3124935 -0.25710574 0.24296604 -0.06260131 -0.056481387 -0.25800264 0.18685682 0.2795113 0.026028698 -0.13938391 -0.33813897 -0.28721035 -0.26564336 0.20998096 -0.37499025 -0.25277424 -0.32852346 -0.29064912 0.36416563 0.20443653 -0.14959575 -0.2461598 0.12748654 -0.31729233 0.26009825 0.012020635 -0.2056415 0.37207383 -0.20736358 -0.2852728 0.13935575 -0.15736012 0.018315457 -0.07765385 -0.15441337 0.3748317 -0.3656167 0.29795855 -0.05901954 0.33951905 0.3361177 0.2951481 -0.33212185 -0.1332834 0.37917376 0.3513928 0.09497435 0.07960866 -0.029842164 0.17583206 0.336379 -0.3171783 -0.15500899 0.023614714 -0.20732956 -0.08688107 0.07548004
民 0.016884524 0.08332029 -0.15184742 -0.23098265 -0.24876164 -0.25729665 -0.30407563 -0.35236835 -0.31989443 0.32601008 -0.18527973 -0.0026089011 -0.20438085 0.07852551 0.36018527 -0.3577978 -0.29154342 -0.18133831 0.06762694 0.25865474 0.27041152 0.36179852 -0.3022476 -0.2993846 0.27876115 -0.20265073 0.07138514 -0.29037413 -0.36037645 -0.07670609 0.04721974 -0.3160043 0.25120372 0.025165528 0.25513652 -0.01961069 0.16667601 0.15747584 -0.32415846 -0.35806462 0.31546912 -0.0858346 0.03235312 0.026977217 0.25471288 0.28906664 0.012238305 -0.06774618 0.28844085 0.05465576 -0.13779196 0.01519757 -0.20624854 0.11671324 0.08788499 0.15461817 0.3500984 0.030022407 -0.1059585 0.24430485 -0.0210774 0.11750138 -0.27025646 0.12765947 0.054559913 0.20110238 -0.30527902 -0.13413455 -0.03672469 -0.20799482 -0.10939899 -0.12750491 0.140093 -0.16776547 -0.10981112 0.3858129 0.09721982 0.061425805 0.12793653 -0.23745292 -0.19199465 -0.0009920091 -0.1182666 0.3277659 0.32121682 0.04308962 -0.15041268 0.33664078 -0.12889628 0.11738915 0.22602661 -0.19847919 -0.13558072 -0.1059503 0.15873569 0.018414456 0.11308593 0.23907124 -0.07744916 -0.29955328
小 0.25932962 0.031186732 0.25518548 -0.14054745 0.051527895 0.2621676 -0.36876854 -0.34343898 -0.22946979 0.3483199 -0.21290812 0.18619183 -0.12239417 -0.04697547 -0.014796939 0.008231869 0.24893191 -0.32305893 0.08744377 -0.27935928 0.11598764 -0.026069215 -0.34136283 0.2908609 0.22711909 -0.032054447 0.03442384 0.16663845 -0.12264321 -0.18793751 -0.1072269 -0.12150495 0.20562243 0.26494744 0.11667776 0.36209145 -0.10585453 0.024164343 -0.12302445 -0.34887257 0.18950418 -0.11128987 0.28990257 0.31447062 -0.3090231 0.11407845 -0.037219223 0.021771267 -0.1129911 -0.15548073 -0.19417468 0.118067496 -0.15236291 -0.10664181 -0.25411144 0.09684373 0.39810857 -0.3674492 -0.16129656 -0.3360327 -0.052076668 0.31188235 -0.09937529 -0.021148844 0.28314155 -0.043355197 -0.2984457 0.3522061 -0.21770313 -0.37370652 0.31679645 -0.06771134 -0.24799554 -0.25707158 -0.100062124 0.052911922 -0.14336006 -0.20929866 0.14411028 -0.38758942 0.37834972 -0.018698193 0.3559769 -0.28692457 0.15524009 -0.39982587 -0.104057916 -0.048854474 0.2998596 0.13166893 0.30058843 0.028749619 -0.14748704 -0.17535277 -0.12753423 -0.03556853 -0.07070847 -0.025856413 0.36208186 0.023735067
天 -0.118123166 0.08268044 -0.39637265 0.22057386 -0.3554326 -0.18351418 -0.37848568 -0.3472042 -0.14287695 0.3362346 -0.2641295 -0.20333493 -0.22316834 0.032117512 -0.07383261 -0.15156253 -0.34009418 -0.25891054 0.22325881 -0.0503081 -0.073552474 -0.015868459 -0.31792864 0.39786616 0.10646926 -0.380287 0.3980838 0.36292952 -0.32846007 -0.22208244 -0.077480845 0.37322077 -0.036917962 -0.2209072 -0.13909283 -0.30191627 -0.0033644051 0.13724671 -0.3029582 0.3946677 0.22630334 -0.067487806 -0.33760607 -0.17172591 0.08492723 -0.25166267 0.21071194 0.057266995 -0.0782162 0.044377934 -0.1645504 -0.28745794 0.19830522 -0.035369106 -0.33771762 -0.3812381 0.41220596 -0.20341738 0.1375619 0.30661923 0.3849507 0.36096585 -0.34120703 0.32359907 -0.09537193 0.25762433 -0.021683106 -0.32944724 -0.06982306 -0.30249447 0.36248946 -0.05678047 0.35031778 0.15579897 -0.20933054 0.27021325 -0.10727997 0.39178756 -0.32901838 -0.3622624 0.15143996 -0.076371744 0.041149635 -0.43938202 -0.13712561 0.26777354 0.11004355 0.22562003 0.36595103 0.017618682 0.37895384 0.017774122 0.055911086 0.1275096 -0.19578461 0.1873634 0.03184063 0.20052522 -0.2810045 -0.20416838
乐 0.059073407 0.08000023 0.0508209 -0.26704445 -0.08266783 0.19312671 -0.20569374 -0.29713365 -0.12548906 0.081059515 -0.01730482 -0.09157275 0.009226303 0.031767745 0.20938826 -0.14355497 0.24991393 0.18299665 -0.007292685 0.15639839 -0.3537874 -0.0004916291 -0.036105156 -0.008284439 -0.25601435 0.08864912 -0.03792009 0.22799037 0.24763379 0.038418833 0.10667015 0.015396509 0.15777259 0.065133326 -0.01850104 0.1821283 -0.012068891 -0.18036877 -0.036349252 -0.0563228 -0.07510993 -0.012011704 0.2873761 0.28847384 0.16662899 -0.27297226 0.076331876 0.04277656 -0.1097076 -0.024935957 0.0287492 0.083600864 -0.067393765 -0.023148738 -0.12276363 -0.2161661 0.24109852 -0.13424757 -0.07239636 -0.097640604 0.0038643463 0.18363917 0.007564641 0.16464588 0.37307703 0.2511272 -0.10330926 0.12754737 -0.013789811 -0.16559054 -0.37228683 -0.18114315 -0.05101316 0.3408639 -0.07597678 0.34621936 0.2185469 0.11232478 -0.26317194 0.10431754 -0.038524978 0.10259261 -0.3402666 0.33269393 -0.07294854 -0.32659352 0.057427995 -0.095759824 -0.0027584238 -0.10539644 0.01373531 -0.18417434 -0.111939676 -0.19018678 -0.11731659 -0.023619596 0.19207665 -0.12950438 0.038115446 -0.30779526
邦 -0.22204708 -0.47941738 -0.4986953 0.18138887 0.41131443 -0.21804811 0.35817233 0.25755233 0.16601183 0.56292033 -0.29289466 -0.1976297 0.0025407567 0.031243073 -0.3781715 -0.31580833 -0.47675455 0.23034778 0.06241538 0.049429275 0.25034514 0.37612468 -0.033637367 -0.46932986 0.32179502 -0.39801857 0.34748578 0.17330791 -0.39640245 -0.027656231 -0.30404934 0.009010449 -0.3928717 -0.15514411 -0.38960207 -0.38689017 0.0019717386 -0.49446267 -0.15962872 0.6410361 -0.37843856 0.092801236 -0.07214756 0.0550375 0.051252358 -0.4340476 0.17379944 -0.22154602 -0.28928024 0.2162785 -0.27897662 -0.032131847 0.16179727 -0.055793125 -0.07502835 -0.0066577513 0.24235646 0.07529651 0.5255685 0.47124547 0.032993395 -0.52983564 -0.030738229 -0.2249944 -0.064970985 -0.27701038 -0.023292849 0.47544903 0.3287469 0.52757037 0.43939716 0.117767125 0.5349228 0.14633541 -0.25045943 -0.110960394 -0.07290886 0.034674793 0.5536077 -0.40805593 0.2590358 0.0092499005 0.6283487 0.5042047 0.3082175 -0.14192507 -0.059653882 -0.012149794 -0.021556713 0.25697294 0.38533226 0.25699773 -0.37820005 -0.48205283 0.29363713 0.14563528 -0.004917708 0.015667206 0.07770247 -0.23866104
亦 0.065469556 0.22242573 -0.0024036965 -0.36816752 0.21849841 0.38900074 0.30093396 0.228412 0.18110123 0.3251521 0.2874139 0.034596708 0.06015595 0.31661183 0.108293585 -0.33436623 -0.25138232 0.29556662 0.16611588 -0.34726176 0.23051992 -0.004557009 0.31738412 -0.2892218 -0.34590623 -0.007873072 -0.025974577 0.25940594 -0.15326077 0.08886143 -0.20856905 -0.3452834 0.2659525 0.25840572 -0.3230117 -0.34690845 -0.023909882 -0.17909195 0.30507416 0.3662842 -0.083812125 -0.29576465 0.29607138 0.3739691 -0.3108754 0.29965538 0.051260997 0.16231431 -0.067611896 0.09408582 -0.052768495 -0.08616288 0.068705924 0.26836768 -0.038645778 0.116902985 0.36327994 0.2533715 -0.25523126 -0.34248826 -0.2371561 0.3558137 -0.09900579 0.2829633 -0.36262634 0.21467581 0.31225818 -0.34536517 0.016865097 0.2886149 -0.3089867 -0.14752536 -0.29780048 -0.16448118 -0.35884902 0.34324756 -0.16291347 0.3585141 -0.35240847 -0.39233074 -0.24413489 0.3379251 -0.3029828 0.35974222 -0.1412297 -0.36216992 0.21995313 -0.056676015 -0.0949087 -0.19106774 0.19324529 0.18080932 -0.29527426 0.39132488 -0.29240644 0.10505444 0.32066664 -0.3318608 0.34364346 -0.009853149
使 -0.052289583 -0.16564965 0.020237647 0.18619463 0.12531519 -0.03782499 0.28434524 0.37551397 0.41255778 0.29511228 -0.13506545 0.0010045595 0.30526015 0.17436075 -0.290231 0.016875535 0.2772676 0.22493248 0.07189626 0.36226586 0.40032497 0.10643776 0.2805474 0.2899398 0.16368547 0.052856725 0.0018119407 -0.29755592 -0.16418053 -0.22455028 -0.3230918 0.3321217 -0.15926524 0.25499842 -0.2008657 -0.28746286 -0.04238882 -0.012414065 0.008339873 0.3737897 -0.011058988 -0.11005591 0.40265846 -0.115582235 0.35494792 -0.39848417 0.08748166 -0.08105079 -0.16323286 -0.027055228 -0.17052689 0.010779503 0.021547541 -0.12746581 0.08780882 0.048647404 0.3021734 0.014788818 0.084282376 0.2715366 0.29433587 -0.26071435 -0.21151611 -0.15030783 0.10610624 -0.0010257794 0.16321634 0.39033344 0.0074289953 0.18148136 -0.026160398 0.30181506 0.3669234 0.31567717 -0.18891159 0.38801494 -0.1714721 0.25469396 0.44701046 -0.4166412 0.36579648 -0.07945262 -0.36089587 0.097412534 0.050706256 -0.03544459 0.08240786 0.0018069646 0.019310055 0.15664798 0.34728414 0.19936743 -0.10553289 -0.3515794 -0.19102754 -0.0016505856 0.17408301 0.19107246 0.20665556 -0.029257534
大 -0.1301701 -0.05250624 -0.068212815 -0.3865366 0.22769336 0.3921352 -0.22070375 0.27130964 0.06695148 -0.32887465 0.1280753 0.3437422 0.40399355 0.011805526 -0.05515589 0.341513 -0.09247311 0.35819975 -0.067270406 -0.14793062 -0.28293884 -0.30720302 -0.2416364 0.22133487 -0.24755083 0.044011235 0.017970903 -0.13660052 0.27746022 0.11792712 -0.20250991 -0.23488869 0.03814305 -0.26215106 -0.06196701 -0.30734137 0.2889006 -0.1046293 0.37830004 -0.1834198 -0.142254 -0.082265675 -0.065004736 -0.31754515 0.210147 -0.19746599 0.0076545933 -0.03364404 -0.039155003 0.0052800756 -0.2689907 -0.0107774185 -0.33976188 -0.11916152 0.06234719 0.10686892 0.040366624 0.28737244 0.04547775 0.39702052 0.27811006 0.34353682 -0.063688934 0.2158264 -0.050145335 -0.10945539 0.33858722 0.3804833 0.08568777 0.32069016 -0.09855161 -0.18555883 8.85115e-05 0.2758544 -0.35017765 -0.2900456 -0.17987421 -0.296636 -0.08569536 -0.37041274 -0.26399356 -0.15969102 -0.043067925 -0.013209385 0.038630243 -0.33225945 -0.07752745 0.104729734 0.38360256 0.15079594 0.072302856 0.023159822 0.054532345 0.21473445 -0.043781098 0.13662471 0.08336327 -0.3726186 -0.21643327 0.32127953
下 0.20837349 -0.33022207 0.32267866 -0.31988633 0.13992634 0.31505522 0.097073324 0.31353906 0.22865231 -0.24324355 0.21226583 0.28435203 0.26754355 0.18167417 0.10400784 -0.36628497 0.32955605 0.26796997 -0.068552464 0.057187993 0.33298013 -0.2844277 -0.3516149 0.3080193 -0.32635048 -0.14982085 0.32228413 -0.22831686 -0.34163913 -0.25706562 -0.31388927 0.1770201 0.20438065 -0.07303946 0.3287458 -0.30902842 0.11651957 0.26871726 0.21727599 0.30819032 -0.25740033 -0.13908736 0.09365973 -0.32066694 0.34040034 -0.300179 0.086175025 0.31507412 -0.33892286 -0.27714318 -0.10247544 0.2547386 -0.3387537 -0.12933184 -0.24650258 -0.28174773 -0.09326333 0.31255248 0.16454418 -0.23446766 -0.14511433 -0.27607042 -0.30996704 0.31856358 0.26340064 -0.33950534 -0.34901726 0.33429316 -0.3358671 0.2904998 0.16938794 0.32277974 0.3312658 -0.1280267 -0.30413005 -0.048890095 -0.33058512 0.2900445 -0.3069423 0.31916156 -0.35693884 0.22400826 -0.30276778 0.14667556 -0.3167609 -0.3374899 0.27002102 0.30036232 0.30598482 -0.2263436 -0.3426831 0.3410868 0.32104027 0.3134323 0.17598498 0.1324632 0.19241937 -0.09115714 -0.10198883 -0.25001836
贡 -0.3014391 -0.05140662 -0.15047035 0.37199223 0.1702267 0.36337382 -0.312492 0.24532972 -0.071209036 -0.33471608 -0.15720646 0.28333646 0.24733876 -0.16534658 0.24914719 -0.18109056 0.28331417 0.35674244 0.00029071112 0.37051752 -0.36739632 0.15162875 -0.2527219 0.13453199 0.2555407 0.29311225 0.22083272 -0.35012543 0.27545026 0.0640679 0.3696083 0.29167524 -0.09670706 -0.36583254 0.27717212 0.018430147 0.06175015 -0.044611413 -0.14633772 -0.39034712 0.09225617 0.18414265 0.35567555 -0.1809806 -0.24467984 0.32521495 -0.27034664 -0.13404486 -0.2857932 -0.19451827 -0.2902221 0.36318347 0.0488681 -0.13031241 0.14272052 0.1263795 -0.26893666 -0.34191585 0.020892298 0.3443712 0.33252636 0.23128696 0.119119525 0.3184975 0.13504153 -0.31668 0.32198405 0.3396444 0.021934932 -0.37163904 -0.30707535 0.0032293706 -0.19901195 -0.025048872 -0.32409713 -0.06847796 0.24145867 -0.31512153 -0.33980379 -0.36004522 0.057963897 -0.09761355 -0.18146986 0.33826795 0.34977543 -0.35537472 0.19938062 0.18444492 -0.15390427 0.26746264 -0.10642011 0.012140521 -0.27694947 0.086955145 -0.04988636 0.26681003 -0.155123 -0.10402006 -0.157144 -0.22096264
欲 -0.15268837 -0.032068297 0.119206965 0.027824339 0.046079762 0.07076106 -0.27760583 -0.051016193 -0.15551552 0.17281489 0.080485225 0.40963656 0.1380655 -0.014180203 0.28604156 -0.23150326 0.24219829 -0.008843508 0.11620985 -0.25924012 -0.06347951 -0.15863888 -0.11160602 -0.015302256 -0.30907086 -0.015371164 -0.07212078 0.39093608 0.12634914 -0.07187251 0.2290443 0.29405737 0.040929478 0.117346585 0.16540554 -0.08162571 -0.12272139 -0.09976493 -0.057288542 0.04129582 -0.2342467 0.08818671 0.017691504 -0.2176064 0.21457444 -0.325907 0.06321283 0.065158114 -0.019921951 -0.030109765 0.20905977 0.09351821 -0.02141486 -0.0034807432 -0.18380885 -0.10501358 0.051917396 -0.1738815 0.1299391 -0.19396827 -0.15070152 -0.014674741 -0.10454228 0.022346515 0.3703348 -0.10899502 0.28247207 0.2535646 -0.07585092 0.09521184 -0.42735675 -0.19812644 0.18511686 0.11925627 0.057708662 0.34735245 0.022994522 0.048563056 0.40833414 0.17677256 -0.04834923 0.102206215 -0.08464363 0.34893367 -0.020851014 -0.24465036 -0.107077375 0.07446442 0.10106491 -0.35235882 0.19446598 0.082275294 0.0059947725 -0.28434244 0.29901326 0.005813795 -0.2686412 -0.32312372 -0.06941933 -0.04522221
诸 0.33806536 0.35843292 0.13107088 0.22691944 -0.38882408 0.3224449 -0.35502487 0.27518952 -0.3406396 0.33104843 0.2380512 0.10642845 0.3293623 -0.25800696 -0.2947143 -0.3062444 0.2765528 0.089557655 -0.047668934 -0.3792514 0.3220655 0.36914855 0.32269317 0.17402278 -0.36788392 0.08469894 0.31657147 0.32583115 0.28444687 0.10003064 0.014574868 0.19359137 0.06725117 -0.21511626 0.3484463 -0.04403942 -0.30433828 0.3457616 -0.3392442 0.35314962 -0.36727086 0.2525948 0.3164302 -0.30863526 0.2647433 0.3267468 0.22589934 -0.2270262 -0.2766492 -0.004940314 -0.17382647 0.34310603 0.3314962 -0.361925 0.19017097 0.29857585 0.32905766 -0.17817657 0.03287762 -0.3223327 0.020991098 0.3544192 -0.034572482 -0.3303374 0.3144143 0.31259865 0.33104676 0.3246512 0.028774982 -0.34489012 -0.28526255 0.36142 -0.29694644 -0.36137113 -0.23246734 -0.23332027 0.0035806382 -0.35513926 0.09974226 -0.34925982 0.16322978 0.14996414 -0.24250859 0.34025696 0.07606416 -0.34780252 0.33154213 -0.32232755 -0.33683598 0.31069893 -0.3610709 0.31964147 -0.3306756 0.33344558 -0.28191808 -0.27122322 -0.016763985 0.27934515 0.3038528 -0.2899575
从 -0.12355613 -0.3191532 0.17986426 0.4338583 0.06852426 0.024290249 -0.21303722 -0.3422317 -0.069764785 -0.4423062 0.42703626 -0.4453572 -0.078569 -0.1476877 0.45512605 0.050392188 0.50212514 -0.13958715 0.21391453 0.39866447 -0.646079 0.037763998 0.29487127 -0.3744773 -0.2776553 0.29786408 -0.11569478 -0.016726527 0.21482013 -0.08164393 0.38908264 0.45252386 -0.17108366 -0.1298672 -0.013024017 0.38436204 0.023788463 -0.27398032 0.06906674 -0.35036692 -0.030142011 0.21130244 0.10975506 0.41284743 -0.34551856 -0.42622086 0.08059303 0.15024573 0.16889441 0.1357855 0.3798486 0.3024318 -0.3112012 -0.041877154 0.19267863 -0.44489923 -0.26854554 -0.021304185 -0.007571997 0.08359083 0.0767366 -0.3505472 0.2358261 0.09374858 0.3027403 -0.1879026 -0.0115253925 0.1732109 -0.25595188 0.4555483 0.45460013 -0.22609499 0.038845822 0.25194132 -0.17261976 -0.106311604 0.13626541 0.05561416 -0.36657414 0.017170802 -0.09996034 0.039482776 0.49329284 -0.36501002 0.08142984 -0.07871104 -0.057063773 -0.15826192 0.008218723 -0.4774033 0.36564812 -0.2863968 -0.15153424 -0.24940458 0.5692018 0.16696283 -0.57321423 -0.5453053 0.12880453 -0.035594463
文 0.3279367 -0.1901372 0.19632426 -0.29265854 -0.07840845 0.23868625 0.0059303395 0.16103688 0.29940882 -0.36421087 0.024170706 -0.32963508 0.16554037 -0.2295628 0.29412046 -0.31231672 0.3230897 0.22886693 0.1919457 0.10973949 0.35510993 0.26366556 -0.1605516 -0.29458007 0.21043605 0.04692577 0.2140699 0.015090372 0.2388603 0.26894614 0.011411858 -0.03584451 -0.19317682 0.32374334 -0.12230932 0.3615534 -0.041495018 0.27022544 0.0942144 -0.17965859 -0.37730476 0.29224086 0.37574852 0.12350593 0.22495015 -0.29836628 0.16257948 -0.04159845 0.08710802 -0.14008366 -0.062227108 0.14184487 -0.29402983 -0.12534218 0.29056093 -0.11018506 0.37324798 0.3265558 0.032043386 0.01062656 0.28391737 -0.2813844 -0.3365972 -0.35187817 -0.13197134 -0.09906071 0.005730147 0.28115442 0.08347712 0.28644443 0.31060773 -0.17362651 0.06565878 -0.40064955 0.04600986 -0.31652266 0.060155697 -0.07133765 0.01050486 -0.32407606 -0.17750582 0.2832082 0.36855346 -0.032228116 0.25549388 -0.32893845 0.25372475 0.0014761621 0.06740854 0.009131727 0.26461992 0.18069193 -0.3713401 0.38842604 0.21821366 -0.022964474 0.29462883 0.1463328 0.3637036 -0.19002156
政 -0.3360252 -0.2768606 -0.16501008 0.20781131 0.31310776 -0.30527282 0.015201892 0.35098886 0.29764676 -0.3263786 0.2902374 0.34362683 0.31697065 -0.06628585 -0.19883019 0.19602494 0.3032781 -0.18813294 -0.17789735 0.33369052 -0.32298604 -0.38203695 -0.31427556 0.3010628 -0.34529805 0.32859045 0.28749415 0.16871606 0.30239558 -0.34656107 -0.14826162 -0.32003033 -0.047109798 -0.28666398 -0.32056314 0.23173319 -0.17045254 -0.33228996 0.023220785 -0.23285165 -0.20764792 0.1340288 0.3383447 -0.17460103 -0.029839609 -0.26080674 -0.10828011 0.34625125 0.28696176 -0.1293686 0.35207558 0.32362878 0.26557127 -0.33369657 -0.3154328 -0.3488042 -0.31444606 0.10513108 -0.052704804 0.34576806 0.32874054 0.26345444 0.31588092 -0.1234724 0.032819007 -0.25491315 -0.3704823 0.31587476 0.04752495 0.28815186 0.24309967 0.34207076 -0.29504952 0.25021666 -0.32632658 -0.33023182 0.0828212 0.3758757 -0.35646352 -0.081043765 0.30385667 0.13140161 0.27909517 0.20869198 -0.31506735 -0.33429435 -0.32148725 -0.30856645 0.31706467 -0.24298768 -0.11012294 -0.35311672 0.049727283 0.39824924 0.22190139 -0.25217098 -0.29317975 -0.33798128 0.32948217 0.31040534
食 -0.27324015 0.12098091 -0.35177556 -0.024274211 0.0026523075 0.3442349 0.2929891 0.092663094 0.30972952 -0.32204267 0.186109 -0.20788772 0.067738235 0.18554392 0.033775635 0.29362512 0.09519722 0.19460392 0.113673516 -0.035784382 0.38383317 -0.020772392 -0.15371454 -0.3327435 0.23120122 0.1165718 -0.15744147 -0.3769802 -0.19066079 -0.006145536 -0.2705573 -0.33428967 0.16463453 -0.3394023 -0.27990922 -0.16105823 -0.14321475 0.06219305 0.13137408 0.20690995 -0.229052 0.1538366 0.39673373 0.18303208 0.34553814 -0.23151472 0.045072805 -0.06726565 0.28177235 0.09968789 0.051245905 0.04250145 0.10703318 -0.020803377 0.16955882 -0.106089786 -0.13157286 0.21960074 -0.073231444 0.21757217 -0.08657211 0.029799344 -0.30089504 -0.36177292 -0.34409332 -0.1835478 0.1918415 0.035568435 0.11840814 -0.03586381 0.33442053 -0.2967868 -0.3712565 -0.32272917 0.010485399 -0.20130591 -0.009016986 -0.13408583 0.08028407 0.3531311 -0.029352285 0.0062716054 -0.37011743 0.30614743 0.051515114 -0.34324428 0.09168869 -0.021444371 0.2675676 -0.045983616 -0.004284149 0.12079438 -0.20611562 0.3516389 0.034480553 0.24027292 0.08643255 -0.353845 0.11992471 0.1627838
善 -0.2832186 0.16605243 0.014305375 0.07976332 0.29367658 0.16689692 -0.3509646 0.15465795 0.24122833 -0.24678661 -0.040341303 0.39600086 0.22213225 0.08572084 -0.14381522 0.38780406 0.2946986 -0.20159698 -0.24588718 -0.14902894 -0.3188715 0.13277857 -0.2913736 0.31360468 -0.38479692 0.094987355 -0.0959794 0.35349748 0.1205292 -0.0036493433 -0.19406304 -0.18134625 -0.028763006 -0.07929299 -0.2854901 -0.19441898 -0.1683702 -0.17555821 0.18185665 -0.2876755 0.013832312 0.11199784 0.394491 -0.32695976 -0.014937308 -0.09702196 -0.20504117 0.18878588 -0.03643172 -0.028600605 -0.078453474 0.31218484 0.17477211 -0.13259135 -0.0076080784 -0.003979414 0.11788821 0.09298232 0.14713384 0.3972459 0.36327058 0.2848629 -0.08953347 -0.38924748 0.35544544 -0.099538326 0.3566299 0.38781637 -0.10807198 0.07267375 0.23086068 -0.13885416 0.13654004 -0.116175264 -0.2783106 -0.23923177 0.30701122 -0.09127628 -0.24578212 -0.015625855 0.030964375 -0.07250052 0.38707858 0.32674575 -0.08766352 0.30495718 -0.03434062 -0.03919757 0.046662264 -0.2467417 0.030442623 0.1727292 0.011433963 0.13539547 0.2830194 0.056802 -0.03543167 -0.37646008 0.10434151 0.018940868
后 0.08762084 0.23425902 -0.31677943 -0.4134271 -0.35289472 0.37288952 0.11629532 -0.3597391 -0.31450436 0.26618344 -0.1913647 -0.10588482 -0.111475416 -0.07952135 0.20546527 -0.096247174 0.076453015 0.13427202 0.05013844 -0.2448142 0.28675202 0.12819846 0.28222197 -0.29911464 0.17315125 0.18160829 0.08761823 -0.35520113 -0.3207807 0.10693756 0.32671258 0.33162618 0.17939991 0.34510496 -0.0901494 -0.24397098 0.056176845 -0.054434143 -0.09472795 -0.31130606 0.19042547 -0.05676771 0.35821208 0.25209665 -0.24631283 0.23472625 0.17849226 -0.2562208 0.012657282 -0.0654411 -0.13218023 -0.27783284 0.2699111 0.11699567 0.18780789 0.0072830827 -0.22276726 -0.27193427 -0.3139562 0.15615605 -0.16534853 0.18849732 -0.06680278 -0.34362996 0.24843046 -0.009504998 0.18016666 -0.17985713 0.090458244 -0.3447316 0.3644076 -0.085717835 0.3775316 -0.3586477 0.15262358 0.32422704 0.032950655 -0.08498595 -0.16858086 -0.27382436 -0.30332378 -0.012089205 -0.0718373 0.2954777 0.07394007 0.23695344 0.31034154 -0.26116517 0.03350469 -0.04553558 -0.22739106 -0.36575112 -0.3547018 -0.11787525 0.13749997 0.053720597 -0.2861186 -0.24190721 0.017540652 -0.0061955443
德 -0.08420495 -0.07067704 -0.36985222 -0.34229803 0.005599877 -0.13781132 0.17257114 0.12291354 -0.023745565 -0.31630653 -0.07728434 0.21699417 -0.0798639 0.069984555 0.22436531 -0.13008466 0.21139403 -0.10801247 -0.055703882 -0.358919 0.25210378 -0.16571704 -0.2654479 0.30521685 0.14661007 -0.027384648 0.2532845 0.20000142 -0.048924375 0.08024009 -0.036406484 -0.3263732 -0.11289281 -0.18598461 0.037564434 -0.1063695 -0.17028989 0.12571768 -0.18882026 -0.36564606 0.26661187 0.3735638 0.395261 -0.23705983 -0.4283465 -0.32318902 -0.16644251 0.14434153 0.10351697 0.049548745 -0.17534567 -0.011223471 0.12989923 0.10865059 0.14318001 0.10564045 -0.120409824 -0.14782509 0.14708944 -0.19594698 0.34831303 -0.07912749 -0.109326094 -0.44338772 -0.20037149 0.38841254 0.31563553 0.2748261 0.06366935 0.03267258 0.21095046 -0.13088022 -0.16144045 -0.4187178 -0.061849896 0.1498882 -0.23074597 -0.41797745 0.0144949695 -0.2767681 0.15338877 0.20061289 0.36700818 0.28313577 -0.15203673 -0.3483657 0.14797659 -0.1274285 0.07395334 -0.21010342 0.100904524 0.019079102 -0.08926566 0.38620746 0.3226797 0.0654486 0.026072636 0.19486776 -0.23749934 -0.05647199
求 0.280872 -0.059508257 0.022451902 -0.35277814 -0.33975458 -0.1756885 0.023574809 0.2108115 -0.11575996 0.00049551344 -0.10084908 0.17639518 0.07723579 -0.022892803 -0.04708485 -0.34043038 0.41397405 0.0016753965 0.14233221 -0.34916362 -0.0027282066 -0.35221243 0.43260837 -0.33549777 -0.18116963 0.033628527 -0.19618255 -0.35634112 -0.28850263 0.09295358 0.20330767 0.29051727 -0.029556932 0.31895995 0.07338372 -0.32413352 0.1447832 -0.13080809 -0.1183259 0.014912326 0.11187352 -0.038872883 -0.32409182 0.34311968 -0.24130207 -0.2438542 0.10820855 -0.16172928 -0.0245611 0.06979932 0.15623066 -0.15628804 -0.1515383 0.24777588 0.11789042 0.093437724 0.40326092 0.32237265 -0.27584752 0.2759334 -0.16717462 -0.084852844 -0.23183902 0.010623764 0.33738276 0.39041272 -0.086854815 -0.16210738 -0.10791312 -0.34677374 0.3910204 -0.28853065 0.40384525 -0.34207898 0.118527904 0.3529591 0.19438624 0.08898999 0.38064528 -0.10930444 -0.1658732 0.07898597 0.15748264 0.2657593 -0.17725046 0.29354352 0.04166739 -0.18419568 -0.018218787 0.052694906 0.020674424 -0.35277376 -0.33285615 0.31952515 0.22546022 -0.11318245 -0.44745755 0.11871901 0.3318794 0.11945147
对 -0.5571201 -0.5460576 0.06104316 -0.50154865 -0.41031945 0.20571613 -0.25047174 0.60277843 -0.42025232 -0.5224104 0.2370294 -0.5473259 0.3479401 0.6188737 0.4281861 -0.5604387 0.12278891 0.18346626 -0.29079095 -0.31989574 0.56950164 -0.41439658 -0.57228506 -0.55781966 0.53621846 -0.45220783 0.47610864 -0.4857552 -0.35401163 0.5871667 0.010726255 0.010724 -0.52165437 0.42736462 -0.57578534 -0.60596937 0.35432592 -0.56869715 0.376762 -0.40751886 0.07949447 0.20877989 0.4967288 0.23556732 0.55246806 -0.50556016 -0.29272094 0.34936056 -0.5109478 0.5555259 -0.14135468 -0.026992548 -0.5323795 -0.357277 0.33083388 -0.35302544 -0.006892856 0.48820207 0.2466089 0.54364866 0.39458594 -0.56120306 -0.30965954 -0.09758501 0.40494156 0.029037427 -0.23381466 0.5467577 -0.0620457 0.10622812 0.26414272 0.49023333 0.02787352 -0.5053944 -0.47199002 -0.22962968 -0.5032533 0.551872 0.39041057 0.48445278 0.25628284 -0.57945144 0.4569568 -0.3480459 -0.5770294 -0.5358551 -0.25922516 0.4961063 0.42756334 0.14794289 0.2885208 0.35837302 -0.48443705 -0.31288284 0.5193765 0.43762922 0.4451043 -0.011968038 -0.5614287 0.6262128
恶 0.15237345 0.04332608 -0.256471 0.017809931 -0.071915895 -0.21954541 -0.31204635 -0.3245214 -0.25372416 -0.04441766 0.0542474 -0.22335267 -0.13764665 -0.23925477 -0.15325451 0.10690019 -0.13986903 0.011582516 -0.032374304 -0.24659002 -0.24095637 -0.29907513 0.1560928 -0.21480054 0.18085013 -0.015984466 -0.30076292 -0.18521747 -0.31908366 0.03490147 -0.16787511 -0.20650108 0.11425311 0.08932642 0.22584128 0.28673163 -0.060586732 -0.24177785 0.02020309 0.2206908 -0.2329112 -0.0659852 -0.12035676 -0.14954716 -0.059970714 0.016936593 0.08455461 -0.006845448 0.023034822 0.24406028 -0.19361885 0.03163804 -0.07876909 0.03868328 0.21820374 -0.10129788 0.008349856 0.25192705 -0.12688833 0.3354476 0.22946317 0.08460432 0.045470715 -0.1264603 0.34995162 0.32203087 -0.16159508 -0.21139242 0.042762827 -0.14555694 0.23702261 -0.06955362 0.36100784 -0.36414453 0.10184873 0.27949888 0.12984847 -0.004282428 -0.3313002 -0.32697824 -0.24281819 0.3321445 -0.0034634308 0.11906176 0.023698196 0.35803556 -0.09037786 -0.08183263 0.1584366 0.030121226 0.19645628 -0.14362457 -0.04659895 0.34721014 -0.273251 -0.10881678 -0.24491797 0.0040877587 -0.02593029 -0.080553636
信 -0.025623303 0.007709077 0.09962235 0.018544782 0.115587056 0.13779199 -0.33743533 0.3843131 0.025360236 -0.14891079 0.09051139 0.02729386 0.22486517 0.09619441 -0.0604634 -0.29892707 -0.21643203 -0.34834987 0.083276995 -0.095281236 0.4333956 -0.050073408 -0.3593331 0.30806097 -0.26760134 -0.21833499 0.2104281 0.28705004 -0.29315174 -0.033702098 0.1445721 -0.15987597 0.061540984 0.24496679 -0.05338298 -0.012702973 0.017285429 -0.07824399 0.0070835715 -0.21225505 0.10280677 0.22800344 0.36920053 0.39773142 0.42161158 -0.2755511 0.16491584 0.076918036 0.22498685 -0.08311619 0.026176699 0.025910027 -0.07761498 -0.07263264 -0.043218423 0.14314151 0.04742619 -0.3742865 0.09482698 0.29060185 0.044088442 -0.31865963 -0.13380961 0.0027289393 0.1914356 -0.27780834 0.091981806 0.079157665 0.08983344 -0.04100294 0.36525777 0.29010543 -0.18899035 0.06152274 -0.09604951 -0.08042522 0.012003889 0.09737202 0.33793858 -0.14720541 0.061821036 -0.12179172 0.33525157 -0.3771938 0.25674635 -0.2586458 0.047699135 0.010046572 -0.062616065 0.12150495 0.008475734 -0.071149245 0.00204043 -0.29056612 0.35208136 0.17417356 0.08445466 -0.15106516 0.041925568 0.040817097
死 0.021914085 -0.3116396 -0.14752665 -0.24776314 0.18158555 0.050461855 0.25099373 -0.29123583 0.31089902 -0.3641266 0.06313655 -0.058299772 0.1344916 0.13254155 0.039687254 -0.32053345 -0.34761465 -0.028169803 0.3107578 -0.17442733 0.37473482 0.09156074 0.31098816 0.08927575 0.3207999 0.023400318 0.27748412 0.24857813 0.33904576 -0.23903202 0.30875888 -0.3908022 0.015855825 0.36287194 -0.23498172 0.25228527 0.23789275 0.35689437 0.036918942 0.36266464 0.13683572 -0.011862854 0.37935865 -7.5961e-07 0.3835191 -0.016872765 0.033608943 0.11557941 -0.2851988 -0.29194582 -0.053778864 0.12241726 -0.042073086 -0.17230211 0.10201353 0.34611517 -0.31409273 -0.35524705 0.16951185 0.3019815 0.36611316 -0.30740932 0.0970714 -0.1846483 0.32071704 0.36919162 -0.27137148 -0.01142793 -0.05337194 0.12649958 0.022955239 -0.044075668 -0.3440777 0.31257504 -0.2911806 -0.21338728 -0.091613725 -0.28699934 -0.2732757 0.004928817 0.18979703 0.015093302 -0.3416794 -0.36220703 0.08538065 -0.3336962 -0.12029558 -0.1112189 0.021727026 -0.30193022 0.27506468 0.32398635 -0.0409393 -0.25673494 -0.2323852 0.25166973 0.2689825 0.019898208 -0.07454235 -0.1648373
然 -0.17765734 0.14470293 0.19833814 -0.15554643 0.13421586 0.36831403 -0.37959877 -0.08572209 0.26421514 0.09985722 0.2218603 0.3193914 0.07339754 0.123571575 -0.051201675 -0.073321685 -0.32841322 0.11421156 0.15573575 0.3685145 0.20308863 0.3208865 -0.32721376 0.27698526 -0.23366733 -0.26432604 0.19928202 -0.05745395 0.11973693 0.02667137 0.18358463 0.28390485 -0.29663685 -0.21719627 -0.19950894 0.38252345 -0.100137964 0.00067484926 0.17481087 -0.09355214 -0.41159666 0.2721015 0.3436037 0.3221869 -0.32918656 0.10491109 -0.11374614 0.1290519 0.2745694 0.008892046 0.036762614 0.0868254 -0.03950662 -0.087597966 -0.017659565 0.1288226 -0.27301502 -0.335192 -0.21755621 0.2136437 -0.09589837 -0.2011898 0.11524314 0.03909063 -0.09248149 0.035357296 -0.044256236 -0.032402508 0.10954581 0.33147675 0.11820339 0.14803337 -0.29596996 0.30345708 0.010764072 -0.23327547 0.084341414 -0.16287525 -0.31142247 -0.43033028 0.13503978 0.2923303 -0.20579575 -0.38907504 0.36886117 -0.33891332 0.020880904 0.12148017 -0.16284785 -0.01857347 -0.12064528 -0.1736142 -0.041349377 0.058630913 -0.01332491 0.19354068 0.29150936 -0.013170795 0.28065795 0.058486458
《 0.3458753 -0.17770556 -0.13533193 -0.34550586 -0.06527239 -0.095720805 0.11696101 -0.29923323 0.3879521 0.2134216 -0.0259837 0.379871 0.36052614 0.13198178 -0.103208706 -0.32465246 -0.22228628 0.28951424 0.039314862 -0.10756794 0.24167292 0.14238119 0.27848214 0.28178442 0.20511146 -0.2196118 0.3603655 0.22863013 0.35725728 -0.071709216 0.06782881 -0.13991223 -0.11616743 0.30568808 -0.08749076 0.21328668 0.13830754 -0.11898229 -0.0073281797 0.336292 0.13260265 0.14816803 -0.20361537 -0.16744642 0.36478037 -0.32531562 -0.14576504 -0.05911474 -0.097559564 0.05006862 0.34964523 0.2062445 -0.18904345 -0.15152316 -0.11829409 -0.060659483 -0.15284424 -0.31422046 0.103282265 0.15620047 -0.16754675 -0.19824189 0.09595627 -0.3002238 0.30136475 0.382781 -0.18997017 -0.11512692 -0.1709786 0.1386473 0.37241715 -0.33526164 0.07244053 0.23883794 -0.22640783 0.3340824 0.060249265 0.08452129 -0.13544394 -0.017971119 0.25037792 0.083825774 -0.32896832 -0.11436945 0.28006312 -0.2510655 -0.35996684 -0.008613892 -0.02609025 -0.26524967 0.24713972 -0.23837131 0.0223139 0.12851644 -0.284834 0.10013951 0.07965691 0.19708088 -0.007051291 -0.34832737
