1352 50
， 0.5465582 0.051265117 0.08473003 0.26607373 -0.003917301 -0.04225238 -0.47693747 -0.12013205 0.43302295 0.09249059 -0.1436272 -0.122133575 0.7043184 -0.33055818 0.16709036 -0.1300665 -0.62880504 0.27152213 -0.49229807 -0.24038596 -0.59830934 0.70881784 -0.050674744 0.650034 0.6449185 0.140761 -0.49474874 0.5053031 0.5020293 0.32502782 0.2649502 0.33794335 0.12242546 0.4975122 -0.7565091 -0.30035675 0.31330022 0.113929264 0.555122 -0.794535 -0.24796008 0.326288 -0.34305564 0.39480233 -0.43624654 0.06170835 0.16581666 -0.14973253 0.16662121 0.5363727
子 0.8004987 0.66200584 0.09868754 0.52470106 0.32175112 0.26911098 -0.33584744 0.39341795 -0.59973186 0.17539133 -0.34060037 -0.0030926683 -0.703248 -0.3250574 0.08306946 -0.6388743 -0.2214161 0.088289835 -0.63974565 -0.22712073 -0.5985454 0.40460715 -0.10721895 -0.7984125 -0.056057207 -0.02706958 -0.20746507 -0.6066441 -0.76704836 0.6623054 0.42848855 0.650318 0.37991482 0.5123952 -0.8476289 0.80606425 -0.37556604 -0.35726163 0.72954226 -0.63076407 -0.56602705 0.31006825 -0.42638725 -0.8573904 -0.4545551 0.322219 0.49048477 -0.05621603 0.27553263 0.68287754
。 0.8155339 -0.6377694 0.0023874273 0.36622208 0.09812038 -0.35350153 -0.24794552 0.3147145 -0.30646425 -0.4018479 -0.15413114 -0.16254549 0.5235323 -0.3992142 -0.044358898 -0.17839138 -0.43241066 0.16931726 -0.2233893 -0.17998599 -0.60077053 0.13805597 0.049308565 0.024591394 -0.25403318 0.33948323 0.83261573 0.46602324 -1.0265254 0.3530194 -0.1610905 0.1542535 0.22987986 0.90047634 -0.576056 0.21529192 0.13352433 0.043748893 0.8355484 -0.7651443 -0.21387532 -0.044960134 -0.25628343 0.8735432 0.07072301 -0.14603966 0.4083879 -0.4089003 0.2701544 0.16751374
： 0.1863454 0.12885183 -0.14850082 0.21883807 -0.12308104 0.22319293 0.12303069 0.059449304 -0.17226397 -0.06562138 -0.17444812 0.026200835 -0.64979357 0.005557045 -0.46583062 0.099585205 0.08716599 0.16075727 -0.3196583 -0.038291536 -0.4902524 -0.21021718 0.217647 -0.6729077 -0.2940555 0.142828 0.50009495 -0.47164264 -0.16976997 0.32298952 0.005614623 0.19323361 0.03273239 0.46107212 0.32103965 -0.17086512 -0.029610144 -0.13979048 0.25012904 -0.43207163 0.3553782 -0.010761694 0.2052353 -0.24934351 -0.30367655 0.1584432 0.34323576 -0.06742159 -0.11579915 0.25071663
曰 0.15874937 -0.30029422 0.2797429 -0.021719754 0.010971693 0.08088637 -0.048231184 0.018379558 0.013958075 -0.058777247 -0.20410272 0.027538512 -0.3704692 -0.12446223 -0.10536817 0.008356046 0.04828333 0.021622071 0.03659656 0.016153052 -0.18212165 -0.10807113 -0.039145768 -0.1447868 0.3898162 -0.073138736 0.20588553 0.08564356 -0.36817223 0.1581475 -0.10282741 -0.1286993 -0.04083754 0.21850988 -0.511533 0.14685628 0.03566819 0.056197606 0.020012815 -0.4746599 -0.077336274 0.085354224 -0.045095097 0.04836937 0.13238046 -0.15450363 -0.00459233 0.009052941 0.047275577 -0.16262063
之 0.33299783 -0.5088897 0.11832564 -0.06352326 -0.06959749 0.0019414495 -0.16190952 0.11638915 0.21857813 0.051532254 -0.03079954 -0.046598777 0.545137 -0.18139808 0.12924162 -0.12608658 -0.116295755 0.21939132 -0.16035885 0.009466695 -0.21419163 0.39053547 0.04205554 0.31896403 0.26990443 -0.14063512 0.08480183 -0.47752342 0.25968397 0.023108676 0.1315227 0.17447996 0.109125525 0.41133636 -0.014098484 0.44412804 -0.012399514 0.33419356 -0.053548496 -0.51539826 0.119471855 0.11490099 0.03787405 0.48181406 0.26688346 0.11544561 -0.09868762 0.18570033 0.14267884 0.048017047
不 0.47590968 -0.32594317 0.16094774 -0.11760554 0.067981176 -0.016966831 -0.18987712 -0.1086661 -0.32219836 0.11752162 -0.2242213 -0.16466764 -0.48722696 0.08613023 -0.023565393 -0.06017847 0.10957265 0.13703881 -0.23497166 0.19852366 -0.501388 0.08263004 -0.1050131 0.22496751 0.22304662 -0.003691649 0.5158997 -0.37999293 0.23852341 0.07829931 -0.048915114 -0.29974917 0.16639048 -0.12573095 0.15790395 0.41641077 -0.09298655 0.07636171 0.17246757 -0.17339566 -0.08762216 -0.0029015923 -0.09911574 0.37171495 -0.35229906 0.053869657 0.20170662 0.16785307 -0.087013505 -0.010757682
也 -0.35335365 -0.5332135 0.072439484 0.09997991 0.18869728 0.013483854 0.19371583 0.1494664 -0.1946825 0.08656987 0.058400124 0.10867073 0.48079214 0.26631293 0.13473922 0.24665907 -0.110122025 0.0028871493 -0.030526899 -0.059481412 0.1946799 0.036046606 0.123649195 0.12932692 -0.38090807 0.10946184 0.333945 -0.21401452 -0.19604352 -0.1188256 -0.18557663 -0.26236358 -0.021255229 0.034643736 -0.42216298 -0.058087822 -0.10136007 0.15007241 -0.042292364 0.18786158 -0.13707319 -0.08283481 0.004042602 0.51208043 0.23855203 -0.15343606 0.145968 -0.11702848 -0.05284535 -0.35816175
而 -0.5038212 -0.3773383 0.23835339 0.017655924 0.002696414 -0.003056466 -0.029181927 -0.1350543 0.20921637 -0.06765433 0.052498117 0.03315443 0.5086836 0.08093978 0.02925668 -0.27266565 -0.27548477 0.041233078 -0.08015215 0.17473124 0.12131547 -0.25926492 0.11707584 0.37365147 0.3228525 0.14568779 0.28343344 0.18451647 0.5788694 -0.19586273 -0.020611545 -0.16012679 0.054001182 0.2845613 -0.08634422 -0.075763635 -0.12140132 0.14263788 -0.0460395 -0.2609923 -0.080701254 -0.13410927 -0.057259597 0.45488963 -0.02150411 -0.14755376 -0.040871825 0.15419975 0.11051033 -0.3814106
？ -0.19981799 -0.15955977 0.270376 -0.1334775 -0.07972153 0.008391447 0.018928478 -0.12541492 0.16600455 0.055986322 -0.06075402 -0.06007803 0.42895967 0.13380715 -0.03898024 -0.056723583 -0.17744224 0.15658979 -0.10615506 -0.17129077 0.04893855 -0.21077241 -0.045768112 0.19127297 0.37480643 -0.0654027 -0.36730215 0.4256956 -0.53329855 -0.08226136 -0.14877227 -0.13695891 0.09950278 0.37124375 -0.40022287 0.11626276 0.05962926 0.15010373 -0.39997107 -0.39690295 0.045747567 -0.14140706 -0.083271064 0.026385214 0.07676837 -0.23237829 -0.16893128 0.21948376 -0.057024006 -0.23836437
其 0.10234897 -0.43330678 -0.07417634 -0.36837375 -0.08770527 -0.10082268 -0.12269457 -0.11436281 0.2246807 0.10477824 0.1985517 -0.11276449 0.08438875 0.14732143 0.03842316 0.03479196 -0.22690964 -0.08505074 0.03410312 0.13825738 0.0013751604 -0.19178182 0.010909608 0.46388745 0.32786056 -0.03486476 -0.43152636 -0.2642537 0.3444914 -0.028483152 0.16464587 0.04651792 -0.12214029 -0.36504984 0.4729766 -0.023703817 0.12187508 0.15754303 -0.016464457 -0.15317233 0.032967806 0.07497855 -0.12415899 0.42060983 0.11183933 -0.14818811 -0.15026887 0.24991032 0.08446471 -0.225677
人 -0.60939276 -0.38436303 -0.012752565 -0.4128678 -0.12409574 0.28191108 0.0030007637 0.08791285 0.6105587 -0.06828662 0.30599058 0.20219146 0.5459923 0.44853133 -0.22880813 0.20882726 -0.36759797 -0.41921586 -0.072617166 0.251747 -0.25688758 -0.18190184 -0.054091748 0.1325933 0.52621984 -0.17128877 0.2874116 0.013989729 0.210012 -0.06652654 0.0497258 -0.19588424 -0.2905795 -0.7916638 0.5197002 -0.5741264 -0.07874665 0.26634586 -0.65748274 -0.050245717 -0.6135278 0.32657433 -0.2376241 0.71311617 0.41540965 -0.5184207 0.083539695 0.16251346 0.053830236 -0.6440098
者 0.34067476 0.1165815 0.12622754 -0.22318129 0.118118964 -0.042775486 0.038175743 -0.11859953 0.34394264 0.18626693 -0.069210745 -0.12032583 0.46548945 0.1471734 0.1585755 -0.22219096 -0.26757774 0.1724699 0.043641288 -0.0240573 -0.059038267 -0.017423019 0.06985526 -0.103998624 0.13082443 0.10747541 0.09585575 0.45182395 0.5448383 -3.286195e-05 -0.11999228 -0.072668746 0.007632915 0.23916839 0.41173384 -0.30748764 -0.123221286 0.16264054 0.15348046 0.23732266 -0.16235991 -0.23639816 -0.10653862 0.4425847 -0.085972354 -0.092856355 -0.15462697 0.1599588 0.07041195 -0.38348237
以 0.23428634 -0.49637604 0.30153316 -0.07806943 0.070480525 0.017704768 -0.022596145 0.06578404 0.3387802 0.13815203 -0.12834719 0.07860349 -0.06170159 0.27830988 0.114149086 -0.24168599 -0.21188281 -0.108470924 0.09077321 -0.06753794 0.056757152 -0.001367353 -0.004692245 -0.2960245 0.1709917 -0.021046435 -0.42367762 0.399562 0.033471577 0.036383867 -0.07900498 -0.01605441 0.011737109 -0.27824682 -0.42842218 0.34023213 -0.18506742 0.10494037 0.18688768 0.03338115 -0.14893247 -0.1465729 -0.1078694 -0.4537287 -0.32103226 0.023118345 -0.28013337 0.18108132 0.030091587 -0.14148405
有 0.7017647 0.6637879 0.023509257 -0.42341873 0.2191561 -0.19415782 0.29374173 -0.098869525 0.33443594 -0.106234424 0.39098907 0.09466691 0.89895296 0.37203974 0.35289174 0.05063396 -0.21698228 -0.021149447 0.30438635 -0.11392259 0.22818586 -0.29921985 0.3631897 0.1426211 0.19984713 0.057637632 -0.14073728 0.80429906 0.37493703 0.07050054 -0.16229661 -0.38164487 -0.11609521 0.27764344 -0.566159 -0.23094906 -0.06925535 0.123677224 0.3715413 -0.5447981 -0.4598107 -0.13567115 -0.37776926 -0.19606982 -0.27757925 0.056331202 -0.24877936 0.15723959 0.20127626 -0.47360682
于 0.4026137 -0.14078672 -0.06625888 -0.3066711 0.03957509 -0.21242186 -0.14215975 -0.043575577 0.2183461 0.227079 -0.026454436 0.18158433 -0.19251333 -0.035622496 0.20078835 0.4358614 0.05330071 -0.08890176 0.19432224 0.0059149466 0.30328244 0.1425986 0.115064695 -0.3429549 -0.020887485 -0.0053409887 -0.4660658 0.07332906 0.4419957 0.14023152 0.123938605 -0.16655086 -0.24417306 -0.5000493 -0.4078939 -0.46723133 -0.14866866 0.10115312 0.17479268 -0.4496988 -0.1835603 -0.042600967 -0.2836987 -0.41843212 0.26985285 0.06343647 -0.14399011 0.058448695 0.07731654 -0.051755507
矣 0.44504 0.44472188 -0.26741558 -0.2349147 0.16104735 -0.12762156 0.17748371 -0.071907654 -0.06258031 0.18056296 -0.11564183 0.14225867 0.37129927 0.15947661 0.028737746 0.20367047 0.13031986 -0.10720322 0.18897316 -0.10791241 -0.079048656 0.04303992 0.060516447 -0.093306795 -0.31586465 -0.07547573 0.13247263 0.20453502 0.18287888 -0.049437914 -0.16140892 -0.17127392 -0.23968899 0.23870812 -0.43900418 0.36419824 0.08833181 -0.044678256 0.24081008 -0.17197138 0.14551198 -0.048988704 -0.16376753 0.20982471 0.25078714 0.13303171 -0.111060664 0.09554835 -0.10891246 -0.10028444
为 0.4256737 0.35905907 0.14893247 -0.14334194 0.016642231 0.08400776 0.07187753 0.0025185172 0.2934828 0.25872606 0.025197154 0.20408562 -0.1114937 0.12967646 0.22853677 0.3414464 0.12919891 -0.1526545 0.19635768 -0.03963354 0.2837987 0.16305754 0.06427777 -0.4681747 -0.23493308 -0.20103846 -0.26716524 -0.370052 -0.19945158 -0.093545035 0.020693421 -0.13259155 -0.22803144 -0.0033580032 -0.12617539 -0.4956985 -0.12281697 -0.05013818 -0.5196233 -0.035810012 0.14776559 0.04081114 0.09040945 -0.43487164 -0.074427485 0.031457085 -0.18216746 0.17059714 -0.10383273 -0.061254323
君 0.4899053 -0.48358944 0.1494224 -0.07843999 0.20487492 -0.016314423 0.086271524 0.025799263 -0.07253555 0.08512936 -0.09704711 0.19401556 -0.113398395 0.019792892 0.22982515 0.31832886 0.12422129 0.015178942 0.31422496 -0.0036247289 0.2667733 0.30715564 0.06386001 -0.35057065 -0.1055114 0.0049449755 0.11752583 0.47471434 0.45301375 -0.19726898 -0.30344152 -0.017259637 -0.301298 -0.42691833 -0.13832444 -0.49165094 0.017461916 0.16940986 -0.1616945 -0.47714934 -0.06090136 0.16985178 -0.029720446 -0.49550176 0.010641819 0.13231868 -0.09092691 0.026099421 -0.047062464 -0.19821554
乎 0.0010451858 0.082809 0.17907059 -0.11884092 0.008238226 -0.31554303 -0.121722296 -0.14040767 -0.25048986 0.39438957 0.13249113 0.124889776 -0.5416442 -0.23199515 -0.015393656 0.5711781 0.18276979 -0.018489832 -0.3066624 -0.08918432 -0.090489686 0.18303125 -0.11907476 -0.60800916 -0.013536068 0.13033123 -0.37702334 0.7204945 0.22251219 0.014181214 0.24485603 -0.18890825 -0.47437626 -0.91675043 0.10228519 -0.800807 0.15555248 -0.27706188 0.07816709 -0.02564625 0.25808114 0.22550721 0.23993178 -0.9400172 -0.30921727 0.06936882 0.043081887 0.050588667 -0.38489956 -0.08957533
可 0.1975535 -0.48925543 -0.16544305 0.19867764 -0.042532716 -0.022663206 0.0128167 0.04581085 0.023451377 0.13378856 0.18035132 0.088251606 0.5295723 0.019797707 0.24176666 0.154612 0.0642418 -0.042886756 0.08080613 0.055955563 0.2576381 0.18764132 -0.0001615414 0.028278809 -0.22990555 -0.0597099 -0.25278407 0.504436 0.2374554 -0.09503748 -0.10936622 -0.017394092 -0.16689938 -0.29807332 0.3873989 -0.27207953 0.044563204 -0.0028823365 -0.0031854287 0.4689374 0.16793032 0.07982312 0.064900704 -0.4122751 0.18401997 -0.057892222 0.016688218 0.06934297 -0.21956448 -0.27102858
如 -0.31753707 0.06485658 0.1066663 0.16048867 -0.26162258 -0.2651714 -0.06323982 0.25254548 0.24861053 -0.023684664 0.103376254 0.041953154 -0.095018655 -0.25584066 0.25860873 0.49298477 -0.20243867 -0.20976605 0.01827455 -0.17420983 0.4345715 -0.2196571 -0.19283824 -0.050307974 -0.28909212 -0.20811273 -0.21927229 0.41772476 -0.44889846 -0.02179455 -0.23293313 -0.39008 -0.42635775 -0.3445414 0.37568703 -0.50058484 -0.13460721 -0.16791102 -0.21628956 0.23213294 0.042189136 0.26479104 0.22235014 0.13702235 0.1530418 -0.17136833 0.2110922 -0.37806323 -0.12184531 -0.17247084
与 -0.018990058 -0.6665344 0.27868983 0.3196876 0.20620543 0.17164996 0.25578234 0.14070953 0.28352386 -0.32514924 -0.063816845 -0.27443883 0.33734873 0.14193076 0.6233714 0.30695006 -0.47130227 -0.27826858 0.29508266 0.2511617 0.26044527 0.08319289 -0.13792704 -0.513847 -0.11136737 0.26442328 0.5986927 0.59040374 0.051398303 -0.67300904 -0.6363645 -0.23170288 -0.8318205 -0.53084046 -0.08157278 -0.73713756 0.26207227 0.48408934 -0.4242552 0.6677636 -0.46995148 0.363964 0.12323899 -0.016120687 0.004355668 -0.24292882 -0.088234365 -0.1319276 -0.16124175 -0.45952022
； 0.27094638 -0.18916623 -0.14987198 0.35043854 -0.11626881 -0.10708701 -0.01681743 0.21283755 -0.2764265 0.041477416 0.085185304 0.18948548 0.51361316 -0.12703107 0.3063729 -0.31086308 -0.14191295 -0.21418951 -0.0084084645 0.35260224 0.31345472 -0.10645709 0.10359461 -0.17956956 0.2767787 0.04440925 -0.19940674 0.4228291 -0.44990143 -0.18068883 -0.11504602 0.09673571 -0.39618954 -0.43097088 0.38767976 0.19824518 0.182272 0.021478556 -0.4336132 0.4566626 -0.056302365 0.050985184 0.174007 0.43325686 -0.16478121 -0.28110614 0.17998491 0.012663474 -0.03410767 -0.02783455
言 -0.3253694 0.18310949 -0.24372543 0.05101966 -0.27916354 -0.25305134 0.15228485 -0.044854876 0.35008883 0.38519257 -0.07695671 0.09113506 -0.42055476 -0.10045224 0.13774484 -0.46904132 -0.267369 -0.30562386 0.03148938 0.42960438 0.15827106 -0.4372116 -0.09424492 0.36342436 -0.07390886 -0.077543564 0.1706227 0.46517822 -0.4304176 -0.043807175 0.02923293 -0.028506456 0.24547587 -0.37182546 0.23791012 -0.33523196 -0.1763785 -0.17165571 0.050904196 0.40440097 -0.021387963 -0.127053 0.10469719 0.31314662 0.09077255 -0.30996898 -0.3288645 -0.076237895 0.12038875 -0.19305895
无 -0.2104158 0.36223793 -0.0021585508 0.0942561 -0.13924769 -0.08373727 0.10813963 -0.036113307 0.20070644 0.20767117 0.14678968 0.086700626 -0.09037137 0.05264805 -0.049398296 -0.15266684 -0.041911237 0.048668586 0.11455374 0.19736145 0.1470741 0.27364486 -0.14232068 0.19437785 0.12789206 -0.0822206 0.25550595 0.49103525 0.32460332 0.19864975 0.25914308 -0.14565738 -0.17239921 0.1378626 0.32346275 -0.5064179 0.08330891 -0.15854779 -0.0027196493 0.5631449 0.19428669 0.10820778 0.178168 0.36805514 0.22076698 -0.14432777 -0.10138393 -0.10416249 0.18162951 -0.20773219
则 -0.28755003 -0.29686815 -0.15330184 -0.022161849 -0.16160758 -0.08628299 -0.014108401 -0.005913559 0.13979325 0.15173109 0.33454445 0.07917397 0.15151653 0.029140849 0.082658365 -0.2528152 -0.27393392 -0.09044646 0.10568916 0.2033042 0.42154598 -0.23383135 0.071079 -0.14127861 0.18477207 -0.122632675 -0.35015392 0.5379197 -0.57955605 -0.038516186 -0.08641395 -0.012253809 -0.050170362 0.3565925 -0.005156327 -0.52389956 -0.07189693 -0.059681416 -0.42463508 0.24717344 0.067606494 -0.04599574 0.105141394 0.47983336 0.09268257 -0.05482331 -0.21533862 0.064721875 -0.0082344785 -0.17691055
！ -0.39880237 -0.497113 -0.120132685 0.26763096 -0.16113476 0.16218996 0.014138992 -0.05210085 -0.06718118 -0.010139655 0.2649322 0.35475564 -0.34914908 0.19665632 0.05586579 -0.29607987 0.0065462952 -0.14646763 0.0851926 0.20398267 0.32583275 0.2535398 -0.116839744 -0.45890966 0.12446848 -0.18344767 -0.5606533 0.7860664 0.71487176 -0.21306233 -0.13110657 -0.17315713 -0.09398755 -0.11428263 0.28142196 -0.27339295 -0.35439283 0.24267511 -0.6912849 0.20440322 -0.18792112 -0.19501053 0.20802382 0.124341875 0.012679337 -0.14937171 -0.27359137 0.1354852 -0.116066664 -0.46567607
问 0.42510685 0.5366937 -0.15685426 0.17311564 -0.18486637 -0.16422354 0.040104043 0.22609365 0.06240917 0.082208544 0.20981202 0.109288625 -0.433875 -0.076440334 -0.13481279 -0.3110704 0.2345242 -0.24462599 0.21396568 0.2528336 0.013686309 0.042853877 0.223433 0.05640178 -0.09625535 -0.33071017 0.44584516 -0.46029887 -0.32157457 -0.0527614 0.26952803 -0.025844535 -0.039864853 0.24369814 0.51348 -0.29779464 -0.28174582 -0.13059154 -0.05167679 0.03075255 0.1652378 -0.12115309 -0.05753308 0.49303454 -0.47573164 -0.11325535 -0.1511018 -0.005358586 0.12430338 -0.1653747
知 0.10099486 0.5394084 -0.13519752 0.10799372 -0.14499226 -0.08714058 0.1797017 0.14237443 -0.19436741 0.17797679 -0.069218524 0.064769305 -0.43561977 0.127757 0.20697558 0.08912988 0.22668657 -0.112143114 0.27608475 0.16818498 -0.013507448 -0.038351655 0.053254876 0.41354558 0.07000649 -0.15603301 -0.051917728 0.018980859 -0.117168814 -0.1110048 -0.10240386 -0.20309992 -0.12855689 0.25751418 0.5123138 -0.27929413 -0.17026368 0.072070576 -0.47302216 -0.4738544 0.20192021 0.006535192 0.04794438 0.20975934 0.049776375 -0.16441809 -0.19949557 -0.090896994 0.10368985 -0.35947987
何 -0.5358825 0.7575982 0.29967988 0.50189793 -0.4351139 -0.1305038 0.54372275 0.26037553 -0.3673431 -0.0021209507 0.24748378 0.44705823 -0.5159742 0.7761303 0.1647946 -0.7173498 0.6126559 0.31195262 0.1418824 0.5242675 0.67375535 -0.3805939 -0.012843132 0.3537469 0.3527883 0.09907095 -0.28137946 0.7675779 -0.42607054 -0.34049058 -0.5109262 0.95648056 0.024040908 0.74061966 -0.63920695 -0.31401968 -0.71959835 -0.5497749 -0.3650715 0.42410916 -0.3479202 -0.7040655 -0.51004755 0.5910224 -0.73870575 0.75991184 -0.8043759 0.22436233 0.6051612 0.4809795
吾 -0.16573216 0.13390389 -0.021422446 0.20079605 -0.06064997 -0.18808751 0.07173503 0.05666668 -0.06561423 -0.010865693 0.29203048 0.03521425 -0.41198003 0.21472713 -0.120481804 -0.15223134 -0.33939955 -0.06626925 0.20858221 0.12186627 0.3002418 -0.16156913 -0.034395657 0.53557676 -0.10555224 -0.14877489 0.10262046 0.103696465 -0.37426484 0.069020316 -0.11464381 0.013750551 -0.10054539 0.15642405 0.2704738 0.053872637 0.015983924 -0.21347308 -0.37949663 0.3108475 -0.06746727 0.005343008 0.007483163 0.47806618 -0.0062274695 0.036780644 -0.24038115 0.00888259 0.13893728 -0.0063794143
仁 -0.0024522566 0.48757893 -0.27267882 0.26780665 0.055958986 0.10347242 0.099123456 -0.091685265 0.025025696 0.045573425 -0.012753071 0.0401488 0.33481416 0.2271579 0.24932213 -0.27234212 -0.068256736 -0.1847273 0.33743477 0.13364781 0.17908965 0.1492374 0.18854395 0.33504263 0.010711323 -0.19985694 -0.03179129 -0.19408534 -0.4567896 -0.061273195 -0.029172387 0.12518224 -0.14130545 0.09378597 -0.31109506 0.44324183 -0.05669441 -0.02509429 -0.12426706 -0.12288214 0.051984683 -0.020330481 -0.06407815 0.22042604 -0.040284086 -0.12795073 -0.15017034 0.11464524 0.0015849511 -0.039971866
夫 0.5268937 -0.15952879 -0.25227225 -0.028810982 0.22443952 -0.07567508 -0.059254926 -0.09920027 -0.27324486 -0.076288834 -0.15054387 -0.14550306 -0.13873711 0.02989678 0.19053094 -0.12771547 0.20385918 -0.09411223 0.35244006 0.017566646 -0.08850319 0.3263187 0.01272263 -0.3044207 -0.16995402 -0.06668191 0.12501617 -0.42789364 -0.17089114 -0.29073903 -0.09553345 0.12695484 -0.11244327 0.52946144 0.089365825 0.24387044 0.029633695 -0.15738112 -0.314812 -0.28234753 -0.045660432 -0.037417877 0.012929737 -0.49742272 -0.16193232 -0.14156263 0.16953504 0.08264181 -0.17060181 0.19267975
、 0.43765295 0.4573385 -0.15163131 0.14800572 0.4270379 -0.29368335 0.31178856 -0.018133434 -0.11552936 0.35116962 0.42474633 -0.20854571 0.015920987 0.062951535 -0.2982341 -0.4850951 0.39497834 -0.0027100788 0.40699616 0.014945639 0.15449782 0.47594127 0.46359834 0.43114626 -0.5000559 -0.33734232 -0.48775053 -0.26607653 -0.43654484 -0.3756774 -0.284781 0.32400355 -0.2845076 0.436946 0.4683685 -0.08492373 -0.32127228 -0.2665416 0.3877488 -0.15801968 -0.022494253 -0.4235212 0.026817132 -0.4037492 -0.47786593 -0.08761225 -0.39046258 0.36293337 0.20442766 0.30819654
道 0.20398162 0.4562766 0.1245997 0.04136111 0.30333605 0.29926482 -0.004239321 -0.10914267 0.05006868 0.55715543 -0.08434153 0.12017284 -0.21953171 0.023438044 -0.46975306 -0.26020378 0.24978055 -0.112016045 0.70838284 0.1255578 0.12201098 0.5334898 -0.17923827 -0.09098388 -0.11411673 -0.37357554 -0.6924759 -0.86851543 -0.41938296 -0.15889375 0.3061879 0.37141114 -0.048259877 0.1610953 0.034145746 -0.103751875 -0.26221466 -0.37461948 0.76804054 -0.020299315 -0.2866541 0.13578655 -0.068489425 -0.22090425 -0.012943176 0.044755008 -0.62277323 0.40790287 -0.06393525 0.27124915
焉 0.33122143 0.49737433 -0.19489272 0.12966298 -0.022345219 0.05715096 0.1530848 0.057192627 0.048492298 0.06313079 0.05234148 0.0033916829 -0.019033367 0.15386727 0.09924308 -0.2948661 0.2591254 -0.14565642 0.32995817 0.16609533 0.25762737 0.1216124 0.031451173 0.5303193 -0.21957305 -0.20274876 -0.20005274 -0.46543613 0.22113296 -0.05079394 -5.682488e-05 -0.16284071 -0.04255531 -0.5390133 0.35896716 -0.26582897 -0.058713734 -0.064089924 0.2258736 -0.042324673 -0.13119839 -0.039288007 -0.081314534 -0.43026814 0.13882403 -0.057272296 -0.12713932 -0.008773831 -0.022904383 0.0607529
行 0.47097003 0.46819696 -0.2884246 -0.3032732 -0.07066431 -0.2902611 0.07648521 -0.03995227 0.39921963 0.41398206 -0.086710185 0.19780245 0.36298922 -0.110734314 -0.14242159 -0.29545635 0.13534021 -0.030694606 0.46236372 0.030198874 0.2789409 0.20942609 0.17951457 0.47707087 0.04818599 -0.17128055 -0.41623825 -0.14503051 0.18058077 0.14731069 -0.38066348 -0.24548686 -0.3867759 -0.45723164 0.3432386 0.14175197 -0.14655466 -0.017523395 0.47268838 -0.29456484 0.09388051 -0.27556452 0.01804925 0.4370428 0.5325406 -0.10658533 0.07845634 0.3201339 0.27036333 0.4454448
谓 0.3879844 0.66500574 0.16963685 0.2004404 0.25334695 -0.6052369 0.34239334 0.19965465 -0.037213963 0.4874949 -0.084479906 0.058785476 0.05207065 -0.24169411 -0.1139192 -0.13430397 0.4687 0.0962474 0.5224665 -0.134457 0.21949732 0.41310212 -0.049296282 0.6967281 -0.23071392 -0.087025546 -0.5863044 -0.32068217 -0.2499785 -0.023097316 -0.10474872 -0.25894004 -0.31043366 0.82669413 -0.4945737 0.40349048 -0.044014238 -0.33546257 0.8095046 -0.7115053 -0.1649985 -0.19115761 -0.30842805 -0.13763297 0.79993486 -0.014959671 0.045825157 -0.33928764 0.29280713 0.5293946
必 -0.29836693 0.5205641 -0.058535375 0.045546908 0.04124944 0.1357041 0.19866689 0.033292316 0.04112672 0.2543509 0.138976 0.16503337 -0.21502878 0.04593196 -0.2410694 0.13128649 0.0058638416 -0.047322236 0.25991568 -0.07664208 0.048966978 0.024994913 0.091243744 0.5005906 -0.09125024 -0.12066071 -0.16461892 -0.38334423 -0.11512493 -0.21750441 0.021981487 -0.068481535 -0.056853548 -0.48558676 0.054913547 0.46459612 -0.10146854 -0.0047877887 0.4207053 0.50265086 0.03376462 -0.018431084 0.19923435 -0.124762945 0.24336687 -0.16984527 -0.10641483 0.12962785 0.027437845 0.06328736
礼 -0.19708449 0.5180703 -0.31903774 -0.14102897 0.08591398 0.13221318 0.26393732 0.1526854 0.24302217 -0.20269595 0.22507918 -0.09319322 0.044884607 0.20793736 -0.11603198 0.28098324 -0.071248926 -0.046750806 0.2496988 0.047413718 0.009811071 -0.20792508 0.02491548 0.50020665 0.11413105 -0.21625914 -0.45927075 -0.39179578 0.41645992 0.24307524 -0.02235084 -0.16898455 0.089218706 -0.08718938 0.53317773 -0.15726899 0.14965987 -0.032193627 0.51952285 0.48818654 0.12765369 0.11307729 -0.018931828 0.11020759 0.4345007 -0.1615061 -0.15749264 0.07668152 0.12788223 -0.24887013
孔 0.035718445 0.51013005 1.4101621e-05 -0.014936111 0.01723099 -0.03215147 0.28660923 -0.064608365 0.12436621 0.04998302 -0.014316191 -0.029232882 -0.3940112 0.09769823 -0.056138974 0.3212917 0.080847345 0.05702811 0.20306653 -0.06608552 0.13210967 -0.20475084 0.27513462 0.5175045 -0.13714181 -0.15612924 0.109379075 -0.48118028 0.5383646 -0.0034968911 -0.038213894 -0.23483501 0.008867042 0.3546597 0.04673282 0.4216059 0.05434726 -0.036857307 0.50172925 -0.5051872 0.0051998547 -0.062332567 0.13487127 -0.41238588 0.36031875 0.038562316 -0.0019937502 0.11775963 0.057415072 -0.021445565
斯 0.09061026 0.59813374 -0.21186484 -0.1592324 0.06302846 -0.010590184 0.09253746 -0.04204964 -0.002309802 0.023223706 -0.050344177 -0.07188767 -0.27106407 -0.13518219 -0.05695218 0.49591306 -0.030278483 0.03239811 0.07948356 0.024173392 0.075869925 -0.10314374 -0.044694554 0.5592819 -0.07088586 -0.17025776 0.22411034 -0.38293585 -0.23099361 0.014467034 -0.021669995 0.0939434 0.15601514 0.5578554 -0.19541848 0.45913452 0.083733656 -0.121544845 -0.07951547 -0.22901595 -0.027491368 0.030252926 0.10407427 -0.49294457 0.45289126 0.1822715 0.07047329 0.02478356 0.04383518 0.002314007
三 -0.035216436 0.8793647 -0.5026891 -0.07415151 0.08860611 0.17763862 0.4823359 0.04542705 -0.25517255 -0.09389766 -0.097994976 -0.13105164 0.7154005 0.29441243 -0.2954892 0.61328506 0.059433687 -0.18713807 0.16825119 -0.18288068 -0.22279051 -0.35792372 -0.109267645 0.5046262 -0.1812014 -0.14172523 0.46686095 -0.49752045 -0.09050088 -0.27956566 -0.21877939 -0.24315836 -0.053406585 -0.25385782 0.1064361 -0.32000285 0.14675947 -0.104811944 0.28073493 0.2923223 -0.12472521 0.194502 0.09007096 0.09395008 0.27288055 -0.044799753 0.3290044 -0.42213795 0.039094638 0.36782712
能 -0.39974314 0.46699342 -0.06553116 0.09429926 0.029398566 0.17320926 0.13913272 0.016290879 0.22577854 -0.2156292 -0.09197081 0.04418788 -0.020081138 0.008672393 -0.097121365 0.4698156 -0.01662308 -0.06850281 0.24358153 0.044633422 0.22062261 -0.24225822 -0.08895419 0.5411448 -0.055856418 -0.23075819 0.38236022 -0.084106095 0.32922992 -0.2139148 -0.11158619 -0.16837636 -0.05723314 0.032346025 -0.47811162 0.06638677 0.024305321 0.1094758 0.035794243 0.4980777 -0.1498534 0.12366455 0.18377365 -0.12677205 0.46105722 -0.054089714 -0.01740372 0.060576763 -0.034556102 0.08255165
见 -0.24034919 0.51846623 -0.009313634 0.13665083 0.05816735 -0.21005534 0.28611198 0.071584396 -0.002598734 -0.053301465 0.044033602 0.006838138 0.4892212 0.018993296 0.11653981 0.45563772 0.022430286 -0.117909335 0.16184637 -0.04341362 0.0049073435 -0.4983975 0.03158093 0.5438031 0.011516865 -0.11608933 0.05408769 -0.077275485 0.20336474 -0.40404 -0.026648078 -0.3336899 0.05292976 0.52984667 0.053834613 0.26409477 -0.0053644585 0.048341777 -0.2518524 0.35707963 0.00094829174 0.07518873 -0.17757285 -0.31557822 0.57497734 0.074828684 0.045916878 -0.051082484 0.012703201 -0.1361098
学 -0.37402263 -0.14163889 0.031279437 -0.017564079 0.16524757 -0.21159631 -0.12404732 -0.10677045 0.18356921 -0.33440146 0.12910137 -0.075201236 0.73520774 0.12211236 0.11308551 0.28154847 -0.26470268 0.09342395 -0.1665069 -0.031102668 0.10530033 -0.41945702 0.019239439 0.4736407 0.45452228 -0.089584045 0.7799938 -0.12205812 0.13750547 0.23728944 -0.1744203 0.16298088 0.2518082 0.6276416 -0.2643894 -0.07234075 0.04687568 0.39013323 -0.6074339 -0.7537272 0.114235625 -0.010401893 0.148546 0.037990082 0.63198787 -0.13173385 0.19670193 0.23298052 0.27520105 -0.31276628
事 -0.15479499 0.5063345 -0.2234782 -0.13016711 0.05360051 0.05399006 0.096216194 0.04071468 0.0793631 0.10825909 0.24020681 0.026573066 0.4417355 0.11273981 0.17088167 0.44227636 -0.04203963 -0.05411448 0.15480879 -0.03334748 0.21960005 0.08469759 0.088159405 0.43160805 0.023407739 -0.060869437 0.19749373 -0.3954465 0.34386897 -0.35759985 0.026066855 -0.1407331 0.09954851 0.2721166 -0.11795771 0.035349727 8.128281e-05 0.059333764 -0.4945333 0.0043187146 0.11833544 -0.012345124 0.34998137 -0.50676274 -0.2245434 0.09299878 -0.07212859 0.011705375 0.11169539 -0.066876024
是 0.16435654 0.49024594 -0.14198919 -0.108357534 -0.13677642 0.24126726 0.036466215 0.08073219 -0.146936 0.063354015 0.066933475 0.17159554 0.3624002 0.12333268 -0.0018532947 0.3804631 0.16926903 -0.10799223 0.2093741 -0.044149496 0.096616 -0.18036439 0.10432918 0.063410565 0.17388168 -0.0756205 0.07943688 -0.34142998 0.31341383 -0.2520493 -0.13032755 -0.16069178 -0.021695953 -0.0015860414 -0.519938 0.4712321 0.00623067 0.04718094 -0.39619446 0.48338637 0.12287823 -0.0039841984 0.24294701 0.11246737 -0.34401807 0.08676478 -0.12865189 0.26437312 -0.05731315 -0.0047761374
哉 -0.33218688 0.12352478 -0.034013875 -0.10566665 -0.19478865 0.2137639 0.15109704 -0.164247 -0.005245715 0.033514645 0.024864152 -0.0370041 0.44348317 0.18749082 0.031921282 0.20312107 0.14593601 -0.024713218 0.14121567 -0.03262254 0.053693775 0.016921375 0.0122875795 -0.0008784654 -0.08136152 0.03910903 0.33240107 -0.42116582 0.21761478 -0.3335189 -0.20743155 -0.27950796 -0.027867274 0.49107167 -0.5532142 0.025083335 0.13902065 0.22225091 -0.1385593 0.45163128 0.19730577 0.00042324048 0.29850158 0.4633309 0.18445781 0.19345659 -0.202368 0.1489542 -0.12057505 -0.02666396
闻 -0.16291478 -0.33263823 -0.063309886 -0.13343419 0.019863896 0.06276557 0.080286935 0.01240872 -0.0021416917 0.03206055 0.053062513 0.06682712 -0.09645014 -0.08126988 0.14403339 0.52630293 0.34359708 0.0008755233 0.17997961 0.025759926 0.16854632 -0.29535165 0.14615615 -0.44152856 -0.035981316 0.03578006 -0.37077108 -0.3851676 0.4494307 -0.24180472 0.03492787 -0.041257 -0.030817226 0.42047656 -0.49833184 0.10601605 0.016440675 0.047155745 -0.362258 0.5247093 0.17955165 -0.079994395 0.21850099 -0.19386184 0.5345107 0.34187993 -0.22467177 0.2064703 -0.024576474 -0.07802636
未 -0.09919129 -0.06764445 0.04314197 0.08994183 -0.023408998 0.24718657 0.27874067 0.057860635 -0.47133166 0.22838467 -0.12041926 -0.003812378 -0.27372584 0.07468371 -0.0799986 0.43750563 0.5427348 -0.028250653 0.15868202 -0.03946025 0.2271517 -0.15074965 -0.05270341 0.37711555 -0.35209033 0.24812253 0.5008938 -0.1692465 0.31930852 -0.5392299 -0.22833052 -0.032911472 0.3796044 0.4582766 -0.515376 0.5308026 0.11461256 -0.06436266 -0.34507897 0.9768423 0.45208064 -0.117394395 0.54783016 -0.10471054 -0.0443919 0.14218774 0.11019644 -0.11359401 -0.38848862 -0.11160287
公 -0.27227467 -0.37146267 -0.041628614 -0.21946667 -0.03295265 -0.03207361 0.03281928 0.016509423 -0.28224814 0.09334952 0.06412256 -0.037467953 -0.37722313 0.05777953 0.05706124 0.30281997 0.50173146 0.06346308 0.04134342 -0.11659931 -0.053230576 -0.24048188 0.17609318 0.22734737 0.034299616 0.068733186 0.18482973 -0.180404 -0.015926192 -0.1483588 -0.27627417 0.16525328 0.324725 0.46633625 -0.46078452 0.43225524 0.1075266 -0.023423035 -0.09319043 0.55814385 0.16501135 -0.050402492 0.11258491 0.5427239 -0.16913816 0.030013511 -0.038079444 0.06844778 -0.24424691 0.04844623
好 -0.36350453 -0.051145956 0.071228154 -0.24937594 0.052129276 0.15008728 -0.010475941 -0.08520523 -0.16773084 0.051288962 0.105417855 0.27233267 -0.15417016 0.1860328 0.13936041 0.16719306 0.44757125 -0.009765602 0.23126905 -0.04023143 0.07841666 0.28662083 0.08912818 -0.45554653 0.08113319 -0.059774 -0.32775345 -0.40009156 0.47758418 -0.078558214 -0.28461358 0.06978438 -0.0699813 0.05100363 -0.22391252 0.20201196 0.14774504 0.1973086 -0.41606736 0.5285568 -0.2130095 -0.09115563 0.02430577 0.16544977 -0.39011994 0.23846379 -0.20346902 0.11423032 -0.021712376 -0.21964298
我 -0.26108873 -0.8326861 0.04154129 -0.18127604 -0.008501877 0.29118901 0.17510678 -0.27717254 -0.4471307 -0.25506577 0.51420707 0.09681056 0.37835097 -0.30365318 0.018765327 -0.5704436 0.75038856 -0.041174427 0.57231784 0.28211275 0.13619485 -0.70244324 0.4230848 -0.5211717 0.6754243 0.55809325 0.5731425 -0.42548528 0.38058394 -0.059024792 -0.552155 0.17198208 0.30174786 0.47828776 -0.78194004 0.022255005 0.3287908 0.1134796 -0.5079311 -0.8177916 -0.2561711 -0.29027063 0.07188161 0.6194165 -0.35901 0.04378087 -0.52977204 -0.011216433 -0.14000393 0.04012026
路 0.35895747 -0.24238198 -0.26184928 -0.15356329 -0.00683774 0.18998474 0.071313925 -0.02566448 -0.31648302 0.114563845 -0.080215804 0.12690903 0.048868094 0.092546366 -0.04791504 -0.216618 0.33271086 -0.08074954 0.0949651 0.07616021 0.18431933 0.15520939 0.032461226 -0.33901647 -0.21018685 0.019302856 0.293943 0.2014863 0.17015734 -0.075787805 -0.2583963 0.2928263 0.05340559 0.11746409 -0.48863363 0.16636285 0.0750169 -0.04357304 -0.3109103 0.5260563 -0.018662151 -0.04654573 0.114720814 0.045305625 0.51731175 0.093950845 -0.18392836 -0.008509277 -0.37332335 -0.072653495
在 -0.4769926 -0.27754655 -0.33678424 -0.08880385 -0.055781137 -0.046057824 0.056935936 0.085590474 0.12196495 0.11297415 -0.051825702 -0.037042014 0.40768397 0.05548391 -0.015964542 0.20964794 0.004091111 0.025200253 0.087817654 0.13348255 -0.044863973 0.3393492 0.01039576 0.12183964 -0.011382726 -0.07775992 0.46853587 -0.31504023 0.36744878 0.023398768 0.024552511 0.36007178 0.11177873 0.19053821 -0.35259113 0.34727806 0.22807895 -0.16763493 -0.35229376 0.28654936 -0.25976613 0.059756264 0.027645864 0.42377916 0.5281384 0.31877777 -0.060341164 0.13657823 -0.2159336 -0.12895949
已 0.28084147 -0.30637738 0.14744638 -0.018612675 0.03693673 0.0794969 0.16631274 -0.021348227 -0.3779055 -0.073830806 -0.11023132 0.07586407 -0.18490201 0.08120596 -0.2387238 -0.031092474 0.26071113 -0.004567434 -0.005725902 0.084556796 0.018331623 0.2596161 -0.02809861 0.18467253 -0.14518112 0.025333513 0.40378883 0.13074149 0.21783555 -0.18624124 -0.3082891 0.34873804 0.03781125 0.30786 -0.4657047 0.45591354 0.18306969 0.08336805 0.12984174 0.517236 -0.30179933 0.14987478 -0.053173386 -0.5317292 0.45953628 0.2097521 0.28070572 -0.05965287 -0.0623343 -0.13952707
得 0.23780729 -0.4129114 0.37759894 0.3820659 0.1289129 0.011780178 0.20937201 -0.15617354 -0.23757705 -0.39747295 0.147948 -0.13152888 0.014913985 -0.17088434 -0.27442446 0.21549922 0.015525242 -0.08040162 0.23407821 0.19570768 0.032077394 0.011386221 0.14249015 -0.3764651 0.08917822 0.31293854 0.1508627 -0.05601208 0.38884684 0.043746095 -0.21918732 0.4520838 -0.0956309 0.5042327 -0.47304693 0.15103887 0.18210286 -0.22589009 -0.30755022 -0.47683197 -0.27225024 -0.009100044 -0.21983932 -0.49996233 0.49050722 0.07629339 -0.11700081 0.27825657 0.009100656 0.043946672
所 0.51539564 -0.34005687 0.47550148 -0.2838539 0.12632021 0.31131616 -0.025319876 -0.0005441924 -0.020308867 -0.15867005 0.18560672 0.04749143 0.81982595 0.09102047 0.18936494 -0.5263293 0.41086036 -0.06532537 0.20644638 0.26975247 0.23144867 0.21210432 0.48230755 -0.19200285 0.43042406 -0.05788339 0.48461407 -0.32909 0.6931851 0.046952248 0.36596 0.47714633 -0.025177458 0.7086549 -0.6758152 0.0058325296 0.0068948576 0.39972955 -0.7576604 -0.47138497 -0.42389536 0.032287613 -0.5101435 -0.45861185 -0.6157746 0.21607947 -0.2694004 0.4138717 -0.13370487 -0.6226409
民 -0.085945934 -0.15112948 0.20617309 -0.05954208 0.008198892 -0.16028483 0.06252718 -0.070362106 0.2094199 0.12894528 -0.13492237 -0.118280366 0.42115793 -0.13353649 -0.12516145 0.087741725 0.06411073 -0.022594336 0.18941274 0.2150965 -0.15279885 0.12082872 0.04753753 -0.3893724 0.23641288 -0.05828488 -0.24819472 0.18553041 0.52073455 0.14484777 -0.025649939 0.32027143 -0.042524986 0.5357138 -0.5412202 0.21842393 0.103385895 -0.14442137 -0.2471481 -0.22238201 -0.34483135 0.051928736 -0.15036495 -0.19131033 0.40436092 0.24105683 -0.08835696 0.075329974 -0.018394912 0.20320599
小 0.42404133 0.002297682 -0.041173637 0.016011156 -0.116387114 0.3540028 0.13882181 -0.10758528 -0.04798929 0.075299166 -0.040280916 0.003972416 0.28178814 0.1842094 -0.003887516 -0.07868927 -0.018218089 -0.06393154 0.15916215 0.13625003 0.19963287 0.16866548 0.025947476 0.09767938 -0.3770784 -0.06665856 0.4849623 -0.25685948 0.44207978 -0.1786983 -0.08547301 0.42989498 -0.002494894 -0.40722355 0.08867844 0.33571047 0.09707685 0.08569571 -0.37358984 -0.2951151 -0.13323227 0.08654556 -0.031318985 -0.5025074 0.39773262 0.039910067 0.02601015 0.12831847 -0.02382015 -0.1955843
天 0.11727109 -0.3780481 -0.1506894 0.22112255 0.07871286 0.41089067 0.04160917 -0.018417103 -0.26070082 -0.48365495 0.37130198 -0.05214707 -0.050925832 0.4556164 0.09498788 0.51985586 -0.6468219 -0.04952187 -0.15848462 -0.44403908 -0.7144092 0.35484943 -0.505638 -0.45754442 -0.28923702 -0.2680597 0.84933954 -0.73567075 0.58280903 -0.8239161 0.49290138 0.44176468 -0.24600752 0.41384456 0.7993235 0.77316815 0.36888987 -0.81327885 -0.17293592 -0.052917555 -0.6569678 0.23281088 0.22243953 0.7437917 0.82253534 -0.24151759 0.1535676 0.7664557 0.49747676 -0.23644994
乐 0.48289475 -0.38755995 0.14148971 -0.16822182 -0.06650968 0.04034728 -0.047010362 -0.22860938 -0.079069704 -0.16990434 0.22025523 -0.11379162 -0.35671243 -0.011122482 0.15619382 0.12601644 -0.008911674 -0.037523616 -0.008889903 0.020827383 0.0443101 -0.117839254 0.24435578 -0.32493943 0.3425144 0.00045188796 -0.24016967 0.032230947 0.1942622 -0.17338787 -0.004653822 0.21372087 -0.23481409 -0.45384222 0.41384643 -0.5594834 0.027155396 -0.024502251 -0.39086598 -0.35710785 -0.3805172 0.16459109 -0.25421473 -0.4543764 0.054636758 -0.16372298 -0.10643603 0.4701252 -0.084425785 -0.12250133
邦 -0.45711294 -0.40222916 0.20390114 0.044763647 -0.060953468 -0.078254335 -0.022661114 0.000697013 0.017389625 0.005601171 0.28043973 -0.12661208 0.53890693 0.14000666 -0.10813957 0.22283027 -0.22756794 -0.026969146 0.13128331 0.06421222 -0.13644046 0.015503376 0.1893284 0.015859518 0.21924809 -0.022467792 -0.39273322 0.19996718 0.2630338 -0.18760541 -0.041504223 0.2281832 -0.10313602 -0.29059404 -0.57596624 0.04384134 0.22941336 -0.020065036 -0.3501382 -0.26969567 -0.24747406 0.14126678 -0.034414664 -0.27414617 0.33272514 -0.23841602 -0.100930646 -0.06355263 0.2527504 -0.21705076
亦 -0.4977885 -0.3763631 0.043996792 0.13671786 -0.14112508 -0.18511224 0.11950331 -0.088341 0.012010929 -0.058162533 0.13890289 -0.09917292 -0.5081415 0.23279798 -0.0976434 -0.07817737 -0.008733019 0.02154419 0.16104858 0.07008192 0.17127225 -0.22669367 0.03813174 0.24901387 0.24728581 0.107956074 -0.006767227 0.57439065 0.07194698 -0.049204696 -0.052522197 0.32024068 -0.07280039 -0.26780936 -0.17029896 -0.13130768 0.08988333 -0.09812174 -0.044529833 -0.36676002 -0.12771079 -0.07530894 -0.010536653 -0.3531624 0.1394076 -0.060009293 -0.042798877 0.09864177 0.02668147 -0.121388525
使 -0.33988354 -0.51374507 0.010352669 -0.037319224 -0.111096956 0.37832096 0.21157241 0.04490584 -0.04251359 -0.09310779 0.30676618 -0.065438986 -0.34976658 0.24454111 0.39485326 0.28093773 -0.25142032 0.039058454 0.0510378 0.08744863 0.1721598 0.19005711 0.17254692 -0.0020801984 -0.29864547 0.26887962 0.39978126 0.10596429 0.15815604 -0.19509557 0.07275055 0.36925533 -0.13982299 -0.34371078 -0.5090184 -0.47261927 0.27209046 0.19343875 0.2435382 -0.41441888 -0.45006332 -0.14175917 0.019348208 -0.037414294 -0.09253103 -0.10335893 0.038318176 -0.020153446 -0.12706968 -0.4533209
大 0.5412062 -0.4188069 -0.0437921 0.065694965 -0.55698013 0.71938485 0.008154789 -0.6475287 -0.4292511 -0.6496344 0.3347207 -0.49724078 -0.7872227 0.56036776 -0.06766033 0.67642164 -0.072747305 0.95612806 -0.38398466 -0.68951297 -0.7600926 0.82415354 0.19582759 0.118044205 0.49829897 0.8411095 -0.6487805 -0.6654908 -0.14299081 0.61414236 0.84837806 0.5070925 -0.26116842 -0.715522 -0.5090486 -0.8367831 0.5839395 -0.022055171 0.30226004 0.50113034 0.5754862 0.16672055 -0.5375144 -0.55883497 -0.47661206 0.6039001 -0.1936401 0.56469667 -0.49256942 0.2250835
下 0.33666414 0.10040924 0.011942749 0.23897825 -0.227337 0.23943575 0.097781174 -0.088387825 0.09032222 -0.27972385 0.25812298 -0.01992319 -0.016873062 0.14809443 -0.030490058 0.16698232 -0.22230005 -0.060488928 -0.007433069 -0.1623709 -0.4515305 -0.045001727 -0.04742518 0.30288917 0.18575355 -0.05084241 -0.0987986 0.49622357 0.07031502 -0.13236581 0.1381101 0.12014128 -0.05480776 -0.39130643 -0.11331158 -0.44089103 0.12006405 -0.097375706 -0.1353818 -0.1448853 0.023441907 0.16090217 -0.19215031 -0.46032917 -0.13019426 -0.07407487 -0.08195064 0.04192498 -0.0104654655 -0.24253829
贡 -0.29756317 -0.10623301 -0.15256938 -0.0064927647 -0.17395842 -0.11532494 0.10204274 -0.14762664 0.18039675 -0.0988202 0.18429437 -0.2796576 0.50276315 0.11622809 0.15070064 -0.0020342772 -0.07904232 0.028796634 0.05841367 0.07940893 0.0048964107 0.06412749 -0.004251349 0.38478217 0.12737672 0.16155626 -0.07238397 0.56327194 0.3884871 -0.060085077 0.054023206 -0.0407328 -0.093498565 -0.27805048 -0.46621817 -0.48937488 0.03672656 -0.15489672 0.5324316 0.5514024 0.13834904 -0.08756663 -0.011586707 -0.47839695 -0.1684209 0.050758187 0.025568493 -0.0338036 -0.06352587 -0.18080294
欲 -0.6799159 0.3960954 -0.12537958 -0.02407308 -0.25229174 0.034134347 0.27441615 -0.32071978 -0.25377038 -0.071144596 -0.29950368 -0.49553403 -0.5252719 0.44265708 -0.027362622 0.35466507 0.41189584 -0.04420226 -0.18950449 0.16311648 -0.23158063 -0.35496238 0.0098851845 0.39904234 -0.33176813 0.039303195 0.24692664 0.7284727 -0.33584434 0.010431758 0.2994756 0.041020934 -0.10466289 -0.19215187 -0.62487674 -0.7300331 0.26348844 -0.51468515 0.6759911 0.2294869 0.12213718 -0.0651008 -0.39534158 -0.58034647 -0.5388359 0.40092486 0.51251966 -0.5437734 -0.24540728 0.26947737
诸 -0.50216395 0.0753562 0.051876858 -0.09864183 -0.13937506 -0.26266527 0.14975333 -0.16458261 -0.12434143 0.08124016 0.04376458 -0.18961598 -0.1746989 0.033022285 -0.05319103 -0.28355402 0.06129613 0.29252514 -0.24595514 0.12374144 -0.17314406 -0.15319881 0.02889906 -0.12009143 0.25759837 0.29846442 0.002040585 0.5538361 -0.51547533 -0.093409725 0.025472928 -0.24660812 -0.0928878 -0.40693536 0.08394654 -0.37764767 0.13833718 -0.16413736 0.4335571 0.50786275 0.13562302 -0.045996375 0.16736503 0.24366207 -0.31305358 0.09198694 0.24167503 0.06409245 -0.011550379 0.1072659
从 -0.3309925 -0.44842684 -0.04729273 -0.0322721 -0.23067948 0.09054314 -0.23596111 -0.21017921 0.115026906 -0.42329443 0.21242313 -0.1387253 0.50067246 0.19880939 0.27828687 -0.2089824 -0.3517621 -0.036933936 -0.14799708 0.19215995 -0.11307892 0.0953003 -0.08829207 0.4749393 -0.060657788 0.17439874 -0.058306385 0.4624294 -0.29367936 -0.049834862 0.29944015 0.051093485 -0.24375473 -0.4707662 0.4163033 -0.49696124 0.16383184 0.16871847 -0.50163436 0.4027963 -0.24828686 0.012696433 -0.0020332218 0.11706508 -0.39419833 0.010907283 -0.04388633 0.14680468 -0.019738138 -0.054236732
文 -0.52804655 0.08158787 -0.07139193 -0.087147295 -0.2762893 -0.16445564 0.1767396 -0.20112452 0.2629651 -0.07644627 0.107349716 -0.17888553 0.13754858 0.03254474 0.08323584 -0.047960617 -0.06397369 -0.041660745 0.076207586 0.051270586 0.07828779 -0.2546094 -0.12482596 0.16150327 0.01692975 0.013301661 -0.05078857 0.38090646 -0.0077173905 0.25230342 0.23059352 -0.067711525 -0.1664018 0.28669745 -0.20478627 -0.4675181 0.11104493 -0.20697422 -0.20958193 -0.14507519 0.017466467 -0.046434678 0.014887159 0.5467527 0.16130963 -0.030544441 -0.14510436 0.11403011 0.16510782 0.09398147
政 -0.17216945 0.43728033 -0.167113 0.060625825 -0.2340988 -0.037598357 -0.016219586 -0.11701946 -0.32554403 -0.038348034 -0.088885605 -0.0029837014 0.48777935 0.04817916 0.1764941 -0.13699111 0.028671848 -0.24010074 0.17881118 0.113786146 0.112563916 -0.42019323 -0.15336774 0.09129414 -0.124807365 -0.03202054 -0.20209196 0.45923704 -0.30108318 0.017003082 0.13872878 -0.038368 -0.20671351 0.3424115 -0.15929686 -0.40699735 0.14855799 -0.012739962 -0.2881415 -0.44868845 0.004172436 0.13541104 0.07046031 -0.54372203 -0.10107218 -0.20227595 0.025245382 -0.21648605 -0.18764421 0.19097373
食 -0.5887593 0.16634187 -0.101127125 -0.19804938 -0.12291386 -0.3915864 0.16183054 -0.43283096 -0.08032113 0.022188187 -0.17301282 -0.31870943 0.32447645 0.26809248 0.45311984 -0.16261981 0.04827263 -0.0916893 0.1364105 -0.0038454481 -0.06281855 -0.55277085 0.25176144 0.24331518 -0.011003195 0.014317551 -0.39668334 0.4107866 -0.1987556 0.14804162 0.22102758 -0.55347645 -0.20024623 0.56376576 -0.051249582 0.73898786 0.1886289 -0.1131478 0.19920526 -0.78295344 -0.19473238 -0.07022277 -0.58622843 -0.10155065 0.06908063 -0.113830715 -0.095007226 0.27112153 -0.013574158 -0.074447565
善 -0.4051206 0.24183202 -0.15793113 -0.26743358 0.030115694 -0.26260757 0.11338255 -0.23963691 0.091276474 -0.032329023 -0.0325291 -0.117426425 0.029262545 0.07097407 0.18776903 -0.17038849 -0.29743868 0.0185264 0.09278482 0.19656119 0.20733458 -0.25543624 0.018815445 0.20453146 -0.10243338 -0.113247395 -0.15858416 0.41590872 -0.50330627 -0.10574532 0.14973035 0.060424134 -0.07793824 0.21302961 0.16059422 -0.4717152 -0.016916594 -0.013281789 -0.4242867 -0.45908305 -0.10273031 0.0025421872 -0.018474111 0.45557383 0.35491294 0.14929599 -0.2597165 0.22132443 0.046677846 -0.15981327
后 -0.39834574 0.25356856 -0.15973325 -0.08033335 -0.022361338 -0.31179556 0.14365306 -0.107353896 0.2268751 -0.26256227 -0.09845739 -0.040532917 -0.41744617 0.3597605 0.1935809 -0.086391546 -0.1652542 -0.08189436 0.2546791 0.08729773 -0.014574216 0.028616605 -0.005092662 0.10933328 -0.053319875 -0.17521751 -0.1895243 -0.48962158 0.3658505 0.059419505 0.16416311 0.019215142 -0.23675925 -0.31318456 0.445634 0.2105896 0.0030433815 -0.116976045 -0.18450803 -0.3384971 0.1856392 0.08350235 0.07074495 0.34388006 0.15562391 -0.09640793 -0.08415549 0.15601121 0.06736022 -0.1922786
德 -0.6994431 -0.48289788 -0.16829374 -0.12877314 -0.087627545 -0.17548724 -0.2006307 -0.21691653 0.028382307 -0.40442973 0.40165895 0.18050623 -0.7060181 0.30611926 0.366929 0.25465676 -0.2309042 -0.28282326 0.24703796 -0.021675996 0.2717166 -0.45864683 -0.21806327 0.25614327 0.16713281 -0.20821404 -0.055165958 -0.7610528 -0.7769758 0.087597966 0.23946992 0.13040055 -0.27537775 0.42850962 0.052790377 -0.9088574 -0.42856613 -0.11267443 -0.7465977 -0.8724167 -0.09333344 0.20709035 0.0032370463 -0.69528824 -0.04854561 -0.61874723 -0.31203705 0.6519608 -0.063114025 -0.36834267
求 -0.383978 0.34082174 0.024397278 0.01326047 -0.140389 -0.21987076 0.14300139 -0.20374198 0.11395208 -0.020787373 0.017181244 -0.1677803 -0.3888716 0.10033686 0.02218183 -0.14461718 0.079374865 -0.13308701 0.31600177 0.00027296296 0.13141099 -0.43739527 0.025516624 0.13715212 -0.034023598 -0.10542342 -0.05393051 -0.52844363 0.54345345 0.29556006 0.21402344 -0.30460542 -0.18855745 0.533029 0.4550089 -0.3994734 0.0013564273 -0.09433825 0.11471118 -0.49838465 0.05749959 0.08153454 -0.004789413 -0.031893495 -0.36190724 -0.23283488 -0.16677631 -0.030337084 -0.014769895 0.16134962
对 -0.12772131 0.31977212 0.09571038 -0.286212 -0.113923386 -0.10168999 -0.12944327 -0.07848444 -0.39940554 -0.1992711 0.20962526 -0.015928023 0.46993402 0.08767752 -0.12371946 0.5039785 0.058660757 0.0050837626 0.049623165 0.03551117 0.16146101 -0.19963567 0.003699301 -0.48607886 0.11017809 0.17673513 0.32566804 -0.20281324 -0.498806 -0.14245906 -0.09334234 -0.32310063 -0.45027214 -0.21352123 0.30163592 0.3367014 -0.3366337 0.07156284 0.0029791775 -0.22718991 -0.31407845 -0.05233333 0.005830541 0.577546 0.42806858 -0.15014376 -0.17113051 -0.056295186 -0.039840933 0.0989285
恶 -0.34537345 0.07420705 -0.16352606 0.34224015 -0.097403295 0.057743363 -0.08854266 -0.15102012 0.30084723 0.070066094 0.06328883 0.10875341 -0.50455934 -0.32331967 -0.06048582 0.35239583 0.103233196 0.0056015556 0.23044054 -0.006615906 0.2859343 0.10826263 0.27000165 -0.3332996 -0.15691361 -0.16383512 -0.15932058 -0.29359215 0.43424484 -0.16260242 -0.01121488 -0.2755207 -0.27295154 0.48130736 0.38680935 0.5619477 -0.34231576 -0.30116126 -0.1632088 -0.5230015 0.19895013 0.071396954 -0.15163465 -0.2993342 0.5406847 -0.013817342 0.14085726 -0.10763508 0.23527661 0.270442
信 0.024177184 -0.3056918 0.14830644 -0.39172715 0.23875111 0.14833401 -0.15754886 -0.113934755 0.2604848 0.09842898 -0.16375175 -0.07498236 0.38962024 0.17008168 0.067902856 -0.13810468 -0.053159796 -0.14397015 0.25569114 0.054499134 -0.030258594 -0.035531513 0.16558574 -0.41822454 0.03334721 -0.099123746 -0.35394773 -0.46592617 -0.39578503 0.36607108 -0.10240832 -0.006935118 -0.24829048 0.028100476 0.29788628 -0.49134564 0.08033739 -0.13059667 -0.39416167 0.18826738 0.27680168 0.15346172 0.08239197 -0.38795257 0.38453883 0.15570916 -0.2033445 0.24228647 0.027446708 0.32202896
死 -0.41542065 0.27220365 0.04478876 -0.14914261 -0.04783718 -0.23928675 0.0064576245 -0.14875674 0.42347762 0.203396 0.18471526 -0.04064487 0.6178849 0.16372871 0.4829695 0.0012188964 0.16138938 -0.35722622 0.51459795 0.022844762 0.3704372 0.119436055 0.029808233 -0.31920418 0.13530068 -0.32121986 0.021396123 -0.0990576 -0.6230944 0.22924094 0.040314402 -0.27770755 -0.33870766 0.43726715 -0.29273587 0.8258952 0.049864445 -0.25803453 -0.011010081 -0.082547985 -0.47060686 0.19317192 0.2663684 -0.3995562 0.49079984 -0.23758665 -0.0817004 -0.29828596 0.040518038 0.20366156
然 -0.40666765 0.21800525 0.09717226 0.025752088 -0.12996016 -0.277696 -0.2826767 0.07481348 -0.033517536 0.13801603 0.31657526 0.1955904 0.51123446 0.13267255 0.039755564 -0.49078813 0.20053558 -0.2910373 0.21703696 -0.20689681 0.35197058 -0.49549305 0.030128816 0.071028404 -0.21675925 -0.01269057 -0.403794 0.16503023 -0.48574567 0.2620236 -0.00033088005 -0.11096979 -0.44697195 -0.3805488 -0.5351585 0.30574855 -0.10596006 -0.32694522 -0.020132449 0.016518414 0.13895904 0.06906136 0.31372204 -0.24118614 0.109384425 -0.13233069 -0.17750467 -0.1766868 0.27043432 0.18161179
《 -0.2840826 -0.29319334 -0.115980096 0.072704285 -0.03720411 -0.19120155 -0.07069471 0.0126632415 -0.16304988 0.42638686 0.10765921 0.090105094 0.24752328 0.059581656 0.09471285 0.028616251 0.081787355 -0.24701983 0.076497294 0.038002178 0.2305106 -0.06804582 -0.062970504 -0.1425578 -0.034841593 -0.015728319 -0.032239415 -0.26961976 -0.48446196 0.15810078 -0.01662317 -0.26138386 -0.44077682 -0.5074267 0.21680273 -0.14681748 -0.121488705 -0.24485643 -0.20284368 0.5070655 0.11413589 0.03794141 0.4164785 -0.40083838 0.35233214 -0.06975237 -0.014624189 -0.23737697 -0.10690476 0.37056306
》 -0.5973432 -0.3852247 -0.08369912 -0.38745934 -0.024184145 -0.12538636 -0.16319521 -0.12589864 -0.21869133 0.5153444 0.44551846 0.045441844 -0.17347956 0.24513437 0.28744483 0.08774684 0.22915496 -0.24262816 0.1476411 -0.13637282 0.71828896 -0.2720085 -0.18257676 -0.45955953 -0.024776911 -0.048683137 -0.3336766 -0.050373722 -0.82749957 -0.10129353 -0.20294194 -0.6996774 -0.59507316 -0.06129368 -0.29554132 -0.12910502 -0.47208798 -0.46859947 -0.60574186 0.90621305 0.10533864 0.10911908 0.5137987 -0.21215089 0.74349546 0.02849537 -0.22457868 -0.24248524 0.057888646 0.6401917
由 -0.23284744 0.19182155 0.07222368 0.048167415 -0.06264282 0.16617043 -0.06854336 -0.24191332 -0.23808013 -0.10310052 0.05396979 -0.012150835 -0.08216518 0.21795556 0.14524499 -0.49603888 0.036390133 -0.28436276 0.011964887 0.08027357 -0.09328249 -0.31570244 0.03294157 -0.41252375 0.04822655 0.20626394 -0.36288297 0.51183957 -0.5306492 0.33706504 -0.017552128 0.052208092 -0.2807656 -0.2402274 0.23803839 -0.3768389 -0.034984313 -0.29009873 -0.14632177 0.462379 -0.060581733 0.08499755 0.11992846 -0.12813273 -0.3641881 0.111380994 0.0725971 -0.06736254 0.018383672 0.44924664
仲 -0.23570658 -0.03943024 0.10345571 -0.19779405 0.18436934 0.06659472 -0.16475329 -0.20788951 -0.4239712 -0.21566977 0.05072674 -0.09308829 -0.21584487 0.14358374 -0.0269834 -0.44982615 0.10986377 -0.23898971 -0.02221929 -0.048470635 -0.07395465 -0.3464779 0.16450886 -0.06369413 -0.05061283 0.20173927 -0.3715613 -0.5409685 0.3551212 0.07331488 -0.14868978 0.10252148 -0.2155297 0.35421577 -0.45989445 -0.39073095 0.017269462 -0.17937608 -0.05378609 0.44234493 -0.1016043 0.18320848 0.22625814 -0.50475615 0.03503062 0.10454197 -0.10589087 -0.10052035 -0.1464221 0.3343623
非 -0.038044583 0.44010586 0.10008414 -0.3628683 0.061158154 -0.36863184 -0.096548095 -0.1439762 -0.170171 0.15745471 0.35825774 -0.11586656 -0.29122645 0.11017538 0.048946958 0.4229994 -0.35214823 -0.22696298 -0.121103145 0.09358042 0.04927616 -0.3521855 0.11092853 -0.025766745 0.2538664 0.1891695 -0.082934394 0.40364158 -0.38463742 0.34456074 -0.26468962 -0.0022373889 -0.32414326 -0.18953523 -0.2835041 -0.53801256 0.0296019 -0.0798964 -0.100034125 0.46980265 -0.25364435 0.21448126 0.2078291 -0.25579923 0.11429609 -0.0630836 -0.10447283 -0.14418167 -0.03025343 -0.04892838
出 -0.038238354 -0.5270307 -0.0018591277 0.024387827 0.07468045 0.010311628 -0.19583464 0.12142381 -0.3789415 -0.23426847 0.20385881 -0.02712269 -0.45261332 -0.020064501 -0.18140455 -0.43516576 0.031388443 -0.23252212 -0.010815004 0.24426414 -0.16643469 -0.3676252 -0.0490888 0.4627978 0.2581592 0.16483212 0.02151205 -0.46395746 0.22107077 -0.04663398 -0.18021753 0.19708112 -0.32390064 -0.45688158 0.010552543 -0.4781659 -0.037733696 -0.22657642 -0.21659426 0.39527053 -0.04648012 0.106755905 0.17176753 -0.5071845 0.1891811 0.063489966 -0.22655116 -0.33971193 0.13542658 0.11657065
过 0.57442755 0.7520514 0.088262975 -0.10817282 0.009667763 0.1369467 -0.13547736 -0.20945291 -0.5053326 0.076841064 -0.11978787 -0.024280353 -0.05192137 0.38973203 -0.44393107 -0.4756714 -0.025834652 -0.34383368 -0.32880932 0.05946701 -0.16327545 -0.2257408 -0.46730098 0.07227347 -0.04239996 0.022725733 -0.076597944 0.70820737 0.065997034 0.09729347 -0.3225614 0.128661 -0.255071 -0.7082598 0.24984895 -0.5244532 -0.07611625 -0.080544956 -0.47354525 0.79369754 -0.25221422 0.35526088 0.10678958 -0.2211562 0.72155166 0.05143379 -0.013541 -0.5704544 -0.20335269 -0.14858739
一 0.4637071 0.5130013 -0.31566855 0.027609514 -0.08506217 0.08775118 -0.10426528 -0.117196195 -0.2539437 -0.18349001 0.19329798 0.24940127 0.23259294 0.22215906 -0.054077595 -0.29740927 0.22941157 -0.29868108 -0.23374435 0.21189773 0.38111252 -0.41799927 0.18467936 0.26909646 0.10703816 -0.07013245 -0.3889878 0.25343123 0.0063532237 0.10417075 0.051761936 0.41573307 -0.22298203 0.30444276 0.4491148 -0.5062797 -0.044363867 -0.098994784 -0.18213548 -0.3219909 -0.26500157 0.27587333 0.1447516 -0.4027147 0.26273435 -0.07321843 -0.022600193 0.04360666 0.061798308 -0.052374147
虽 -0.348557 0.5655441 -0.24184707 0.2538101 -0.008600124 -0.23695615 0.017850906 0.093687564 -0.19422348 -0.36852157 0.1947088 0.061278887 -0.17502563 0.091909885 -0.113085 0.3105925 0.13621964 -0.31455696 -0.095189914 0.29045224 0.28655177 -0.3010312 0.009583776 0.42534932 -0.014279553 0.121709675 0.169571 -0.28172654 0.3571576 0.058128823 -0.10270988 0.25246564 -0.13111967 -0.17883638 0.43842253 -0.42468506 0.05059529 -0.06265634 -0.4258166 -0.28597173 -0.07572666 0.26935545 -0.05939946 -0.30125403 0.56807107 -0.05346411 0.026835116 -0.22402653 0.14835145 0.029462554
足 0.6816231 0.7210389 -0.74614596 0.26364997 -0.020274803 -0.42670667 -0.19784342 0.56468356 0.038650125 -0.36264017 0.4239713 0.2118841 0.2789163 0.106132746 -0.26442042 0.707038 -0.17086998 -0.3830679 0.0042956998 0.2874716 -0.083001465 0.22756885 0.34900618 0.7664208 0.6440347 -0.009808679 -0.5934901 -0.6745591 0.53353775 0.20252565 0.035035614 0.5224894 -0.50476193 -0.74331075 0.28434375 -0.7171764 0.38062334 -0.20116585 0.66271716 0.7846241 -0.18005477 0.53812706 -0.025416382 -0.526111 0.9360285 0.1748064 0.23072858 -0.42513725 0.34210876 0.12736402
居 -0.2563214 -0.344545 0.03883397 -0.011166328 -0.019366326 -0.30633798 -0.32742664 0.15665366 0.06261948 -0.32112458 0.032949995 -0.022622384 0.29042527 0.31290436 -0.3461864 -0.22307959 0.2178138 -0.32172173 -0.0089816665 0.31371683 0.08915419 -0.18817195 -0.14174528 0.52312493 0.34534281 0.001267979 0.13564965 -0.25492612 0.2903069 0.33979043 -0.11293029 0.39949533 -0.37673947 -0.3385696 0.16061711 -0.51971745 0.17336056 -0.103127345 0.24086662 -0.49759135 -0.07144749 0.072106995 -0.2753202 -0.19421883 0.53020966 -0.09050091 0.02861027 -0.063752815 -0.08013992 -0.04048423
尔 -0.44523564 0.36446086 -0.13926661 0.081093885 0.039936777 -0.021386288 -0.07756643 0.22601274 -0.382976 -0.14126338 0.13844499 0.26372072 0.27250132 0.02535275 -0.31624514 -0.22634985 0.2900905 -0.20802295 0.16744465 0.3696608 0.30316532 -0.117498145 -0.25495508 0.5158863 -0.12308384 0.06293412 0.016477374 -0.36248985 0.20907062 0.03154269 -0.14945634 0.30323923 -0.27016264 -0.21200097 0.29969898 -0.57515377 -0.09427742 -0.32500926 -0.46432364 -0.4749555 0.008859389 -0.06771616 0.06448238 -0.15472811 0.47974473 0.028610399 0.081231534 -0.18080337 -0.11997076 0.122849405
夏 0.10185828 -0.11778206 -0.20169167 0.12906349 -0.028646355 -0.023894554 0.07596915 0.22310089 -0.10432705 -0.078105785 0.0392435 0.24941279 0.1793875 0.10713774 -0.21990013 -0.2712361 0.3602257 -0.3897495 0.10448464 0.35291556 0.35703334 0.17018244 -0.31061617 0.53249586 0.084956594 -0.14783894 0.02752196 0.28769448 -0.0498954 0.024140317 -0.049250763 0.20378838 0.077158354 -0.40387705 0.43693054 -0.52178174 0.18233193 -0.24286935 -0.11032503 -0.35140696 0.05775058 0.101868406 -0.06650113 0.27017874 0.039579652 -0.22347595 0.123024955 -0.13829353 -0.0651398 0.3143002
父 -0.42681253 -0.13144691 -0.26727685 0.16632102 0.011355549 -0.15125732 -0.084489904 0.2221416 0.03521657 -0.10658937 0.20172164 0.2636342 -0.094118856 0.080897234 -0.19034958 -0.1485604 0.30406013 -0.2886711 -0.037414905 0.32509255 0.25662422 0.074801445 0.07743713 0.50223553 0.30725753 0.0882236 -0.1178214 0.12050315 -0.24120042 -0.34749904 0.120851986 0.3442173 0.11520112 -0.49658147 0.43835726 -0.53995436 0.2803085 -0.3197118 0.26874712 0.5616352 0.046677355 0.024856169 0.04722574 -0.54209244 0.2620716 0.13531485 0.17488608 -0.084156856 0.12070401 0.33791128
及 -0.7762232 -0.5639417 -0.48623922 0.37269253 -0.27203235 -0.38696128 -0.061074805 0.36890745 0.19056283 0.028379584 0.24714181 0.51363 -0.34634623 0.70605975 -0.71044856 -0.49127203 0.07642011 -0.45485422 -0.27573353 -0.2503924 0.22241284 -0.24363244 0.39225286 0.45789108 0.81859416 -0.6646054 -0.20556971 -0.3277725 0.55460465 -0.33767217 -0.46345025 0.32322368 0.2487989 -0.7304968 0.2580698 -0.5868894 0.70268005 0.039137352 0.80605656 0.8346537 -0.49838683 -0.3939121 -0.33081937 0.8320646 -0.20888178 -0.72419643 0.11526871 -0.035858266 0.23805976 0.66347134
己 -0.13290037 0.32691842 -0.2117065 0.015236256 -0.21709757 -0.11087983 -0.12348984 0.18344873 -0.17506696 -0.0011780879 -0.18987927 0.29379278 -0.20530729 0.32773313 -0.42244786 -0.45205012 -0.006172026 -0.39409688 0.09953364 0.019504137 0.019269919 0.14453739 0.07782505 0.5245987 0.04942454 -0.12103594 -0.4606596 0.1029645 0.49629173 -0.19941889 -0.46101332 0.22770935 0.12522982 -0.28918764 0.41647157 -0.06295629 0.29478893 -0.2475034 0.3881268 -0.045127608 -0.031199055 -0.23306873 -0.10261094 -0.4187061 -0.5235582 0.082205966 0.06954203 -0.11435594 -0.22448988 0.09967066
予 0.1257219 0.06339712 -0.20473324 0.10521541 0.0013766511 0.17721598 -0.026572429 0.09437274 -0.17097104 -0.045811635 -0.1884911 0.1866125 -0.28776184 0.18487982 -0.08105985 -0.25197226 0.24982199 -0.41116446 0.4096986 0.0013221498 -0.16260774 0.20399086 -0.2398262 0.41297606 0.07750223 -0.13368417 -0.055991907 0.334088 -0.41990292 -0.18054913 -0.43383113 0.29913116 0.14048329 -0.43934044 -0.39324403 0.23667443 0.034169443 -0.22023465 0.496615 -0.3771461 -0.04377567 0.0009229734 -0.023363031 0.34011528 -0.2767928 -0.33207858 0.32564616 -0.24350798 -0.31397316 0.27789873
色 0.4510172 -0.17049061 0.14931506 0.5010891 -0.16745116 -0.05336311 -0.16829956 0.423094 -0.2736237 -0.08184547 -0.20223115 0.41083208 -0.7544316 -0.3857066 -0.29892975 -0.5597461 0.41784048 -0.5205313 -0.0735806 0.1364555 -0.17306763 0.37267926 -0.49055302 0.8399302 0.15289888 -0.1799004 -0.76480293 0.53391665 -0.5970498 -0.38571602 -0.04339382 -0.27722403 0.23177525 -0.8766354 -0.5766281 -0.1925903 0.05333234 -0.30777824 0.7410538 0.9541356 0.49798292 0.105653144 -0.15102433 -0.008961276 -0.7789592 0.22953345 0.43971086 -0.46497086 -0.45299855 0.7063973
友 -0.17515424 0.15128271 -0.066420496 -0.008995333 -0.16102847 0.1270571 0.1759143 0.24614324 -0.16583572 -0.10673318 -0.1019857 0.12872161 -0.17077819 0.27100566 -0.11888465 -0.27373737 0.132074 -0.3620849 0.13109632 -0.1562948 0.07397115 0.06723258 -0.121720165 0.464419 -0.065964796 -0.30342042 0.031263832 0.39346558 -0.52268153 -0.41873142 -0.381072 -0.14170803 -0.009108396 -0.049892694 0.5444199 -0.238767 0.22364013 0.009457055 0.32085934 0.11953418 0.37397525 -0.0015366382 -0.029824372 -0.1262601 0.029064752 -0.07415194 0.1785314 -0.19756028 -0.033171363 0.37867373
成 -0.30248335 0.38786712 -0.17469485 0.12234908 -0.25021714 0.110784255 -0.08878796 0.075204276 -0.1518719 -0.07283818 -0.17427725 0.20427103 0.11434617 0.15792328 -0.20137534 -0.3058828 -0.11345328 -0.33064458 -0.10172328 -0.15627083 0.20166482 0.12059228 -0.16864619 0.27866304 -0.17108265 -0.3076186 -0.24067172 0.5672576 -0.46287584 -0.07995166 -0.39691004 -0.09359698 0.21614099 -0.16116078 -0.113011785 -0.5162403 0.0459567 -0.0008511441 -0.13883759 -0.5822131 0.109855816 0.034328405 -0.04852042 -0.5399883 0.241036 0.122626185 -0.008512376 -0.09014585 -0.120466396 -0.1793035
远 -0.522814 0.2143792 0.15814233 0.10317874 -0.10857627 0.2574961 0.21858522 0.09654678 -0.22960426 -0.3728452 -0.25186077 0.054013032 0.41369388 0.24516858 -0.03729722 -0.37865853 -0.22915228 -0.17687505 0.2318854 -0.084729284 -0.03777714 0.07060525 -0.1779388 0.40424407 -0.17210795 0.036092553 -0.06329564 0.34793878 -0.39531797 -0.10412488 -0.31620654 0.10368204 0.27642778 -0.006228959 -0.3135669 -0.41307116 0.27609962 0.10204951 -0.12548259 -0.5351789 0.31501585 -0.09253934 0.23158795 -0.42874652 -0.51493675 0.10977576 -0.080059834 -0.22697355 -0.038210906 -0.14228106
上 0.43435192 0.2652644 -0.20956391 0.18834569 -0.08240518 0.41783488 0.16156772 -0.12301409 -0.24427788 0.0640375 -0.3932073 0.04768889 0.113671675 0.1156402 0.17052382 -0.3235923 0.26432124 -0.19726288 0.2644315 -0.056768093 0.108775094 0.15275754 -0.16594873 0.26829493 -0.41627818 -0.031856593 -0.111659 0.1938189 -0.3758102 -0.015011888 -0.013810426 -0.15855068 0.06800857 0.35979593 -0.3347017 -0.50514984 0.03857159 0.004689824 -0.4527464 -0.4547485 -0.027043352 -0.088839635 0.23758544 -0.4746976 -0.18956174 0.22673477 0.108750224 -0.3185422 -0.2519275 -0.2468554
立 -0.16760243 0.43061557 -0.11169213 0.00079732126 -0.21660289 0.490126 0.4829174 0.29028642 -0.036786154 0.2397662 -0.14443502 0.04784969 0.2317271 0.12859124 -0.03683075 -0.3045288 0.30891714 -0.2221702 0.34239343 -0.34206122 0.544456 -0.050564725 -0.15041688 0.7344467 -0.33239222 0.08751442 -0.19553585 0.13969874 -0.32985163 0.050452232 -0.29839334 -0.24704298 0.027901806 -0.15542461 -0.7910945 0.11607464 0.20526719 0.059853166 -0.06906328 -0.9074066 0.88141185 -0.052911248 0.69897485 -0.6013185 0.24451427 0.32871798 0.04407048 -0.15933283 -0.18088011 0.20687404
今 0.10644136 0.1016226 -0.131313 -0.22162804 -0.19728887 -0.006638879 0.45672706 -0.12336989 0.19872339 -0.010066988 -0.05401482 -0.02550657 -0.25456426 -0.18729636 -0.07269795 -0.10635092 0.43590432 -0.26360983 -0.17892447 0.04425908 0.43120944 0.094096996 0.22349867 0.3579022 -0.117854305 0.25550863 -0.132746 0.32075995 0.24185593 0.015039031 0.11399941 -0.23146541 -0.15875047 0.31801492 0.542372 -0.5505016 0.10228074 0.11996844 -0.30349985 -0.2074558 0.4216311 0.14517687 0.38496783 -0.45710424 0.17102343 0.08896317 -0.045621946 0.136338 0.026310151 -0.27065438
张 -0.12907511 -0.3404882 -0.06504491 0.023163881 0.097154155 0.5633034 0.29374298 0.047356617 0.11584452 0.0029697064 0.065009475 0.08641983 -0.2211733 0.13026454 0.17077738 -0.3568614 0.06845859 0.05446699 0.12816288 -0.030313602 0.29804027 0.078432046 -0.013796947 -0.089178294 -0.07908606 -0.0054212008 -0.12789391 0.07757439 0.11383294 0.013514544 0.06319561 0.092967056 0.023294562 -0.47638887 0.14762089 -0.47627702 0.16674292 0.13269636 -0.4473026 -0.4426834 0.27725017 -0.08989903 0.49191058 -0.32887745 0.600897 0.1548188 -0.18100914 0.26625952 0.19417517 -0.3253514
中 0.8218179 -0.7167009 -0.16670048 -0.1087291 0.29806992 0.80224574 0.5289605 -0.34935427 0.52719355 0.24558026 0.04467622 -0.07698944 0.48605287 -0.5009509 0.47608274 -0.6924418 0.2276662 0.19642752 0.50261486 -0.025301017 0.5433686 0.25213253 0.28024927 -0.64058053 -0.25904396 -0.066070005 -0.79059017 -0.7889637 -0.5236851 0.36339948 0.5136228 -0.03177862 -0.07064002 0.008578766 -0.6155904 -0.6531544 0.20578253 0.13516165 -0.24408685 0.110585 0.64396423 -0.04148668 0.38084838 -0.30136684 0.25131497 0.6389484 -0.44627646 0.2005036 0.39229175 -0.11402572
季 -0.19879718 -0.39624593 -0.18522328 0.0412803 0.13170439 0.5478958 0.3652137 0.14706258 0.07416752 0.24015391 0.1161795 0.13715076 0.17562935 -0.06260432 0.24817207 -0.2711281 0.38592914 0.030043425 0.45997804 -0.093559735 0.3933042 0.39600462 0.0146535095 -0.22644693 -0.34506673 0.10960482 -0.16161099 -0.22555554 0.08348251 0.06356467 0.19158688 0.3654929 0.111264415 -0.49569008 -0.46725342 0.10006064 0.39214 0.20024584 0.00066296663 -0.42413488 0.47117922 -0.008242148 0.43397853 -0.451881 0.44229147 0.30029008 0.0711821 0.3018506 0.009310887 0.14223464
臣 -0.29189628 0.074882925 -0.09510833 0.10058847 0.042862605 0.4603672 0.521895 -0.13501367 0.32761365 0.29875144 0.119480215 -0.020263325 0.0091151185 -0.05484517 0.06112361 -0.20761204 0.44324964 0.24902296 0.24665904 -0.101654984 0.33859342 -0.17008767 0.03244365 0.3154618 -0.31308115 0.29425937 -0.12929432 -0.25808343 0.17903502 -0.07230782 0.102085404 -0.13266581 0.02024406 0.03188054 0.3403324 0.20873727 0.06253703 0.07690632 -0.39891392 -0.48362553 0.52406955 -0.24765182 0.4254272 -0.27190033 0.32230723 0.10422171 -0.17478889 0.48648718 0.20833106 0.3057668
贤 -0.09592904 -0.24485192 -0.2037066 0.11781398 0.10981616 0.4183345 0.065579236 -0.07227312 0.29309198 0.12812044 0.096748225 -0.067655385 -0.12115814 0.08370952 0.26362398 -0.31410697 0.48281074 0.1843465 0.37613657 -0.020662395 0.102593295 0.05894264 0.01747525 0.5253317 -0.111356445 0.19879991 -0.27575353 -0.15001383 0.51441324 -0.20430891 0.2585592 -0.0029902216 -0.03635354 -0.26017663 0.032270446 -0.1533033 0.3977268 0.09649047 0.0129000265 0.2898485 -0.2095405 0.00304282 0.39665553 -0.4353574 0.34376273 0.4137374 -0.06148851 0.3955622 0.02613345 -0.034242675
思 -0.2302121 -0.1247451 -0.013538867 0.09816454 0.030247558 0.2417316 0.3860881 -0.16306992 0.53957814 0.13126825 0.15754804 0.14715002 0.40361723 -0.012559016 -0.009937767 -0.4241986 0.38227707 0.026661463 0.2560334 -0.03243783 0.14068806 0.03690225 0.17244495 0.23981453 -0.22645181 -0.00016448088 -0.2548697 -0.13163383 0.22529641 0.060550418 0.27447298 0.1594158 -0.09069504 -0.44743255 -0.25493404 0.035239734 0.41776994 -0.022156045 -0.03436313 0.28951493 0.11655028 -0.09121879 -0.033238705 -0.6187649 -0.013858618 0.07243951 -0.25653252 0.5318363 0.18062016 0.31176022
齐 -0.09025455 -0.49925482 0.4035622 0.23629794 0.041042753 0.40191993 0.6365883 -0.16456473 0.88017833 0.23169845 0.48540387 -0.1247614 0.6923314 -0.48273364 0.4473092 -0.57330483 0.08106457 0.11859384 0.5405581 -0.05482205 0.5332463 0.1562293 0.20193818 0.13488752 -0.4090359 0.06497322 -0.37149805 -0.7590514 0.82137954 0.23316455 0.33951697 -0.048322503 -0.30338347 -0.31064552 -0.5622354 0.5793547 0.55591804 0.5861025 0.789662 0.047518224 0.09449073 0.02513671 -0.28820476 0.81652224 0.6089362 0.08234123 -0.06465751 0.5736385 0.607449 -0.18718854
义 -0.42232466 -0.017560901 -0.1077091 0.14289069 -0.033942286 -0.14602014 0.52494097 -0.2184557 0.4428388 0.042521596 0.1800907 0.015960101 0.060657233 -0.13546027 0.07736324 -0.030216163 0.56982464 0.10771654 0.47927177 -0.09648612 0.2601704 -0.23321366 0.09969184 0.5237837 -0.27699408 -0.08599126 -0.11853156 -0.21385296 0.23666167 0.11862587 0.15494803 0.07351996 -0.33331528 -0.05084044 0.35274377 0.18817943 0.35882607 -0.06290148 -0.008357406 0.10644419 0.25822705 -0.08616529 0.038413163 0.23527345 -0.35003832 -0.16116245 -0.11676401 0.5315834 0.1926318 0.19776043
正 -0.20387194 -0.388648 0.06621421 0.2286135 -0.092582 0.26589224 0.3748943 -0.08780962 -0.057771735 0.018884184 -0.0031512838 -0.022435635 0.45692313 0.017050955 0.0016887067 -0.19007899 0.55714464 0.039205287 0.4137197 -0.15623797 0.032575265 -0.052942213 0.016506728 0.43073404 -0.43824014 -0.084421024 -0.31252554 -0.16932543 0.19172662 -0.07454593 0.04696987 -0.07910359 -0.18170601 -0.42215282 0.016730404 0.20434119 0.37880453 -0.09068797 -0.08966505 0.17261524 -0.05790544 0.11045135 0.13628846 0.34833717 0.33202982 0.032779716 -0.29081598 0.06881432 -0.19963346 -0.31545773
命 -0.55698156 -0.34264466 0.13157544 0.55162245 -0.5169646 -0.11588954 0.71438855 0.21602643 0.78249073 -0.31294233 0.33526275 -0.3308749 -0.10442006 0.3952106 0.5200881 -0.4864882 0.6753029 -0.04715256 -0.06598025 -0.55283386 0.07963883 -0.20539217 0.69906706 0.7705223 -0.463404 -0.2933955 -0.7199116 0.27699012 0.77344364 -0.48648775 0.72491515 0.17520559 -0.17399822 -0.890008 0.60157037 0.17315672 0.76649165 0.0040553934 0.1371915 0.75997466 -0.094196096 -0.09870293 -0.22600998 0.31956849 -0.22449207 0.33531025 -0.47093052 0.0065255975 0.094871506 0.49168694
曾 0.28718498 0.023889495 0.052933548 0.089659855 0.06287221 0.24863124 0.30500668 -0.0005721171 -0.486701 -0.07764824 -0.2367598 0.068442255 -0.4406782 -0.063547686 0.018456485 -0.2915993 0.41052863 0.045881357 -0.34110698 -0.38466462 -0.22795063 -0.14568037 -0.011378831 0.1848696 -0.13292302 -0.050853483 -0.3761287 -0.20959507 0.24744761 -0.15539634 0.36643568 0.15526004 -0.27860978 -0.26618618 -0.5397899 0.5431391 0.43008715 -0.032394625 -0.15572527 -0.4749983 -0.05547688 0.13214606 -0.0652069 -0.21868123 -0.5015558 0.10236929 -0.21754669 0.029207557 -0.0047245044 0.26699537
伯 -0.10328629 -0.4120036 0.022849448 0.1845716 0.114475265 -0.34965616 0.10207565 -0.04767764 0.39391923 -0.45163596 -0.11065653 -0.0015932535 -0.34023735 -0.18815604 -0.1542479 -0.25375822 0.5016169 -0.00943823 0.3055477 0.15176113 -0.20206383 0.4578416 0.06905702 0.20700265 -0.25648582 -0.46889964 -0.114877224 -0.52944815 0.48321167 -0.012442298 0.32582965 0.20142725 0.050154287 0.21585935 -0.50707823 0.4741645 0.4129211 -0.013754007 0.33127466 -0.5603215 -0.37920427 0.041131143 -0.101724766 0.47753277 0.057405114 -0.18604432 0.07393446 0.08084186 0.26668802 -0.40184426
门 -0.19400741 0.037201818 -0.42588502 0.04770216 -0.19544882 0.011066857 -0.029321166 -0.18495858 -0.18820666 -0.29086894 0.034801174 0.07699416 -0.47989768 0.30797663 -0.06445433 -0.07040333 0.50882214 -0.116198614 0.15297577 0.03825301 0.12967089 0.027494466 -0.12505038 0.5606913 -0.3841873 -0.3272631 -0.1917355 -0.1544704 0.36178315 -0.18295354 0.08904835 0.33966523 -0.050157677 -0.3761557 -0.45664865 0.23988174 0.11510431 -0.37523514 -0.047549568 0.538442 -0.25695407 0.16430977 -0.27827582 0.18324472 -0.3204067 0.04478311 0.03743289 -0.009120708 -0.14136107 0.07436697
敢 -0.019996278 -0.28476876 -0.16843162 0.22027084 -0.008533809 -0.08840437 0.06908804 -0.015018318 -0.030934691 -0.21860063 -0.11222438 0.06511787 -0.21380226 -0.04853164 0.15101369 -0.21945563 0.44333988 -0.16742808 0.3532495 -0.1507525 0.109218806 -0.11230396 -0.104668885 0.55355114 -0.21612506 -0.45588422 -0.19484894 -0.369151 0.34235862 -0.48785856 0.19744174 0.09465065 0.06965843 -0.4923106 -0.56591034 0.5250718 0.28355476 -0.24046688 -0.27874786 0.061232083 -0.2788658 0.14606144 -0.10870658 0.21238345 -0.33313096 0.072508134 -0.0070052696 -0.13296393 0.024775293 0.098006025
犹 -0.7797891 -0.64381045 -0.046969872 0.35340253 -0.062270585 -0.04794569 0.08562667 -0.4149694 -0.08216367 -0.25441626 -0.020173691 0.011901068 -0.6454004 0.34531018 0.17906871 -0.191458 0.28189492 -0.14805025 0.079759315 -0.0654985 0.27755642 -0.41089278 -0.15574779 0.5412646 0.1709219 -0.288206 -0.40001115 -0.09142738 -0.7026315 -0.5895471 -0.10731916 -0.29964235 0.20345923 -0.7631764 -0.12171242 -0.11233557 0.09245368 -0.17635368 -0.70123357 -0.07889524 -0.0586244 0.326598 0.061291184 -0.031953085 -0.47229975 -0.03549908 -0.21455486 0.33552366 -0.1349237 0.043293916
生 -0.36699265 -0.3744848 -0.22232005 0.06660252 -0.12181547 -0.18058066 0.0289523 -0.005859478 -0.088191606 0.20334847 -0.08793355 0.31867236 -0.47542447 0.12811913 0.050112665 -0.35356623 0.35524556 -0.22466289 0.06793376 0.075029865 0.08552504 0.09419494 -0.11228694 -0.066278 0.37659204 -0.3371467 -0.42483422 -0.26061857 -0.21216199 -0.4963059 -0.07672078 0.3508051 -0.0021030146 -0.4080023 -0.5513118 0.30482894 -0.32163924 -0.14216065 -0.4077221 -0.07968014 -0.21071412 -0.021080952 -0.0564705 0.5046494 0.06999616 -0.24086751 -0.13169558 -0.07178605 -0.042936176 0.008327253
日 0.059041306 0.3626463 0.04358919 0.12086625 -0.20142037 -0.29968318 -0.02790931 -0.4530189 -0.31859553 -0.1228399 -0.13510163 -0.08574788 -0.41110623 0.071109965 0.25153178 0.06740038 0.27204695 -0.15006927 -0.24927616 -0.21408215 -0.044213213 0.4152489 -0.009003127 -0.09177813 -0.052630696 -0.17805651 -0.5002014 -0.5351149 -0.0947756 -0.4695489 0.2739544 0.34376612 0.10029457 -0.101143844 -0.51809955 0.46959284 -0.20401937 -0.14811043 0.0074099787 -0.5081309 -0.40363798 0.19971016 -0.17973499 -0.4722905 0.20516495 0.3090359 0.3701779 -0.3479235 0.026637677 0.49398163
敬 -0.18981133 0.12184351 -0.2861312 0.43615842 -0.2730239 -0.25293815 0.011973172 -0.72907436 0.09519336 0.2483827 0.3504992 0.30933985 -0.72232264 0.07663029 -0.0076121544 -0.38811198 0.22674617 -0.18926056 0.2315865 -0.08905302 0.5681614 0.09665351 -0.71714103 0.21141696 -0.31742525 -0.31210044 -0.0688113 0.13825378 0.038980383 -0.63792217 0.046354324 0.49366936 0.02067109 -0.9178601 -0.5596281 -0.3054411 -0.00041659968 -0.48389745 -0.73096704 0.8732448 0.19430114 0.32371315 0.49686682 0.741904 0.8237879 0.25267905 0.1475992 -0.2362014 -0.2745543 0.17768015
难 -0.38487044 0.47899452 0.07435422 0.030517146 -0.32348403 -0.051285535 0.045475114 -0.45089766 -0.28330436 -0.15725823 0.33840948 0.18872207 -0.04403334 0.042943567 0.058146764 -0.115625 -0.049921326 -0.084894724 0.22582233 -0.0028764885 0.07852483 0.005935114 -0.49800766 -0.2004862 0.05657921 -0.15285957 0.033278134 0.5147107 -0.33057037 -0.1744892 -0.0958774 -0.37975997 -0.12683724 -0.2397191 -0.36284822 -0.33256835 -0.07099277 0.11617199 -0.27264124 -0.17359117 0.2757079 0.11156771 -0.11310882 0.45830783 -0.4208106 0.08010675 -0.12630235 0.0022900142 -0.017712539 0.47617728
直 -0.25872102 0.3305319 -0.19229399 0.05420666 -0.3796329 -0.20743202 0.21785733 -0.39010468 -0.15131761 0.022529727 -0.19454755 0.029353034 -0.39843532 0.14468855 0.056850832 -0.21979477 0.05805629 -0.2413797 0.40658292 -0.11585843 0.2228131 -0.12522912 0.036466327 0.17464574 0.057339903 -0.1918517 -0.2990978 0.5020107 -0.003598366 -0.5662051 -0.12995107 -0.26988357 0.047962755 -0.30000198 -0.5192388 -0.42470163 -0.083531834 0.0072378167 0.04534759 0.026266566 0.03252389 0.111027315 -0.17008924 0.5337468 0.3232705 -0.09748341 0.08859853 -0.2896816 -0.10903477 -0.11476819
丧 0.031793114 0.46017134 -0.13620345 0.18151648 -0.48804203 -0.21498606 -0.042781327 -0.20730999 -0.37353092 0.4729867 0.10702063 0.34837824 -0.023021992 0.11527658 0.35817668 -0.15358827 0.11926035 -0.09690965 0.3117408 -0.14927131 0.29235587 0.30957347 -0.29604605 0.35689965 0.2579739 0.03359038 -0.038123082 -0.1363821 0.009784844 -0.5275206 0.13512023 -0.34555763 0.099921525 -0.44034562 -0.49610382 0.24308927 -0.3345947 0.04064019 -0.43323177 -0.5235582 -0.08987124 -0.08783997 -0.21251619 0.49463063 0.56430054 0.15532184 0.14901865 -0.2927262 -0.011500972 -0.25830665
说 -0.05173093 0.11922441 -0.11915971 0.09664034 -0.54530036 -0.3220551 0.18018408 -0.37483257 -0.025486538 0.12940262 0.39103308 0.026887389 0.14379932 0.09897492 0.3906633 -0.18740043 -0.021181103 -0.35321233 -0.0022545625 -0.07797426 0.22412011 -0.4677528 -0.17578305 -0.26359436 0.22232743 -0.05861119 -0.43796077 -0.50937444 0.015933646 -0.5230658 -0.0969465 -0.040324792 0.20976943 -0.45639107 -0.48618284 0.0027905023 -0.013556076 0.060804527 -0.4829697 0.09211379 -0.32630432 0.08036642 -0.25279278 0.16745844 0.45584837 0.158675 0.25388604 0.029890176 -0.00970058 0.050909292
自 -0.55390596 0.21525879 -0.12946983 0.18334827 -0.67154133 -0.19627789 -0.3298592 -0.38369295 -0.18089384 -0.11418127 -0.04594315 0.2540346 0.5511268 0.0015761409 0.5714615 -0.35884565 0.26999038 -0.19089715 0.41997704 0.102081016 0.39404655 0.33692923 -0.5812795 -0.34332204 -0.4749255 -0.019201903 -0.023806086 0.054795355 -0.29129225 -0.9105135 -0.021921793 0.09389519 0.053888697 -0.4469553 -0.5501733 0.7336935 -0.049142033 0.21626171 -0.68470925 -0.19534318 -0.36459872 0.018415783 -0.07607509 0.5099358 0.82947654 0.40236536 0.58669615 -0.5112409 0.053385623 0.27598223
用 -0.2767687 0.32803535 -0.01747905 -0.042412147 -0.46272573 0.01560289 0.31231308 -0.30151433 0.18676682 0.08751945 0.39186063 0.20961955 0.0060676252 0.18918864 0.17567043 -0.26171792 -0.11161605 -0.28212208 0.50028723 0.173914 0.021674166 0.24965459 0.1306569 -0.031423792 -0.24836002 -0.025999531 -0.13465798 -0.3889489 0.07183325 -0.31069615 -0.22125825 -0.16544205 -0.18832116 -0.41805705 -0.50092006 -0.3996604 0.25238347 0.23671855 -0.5145848 -0.3990547 0.17213048 0.0130254915 -0.10984984 0.5159805 0.29331663 0.102578305 0.117088504 -0.055098023 0.112146445 -0.42741448
周 0.44439787 0.25025976 -0.28675348 -0.13102761 -0.36972183 -0.3089008 0.15238465 0.19236158 0.013385639 0.055581596 0.025846727 0.03584688 -0.09608585 -0.06445865 0.09491531 -0.33874935 0.24609973 -0.016562108 0.48517764 -0.08174519 -0.45183632 0.042260062 0.039093934 -0.39419314 0.21298264 -0.024863169 -0.45505401 -0.5274362 0.22890815 -0.47928944 -0.138643 -0.016444787 -0.17583892 -0.39975333 -0.46993008 0.03732959 -0.0057588136 0.08418284 -0.29476497 -0.52131414 0.1321806 -0.114537805 -0.0038051927 0.42292824 0.453797 0.14254877 0.12889805 -0.20759016 0.14297633 0.1789404
颜 -0.61395025 -0.3492019 0.45519045 -0.025765382 -0.52946043 0.058656454 0.25184754 -0.35023785 0.48615596 0.14953336 0.012545298 -0.30780062 0.56577545 0.3100729 0.15620823 -0.5954577 -0.084655985 -0.17554998 0.47005537 0.12828787 -0.1673065 -0.43036282 -0.47408864 -0.2363222 0.31733668 0.23334919 -0.3391683 -0.3221994 0.71886855 -0.699748 -0.20403077 -0.38873222 0.4932054 -0.8179844 -0.19733247 0.20057507 0.22512579 0.34911925 0.21082357 -0.04754462 0.14416151 -0.17399709 0.11995722 0.38710493 0.7013726 0.4998481 -0.10341179 0.21535422 0.23261338 -0.39028403
年 0.120468855 -0.34790525 0.077953726 -0.2761009 -0.04478109 0.06745906 -0.33174503 0.17054054 0.25878328 0.07925017 -0.45817333 -0.14913487 0.46088925 -0.47585487 -0.14650625 -0.22438905 -0.2135172 0.5375551 -0.028046196 0.36645502 -0.44770437 0.24717076 0.021030046 -0.48710716 0.17575076 0.36216283 -0.2751764 0.11004642 -0.31160063 -0.18111326 -0.44972628 0.4933661 0.31162414 -0.30308565 0.048707377 0.32259548 -0.5112176 0.028273128 0.043677438 0.19437933 0.451842 -0.4819598 0.29897234 -0.29093328 -0.010983904 0.3300705 0.32432726 0.27306694 -0.036552746 0.4365749
告 0.12910622 -0.32124746 0.11041671 0.07926362 -0.18425617 -0.21867923 0.025817094 -0.057160914 -0.4706764 -0.06471032 0.06239989 -0.037635762 0.11759146 0.036625564 0.11838692 -0.15179898 0.107894234 -0.31069848 0.26033914 0.19115631 -0.43736857 0.3914766 -0.41076428 -0.25818482 -0.23451632 0.025256662 -0.26935357 -0.26439327 0.33982432 -0.36383903 -0.20591028 0.16614747 -0.033045724 -0.47473836 0.09224369 0.182613 0.47131744 0.061076093 0.17748888 -0.49728036 -0.20387675 0.06502041 0.010259036 -0.17283772 0.5432437 -0.18147181 0.059441093 0.027311105 0.036675744 0.10587578
十 0.500155 -0.0028977264 -0.13831265 -0.30097863 -0.30238882 -0.0511472 0.021243762 -0.06976089 0.066877104 -0.3439174 0.25850722 -0.32405323 0.49833024 0.07875637 0.10693885 -0.29724824 0.08559364 -0.22072679 0.09368188 0.18727149 -0.4808715 0.16789627 -0.3110592 -0.18111661 -0.08761796 -0.107606485 -0.26115575 0.14433044 0.47444195 -0.15904595 -0.078110516 0.32235593 0.06384064 -0.10176891 0.38270482 0.15450539 0.49034932 0.0726262 0.10391375 -0.0065866522 -0.12323784 0.003818804 -0.09750418 -0.31512538 -0.09607962 -0.07215428 0.0790822 0.13485242 0.15228213 0.21315248
怨 0.13862513 -0.41339475 0.19856726 -0.026211588 -0.18395925 -0.12824368 -0.10490637 -0.03333582 0.38730037 -0.021571737 0.20941669 -0.02876832 0.44288424 -0.03583668 0.22408465 -0.38587627 0.25640768 -0.28233543 0.29445973 0.29876685 -0.41484654 0.06816461 -0.45756984 -0.43998635 0.07366138 -0.05403685 -0.18889797 0.5772052 0.16815662 0.31072053 -0.14485098 -0.21300149 0.017698959 -0.4345995 0.2784926 -0.14602171 0.19388865 -0.06293966 -0.36377624 -0.4121284 -0.5073675 -0.02276212 0.105089664 -0.26593712 -0.16456416 -0.032299817 -0.23223774 0.027164955 0.11159746 0.37630713
达 0.31437328 -0.49935192 -0.15989679 0.06002427 -0.120222874 -0.42246667 -0.27750525 -0.2453853 0.54806477 -0.007539832 0.35689098 -0.36249334 0.676779 -0.056085315 0.08514886 -0.54188675 0.018642409 -0.17420128 0.2076386 0.13043669 -0.29861122 -0.10195436 -0.42821455 -0.48272684 -0.09101572 -0.0367074 -0.5011209 0.65759593 0.32488987 0.21877536 0.27251476 0.34570006 0.07806312 -0.58104646 0.30021665 0.47834536 0.4861179 -0.19891037 -0.10537205 -0.38000435 0.9079855 0.12298292 -0.041566715 -0.5646623 0.016605854 -0.11724585 -0.048654135 0.32136416 0.34496814 0.83764464
孝 0.25190294 -0.44001532 -0.059002504 -0.21501714 -0.26004118 -0.24495745 -0.059428036 0.027237276 -0.13792102 -0.07607528 0.30588308 -0.042371504 0.14663936 0.07490672 0.07410235 -0.017926846 0.10367458 -0.06543446 0.06856311 0.1551345 -0.08905037 0.14506026 -0.49178836 -0.31228963 -0.14252362 -0.11217186 -0.054051302 0.4607058 0.34641966 -0.26125568 -0.006823728 0.20893827 0.011800671 -0.50799006 0.47228143 0.23753542 0.20260501 0.1948292 -0.49187967 -0.23391312 0.33119738 0.36362746 0.11503066 0.03339637 0.40766078 -0.18957512 0.07570932 0.38153604 -0.055667616 0.4014454
弟 0.44866684 -0.44710094 -0.08669968 -0.16871592 -0.08322526 -0.2989751 -0.14046854 0.008947205 -0.022934038 -0.15030558 0.31082046 -0.364544 0.44701147 -0.09686058 0.17628108 0.10080522 -0.09500495 -0.14576145 0.21015826 0.24152988 0.16156955 0.056489635 -0.45478055 -0.24400806 0.3225771 0.054077484 -0.14375365 0.5222678 -0.06475642 0.14905918 0.097126976 0.46049818 0.1679253 -0.044227634 0.11929906 0.16169386 -0.073725745 0.092175655 -0.09688067 -0.4975403 0.42075777 0.39829537 0.3089827 -0.4280751 -0.51974446 -0.33471048 -0.060146883 0.187674 -0.4051199 0.5282306
至 0.53758925 -0.26088372 -0.6899713 -0.29197088 -0.53604335 -0.1008503 0.025216376 0.11450766 0.0773663 -0.59320277 0.4218695 -0.054271773 0.81487596 0.06752141 -0.00090909033 0.02312742 0.78931814 -0.092347845 0.16929182 0.3333679 -0.36119092 0.07393664 -0.87787455 -0.65418047 -0.2732566 0.13745517 -0.5337449 0.74834687 -0.32836816 0.1906143 -0.12976581 0.03116474 0.065131634 -0.8180601 0.7697284 -0.19736435 0.7101688 -0.22270095 -0.120699964 0.32799822 0.19529952 0.33687568 0.56167555 -0.54668987 0.6049699 -0.575533 0.06460648 0.13978685 -0.14726374 0.780513
先 0.38145047 -0.30875263 -0.18596485 -0.2139018 -0.3594109 0.22311738 -0.11194248 0.005609332 -0.061590325 0.12031603 0.2017834 0.14379536 0.44103804 0.09181296 0.104475416 0.4516226 0.35800028 -0.059168622 -0.103688195 -0.060483173 0.33131167 0.2985494 -0.124440804 -0.43933845 -0.017393295 -0.07471635 -0.4315295 0.48829257 -0.3489255 0.16329555 0.18938059 -0.014695435 -0.11384831 -0.36291957 0.41912472 -0.30593076 0.06283532 0.034658235 -0.05784877 -0.32850584 0.4215538 0.3205902 0.3623427 -0.43184155 -0.163117 -0.42351323 0.03683128 0.10657908 -0.22022986 0.43401173
师 0.36877954 0.15370552 -0.21214382 -0.0856022 -0.08795511 -0.031236116 -0.09802256 -0.23262216 -0.27419794 0.08536724 0.055232067 -0.046226785 0.4874704 0.3204827 0.041690543 0.22403486 0.331967 0.025411641 0.056767914 0.18474083 0.11238827 0.24266768 -0.42674202 -0.2725756 0.3751498 0.08126316 -0.19648524 0.51953614 -0.097684 0.045431565 0.13021861 -0.1526487 -0.29472038 -0.4658623 0.47930977 0.27388218 0.005230163 -0.03976587 -0.23554061 -0.47431844 -0.0639915 0.42846328 -0.08030714 -0.37536255 -0.12545104 -0.055911593 -0.085803844 0.12755984 -0.16296709 0.3531291
女 -0.11977892 0.31227648 -0.23394896 -0.2123546 -0.24700992 -0.10454263 -0.13460748 0.019623565 -0.06893844 -0.106985345 0.09618535 0.015691934 0.44098145 0.15759629 0.13759358 0.5550277 0.38049608 0.045161206 -0.029903762 0.05493452 0.19943394 0.24102151 -0.45941216 0.0474367 0.32833964 0.051759847 0.16107973 0.5655481 0.5566429 0.13614564 0.02560258 -0.26167557 0.12118123 -0.38427037 0.42277837 -0.13618143 -0.09293566 0.173112 -0.22275706 -0.43872637 0.14454758 0.49326667 -0.008038971 -0.46953115 0.3889584 -0.17489235 0.1382023 0.18208952 0.0962094 0.3653043
多 0.51312083 0.37394765 -0.008843889 -0.25965774 -0.27453926 0.22564739 0.0815398 -0.22950134 -0.025102131 -0.035588525 -0.14213747 0.14625412 0.18866435 0.07284488 0.02344396 0.44563702 0.47330156 -0.0044126855 -0.14449973 0.27991068 0.2595635 0.08866738 -0.44513327 -0.48927313 0.16349714 -0.09380838 -0.048989356 0.21319573 -0.4330688 0.30121276 0.22919331 0.21130554 -0.023455862 -0.3735227 0.48718357 -0.45160878 -0.12894332 -0.13172188 -0.2773923 -0.2300643 -0.073942415 0.37640256 0.09858833 -0.41790426 0.2318424 -0.05191359 0.1731509 0.116576925 -0.03328851 0.20897865
忠 -0.37709722 0.4604359 0.30760238 0.15923738 -0.6279619 0.585738 -0.47549835 -0.441302 -0.068598256 -0.4735287 0.0537832 0.39242262 -0.42956892 0.035491552 -0.27820623 0.5563215 0.9408084 0.15706389 -0.32992125 -0.1881087 0.44367665 0.60756415 -0.6636357 -0.20276874 -0.42538536 -0.14057073 -0.18152997 0.27644035 0.15346909 0.5669206 0.6898545 -0.135842 -0.077464946 -0.92005014 0.6334556 0.12480723 -0.06670264 0.1319692 -0.5606984 -0.011594018 0.33009446 0.72536194 0.14746238 -0.5439312 0.0143518755 0.022697838 0.035805225 0.33646846 -0.41278479 0.71379215
四 -0.3216654 0.31317213 0.04592845 0.043244194 -0.2524269 0.4433831 0.13664609 -0.25326818 -0.22094174 0.13969357 0.003995466 0.07143455 0.18332553 0.14360857 0.047500543 0.45913395 0.4419634 0.12870188 -0.13168217 -0.29142377 0.090021886 0.14273359 -0.31447402 0.09797925 -0.19048344 -0.024118373 -0.1498182 0.36744544 0.39245543 0.15281403 0.1321632 -0.22459973 -0.02967918 -0.14513102 0.18955843 0.04468992 0.07676754 -0.11702634 -0.10609205 0.08797726 0.05475544 0.33645567 0.17247765 -0.38054985 -0.50342816 -0.05892388 0.083416015 0.22562362 -0.003297302 0.24024068
疾 0.015608327 0.4650289 0.11345802 0.26865792 -0.35775328 0.39089015 -0.13134663 -0.2956276 -0.19131696 -0.026024276 0.11704194 0.09897975 -0.19247289 -0.04543487 -0.02938712 0.4144199 0.4122524 0.04879641 -0.19785249 -0.2430279 0.030620756 0.020082183 -0.36170888 0.2629731 0.11984974 0.043557882 -0.4909654 0.4875825 0.112191446 0.17802452 0.22532259 -0.13836913 -0.1216083 0.093023404 0.5062104 0.4206363 0.18735944 -0.0045216787 0.008277058 -0.07499811 -0.0023490193 0.28192547 -0.12568153 -0.4075423 -0.1912123 -0.019160638 0.17689246 0.002566338 0.018324602 0.3395921
服 0.07686353 0.5969991 -0.4735457 0.019245347 -0.351955 0.27036875 0.27142057 -0.17452404 0.27109417 0.25704387 -0.11316866 0.4968188 0.7119511 0.050157905 0.46756375 0.8836636 0.14090608 -0.22015104 -0.18171169 -0.20266202 0.54541284 0.021417843 -0.66635686 -0.6872275 0.31903952 -0.3713362 -0.30893436 0.9798941 0.19555813 0.30151832 0.15354662 0.32564783 0.24847046 -0.73919135 -0.4093508 0.2879978 0.24247141 -0.08178086 -0.6023355 -0.40947783 -0.36467502 0.2868537 0.06011879 -0.92503726 0.27098513 -0.10794076 -0.12106056 0.16195749 0.34814963 -0.032609798
氏 0.45647487 0.5040236 -0.10873508 -0.03277959 -0.3486639 0.26193514 0.21658863 0.018871997 -0.08104423 -0.06890727 -0.30645293 0.20881423 0.14543901 -0.1641026 -0.09623882 0.4775672 0.33636066 0.03170945 -0.18004096 -0.15738872 0.2359767 -0.24365707 -0.29218915 0.5147962 0.3255426 -0.29754558 -0.13901457 -0.39383098 -0.43273517 0.25965312 -0.23662086 -0.07582235 0.29847455 0.0034787124 -0.530406 0.35882723 0.3267448 -0.03665269 -0.12287354 -0.39196512 -0.22699396 -0.034048315 -0.18352528 -0.33209583 0.22737055 -0.062412616 0.022655664 -0.33452845 0.12486075 0.19663127
冉 0.37112522 0.49327546 -0.16877258 0.12131009 -0.028444279 0.35162145 0.3873377 -0.07363027 -0.2879769 0.23781674 0.03713862 0.07856502 0.47919136 -0.12878866 0.11248619 0.37373018 0.31971955 -0.11963313 -0.16843107 -0.22374587 0.09283606 -0.12274181 -0.019596856 0.52239376 0.13827723 -0.22250438 -0.17199676 -0.11000937 -0.24168397 0.1616739 -0.1324122 0.009897184 0.41222903 0.2623433 -0.2896176 0.48619467 0.3532828 -0.05549082 -0.26997095 -0.33082777 0.037060045 0.119308926 -0.13802288 -0.39905638 -0.01688195 -0.2800455 -0.0041905227 0.06325757 -0.044832006 0.27793527
将 0.4457199 0.4171632 -0.3353533 0.41093904 -0.4629288 0.40255874 0.49453303 -0.47884342 -0.39080074 0.0017817423 0.3256653 -0.05619058 -0.37591875 -0.40996042 -0.14978184 0.48894012 0.50994635 -0.041641034 -0.45052803 -0.34877393 -0.34339193 -0.42067778 0.2797375 0.38241604 0.3195562 0.3691415 0.01003843 0.54137176 0.30891585 0.19096436 0.4280308 -0.013371102 0.28404942 -0.3620566 0.17942192 0.25703844 0.5022691 -0.41087687 -0.35938433 -0.43939328 0.23792109 0.24694735 -0.37762493 -0.3604431 -0.39596155 -0.5066806 -0.08624387 0.15483512 0.2078357 0.3273233
士 0.52989644 0.30117655 -0.009484577 0.34206724 -0.2930947 0.47240707 0.03943634 0.4163673 -0.014846722 0.021569163 -0.36087698 0.376575 -0.0897824 -0.2842402 0.2844357 0.41686633 -0.42377132 -0.3627645 -0.012844308 -0.23777287 -0.17008151 -0.33903107 -0.33419928 0.47103617 0.25374696 -0.08490638 -0.3990747 0.41067165 -0.3738104 0.32552478 0.024384275 0.3588176 0.0772415 -0.50900495 -0.4353668 0.37981594 0.3954322 0.059636407 -0.0004042806 0.03095954 -0.39287204 0.3196785 -0.027844926 -0.46084595 -0.3877033 -0.48345506 -0.11541777 0.045796074 0.012510321 -0.3519541
丘 -0.5397899 0.98530036 -0.58268285 -0.08823696 -0.21666712 0.06289721 0.1481845 -0.261734 -0.6252864 0.43330267 -0.23426463 0.26165473 0.43487483 0.030860925 0.020199083 0.88030523 0.35977626 -0.34335408 -0.124203846 -0.33599907 0.2592329 -0.45622244 -0.17311427 0.26256627 -0.34918535 0.18634537 -0.60790795 -0.82426804 -0.5324753 0.14326093 -0.07918925 0.3722571 0.39085132 -0.16536705 -0.628994 0.54370505 0.7798045 -0.17595923 -0.037237614 -0.21293987 -0.14734234 -0.06337261 0.028323827 -0.64508647 -0.25481227 -0.5584337 0.13928795 -0.22537194 -0.10476008 -0.057818525
身 -0.018584546 0.43585742 -0.21347083 0.110191785 -0.18094309 0.11239649 0.2263216 -0.18434711 -0.084358566 0.27716762 -0.37890202 0.12558722 0.060489625 -0.29110843 0.1374274 0.44388333 0.08642637 -0.41944036 0.077053316 -0.17950238 -0.2362177 -0.4396188 0.023595544 0.14474443 0.30637679 0.04020997 -0.29462138 0.11981358 -0.4196776 0.07029204 -0.37136158 0.31355348 0.038786385 -0.08103281 -0.5367068 0.42115265 0.47084326 -0.23933539 0.45604777 0.13256934 -0.10941241 -0.18248418 -0.16973354 -0.09461847 0.44653156 -0.42408895 0.20842858 -0.0050279372 0.25589484 0.071834646
入 -0.092080265 0.27953064 -0.22770835 -0.0019488205 -0.041071106 0.07559635 0.058917344 -0.14942288 -0.051760796 0.36172587 0.115595415 -0.014073856 0.48692423 -0.024549583 0.0397194 -0.064223066 0.081549644 -0.15326944 -0.043773465 -0.0944065 0.17737013 -0.4151131 0.048782885 0.5951382 -0.179108 -0.005275498 -0.09598811 -0.22035015 -0.13449179 0.07449505 -0.17532009 -0.030650923 0.1455278 -0.1874911 -0.44250408 0.18762523 0.30092764 -0.27533203 -0.03741732 -0.30025408 0.040416162 0.034214016 -0.013815028 -0.3312748 -0.127026 -0.46852884 0.05331388 1.0557473e-05 -0.13283868 -0.043353185
志 0.31672117 0.6634848 0.33631137 0.37248245 -0.40416306 1.0271046 -0.02370554 -0.8563118 -0.017151453 0.13121733 0.0034813664 0.5787363 0.75109696 -0.49944443 0.23539108 0.82439125 -0.74915236 -0.69521636 -0.50346404 -0.3094108 -0.113162845 -0.1568252 -0.2565426 0.71818286 0.03867769 0.30115145 0.011812615 0.10373477 0.19792403 -0.36384353 -0.5881454 -0.48281363 0.3332803 -0.9028934 -0.66722065 0.3160627 0.8420224 0.47700766 -0.597687 0.26586354 -0.29328385 0.37394693 0.009744698 -0.86829764 -0.3183933 -0.58258295 0.24544291 -0.39564613 -0.35684076 -0.7218083
耻 0.095183596 0.55899686 -0.44329405 0.11852864 0.089503534 0.24421147 -0.112831794 -0.37630528 -0.4646411 -0.115384854 -0.18282649 -0.030195493 0.41020468 -0.21314776 -0.08321896 0.4800618 0.118123464 0.10329235 -0.014608836 -0.103393935 -0.10132764 0.4511881 -0.21534118 -0.50557214 -0.46911266 0.14900962 0.13296951 0.3999977 -0.18680939 0.14300492 0.3528812 -0.119928166 0.18690272 0.13974026 -0.15751038 0.36524692 0.40981528 -0.1501388 0.24724519 0.52411056 -0.062740214 0.050048903 -0.23854601 -0.45744693 -0.50803125 -0.4544107 0.2679046 -0.10661638 -0.14956869 -0.16263679
失 -0.36126265 0.40743944 -0.03520642 0.17038578 -0.28312328 0.4178511 0.09644112 -0.004957837 -0.01986319 0.2562399 0.029890744 0.09478072 0.21438803 -0.16877262 -0.17128389 0.47664797 0.06835799 -0.1749213 0.21592155 0.20201883 -0.03568021 0.10496375 -0.20168847 0.43717507 -0.24836124 -0.07433268 0.13757949 -0.550798 -0.42206046 -0.06615652 -0.37435457 -0.06552848 0.14742424 -0.38976765 -0.3009061 0.33626217 0.39861086 0.007516067 0.47566968 0.41833153 -0.36185098 0.10808385 -0.024091408 -0.41951635 0.19649045 -0.5045102 0.055414435 -0.14696927 -0.016008168 -0.2750961
安 -0.512372 0.52963275 -0.101642825 -0.014383554 -0.051459838 0.30843562 0.0044574067 -0.100161515 0.24873938 0.24292532 -0.15633641 0.008727135 0.39723685 0.14440098 -0.23437499 0.4926116 -0.24863355 -0.11424632 0.041411713 0.07055926 0.09775938 -0.21321447 0.038522765 -0.4188192 0.03469128 0.12469816 -0.17780231 -0.37991577 0.0067229792 0.2038799 -0.20279363 -0.24573597 -0.11821472 0.28267708 -0.5454457 -0.45310804 0.12627198 -0.20243065 0.25094584 0.3650963 -0.10272914 -0.08462388 -0.16503952 -0.5046952 0.49161145 -0.3210227 0.06676282 0.009815909 -0.03807742 -0.31823862
富 0.4849294 0.42062166 -0.0014867701 -0.024172673 -0.19498515 0.39691806 0.20734343 -0.075504474 0.48893857 0.22434117 0.10267774 0.06607228 0.35208955 0.07232622 -0.40070453 0.391352 -0.09974947 -0.04243502 -0.07502337 0.14651644 -0.03065499 -0.20520605 0.09304469 -0.26921508 -0.12639868 -0.055767663 -0.15501551 -0.40655804 -0.10181196 0.22039285 -0.32055292 -0.21541032 -0.28537792 -0.20088887 -0.457287 0.19375291 0.0046748454 -0.09235811 -0.4300266 0.29990563 0.0044503817 -0.082326025 0.060054425 -0.39735237 -0.17278212 -0.22438753 0.05515856 0.119804785 -0.10690768 -0.25965938
赐 -0.11060829 0.8299823 0.039763182 0.68301857 -0.35817832 0.3497606 0.007114703 0.10043857 0.27538168 -0.3876779 -0.1331195 0.22196154 0.59005934 0.12423233 -0.46196228 -0.48381013 -0.25296065 -0.154122 0.15977614 0.33858553 0.1895323 -0.039144866 -0.1997109 -0.2053668 0.30098942 -0.24429992 0.34196684 0.31608418 -0.38685483 0.09540222 -0.23989275 -0.40094668 -0.107064284 -0.73842627 -1.0566461 -0.5002116 0.10413219 -0.40529987 0.23289573 0.20598625 -0.5429855 -0.091957025 -0.046844486 -0.6080199 0.6644313 -0.42930812 0.24572663 -0.0027925246 0.19237939 -0.4339087
患 -0.18225968 0.48551586 -0.09538347 0.25164396 -0.2924391 0.12182076 0.22620924 -0.013285866 0.4254427 0.08579685 0.26219577 0.13171202 0.48665267 0.20192784 -0.2594169 0.14413407 -0.20687748 -0.22343424 0.27035904 0.41558677 0.12717634 0.07855503 0.08060338 0.019177567 0.12790224 0.11787279 0.4280208 -0.0029961101 0.40384004 0.04706912 -0.098675 -0.15345787 -0.15336017 -0.061793413 -0.44961503 -0.4546731 -0.038768478 -0.36304477 0.48190245 -0.35819247 -0.11323428 -0.10553544 -0.073055685 -0.45247954 0.46190697 -0.36043698 0.11271299 -0.09416464 0.13067275 -0.32189405
百 -0.43335047 -0.022580532 0.035761587 0.30125394 -0.121793 0.2213904 0.30355245 0.2391926 0.05539369 0.10592266 0.07047201 0.22170852 -0.11716603 0.15504763 -0.030764561 -0.32149637 -0.22382748 0.0014886281 0.061636854 0.35112637 0.30252507 -0.13734631 0.08891023 -0.30553597 -0.05918558 0.20401439 0.36563647 -0.10947264 0.3808163 0.10003969 -0.019744636 -0.1302394 -0.15467879 -0.32549965 0.5519986 -0.55515623 -0.100969754 -0.41571948 0.33147424 0.09617481 -0.04228542 -0.22413509 0.18015711 -0.3423187 0.58834726 -0.11500332 0.010524188 -0.11546595 0.15319943 0.006174485
回 -0.18382566 0.28831682 0.26736945 -0.27560243 -0.47129256 0.8411039 0.6529255 -0.11359551 0.15383121 0.5448566 -0.18196446 0.015287862 -0.015468809 0.75940335 -0.23438284 0.29995635 -0.040505096 -0.11531465 0.4675407 0.20260678 0.06970279 -0.6089772 -0.006417946 -0.18530603 -0.938881 -0.026579618 0.07143645 -0.8179946 0.40897045 0.36038062 -0.4016436 -0.30798003 -0.3130218 -0.053998098 -0.6054749 -0.7085505 -0.38896403 -0.4602912 0.3050636 -0.15845063 0.055536214 -0.3693189 0.1534168 -0.73138434 0.4323856 -0.29809827 0.37855935 -0.10569951 0.030750213 -0.19920874
宰 0.43321025 0.35480675 0.207577 0.11333841 -0.1911101 0.49608445 0.31816065 0.10979598 0.33037353 0.021101424 -0.12112598 -0.023352774 0.4048815 -0.10018767 0.19574842 -0.20825897 -0.32120934 -0.16449806 0.2525768 0.2206403 0.23907112 -0.48759043 -0.08309658 -0.066100426 -0.27482757 0.06011014 0.15113486 -0.2509024 -0.055186927 0.123164214 0.26994663 -0.021318834 -0.18949594 -0.1240001 -0.12993559 -0.3835282 -0.038463995 0.02246901 0.38843966 -0.48437414 0.14396086 -0.01802676 0.13737798 -0.434712 0.58083534 0.13962057 0.11297336 0.08188297 0.16040747 0.1505202
朝 -0.16726601 0.006600146 0.26532096 0.11456824 -0.019498575 0.18190266 0.19663578 0.020053793 0.08670972 0.11209678 -0.30919507 0.13234282 0.1348417 0.10335262 -0.30189735 -0.051341265 -0.053055227 -0.30488494 0.01875095 0.31148803 0.38679886 -0.38501927 0.1360179 -0.18010722 -0.13638681 0.106015466 0.39765874 0.37194464 0.558502 -0.055440564 -0.2174219 -0.22144565 -0.26934618 0.4796955 0.38908148 -0.45568687 -0.17587635 -0.15893303 0.5122355 -0.45014378 -0.08516903 -0.2310005 0.16830683 -0.48029783 0.30169752 0.073328435 0.13447885 -0.044881955 -0.03713719 -0.21509323
莫 -0.19835018 0.5454096 0.40197173 0.22085409 -0.015660651 -0.45200872 0.07325681 0.20487584 -0.08213367 0.09673846 -0.2760366 0.15998922 -0.3954545 -0.16941133 0.011555245 -0.38504222 0.1270796 -0.36200595 0.13901879 -0.055127922 0.39337483 -0.3939849 0.2636879 0.06260033 -0.4379035 0.045773648 0.45464423 -0.5085917 0.1933818 0.28316283 -0.08286574 -0.24054731 -0.027942834 0.3479344 0.30840686 -0.35871795 -0.21181929 -0.32935637 0.5021325 -0.5446381 0.29533604 -0.21660012 0.04355047 -0.52945817 0.4983136 0.15613262 0.21913254 -0.41444877 0.23654556 0.08739618
若 0.5220462 0.3788973 -0.1490798 -0.084409565 -0.2905082 0.48517165 0.50712234 0.096708 -0.426639 0.25211942 -0.45998305 -0.1086223 -0.43922013 0.17140272 -0.1037066 -0.13299921 0.20727852 -0.27540314 0.11650665 -0.06615705 0.16096276 -0.39468902 0.17201129 -0.044961575 -0.16618615 0.36628413 0.043978155 0.18087582 0.11956346 0.22025399 -0.14101024 -0.4269946 0.06550902 0.22058628 0.47373185 -0.39034346 0.1576975 0.21148485 0.516041 -0.35108912 -0.053529043 -0.016218474 -0.21191743 0.5184271 -0.277689 -0.32256103 0.17917977 -0.35226956 -0.22526792 -0.29513162
云 0.2776318 0.61129284 0.5500516 -0.051011484 -0.21135992 0.37157902 0.7313643 0.18251212 -0.5756956 -0.34133187 -0.54562545 -0.34087053 -0.6822157 -0.39636776 -0.12751907 0.0728611 0.038784984 0.019381182 -0.43735066 -0.1526628 -0.18038416 -0.629466 0.067468464 -0.21171805 -0.6023907 0.21560176 0.21609981 -0.86827534 0.796705 0.13081437 0.05941197 -0.36223787 0.42534068 -0.0363154 0.9800875 -0.83413094 -0.06529356 -0.100331955 -0.055852044 -0.76817006 -0.21568546 0.105172776 0.20407875 0.67795944 0.42096272 0.021953776 0.26245686 -0.5971844 0.028995108 -0.4037627
孙 0.38074693 -0.35333976 0.41389927 -0.3245788 0.036339045 0.2165698 0.42168453 -0.058352213 -0.30913192 -0.13537033 -0.56452745 -0.06573351 -0.46975878 0.0071827383 0.23054652 -0.17520979 0.11841609 -0.24410628 0.2930142 -0.088462345 0.26291776 -0.23520865 -0.11935444 -0.051158648 -0.19477333 0.06481119 0.026112512 -0.42221603 0.22870551 -0.060455162 -0.28275633 -0.24145764 0.08292419 0.31518418 0.18716101 -0.4621437 0.13387829 0.25227746 -0.25504062 -0.42051467 -0.014552288 0.066871 0.11659971 -0.27581272 -0.29959273 -0.07995317 0.00593575 -0.12102665 -0.17818807 -0.15552714
