6 100
学 -0.247738 -0.15156047 -0.108133055 0.0392785 0.15532336 -0.24416034 -0.09939785 0.024693241 0.19523366 -0.15536135 0.089240305 0.11478864 -0.06110595 0.03451432 -0.03181447 0.07257154 -0.0032870364 0.07733628 0.628712 -0.058075964 0.6437277 -0.22363271 -0.012715163 0.68731064 0.16932753 0.04435673 0.009560133 0.095946744 0.16600868 0.2754728 0.088132866 0.3155635 0.09687458 0.03487134 0.022131532 0.16690369 -0.13351072 0.016652022 -0.086401656 -0.02780299 -0.13749336 -0.0137031125 -0.44128722 0.10695331 -0.07760952 0.044460773 0.26026067 0.35964614 0.024513558 0.06085169 -0.057907067 -0.25110534 0.1981657 0.12963034 0.12324764 -0.11720784 0.17493518 -0.2670564 0.08397286 0.115621366 -0.23370221 0.09466242 -0.08413949 0.043978058 -0.20282698 -0.029291844 0.05056651 -0.036932167 -0.013756779 -0.040674176 0.016387865 -0.017123468 0.057617042 -0.013815859 -0.11260379 -0.09164605 0.09794317 -0.062260773 -0.02098897 -0.24679475 0.11573004 -0.03409556 -0.052203152 0.10934704 -0.02173444 -0.10485239 -0.20259856 0.024954943 -0.041007087 -0.1513547 0.5456327 -0.26620114 0.13051414 -0.104988776 0.029091746 -0.12094073 -0.0062895594 -0.06482999 -0.024164729 0.009724336
习 -0.14519995 -0.24996373 -0.122444004 -0.25516412 0.11559721 -0.32003903 -0.00066239183 -0.10497605 0.5646221 -0.124444835 0.076529235 0.034956146 -0.2074716 -0.12583907 -0.2407845 -0.0050894157 0.124913685 0.13685308 -0.8893996 0.18206394 0.36504897 -0.37863225 -0.08560332 0.48773697 0.2517214 0.081062205 0.032347366 0.08336787 0.045599855 -0.38713685 0.19822627 0.33364013 -0.20864186 -0.04642178 0.023009114 -0.055738393 0.031443417 0.13975598 -0.1562028 0.06081503 0.23550233 0.1929605 -0.5984019 -0.14776425 -0.05951508 0.11243887 0.6296952 0.17864425 -0.06815601 -0.13246956 -0.13004114 -0.2765461 0.25916028 0.34678772 0.21421722 -0.00012022686 0.08155121 -0.1488631 0.026568998 -0.014538842 -0.12092919 -0.041583855 -0.047834106 -0.08235059 -0.2249866 -0.19532123 0.1116556 0.09235465 0.286716 0.108580045 0.08977181 -0.061065447 -0.35153502 0.017202644 0.14201054 -0.092539795 0.17840487 -0.30385384 -0.13178696 -0.32092795 -0.16347158 -0.20657876 -0.26470375 0.18470839 0.0337765 -0.2518704 -0.01198303 0.056868058 0.011557432 -0.09705179 0.42522907 -0.24214612 -0.04254052 -0.13361605 -0.43610936 0.09200926 0.023741541 0.19599408 0.16546008 0.15396826
曰 -0.25281698 -0.03968598 -0.19465509 -0.18542424 -0.036976375 -0.31169865 0.14864063 -0.10381404 0.6828984 -0.17680067 0.04048203 -0.14109987 -0.09638455 -0.13371964 0.014759638 0.17015316 -0.42016667 0.13818854 0.68565357 0.013210177 0.575856 -0.42098516 -0.17257938 0.39770147 0.12751557 0.095091544 0.028202025 0.113419116 0.30955654 -0.2446826 0.10114364 0.27677572 -0.1811678 -0.14952868 -0.04521127 -0.18199234 -0.09045858 0.6758702 -0.04886498 -0.23295428 -0.19865537 0.017961994 -0.6543945 -0.2298994 0.02791211 -0.082639545 0.68213445 0.29345888 -0.15391386 -0.046618663 -0.08637912 -0.104841016 0.37815773 0.23239648 0.118140176 -0.141352 -0.07967415 -0.4149846 0.18470931 0.0077849953 -0.40372744 -0.13532628 0.06009922 0.3020563 -0.3795001 -0.28050914 0.028583357 0.11692377 0.30775195 -0.065451816 0.041688025 -0.09523674 -0.33767578 0.09730917 0.21028565 -0.21423897 0.13714351 -0.29369166 -0.19808796 -0.37816176 -0.0011659081 -0.17178534 -0.23842539 0.004708029 0.2010849 -0.20538059 -0.22161686 -0.0041106297 -0.09704695 -0.23911181 0.17494191 -0.09784772 0.15134102 0.21166372 -0.10094183 -0.17613077 0.10628359 -0.18290848 0.02121515 0.4513025
子 0.21689083 -0.55596435 0.06791379 -0.07823019 -0.035235804 0.1107905 -0.18436489 0.3437871 0.087920226 -0.1826477 -0.06336812 0.091337234 -0.283807 0.035042573 0.08923401 -0.14639546 -0.5144001 -0.07619513 0.63068765 -0.19732389 0.45485255 -0.058398284 0.38164943 0.2491798 -0.19409044 -0.27692223 0.2882231 -0.24049169 -0.17276317 0.3172094 0.39732704 0.3568563 0.10955535 0.38946205 -0.12691425 0.12160617 -0.06989812 0.3579689 -0.18666595 -0.32024267 0.053773575 0.111982234 -0.14007868 -0.20876792 0.07866946 0.048179895 0.59088403 0.20620896 0.18732645 0.027701154 0.15659204 0.2862774 -0.036903955 0.110934615 -0.16208987 -0.031693418 -0.05290498 -0.49741703 -0.022325376 0.028329242 -0.3693053 -0.063078664 0.11179686 0.12770365 -0.11193345 0.013059207 0.11405312 -0.115819834 -0.11545379 -0.14338149 -0.055823777 0.054405347 -0.035940047 -0.011039915 -0.05649624 0.0053181555 -0.14916228 0.29487684 0.30574068 0.17657028 0.12930936 0.11226204 0.37581727 0.4122164 -0.06602711 -0.081393555 -0.094324805 -0.29581723 0.008538304 -0.24167216 0.32966018 0.2768882 0.459914 -0.29326114 -0.30772743 -0.009242224 -0.086572155 -0.34161732 -0.012082 0.5942544
人 -0.24858408 -0.14139126 0.18584156 0.1814299 -0.049366895 0.0629358 -0.086829156 -0.0064969934 0.17621648 -0.20137507 0.0634989 -0.033943266 0.11616736 0.021764662 -0.041186444 0.063941725 -0.18055823 0.18455638 0.010169583 0.030750105 0.24462791 -0.26582384 0.05796211 -0.052221328 0.098536186 -0.01349615 0.06726639 0.01449503 0.08411396 0.19652075 0.012583168 0.19424984 -0.14409043 0.017323773 -0.061786167 0.053558763 0.12425695 0.12653627 -0.10133659 0.09801611 -0.05813078 0.10353313 -0.1698286 0.1384199 0.106284 -0.017366648 0.32479894 0.30835006 0.07056367 -0.11583569 0.08677881 -0.0061128954 -0.0820999 0.16794623 -0.20440832 0.019254213 0.03197878 -0.13396926 -0.05575636 0.00048956345 -0.2973155 0.045974895 0.10936515 0.0926154 -0.20263892 -0.099987686 -0.08240566 -0.027529966 0.09541768 -0.08736482 0.06219796 0.0372946 -0.06110898 0.06042194 -0.124525696 0.024348935 -0.0020722002 -0.080629855 0.019337468 -0.054256488 0.105931334 -0.028282916 -0.031255737 -0.07386007 0.0033597993 0.044288382 -0.005943697 -0.040603515 -0.0383267 -0.16244301 -0.024065955 0.11739747 0.3257951 -0.08044017 0.039400928 -0.036116477 0.10579491 0.04250694 0.14409104 -0.15936513
仁 -0.257354 -0.13901947 -0.016904794 0.11891636 0.025137195 -0.25833693 0.048472933 -0.1089642 0.10516366 0.08116671 0.06522201 0.0013450554 0.12267016 0.0017454787 0.10977241 -0.012228485 -0.14603272 0.03283052 0.033679783 -0.115965664 0.5643541 -0.38480654 0.0017336169 -0.0024796173 0.17444792 -0.06999855 0.13114974 0.06616328 0.033790532 0.33282632 0.21394978 0.3805267 -0.17077985 -0.10152353 0.02865887 0.13160929 0.17864278 -0.083668426 -0.21186946 0.051842038 -0.2137614 0.049579706 -0.16877297 0.29756176 0.04765662 0.015408771 0.51342857 0.3228567 0.14062345 -0.094728485 -0.07770948 0.11483112 0.07723917 0.029099789 0.116673484 -0.16231966 0.039612625 0.1778413 0.05019997 0.066871226 -0.22460124 -0.05057571 0.093322314 -0.11418986 0.103441074 -0.13541119 -0.045819726 0.111781016 -0.03427353 -0.04793872 0.013208197 -0.06400268 0.023096588 0.12327407 -0.01952417 -0.03731918 0.086585626 -0.11382752 -8.6782034e-05 -0.18091834 -0.10575534 -0.089369155 -0.14808574 -0.09991501 -0.018459188 -0.12421033 -0.11448625 -0.08561211 -0.13371807 -0.14439814 0.10885858 0.031326808 -0.026511407 -0.17725873 0.18401483 -0.20128576 0.028568316 0.07256706 -0.056948643 0.02722301
